%YAML:1.0
---
opencv_ml_svm:
   format: 3
   svmType: C_SVC
   kernel:
      type: LINEAR
   C: 3.1250000000000000e+02
   term_criteria: { iterations:100 }
   var_count: 50
   class_count: 2
   class_labels: !!opencv-matrix
      rows: 2
      cols: 1
      dt: i
      data: [ 0, 1 ]
   sv_total: 1
   support_vectors:
      - [ -1.55250139e+01, 1.52168977e+00, -1.07112875e+01,
          6.95253754e+00, 2.78914380e+00, -1.86283112e+00,
          2.84606457e+00, 4.86940813e+00, -3.30362606e+00,
          8.17238903e+00, -7.05628729e+00, -1.52973852e+01,
          -4.31944942e+00, 1.24215627e+00, 2.22288456e+01,
          1.11505938e+01, -2.88836360e+00, -1.01468363e+01,
          -1.23395348e+01, -3.83047915e+00, 1.28282452e+01,
          2.04293370e+00, 5.80187023e-01, -3.85153675e+00,
          4.62768602e+00, -1.13790464e+01, 7.50655937e+00,
          -7.88646078e+00, 7.08404016e+00, -2.15633035e+00,
          1.10197048e+01, -1.94463477e-01, 6.09334898e+00,
          -8.54530621e+00, -9.45284557e+00, -3.97325826e+00,
          -1.52241921e+00, 1.45408773e+01, -6.44603205e+00,
          7.58623743e+00, 1.10161018e+01, 3.43355489e+00,
          -1.52419806e+00, -8.03190804e+00, -2.42780900e+00,
          7.04141426e+00, -4.63010216e+00, 6.12625062e-01,
          -3.08388305e+00, 4.60036516e+00 ]
   uncompressed_sv_total: 58
   uncompressed_support_vectors:
      - [ 6.75675692e-03, 1.18243247e-02, 2.53378376e-02, 1.68918930e-02,
          2.36486495e-02, 3.20945941e-02, 1.01351356e-02, 3.37837846e-03,
          2.02702712e-02, 1.68918930e-02, 4.22297306e-02, 3.37837860e-02,
          1.52027030e-02, 6.92567602e-02, 1.01351356e-02, 1.68918930e-02,
          1.52027030e-02, 2.19594594e-02, 1.18243247e-02, 1.52027030e-02,
          8.44594650e-03, 4.89864871e-02, 5.06756781e-03, 1.18243247e-02,
          8.44594650e-03, 3.37837860e-02, 1.35135138e-02, 2.87162177e-02,
          1.18243247e-02, 2.19594594e-02, 1.68918930e-02, 6.75675692e-03,
          2.02702712e-02, 1.85810812e-02, 1.01351356e-02, 1.01351356e-02,
          1.85810812e-02, 5.06756781e-03, 2.19594594e-02, 2.36486495e-02,
          1.35135138e-02, 6.41891882e-02, 1.18243247e-02, 3.04054059e-02,
          1.85810812e-02, 1.68918930e-02, 4.05405425e-02, 1.68918930e-02,
          1.52027030e-02, 8.44594650e-03 ]
      - [ 3.40522151e-03, 7.94551708e-03, 9.08059068e-03, 1.13507379e-02,
          1.24858124e-02, 1.70261078e-02, 6.35641366e-02, 2.95119192e-02,
          1.13507379e-02, 1.36208860e-02, 3.97275835e-02, 1.47559596e-02,
          1.58910342e-02, 3.17820683e-02, 7.94551708e-03, 2.04313286e-02,
          1.58910342e-02, 1.24858124e-02, 2.27014767e-03, 5.67536894e-03,
          4.54029534e-03, 3.51872891e-02, 1.24858124e-02, 1.47559596e-02,
          2.27014758e-02, 5.90238385e-02, 6.81044301e-03, 1.58910342e-02,
          6.81044301e-03, 1.36208860e-02, 6.81044301e-03, 4.54029534e-03,
          9.08059068e-03, 8.85357559e-02, 1.81611814e-02, 1.58910342e-02,
          1.02156643e-02, 2.15664022e-02, 1.47559596e-02, 1.47559596e-02,
          2.61066984e-02, 1.15777530e-01, 5.67536894e-03, 1.92962550e-02,
          1.36208860e-02, 4.54029534e-03, 2.61066984e-02, 2.38365512e-02,
          1.70261078e-02, 5.67536894e-03 ]
      - [ 0., 3.10679618e-02, 5.82524296e-03, 3.68932039e-02,
          1.55339809e-02, 1.94174761e-03, 5.04854396e-02, 4.27184477e-02,
          4.66019437e-02, 2.33009718e-02, 2.71844659e-02, 1.35922330e-02,
          9.70873795e-03, 1.94174759e-02, 1.55339809e-02, 9.70873795e-03,
          1.35922330e-02, 5.82524296e-03, 3.88349523e-03, 7.76699046e-03,
          3.88349523e-03, 1.74757279e-02, 0., 1.35922330e-02,
          5.82524277e-02, 1.94174759e-02, 1.94174761e-03, 5.82524296e-03,
          5.82524296e-03, 1.16504859e-02, 7.76699046e-03, 1.16504859e-02,
          5.82524296e-03, 2.31067970e-01, 3.30097079e-02, 1.16504859e-02,
          7.76699046e-03, 1.94174761e-03, 9.70873795e-03, 5.82524296e-03,
          2.52427198e-02, 5.63106798e-02, 7.76699046e-03, 1.16504859e-02,
          7.76699046e-03, 1.94174759e-02, 3.88349523e-03, 1.74757279e-02,
          1.94174761e-03, 3.88349523e-03 ]
      - [ 3.80589906e-03, 1.04662227e-02, 2.18839198e-02, 1.14176972e-02,
          1.80780198e-02, 1.64605141e-01, 1.71265453e-02, 1.90294944e-02,
          1.61750708e-02, 7.61179812e-03, 1.04662227e-02, 8.56327266e-03,
          1.61750708e-02, 6.66032359e-03, 1.61750708e-02, 2.28353944e-02,
          1.90294944e-02, 1.90294944e-02, 8.56327266e-03, 1.61750708e-02,
          9.51474719e-03, 2.85442430e-03, 1.04662227e-02, 1.33206472e-02,
          1.71265453e-02, 1.61750708e-02, 1.33206472e-02, 1.23691717e-02,
          1.14176972e-02, 1.61750708e-02, 1.04662227e-02, 6.66032359e-03,
          1.80780198e-02, 8.75356793e-02, 1.90294944e-02, 4.37678397e-02,
          1.33206472e-02, 1.04662227e-02, 1.61750708e-02, 1.23691717e-02,
          9.51474719e-03, 9.51474756e-02, 7.61179812e-03, 1.80780198e-02,
          1.52235962e-02, 1.14176972e-02, 1.23691717e-02, 1.04662227e-02,
          8.56327266e-03, 1.71265453e-02 ]
      - [ 5.61797759e-03, 3.74531839e-03, 3.55805233e-02, 2.80898884e-02,
          2.62172297e-02, 5.24344593e-02, 9.36329551e-03, 5.61797759e-03,
          2.62172297e-02, 1.12359552e-02, 2.05992516e-02, 3.74531839e-03,
          1.31086148e-02, 9.17603001e-02, 3.74531839e-03, 7.49063678e-03,
          2.05992516e-02, 1.12359552e-02, 1.87265920e-03, 5.61797759e-03,
          9.36329551e-03, 8.80149826e-02, 9.36329551e-03, 2.05992516e-02,
          1.68539323e-02, 3.74531820e-02, 0., 1.12359552e-02,
          5.61797759e-03, 4.11985032e-02, 1.31086148e-02, 7.49063678e-03,
          2.62172297e-02, 5.05617969e-02, 1.87265910e-02, 7.67790303e-02,
          2.05992516e-02, 3.74531839e-03, 1.12359552e-02, 4.11985032e-02,
          1.87265920e-03, 2.62172297e-02, 7.49063678e-03, 1.31086148e-02,
          3.74531839e-03, 0., 2.80898884e-02, 9.36329551e-03,
          1.12359552e-02, 5.61797759e-03 ]
      - [ 1.36054419e-02, 6.80272095e-03, 3.40136066e-02, 1.36054419e-02,
          2.04081628e-02, 0., 9.52380896e-02, 1.29251704e-01,
          1.36054419e-02, 6.80272095e-03, 3.40136066e-02, 5.44217676e-02,
          6.80272095e-03, 6.80272095e-03, 1.36054419e-02, 4.76190448e-02,
          6.12244904e-02, 2.72108838e-02, 2.04081628e-02, 6.80272095e-03,
          6.80272095e-03, 6.80272095e-03, 1.36054419e-02, 1.36054419e-02,
          0., 2.72108838e-02, 2.72108838e-02, 6.80272095e-03,
          6.80272095e-03, 5.44217676e-02, 6.80272095e-03, 1.36054419e-02,
          2.04081628e-02, 0., 6.80272095e-03, 0., 6.80272095e-03, 0.,
          4.76190448e-02, 1.36054419e-02, 0., 0., 2.72108838e-02,
          2.72108838e-02, 2.04081628e-02, 2.04081628e-02, 6.80272095e-03,
          0., 0., 6.80272095e-03 ]
      - [ 5.31914867e-02, 1.59574468e-02, 1.59574468e-02, 5.31914877e-03,
          3.19148935e-02, 5.31914877e-03, 1.59574468e-02, 3.19148935e-02,
          5.31914877e-03, 1.06382975e-02, 2.12765951e-02, 5.31914877e-03,
          5.85106350e-02, 1.06382975e-02, 4.25531901e-02, 1.06382975e-02,
          0., 3.19148935e-02, 3.19148935e-02, 5.31914877e-03,
          5.31914877e-03, 0., 4.78723384e-02, 2.12765951e-02,
          5.31914877e-03, 1.06382975e-02, 2.12765951e-02, 6.38297871e-02,
          5.31914877e-03, 2.12765951e-02, 1.06382975e-02, 4.78723384e-02,
          2.12765951e-02, 4.78723384e-02, 0., 5.31914877e-03,
          1.06382975e-02, 1.06382975e-02, 1.06382975e-02, 1.06382975e-02,
          2.65957434e-02, 0., 3.19148935e-02, 0., 5.85106350e-02,
          1.06382975e-02, 2.12765951e-02, 3.19148935e-02, 2.12765951e-02,
          1.06382975e-02 ]
      - [ 1.34228189e-02, 2.68456377e-02, 1.34228189e-02, 0.,
          6.71140943e-03, 8.05369169e-02, 0., 0., 6.71140943e-03,
          1.34228189e-02, 0., 0., 4.69798669e-02, 6.71140943e-03,
          1.34228189e-02, 2.01342292e-02, 0., 6.71140943e-03,
          3.35570462e-02, 2.68456377e-02, 3.35570462e-02, 2.01342292e-02,
          4.02684584e-02, 4.69798669e-02, 0., 6.71140943e-03,
          6.71140943e-03, 8.05369169e-02, 2.01342292e-02, 1.34228189e-02,
          0., 6.71140924e-02, 0., 0., 0., 2.68456377e-02, 0.,
          2.68456377e-02, 2.01342292e-02, 3.35570462e-02, 1.34228189e-02,
          0., 4.69798669e-02, 2.01342292e-02, 5.36912754e-02,
          1.34228189e-02, 6.71140943e-03, 1.34228189e-02, 6.04026839e-02,
          1.34228189e-02 ]
      - [ 1.71428565e-02, 4.57142852e-02, 3.71428579e-02, 1.42857144e-02,
          1.71428565e-02, 2.28571426e-02, 1.14285713e-02, 8.57142825e-03,
          1.71428565e-02, 1.42857144e-02, 2.28571426e-02, 1.71428565e-02,
          5.71428575e-02, 1.99999996e-02, 1.14285713e-02, 3.71428579e-02,
          4.28571440e-02, 2.57142857e-02, 3.42857130e-02, 3.71428579e-02,
          1.14285713e-02, 8.57142825e-03, 2.28571426e-02, 2.85714287e-02,
          8.57142825e-03, 1.99999996e-02, 1.71428565e-02, 2.28571426e-02,
          1.71428565e-02, 1.14285713e-02, 1.42857144e-02, 1.42857144e-02,
          1.99999996e-02, 2.85714283e-03, 2.85714283e-03, 3.71428579e-02,
          1.71428565e-02, 8.57142825e-03, 2.28571426e-02, 1.99999996e-02,
          5.71428565e-03, 5.71428565e-03, 5.71428565e-03, 1.42857144e-02,
          3.71428579e-02, 1.99999996e-02, 1.14285713e-02, 1.14285713e-02,
          1.71428565e-02, 3.14285718e-02 ]
      - [ 8.33333358e-02, 5.95238097e-02, 1.19047621e-02, 0., 0.,
          4.76190485e-02, 0., 0., 0., 1.19047621e-02, 0., 0.,
          1.07142858e-01, 0., 5.95238097e-02, 0., 0., 0., 8.33333358e-02,
          1.19047621e-02, 1.19047621e-02, 0., 2.38095243e-02,
          4.76190485e-02, 0., 0., 1.19047621e-02, 1.19047621e-02, 0.,
          1.19047621e-02, 3.57142873e-02, 0., 1.19047621e-02, 0., 0.,
          2.38095243e-02, 0., 2.38095243e-02, 0., 3.57142873e-02,
          1.19047621e-02, 0., 1.19047621e-02, 2.38095243e-02,
          1.30952388e-01, 4.76190485e-02, 0., 0., 3.57142873e-02,
          1.19047621e-02 ]
      - [ 5.69620281e-02, 4.43037972e-02, 0., 0., 1.26582282e-02,
          1.32911399e-01, 0., 0., 0., 5.69620281e-02, 0., 0.,
          4.43037972e-02, 6.32911408e-03, 1.26582282e-02, 0., 0.,
          6.32911408e-03, 5.69620281e-02, 6.32911408e-03, 3.16455700e-02,
          6.32911408e-03, 3.16455700e-02, 3.79746854e-02, 6.32911408e-03,
          6.32911408e-03, 1.26582282e-02, 1.89873427e-02, 1.89873427e-02,
          1.26582282e-02, 1.89873427e-02, 1.26582282e-02, 1.89873427e-02,
          0., 0., 4.43037972e-02, 6.32911408e-03, 3.79746854e-02,
          6.32911408e-03, 3.79746854e-02, 3.16455700e-02, 0.,
          2.53164563e-02, 2.53164563e-02, 2.53164563e-02, 0.,
          6.32911408e-03, 3.79746854e-02, 4.43037972e-02, 0. ]
      - [ 7.10227294e-03, 8.52272753e-03, 6.67613670e-02, 5.68181835e-03,
          4.26136367e-02, 0., 8.52272753e-03, 2.41477285e-02,
          1.27840918e-02, 1.70454551e-02, 5.68181835e-03, 7.10227294e-03,
          9.94318165e-03, 5.11363670e-02, 2.55681835e-02, 2.13068184e-02,
          8.52272734e-02, 7.52840936e-02, 9.94318165e-03, 1.42045459e-02,
          2.84090918e-03, 9.94318165e-03, 1.70454551e-02, 1.56250000e-02,
          2.84090918e-03, 3.26704569e-02, 1.84659101e-02, 2.41477285e-02,
          1.56250000e-02, 5.53977303e-02, 1.84659101e-02, 2.55681835e-02,
          2.98295468e-02, 2.84090918e-03, 7.10227294e-03, 2.84090918e-03,
          3.69318202e-02, 2.84090918e-03, 2.41477285e-02, 3.69318202e-02,
          1.42045459e-03, 0., 1.98863633e-02, 2.13068184e-02,
          1.42045459e-02, 1.42045459e-02, 4.26136376e-03, 1.84659101e-02,
          9.94318165e-03, 1.56250000e-02 ]
      - [ 1.29870130e-02, 8.65800865e-03, 2.16450207e-02, 8.65800865e-03,
          0., 8.65800828e-02, 1.29870130e-02, 4.32900432e-03,
          8.65800865e-03, 4.76190485e-02, 1.29870130e-02, 0.,
          1.38528138e-01, 0., 2.16450207e-02, 0., 2.16450207e-02, 0.,
          1.73160173e-02, 1.29870130e-02, 8.65800865e-03, 4.32900432e-03,
          1.73160173e-02, 1.73160173e-02, 4.32900432e-03, 0.,
          4.32900432e-03, 4.76190485e-02, 8.65800865e-03, 8.65800865e-03,
          1.29870130e-02, 3.89610380e-02, 8.65800865e-03, 0.,
          4.32900432e-03, 5.19480519e-02, 4.32900432e-03, 2.59740259e-02,
          4.32900432e-03, 1.73160173e-02, 1.73160173e-02, 0.,
          1.73160173e-02, 0., 1.03896104e-01, 8.65800865e-03,
          2.16450207e-02, 3.03030312e-02, 5.19480519e-02, 2.16450207e-02 ]
      - [ 3.43750007e-02, 2.50000004e-02, 9.37500037e-03, 3.12500005e-03,
          2.18749996e-02, 9.37500037e-03, 6.25000009e-03, 6.25000009e-03,
          2.18749996e-02, 4.37499993e-02, 6.25000009e-03, 3.12500000e-02,
          2.50000004e-02, 1.87500007e-02, 3.12500005e-03, 1.87500007e-02,
          3.12500005e-03, 9.37500037e-03, 3.12500000e-02, 6.25000009e-03,
          9.37500037e-03, 1.87500007e-02, 2.18749996e-02, 5.00000007e-02,
          9.37500037e-03, 2.18749996e-02, 1.25000002e-02, 1.56250000e-02,
          2.18749996e-02, 6.25000009e-03, 9.37500037e-03, 4.06250022e-02,
          9.37500037e-03, 3.75000015e-02, 3.75000015e-02, 6.25000009e-03,
          3.12500005e-03, 2.18749996e-02, 1.56250000e-02, 3.75000015e-02,
          2.18749996e-02, 1.87500007e-02, 4.68750000e-02, 1.56250000e-02,
          6.87500015e-02, 9.37500037e-03, 1.25000002e-02, 3.75000015e-02,
          2.18749996e-02, 6.25000009e-03 ]
      - [ 2.38095261e-02, 7.14285746e-02, 3.96825410e-02, 1.58730168e-02,
          7.93650839e-03, 0., 2.38095261e-02, 7.93650839e-03,
          2.38095261e-02, 0., 0., 4.76190522e-02, 1.42857149e-01, 0., 0.,
          1.58730168e-02, 3.17460336e-02, 0., 7.93650839e-03,
          7.93650839e-03, 0., 0., 7.93650839e-03, 7.93650839e-03,
          7.93650839e-03, 2.38095261e-02, 3.17460336e-02, 0.,
          1.58730168e-02, 2.38095261e-02, 3.96825410e-02, 7.93650839e-03,
          7.93650839e-03, 1.58730168e-02, 1.58730168e-02, 7.93650839e-03,
          1.58730168e-02, 0., 1.58730168e-02, 0., 0., 0., 0., 0.,
          2.22222239e-01, 7.93650839e-03, 7.93650839e-03, 0.,
          2.38095261e-02, 2.38095261e-02 ]
      - [ 5.10204071e-03, 6.63265288e-02, 4.59183678e-02, 1.53061226e-02,
          1.02040814e-02, 0., 2.04081628e-02, 1.53061226e-02,
          5.10204071e-03, 0., 3.06122452e-02, 5.10204071e-03,
          1.53061226e-02, 1.53061226e-02, 1.02040814e-02, 3.57142836e-02,
          7.65306130e-02, 2.04081628e-02, 0., 2.55102031e-02,
          2.04081628e-02, 1.53061226e-02, 1.02040814e-02, 1.02040814e-02,
          5.10204071e-03, 5.61224483e-02, 2.04081628e-02, 2.55102031e-02,
          0., 9.18367356e-02, 3.06122452e-02, 1.02040814e-02,
          2.04081628e-02, 1.02040814e-02, 2.04081628e-02, 0.,
          4.08163257e-02, 0., 4.08163257e-02, 5.10204071e-03,
          5.10204071e-03, 1.02040814e-02, 1.53061226e-02, 1.02040814e-02,
          4.59183678e-02, 5.10204071e-03, 5.10204071e-03, 5.10204071e-03,
          1.02040814e-02, 3.57142836e-02 ]
      - [ 0., 0., 3.33333351e-02, 7.14285746e-02, 2.38095243e-02, 0.,
          7.14285746e-02, 5.71428612e-02, 3.33333351e-02, 4.76190494e-03,
          1.90476198e-02, 1.90476198e-02, 4.76190494e-03, 4.76190494e-03,
          0., 2.38095243e-02, 6.19047657e-02, 3.80952395e-02, 0.,
          4.76190494e-03, 0., 0., 1.42857153e-02, 1.42857153e-02,
          2.85714306e-02, 3.33333351e-02, 9.52380989e-03, 0., 0.,
          4.76190485e-02, 4.76190485e-02, 9.52380989e-03, 2.38095243e-02,
          9.52380989e-03, 3.80952395e-02, 0., 9.52380970e-02, 0.,
          4.28571440e-02, 0., 0., 1.90476198e-02, 1.42857153e-02,
          4.28571440e-02, 0., 9.52380989e-03, 4.76190494e-03,
          4.76190494e-03, 0., 1.90476198e-02 ]
      - [ 5.55555569e-03, 5.55555569e-03, 2.77777780e-02, 1.11111114e-02,
          1.11111114e-02, 0., 9.44444463e-02, 4.44444455e-02,
          3.33333351e-02, 0., 2.22222228e-02, 3.88888903e-02,
          2.22222228e-02, 0., 5.55555569e-03, 3.33333351e-02,
          6.11111112e-02, 6.66666701e-02, 1.11111114e-02, 3.33333351e-02,
          5.55555569e-03, 0., 5.55555569e-03, 0., 2.77777780e-02,
          1.11111114e-02, 3.33333351e-02, 1.11111114e-02, 5.55555569e-03,
          1.66666675e-02, 6.66666701e-02, 2.22222228e-02, 1.66666675e-02,
          0., 3.33333351e-02, 1.11111114e-02, 0., 1.11111114e-02,
          3.33333351e-02, 0., 1.11111114e-02, 2.22222228e-02,
          5.55555569e-03, 5.55555569e-03, 2.77777780e-02, 4.44444455e-02,
          2.77777780e-02, 0., 5.55555569e-03, 1.11111114e-02 ]
      - [ 3.68852429e-02, 1.22950813e-02, 4.09836043e-03, 1.22950813e-02,
          8.19672085e-03, 4.09836043e-03, 2.45901626e-02, 7.37704858e-02,
          1.22950813e-02, 4.09836043e-03, 4.09836024e-02, 2.45901626e-02,
          1.06557369e-01, 4.09836043e-03, 1.63934417e-02, 4.09836043e-03,
          0., 8.19672085e-03, 2.45901626e-02, 3.27868834e-02,
          4.09836043e-03, 0., 2.45901626e-02, 1.63934417e-02,
          1.63934417e-02, 0., 1.63934417e-02, 5.32786846e-02, 0.,
          4.09836043e-03, 4.09836024e-02, 8.19672085e-03, 8.19672085e-03,
          4.09836043e-03, 3.27868834e-02, 4.50819656e-02, 0.,
          2.04918012e-02, 8.19672085e-03, 8.19672085e-03, 2.04918012e-02,
          4.09836043e-03, 8.19672085e-03, 4.09836043e-03, 8.60655680e-02,
          2.86885239e-02, 2.45901626e-02, 8.19672085e-03, 3.27868834e-02,
          1.63934417e-02 ]
      - [ 8.51063803e-02, 3.54609936e-02, 2.12765951e-02, 7.09219836e-03,
          1.41843967e-02, 1.41843967e-02, 1.41843967e-02, 3.54609936e-02,
          1.41843967e-02, 2.12765951e-02, 1.41843967e-02, 0., 0., 0.,
          2.12765951e-02, 2.12765951e-02, 2.12765951e-02, 2.12765951e-02,
          4.25531901e-02, 4.25531901e-02, 2.83687934e-02, 0.,
          3.54609936e-02, 4.96453866e-02, 3.54609936e-02, 1.41843967e-02,
          1.41843967e-02, 1.41843967e-02, 0., 2.12765951e-02,
          3.54609936e-02, 0., 7.09219836e-03, 1.41843967e-02,
          5.67375869e-02, 1.41843967e-02, 7.09219836e-03, 2.12765951e-02,
          1.41843967e-02, 2.12765951e-02, 2.12765951e-02, 1.41843967e-02,
          1.41843967e-02, 0., 3.54609936e-02, 2.12765951e-02,
          1.41843967e-02, 7.09219836e-03, 1.41843967e-02, 7.09219836e-03 ]
      - [ 6.86274543e-02, 5.88235334e-02, 9.80392192e-03, 9.80392192e-03,
          0., 4.90196086e-02, 5.88235334e-02, 1.96078438e-02,
          9.80392192e-03, 9.80392192e-03, 5.88235334e-02, 9.80392192e-03,
          3.92156877e-02, 0., 9.80392192e-03, 9.80392192e-03,
          1.96078438e-02, 1.96078438e-02, 3.92156877e-02, 0.,
          1.96078438e-02, 0., 3.92156877e-02, 3.92156877e-02,
          1.96078438e-02, 0., 0., 0., 0., 0., 1.96078438e-02, 0.,
          3.92156877e-02, 0., 0., 4.90196086e-02, 1.96078438e-02,
          2.94117667e-02, 9.80392192e-03, 1.96078438e-02, 9.80392192e-03,
          9.80392192e-03, 9.80392192e-03, 9.80392192e-03, 1.96078438e-02,
          4.90196086e-02, 9.80392192e-03, 1.96078438e-02, 1.96078438e-02,
          3.92156877e-02 ]
      - [ 7.48898685e-02, 0., 3.96475755e-02, 2.64317170e-02,
          1.76211447e-02, 0., 8.81057233e-03, 8.81057233e-03,
          1.32158585e-02, 4.40528616e-03, 0., 4.40528616e-03,
          2.20264308e-02, 8.81057233e-03, 8.81057233e-03, 8.81057233e-03,
          1.32158585e-02, 1.76211447e-02, 7.92951509e-02, 7.92951509e-02,
          1.76211447e-02, 0., 2.20264308e-02, 2.64317170e-02,
          2.20264308e-02, 0., 2.64317170e-02, 1.32158585e-02,
          1.32158585e-02, 8.81057233e-03, 9.69162956e-02, 1.76211447e-02,
          2.64317170e-02, 0., 1.32158585e-02, 2.20264308e-02,
          4.40528616e-03, 4.40528616e-03, 4.40528616e-03, 1.76211447e-02,
          1.32158585e-02, 8.81057233e-03, 2.20264308e-02, 4.40528616e-03,
          3.08370031e-02, 3.52422893e-02, 4.40528616e-03, 8.81057233e-03,
          4.40528616e-02, 3.52422893e-02 ]
      - [ 1.56250000e-02, 1.56250000e-02, 7.81250000e-03, 7.81250000e-03,
          7.81250000e-03, 0., 0., 3.12500000e-02, 1.56250000e-02,
          3.12500000e-02, 0., 7.81250000e-03, 7.03125000e-02, 0., 0.,
          2.34375000e-02, 0., 0., 3.90625000e-02, 3.90625000e-02, 0., 0.,
          2.34375000e-02, 3.90625000e-02, 7.81250000e-03, 0.,
          4.68750000e-02, 0., 1.56250000e-02, 7.81250000e-03,
          7.03125000e-02, 3.90625000e-02, 3.90625000e-02, 1.56250000e-02,
          7.81250000e-03, 3.12500000e-02, 1.56250000e-02, 7.81250000e-03,
          1.56250000e-02, 1.56250000e-02, 7.81250000e-03, 0.,
          3.90625000e-02, 0., 6.25000000e-02, 7.81250000e-03, 0.,
          1.56250000e-02, 1.25000000e-01, 3.12500000e-02 ]
      - [ 3.55987065e-02, 1.94174759e-02, 6.47249212e-03, 1.29449842e-02,
          2.26537231e-02, 4.20711972e-02, 2.58899685e-02, 1.94174759e-02,
          9.70873795e-03, 9.70873795e-03, 6.47249212e-03, 6.47249212e-03,
          7.76699036e-02, 3.23624606e-03, 2.91262139e-02, 9.70873795e-03,
          6.47249212e-03, 1.29449842e-02, 5.82524277e-02, 4.20711972e-02,
          1.29449842e-02, 0., 6.47249212e-03, 2.91262139e-02,
          3.23624606e-03, 6.47249212e-03, 1.61812305e-02, 2.58899685e-02,
          9.70873795e-03, 1.29449842e-02, 3.23624611e-02, 9.70873795e-03,
          1.29449842e-02, 9.70873795e-03, 9.70873795e-03, 1.29449842e-02,
          9.70873795e-03, 3.23624606e-03, 3.88349518e-02, 2.58899685e-02,
          3.23624606e-03, 0., 1.29449842e-02, 9.70873795e-03,
          1.22977354e-01, 3.23624611e-02, 1.29449842e-02, 9.70873795e-03,
          3.55987065e-02, 1.61812305e-02 ]
      - [ 6.38297871e-02, 1.59574468e-02, 1.06382975e-02, 2.12765951e-02,
          1.06382975e-02, 0., 4.25531901e-02, 4.78723384e-02,
          1.59574468e-02, 5.31914877e-03, 2.65957434e-02, 5.31914877e-03,
          1.11702122e-01, 0., 3.72340418e-02, 1.06382975e-02,
          1.59574468e-02, 1.59574468e-02, 6.91489354e-02, 2.12765951e-02,
          1.06382975e-02, 0., 5.31914877e-03, 0., 1.59574468e-02,
          5.31914877e-03, 2.12765951e-02, 1.59574468e-02, 1.06382975e-02,
          5.31914877e-03, 2.65957434e-02, 1.06382975e-02, 1.06382975e-02,
          1.59574468e-02, 5.31914877e-03, 5.31914877e-03, 0.,
          1.59574468e-02, 0., 0., 1.06382975e-02, 0., 5.31914877e-03,
          5.31914877e-03, 1.54255316e-01, 1.59574468e-02, 0.,
          1.06382975e-02, 2.12765951e-02, 4.78723384e-02 ]
      - [ 4.34782617e-02, 2.71739140e-02, 1.08695654e-02, 0.,
          5.43478271e-03, 1.19565219e-01, 2.17391308e-02, 1.08695654e-02,
          0., 5.43478271e-03, 5.43478271e-03, 1.08695654e-02,
          3.80434804e-02, 0., 1.08695654e-02, 5.43478271e-03, 0.,
          5.43478271e-03, 1.08695654e-02, 2.17391308e-02, 2.71739140e-02,
          0., 7.06521720e-02, 4.89130430e-02, 1.63043477e-02, 0.,
          1.08695654e-02, 2.17391308e-02, 1.63043477e-02, 1.08695654e-02,
          2.17391308e-02, 1.63043477e-02, 5.43478271e-03, 2.17391308e-02,
          2.17391308e-02, 2.71739140e-02, 0., 1.63043477e-02,
          5.43478271e-03, 2.71739140e-02, 1.08695654e-02, 0.,
          1.08695654e-02, 5.43478271e-03, 1.08695656e-01, 1.08695654e-02,
          4.89130430e-02, 3.80434804e-02, 1.08695654e-02, 1.63043477e-02 ]
      - [ 4.34782617e-02, 4.89130430e-02, 5.43478271e-03, 0.,
          5.43478271e-03, 1.08695654e-02, 0., 0., 0., 2.17391308e-02,
          1.63043477e-02, 0., 8.15217420e-02, 0., 3.26086953e-02, 0.,
          1.08695654e-02, 5.43478271e-03, 2.71739140e-02, 0.,
          5.43478271e-03, 1.08695654e-02, 1.63043477e-02, 1.08695654e-02,
          2.17391308e-02, 1.08695654e-02, 2.17391308e-02, 7.06521720e-02,
          1.08695654e-02, 0., 0., 2.71739140e-02, 5.43478271e-03,
          2.71739140e-02, 5.43478271e-03, 4.89130430e-02, 5.43478271e-03,
          2.71739140e-02, 0., 1.63043477e-02, 2.71739140e-02, 0.,
          3.26086953e-02, 0., 1.30434781e-01, 3.26086953e-02,
          1.63043477e-02, 1.08695654e-02, 8.15217420e-02, 1.63043477e-02 ]
      - [ 1.21028740e-02, 2.26928890e-02, 1.96671709e-02, 3.02571850e-03,
          1.81543119e-02, 8.01815391e-02, 1.51285920e-02, 2.57186070e-02,
          9.07715596e-03, 1.96671709e-02, 3.32829021e-02, 2.26928890e-02,
          9.07715596e-03, 1.05900150e-02, 9.07715596e-03, 1.66414510e-02,
          1.81543119e-02, 2.26928890e-02, 7.56429601e-03, 1.51285920e-02,
          1.36157330e-02, 3.02571850e-03, 1.36157330e-02, 2.57186070e-02,
          5.44629321e-02, 6.05143700e-03, 9.07715596e-03, 3.02571841e-02,
          1.81543119e-02, 1.66414510e-02, 1.66414510e-02, 1.36157330e-02,
          2.57186070e-02, 6.05143700e-03, 5.44629321e-02, 5.74886501e-02,
          1.51285920e-02, 4.53857798e-03, 1.66414510e-02, 3.02571841e-02,
          3.02571850e-03, 1.51285925e-03, 1.96671709e-02, 2.11800300e-02,
          1.05900150e-02, 1.36157330e-02, 6.95915222e-02, 1.81543119e-02,
          1.05900150e-02, 1.05900150e-02 ]
      - [ 2.57731955e-02, 1.18556701e-01, 0., 5.15463902e-03,
          5.15463902e-03, 2.06185561e-02, 5.15463902e-03, 0., 0.,
          1.54639166e-02, 5.15463902e-03, 5.15463902e-03, 9.79381427e-02,
          5.15463902e-03, 2.57731955e-02, 1.03092780e-02, 1.03092780e-02,
          0., 1.54639166e-02, 1.03092780e-02, 4.12371121e-02,
          5.15463902e-03, 0., 5.15463902e-03, 5.15463902e-03,
          3.09278332e-02, 2.06185561e-02, 6.18556663e-02, 5.15463902e-03,
          1.54639166e-02, 0., 1.03092780e-02, 5.15463902e-03,
          2.57731955e-02, 5.15463902e-03, 6.70103058e-02, 1.03092780e-02,
          2.06185561e-02, 5.15463902e-03, 3.60824727e-02, 0.,
          1.03092780e-02, 1.54639166e-02, 2.57731955e-02, 1.08247422e-01,
          2.06185561e-02, 1.54639166e-02, 5.15463902e-03, 2.57731955e-02,
          1.54639166e-02 ]
      - [ 3.28947380e-02, 5.92105277e-02, 0., 6.57894742e-03,
          6.57894742e-03, 1.97368413e-02, 9.86842141e-02, 3.28947380e-02,
          6.57894742e-03, 4.60526310e-02, 0., 1.97368413e-02,
          1.18421055e-01, 0., 1.31578948e-02, 0., 0., 0., 2.63157897e-02,
          6.57894742e-03, 2.63157897e-02, 0., 1.31578948e-02,
          1.31578948e-02, 1.97368413e-02, 0., 6.57894742e-03,
          5.92105277e-02, 0., 6.57894742e-03, 6.57894742e-03,
          1.31578948e-02, 6.57894742e-03, 1.97368413e-02, 1.31578948e-02,
          1.31578948e-02, 0., 6.57894742e-03, 6.57894742e-03,
          1.97368413e-02, 0., 1.31578948e-02, 1.97368413e-02, 0.,
          9.86842141e-02, 2.63157897e-02, 6.57894742e-03, 5.26315793e-02,
          1.97368413e-02, 1.97368413e-02 ]
      - [ 2.64705885e-02, 8.82352982e-03, 5.88235306e-03, 0.,
          2.35294122e-02, 8.52941200e-02, 1.76470596e-02, 2.05882359e-02,
          0., 1.47058824e-02, 2.35294122e-02, 1.76470596e-02,
          5.88235306e-03, 1.76470596e-02, 8.82352982e-03, 8.82352982e-03,
          2.94117648e-02, 2.05882359e-02, 5.88235306e-03, 1.76470596e-02,
          2.05882359e-02, 0., 2.05882359e-02, 1.17647061e-02,
          1.76470596e-02, 5.88235306e-03, 2.94117653e-03, 2.35294122e-02,
          1.17647061e-02, 2.35294122e-02, 1.47058824e-02, 5.88235306e-03,
          8.82352982e-03, 2.94117653e-03, 1.76470596e-02, 1.44117653e-01,
          2.35294122e-02, 2.94117648e-02, 1.47058824e-02, 3.23529430e-02,
          2.64705885e-02, 5.88235306e-03, 2.94117653e-03, 3.23529430e-02,
          1.76470596e-02, 2.35294122e-02, 4.70588244e-02, 2.64705885e-02,
          1.76470596e-02, 8.82352982e-03 ]
      - [ 1.70068033e-02, 0., 1.02040814e-02, 6.80272095e-03,
          6.80272095e-03, 1.66666657e-01, 6.80272095e-03, 0.,
          6.80272095e-03, 3.40136066e-02, 2.04081628e-02, 6.80272095e-03,
          1.02040814e-02, 2.04081628e-02, 1.02040814e-02, 1.70068033e-02,
          1.70068033e-02, 3.40136047e-03, 1.02040814e-02, 1.36054419e-02,
          1.36054419e-02, 4.76190448e-02, 1.02040814e-02, 2.04081628e-02,
          2.04081628e-02, 1.36054419e-02, 0., 3.40136066e-02,
          1.70068033e-02, 1.70068033e-02, 2.04081628e-02, 2.38095224e-02,
          2.38095224e-02, 1.70068033e-02, 1.36054419e-02, 8.50340128e-02,
          0., 6.80272095e-03, 1.70068033e-02, 5.10204062e-02,
          6.80272095e-03, 1.36054419e-02, 3.06122452e-02, 1.02040814e-02,
          3.40136047e-03, 1.36054419e-02, 4.42176871e-02, 2.72108838e-02,
          1.36054419e-02, 0. ]
      - [ 0., 1.11940298e-02, 1.86567158e-02, 0., 4.47761193e-02,
          2.98507456e-02, 1.11940298e-02, 2.61194017e-02, 3.73134320e-03,
          7.46268639e-03, 2.23880596e-02, 3.73134320e-03, 3.73134320e-03,
          2.53731340e-01, 7.46268639e-03, 1.86567158e-02, 1.04477607e-01,
          4.10447754e-02, 0., 7.46268639e-03, 3.73134320e-03,
          2.98507456e-02, 7.46268639e-03, 7.46268639e-03, 0.,
          7.83582106e-02, 1.49253728e-02, 3.73134320e-03, 3.73134320e-03,
          5.97014911e-02, 0., 3.73134320e-03, 2.98507456e-02,
          3.73134320e-03, 3.73134320e-03, 1.49253728e-02, 3.73134315e-02,
          3.73134320e-03, 1.11940298e-02, 2.23880596e-02, 0., 0.,
          7.46268639e-03, 0., 0., 3.73134320e-03, 7.46268639e-03,
          3.73134320e-03, 3.73134320e-03, 1.86567158e-02 ]
      - [ 1.19047621e-02, 5.95238106e-03, 1.19047621e-02, 0.,
          5.95238106e-03, 1.42857149e-01, 0., 5.95238106e-03, 0.,
          2.38095243e-02, 5.95238106e-03, 5.95238106e-03, 5.95238097e-02,
          6.54761940e-02, 3.57142873e-02, 5.95238106e-03, 5.95238106e-03,
          2.38095243e-02, 1.78571437e-02, 1.19047621e-02, 7.73809552e-02,
          0., 0., 2.38095243e-02, 0., 5.95238106e-03, 0., 3.57142873e-02,
          5.95238106e-03, 0., 1.19047621e-02, 1.78571437e-02,
          5.95238106e-03, 0., 5.95238106e-03, 1.96428582e-01, 0., 0., 0.,
          4.16666679e-02, 0., 0., 1.19047621e-02, 5.95238106e-03,
          3.57142873e-02, 2.97619049e-02, 5.95238106e-03, 1.19047621e-02,
          1.19047621e-02, 1.19047621e-02 ]
      - [ 4.68750000e-02, 6.25000000e-02, 0., 0., 2.34375000e-02, 0.,
          2.34375000e-02, 7.81250000e-03, 0., 7.81250000e-03,
          7.81250000e-03, 7.81250000e-03, 7.81250000e-02, 1.56250000e-02,
          2.34375000e-02, 7.81250000e-03, 0., 1.56250000e-02,
          2.34375000e-02, 2.34375000e-02, 2.34375000e-02, 0.,
          1.56250000e-02, 3.12500000e-02, 1.56250000e-02, 7.81250000e-03,
          0., 4.68750000e-02, 7.81250000e-03, 3.12500000e-02,
          1.56250000e-02, 2.34375000e-02, 2.34375000e-02, 0.,
          7.81250000e-03, 7.81250000e-03, 7.81250000e-03, 7.81250000e-03,
          7.81250000e-03, 2.34375000e-02, 1.56250000e-02, 0.,
          1.56250000e-02, 1.56250000e-02, 1.48437500e-01, 1.56250000e-02,
          3.90625000e-02, 2.34375000e-02, 2.34375000e-02, 2.34375000e-02 ]
      - [ 2.87769791e-02, 5.75539581e-02, 7.19424477e-03, 0.,
          7.19424477e-03, 0., 2.15827338e-02, 7.19424477e-03, 0.,
          7.19424477e-03, 7.19424477e-03, 0., 5.03597148e-02,
          7.19424477e-03, 3.59712243e-02, 1.43884895e-02, 5.03597148e-02,
          1.43884895e-02, 2.87769791e-02, 0., 4.31654677e-02, 0., 0.,
          2.15827338e-02, 7.19424477e-03, 0., 2.15827338e-02,
          1.07913673e-01, 0., 2.15827338e-02, 0., 1.43884895e-02,
          1.43884895e-02, 0., 7.19424477e-03, 3.59712243e-02,
          4.31654677e-02, 0., 0., 2.87769791e-02, 0., 1.43884895e-02,
          7.19424477e-03, 2.15827338e-02, 1.15107916e-01, 2.15827338e-02,
          5.75539581e-02, 1.43884895e-02, 2.87769791e-02, 7.19424477e-03 ]
      - [ 4.09836024e-02, 4.91803251e-02, 8.19672085e-03, 8.19672085e-03,
          8.19672085e-03, 6.55737668e-02, 6.55737668e-02, 5.73770478e-02,
          0., 0., 0., 5.73770478e-02, 1.22950815e-01, 0., 1.63934417e-02,
          0., 0., 0., 4.09836024e-02, 8.19672085e-03, 0., 0.,
          8.19672085e-03, 3.27868834e-02, 0., 0., 2.45901626e-02,
          9.83606502e-02, 0., 8.19672085e-03, 2.45901626e-02, 0.,
          8.19672085e-03, 2.45901626e-02, 1.63934417e-02, 3.27868834e-02,
          0., 1.63934417e-02, 0., 0., 1.63934417e-02, 0., 0.,
          1.63934417e-02, 5.73770478e-02, 2.45901626e-02, 8.19672085e-03,
          8.19672085e-03, 8.19672085e-03, 1.63934417e-02 ]
      - [ 5.66037707e-02, 5.03144637e-02, 0., 0., 1.88679248e-02,
          8.17610025e-02, 0., 0., 0., 6.28930796e-03, 0., 0.,
          6.91823885e-02, 0., 1.88679248e-02, 0., 0., 0., 5.03144637e-02,
          3.77358496e-02, 6.28930796e-03, 0., 3.14465389e-02,
          3.77358496e-02, 6.28930796e-03, 0., 1.25786159e-02,
          1.88679248e-02, 1.88679248e-02, 0., 1.88679248e-02,
          3.14465389e-02, 6.28930796e-03, 1.88679248e-02, 1.88679248e-02,
          6.28930777e-02, 0., 1.25786159e-02, 0., 4.40251566e-02,
          1.88679248e-02, 0., 0., 1.25786159e-02, 1.19496852e-01,
          1.88679248e-02, 6.28930796e-03, 1.25786159e-02, 6.28930777e-02,
          1.25786159e-02 ]
      - [ 5.06329127e-02, 5.06329127e-02, 0., 0., 1.26582282e-02,
          9.49367136e-02, 0., 0., 0., 1.89873427e-02, 0., 0.,
          6.96202517e-02, 1.26582282e-02, 0., 0., 0., 0., 3.79746854e-02,
          4.43037972e-02, 1.89873427e-02, 0., 2.53164563e-02,
          1.89873427e-02, 6.32911408e-03, 0., 1.26582282e-02,
          1.89873427e-02, 1.26582282e-02, 0., 1.89873427e-02,
          1.89873427e-02, 1.26582282e-02, 1.89873427e-02, 1.89873427e-02,
          3.79746854e-02, 6.32911408e-03, 2.53164563e-02, 6.32911408e-03,
          6.32911399e-02, 6.32911408e-03, 0., 0., 6.32911408e-03,
          1.32911399e-01, 2.53164563e-02, 6.32911408e-03, 1.26582282e-02,
          6.32911399e-02, 1.26582282e-02 ]
      - [ 2.63157897e-02, 6.57894760e-02, 1.31578948e-02, 0.,
          6.57894742e-03, 7.23684207e-02, 1.31578948e-02, 2.63157897e-02,
          0., 1.97368413e-02, 0., 3.94736826e-02, 1.31578952e-01, 0., 0.,
          6.57894742e-03, 6.57894742e-03, 0., 2.63157897e-02,
          6.57894742e-03, 1.31578948e-02, 0., 2.63157897e-02,
          2.63157897e-02, 6.57894742e-03, 0., 0., 6.57894760e-02, 0.,
          1.31578948e-02, 1.31578948e-02, 1.31578948e-02, 0.,
          1.31578948e-02, 2.63157897e-02, 3.94736826e-02, 3.94736826e-02,
          1.31578948e-02, 1.31578948e-02, 6.57894742e-03, 1.31578948e-02,
          0., 0., 1.97368413e-02, 1.44736841e-01, 6.57894742e-03,
          1.31578948e-02, 6.57894742e-03, 6.57894742e-03, 0. ]
      - [ 1.80412363e-02, 2.57731951e-03, 2.57731955e-02, 7.73195829e-03,
          1.54639166e-02, 0., 5.92783503e-02, 5.15463902e-03,
          2.83505153e-02, 7.73195829e-03, 3.86597924e-02, 2.83505153e-02,
          1.54639166e-02, 6.18556663e-02, 5.15463902e-03, 2.06185561e-02,
          2.57731955e-02, 2.06185561e-02, 1.28865978e-02, 7.73195829e-03,
          2.06185561e-02, 1.03092780e-02, 1.03092780e-02, 1.80412363e-02,
          2.57731955e-02, 6.44329861e-02, 0., 1.54639166e-02,
          7.73195829e-03, 2.31958758e-02, 1.03092780e-02, 7.73195829e-03,
          1.80412363e-02, 1.80412363e-02, 5.67010306e-02, 0.,
          2.31958758e-02, 0., 2.57731955e-02, 2.83505153e-02, 0.,
          1.80412363e-02, 1.54639166e-02, 3.09278332e-02, 4.38144319e-02,
          7.73195829e-03, 5.92783503e-02, 1.80412363e-02, 0.,
          1.54639166e-02 ]
      - [ 3.84615385e-03, 1.92307699e-02, 3.84615385e-03, 1.92307699e-02,
          3.84615385e-03, 3.84615385e-03, 2.69230772e-02, 3.07692308e-02,
          1.92307699e-02, 1.15384618e-02, 5.38461544e-02, 3.46153863e-02,
          4.23076935e-02, 4.61538471e-02, 0., 1.53846154e-02,
          3.84615399e-02, 3.84615399e-02, 0., 1.53846154e-02,
          3.84615385e-03, 1.15384618e-02, 0., 7.69230770e-03,
          5.38461544e-02, 9.23076943e-02, 1.15384618e-02, 1.15384618e-02,
          1.92307699e-02, 3.46153863e-02, 1.92307699e-02, 1.15384618e-02,
          1.15384618e-02, 0., 5.38461544e-02, 7.69230770e-03,
          2.69230772e-02, 0., 1.53846154e-02, 1.15384618e-02,
          3.84615385e-03, 7.30769262e-02, 3.84615385e-03, 1.53846154e-02,
          3.46153863e-02, 1.15384618e-02, 3.84615385e-03, 7.69230770e-03,
          7.69230770e-03, 7.69230770e-03 ]
      - [ 6.77966094e-03, 6.77966094e-03, 2.37288140e-02, 1.01694912e-02,
          1.35593219e-02, 1.01694912e-02, 6.44067824e-02, 2.37288140e-02,
          2.37288140e-02, 1.35593219e-02, 4.06779647e-02, 1.69491526e-02,
          6.77966094e-03, 4.74576280e-02, 6.77966094e-03, 3.05084735e-02,
          1.05084747e-01, 5.42372875e-02, 1.69491526e-02, 3.38983047e-03,
          6.77966094e-03, 1.35593219e-02, 1.35593219e-02, 1.35593219e-02,
          1.35593219e-02, 5.76271191e-02, 1.35593219e-02, 1.35593219e-02,
          0., 6.10169470e-02, 6.77966094e-03, 2.03389823e-02,
          3.05084735e-02, 6.77966094e-03, 6.77966094e-03, 3.38983047e-03,
          2.71186437e-02, 1.35593219e-02, 3.72881368e-02, 1.35593219e-02,
          6.77966094e-03, 6.77966094e-03, 1.01694912e-02, 2.03389823e-02,
          1.01694912e-02, 3.38983047e-03, 6.77966094e-03, 1.35593219e-02,
          0., 2.37288140e-02 ]
      - [ 5.58659201e-03, 5.58659211e-02, 1.11731840e-02, 5.58659201e-03,
          1.11731840e-02, 6.14525117e-02, 0., 1.67597756e-02,
          1.67597756e-02, 1.67597756e-02, 5.58659201e-03, 4.46927361e-02,
          7.26256967e-02, 0., 1.67597756e-02, 1.11731840e-02,
          1.67597756e-02, 0., 1.67597756e-02, 5.58659201e-03,
          2.23463681e-02, 1.11731840e-02, 1.11731840e-02, 3.91061455e-02,
          5.58659201e-03, 1.11731840e-02, 1.11731840e-02, 4.46927361e-02,
          5.58659201e-03, 4.46927361e-02, 1.11731840e-02, 1.11731840e-02,
          5.58659201e-03, 1.67597756e-02, 2.79329605e-02, 6.14525117e-02,
          1.11731840e-02, 5.58659201e-03, 2.23463681e-02, 1.67597756e-02,
          0., 0., 2.23463681e-02, 5.02793267e-02, 6.70391023e-02,
          2.23463681e-02, 2.23463681e-02, 1.11731840e-02, 5.58659201e-03,
          1.11731840e-02 ]
      - [ 5.26315793e-02, 1.46198839e-01, 5.84795326e-03, 5.84795326e-03,
          0., 2.92397663e-02, 6.43274859e-02, 0., 1.75438598e-02, 0.,
          2.92397663e-02, 5.84795326e-03, 9.94152054e-02, 5.84795326e-03,
          1.16959065e-02, 1.16959065e-02, 5.84795326e-03, 1.75438598e-02,
          4.09356728e-02, 1.16959065e-02, 0., 0., 1.75438598e-02,
          5.84795326e-03, 1.16959065e-02, 5.84795326e-03, 0.,
          4.67836261e-02, 5.84795326e-03, 1.16959065e-02, 5.84795326e-03,
          1.16959065e-02, 5.84795326e-03, 5.84795326e-03, 5.84795326e-03,
          3.50877196e-02, 1.16959065e-02, 5.84795326e-03, 1.16959065e-02,
          1.16959065e-02, 5.84795326e-03, 0., 5.84795326e-03, 0.,
          1.22807018e-01, 1.75438598e-02, 4.67836261e-02, 0.,
          1.75438598e-02, 5.84795326e-03 ]
      - [ 3.73831764e-02, 3.73831764e-02, 0., 0., 0., 8.41121450e-02, 0.,
          9.34579410e-03, 0., 0., 1.86915882e-02, 1.86915882e-02,
          6.54205605e-02, 0., 9.34579410e-03, 9.34579410e-03, 0., 0.,
          3.73831764e-02, 0., 5.60747646e-02, 0., 2.80373823e-02,
          2.80373823e-02, 0., 0., 0., 1.86915882e-02, 0., 9.34579410e-03,
          1.86915882e-02, 1.86915882e-02, 0., 2.80373823e-02,
          9.34579410e-03, 1.40186906e-01, 2.80373823e-02, 2.80373823e-02,
          1.86915882e-02, 0., 1.86915882e-02, 0., 9.34579410e-03, 0.,
          1.86915882e-02, 0., 2.80373823e-02, 0., 1.49532706e-01,
          1.86915882e-02 ]
      - [ 1.09289614e-02, 6.01092875e-02, 3.27868834e-02, 0.,
          2.73224041e-02, 1.42076492e-01, 5.46448072e-03, 0.,
          1.09289614e-02, 1.09289614e-02, 5.46448072e-03, 1.63934417e-02,
          3.27868834e-02, 5.46448072e-03, 1.09289614e-02, 5.46448072e-03,
          1.09289614e-02, 5.46448072e-03, 2.73224041e-02, 2.18579229e-02,
          5.46448072e-03, 5.46448072e-03, 0., 2.18579229e-02,
          1.63934417e-02, 5.46448072e-03, 2.73224041e-02, 6.01092875e-02,
          0., 1.63934417e-02, 1.63934417e-02, 5.46448072e-03,
          1.63934417e-02, 2.73224041e-02, 5.46448072e-03, 8.74316916e-02,
          0., 1.09289614e-02, 1.63934417e-02, 1.63934417e-02, 0., 0.,
          1.09289614e-02, 2.18579229e-02, 7.65027329e-02, 1.63934417e-02,
          1.63934417e-02, 5.46448072e-03, 2.18579229e-02, 2.73224041e-02 ]
      - [ 1.09589040e-01, 2.73972601e-02, 1.36986300e-02, 0.,
          1.36986300e-02, 0., 0., 4.10958901e-02, 1.36986300e-02,
          1.36986300e-02, 0., 0., 4.10958901e-02, 2.73972601e-02, 0., 0.,
          0., 4.10958901e-02, 1.36986300e-02, 1.36986300e-02,
          1.36986300e-02, 2.73972601e-02, 1.36986300e-02, 2.73972601e-02,
          0., 0., 1.36986300e-02, 0., 0., 1.36986300e-02, 4.10958901e-02,
          1.36986300e-02, 0., 6.84931502e-02, 0., 1.09589040e-01,
          2.73972601e-02, 2.73972601e-02, 1.36986300e-02, 0.,
          4.10958901e-02, 0., 1.36986300e-02, 0., 4.10958901e-02,
          1.36986300e-02, 5.47945201e-02, 0., 4.10958901e-02,
          1.36986300e-02 ]
      - [ 1.25000000e-01, 4.16666679e-02, 2.08333340e-02, 0., 0.,
          4.16666679e-02, 0., 0., 0., 0., 0., 0., 1.66666672e-01, 0., 0.,
          2.08333340e-02, 0., 0., 1.04166672e-01, 0., 4.16666679e-02, 0.,
          4.16666679e-02, 0., 0., 0., 0., 0., 2.08333340e-02, 0.,
          4.16666679e-02, 0., 0., 0., 0., 0., 0., 6.25000000e-02, 0., 0.,
          0., 0., 0., 0., 1.45833343e-01, 2.08333340e-02, 0.,
          2.08333340e-02, 8.33333358e-02, 0. ]
      - [ 5.00000007e-02, 1.25000002e-02, 3.75000015e-02, 1.25000002e-02,
          0., 0., 0., 3.75000015e-02, 1.25000002e-02, 2.50000004e-02,
          1.25000002e-02, 0., 6.25000000e-02, 0., 1.25000002e-02, 0.,
          5.00000007e-02, 0., 5.00000007e-02, 0., 2.50000004e-02, 0.,
          2.50000004e-02, 6.25000000e-02, 0., 0., 2.50000004e-02,
          8.74999985e-02, 2.50000004e-02, 0., 0., 0., 0., 7.50000030e-02,
          0., 2.50000004e-02, 0., 1.25000002e-02, 0., 3.75000015e-02,
          1.25000002e-02, 0., 1.25000002e-02, 0., 7.50000030e-02,
          3.75000015e-02, 1.25000002e-02, 3.75000015e-02, 3.75000015e-02,
          0. ]
      - [ 1.38632162e-02, 1.29390024e-02, 1.47874309e-02, 5.54528646e-03,
          1.94085035e-02, 8.41035098e-02, 7.39371544e-03, 4.62107221e-03,
          4.62107221e-03, 3.78927924e-02, 1.75600741e-02, 3.69685772e-03,
          3.60443629e-02, 3.97412218e-02, 1.66358594e-02, 3.69685772e-03,
          1.20147876e-02, 9.24214441e-03, 1.29390024e-02, 2.31053606e-02,
          1.20147876e-02, 2.58780047e-02, 5.54528646e-03, 6.46950118e-03,
          1.29390024e-02, 1.75600741e-02, 4.62107221e-03, 1.10905729e-02,
          3.69685772e-03, 2.49537900e-02, 2.12569311e-02, 1.10905729e-02,
          2.49537900e-02, 2.95748618e-02, 6.46950118e-03, 1.26617372e-01,
          3.69685777e-02, 2.77264323e-03, 2.77264323e-03, 3.97412218e-02,
          3.69685772e-03, 1.20147876e-02, 9.24214441e-03, 2.86506470e-02,
          2.49537900e-02, 3.51201482e-02, 9.24214441e-03, 3.60443629e-02,
          2.03327183e-02, 1.38632162e-02 ]
      - [ 1.36363637e-02, 1.59090906e-02, 2.15909090e-02, 7.95454532e-03,
          2.27272715e-02, 1.81818176e-02, 1.02272723e-02, 2.15909090e-02,
          7.95454532e-03, 2.72727273e-02, 1.02272723e-02, 1.24999993e-02,
          2.27272715e-02, 4.65909094e-02, 1.93181820e-02, 2.15909090e-02,
          3.40909064e-02, 2.27272715e-02, 2.15909090e-02, 1.24999993e-02,
          1.13636358e-02, 2.38636360e-02, 1.59090906e-02, 1.93181820e-02,
          1.13636358e-02, 1.93181820e-02, 1.93181820e-02, 1.36363637e-02,
          1.93181820e-02, 3.40909064e-02, 1.81818176e-02, 2.04545446e-02,
          2.84090899e-02, 3.40909092e-03, 1.24999993e-02, 2.95454543e-02,
          1.93181820e-02, 6.81818184e-03, 2.84090899e-02, 3.40909064e-02,
          9.09090880e-03, 3.40909092e-03, 2.84090899e-02, 2.61363629e-02,
          4.43181805e-02, 1.93181820e-02, 1.70454532e-02, 3.97727266e-02,
          1.59090906e-02, 1.70454532e-02 ]
      - [ 4.61538471e-02, 5.38461544e-02, 6.15384616e-02, 1.53846154e-02,
          7.69230770e-03, 7.69230770e-03, 2.30769236e-02, 3.07692308e-02,
          1.53846154e-02, 0., 2.30769236e-02, 1.53846154e-02,
          6.92307726e-02, 7.69230770e-03, 3.07692308e-02, 3.84615399e-02,
          2.30769236e-02, 3.07692308e-02, 3.07692308e-02, 2.30769236e-02,
          1.53846154e-02, 0., 2.30769236e-02, 1.53846154e-02,
          7.69230770e-03, 1.53846154e-02, 7.69230770e-03, 3.84615399e-02,
          7.69230770e-03, 7.69230770e-03, 2.30769236e-02, 7.69230770e-03,
          0., 0., 1.53846154e-02, 3.84615399e-02, 7.69230770e-03,
          7.69230770e-03, 1.53846154e-02, 7.69230770e-03, 7.69230770e-03,
          0., 2.30769236e-02, 2.30769236e-02, 7.69230770e-03,
          7.69230770e-03, 6.15384616e-02, 7.69230770e-03, 2.30769236e-02,
          2.30769236e-02 ]
      - [ 4.44444455e-02, 1.33333337e-02, 4.44444455e-03, 1.77777782e-02,
          1.77777782e-02, 1.33333337e-02, 3.99999991e-02, 3.11111119e-02,
          2.66666673e-02, 4.44444455e-03, 1.33333337e-02, 1.33333337e-02,
          5.33333346e-02, 8.88888910e-03, 4.44444455e-03, 4.44444455e-03,
          3.99999991e-02, 8.88888910e-03, 3.55555564e-02, 4.44444455e-03,
          1.77777782e-02, 0., 8.88888910e-03, 1.33333337e-02,
          8.88888910e-03, 8.88888910e-03, 2.22222228e-02, 1.33333340e-01,
          0., 8.88888910e-03, 8.88888910e-03, 2.66666673e-02,
          8.88888910e-03, 2.66666673e-02, 1.77777782e-02, 1.77777782e-02,
          4.44444455e-03, 4.44444455e-03, 4.44444455e-03, 4.44444455e-03,
          8.88888910e-03, 8.88888910e-03, 3.11111119e-02, 0.,
          1.20000005e-01, 4.44444455e-03, 1.33333337e-02, 2.22222228e-02,
          2.22222228e-02, 2.22222228e-02 ]
      - [ 4.20420431e-02, 4.50450480e-02, 1.50150154e-02, 3.00300308e-03,
          9.00900923e-03, 0., 9.00900923e-03, 1.20120123e-02,
          6.00600615e-03, 6.00600615e-03, 2.10210215e-02, 2.40240246e-02,
          1.11111112e-01, 3.00300308e-03, 1.20120123e-02, 3.00300308e-03,
          3.30330357e-02, 1.80180185e-02, 2.70270277e-02, 6.00600615e-03,
          6.00600615e-03, 9.00900923e-03, 1.50150154e-02, 9.00900923e-03,
          2.40240246e-02, 2.10210215e-02, 2.40240246e-02, 2.10210215e-02,
          9.00900923e-03, 1.20120123e-02, 9.00900923e-03, 3.00300308e-03,
          3.00300308e-03, 3.00300308e-03, 3.00300308e-02, 3.00300308e-03,
          1.50150154e-02, 6.00600615e-03, 1.20120123e-02, 0.,
          6.00600615e-03, 1.80180185e-02, 6.00600615e-03, 6.00600615e-03,
          2.28228241e-01, 2.70270277e-02, 1.50150154e-02, 6.00600615e-03,
          3.30330357e-02, 1.50150154e-02 ]
      - [ 2.85714287e-02, 2.53968257e-02, 0., 3.17460322e-03,
          3.17460336e-02, 4.12698425e-02, 6.34920644e-03, 3.17460322e-03,
          9.52380989e-03, 3.49206366e-02, 3.17460336e-02, 1.26984129e-02,
          3.17460336e-02, 1.26984129e-02, 1.26984129e-02, 9.52380989e-03,
          0., 1.26984129e-02, 2.22222228e-02, 6.34920644e-03,
          1.90476198e-02, 6.34920644e-03, 3.17460336e-02, 4.76190485e-02,
          2.22222228e-02, 9.52380989e-03, 0., 9.52380989e-03,
          9.52380989e-03, 6.34920644e-03, 1.26984129e-02, 4.44444455e-02,
          3.80952395e-02, 6.66666701e-02, 2.22222228e-02, 5.39682545e-02,
          3.17460322e-03, 1.90476198e-02, 1.26984129e-02, 3.17460322e-03,
          3.17460336e-02, 9.52380989e-03, 5.39682545e-02, 6.34920644e-03,
          6.34920644e-03, 9.52380989e-03, 4.44444455e-02, 2.53968257e-02,
          3.49206366e-02, 3.17460322e-03 ]
      - [ 1.55642023e-02, 1.16731515e-02, 4.28015552e-02, 3.89105058e-03,
          0., 3.50194536e-02, 1.55642023e-02, 1.94552522e-02,
          7.78210117e-03, 1.16731515e-02, 2.72373538e-02, 4.28015552e-02,
          1.94552522e-02, 7.78210117e-03, 3.89105058e-03, 0.,
          3.89105044e-02, 1.16731515e-02, 1.16731515e-02, 1.55642023e-02,
          1.55642023e-02, 0., 1.55642023e-02, 1.16731515e-02,
          1.16731515e-02, 0., 1.16731515e-02, 1.20622568e-01,
          1.16731515e-02, 7.78210117e-03, 1.16731515e-02, 3.11284047e-02,
          0., 3.89105044e-02, 1.55642023e-02, 7.78210117e-03,
          1.55642023e-02, 0., 3.89105058e-03, 5.05836569e-02,
          3.89105058e-03, 8.17120597e-02, 1.94552522e-02, 3.89105058e-03,
          1.16731517e-01, 7.78210117e-03, 2.33463030e-02, 7.78210117e-03,
          0., 1.16731515e-02 ]
      - [ 8.57142881e-02, 3.80952395e-02, 9.52380989e-03, 9.52380989e-03,
          0., 2.85714306e-02, 0., 0., 9.52380989e-03, 2.85714306e-02, 0.,
          0., 1.23809531e-01, 6.66666701e-02, 1.90476198e-02, 0., 0., 0.,
          4.76190485e-02, 0., 0., 0., 1.90476198e-02, 9.52380989e-03, 0.,
          0., 9.52380989e-03, 9.52380989e-03, 0., 0., 0., 2.85714306e-02,
          0., 4.76190485e-02, 0., 0., 0., 3.80952395e-02, 0.,
          2.85714306e-02, 0., 0., 9.52380970e-02, 0., 1.23809531e-01,
          9.52380989e-03, 1.90476198e-02, 2.85714306e-02, 4.76190485e-02,
          1.90476198e-02 ]
   decision_functions:
      -
         sv_count: 1
         rho: -1.6439673325132971e+00
         alpha: [ 1. ]
         index: [ 0 ]
