%YAML:1.0
---
opencv_ml_svm:
   format: 3
   svmType: C_SVC
   kernel:
      type: LINEAR
   C: 3.1250000000000000e+02
   term_criteria: { iterations:100 }
   var_count: 50
   class_count: 2
   class_labels: !!opencv-matrix
      rows: 2
      cols: 1
      dt: i
      data: [ 0, 1 ]
   sv_total: 1
   support_vectors:
      - [ 2.00967350e+01, -6.63169670e+00, -1.14552183e+01,
          -1.67535648e+01, -8.62170029e+00, 8.87431145e+00,
          2.37487221e+00, -3.79833984e+00, -6.37258625e+00,
          -2.35659504e+00, 6.22533178e+00, 1.08065024e-01,
          -6.50609779e+00, -2.55681992e+00, 5.16178942e+00,
          2.53633356e+00, -1.44576693e+00, 7.06227350e+00,
          1.65510540e+01, -7.98795891e+00, -4.69727087e+00,
          -1.40937281e+01, 1.29540863e+01, 5.16069031e+00,
          -3.24859202e-01, 5.38070965e+00, 1.60108671e-01,
          -3.97098690e-01, -3.15699744e+00, 1.07597761e+01,
          1.37437077e+01, 4.54183435e+00, -8.59258270e+00,
          -2.34409161e+01, -6.89239800e-01, -2.78688550e-01,
          1.44816360e+01, -2.64001012e+00, 2.70371556e-01,
          1.57435536e+00, -4.37739372e+00, -1.24144125e+01,
          9.14931965e+00, -1.45207205e+01, 1.17999535e+01,
          5.83823633e+00, -1.61882365e+00, -4.99597836e+00,
          6.06875038e+00, -1.49248451e-01 ]
   uncompressed_sv_total: 48
   uncompressed_support_vectors:
      - [ 6.90607773e-03, 1.38121555e-02, 3.03867422e-02, 4.00552489e-02,
          2.48618796e-02, 2.07182337e-02, 1.38121555e-02, 1.38121555e-02,
          4.00552489e-02, 5.52486209e-03, 3.03867422e-02, 2.62430944e-02,
          1.79558024e-02, 2.90055256e-02, 1.10497242e-02, 8.28729291e-03,
          2.62430944e-02, 1.38121555e-02, 6.90607773e-03, 2.62430944e-02,
          1.65745858e-02, 8.28729291e-03, 1.38121552e-03, 5.52486209e-03,
          5.66298366e-02, 6.76795617e-02, 4.14364645e-03, 8.28729291e-03,
          1.51933711e-02, 2.07182337e-02, 1.79558024e-02, 1.65745858e-02,
          3.45303863e-02, 4.00552489e-02, 3.03867422e-02, 2.76243109e-02,
          3.17679569e-02, 1.79558024e-02, 5.52486209e-03, 1.79558024e-02,
          2.20994484e-02, 3.59116048e-02, 8.28729291e-03, 5.52486209e-03,
          2.20994484e-02, 1.24309398e-02, 1.10497242e-02, 2.76243105e-03,
          1.79558024e-02, 1.10497242e-02 ]
      - [ 4.10677632e-03, 5.74948676e-02, 1.23203285e-02, 2.25872695e-02,
          4.10677632e-03, 1.23203285e-02, 2.87474338e-02, 1.23203285e-02,
          2.66940463e-02, 1.02669410e-02, 1.84804928e-02, 3.90143767e-02,
          4.51745391e-02, 8.21355265e-03, 1.84804928e-02, 1.84804928e-02,
          2.05338816e-03, 8.21355265e-03, 1.02669410e-02, 2.87474338e-02,
          3.49075980e-02, 1.23203285e-02, 2.05338821e-02, 4.51745391e-02,
          1.23203285e-02, 6.16016425e-03, 1.02669410e-02, 1.43737169e-02,
          8.21355265e-03, 1.02669410e-02, 2.25872695e-02, 1.64271053e-02,
          8.21355265e-03, 5.95482551e-02, 1.23203285e-02, 4.10677642e-02,
          1.23203285e-02, 3.90143767e-02, 1.23203285e-02, 2.05338821e-02,
          1.43737169e-02, 1.23203285e-02, 2.25872695e-02, 1.64271053e-02,
          4.51745391e-02, 1.23203285e-02, 2.05338821e-02, 1.64271053e-02,
          1.64271053e-02, 1.64271053e-02 ]
      - [ 2.61096610e-03, 5.74412532e-02, 3.39425579e-02, 3.13315913e-02,
          1.56657957e-02, 2.61096610e-03, 4.96083573e-02, 7.31070489e-02,
          3.39425579e-02, 5.22193220e-03, 2.87206266e-02, 1.30548310e-02,
          6.78851157e-02, 4.43864241e-02, 0., 1.04438644e-02,
          7.31070489e-02, 1.30548310e-02, 1.56657957e-02, 1.82767622e-02,
          1.04438644e-02, 2.08877288e-02, 5.22193220e-03, 2.61096610e-03,
          2.34986953e-02, 2.08877288e-02, 2.61096610e-03, 7.83289783e-03,
          7.83289783e-03, 1.82767622e-02, 2.61096619e-02, 0.,
          1.82767622e-02, 2.61096610e-03, 2.34986953e-02, 1.82767622e-02,
          1.82767622e-02, 2.34986953e-02, 2.08877288e-02, 1.56657957e-02,
          1.82767622e-02, 1.56657957e-02, 0., 1.30548310e-02,
          2.87206266e-02, 2.61096610e-03, 1.30548310e-02, 1.04438644e-02,
          1.30548310e-02, 7.83289783e-03 ]
      - [ 2.42587589e-02, 1.07816709e-02, 2.69541773e-03, 2.69541773e-03,
          1.61725059e-02, 1.34770889e-02, 7.81671107e-02, 2.96495948e-02,
          2.69541773e-03, 5.39083546e-03, 2.69541778e-02, 8.08625296e-03,
          2.69541778e-02, 6.73854426e-02, 1.07816709e-02, 1.07816709e-02,
          6.46900237e-02, 2.69541773e-03, 1.61725059e-02, 5.39083546e-03,
          5.39083546e-03, 9.43396240e-02, 2.15633418e-02, 2.15633418e-02,
          1.88679248e-02, 8.08625296e-03, 8.08625296e-03, 1.34770889e-02,
          5.39083546e-03, 3.50404307e-02, 8.08625296e-03, 1.34770889e-02,
          1.07816709e-02, 1.88679248e-02, 2.69541778e-02, 2.69541778e-02,
          4.58221026e-02, 5.39083546e-03, 5.39083546e-03, 8.08625296e-03,
          5.39083546e-03, 1.07816709e-02, 1.34770889e-02, 1.88679248e-02,
          1.07816709e-02, 1.34770889e-02, 5.92991896e-02, 1.61725059e-02,
          2.15633418e-02, 2.69541773e-03 ]
      - [ 2.37812125e-03, 1.66468490e-02, 4.39952426e-02, 1.18906060e-02,
          5.58858477e-02, 0., 2.49702726e-02, 2.61593331e-02,
          2.02140305e-02, 1.54577885e-02, 1.54577885e-02, 8.32342450e-03,
          7.13436399e-03, 5.70749119e-02, 2.14030910e-02, 1.18906060e-02,
          4.63733636e-02, 4.16171215e-02, 1.30796665e-02, 1.54577885e-02,
          5.94530301e-03, 3.80499400e-02, 1.18906060e-02, 1.07015455e-02,
          1.30796665e-02, 2.85374559e-02, 1.78359095e-02, 1.07015455e-02,
          2.37812120e-02, 2.14030910e-02, 1.54577885e-02, 2.49702726e-02,
          3.21046375e-02, 1.42687280e-02, 3.32936980e-02, 4.75624250e-03,
          2.14030910e-02, 0., 2.49702726e-02, 1.54577885e-02, 0.,
          2.61593331e-02, 1.90249700e-02, 2.25921515e-02, 1.30796665e-02,
          4.16171215e-02, 1.07015455e-02, 1.90249700e-02, 9.51248500e-03,
          1.42687280e-02 ]
      - [ 6.68896316e-03, 3.34448144e-02, 3.34448158e-03, 5.01672225e-03,
          1.67224072e-02, 1.17056854e-02, 2.34113708e-02, 4.84949835e-02,
          8.36120360e-03, 1.50501672e-02, 2.67558526e-02, 1.67224072e-02,
          3.51170562e-02, 8.36120360e-03, 1.83946490e-02, 2.00668890e-02,
          1.67224072e-02, 1.50501672e-02, 1.00334445e-02, 2.34113708e-02,
          1.83946490e-02, 2.17391308e-02, 1.17056854e-02, 1.83946490e-02,
          2.34113708e-02, 5.01672225e-03, 2.67558526e-02, 2.34113708e-02,
          1.50501672e-02, 2.50836127e-02, 2.67558526e-02, 2.00668890e-02,
          2.34113708e-02, 1.17056854e-02, 2.34113708e-02, 2.17391308e-02,
          2.67558526e-02, 5.01672225e-03, 1.50501672e-02, 2.67558526e-02,
          6.68896316e-03, 1.83946490e-02, 2.00668890e-02, 2.34113708e-02,
          3.67892981e-02, 3.01003344e-02, 4.34782617e-02, 1.67224072e-02,
          1.17056854e-02, 4.01337780e-02 ]
      - [ 1.42857144e-02, 2.50000004e-02, 2.85714287e-02, 3.39285731e-02,
          3.03571429e-02, 5.35714300e-03, 4.64285724e-02, 2.14285720e-02,
          3.39285731e-02, 2.32142862e-02, 1.60714295e-02, 1.25000002e-02,
          1.60714295e-02, 2.85714287e-02, 2.14285720e-02, 2.14285720e-02,
          2.32142862e-02, 2.50000004e-02, 1.78571430e-03, 1.42857144e-02,
          3.57142859e-03, 1.42857144e-02, 8.92857183e-03, 1.78571437e-02,
          1.78571437e-02, 1.25000002e-02, 5.35714300e-03, 2.67857146e-02,
          1.78571437e-02, 2.14285720e-02, 1.78571437e-02, 1.96428578e-02,
          2.14285720e-02, 1.07142860e-02, 2.67857146e-02, 1.60714295e-02,
          1.42857144e-02, 2.67857146e-02, 2.32142862e-02, 3.21428590e-02,
          1.96428578e-02, 1.25000002e-02, 2.14285720e-02, 3.57142873e-02,
          3.03571429e-02, 1.60714295e-02, 1.25000002e-02, 1.96428578e-02,
          1.78571437e-02, 1.60714295e-02 ]
      - [ 3.71057517e-03, 1.76252313e-02, 2.87569575e-02, 2.13358067e-02,
          2.69016698e-02, 1.48423007e-02, 1.94805190e-02, 1.66975874e-02,
          1.57699436e-02, 1.94805190e-02, 1.48423007e-02, 1.20593691e-02,
          1.48423007e-02, 8.71985182e-02, 2.78293132e-03, 1.39146568e-02,
          6.49350649e-03, 1.39146568e-02, 2.78293132e-03, 3.80333960e-02,
          8.34879372e-03, 7.05009252e-02, 2.78293132e-03, 2.69016698e-02,
          1.20593691e-02, 2.31910944e-02, 1.20593691e-02, 7.42115034e-03,
          1.20593691e-02, 2.04081628e-02, 3.33951749e-02, 1.66975874e-02,
          5.10204099e-02, 5.56586264e-03, 1.11317253e-02, 6.49350649e-03,
          3.80333960e-02, 1.20593691e-02, 7.42115034e-03, 6.86456412e-02,
          1.20593691e-02, 1.76252313e-02, 1.76252313e-02, 1.94805190e-02,
          2.04081628e-02, 8.34879372e-03, 1.57699436e-02, 3.71057503e-02,
          3.71057517e-03, 1.02040814e-02 ]
      - [ 8.17995891e-03, 6.13496900e-02, 1.43149281e-02, 2.04498973e-02,
          1.02249486e-02, 2.45398767e-02, 6.13496918e-03, 8.17995891e-03,
          1.43149281e-02, 2.24948861e-02, 1.43149281e-02, 1.02249486e-02,
          5.52147217e-02, 3.47648263e-02, 1.22699384e-02, 1.63599178e-02,
          1.84049085e-02, 4.08997945e-03, 1.22699384e-02, 2.24948861e-02,
          1.22699384e-02, 4.08997945e-03, 1.02249486e-02, 1.63599178e-02,
          0., 1.63599178e-02, 1.22699384e-02, 2.86298562e-02,
          1.63599178e-02, 2.04498973e-02, 3.06748450e-02, 2.65848674e-02,
          6.13496918e-03, 2.04498973e-03, 2.04498973e-02, 5.11247441e-02,
          1.63599178e-02, 1.43149281e-02, 2.04498973e-02, 2.04498973e-02,
          1.43149281e-02, 2.04498973e-03, 2.04498973e-02, 5.52147217e-02,
          7.97545984e-02, 1.22699384e-02, 3.27198356e-02, 1.63599178e-02,
          1.43149281e-02, 1.63599178e-02 ]
      - [ 8.04289617e-03, 1.87667571e-02, 2.14477219e-02, 2.41286866e-02,
          2.41286866e-02, 3.08311004e-02, 2.41286866e-02, 3.48525494e-02,
          2.54691690e-02, 2.27882043e-02, 2.41286866e-02, 8.04289617e-03,
          2.01072395e-02, 3.08311004e-02, 1.34048257e-02, 2.27882043e-02,
          2.01072395e-02, 1.34048257e-02, 8.04289617e-03, 1.34048257e-02,
          2.41286866e-02, 4.28954437e-02, 9.38337855e-03, 1.60857923e-02,
          3.08311004e-02, 2.27882043e-02, 4.02144808e-03, 3.08311004e-02,
          2.14477219e-02, 2.41286866e-02, 2.14477219e-02, 1.20643433e-02,
          3.75335142e-02, 2.68096514e-02, 2.94906180e-02, 2.27882043e-02,
          1.47453090e-02, 8.04289617e-03, 2.54691690e-02, 3.08311004e-02,
          2.68096523e-03, 2.14477219e-02, 1.34048257e-02, 9.38337855e-03,
          1.47453090e-02, 1.34048257e-02, 2.14477219e-02, 2.54691690e-02,
          1.07238609e-02, 2.68096523e-03 ]
      - [ 8.26446246e-03, 8.26446246e-03, 1.85950398e-02, 1.75619833e-02,
          2.58264448e-02, 2.16942132e-02, 2.99586765e-02, 1.85950398e-02,
          1.85950398e-02, 1.96280982e-02, 3.71900797e-02, 6.19834661e-03,
          1.34297516e-02, 3.09917349e-02, 1.54958675e-02, 1.54958675e-02,
          3.61570232e-02, 2.27272715e-02, 3.09917331e-03, 1.65289249e-02,
          1.03305783e-02, 1.85950398e-02, 1.75619833e-02, 1.65289249e-02,
          1.13636358e-02, 5.06198332e-02, 1.54958675e-02, 7.23140454e-03,
          1.13636358e-02, 4.75206599e-02, 2.06611566e-02, 1.54958675e-02,
          1.96280982e-02, 4.75206599e-02, 1.13636358e-02, 2.58264448e-02,
          3.82231399e-02, 1.03305783e-02, 3.40909064e-02, 2.78925616e-02,
          4.13223123e-03, 2.89256182e-02, 7.23140454e-03, 2.58264448e-02,
          1.54958675e-02, 1.96280982e-02, 1.23966932e-02, 2.06611566e-02,
          6.19834661e-03, 1.75619833e-02 ]
      - [ 0., 2.65780725e-02, 9.96677764e-03, 3.98671106e-02,
          3.98671106e-02, 2.99003311e-02, 2.32558139e-02, 1.66112948e-02,
          2.32558139e-02, 0., 3.32225906e-03, 3.32225896e-02,
          2.65780725e-02, 4.65116277e-02, 3.32225906e-03, 2.65780725e-02,
          4.98338863e-02, 6.64451811e-03, 3.32225906e-03, 3.32225896e-02,
          0., 6.31229207e-02, 6.64451811e-03, 9.96677764e-03,
          1.32890362e-02, 9.96677764e-03, 4.31893691e-02, 6.64451811e-03,
          3.32225906e-03, 3.32225896e-02, 3.65448482e-02, 1.32890362e-02,
          2.65780725e-02, 9.96677764e-03, 6.64451811e-03, 6.64451811e-03,
          2.99003311e-02, 1.32890362e-02, 3.32225896e-02, 1.66112948e-02,
          1.32890362e-02, 2.99003311e-02, 1.32890362e-02, 9.96677764e-03,
          3.65448482e-02, 1.66112948e-02, 1.66112948e-02, 6.64451811e-03,
          0., 3.32225896e-02 ]
      - [ 2.02429155e-03, 1.82186235e-02, 3.44129577e-02, 3.03643737e-02,
          2.22672075e-02, 3.03643737e-02, 2.83400826e-02, 4.04858291e-02,
          3.03643737e-02, 4.04858310e-03, 3.23886648e-02, 3.64372469e-02,
          3.03643737e-02, 4.04858310e-03, 1.82186235e-02, 1.61943324e-02,
          2.22672075e-02, 2.02429146e-02, 6.07287465e-03, 2.02429146e-02,
          1.61943324e-02, 4.04858310e-03, 6.07287465e-03, 1.01214573e-02,
          1.41700413e-02, 1.82186235e-02, 3.23886648e-02, 1.41700413e-02,
          1.21457493e-02, 2.83400826e-02, 1.82186235e-02, 6.07287465e-03,
          3.23886648e-02, 8.09716620e-03, 1.61943324e-02, 4.45344150e-02,
          1.61943324e-02, 1.82186235e-02, 1.82186235e-02, 2.02429146e-02,
          1.61943324e-02, 2.42914986e-02, 6.07287465e-03, 2.42914986e-02,
          3.64372469e-02, 1.21457493e-02, 2.22672075e-02, 2.02429155e-03,
          1.01214573e-02, 4.45344150e-02 ]
      - [ 6.60066027e-03, 2.47524753e-02, 5.94059415e-02, 3.79537977e-02,
          2.97029708e-02, 6.60066027e-03, 3.46534662e-02, 2.97029708e-02,
          2.64026411e-02, 1.32013205e-02, 1.98019817e-02, 1.32013205e-02,
          3.96039635e-02, 5.77557757e-02, 1.15511557e-02, 1.15511557e-02,
          3.63036320e-02, 3.63036320e-02, 6.60066027e-03, 1.15511557e-02,
          9.90099087e-03, 2.64026411e-02, 6.60066027e-03, 1.65016502e-02,
          6.60066027e-03, 4.62046228e-02, 1.48514854e-02, 1.48514854e-02,
          1.15511557e-02, 3.63036320e-02, 9.90099087e-03, 1.32013205e-02,
          2.14521457e-02, 1.15511557e-02, 3.30033014e-03, 1.15511557e-02,
          2.14521457e-02, 2.14521457e-02, 3.13531347e-02, 1.81518160e-02,
          2.64026411e-02, 3.30033014e-03, 1.15511557e-02, 1.98019817e-02,
          1.98019817e-02, 6.60066027e-03, 8.25082511e-03, 9.90099087e-03,
          1.15511557e-02, 1.65016502e-02 ]
      - [ 4.90196096e-03, 4.41176482e-02, 2.69607846e-02, 7.35294167e-03,
          3.18627469e-02, 4.90196096e-03, 1.22549022e-02, 1.22549022e-02,
          7.35294167e-03, 9.80392192e-03, 3.67647074e-02, 2.45098048e-03,
          1.71568636e-02, 9.06862766e-02, 4.90196096e-03, 4.90196096e-03,
          4.41176482e-02, 9.80392192e-03, 9.80392192e-03, 1.22549022e-02,
          1.22549022e-02, 2.45098043e-02, 1.47058833e-02, 1.47058833e-02,
          1.22549022e-02, 4.90196086e-02, 2.20588241e-02, 3.18627469e-02,
          4.90196096e-03, 2.69607846e-02, 1.96078438e-02, 7.35294167e-03,
          1.22549022e-02, 3.67647074e-02, 9.80392192e-03, 4.90196096e-03,
          1.96078438e-02, 1.47058833e-02, 1.47058833e-02, 2.20588241e-02,
          2.69607846e-02, 3.18627469e-02, 4.90196096e-03, 3.18627469e-02,
          5.88235334e-02, 1.47058833e-02, 9.80392192e-03, 1.71568636e-02,
          0., 3.43137272e-02 ]
      - [ 2.74725282e-03, 1.78571437e-02, 3.43406610e-02, 3.29670347e-02,
          2.33516488e-02, 1.37362641e-03, 4.80769239e-02, 5.21978028e-02,
          2.19780225e-02, 9.61538497e-03, 2.33516488e-02, 9.61538497e-03,
          9.61538497e-03, 2.33516488e-02, 1.09890113e-02, 1.51098901e-02,
          6.86813220e-02, 3.98351662e-02, 2.74725282e-03, 1.64835174e-02,
          2.74725282e-03, 6.86813192e-03, 5.49450563e-03, 8.24175868e-03,
          1.09890113e-02, 4.25824188e-02, 3.02197803e-02, 1.09890113e-02,
          1.51098901e-02, 3.98351662e-02, 1.64835174e-02, 1.23626376e-02,
          2.19780225e-02, 2.88461540e-02, 1.23626376e-02, 2.74725282e-03,
          3.02197803e-02, 1.23626376e-02, 2.60989014e-02, 1.37362638e-02,
          1.64835174e-02, 1.51098901e-02, 1.92307699e-02, 4.12087925e-02,
          1.51098901e-02, 9.61538497e-03, 8.24175868e-03, 1.64835174e-02,
          5.49450563e-03, 3.84615399e-02 ]
      - [ 1.44927539e-02, 1.03519671e-02, 5.38302287e-02, 1.86335407e-02,
          2.27743275e-02, 2.07039341e-03, 5.17598353e-02, 5.17598353e-02,
          3.31262946e-02, 2.07039341e-03, 3.51966880e-02, 8.28157365e-03,
          1.24223605e-02, 4.34782617e-02, 1.24223605e-02, 2.27743275e-02,
          6.00414090e-02, 4.96894419e-02, 1.24223605e-02, 1.24223605e-02,
          1.65631473e-02, 1.65631473e-02, 4.14078683e-03, 6.21118024e-03,
          3.10559012e-02, 6.21118024e-03, 1.44927539e-02, 1.65631473e-02,
          4.14078683e-03, 2.48447210e-02, 1.24223605e-02, 2.07039341e-02,
          1.03519671e-02, 4.76190485e-02, 3.10559012e-02, 6.21118024e-03,
          2.48447210e-02, 0., 1.65631473e-02, 8.28157365e-03, 0.,
          3.31262946e-02, 8.28157365e-03, 1.65631473e-02, 3.31262946e-02,
          1.44927539e-02, 1.44927539e-02, 1.03519671e-02, 4.14078683e-03,
          1.65631473e-02 ]
      - [ 1.21951215e-02, 1.70731712e-02, 2.19512191e-02, 3.41463424e-02,
          5.36585376e-02, 9.75609757e-03, 1.95121951e-02, 2.68292688e-02,
          2.68292688e-02, 1.95121951e-02, 2.19512191e-02, 1.46341464e-02,
          1.95121951e-02, 7.31707318e-03, 1.21951215e-02, 2.43902430e-02,
          5.60975596e-02, 4.39024381e-02, 1.46341464e-02, 9.75609757e-03,
          7.31707318e-03, 2.43902430e-02, 1.21951215e-02, 2.19512191e-02,
          4.87804879e-03, 3.41463424e-02, 9.75609757e-03, 9.75609757e-03,
          1.70731712e-02, 3.17073166e-02, 1.46341464e-02, 1.95121951e-02,
          2.19512191e-02, 2.68292688e-02, 1.70731712e-02, 1.46341464e-02,
          2.19512191e-02, 1.21951215e-02, 3.41463424e-02, 7.31707318e-03,
          2.19512191e-02, 3.41463424e-02, 1.21951215e-02, 3.90243903e-02,
          7.31707318e-03, 1.21951215e-02, 1.46341464e-02, 1.21951215e-02,
          7.31707318e-03, 9.75609757e-03 ]
      - [ 4.95049497e-03, 2.47524753e-02, 4.95049497e-03, 0.,
          1.98019799e-02, 4.95049497e-03, 9.90098994e-03, 4.95049497e-03,
          1.48514844e-02, 3.96039598e-02, 1.98019799e-02, 2.97029689e-02,
          5.94059378e-02, 6.43564314e-02, 1.98019799e-02, 4.95049497e-03,
          4.95049497e-03, 1.98019799e-02, 2.47524753e-02, 4.95049497e-03,
          1.48514844e-02, 8.41584131e-02, 4.45544533e-02, 2.97029689e-02,
          0., 1.98019799e-02, 1.98019799e-02, 1.98019799e-02,
          4.95049497e-03, 3.46534662e-02, 9.90098994e-03, 1.98019799e-02,
          0., 0., 4.95049497e-03, 2.47524753e-02, 2.97029689e-02,
          1.98019799e-02, 1.98019799e-02, 1.48514844e-02, 9.90098994e-03,
          0., 2.97029689e-02, 5.94059378e-02, 1.98019799e-02,
          4.95049497e-03, 9.90098994e-03, 9.90098994e-03, 2.97029689e-02,
          2.97029689e-02 ]
      - [ 3.13971750e-03, 3.13971750e-03, 3.13971750e-02, 1.41287288e-02,
          4.86656204e-02, 1.56985875e-03, 3.13971750e-03, 4.70957626e-03,
          1.56985875e-02, 1.72684453e-02, 2.04081647e-02, 1.56985875e-03,
          0., 1.22448981e-01, 7.84929376e-03, 2.35478804e-02,
          7.37833604e-02, 4.23861854e-02, 1.25588700e-02, 1.09890113e-02,
          4.70957626e-03, 7.22135007e-02, 2.35478804e-02, 3.76766101e-02,
          6.27943501e-03, 2.35478804e-02, 4.70957626e-03, 7.84929376e-03,
          1.41287288e-02, 4.70957607e-02, 1.72684453e-02, 2.19780225e-02,
          3.45368907e-02, 0., 1.56985875e-03, 4.70957626e-03,
          3.13971750e-02, 7.84929376e-03, 3.45368907e-02, 6.12244904e-02,
          6.27943501e-03, 0., 1.72684453e-02, 2.35478804e-02,
          1.56985875e-03, 3.13971750e-03, 6.27943501e-03, 1.72684453e-02,
          4.70957626e-03, 4.70957626e-03 ]
      - [ 1.52671756e-02, 1.52671756e-02, 1.52671756e-02, 7.63358781e-03,
          8.39694664e-02, 0., 0., 0., 1.52671756e-02, 7.63358781e-03, 0.,
          0., 6.87022880e-02, 1.52671756e-02, 2.29007639e-02, 0., 0.,
          1.52671756e-02, 2.29007639e-02, 5.34351133e-02, 6.87022880e-02,
          1.52671756e-02, 2.29007639e-02, 3.05343512e-02, 1.52671756e-02,
          1.52671756e-02, 1.52671756e-02, 1.52671756e-02, 1.52671756e-02,
          1.52671756e-02, 3.05343512e-02, 2.29007639e-02, 4.58015278e-02,
          7.63358781e-03, 0., 7.63358781e-03, 1.52671756e-02,
          7.63358781e-03, 1.52671756e-02, 3.05343512e-02, 7.63358781e-03,
          0., 0., 7.63358781e-03, 1.22137405e-01, 2.29007639e-02,
          1.52671756e-02, 1.52671756e-02, 2.29007639e-02, 1.52671756e-02 ]
      - [ 2.04081628e-02, 4.08163257e-02, 0., 0., 2.04081628e-02,
          2.04081628e-02, 2.04081628e-02, 1.02040814e-02, 1.02040814e-02,
          0., 0., 0., 5.10204062e-02, 1.02040814e-02, 0., 0., 0.,
          2.04081628e-02, 2.04081628e-02, 0., 5.10204062e-02,
          1.02040814e-02, 0., 0., 0., 1.02040814e-02, 1.02040814e-02,
          1.02040814e-02, 2.04081628e-02, 0., 2.04081628e-02,
          6.12244904e-02, 2.04081628e-02, 2.04081628e-02, 0.,
          4.08163257e-02, 1.02040814e-02, 7.14285672e-02, 0.,
          1.02040814e-02, 6.12244904e-02, 0., 4.08163257e-02,
          3.06122452e-02, 6.12244904e-02, 3.06122452e-02, 4.08163257e-02,
          3.06122452e-02, 6.12244904e-02, 3.06122452e-02 ]
      - [ 3.27868853e-03, 1.96721312e-02, 3.27868834e-02, 1.31147541e-02,
          2.62295082e-02, 6.55737706e-03, 5.90163916e-02, 5.90163916e-02,
          1.63934417e-02, 1.63934417e-02, 1.31147541e-02, 1.96721312e-02,
          9.83606558e-03, 2.95081958e-02, 1.31147541e-02, 2.62295082e-02,
          1.96721312e-02, 2.95081958e-02, 3.27868853e-03, 1.63934417e-02,
          6.55737706e-03, 5.57377040e-02, 6.55737706e-03, 9.83606558e-03,
          2.95081958e-02, 1.63934417e-02, 3.27868834e-02, 6.55737706e-03,
          1.31147541e-02, 3.27868834e-02, 2.29508206e-02, 1.63934417e-02,
          9.83606558e-03, 3.27868853e-03, 3.60655747e-02, 0.,
          1.63934417e-02, 6.55737706e-03, 2.95081958e-02, 3.27868853e-03,
          9.83606558e-03, 3.60655747e-02, 6.55737706e-03, 2.95081958e-02,
          1.63934417e-02, 3.27868834e-02, 1.63934417e-02, 2.29508206e-02,
          6.55737706e-03, 3.60655747e-02 ]
      - [ 1.25448033e-02, 1.79211460e-02, 4.30107526e-02, 3.58422939e-03,
          5.91397844e-02, 1.79211460e-02, 0., 3.58422939e-03,
          1.25448033e-02, 1.97132621e-02, 1.79211460e-02, 3.58422939e-03,
          1.79211460e-02, 9.49820802e-02, 1.25448033e-02, 2.32974906e-02,
          9.31899622e-02, 5.19713275e-02, 8.96057300e-03, 5.37634408e-03,
          7.16845877e-03, 2.68817209e-02, 8.96057300e-03, 1.97132621e-02,
          1.79211469e-03, 1.25448033e-02, 8.96057300e-03, 3.58422939e-03,
          1.25448033e-02, 4.30107526e-02, 1.61290318e-02, 1.43369175e-02,
          4.30107526e-02, 0., 3.58422939e-03, 2.86738351e-02,
          3.22580636e-02, 1.79211469e-03, 2.50896066e-02, 5.73476702e-02,
          3.58422939e-03, 0., 2.15053763e-02, 1.61290318e-02,
          3.58422939e-03, 1.43369175e-02, 1.07526882e-02, 1.61290318e-02,
          1.43369175e-02, 1.25448033e-02 ]
      - [ 0., 9.96677764e-03, 3.65448482e-02, 9.96677764e-03,
          1.66112948e-02, 1.32890362e-02, 8.30564797e-02, 6.31229207e-02,
          2.32558139e-02, 0., 6.31229207e-02, 2.99003311e-02,
          9.96677764e-03, 3.32225906e-03, 9.96677764e-03, 2.32558139e-02,
          3.65448482e-02, 5.31561449e-02, 0., 1.99335553e-02,
          9.96677764e-03, 3.32225906e-03, 1.32890362e-02, 1.99335553e-02,
          1.99335553e-02, 9.96677764e-03, 2.32558139e-02, 3.65448482e-02,
          1.99335553e-02, 2.32558139e-02, 2.32558139e-02, 1.66112948e-02,
          6.64451811e-03, 2.65780725e-02, 3.65448482e-02, 3.32225906e-03,
          6.64451811e-03, 0., 2.32558139e-02, 1.32890362e-02,
          6.64451811e-03, 1.99335553e-02, 1.32890362e-02, 3.32225906e-03,
          1.99335553e-02, 2.65780725e-02, 1.66112948e-02, 6.64451811e-03,
          6.64451811e-03, 3.98671106e-02 ]
      - [ 8.43881816e-03, 2.95358635e-02, 5.27426153e-02, 1.26582272e-02,
          3.58649790e-02, 0., 2.74261590e-02, 2.95358635e-02,
          2.10970454e-02, 6.32911362e-03, 2.32067499e-02, 6.32911362e-03,
          4.43037972e-02, 2.95358635e-02, 1.68776363e-02, 1.68776363e-02,
          6.75105453e-02, 4.21940908e-02, 1.68776363e-02, 1.26582272e-02,
          1.05485227e-02, 2.10970454e-02, 1.47679318e-02, 1.68776363e-02,
          6.32911362e-03, 1.68776363e-02, 3.79746817e-02, 2.53164545e-02,
          1.68776363e-02, 2.53164545e-02, 1.68776363e-02, 2.53164545e-02,
          2.32067499e-02, 2.10970454e-03, 1.05485227e-02, 8.43881816e-03,
          1.47679318e-02, 6.32911362e-03, 2.53164545e-02, 2.53164545e-02,
          2.10970454e-03, 0., 1.89873409e-02, 8.43881816e-03,
          3.58649790e-02, 1.26582272e-02, 1.05485227e-02, 1.26582272e-02,
          1.47679318e-02, 3.37552726e-02 ]
      - [ 0., 0., 3.33333351e-02, 7.14285746e-02, 2.38095243e-02, 0.,
          7.14285746e-02, 5.71428612e-02, 3.33333351e-02, 4.76190494e-03,
          1.90476198e-02, 1.90476198e-02, 4.76190494e-03, 4.76190494e-03,
          0., 2.38095243e-02, 6.19047657e-02, 3.80952395e-02, 0.,
          4.76190494e-03, 0., 0., 1.42857153e-02, 1.42857153e-02,
          2.85714306e-02, 3.33333351e-02, 9.52380989e-03, 0., 0.,
          4.76190485e-02, 4.76190485e-02, 9.52380989e-03, 2.38095243e-02,
          9.52380989e-03, 3.80952395e-02, 0., 9.52380970e-02, 0.,
          4.28571440e-02, 0., 0., 1.90476198e-02, 1.42857153e-02,
          4.28571440e-02, 0., 9.52380989e-03, 4.76190494e-03,
          4.76190494e-03, 0., 1.90476198e-02 ]
      - [ 1.52439019e-02, 2.74390243e-02, 3.65853645e-02, 1.52439019e-02,
          1.82926822e-02, 1.21951215e-02, 8.53658468e-02, 9.45121944e-02,
          2.13414617e-02, 3.04878037e-03, 9.14634112e-03, 3.35365832e-02,
          3.96341458e-02, 0., 1.82926822e-02, 2.43902430e-02,
          2.13414617e-02, 3.04878037e-02, 1.52439019e-02, 9.14634112e-03,
          9.14634112e-03, 6.09756075e-03, 1.21951215e-02, 6.09756075e-03,
          9.14634112e-03, 9.14634112e-03, 4.26829234e-02, 3.04878037e-02,
          1.52439019e-02, 1.52439019e-02, 2.13414617e-02, 6.09756075e-03,
          1.21951215e-02, 1.21951215e-02, 3.65853645e-02, 9.14634112e-03,
          6.09756075e-03, 6.09756075e-03, 2.13414617e-02, 9.14634112e-03,
          3.04878037e-03, 3.04878037e-03, 1.21951215e-02, 1.52439019e-02,
          5.48780486e-02, 1.21951215e-02, 1.52439019e-02, 9.14634112e-03,
          9.14634112e-03, 3.96341458e-02 ]
      - [ 3.57142873e-02, 7.14285718e-03, 3.57142859e-03, 2.14285720e-02,
          1.07142860e-02, 1.78571437e-02, 1.07142860e-02, 2.14285720e-02,
          1.78571437e-02, 3.57142859e-03, 3.21428590e-02, 0.,
          1.78571437e-02, 7.14285718e-03, 1.78571437e-02, 2.85714287e-02,
          1.78571437e-02, 3.57142859e-03, 2.50000004e-02, 3.57142873e-02,
          3.57142859e-03, 3.57142873e-02, 1.42857144e-02, 3.21428590e-02,
          3.92857157e-02, 5.71428575e-02, 1.42857144e-02, 7.14285718e-03,
          7.14285718e-03, 1.07142860e-02, 5.00000007e-02, 1.42857144e-02,
          7.14285718e-03, 6.42857179e-02, 7.14285718e-03, 2.50000004e-02,
          1.07142860e-02, 3.57142873e-02, 7.14285718e-03, 2.50000004e-02,
          3.21428590e-02, 1.78571437e-02, 2.50000004e-02, 7.14285718e-03,
          3.57142873e-02, 2.85714287e-02, 2.14285720e-02, 7.14285718e-03,
          1.07142860e-02, 1.07142860e-02 ]
      - [ 1.33928582e-02, 8.92857183e-03, 4.01785746e-02, 1.78571437e-02,
          2.23214291e-02, 2.23214291e-02, 5.80357164e-02, 2.67857164e-02,
          2.23214291e-02, 1.78571437e-02, 2.23214291e-02, 1.78571437e-02,
          8.92857183e-03, 1.78571437e-02, 1.78571437e-02, 1.78571437e-02,
          5.80357164e-02, 1.78571437e-02, 2.23214291e-02, 8.92857183e-03,
          4.46428591e-03, 8.92857183e-03, 1.33928582e-02, 2.67857164e-02,
          2.67857164e-02, 2.23214291e-02, 8.92857183e-03, 4.46428591e-03,
          1.33928582e-02, 4.91071455e-02, 8.92857183e-03, 3.12500000e-02,
          3.12500000e-02, 2.67857164e-02, 4.01785746e-02, 8.92857183e-03,
          2.23214291e-02, 8.92857183e-03, 3.12500000e-02, 1.78571437e-02,
          1.78571437e-02, 1.33928582e-02, 4.46428591e-03, 8.92857183e-03,
          1.78571437e-02, 2.23214291e-02, 1.78571437e-02, 1.33928582e-02,
          4.46428591e-03, 1.33928582e-02 ]
      - [ 1.30718956e-02, 1.96078438e-02, 3.92156877e-02, 1.96078438e-02,
          1.30718956e-02, 3.26797403e-02, 1.30718956e-02, 1.96078438e-02,
          1.30718956e-02, 0., 5.22875823e-02, 6.53594779e-03,
          2.61437912e-02, 2.61437912e-02, 2.61437912e-02, 2.61437912e-02,
          5.88235296e-02, 1.30718956e-02, 1.30718956e-02, 2.61437912e-02,
          6.53594779e-03, 1.30718956e-02, 1.30718956e-02, 0., 0.,
          6.53594779e-03, 6.53594779e-03, 6.53594779e-03, 1.96078438e-02,
          1.96078438e-02, 1.30718956e-02, 1.96078438e-02, 6.53594779e-03,
          1.96078438e-02, 1.30718956e-02, 1.96078438e-02, 1.96078438e-02,
          4.57516350e-02, 3.92156877e-02, 6.53594779e-03, 2.61437912e-02,
          1.96078438e-02, 3.92156877e-02, 1.30718956e-02, 7.18954280e-02,
          0., 3.26797403e-02, 1.96078438e-02, 0., 2.61437912e-02 ]
      - [ 3.34448144e-02, 2.34113708e-02, 1.67224072e-02, 1.33779263e-02,
          1.00334445e-02, 6.68896316e-03, 1.33779263e-02, 5.01672253e-02,
          1.67224072e-02, 1.00334445e-02, 1.67224072e-02, 0.,
          9.36454833e-02, 0., 2.34113708e-02, 2.67558526e-02,
          6.68896316e-03, 0., 2.34113708e-02, 3.67892981e-02,
          1.00334445e-02, 0., 2.00668890e-02, 3.01003344e-02,
          1.33779263e-02, 6.68896316e-03, 3.67892981e-02, 1.00334445e-02,
          6.68896316e-03, 3.34448158e-03, 4.68227416e-02, 1.00334445e-02,
          6.68896316e-03, 4.01337780e-02, 6.68896316e-03, 4.34782617e-02,
          1.33779263e-02, 1.00334445e-02, 1.33779263e-02, 1.33779263e-02,
          1.33779263e-02, 3.34448158e-03, 1.33779263e-02, 1.00334445e-02,
          5.68561852e-02, 3.34448144e-02, 1.00334445e-02, 1.33779263e-02,
          2.67558526e-02, 5.68561852e-02 ]
      - [ 3.04347817e-02, 2.17391290e-02, 4.34782589e-03, 3.47826071e-02,
          1.30434781e-02, 0., 1.08695649e-01, 8.69565159e-02,
          1.73913036e-02, 4.34782589e-03, 4.34782580e-02, 1.30434781e-02,
          2.17391290e-02, 8.69565178e-03, 1.73913036e-02, 0.,
          4.34782589e-03, 1.30434781e-02, 3.04347817e-02, 4.34782580e-02,
          1.30434781e-02, 0., 2.60869563e-02, 8.69565178e-03,
          1.30434781e-02, 2.60869563e-02, 1.30434781e-02, 3.47826071e-02,
          1.30434781e-02, 8.69565178e-03, 4.78260852e-02, 8.69565178e-03,
          8.69565178e-03, 3.04347817e-02, 8.69565178e-03, 5.21739125e-02,
          8.69565178e-03, 1.73913036e-02, 4.34782589e-03, 0.,
          1.30434781e-02, 3.91304344e-02, 8.69565178e-03, 4.34782589e-03,
          2.17391290e-02, 1.30434781e-02, 2.17391290e-02, 0.,
          1.73913036e-02, 0. ]
      - [ 9.56937764e-03, 4.78468873e-02, 1.91387553e-02, 1.43540669e-02,
          1.91387553e-02, 9.56937764e-03, 3.34928222e-02, 7.65550211e-02,
          2.87081338e-02, 9.56937764e-03, 2.87081338e-02, 3.34928222e-02,
          1.43540669e-02, 0., 1.91387553e-02, 2.87081338e-02,
          9.56937764e-03, 2.39234436e-02, 9.56937764e-03, 9.56937764e-03,
          1.43540669e-02, 4.78468882e-03, 9.56937764e-03, 1.91387553e-02,
          4.78468882e-03, 3.34928222e-02, 3.82775106e-02, 2.39234436e-02,
          1.43540669e-02, 3.34928222e-02, 2.87081338e-02, 4.78468882e-03,
          4.78468882e-03, 0., 9.56937764e-03, 5.26315756e-02,
          1.43540669e-02, 4.78468882e-03, 2.39234436e-02, 2.39234436e-02,
          4.78468882e-03, 1.43540669e-02, 4.78468882e-03, 1.91387553e-02,
          1.43540669e-02, 3.34928222e-02, 4.78468873e-02, 1.43540669e-02,
          4.78468882e-03, 3.34928222e-02 ]
      - [ 2.25806441e-02, 5.48387095e-02, 4.51612882e-02, 1.61290318e-02,
          9.67741944e-03, 6.45161280e-03, 1.61290318e-02, 4.51612882e-02,
          1.61290318e-02, 6.45161280e-03, 3.22580640e-03, 1.93548389e-02,
          1.29032254e-01, 0., 1.93548389e-02, 3.22580636e-02,
          1.93548389e-02, 1.93548389e-02, 2.25806441e-02, 4.51612882e-02,
          1.61290318e-02, 0., 6.45161280e-03, 9.67741944e-03,
          1.29032256e-02, 1.29032256e-02, 2.58064512e-02, 1.61290318e-02,
          3.22580640e-03, 6.45161280e-03, 2.90322583e-02, 6.45161280e-03,
          1.93548389e-02, 0., 1.29032256e-02, 4.19354849e-02,
          1.29032256e-02, 6.45161280e-03, 6.45161280e-03, 1.61290318e-02,
          3.22580640e-03, 6.45161280e-03, 6.45161280e-03, 6.45161280e-03,
          5.80645166e-02, 3.22580636e-02, 0., 0., 5.16129024e-02,
          2.58064512e-02 ]
      - [ 9.43396240e-03, 9.43396240e-03, 3.30188684e-02, 2.83018872e-02,
          1.88679248e-02, 0., 2.83018872e-02, 2.83018872e-02,
          3.77358496e-02, 2.35849060e-02, 2.83018872e-02, 4.71698120e-03,
          2.35849060e-02, 2.83018872e-02, 4.71698120e-03, 4.24528308e-02,
          3.30188684e-02, 1.88679248e-02, 4.71698120e-03, 1.88679248e-02,
          1.41509436e-02, 9.43396240e-03, 9.43396240e-03, 2.35849060e-02,
          3.30188684e-02, 1.88679248e-02, 1.41509436e-02, 1.88679248e-02,
          9.43396240e-03, 9.43396240e-03, 1.88679248e-02, 2.35849060e-02,
          1.41509436e-02, 1.41509436e-02, 9.43396240e-03, 1.41509436e-02,
          1.41509436e-02, 2.35849060e-02, 3.30188684e-02, 3.77358496e-02,
          9.43396240e-03, 0., 2.35849060e-02, 9.43396240e-03,
          5.66037744e-02, 2.35849060e-02, 2.83018872e-02, 4.71698120e-03,
          3.30188684e-02, 2.35849060e-02 ]
      - [ 2.57731955e-02, 1.18556701e-01, 0., 5.15463902e-03,
          5.15463902e-03, 2.06185561e-02, 5.15463902e-03, 0., 0.,
          1.54639166e-02, 5.15463902e-03, 5.15463902e-03, 9.79381427e-02,
          5.15463902e-03, 2.57731955e-02, 1.03092780e-02, 1.03092780e-02,
          0., 1.54639166e-02, 1.03092780e-02, 4.12371121e-02,
          5.15463902e-03, 0., 5.15463902e-03, 5.15463902e-03,
          3.09278332e-02, 2.06185561e-02, 6.18556663e-02, 5.15463902e-03,
          1.54639166e-02, 0., 1.03092780e-02, 5.15463902e-03,
          2.57731955e-02, 5.15463902e-03, 6.70103058e-02, 1.03092780e-02,
          2.06185561e-02, 5.15463902e-03, 3.60824727e-02, 0.,
          1.03092780e-02, 1.54639166e-02, 2.57731955e-02, 1.08247422e-01,
          2.06185561e-02, 1.54639166e-02, 5.15463902e-03, 2.57731955e-02,
          1.54639166e-02 ]
      - [ 1.40845068e-02, 7.04225339e-03, 4.22535203e-02, 1.40845068e-02,
          2.11267602e-02, 1.40845068e-02, 4.22535203e-02, 2.81690136e-02,
          1.40845068e-02, 0., 2.81690136e-02, 2.11267602e-02,
          2.11267602e-02, 1.40845068e-02, 1.40845068e-02, 1.40845068e-02,
          7.74647892e-02, 2.81690136e-02, 1.40845068e-02, 2.11267602e-02,
          2.11267602e-02, 0., 0., 0., 2.11267602e-02, 7.04225339e-03,
          4.92957756e-02, 0., 0., 4.22535203e-02, 2.81690136e-02,
          7.04225339e-03, 2.11267602e-02, 0., 4.22535203e-02,
          4.22535203e-02, 6.33802786e-02, 7.04225339e-03, 1.40845068e-02,
          2.11267602e-02, 7.04225339e-03, 7.04225339e-03, 1.40845068e-02,
          5.63380271e-02, 7.04225339e-03, 7.04225339e-03, 1.40845068e-02,
          0., 7.04225339e-03, 4.22535203e-02 ]
      - [ 0., 1.18644066e-01, 5.64971752e-03, 2.25988701e-02,
          2.82485876e-02, 5.64971752e-03, 3.95480245e-02, 2.82485876e-02,
          3.38983051e-02, 1.69491526e-02, 1.12994350e-02, 1.12994350e-02,
          0., 3.95480245e-02, 3.38983051e-02, 0., 3.95480245e-02,
          2.82485876e-02, 0., 0., 0., 2.25988701e-02, 1.69491526e-02,
          5.64971752e-03, 0., 2.25988701e-02, 1.12994350e-02,
          1.12994350e-02, 0., 3.38983051e-02, 3.38983051e-02,
          5.64971752e-03, 3.95480245e-02, 0., 1.12994350e-02,
          5.64971752e-03, 6.21468946e-02, 0., 1.69491526e-02,
          2.25988701e-02, 0., 5.64971752e-03, 5.64971752e-03,
          7.90960491e-02, 2.82485876e-02, 2.25988701e-02, 2.82485876e-02,
          1.69491526e-02, 0., 2.82485876e-02 ]
      - [ 0., 1.11940298e-02, 1.86567158e-02, 0., 4.47761193e-02,
          2.98507456e-02, 1.11940298e-02, 2.61194017e-02, 3.73134320e-03,
          7.46268639e-03, 2.23880596e-02, 3.73134320e-03, 3.73134320e-03,
          2.53731340e-01, 7.46268639e-03, 1.86567158e-02, 1.04477607e-01,
          4.10447754e-02, 0., 7.46268639e-03, 3.73134320e-03,
          2.98507456e-02, 7.46268639e-03, 7.46268639e-03, 0.,
          7.83582106e-02, 1.49253728e-02, 3.73134320e-03, 3.73134320e-03,
          5.97014911e-02, 0., 3.73134320e-03, 2.98507456e-02,
          3.73134320e-03, 3.73134320e-03, 1.49253728e-02, 3.73134315e-02,
          3.73134320e-03, 1.11940298e-02, 2.23880596e-02, 0., 0.,
          7.46268639e-03, 0., 0., 3.73134320e-03, 7.46268639e-03,
          3.73134320e-03, 3.73134320e-03, 1.86567158e-02 ]
      - [ 1.92307699e-02, 5.12820520e-02, 5.12820520e-02, 5.12820520e-02,
          4.48717959e-02, 6.41025649e-03, 1.28205130e-02, 0.,
          4.48717959e-02, 6.41025649e-03, 0., 0., 7.05128238e-02,
          3.20512839e-02, 1.92307699e-02, 6.41025649e-03, 3.20512839e-02,
          1.28205130e-02, 6.41025649e-03, 0., 0., 3.20512839e-02,
          6.41025649e-03, 6.41025649e-03, 0., 1.28205130e-02,
          3.84615399e-02, 1.92307699e-02, 1.92307699e-02, 8.97435918e-02,
          2.56410260e-02, 6.41025649e-03, 1.28205130e-02, 0., 0.,
          6.41025649e-03, 6.41025677e-02, 6.41025649e-03, 1.92307699e-02,
          1.28205130e-02, 6.41025649e-03, 0., 6.41025649e-03,
          1.28205130e-02, 7.69230798e-02, 6.41025649e-03, 0.,
          6.41025649e-03, 1.28205130e-02, 2.56410260e-02 ]
      - [ 1.80412363e-02, 2.57731951e-03, 2.57731955e-02, 7.73195829e-03,
          1.54639166e-02, 0., 5.92783503e-02, 5.15463902e-03,
          2.83505153e-02, 7.73195829e-03, 3.86597924e-02, 2.83505153e-02,
          1.54639166e-02, 6.18556663e-02, 5.15463902e-03, 2.06185561e-02,
          2.57731955e-02, 2.06185561e-02, 1.28865978e-02, 7.73195829e-03,
          2.06185561e-02, 1.03092780e-02, 1.03092780e-02, 1.80412363e-02,
          2.57731955e-02, 6.44329861e-02, 0., 1.54639166e-02,
          7.73195829e-03, 2.31958758e-02, 1.03092780e-02, 7.73195829e-03,
          1.80412363e-02, 1.80412363e-02, 5.67010306e-02, 0.,
          2.31958758e-02, 0., 2.57731955e-02, 2.83505153e-02, 0.,
          1.80412363e-02, 1.54639166e-02, 3.09278332e-02, 4.38144319e-02,
          7.73195829e-03, 5.92783503e-02, 1.80412363e-02, 0.,
          1.54639166e-02 ]
      - [ 3.84615385e-03, 1.92307699e-02, 3.84615385e-03, 1.92307699e-02,
          3.84615385e-03, 3.84615385e-03, 2.69230772e-02, 3.07692308e-02,
          1.92307699e-02, 1.15384618e-02, 5.38461544e-02, 3.46153863e-02,
          4.23076935e-02, 4.61538471e-02, 0., 1.53846154e-02,
          3.84615399e-02, 3.84615399e-02, 0., 1.53846154e-02,
          3.84615385e-03, 1.15384618e-02, 0., 7.69230770e-03,
          5.38461544e-02, 9.23076943e-02, 1.15384618e-02, 1.15384618e-02,
          1.92307699e-02, 3.46153863e-02, 1.92307699e-02, 1.15384618e-02,
          1.15384618e-02, 0., 5.38461544e-02, 7.69230770e-03,
          2.69230772e-02, 0., 1.53846154e-02, 1.15384618e-02,
          3.84615385e-03, 7.30769262e-02, 3.84615385e-03, 1.53846154e-02,
          3.46153863e-02, 1.15384618e-02, 3.84615385e-03, 7.69230770e-03,
          7.69230770e-03, 7.69230770e-03 ]
      - [ 5.00000007e-02, 1.25000002e-02, 3.75000015e-02, 1.25000002e-02,
          0., 0., 0., 3.75000015e-02, 1.25000002e-02, 2.50000004e-02,
          1.25000002e-02, 0., 6.25000000e-02, 0., 1.25000002e-02, 0.,
          5.00000007e-02, 0., 5.00000007e-02, 0., 2.50000004e-02, 0.,
          2.50000004e-02, 6.25000000e-02, 0., 0., 2.50000004e-02,
          8.74999985e-02, 2.50000004e-02, 0., 0., 0., 0., 7.50000030e-02,
          0., 2.50000004e-02, 0., 1.25000002e-02, 0., 3.75000015e-02,
          1.25000002e-02, 0., 1.25000002e-02, 0., 7.50000030e-02,
          3.75000015e-02, 1.25000002e-02, 3.75000015e-02, 3.75000015e-02,
          0. ]
      - [ 1.38632162e-02, 1.29390024e-02, 1.47874309e-02, 5.54528646e-03,
          1.94085035e-02, 8.41035098e-02, 7.39371544e-03, 4.62107221e-03,
          4.62107221e-03, 3.78927924e-02, 1.75600741e-02, 3.69685772e-03,
          3.60443629e-02, 3.97412218e-02, 1.66358594e-02, 3.69685772e-03,
          1.20147876e-02, 9.24214441e-03, 1.29390024e-02, 2.31053606e-02,
          1.20147876e-02, 2.58780047e-02, 5.54528646e-03, 6.46950118e-03,
          1.29390024e-02, 1.75600741e-02, 4.62107221e-03, 1.10905729e-02,
          3.69685772e-03, 2.49537900e-02, 2.12569311e-02, 1.10905729e-02,
          2.49537900e-02, 2.95748618e-02, 6.46950118e-03, 1.26617372e-01,
          3.69685777e-02, 2.77264323e-03, 2.77264323e-03, 3.97412218e-02,
          3.69685772e-03, 1.20147876e-02, 9.24214441e-03, 2.86506470e-02,
          2.49537900e-02, 3.51201482e-02, 9.24214441e-03, 3.60443629e-02,
          2.03327183e-02, 1.38632162e-02 ]
      - [ 2.85714287e-02, 2.53968257e-02, 0., 3.17460322e-03,
          3.17460336e-02, 4.12698425e-02, 6.34920644e-03, 3.17460322e-03,
          9.52380989e-03, 3.49206366e-02, 3.17460336e-02, 1.26984129e-02,
          3.17460336e-02, 1.26984129e-02, 1.26984129e-02, 9.52380989e-03,
          0., 1.26984129e-02, 2.22222228e-02, 6.34920644e-03,
          1.90476198e-02, 6.34920644e-03, 3.17460336e-02, 4.76190485e-02,
          2.22222228e-02, 9.52380989e-03, 0., 9.52380989e-03,
          9.52380989e-03, 6.34920644e-03, 1.26984129e-02, 4.44444455e-02,
          3.80952395e-02, 6.66666701e-02, 2.22222228e-02, 5.39682545e-02,
          3.17460322e-03, 1.90476198e-02, 1.26984129e-02, 3.17460322e-03,
          3.17460336e-02, 9.52380989e-03, 5.39682545e-02, 6.34920644e-03,
          6.34920644e-03, 9.52380989e-03, 4.44444455e-02, 2.53968257e-02,
          3.49206366e-02, 3.17460322e-03 ]
      - [ 2.17391308e-02, 5.79710156e-02, 7.24637695e-03, 0.,
          1.44927539e-02, 7.24637695e-03, 7.24637695e-03, 0.,
          1.44927539e-02, 7.24637695e-03, 4.34782617e-02, 3.62318829e-02,
          7.24637657e-02, 0., 0., 2.89855078e-02, 0., 1.44927539e-02,
          1.44927539e-02, 2.17391308e-02, 0., 7.24637695e-03,
          2.17391308e-02, 4.34782617e-02, 3.62318829e-02, 1.44927539e-02,
          0., 1.44927539e-02, 0., 0., 7.24637695e-03, 4.34782617e-02,
          7.24637695e-03, 1.44927539e-02, 4.34782617e-02, 3.62318829e-02,
          1.44927539e-02, 2.89855078e-02, 1.44927539e-02, 7.24637657e-02,
          1.44927539e-02, 7.24637695e-03, 7.24637695e-03, 3.62318829e-02,
          7.24637657e-02, 0., 2.89855078e-02, 1.44927539e-02,
          2.17391308e-02, 7.24637695e-03 ]
      - [ 1.55642023e-02, 1.16731515e-02, 4.28015552e-02, 3.89105058e-03,
          0., 3.50194536e-02, 1.55642023e-02, 1.94552522e-02,
          7.78210117e-03, 1.16731515e-02, 2.72373538e-02, 4.28015552e-02,
          1.94552522e-02, 7.78210117e-03, 3.89105058e-03, 0.,
          3.89105044e-02, 1.16731515e-02, 1.16731515e-02, 1.55642023e-02,
          1.55642023e-02, 0., 1.55642023e-02, 1.16731515e-02,
          1.16731515e-02, 0., 1.16731515e-02, 1.20622568e-01,
          1.16731515e-02, 7.78210117e-03, 1.16731515e-02, 3.11284047e-02,
          0., 3.89105044e-02, 1.55642023e-02, 7.78210117e-03,
          1.55642023e-02, 0., 3.89105058e-03, 5.05836569e-02,
          3.89105058e-03, 8.17120597e-02, 1.94552522e-02, 3.89105058e-03,
          1.16731517e-01, 7.78210117e-03, 2.33463030e-02, 7.78210117e-03,
          0., 1.16731515e-02 ]
   decision_functions:
      -
         sv_count: 1
         rho: -6.6215955490117373e-01
         alpha: [ 1. ]
         index: [ 0 ]
