%YAML:1.0
---
opencv_ml_svm:
   format: 3
   svmType: C_SVC
   kernel:
      type: LINEAR
   C: 6.2500000000000000e+01
   term_criteria: { iterations:100 }
   var_count: 50
   class_count: 2
   class_labels: !!opencv-matrix
      rows: 2
      cols: 1
      dt: i
      data: [ 0, 1 ]
   sv_total: 1
   support_vectors:
      - [ -4.47245741e+00, 3.07033014e+00, 5.76578331e+00,
          -5.62109327e+00, 5.42975235e+00, 3.91165757e+00,
          -6.20409250e+00, -1.44816570e+01, -2.87024522e+00,
          -8.31588387e-01, -5.24957848e+00, 2.75805974e+00,
          8.15063763e+00, 5.37979746e+00, -9.33234310e+00,
          -1.52926230e+00, 6.31427479e+00, 5.69964981e+00,
          -9.63627243e+00, -1.53916540e+01, 7.97777224e+00,
          7.52761030e+00, -7.69577599e+00, 6.01982892e-01,
          -1.55073500e+00, 5.55171633e+00, -5.78847504e+00,
          5.59635162e+00, -1.28501391e+00, 6.07868767e+00,
          -4.66751719e+00, 9.61285412e-01, 1.15028644e+00,
          5.62506580e+00, -5.74184704e+00, 2.72761393e+00,
          -1.10328853e+00, -5.35536623e+00, -3.15955818e-01,
          9.32271767e+00, -3.18790293e+00, 4.80963993e+00,
          4.33680344e+00, 1.24557648e+01, 1.70043206e+00,
          -1.30299397e+01, 2.56098390e+00, 3.20396662e+00,
          4.14895087e-01, -3.74145770e+00 ]
   uncompressed_sv_total: 98
   uncompressed_support_vectors:
      - [ 6.90607773e-03, 1.38121555e-02, 3.03867422e-02, 4.00552489e-02,
          2.48618796e-02, 2.07182337e-02, 1.38121555e-02, 1.38121555e-02,
          4.00552489e-02, 5.52486209e-03, 3.03867422e-02, 2.62430944e-02,
          1.79558024e-02, 2.90055256e-02, 1.10497242e-02, 8.28729291e-03,
          2.62430944e-02, 1.38121555e-02, 6.90607773e-03, 2.62430944e-02,
          1.65745858e-02, 8.28729291e-03, 1.38121552e-03, 5.52486209e-03,
          5.66298366e-02, 6.76795617e-02, 4.14364645e-03, 8.28729291e-03,
          1.51933711e-02, 2.07182337e-02, 1.79558024e-02, 1.65745858e-02,
          3.45303863e-02, 4.00552489e-02, 3.03867422e-02, 2.76243109e-02,
          3.17679569e-02, 1.79558024e-02, 5.52486209e-03, 1.79558024e-02,
          2.20994484e-02, 3.59116048e-02, 8.28729291e-03, 5.52486209e-03,
          2.20994484e-02, 1.24309398e-02, 1.10497242e-02, 2.76243105e-03,
          1.79558024e-02, 1.10497242e-02 ]
      - [ 4.10677632e-03, 5.74948676e-02, 1.23203285e-02, 2.25872695e-02,
          4.10677632e-03, 1.23203285e-02, 2.87474338e-02, 1.23203285e-02,
          2.66940463e-02, 1.02669410e-02, 1.84804928e-02, 3.90143767e-02,
          4.51745391e-02, 8.21355265e-03, 1.84804928e-02, 1.84804928e-02,
          2.05338816e-03, 8.21355265e-03, 1.02669410e-02, 2.87474338e-02,
          3.49075980e-02, 1.23203285e-02, 2.05338821e-02, 4.51745391e-02,
          1.23203285e-02, 6.16016425e-03, 1.02669410e-02, 1.43737169e-02,
          8.21355265e-03, 1.02669410e-02, 2.25872695e-02, 1.64271053e-02,
          8.21355265e-03, 5.95482551e-02, 1.23203285e-02, 4.10677642e-02,
          1.23203285e-02, 3.90143767e-02, 1.23203285e-02, 2.05338821e-02,
          1.43737169e-02, 1.23203285e-02, 2.25872695e-02, 1.64271053e-02,
          4.51745391e-02, 1.23203285e-02, 2.05338821e-02, 1.64271053e-02,
          1.64271053e-02, 1.64271053e-02 ]
      - [ 2.61096610e-03, 5.74412532e-02, 3.39425579e-02, 3.13315913e-02,
          1.56657957e-02, 2.61096610e-03, 4.96083573e-02, 7.31070489e-02,
          3.39425579e-02, 5.22193220e-03, 2.87206266e-02, 1.30548310e-02,
          6.78851157e-02, 4.43864241e-02, 0., 1.04438644e-02,
          7.31070489e-02, 1.30548310e-02, 1.56657957e-02, 1.82767622e-02,
          1.04438644e-02, 2.08877288e-02, 5.22193220e-03, 2.61096610e-03,
          2.34986953e-02, 2.08877288e-02, 2.61096610e-03, 7.83289783e-03,
          7.83289783e-03, 1.82767622e-02, 2.61096619e-02, 0.,
          1.82767622e-02, 2.61096610e-03, 2.34986953e-02, 1.82767622e-02,
          1.82767622e-02, 2.34986953e-02, 2.08877288e-02, 1.56657957e-02,
          1.82767622e-02, 1.56657957e-02, 0., 1.30548310e-02,
          2.87206266e-02, 2.61096610e-03, 1.30548310e-02, 1.04438644e-02,
          1.30548310e-02, 7.83289783e-03 ]
      - [ 0., 3.10679618e-02, 5.82524296e-03, 3.68932039e-02,
          1.55339809e-02, 1.94174761e-03, 5.04854396e-02, 4.27184477e-02,
          4.66019437e-02, 2.33009718e-02, 2.71844659e-02, 1.35922330e-02,
          9.70873795e-03, 1.94174759e-02, 1.55339809e-02, 9.70873795e-03,
          1.35922330e-02, 5.82524296e-03, 3.88349523e-03, 7.76699046e-03,
          3.88349523e-03, 1.74757279e-02, 0., 1.35922330e-02,
          5.82524277e-02, 1.94174759e-02, 1.94174761e-03, 5.82524296e-03,
          5.82524296e-03, 1.16504859e-02, 7.76699046e-03, 1.16504859e-02,
          5.82524296e-03, 2.31067970e-01, 3.30097079e-02, 1.16504859e-02,
          7.76699046e-03, 1.94174761e-03, 9.70873795e-03, 5.82524296e-03,
          2.52427198e-02, 5.63106798e-02, 7.76699046e-03, 1.16504859e-02,
          7.76699046e-03, 1.94174759e-02, 3.88349523e-03, 1.74757279e-02,
          1.94174761e-03, 3.88349523e-03 ]
      - [ 6.68896316e-03, 3.34448144e-02, 3.34448158e-03, 5.01672225e-03,
          1.67224072e-02, 1.17056854e-02, 2.34113708e-02, 4.84949835e-02,
          8.36120360e-03, 1.50501672e-02, 2.67558526e-02, 1.67224072e-02,
          3.51170562e-02, 8.36120360e-03, 1.83946490e-02, 2.00668890e-02,
          1.67224072e-02, 1.50501672e-02, 1.00334445e-02, 2.34113708e-02,
          1.83946490e-02, 2.17391308e-02, 1.17056854e-02, 1.83946490e-02,
          2.34113708e-02, 5.01672225e-03, 2.67558526e-02, 2.34113708e-02,
          1.50501672e-02, 2.50836127e-02, 2.67558526e-02, 2.00668890e-02,
          2.34113708e-02, 1.17056854e-02, 2.34113708e-02, 2.17391308e-02,
          2.67558526e-02, 5.01672225e-03, 1.50501672e-02, 2.67558526e-02,
          6.68896316e-03, 1.83946490e-02, 2.00668890e-02, 2.34113708e-02,
          3.67892981e-02, 3.01003344e-02, 4.34782617e-02, 1.67224072e-02,
          1.17056854e-02, 4.01337780e-02 ]
      - [ 6.51890459e-03, 9.12646670e-03, 2.21642759e-02, 3.38983051e-02,
          2.47718375e-02, 1.82529334e-02, 6.12777025e-02, 3.91134284e-02,
          3.25945243e-02, 1.17340283e-02, 3.38983051e-02, 2.47718375e-02,
          1.43415900e-02, 1.17340283e-02, 6.51890459e-03, 9.12646670e-03,
          1.56453717e-02, 1.95567142e-02, 5.21512376e-03, 2.21642759e-02,
          1.82529334e-02, 5.21512376e-03, 1.04302475e-02, 1.17340283e-02,
          2.73793992e-02, 1.17340283e-02, 1.17340283e-02, 2.73793992e-02,
          9.12646670e-03, 1.82529334e-02, 1.82529334e-02, 1.17340283e-02,
          1.43415900e-02, 4.69361134e-02, 2.86831800e-02, 1.04302475e-02,
          2.47718375e-02, 1.30378092e-02, 1.82529334e-02, 2.47718375e-02,
          2.08604950e-02, 5.73663600e-02, 9.12646670e-03, 2.08604950e-02,
          2.34680567e-02, 1.69491526e-02, 2.73793992e-02, 1.30378092e-02,
          6.51890459e-03, 1.95567142e-02 ]
      - [ 2.02429155e-03, 1.82186235e-02, 3.44129577e-02, 3.03643737e-02,
          2.22672075e-02, 3.03643737e-02, 2.83400826e-02, 4.04858291e-02,
          3.03643737e-02, 4.04858310e-03, 3.23886648e-02, 3.64372469e-02,
          3.03643737e-02, 4.04858310e-03, 1.82186235e-02, 1.61943324e-02,
          2.22672075e-02, 2.02429146e-02, 6.07287465e-03, 2.02429146e-02,
          1.61943324e-02, 4.04858310e-03, 6.07287465e-03, 1.01214573e-02,
          1.41700413e-02, 1.82186235e-02, 3.23886648e-02, 1.41700413e-02,
          1.21457493e-02, 2.83400826e-02, 1.82186235e-02, 6.07287465e-03,
          3.23886648e-02, 8.09716620e-03, 1.61943324e-02, 4.45344150e-02,
          1.61943324e-02, 1.82186235e-02, 1.82186235e-02, 2.02429146e-02,
          1.61943324e-02, 2.42914986e-02, 6.07287465e-03, 2.42914986e-02,
          3.64372469e-02, 1.21457493e-02, 2.22672075e-02, 2.02429155e-03,
          1.01214573e-02, 4.45344150e-02 ]
      - [ 1.48809527e-03, 1.04166670e-02, 2.82738097e-02, 5.50595261e-02,
          2.52976194e-02, 2.97619053e-03, 5.35714291e-02, 1.04166670e-02,
          3.42261903e-02, 1.93452388e-02, 2.52976194e-02, 1.19047621e-02,
          2.38095243e-02, 7.44047621e-03, 1.04166670e-02, 2.52976194e-02,
          4.01785709e-02, 1.19047621e-02, 0., 1.48809524e-02,
          2.97619053e-03, 1.63690485e-02, 1.04166670e-02, 4.46428591e-03,
          2.52976194e-02, 5.95238097e-02, 1.48809524e-02, 1.04166670e-02,
          2.08333340e-02, 2.82738097e-02, 1.48809524e-02, 1.48809524e-02,
          2.67857146e-02, 7.29166716e-02, 2.38095243e-02, 4.46428591e-03,
          2.38095243e-02, 1.33928573e-02, 2.82738097e-02, 8.92857183e-03,
          1.48809524e-02, 3.27380970e-02, 1.33928573e-02, 1.48809524e-02,
          1.93452388e-02, 1.33928573e-02, 8.92857183e-03, 1.93452388e-02,
          4.46428591e-03, 2.08333340e-02 ]
      - [ 4.95049497e-03, 2.97029689e-02, 1.98019799e-02, 9.90098994e-03,
          2.97029689e-02, 0., 6.43564314e-02, 3.46534662e-02,
          1.48514844e-02, 4.95049497e-03, 0., 1.98019799e-02,
          5.94059378e-02, 9.90098994e-03, 1.48514844e-02, 3.96039598e-02,
          9.90098994e-03, 1.98019799e-02, 9.90098994e-03, 2.47524753e-02,
          1.48514844e-02, 1.48514844e-02, 2.47524753e-02, 2.47524753e-02,
          0., 1.48514844e-02, 4.45544533e-02, 4.95049497e-03,
          1.48514844e-02, 3.96039598e-02, 4.45544533e-02, 2.47524753e-02,
          4.95049497e-03, 9.90098994e-03, 4.95049497e-03, 4.95049497e-03,
          2.47524753e-02, 4.95049497e-03, 1.98019799e-02, 4.95049497e-03,
          0., 0., 3.46534662e-02, 3.96039598e-02, 6.93069324e-02,
          9.90098994e-03, 9.90098994e-03, 2.47524753e-02, 4.95049497e-03,
          3.96039598e-02 ]
      - [ 1.36054419e-02, 6.80272095e-03, 3.40136066e-02, 1.36054419e-02,
          2.04081628e-02, 0., 9.52380896e-02, 1.29251704e-01,
          1.36054419e-02, 6.80272095e-03, 3.40136066e-02, 5.44217676e-02,
          6.80272095e-03, 6.80272095e-03, 1.36054419e-02, 4.76190448e-02,
          6.12244904e-02, 2.72108838e-02, 2.04081628e-02, 6.80272095e-03,
          6.80272095e-03, 6.80272095e-03, 1.36054419e-02, 1.36054419e-02,
          0., 2.72108838e-02, 2.72108838e-02, 6.80272095e-03,
          6.80272095e-03, 5.44217676e-02, 6.80272095e-03, 1.36054419e-02,
          2.04081628e-02, 0., 6.80272095e-03, 0., 6.80272095e-03, 0.,
          4.76190448e-02, 1.36054419e-02, 0., 0., 2.72108838e-02,
          2.72108838e-02, 2.04081628e-02, 2.04081628e-02, 6.80272095e-03,
          0., 0., 6.80272095e-03 ]
      - [ 2.23048329e-02, 2.23048329e-02, 2.23048329e-02, 7.43494416e-03,
          3.34572494e-02, 1.11524165e-02, 3.34572494e-02, 1.11524165e-02,
          2.23048329e-02, 2.97397766e-02, 3.71747203e-02, 7.43494416e-03,
          2.23048329e-02, 2.60223038e-02, 7.43494416e-03, 3.71747203e-02,
          2.23048329e-02, 1.85873602e-02, 1.48698883e-02, 3.34572494e-02,
          1.48698883e-02, 7.43494416e-03, 2.97397766e-02, 4.83271368e-02,
          1.85873602e-02, 7.43494416e-03, 1.48698883e-02, 3.71747208e-03,
          2.23048329e-02, 1.48698883e-02, 2.60223038e-02, 1.11524165e-02,
          2.60223038e-02, 0., 7.43494416e-03, 1.48698883e-02,
          1.48698883e-02, 2.23048329e-02, 7.43494416e-03, 3.34572494e-02,
          1.11524165e-02, 0., 1.85873602e-02, 1.85873602e-02,
          6.69144988e-02, 2.23048329e-02, 2.23048329e-02, 1.85873602e-02,
          1.85873602e-02, 1.48698883e-02 ]
      - [ 5.31914867e-02, 1.59574468e-02, 1.59574468e-02, 5.31914877e-03,
          3.19148935e-02, 5.31914877e-03, 1.59574468e-02, 3.19148935e-02,
          5.31914877e-03, 1.06382975e-02, 2.12765951e-02, 5.31914877e-03,
          5.85106350e-02, 1.06382975e-02, 4.25531901e-02, 1.06382975e-02,
          0., 3.19148935e-02, 3.19148935e-02, 5.31914877e-03,
          5.31914877e-03, 0., 4.78723384e-02, 2.12765951e-02,
          5.31914877e-03, 1.06382975e-02, 2.12765951e-02, 6.38297871e-02,
          5.31914877e-03, 2.12765951e-02, 1.06382975e-02, 4.78723384e-02,
          2.12765951e-02, 4.78723384e-02, 0., 5.31914877e-03,
          1.06382975e-02, 1.06382975e-02, 1.06382975e-02, 1.06382975e-02,
          2.65957434e-02, 0., 3.19148935e-02, 0., 5.85106350e-02,
          1.06382975e-02, 2.12765951e-02, 3.19148935e-02, 2.12765951e-02,
          1.06382975e-02 ]
      - [ 5.64971752e-03, 2.25988701e-02, 2.25988701e-02, 2.82485876e-02,
          2.25988701e-02, 0., 5.08474559e-02, 4.51977402e-02,
          3.38983051e-02, 5.64971752e-03, 1.12994350e-02, 2.82485876e-02,
          2.25988701e-02, 5.64971752e-03, 2.25988701e-02, 1.12994350e-02,
          2.25988701e-02, 4.51977402e-02, 1.69491526e-02, 5.64971752e-03,
          0., 5.64971752e-03, 0., 5.64971752e-03, 1.69491526e-02,
          4.51977402e-02, 1.69491526e-02, 5.64971752e-03, 1.69491526e-02,
          3.95480245e-02, 2.25988701e-02, 2.82485876e-02, 5.64971752e-03,
          1.12994350e-02, 0., 0., 4.51977402e-02, 5.64971752e-03,
          2.25988701e-02, 0., 0., 2.25988701e-02, 5.64971752e-03,
          3.95480245e-02, 1.01694912e-01, 2.82485876e-02, 5.64971752e-03,
          0., 2.25988701e-02, 5.08474559e-02 ]
      - [ 0., 8.33333377e-03, 0., 1.66666675e-02, 8.33333377e-03, 0.,
          8.33333377e-03, 5.00000045e-02, 8.33333377e-03, 2.50000022e-02,
          8.33333377e-03, 1.66666675e-02, 1.25000000e-01, 0.,
          8.33333377e-03, 1.66666675e-02, 0., 8.33333377e-03,
          8.33333377e-03, 2.50000022e-02, 2.50000022e-02, 4.16666679e-02,
          3.33333351e-02, 2.50000022e-02, 8.33333377e-03, 0.,
          2.50000022e-02, 2.50000022e-02, 3.33333351e-02, 8.33333377e-03,
          0., 1.66666675e-02, 0., 0., 0., 0., 0., 1.66666675e-02,
          1.66666675e-02, 0., 1.66666675e-02, 0., 7.50000030e-02,
          8.33333377e-03, 1.66666672e-01, 0., 0., 2.50000022e-02,
          3.33333351e-02, 5.83333373e-02 ]
      - [ 2.67857146e-02, 3.03571429e-02, 2.67857146e-02, 2.67857146e-02,
          1.42857144e-02, 1.60714295e-02, 3.57142873e-02, 5.35714291e-02,
          1.78571437e-02, 1.07142860e-02, 2.85714287e-02, 1.96428578e-02,
          3.75000015e-02, 5.35714300e-03, 2.32142862e-02, 2.14285720e-02,
          1.96428578e-02, 1.96428578e-02, 2.32142862e-02, 1.96428578e-02,
          1.60714295e-02, 0., 1.60714295e-02, 3.39285731e-02,
          7.14285718e-03, 1.42857144e-02, 2.32142862e-02, 2.32142862e-02,
          1.25000002e-02, 1.42857144e-02, 1.78571437e-02, 2.67857146e-02,
          2.50000004e-02, 3.57142859e-03, 2.67857146e-02, 3.57142873e-02,
          8.92857183e-03, 8.92857183e-03, 2.85714287e-02, 1.07142860e-02,
          0., 5.35714300e-03, 2.85714287e-02, 1.42857144e-02,
          2.50000004e-02, 1.25000002e-02, 2.32142862e-02, 1.60714295e-02,
          2.67857146e-02, 1.78571437e-02 ]
      - [ 1.43266479e-02, 3.43839563e-02, 8.59598909e-03, 1.14613185e-02,
          1.14613185e-02, 5.73065924e-03, 2.00573076e-02, 2.29226369e-02,
          1.43266479e-02, 2.29226369e-02, 3.72492857e-02, 8.59598909e-03,
          7.73639008e-02, 5.73065924e-03, 1.43266479e-02, 2.00573076e-02,
          1.14613185e-02, 1.14613185e-02, 1.14613185e-02, 2.00573076e-02,
          2.00573076e-02, 5.73065924e-03, 1.43266479e-02, 1.14613185e-02,
          4.01146151e-02, 8.59598909e-03, 2.29226369e-02, 6.01719208e-02,
          2.00573076e-02, 5.73065924e-03, 2.57879663e-02, 2.00573076e-02,
          5.73065924e-03, 8.59598909e-03, 3.43839563e-02, 1.14613185e-02,
          5.73065924e-03, 8.59598909e-03, 1.43266479e-02, 8.59598909e-03,
          2.86532962e-03, 5.73065924e-03, 3.72492857e-02, 1.71919782e-02,
          8.88252184e-02, 0., 4.01146151e-02, 2.00573076e-02,
          1.71919782e-02, 3.43839563e-02 ]
      - [ 3.27868853e-03, 1.96721312e-02, 3.27868834e-02, 1.31147541e-02,
          2.62295082e-02, 6.55737706e-03, 5.90163916e-02, 5.90163916e-02,
          1.63934417e-02, 1.63934417e-02, 1.31147541e-02, 1.96721312e-02,
          9.83606558e-03, 2.95081958e-02, 1.31147541e-02, 2.62295082e-02,
          1.96721312e-02, 2.95081958e-02, 3.27868853e-03, 1.63934417e-02,
          6.55737706e-03, 5.57377040e-02, 6.55737706e-03, 9.83606558e-03,
          2.95081958e-02, 1.63934417e-02, 3.27868834e-02, 6.55737706e-03,
          1.31147541e-02, 3.27868834e-02, 2.29508206e-02, 1.63934417e-02,
          9.83606558e-03, 3.27868853e-03, 3.60655747e-02, 0.,
          1.63934417e-02, 6.55737706e-03, 2.95081958e-02, 3.27868853e-03,
          9.83606558e-03, 3.60655747e-02, 6.55737706e-03, 2.95081958e-02,
          1.63934417e-02, 3.27868834e-02, 1.63934417e-02, 2.29508206e-02,
          6.55737706e-03, 3.60655747e-02 ]
      - [ 1.23456791e-02, 1.23456791e-02, 2.22222228e-02, 1.72839519e-02,
          2.46913582e-02, 2.96296310e-02, 8.14814866e-02, 3.95061746e-02,
          1.97530873e-02, 1.97530873e-02, 2.96296310e-02, 7.40740774e-03,
          7.40740774e-03, 4.93827183e-03, 7.40740774e-03, 3.95061746e-02,
          2.46913582e-02, 2.22222228e-02, 1.48148155e-02, 2.71604955e-02,
          2.46913582e-02, 4.93827183e-03, 1.23456791e-02, 1.97530873e-02,
          2.71604955e-02, 1.72839519e-02, 1.72839519e-02, 1.72839519e-02,
          7.40740774e-03, 2.22222228e-02, 3.70370373e-02, 1.97530873e-02,
          2.46913582e-02, 4.93827183e-03, 1.97530873e-02, 3.20987664e-02,
          2.46913582e-02, 2.46913591e-03, 3.20987664e-02, 2.22222228e-02,
          1.23456791e-02, 2.46913582e-02, 1.23456791e-02, 1.97530873e-02,
          1.48148155e-02, 1.72839519e-02, 7.40740774e-03, 2.22222228e-02,
          9.87654366e-03, 4.93827183e-03 ]
      - [ 3.22580636e-02, 8.06451589e-03, 0., 0., 3.22580636e-02, 0., 0.,
          0., 8.06451589e-03, 8.06451589e-03, 0., 8.06451589e-03,
          1.12903222e-01, 0., 4.83870953e-02, 8.06451589e-03,
          5.64516112e-02, 8.06451589e-03, 4.83870953e-02, 1.61290318e-02,
          3.22580636e-02, 0., 2.41935477e-02, 8.06451589e-03,
          8.06451589e-03, 8.06451589e-03, 1.61290318e-02, 8.06451589e-03,
          6.45161271e-02, 8.06451589e-03, 2.41935477e-02, 6.45161271e-02,
          4.83870953e-02, 0., 8.06451589e-03, 2.41935477e-02,
          1.61290318e-02, 2.41935477e-02, 0., 1.61290318e-02,
          8.06451589e-03, 0., 3.22580636e-02, 0., 6.45161271e-02,
          3.22580636e-02, 8.06451589e-03, 1.61290318e-02, 1.61290318e-02,
          2.41935477e-02 ]
      - [ 8.33333358e-02, 5.95238097e-02, 1.19047621e-02, 0., 0.,
          4.76190485e-02, 0., 0., 0., 1.19047621e-02, 0., 0.,
          1.07142858e-01, 0., 5.95238097e-02, 0., 0., 0., 8.33333358e-02,
          1.19047621e-02, 1.19047621e-02, 0., 2.38095243e-02,
          4.76190485e-02, 0., 0., 1.19047621e-02, 1.19047621e-02, 0.,
          1.19047621e-02, 3.57142873e-02, 0., 1.19047621e-02, 0., 0.,
          2.38095243e-02, 0., 2.38095243e-02, 0., 3.57142873e-02,
          1.19047621e-02, 0., 1.19047621e-02, 2.38095243e-02,
          1.30952388e-01, 4.76190485e-02, 0., 0., 3.57142873e-02,
          1.19047621e-02 ]
      - [ 8.43170285e-03, 2.19224282e-02, 3.70994955e-02, 2.86677908e-02,
          3.54131535e-02, 1.01180440e-02, 2.69814506e-02, 3.87858339e-02,
          1.68634057e-02, 6.74536265e-03, 2.69814506e-02, 1.85497478e-02,
          1.34907253e-02, 1.85497478e-02, 2.19224282e-02, 4.21585180e-02,
          4.72175404e-02, 4.04721759e-02, 1.01180440e-02, 1.51770655e-02,
          1.68634066e-03, 1.85497478e-02, 1.34907253e-02, 2.52951104e-02,
          2.19224282e-02, 3.20404731e-02, 2.19224282e-02, 1.01180440e-02,
          1.18043851e-02, 2.86677908e-02, 2.36087702e-02, 1.18043851e-02,
          2.02360880e-02, 1.68634066e-03, 2.19224282e-02, 3.37268133e-03,
          2.52951104e-02, 5.05902199e-03, 4.21585180e-02, 3.03541310e-02,
          5.05902199e-03, 6.74536265e-03, 8.43170285e-03, 1.68634057e-02,
          3.87858339e-02, 1.68634057e-02, 1.01180440e-02, 1.51770655e-02,
          1.01180440e-02, 1.51770655e-02 ]
      - [ 2.50896066e-02, 7.16845877e-03, 2.50896066e-02, 2.15053763e-02,
          1.43369175e-02, 0., 1.54121861e-01, 5.37634417e-02,
          1.43369175e-02, 0., 2.86738351e-02, 7.16845877e-03,
          7.16845840e-02, 3.58422939e-03, 1.43369175e-02, 2.50896066e-02,
          3.58422920e-02, 3.22580636e-02, 2.50896066e-02, 3.58422939e-03,
          1.07526882e-02, 0., 1.43369175e-02, 2.86738351e-02,
          7.16845877e-03, 2.50896066e-02, 1.43369175e-02, 3.58422939e-03,
          0., 2.15053763e-02, 2.15053763e-02, 3.58422939e-03,
          1.07526882e-02, 7.16845877e-03, 3.58422939e-03, 2.50896066e-02,
          1.43369175e-02, 0., 1.43369175e-02, 0., 3.58422939e-03,
          7.16845877e-03, 1.43369175e-02, 1.07526882e-02, 7.88530484e-02,
          2.50896066e-02, 7.16845877e-03, 0., 2.86738351e-02,
          3.58422920e-02 ]
      - [ 3.00751887e-02, 1.50375944e-02, 3.00751887e-02, 1.50375944e-02,
          2.25563906e-02, 7.51879718e-03, 0., 7.51879718e-03,
          7.51879718e-03, 7.51879718e-03, 7.51879718e-03, 0.,
          2.25563906e-02, 3.75939868e-02, 7.51879718e-03, 1.50375944e-02,
          3.00751887e-02, 1.50375944e-02, 2.25563906e-02, 7.51879718e-03,
          0., 3.00751887e-02, 3.75939868e-02, 3.75939868e-02,
          1.50375944e-02, 2.25563906e-02, 5.26315793e-02, 2.25563906e-02,
          7.51879718e-03, 3.75939868e-02, 3.00751887e-02, 2.25563906e-02,
          1.50375944e-02, 0., 3.00751887e-02, 0., 1.50375944e-02,
          2.25563906e-02, 3.75939868e-02, 2.25563906e-02, 1.50375944e-02,
          0., 7.51879718e-03, 1.50375944e-02, 7.51879737e-02,
          5.26315793e-02, 2.25563906e-02, 7.51879718e-03, 1.50375944e-02,
          2.25563906e-02 ]
      - [ 2.46913582e-02, 7.40740746e-02, 3.70370373e-02, 0.,
          1.23456791e-02, 3.70370373e-02, 0., 0., 0., 0., 0., 0.,
          8.64197537e-02, 0., 1.23456791e-02, 0., 1.23456791e-02, 0.,
          1.23456791e-02, 2.46913582e-02, 2.46913582e-02, 1.23456791e-02,
          0., 1.23456791e-02, 0., 0., 3.70370373e-02, 2.46913582e-02, 0.,
          0., 9.87654328e-02, 2.46913582e-02, 0., 0., 0., 1.23456791e-02,
          2.46913582e-02, 0., 0., 3.70370373e-02, 1.23456791e-02, 0.,
          1.23456791e-02, 0., 1.72839507e-01, 6.17283955e-02,
          2.46913582e-02, 1.23456791e-02, 2.46913582e-02, 3.70370373e-02 ]
      - [ 1.92307699e-02, 5.49450563e-03, 1.09890113e-02, 2.74725282e-03,
          1.09890113e-02, 6.04395606e-02, 1.09890113e-02, 4.94505502e-02,
          1.09890113e-02, 1.64835174e-02, 5.49450563e-03, 1.37362638e-02,
          8.24175850e-02, 2.74725282e-03, 2.19780225e-02, 2.19780225e-02,
          1.09890113e-02, 1.09890113e-02, 2.47252751e-02, 1.09890113e-02,
          1.92307699e-02, 2.74725282e-03, 3.84615399e-02, 4.39560451e-02,
          2.74725282e-03, 2.74725282e-03, 8.24175868e-03, 3.57142873e-02,
          2.74725282e-03, 2.19780225e-02, 2.74725282e-03, 3.29670347e-02,
          1.37362638e-02, 2.74725282e-03, 8.24175868e-03, 4.12087925e-02,
          8.24175868e-03, 1.09890113e-02, 2.74725277e-02, 2.47252751e-02,
          8.24175868e-03, 2.74725282e-03, 6.04395606e-02, 8.24175868e-03,
          5.21978028e-02, 1.64835174e-02, 5.49450563e-03, 1.92307699e-02,
          5.49450554e-02, 1.64835174e-02 ]
      - [ 0., 9.96677764e-03, 3.65448482e-02, 9.96677764e-03,
          1.66112948e-02, 1.32890362e-02, 8.30564797e-02, 6.31229207e-02,
          2.32558139e-02, 0., 6.31229207e-02, 2.99003311e-02,
          9.96677764e-03, 3.32225906e-03, 9.96677764e-03, 2.32558139e-02,
          3.65448482e-02, 5.31561449e-02, 0., 1.99335553e-02,
          9.96677764e-03, 3.32225906e-03, 1.32890362e-02, 1.99335553e-02,
          1.99335553e-02, 9.96677764e-03, 2.32558139e-02, 3.65448482e-02,
          1.99335553e-02, 2.32558139e-02, 2.32558139e-02, 1.66112948e-02,
          6.64451811e-03, 2.65780725e-02, 3.65448482e-02, 3.32225906e-03,
          6.64451811e-03, 0., 2.32558139e-02, 1.32890362e-02,
          6.64451811e-03, 1.99335553e-02, 1.32890362e-02, 3.32225906e-03,
          1.99335553e-02, 2.65780725e-02, 1.66112948e-02, 6.64451811e-03,
          6.64451811e-03, 3.98671106e-02 ]
      - [ 1.38888890e-02, 2.77777780e-02, 2.43055560e-02, 2.08333340e-02,
          6.94444450e-03, 1.38888890e-02, 1.38888890e-02, 1.38888890e-02,
          1.38888890e-02, 1.04166670e-02, 6.94444450e-03, 1.38888890e-02,
          1.38888890e-02, 3.12500000e-02, 3.81944440e-02, 1.73611119e-02,
          6.59722239e-02, 2.43055560e-02, 1.04166670e-02, 2.43055560e-02,
          2.08333340e-02, 3.47222225e-03, 1.73611119e-02, 3.47222239e-02,
          6.94444450e-03, 3.47222225e-03, 2.43055560e-02, 1.73611119e-02,
          1.38888890e-02, 3.47222239e-02, 2.77777780e-02, 3.47222239e-02,
          3.47222239e-02, 0., 1.73611119e-02, 1.04166670e-02,
          2.43055560e-02, 0., 2.77777780e-02, 5.55555560e-02, 0., 0.,
          1.73611119e-02, 2.08333340e-02, 2.77777780e-02, 2.77777780e-02,
          2.43055560e-02, 1.38888890e-02, 1.38888890e-02, 3.81944440e-02 ]
      - [ 4.19753119e-02, 7.40740774e-03, 2.46913582e-02, 1.23456791e-02,
          2.22222228e-02, 1.48148155e-02, 2.46913582e-02, 1.48148155e-02,
          4.93827183e-03, 1.97530873e-02, 1.48148155e-02, 1.23456791e-02,
          1.48148155e-02, 2.46913582e-02, 2.22222228e-02, 2.96296310e-02,
          3.45679037e-02, 1.23456791e-02, 4.19753119e-02, 7.40740774e-03,
          1.23456791e-02, 4.93827183e-03, 2.22222228e-02, 3.20987664e-02,
          4.93827183e-03, 7.40740774e-03, 1.23456791e-02, 3.20987664e-02,
          1.23456791e-02, 7.40740774e-03, 1.48148155e-02, 3.20987664e-02,
          9.87654366e-03, 2.46913591e-03, 1.23456791e-02, 1.97530873e-02,
          1.48148155e-02, 1.48148155e-02, 3.95061746e-02, 3.95061746e-02,
          1.97530873e-02, 0., 4.44444455e-02, 1.97530873e-02,
          3.70370373e-02, 2.71604955e-02, 7.40740774e-03, 1.72839519e-02,
          6.66666701e-02, 9.87654366e-03 ]
      - [ 1.01522841e-02, 5.07614203e-02, 2.03045681e-02, 1.52284261e-02,
          1.52284261e-02, 2.03045681e-02, 5.07614203e-03, 4.06091362e-02,
          5.07614203e-03, 1.52284261e-02, 5.07614203e-03, 5.07614203e-03,
          7.10659921e-02, 0., 1.52284261e-02, 3.04568522e-02,
          1.01522841e-02, 1.01522841e-02, 2.03045681e-02, 3.04568522e-02,
          4.56852764e-02, 0., 2.03045681e-02, 3.55329961e-02,
          1.52284261e-02, 0., 2.03045681e-02, 2.03045681e-02,
          1.01522841e-02, 5.07614203e-03, 5.58375642e-02, 2.03045681e-02,
          1.01522841e-02, 5.07614203e-03, 0., 6.59898445e-02, 0.,
          1.01522841e-02, 2.53807101e-02, 5.07614203e-02, 5.07614203e-03,
          0., 2.53807101e-02, 5.07614203e-03, 4.56852764e-02,
          2.53807101e-02, 5.07614203e-03, 1.01522841e-02, 2.53807101e-02,
          4.06091362e-02 ]
      - [ 7.29927002e-03, 3.28467153e-02, 7.29927002e-03, 3.64963501e-03,
          2.55474448e-02, 1.45985400e-02, 7.66423345e-02, 7.29926974e-02,
          3.64963501e-03, 1.09489048e-02, 3.28467153e-02, 1.45985400e-02,
          3.64963487e-02, 2.91970801e-02, 1.82481743e-02, 7.29927002e-03,
          2.55474448e-02, 1.82481743e-02, 1.82481743e-02, 1.09489048e-02,
          2.55474448e-02, 3.64963501e-03, 2.18978096e-02, 3.64963487e-02,
          1.82481743e-02, 1.09489048e-02, 1.09489048e-02, 1.09489048e-02,
          0., 7.29927002e-03, 1.09489048e-02, 1.82481743e-02,
          2.91970801e-02, 1.82481743e-02, 7.29927002e-03, 2.55474448e-02,
          1.82481743e-02, 1.45985400e-02, 2.18978096e-02, 2.18978096e-02,
          7.29927002e-03, 7.29927002e-03, 1.45985400e-02, 2.18978096e-02,
          4.37956192e-02, 2.55474448e-02, 1.82481743e-02, 3.64963487e-02,
          7.29927002e-03, 1.82481743e-02 ]
      - [ 1.42348753e-02, 1.42348753e-02, 2.13523135e-02, 1.06761567e-02,
          2.84697507e-02, 1.42348753e-02, 1.42348753e-02, 1.06761567e-02,
          2.49110311e-02, 1.06761567e-02, 3.55871879e-02, 7.11743766e-03,
          3.91459055e-02, 1.77935939e-02, 2.13523135e-02, 4.98220623e-02,
          2.49110311e-02, 2.13523135e-02, 1.42348753e-02, 1.77935939e-02,
          1.42348753e-02, 3.55871883e-03, 1.42348753e-02, 1.42348753e-02,
          1.77935939e-02, 3.55871879e-02, 1.77935939e-02, 1.06761567e-02,
          2.49110311e-02, 3.20284702e-02, 7.11743766e-03, 2.13523135e-02,
          1.77935939e-02, 3.55871883e-03, 1.06761567e-02, 2.84697507e-02,
          3.20284702e-02, 7.11743766e-03, 3.55871879e-02, 2.49110311e-02,
          7.11743766e-03, 1.06761567e-02, 1.77935939e-02, 2.49110311e-02,
          4.62633446e-02, 3.55871879e-02, 1.77935939e-02, 2.13523135e-02,
          1.06761567e-02, 2.13523135e-02 ]
      - [ 3.71747208e-03, 2.60223038e-02, 2.97397766e-02, 2.97397766e-02,
          2.97397766e-02, 3.71747208e-03, 3.71747203e-02, 5.20446077e-02,
          3.34572494e-02, 7.43494416e-03, 1.85873602e-02, 1.85873602e-02,
          3.71747208e-03, 0., 1.85873602e-02, 3.34572494e-02,
          6.31970242e-02, 4.46096659e-02, 1.48698883e-02, 1.11524165e-02,
          1.48698883e-02, 7.43494416e-03, 1.11524165e-02, 1.48698883e-02,
          1.48698883e-02, 1.48698883e-02, 4.08921912e-02, 1.85873602e-02,
          2.23048329e-02, 1.48698883e-02, 3.34572494e-02, 1.11524165e-02,
          1.48698883e-02, 1.48698883e-02, 7.43494416e-03, 7.43494416e-03,
          2.60223038e-02, 0., 4.46096659e-02, 1.11524165e-02, 0., 0.,
          2.23048329e-02, 1.48698883e-02, 4.08921912e-02, 2.60223038e-02,
          1.48698883e-02, 1.11524165e-02, 0., 4.46096659e-02 ]
      - [ 3.26530598e-02, 6.12244867e-02, 8.16326495e-03, 2.85714269e-02,
          1.22448970e-02, 4.08163248e-03, 5.30612208e-02, 2.44897939e-02,
          2.44897939e-02, 1.63265299e-02, 0., 2.85714269e-02,
          6.12244867e-02, 0., 2.04081628e-02, 2.04081628e-02,
          4.08163248e-03, 4.08163248e-03, 4.48979586e-02, 2.04081628e-02,
          2.04081628e-02, 0., 3.67346928e-02, 2.85714269e-02,
          1.22448970e-02, 0., 4.08163248e-03, 4.08163248e-03,
          8.16326495e-03, 4.08163248e-03, 2.85714269e-02, 1.22448970e-02,
          8.16326495e-03, 8.16326495e-03, 1.22448970e-02, 4.08163257e-02,
          4.08163248e-03, 3.26530598e-02, 0., 2.04081628e-02,
          2.85714269e-02, 0., 4.08163248e-03, 8.16326495e-03,
          3.26530598e-02, 3.26530598e-02, 1.63265299e-02, 1.22448970e-02,
          9.38775465e-02, 1.63265299e-02 ]
      - [ 9.20245424e-03, 4.29447852e-02, 2.45398767e-02, 1.53374225e-02,
          2.45398767e-02, 9.20245424e-03, 7.36196339e-02, 9.81595069e-02,
          1.22699384e-02, 3.06748459e-03, 2.45398767e-02, 3.68098170e-02,
          2.76073609e-02, 0., 1.84049085e-02, 3.37423310e-02,
          1.22699384e-02, 3.37423310e-02, 1.84049085e-02, 1.53374225e-02,
          6.13496918e-03, 6.13496918e-03, 6.13496918e-03, 1.22699384e-02,
          3.06748459e-03, 1.22699384e-02, 3.68098170e-02, 2.76073609e-02,
          6.13496918e-03, 1.22699384e-02, 2.14723926e-02, 9.20245424e-03,
          9.20245424e-03, 1.22699384e-02, 2.14723926e-02, 9.20245424e-03,
          3.06748459e-03, 3.06748459e-03, 2.45398767e-02, 6.13496918e-03,
          6.13496918e-03, 1.84049085e-02, 6.13496918e-03, 1.22699384e-02,
          7.36196339e-02, 1.84049085e-02, 1.84049085e-02, 1.84049085e-02,
          3.06748459e-03, 4.29447852e-02 ]
      - [ 1.48148146e-02, 2.22222209e-02, 2.22222209e-02, 2.96296291e-02,
          1.48148146e-02, 4.44444418e-02, 5.92592582e-02, 2.96296291e-02,
          2.96296291e-02, 7.40740728e-03, 7.40740728e-03, 7.40740728e-03,
          8.14814791e-02, 0., 5.18518500e-02, 1.48148146e-02,
          4.44444418e-02, 7.40740728e-03, 7.40740728e-03, 1.48148146e-02,
          1.48148146e-02, 0., 2.96296291e-02, 2.22222209e-02,
          7.40740728e-03, 7.40740728e-03, 5.92592582e-02, 7.40740728e-03,
          7.40740728e-03, 7.40740728e-03, 2.22222209e-02, 3.70370373e-02,
          0., 7.40740728e-03, 7.40740728e-03, 2.96296291e-02,
          1.48148146e-02, 0., 0., 7.40740728e-03, 0., 0., 7.40740728e-03,
          0., 2.22222209e-02, 6.66666627e-02, 1.48148146e-02,
          7.40740728e-03, 4.44444418e-02, 3.70370373e-02 ]
      - [ 1.33333337e-02, 3.00000012e-02, 6.66666683e-03, 9.99999978e-03,
          1.83333345e-02, 2.33333334e-02, 1.99999996e-02, 2.16666665e-02,
          8.33333377e-03, 2.16666665e-02, 2.33333334e-02, 2.66666673e-02,
          3.00000012e-02, 1.66666671e-03, 1.50000006e-02, 3.00000012e-02,
          1.83333345e-02, 2.33333334e-02, 1.33333337e-02, 2.83333343e-02,
          1.50000006e-02, 3.33333341e-03, 1.16666667e-02, 2.50000004e-02,
          2.66666673e-02, 1.16666667e-02, 1.33333337e-02, 1.16666667e-02,
          9.99999978e-03, 3.66666690e-02, 2.16666665e-02, 9.99999978e-03,
          1.83333345e-02, 1.33333337e-02, 1.83333345e-02, 5.33333346e-02,
          3.00000012e-02, 6.66666683e-03, 3.83333340e-02, 2.83333343e-02,
          1.33333337e-02, 9.99999978e-03, 1.66666671e-03, 1.83333345e-02,
          5.16666695e-02, 1.83333345e-02, 2.83333343e-02, 2.50000004e-02,
          2.66666673e-02, 1.99999996e-02 ]
      - [ 0., 0., 3.33333351e-02, 7.14285746e-02, 2.38095243e-02, 0.,
          7.14285746e-02, 5.71428612e-02, 3.33333351e-02, 4.76190494e-03,
          1.90476198e-02, 1.90476198e-02, 4.76190494e-03, 4.76190494e-03,
          0., 2.38095243e-02, 6.19047657e-02, 3.80952395e-02, 0.,
          4.76190494e-03, 0., 0., 1.42857153e-02, 1.42857153e-02,
          2.85714306e-02, 3.33333351e-02, 9.52380989e-03, 0., 0.,
          4.76190485e-02, 4.76190485e-02, 9.52380989e-03, 2.38095243e-02,
          9.52380989e-03, 3.80952395e-02, 0., 9.52380970e-02, 0.,
          4.28571440e-02, 0., 0., 1.90476198e-02, 1.42857153e-02,
          4.28571440e-02, 0., 9.52380989e-03, 4.76190494e-03,
          4.76190494e-03, 0., 1.90476198e-02 ]
      - [ 2.46305410e-02, 1.72413792e-02, 2.46305410e-02, 1.47783253e-02,
          2.46305410e-02, 9.85221658e-03, 1.47783253e-02, 3.44827585e-02,
          1.23152705e-02, 1.72413792e-02, 2.46305410e-02, 7.38916267e-03,
          2.21674871e-02, 4.92610829e-03, 2.21674871e-02, 2.46305410e-02,
          2.21674871e-02, 1.97044332e-02, 3.20197046e-02, 2.21674871e-02,
          1.23152705e-02, 0., 1.47783253e-02, 1.47783253e-02,
          3.20197046e-02, 9.85221658e-03, 2.95566507e-02, 2.21674871e-02,
          3.20197046e-02, 2.21674871e-02, 2.21674871e-02, 3.44827585e-02,
          1.72413792e-02, 0., 2.46305410e-02, 2.46305414e-03,
          2.70935949e-02, 1.47783253e-02, 1.97044332e-02, 1.23152705e-02,
          7.38916267e-03, 9.85221658e-03, 1.72413792e-02, 1.97044332e-02,
          6.89655170e-02, 2.21674871e-02, 2.21674871e-02, 1.23152705e-02,
          2.46305410e-02, 3.44827585e-02 ]
      - [ 1.52439019e-02, 2.74390243e-02, 3.65853645e-02, 1.52439019e-02,
          1.82926822e-02, 1.21951215e-02, 8.53658468e-02, 9.45121944e-02,
          2.13414617e-02, 3.04878037e-03, 9.14634112e-03, 3.35365832e-02,
          3.96341458e-02, 0., 1.82926822e-02, 2.43902430e-02,
          2.13414617e-02, 3.04878037e-02, 1.52439019e-02, 9.14634112e-03,
          9.14634112e-03, 6.09756075e-03, 1.21951215e-02, 6.09756075e-03,
          9.14634112e-03, 9.14634112e-03, 4.26829234e-02, 3.04878037e-02,
          1.52439019e-02, 1.52439019e-02, 2.13414617e-02, 6.09756075e-03,
          1.21951215e-02, 1.21951215e-02, 3.65853645e-02, 9.14634112e-03,
          6.09756075e-03, 6.09756075e-03, 2.13414617e-02, 9.14634112e-03,
          3.04878037e-03, 3.04878037e-03, 1.21951215e-02, 1.52439019e-02,
          5.48780486e-02, 1.21951215e-02, 1.52439019e-02, 9.14634112e-03,
          9.14634112e-03, 3.96341458e-02 ]
      - [ 1.63265299e-02, 1.63265299e-02, 2.04081628e-02, 4.08163257e-02,
          1.22448970e-02, 1.63265299e-02, 6.93877488e-02, 5.30612208e-02,
          7.34693855e-02, 4.08163248e-03, 1.63265299e-02, 2.44897939e-02,
          4.48979586e-02, 0., 4.08163248e-03, 1.63265299e-02,
          2.85714269e-02, 1.63265299e-02, 2.04081628e-02, 2.85714269e-02,
          4.08163248e-03, 4.08163248e-03, 1.22448970e-02, 8.16326495e-03,
          3.26530598e-02, 2.44897939e-02, 8.16326495e-03, 1.22448970e-02,
          1.22448970e-02, 4.89795879e-02, 2.04081628e-02, 1.63265299e-02,
          1.63265299e-02, 8.16326495e-03, 1.22448970e-02, 4.08163257e-02,
          1.63265299e-02, 2.44897939e-02, 2.85714269e-02, 4.08163248e-03,
          1.22448970e-02, 1.22448970e-02, 2.04081628e-02, 1.22448970e-02,
          4.08163257e-02, 8.16326495e-03, 0., 4.08163248e-03,
          8.16326495e-03, 4.08163248e-03 ]
      - [ 1.37741044e-02, 1.92837473e-02, 5.50964195e-03, 3.03030312e-02,
          8.26446339e-03, 5.50964195e-03, 7.71349892e-02, 6.61157072e-02,
          1.92837473e-02, 1.37741044e-02, 4.68319580e-02, 2.47933883e-02,
          2.75482098e-03, 9.09090936e-02, 2.20385678e-02, 2.75482088e-02,
          5.50964177e-02, 2.75482088e-02, 1.10192839e-02, 5.50964195e-03,
          2.75482098e-03, 3.03030312e-02, 1.65289268e-02, 1.10192839e-02,
          8.26446339e-03, 1.37741044e-02, 1.65289268e-02, 1.92837473e-02,
          1.65289268e-02, 2.47933883e-02, 1.10192839e-02, 1.65289268e-02,
          1.92837473e-02, 0., 2.75482098e-03, 1.10192839e-02,
          1.65289268e-02, 2.75482098e-03, 2.20385678e-02, 3.30578536e-02,
          2.75482098e-03, 5.50964195e-03, 1.10192839e-02, 8.26446339e-03,
          3.85674946e-02, 1.37741044e-02, 8.26446339e-03, 8.26446339e-03,
          5.50964195e-03, 3.03030312e-02 ]
      - [ 4.61538471e-02, 1.53846154e-02, 1.53846154e-02, 7.69230770e-03,
          1.53846154e-02, 8.84615406e-02, 7.69230770e-03, 1.15384618e-02,
          3.84615385e-03, 3.07692308e-02, 1.53846154e-02, 7.69230770e-03,
          3.84615399e-02, 7.69230770e-03, 2.30769236e-02, 7.69230770e-03,
          0., 0., 4.61538471e-02, 2.69230772e-02, 1.92307699e-02, 0.,
          3.84615399e-02, 3.46153863e-02, 1.15384618e-02, 0.,
          7.69230770e-03, 1.15384618e-02, 7.69230770e-03, 0.,
          2.30769236e-02, 1.92307699e-02, 7.69230770e-03, 1.53846154e-02,
          2.69230772e-02, 7.30769262e-02, 0., 3.07692308e-02,
          3.84615385e-03, 1.15384618e-02, 1.53846154e-02, 2.30769236e-02,
          1.92307699e-02, 3.84615385e-03, 6.15384616e-02, 2.30769236e-02,
          1.53846154e-02, 3.07692308e-02, 5.00000007e-02, 0. ]
      - [ 3.44827585e-02, 3.23275849e-02, 2.80172415e-02, 2.15517245e-02,
          1.93965510e-02, 4.31034481e-03, 1.50862066e-02, 1.72413792e-02,
          2.58620679e-02, 8.62068962e-03, 1.50862066e-02, 1.29310340e-02,
          2.58620679e-02, 2.15517241e-03, 4.31034490e-02, 2.15517245e-02,
          2.15517245e-02, 1.29310340e-02, 3.66379321e-02, 1.72413792e-02,
          6.46551698e-03, 4.31034481e-03, 1.72413792e-02, 1.93965510e-02,
          6.46551698e-03, 1.07758623e-02, 2.80172415e-02, 2.80172415e-02,
          2.15517245e-02, 1.29310340e-02, 3.01724132e-02, 2.37068962e-02,
          1.93965510e-02, 2.15517241e-03, 3.01724132e-02, 1.29310340e-02,
          4.31034481e-03, 0., 2.80172415e-02, 1.50862066e-02, 0.,
          4.31034481e-03, 1.93965510e-02, 1.29310340e-02, 3.87931019e-02,
          4.52586189e-02, 2.58620679e-02, 1.50862066e-02, 5.60344830e-02,
          4.52586189e-02 ]
      - [ 2.64150947e-02, 3.01886797e-02, 3.39622647e-02, 1.50943398e-02,
          1.13207549e-02, 4.52830195e-02, 4.15094346e-02, 5.66037744e-02,
          3.77358496e-03, 1.50943398e-02, 1.13207549e-02, 1.88679248e-02,
          7.16981143e-02, 3.77358496e-03, 1.88679248e-02, 3.01886797e-02,
          0., 2.26415098e-02, 3.39622647e-02, 4.15094346e-02,
          1.88679248e-02, 0., 1.50943398e-02, 3.01886797e-02,
          7.54716992e-03, 7.54716992e-03, 1.50943398e-02, 3.39622647e-02,
          1.13207549e-02, 1.13207549e-02, 1.13207549e-02, 1.50943398e-02,
          7.54716992e-03, 3.77358496e-03, 1.13207549e-02, 2.26415098e-02,
          1.50943398e-02, 3.77358496e-03, 1.13207549e-02, 3.01886797e-02,
          3.77358496e-03, 0., 3.77358496e-03, 1.13207549e-02,
          6.03773594e-02, 3.39622647e-02, 3.77358496e-03, 1.13207549e-02,
          3.01886797e-02, 2.64150947e-02 ]
      - [ 6.86274543e-02, 5.88235334e-02, 9.80392192e-03, 9.80392192e-03,
          0., 4.90196086e-02, 5.88235334e-02, 1.96078438e-02,
          9.80392192e-03, 9.80392192e-03, 5.88235334e-02, 9.80392192e-03,
          3.92156877e-02, 0., 9.80392192e-03, 9.80392192e-03,
          1.96078438e-02, 1.96078438e-02, 3.92156877e-02, 0.,
          1.96078438e-02, 0., 3.92156877e-02, 3.92156877e-02,
          1.96078438e-02, 0., 0., 0., 0., 0., 1.96078438e-02, 0.,
          3.92156877e-02, 0., 0., 4.90196086e-02, 1.96078438e-02,
          2.94117667e-02, 9.80392192e-03, 1.96078438e-02, 9.80392192e-03,
          9.80392192e-03, 9.80392192e-03, 9.80392192e-03, 1.96078438e-02,
          4.90196086e-02, 9.80392192e-03, 1.96078438e-02, 1.96078438e-02,
          3.92156877e-02 ]
      - [ 3.57142873e-02, 7.14285718e-03, 3.57142859e-03, 2.14285720e-02,
          1.07142860e-02, 1.78571437e-02, 1.07142860e-02, 2.14285720e-02,
          1.78571437e-02, 3.57142859e-03, 3.21428590e-02, 0.,
          1.78571437e-02, 7.14285718e-03, 1.78571437e-02, 2.85714287e-02,
          1.78571437e-02, 3.57142859e-03, 2.50000004e-02, 3.57142873e-02,
          3.57142859e-03, 3.57142873e-02, 1.42857144e-02, 3.21428590e-02,
          3.92857157e-02, 5.71428575e-02, 1.42857144e-02, 7.14285718e-03,
          7.14285718e-03, 1.07142860e-02, 5.00000007e-02, 1.42857144e-02,
          7.14285718e-03, 6.42857179e-02, 7.14285718e-03, 2.50000004e-02,
          1.07142860e-02, 3.57142873e-02, 7.14285718e-03, 2.50000004e-02,
          3.21428590e-02, 1.78571437e-02, 2.50000004e-02, 7.14285718e-03,
          3.57142873e-02, 2.85714287e-02, 2.14285720e-02, 7.14285718e-03,
          1.07142860e-02, 1.07142860e-02 ]
      - [ 1.79640725e-02, 9.58083868e-02, 4.79041934e-02, 1.19760484e-02,
          3.59281451e-02, 0., 9.58083868e-02, 5.38922176e-02,
          1.19760484e-02, 1.79640725e-02, 2.99401209e-02, 0.,
          1.01796411e-01, 5.98802418e-03, 5.98802418e-03, 1.79640725e-02,
          2.99401209e-02, 1.79640725e-02, 1.79640725e-02, 1.79640725e-02,
          5.98802418e-03, 0., 5.98802418e-03, 0., 0., 1.79640725e-02,
          5.98802418e-03, 5.98802418e-03, 5.98802418e-03, 3.59281451e-02,
          2.39520967e-02, 1.79640725e-02, 2.39520967e-02, 0., 0., 0.,
          3.59281451e-02, 5.98802418e-03, 2.99401209e-02, 1.79640725e-02,
          0., 0., 1.19760484e-02, 5.98802418e-03, 7.78443143e-02, 0.,
          1.19760484e-02, 0., 0., 1.79640725e-02 ]
      - [ 1.33928582e-02, 8.92857183e-03, 4.01785746e-02, 1.78571437e-02,
          2.23214291e-02, 2.23214291e-02, 5.80357164e-02, 2.67857164e-02,
          2.23214291e-02, 1.78571437e-02, 2.23214291e-02, 1.78571437e-02,
          8.92857183e-03, 1.78571437e-02, 1.78571437e-02, 1.78571437e-02,
          5.80357164e-02, 1.78571437e-02, 2.23214291e-02, 8.92857183e-03,
          4.46428591e-03, 8.92857183e-03, 1.33928582e-02, 2.67857164e-02,
          2.67857164e-02, 2.23214291e-02, 8.92857183e-03, 4.46428591e-03,
          1.33928582e-02, 4.91071455e-02, 8.92857183e-03, 3.12500000e-02,
          3.12500000e-02, 2.67857164e-02, 4.01785746e-02, 8.92857183e-03,
          2.23214291e-02, 8.92857183e-03, 3.12500000e-02, 1.78571437e-02,
          1.78571437e-02, 1.33928582e-02, 4.46428591e-03, 8.92857183e-03,
          1.78571437e-02, 2.23214291e-02, 1.78571437e-02, 1.33928582e-02,
          4.46428591e-03, 1.33928582e-02 ]
      - [ 1.30718956e-02, 1.96078438e-02, 3.92156877e-02, 1.96078438e-02,
          1.30718956e-02, 3.26797403e-02, 1.30718956e-02, 1.96078438e-02,
          1.30718956e-02, 0., 5.22875823e-02, 6.53594779e-03,
          2.61437912e-02, 2.61437912e-02, 2.61437912e-02, 2.61437912e-02,
          5.88235296e-02, 1.30718956e-02, 1.30718956e-02, 2.61437912e-02,
          6.53594779e-03, 1.30718956e-02, 1.30718956e-02, 0., 0.,
          6.53594779e-03, 6.53594779e-03, 6.53594779e-03, 1.96078438e-02,
          1.96078438e-02, 1.30718956e-02, 1.96078438e-02, 6.53594779e-03,
          1.96078438e-02, 1.30718956e-02, 1.96078438e-02, 1.96078438e-02,
          4.57516350e-02, 3.92156877e-02, 6.53594779e-03, 2.61437912e-02,
          1.96078438e-02, 3.92156877e-02, 1.30718956e-02, 7.18954280e-02,
          0., 3.26797403e-02, 1.96078438e-02, 0., 2.61437912e-02 ]
      - [ 3.34448144e-02, 2.34113708e-02, 1.67224072e-02, 1.33779263e-02,
          1.00334445e-02, 6.68896316e-03, 1.33779263e-02, 5.01672253e-02,
          1.67224072e-02, 1.00334445e-02, 1.67224072e-02, 0.,
          9.36454833e-02, 0., 2.34113708e-02, 2.67558526e-02,
          6.68896316e-03, 0., 2.34113708e-02, 3.67892981e-02,
          1.00334445e-02, 0., 2.00668890e-02, 3.01003344e-02,
          1.33779263e-02, 6.68896316e-03, 3.67892981e-02, 1.00334445e-02,
          6.68896316e-03, 3.34448158e-03, 4.68227416e-02, 1.00334445e-02,
          6.68896316e-03, 4.01337780e-02, 6.68896316e-03, 4.34782617e-02,
          1.33779263e-02, 1.00334445e-02, 1.33779263e-02, 1.33779263e-02,
          1.33779263e-02, 3.34448158e-03, 1.33779263e-02, 1.00334445e-02,
          5.68561852e-02, 3.34448144e-02, 1.00334445e-02, 1.33779263e-02,
          2.67558526e-02, 5.68561852e-02 ]
      - [ 3.12500000e-02, 4.46428591e-03, 0., 8.92857183e-03,
          8.92857183e-03, 8.48214328e-02, 3.12500000e-02, 3.57142873e-02,
          8.92857183e-03, 2.23214291e-02, 1.33928582e-02, 8.92857183e-03,
          2.23214291e-02, 8.92857183e-03, 1.78571437e-02, 1.78571437e-02,
          1.33928582e-02, 4.46428591e-03, 1.33928582e-02, 3.12500000e-02,
          1.33928582e-02, 1.33928582e-02, 5.35714328e-02, 3.12500000e-02,
          1.33928582e-02, 8.92857183e-03, 2.23214291e-02, 0.,
          1.78571437e-02, 4.46428591e-03, 3.12500000e-02, 1.33928582e-02,
          8.92857183e-03, 2.67857164e-02, 8.92857183e-03, 3.12500000e-02,
          8.92857183e-03, 4.46428582e-02, 4.46428591e-03, 1.33928582e-02,
          3.57142873e-02, 4.46428591e-03, 5.80357164e-02, 1.33928582e-02,
          4.46428591e-03, 4.46428582e-02, 2.67857164e-02, 2.67857164e-02,
          1.78571437e-02, 8.92857183e-03 ]
      - [ 3.18840593e-02, 1.15942033e-02, 2.60869581e-02, 1.15942033e-02,
          1.15942033e-02, 3.47826108e-02, 2.89855083e-03, 6.08695671e-02,
          1.73913054e-02, 1.44927539e-02, 2.02898551e-02, 5.79710165e-03,
          5.21739163e-02, 0., 3.18840593e-02, 8.69565271e-03,
          1.15942033e-02, 1.73913054e-02, 3.47826108e-02, 2.89855078e-02,
          3.47826108e-02, 2.89855083e-03, 3.76811624e-02, 4.05797102e-02,
          5.79710165e-03, 5.79710165e-03, 1.44927539e-02, 2.89855078e-02,
          1.44927539e-02, 2.89855083e-03, 1.73913054e-02, 2.02898551e-02,
          2.02898551e-02, 2.02898551e-02, 0., 3.76811624e-02,
          2.89855083e-03, 2.31884066e-02, 1.73913054e-02, 1.73913054e-02,
          2.31884066e-02, 2.89855083e-03, 3.18840593e-02, 2.89855083e-03,
          2.60869581e-02, 2.89855078e-02, 5.79710165e-03, 2.89855078e-02,
          2.89855078e-02, 2.02898551e-02 ]
      - [ 4.11985032e-02, 1.12359552e-02, 1.87265910e-02, 1.12359552e-02,
          2.24719103e-02, 2.99625471e-02, 2.62172297e-02, 1.87265910e-02,
          7.49063678e-03, 3.74531839e-03, 1.87265910e-02, 3.74531839e-03,
          3.37078646e-02, 7.86516890e-02, 3.37078646e-02, 7.49063678e-03,
          7.49063678e-03, 7.49063678e-03, 5.24344593e-02, 1.49812736e-02,
          2.24719103e-02, 1.49812736e-02, 1.49812736e-02, 1.49812736e-02,
          1.49812736e-02, 1.87265910e-02, 2.62172297e-02, 2.99625471e-02,
          1.49812736e-02, 1.87265910e-02, 2.99625471e-02, 2.24719103e-02,
          1.12359552e-02, 0., 3.74531839e-03, 1.87265910e-02,
          1.12359552e-02, 2.62172297e-02, 1.49812736e-02, 5.61797768e-02,
          2.62172297e-02, 7.49063678e-03, 3.74531839e-03, 0.,
          1.12359552e-02, 5.99250942e-02, 7.49063678e-03, 1.49812736e-02,
          3.74531839e-03, 2.99625471e-02 ]
      - [ 4.84848469e-02, 6.06060587e-03, 0., 1.81818176e-02, 0.,
          5.45454547e-02, 9.09090862e-02, 0., 0., 1.81818176e-02,
          6.06060587e-03, 6.06060587e-03, 4.24242392e-02, 6.06060587e-03,
          1.21212117e-02, 1.21212117e-02, 0., 6.06060587e-03,
          3.03030293e-02, 1.81818176e-02, 4.84848469e-02, 0.,
          8.48484784e-02, 3.03030293e-02, 6.06060587e-03, 0., 0.,
          6.06060587e-03, 1.21212117e-02, 1.21212117e-02, 6.06060587e-03,
          6.06060587e-03, 6.06060587e-03, 6.06060587e-03, 1.81818176e-02,
          9.09090862e-02, 6.06060587e-03, 6.66666627e-02, 6.06060587e-03,
          1.21212117e-02, 3.03030293e-02, 0., 3.63636352e-02,
          6.06060587e-03, 3.03030293e-02, 4.24242392e-02, 0.,
          6.06060587e-03, 4.84848469e-02, 0. ]
      - [ 2.99401209e-02, 1.79640725e-02, 5.98802418e-03, 1.79640725e-02,
          1.79640725e-02, 1.79640725e-02, 0., 5.98802418e-03,
          5.98802418e-03, 1.79640725e-02, 2.39520967e-02, 1.19760484e-02,
          9.58083868e-02, 0., 1.19760484e-02, 2.39520967e-02, 0.,
          1.19760484e-02, 5.98802418e-03, 1.79640725e-02, 1.79640725e-02,
          1.19760484e-02, 3.59281451e-02, 5.38922176e-02, 1.79640725e-02,
          5.98802418e-03, 2.39520967e-02, 2.39520967e-02, 1.19760484e-02,
          5.98802418e-03, 2.39520967e-02, 2.39520967e-02, 1.19760484e-02,
          0., 0., 2.99401209e-02, 1.19760484e-02, 2.39520967e-02,
          1.19760484e-02, 5.98802418e-03, 1.19760484e-02, 0.,
          2.99401209e-02, 2.39520967e-02, 9.58083868e-02, 2.99401209e-02,
          2.39520967e-02, 2.99401209e-02, 1.79640725e-02, 4.19161692e-02 ]
      - [ 7.25952815e-03, 3.08529940e-02, 2.90381126e-02, 9.07441042e-03,
          1.63339376e-02, 7.25952815e-03, 6.35208711e-02, 3.62976417e-02,
          1.63339376e-02, 2.35934667e-02, 2.54083481e-02, 7.25952815e-03,
          2.17785835e-02, 1.45190563e-02, 1.45190563e-02, 2.90381126e-02,
          4.71869335e-02, 2.17785835e-02, 1.27041740e-02, 1.63339376e-02,
          7.25952815e-03, 2.35934667e-02, 1.08892918e-02, 2.54083481e-02,
          2.54083481e-02, 1.27041740e-02, 1.27041740e-02, 2.35934667e-02,
          7.25952815e-03, 1.81488208e-02, 1.27041740e-02, 1.63339376e-02,
          2.72232313e-02, 1.08892918e-02, 2.90381126e-02, 1.81488208e-02,
          1.63339376e-02, 1.45190563e-02, 1.99637022e-02, 4.17422876e-02,
          9.07441042e-03, 3.62976408e-03, 2.17785835e-02, 9.07441042e-03,
          4.71869335e-02, 9.07441042e-03, 3.08529940e-02, 1.63339376e-02,
          1.99637022e-02, 9.07441042e-03 ]
      - [ 3.58565748e-02, 0., 7.96812773e-03, 1.59362555e-02,
          1.99203193e-02, 3.18725109e-02, 1.99203193e-02, 0.,
          1.99203193e-02, 1.99203193e-02, 4.38247025e-02, 7.96812773e-03,
          3.98406386e-02, 2.39043832e-02, 7.96812773e-02, 1.59362555e-02,
          7.56972134e-02, 1.19521916e-02, 3.58565748e-02, 1.59362555e-02,
          3.98406386e-03, 2.39043832e-02, 1.99203193e-02, 2.39043832e-02,
          1.19521916e-02, 1.99203193e-02, 1.59362555e-02, 2.39043832e-02,
          3.98406386e-03, 1.19521916e-02, 7.96812773e-03, 3.98406386e-03,
          3.18725109e-02, 3.98406386e-03, 1.99203193e-02, 1.59362555e-02,
          0., 1.59362555e-02, 7.96812773e-03, 1.59362555e-02,
          1.59362555e-02, 3.98406386e-03, 7.96812773e-03, 0.,
          6.77290857e-02, 6.37450218e-02, 1.59362555e-02, 3.98406386e-03,
          0., 1.59362555e-02 ]
      - [ 9.56937764e-03, 4.78468873e-02, 1.91387553e-02, 1.43540669e-02,
          1.91387553e-02, 9.56937764e-03, 3.34928222e-02, 7.65550211e-02,
          2.87081338e-02, 9.56937764e-03, 2.87081338e-02, 3.34928222e-02,
          1.43540669e-02, 0., 1.91387553e-02, 2.87081338e-02,
          9.56937764e-03, 2.39234436e-02, 9.56937764e-03, 9.56937764e-03,
          1.43540669e-02, 4.78468882e-03, 9.56937764e-03, 1.91387553e-02,
          4.78468882e-03, 3.34928222e-02, 3.82775106e-02, 2.39234436e-02,
          1.43540669e-02, 3.34928222e-02, 2.87081338e-02, 4.78468882e-03,
          4.78468882e-03, 0., 9.56937764e-03, 5.26315756e-02,
          1.43540669e-02, 4.78468882e-03, 2.39234436e-02, 2.39234436e-02,
          4.78468882e-03, 1.43540669e-02, 4.78468882e-03, 1.91387553e-02,
          1.43540669e-02, 3.34928222e-02, 4.78468873e-02, 1.43540669e-02,
          4.78468882e-03, 3.34928222e-02 ]
      - [ 2.52707582e-02, 7.22021656e-03, 7.22021656e-03, 3.61010828e-03,
          1.44404331e-02, 2.16606501e-02, 3.61010842e-02, 5.77617325e-02,
          7.22021656e-03, 2.16606501e-02, 1.98555961e-02, 1.44404331e-02,
          3.97111923e-02, 3.61010828e-03, 2.70758122e-02, 1.26353791e-02,
          9.02527105e-03, 1.44404331e-02, 2.52707582e-02, 2.34657042e-02,
          2.70758122e-02, 3.61010828e-03, 1.44404331e-02, 2.16606501e-02,
          2.88808662e-02, 7.22021656e-03, 1.80505421e-02, 4.15162444e-02,
          2.70758122e-02, 1.44404331e-02, 2.16606501e-02, 3.06859203e-02,
          1.62454881e-02, 2.34657042e-02, 2.52707582e-02, 2.70758122e-02,
          1.08303251e-02, 1.98555961e-02, 1.08303251e-02, 1.26353791e-02,
          1.80505421e-02, 5.41516254e-03, 1.44404331e-02, 9.02527105e-03,
          4.87364605e-02, 1.98555961e-02, 1.62454881e-02, 1.44404331e-02,
          2.70758122e-02, 3.24909762e-02 ]
      - [ 1.56250000e-02, 1.56250000e-02, 7.81250000e-03, 7.81250000e-03,
          7.81250000e-03, 0., 0., 3.12500000e-02, 1.56250000e-02,
          3.12500000e-02, 0., 7.81250000e-03, 7.03125000e-02, 0., 0.,
          2.34375000e-02, 0., 0., 3.90625000e-02, 3.90625000e-02, 0., 0.,
          2.34375000e-02, 3.90625000e-02, 7.81250000e-03, 0.,
          4.68750000e-02, 0., 1.56250000e-02, 7.81250000e-03,
          7.03125000e-02, 3.90625000e-02, 3.90625000e-02, 1.56250000e-02,
          7.81250000e-03, 3.12500000e-02, 1.56250000e-02, 7.81250000e-03,
          1.56250000e-02, 1.56250000e-02, 7.81250000e-03, 0.,
          3.90625000e-02, 0., 6.25000000e-02, 7.81250000e-03, 0.,
          1.56250000e-02, 1.25000000e-01, 3.12500000e-02 ]
      - [ 3.78378406e-02, 6.48648664e-02, 1.89189203e-02, 1.08108111e-02,
          1.62162166e-02, 2.70270277e-03, 1.89189203e-02, 3.24324332e-02,
          1.35135138e-02, 8.10810830e-03, 2.70270277e-03, 1.08108111e-02,
          1.10810816e-01, 4.05405425e-02, 2.16216221e-02, 5.40540554e-03,
          2.16216221e-02, 1.89189203e-02, 2.70270277e-02, 2.43243240e-02,
          1.62162166e-02, 1.35135138e-02, 1.08108111e-02, 2.43243240e-02,
          8.10810830e-03, 2.70270277e-03, 1.08108111e-02, 2.70270277e-03,
          1.08108111e-02, 8.10810830e-03, 3.51351351e-02, 2.16216221e-02,
          1.89189203e-02, 0., 5.40540554e-03, 1.35135138e-02,
          1.08108111e-02, 8.10810830e-03, 5.40540554e-03, 5.40540554e-03,
          5.40540554e-03, 0., 1.08108111e-02, 1.62162166e-02,
          1.45945951e-01, 3.78378406e-02, 0., 5.40540554e-03,
          2.16216221e-02, 1.62162166e-02 ]
      - [ 4.08163257e-02, 2.04081628e-02, 6.80272095e-03, 2.04081628e-02,
          6.80272095e-03, 0., 6.80272095e-03, 2.04081628e-02,
          3.40136066e-02, 1.36054419e-02, 6.80272095e-03, 0.,
          9.52380896e-02, 0., 7.48299286e-02, 6.80272095e-03,
          2.72108838e-02, 1.36054419e-02, 4.08163257e-02, 6.80272095e-03,
          6.80272095e-03, 0., 2.72108838e-02, 3.40136066e-02,
          6.80272095e-03, 0., 0., 6.80272095e-03, 0., 6.80272095e-03,
          6.80272095e-03, 6.80272095e-03, 6.80272095e-03, 1.36054419e-02,
          0., 2.04081628e-02, 0., 2.72108838e-02, 6.80272095e-03, 0.,
          2.72108838e-02, 0., 0., 0., 1.42857134e-01, 5.44217676e-02,
          1.36054419e-02, 0., 6.80272132e-02, 7.48299286e-02 ]
      - [ 1.59151182e-02, 3.18302363e-02, 7.95755908e-03, 2.12201588e-02,
          1.32625997e-02, 2.65251985e-03, 1.32625997e-02, 7.69230723e-02,
          1.59151182e-02, 2.12201588e-02, 1.59151182e-02, 1.32625997e-02,
          2.91777179e-02, 2.65251985e-03, 7.95755908e-03, 2.91777179e-02,
          1.06100794e-02, 2.12201588e-02, 2.12201588e-02, 2.91777179e-02,
          2.12201588e-02, 7.95755908e-03, 2.12201588e-02, 2.38726791e-02,
          1.59151182e-02, 2.12201588e-02, 1.06100794e-02, 2.12201588e-02,
          2.38726791e-02, 1.06100794e-02, 2.38726791e-02, 1.85676385e-02,
          7.95755908e-03, 0., 4.24403176e-02, 1.59151182e-02,
          1.85676385e-02, 0., 1.59151182e-02, 2.91777179e-02,
          2.65251985e-03, 1.06100794e-02, 1.85676385e-02, 3.44827585e-02,
          5.83554357e-02, 2.65251994e-02, 3.44827585e-02, 2.12201588e-02,
          1.59151182e-02, 2.65251994e-02 ]
      - [ 1.95758566e-02, 2.77324636e-02, 3.09951063e-02, 1.46818925e-02,
          2.28384994e-02, 1.30505711e-02, 2.93637849e-02, 2.28384994e-02,
          2.28384994e-02, 6.52528554e-03, 1.14192497e-02, 9.78792831e-03,
          2.93637849e-02, 1.95758566e-02, 2.93637849e-02, 4.07830328e-02,
          1.95758566e-02, 1.30505711e-02, 2.44698208e-02, 3.09951063e-02,
          0., 9.78792831e-03, 2.28384994e-02, 2.28384994e-02,
          1.30505711e-02, 6.52528554e-03, 1.95758566e-02, 3.91517133e-02,
          2.77324636e-02, 2.77324636e-02, 3.75203937e-02, 3.42577472e-02,
          1.63132139e-02, 1.63132139e-03, 2.44698208e-02, 8.15660693e-03,
          1.95758566e-02, 8.15660693e-03, 2.93637849e-02, 8.15660693e-03,
          6.52528554e-03, 4.89396416e-03, 1.30505711e-02, 9.78792831e-03,
          4.07830328e-02, 4.24143560e-02, 8.15660693e-03, 1.46818925e-02,
          2.44698208e-02, 1.95758566e-02 ]
      - [ 2.49307472e-02, 1.66204982e-02, 1.10803321e-02, 1.66204982e-02,
          2.77008303e-02, 1.10803321e-02, 2.77008303e-02, 6.37119114e-02,
          3.04709133e-02, 1.38504151e-02, 1.66204982e-02, 1.38504151e-02,
          4.43213284e-02, 1.66204982e-02, 8.31024908e-03, 1.10803321e-02,
          8.31024908e-03, 3.04709133e-02, 4.43213284e-02, 2.77008303e-02,
          1.93905812e-02, 5.54016605e-03, 1.38504151e-02, 3.60110775e-02,
          1.10803321e-02, 2.77008303e-03, 2.49307472e-02, 3.04709133e-02,
          2.21606642e-02, 1.10803321e-02, 1.93905812e-02, 1.93905812e-02,
          1.10803321e-02, 1.10803321e-02, 1.66204982e-02, 1.66204982e-02,
          5.54016605e-03, 0., 1.38504151e-02, 5.54016605e-03,
          2.77008303e-03, 0., 2.49307472e-02, 1.38504151e-02,
          8.86426568e-02, 2.21606642e-02, 1.10803321e-02, 2.49307472e-02,
          2.21606642e-02, 2.77008303e-02 ]
      - [ 2.73037534e-02, 3.41296918e-03, 1.02389073e-02, 1.02389073e-02,
          2.38907840e-02, 6.82593836e-03, 4.43685986e-02, 3.41296904e-02,
          1.02389073e-02, 1.02389073e-02, 4.09556292e-02, 3.41296918e-03,
          2.73037534e-02, 1.36518767e-02, 1.70648452e-02, 1.02389073e-02,
          6.82593836e-03, 1.36518767e-02, 3.07167228e-02, 2.38907840e-02,
          1.02389073e-02, 0., 3.07167228e-02, 2.04778146e-02,
          3.07167228e-02, 3.41296904e-02, 2.04778146e-02, 6.82593836e-03,
          1.70648452e-02, 3.41296918e-03, 2.73037534e-02, 1.02389073e-02,
          1.02389073e-02, 5.46075068e-02, 2.04778146e-02, 6.82593836e-03,
          2.38907840e-02, 1.36518767e-02, 1.02389073e-02, 2.38907840e-02,
          1.70648452e-02, 4.77815680e-02, 1.02389073e-02, 3.41296918e-03,
          5.46075068e-02, 1.70648452e-02, 2.73037534e-02, 1.02389073e-02,
          4.43685986e-02, 2.38907840e-02 ]
      - [ 1.94805190e-02, 2.27272734e-02, 1.62337665e-02, 1.29870130e-02,
          9.74025950e-03, 4.22077924e-02, 6.16883114e-02, 4.87012975e-02,
          3.24675324e-03, 6.49350649e-03, 2.27272734e-02, 3.24675324e-03,
          2.59740259e-02, 0., 2.59740259e-02, 2.27272734e-02,
          9.74025950e-03, 1.29870130e-02, 1.62337665e-02, 6.49350649e-03,
          2.27272734e-02, 3.24675324e-03, 2.92207785e-02, 2.27272734e-02,
          9.74025950e-03, 2.27272734e-02, 2.27272734e-02, 1.62337665e-02,
          6.49350649e-03, 1.94805190e-02, 1.94805190e-02, 1.29870130e-02,
          1.62337665e-02, 1.94805190e-02, 1.62337665e-02, 7.46753216e-02,
          3.24675324e-03, 2.59740259e-02, 1.29870130e-02, 2.27272734e-02,
          2.59740259e-02, 9.74025950e-03, 2.59740259e-02, 2.27272734e-02,
          4.22077924e-02, 9.74025950e-03, 2.92207785e-02, 1.62337665e-02,
          1.29870130e-02, 1.62337665e-02 ]
      - [ 3.55987065e-02, 1.94174759e-02, 6.47249212e-03, 1.29449842e-02,
          2.26537231e-02, 4.20711972e-02, 2.58899685e-02, 1.94174759e-02,
          9.70873795e-03, 9.70873795e-03, 6.47249212e-03, 6.47249212e-03,
          7.76699036e-02, 3.23624606e-03, 2.91262139e-02, 9.70873795e-03,
          6.47249212e-03, 1.29449842e-02, 5.82524277e-02, 4.20711972e-02,
          1.29449842e-02, 0., 6.47249212e-03, 2.91262139e-02,
          3.23624606e-03, 6.47249212e-03, 1.61812305e-02, 2.58899685e-02,
          9.70873795e-03, 1.29449842e-02, 3.23624611e-02, 9.70873795e-03,
          1.29449842e-02, 9.70873795e-03, 9.70873795e-03, 1.29449842e-02,
          9.70873795e-03, 3.23624606e-03, 3.88349518e-02, 2.58899685e-02,
          3.23624606e-03, 0., 1.29449842e-02, 9.70873795e-03,
          1.22977354e-01, 3.23624611e-02, 1.29449842e-02, 9.70873795e-03,
          3.55987065e-02, 1.61812305e-02 ]
      - [ 3.61445770e-02, 3.01204808e-02, 6.02409616e-03, 6.02409616e-03,
          6.02409616e-03, 1.50602404e-02, 5.72289154e-02, 3.01204808e-02,
          6.02409616e-03, 9.03614424e-03, 3.91566232e-02, 1.50602404e-02,
          7.53012002e-02, 2.40963846e-02, 1.20481923e-02, 2.71084327e-02,
          0., 6.02409616e-03, 1.50602404e-02, 3.01204808e-02,
          6.02409616e-03, 0., 2.10843366e-02, 1.80722885e-02,
          3.91566232e-02, 3.01204808e-03, 2.10843366e-02, 3.01204808e-03,
          9.03614424e-03, 1.20481923e-02, 1.50602404e-02, 1.50602404e-02,
          6.02409616e-03, 2.10843366e-02, 4.21686731e-02, 8.73493925e-02,
          3.01204808e-03, 9.03614424e-03, 2.10843366e-02, 1.50602404e-02,
          6.02409616e-03, 1.50602404e-02, 9.03614424e-03, 3.01204808e-03,
          5.42168655e-02, 1.20481923e-02, 3.91566232e-02, 1.50602404e-02,
          2.40963846e-02, 9.03614424e-03 ]
      - [ 2.25806441e-02, 5.48387095e-02, 4.51612882e-02, 1.61290318e-02,
          9.67741944e-03, 6.45161280e-03, 1.61290318e-02, 4.51612882e-02,
          1.61290318e-02, 6.45161280e-03, 3.22580640e-03, 1.93548389e-02,
          1.29032254e-01, 0., 1.93548389e-02, 3.22580636e-02,
          1.93548389e-02, 1.93548389e-02, 2.25806441e-02, 4.51612882e-02,
          1.61290318e-02, 0., 6.45161280e-03, 9.67741944e-03,
          1.29032256e-02, 1.29032256e-02, 2.58064512e-02, 1.61290318e-02,
          3.22580640e-03, 6.45161280e-03, 2.90322583e-02, 6.45161280e-03,
          1.93548389e-02, 0., 1.29032256e-02, 4.19354849e-02,
          1.29032256e-02, 6.45161280e-03, 6.45161280e-03, 1.61290318e-02,
          3.22580640e-03, 6.45161280e-03, 6.45161280e-03, 6.45161280e-03,
          5.80645166e-02, 3.22580636e-02, 0., 0., 5.16129024e-02,
          2.58064512e-02 ]
      - [ 2.69230772e-02, 7.69230770e-03, 0., 1.53846154e-02,
          1.53846154e-02, 3.46153863e-02, 7.69230770e-03, 3.07692308e-02,
          1.53846154e-02, 3.07692308e-02, 3.84615385e-03, 1.53846154e-02,
          2.69230772e-02, 7.69230770e-03, 3.07692308e-02, 2.30769236e-02,
          7.69230770e-03, 2.69230772e-02, 4.61538471e-02, 3.07692308e-02,
          1.53846154e-02, 4.23076935e-02, 2.30769236e-02, 2.30769236e-02,
          2.30769236e-02, 7.69230770e-03, 1.53846154e-02, 2.30769236e-02,
          1.92307699e-02, 0., 7.69230770e-03, 4.61538471e-02,
          3.84615385e-03, 3.84615385e-03, 2.30769236e-02, 2.30769236e-02,
          1.15384618e-02, 2.69230772e-02, 1.15384618e-02, 1.92307699e-02,
          3.46153863e-02, 0., 3.07692308e-02, 1.15384618e-02,
          5.00000007e-02, 2.30769236e-02, 7.69230770e-03, 1.92307699e-02,
          2.69230772e-02, 2.30769236e-02 ]
      - [ 6.25000000e-02, 6.25000009e-03, 0., 1.87500007e-02,
          3.12500005e-03, 1.87500007e-02, 2.50000004e-02, 2.81250011e-02,
          1.56250000e-02, 4.68750000e-02, 3.12500005e-03, 3.12500005e-03,
          4.37499993e-02, 1.87500007e-02, 4.68750000e-02, 9.37500037e-03,
          6.25000009e-03, 9.37500037e-03, 5.93749993e-02, 1.56250000e-02,
          9.37500037e-03, 1.87500007e-02, 2.81250011e-02, 2.50000004e-02,
          1.25000002e-02, 6.25000009e-03, 1.87500007e-02, 1.25000002e-02,
          1.25000002e-02, 0., 9.37500037e-03, 3.75000015e-02,
          6.25000009e-03, 2.18749996e-02, 9.37500037e-03, 1.56250000e-02,
          3.12500005e-03, 3.12500000e-02, 1.25000002e-02, 1.87500007e-02,
          3.43750007e-02, 3.12500005e-03, 4.06250022e-02, 0.,
          4.37499993e-02, 2.81250011e-02, 2.18749996e-02, 2.18749996e-02,
          4.37499993e-02, 1.25000002e-02 ]
      - [ 4.65116277e-02, 3.19767445e-02, 2.32558139e-02, 5.81395347e-03,
          5.81395347e-03, 1.45348832e-02, 3.77906971e-02, 4.36046496e-02,
          2.90697673e-03, 8.72093067e-03, 2.61627901e-02, 1.45348832e-02,
          6.68604672e-02, 0., 2.32558139e-02, 1.74418613e-02,
          8.72093067e-03, 2.90697664e-02, 2.90697664e-02, 2.61627901e-02,
          8.72093067e-03, 2.90697673e-03, 1.45348832e-02, 1.45348832e-02,
          2.32558139e-02, 0., 3.48837227e-02, 5.52325584e-02,
          1.45348832e-02, 5.81395347e-03, 1.16279069e-02, 2.90697664e-02,
          2.90697673e-03, 1.45348832e-02, 1.74418613e-02, 8.72093067e-03,
          1.45348832e-02, 1.16279069e-02, 8.72093067e-03, 2.32558139e-02,
          1.16279069e-02, 0., 1.74418613e-02, 0., 1.07558139e-01,
          2.32558139e-02, 2.03488376e-02, 8.72093067e-03, 1.16279069e-02,
          2.03488376e-02 ]
      - [ 6.38297871e-02, 1.59574468e-02, 1.06382975e-02, 2.12765951e-02,
          1.06382975e-02, 0., 4.25531901e-02, 4.78723384e-02,
          1.59574468e-02, 5.31914877e-03, 2.65957434e-02, 5.31914877e-03,
          1.11702122e-01, 0., 3.72340418e-02, 1.06382975e-02,
          1.59574468e-02, 1.59574468e-02, 6.91489354e-02, 2.12765951e-02,
          1.06382975e-02, 0., 5.31914877e-03, 0., 1.59574468e-02,
          5.31914877e-03, 2.12765951e-02, 1.59574468e-02, 1.06382975e-02,
          5.31914877e-03, 2.65957434e-02, 1.06382975e-02, 1.06382975e-02,
          1.59574468e-02, 5.31914877e-03, 5.31914877e-03, 0.,
          1.59574468e-02, 0., 0., 1.06382975e-02, 0., 5.31914877e-03,
          5.31914877e-03, 1.54255316e-01, 1.59574468e-02, 0.,
          1.06382975e-02, 2.12765951e-02, 4.78723384e-02 ]
      - [ 9.00900923e-03, 4.95495498e-02, 1.80180185e-02, 1.35135138e-02,
          1.35135138e-02, 1.35135138e-02, 8.10810849e-02, 4.05405425e-02,
          1.80180185e-02, 9.00900923e-03, 4.95495498e-02, 1.80180185e-02,
          4.50450480e-02, 1.35135138e-02, 2.25225240e-02, 1.35135138e-02,
          2.25225240e-02, 2.25225240e-02, 1.80180185e-02, 2.70270277e-02,
          1.80180185e-02, 4.50450461e-03, 1.80180185e-02, 1.35135138e-02,
          9.00900923e-03, 4.50450461e-03, 9.00900923e-03, 2.25225240e-02,
          0., 1.80180185e-02, 2.25225240e-02, 2.70270277e-02,
          9.00900923e-03, 3.15315314e-02, 0., 3.60360369e-02,
          9.00900923e-03, 1.35135138e-02, 3.15315314e-02, 2.25225240e-02,
          1.35135138e-02, 4.50450461e-03, 1.80180185e-02, 9.00900923e-03,
          5.40540554e-02, 1.35135138e-02, 1.35135138e-02, 4.50450461e-03,
          1.35135138e-02, 1.80180185e-02 ]
      - [ 6.49350658e-02, 1.29870130e-02, 2.59740259e-02, 1.73160173e-02,
          1.73160173e-02, 2.16450207e-02, 4.76190485e-02, 3.03030312e-02,
          1.73160173e-02, 2.16450207e-02, 1.29870130e-02, 8.65800865e-03,
          4.32900414e-02, 0., 5.62770553e-02, 8.65800865e-03,
          4.32900432e-03, 2.16450207e-02, 3.89610380e-02, 1.73160173e-02,
          8.65800865e-03, 0., 1.73160173e-02, 1.73160173e-02,
          1.29870130e-02, 4.32900432e-03, 1.73160173e-02, 3.89610380e-02,
          2.16450207e-02, 8.65800865e-03, 1.29870130e-02, 8.65800865e-03,
          1.73160173e-02, 4.32900432e-03, 1.73160173e-02, 2.16450207e-02,
          4.32900432e-03, 1.29870130e-02, 4.32900432e-03, 3.03030312e-02,
          0., 4.32900432e-03, 8.65800865e-03, 4.32900432e-03,
          8.65800828e-02, 2.59740259e-02, 1.73160173e-02, 1.29870130e-02,
          1.73160173e-02, 5.19480519e-02 ]
      - [ 2.83018872e-02, 4.24528308e-02, 1.88679248e-02, 1.41509436e-02,
          2.83018872e-02, 4.24528308e-02, 9.43396240e-03, 4.24528308e-02,
          9.43396240e-03, 4.71698120e-03, 9.43396240e-03, 1.41509436e-02,
          3.77358496e-02, 0., 4.71698120e-03, 9.43396240e-03,
          2.35849060e-02, 0., 2.83018872e-02, 3.30188684e-02,
          1.88679248e-02, 0., 1.88679248e-02, 5.18867932e-02,
          4.71698120e-03, 9.43396240e-03, 3.30188684e-02, 5.18867932e-02,
          3.30188684e-02, 2.35849060e-02, 3.30188684e-02, 2.83018872e-02,
          2.35849060e-02, 4.71698120e-03, 9.43396240e-03, 3.30188684e-02,
          1.88679248e-02, 2.35849060e-02, 9.43396240e-03, 1.41509436e-02,
          2.83018872e-02, 0., 4.24528308e-02, 0., 9.43396240e-03,
          2.83018872e-02, 1.41509436e-02, 1.41509436e-02, 1.41509436e-02,
          4.71698120e-03 ]
      - [ 4.34782617e-02, 2.71739140e-02, 1.08695654e-02, 0.,
          5.43478271e-03, 1.19565219e-01, 2.17391308e-02, 1.08695654e-02,
          0., 5.43478271e-03, 5.43478271e-03, 1.08695654e-02,
          3.80434804e-02, 0., 1.08695654e-02, 5.43478271e-03, 0.,
          5.43478271e-03, 1.08695654e-02, 2.17391308e-02, 2.71739140e-02,
          0., 7.06521720e-02, 4.89130430e-02, 1.63043477e-02, 0.,
          1.08695654e-02, 2.17391308e-02, 1.63043477e-02, 1.08695654e-02,
          2.17391308e-02, 1.63043477e-02, 5.43478271e-03, 2.17391308e-02,
          2.17391308e-02, 2.71739140e-02, 0., 1.63043477e-02,
          5.43478271e-03, 2.71739140e-02, 1.08695654e-02, 0.,
          1.08695654e-02, 5.43478271e-03, 1.08695656e-01, 1.08695654e-02,
          4.89130430e-02, 3.80434804e-02, 1.08695654e-02, 1.63043477e-02 ]
      - [ 1.93704609e-02, 1.21065378e-02, 9.68523044e-03, 9.68523044e-03,
          1.93704609e-02, 1.45278461e-02, 3.87409218e-02, 2.90556923e-02,
          1.69491526e-02, 1.45278461e-02, 1.21065378e-02, 1.93704609e-02,
          3.63196135e-02, 7.26392306e-03, 3.87409218e-02, 1.93704609e-02,
          9.68523044e-03, 9.68523044e-03, 2.90556923e-02, 3.63196135e-02,
          3.87409218e-02, 2.42130761e-03, 3.14770006e-02, 2.42130756e-02,
          2.17917692e-02, 7.26392306e-03, 1.69491526e-02, 2.42130756e-02,
          7.26392306e-03, 9.68523044e-03, 3.87409218e-02, 2.17917692e-02,
          1.69491526e-02, 3.38983051e-02, 1.69491526e-02, 9.68523044e-03,
          1.45278461e-02, 2.66343839e-02, 1.69491526e-02, 9.68523044e-03,
          2.42130756e-02, 9.68523044e-03, 1.93704609e-02, 7.26392306e-03,
          3.87409218e-02, 2.42130756e-02, 2.42130756e-02, 7.26392306e-03,
          2.66343839e-02, 2.66343839e-02 ]
      - [ 1.24069480e-02, 3.72208431e-02, 1.73697267e-02, 1.24069480e-02,
          2.23325063e-02, 0., 2.72952858e-02, 2.23325063e-02,
          1.24069480e-02, 1.24069480e-02, 1.98511165e-02, 1.48883369e-02,
          7.69230798e-02, 2.48138956e-03, 1.98511165e-02, 1.98511165e-02,
          2.23325063e-02, 1.98511165e-02, 2.48138960e-02, 1.48883369e-02,
          1.48883369e-02, 0., 2.48138960e-02, 1.98511165e-02,
          2.48138960e-02, 7.44416844e-03, 1.48883369e-02, 4.46650125e-02,
          1.48883369e-02, 1.98511165e-02, 1.48883369e-02, 9.92555823e-03,
          2.48138960e-02, 2.48138956e-03, 2.48138960e-02, 4.96277912e-03,
          1.24069480e-02, 4.96277912e-03, 2.97766738e-02, 2.48138956e-03,
          7.44416844e-03, 2.48138956e-03, 2.23325063e-02, 1.24069480e-02,
          9.92555842e-02, 6.20347373e-02, 7.44416844e-03, 7.44416844e-03,
          2.23325063e-02, 2.72952858e-02 ]
      - [ 1.57068074e-02, 4.71204184e-02, 5.23560215e-03, 5.23560215e-03,
          1.04712043e-02, 7.85340294e-02, 1.04712043e-02, 3.14136147e-02,
          1.04712043e-02, 3.14136147e-02, 2.09424086e-02, 5.23560215e-03,
          2.09424086e-02, 1.57068074e-02, 2.61780098e-02, 5.23560215e-03,
          4.18848172e-02, 1.04712043e-02, 2.61780098e-02, 5.23560215e-03,
          5.23560215e-03, 5.75916246e-02, 5.23560215e-03, 0.,
          5.23560215e-03, 1.57068074e-02, 0., 5.23560215e-03, 0.,
          3.66492160e-02, 1.04712043e-02, 5.23560215e-03, 1.04712043e-02,
          5.23560215e-03, 5.23560215e-03, 5.23560196e-02, 2.09424086e-02,
          7.32984319e-02, 5.23560215e-03, 1.57068074e-02, 6.80628270e-02,
          5.23560215e-03, 1.57068074e-02, 3.14136147e-02, 6.28272295e-02,
          2.61780098e-02, 5.23560215e-03, 1.57068074e-02, 5.23560215e-03,
          5.23560215e-03 ]
      - [ 2.63157897e-02, 9.86842066e-03, 3.28947371e-03, 3.28947371e-03,
          2.30263155e-02, 1.64473690e-02, 6.57894742e-03, 1.31578948e-02,
          6.57894742e-03, 2.63157897e-02, 2.30263155e-02, 3.28947371e-03,
          3.28947380e-02, 1.31578948e-02, 1.97368413e-02, 2.30263155e-02,
          9.86842066e-03, 1.31578948e-02, 1.31578948e-02, 3.94736826e-02,
          2.63157897e-02, 6.57894742e-03, 3.94736826e-02, 6.90789446e-02,
          6.57894742e-03, 9.86842066e-03, 9.86842066e-03, 2.96052638e-02,
          3.28947371e-03, 6.57894742e-03, 4.27631587e-02, 1.64473690e-02,
          2.96052638e-02, 1.97368413e-02, 2.30263155e-02, 2.63157897e-02,
          1.31578948e-02, 1.64473690e-02, 3.28947371e-03, 3.94736826e-02,
          2.30263155e-02, 0., 4.93421070e-02, 2.30263155e-02,
          2.30263155e-02, 1.97368413e-02, 2.96052638e-02, 2.63157897e-02,
          1.64473690e-02, 2.63157897e-02 ]
      - [ 1.96078438e-02, 2.61437912e-02, 0., 0., 0., 1.30718961e-01, 0.,
          0., 0., 1.96078438e-02, 1.30718956e-02, 0., 1.30718956e-02,
          1.30718956e-02, 3.92156877e-02, 6.53594779e-03, 0.,
          1.30718956e-02, 4.57516350e-02, 6.53594779e-03, 9.15032700e-02,
          0., 5.22875823e-02, 4.57516350e-02, 6.53594779e-03, 0.,
          1.30718956e-02, 3.26797403e-02, 2.61437912e-02, 0.,
          6.53594779e-03, 1.30718956e-02, 0., 0., 0., 1.04575165e-01, 0.,
          1.96078438e-02, 6.53594779e-03, 1.96078438e-02, 2.61437912e-02,
          1.30718956e-02, 1.30718956e-02, 0., 2.61437912e-02,
          1.30718956e-02, 2.61437912e-02, 2.61437912e-02, 6.53594807e-02,
          6.53594779e-03 ]
      - [ 9.43396240e-03, 9.43396240e-03, 3.30188684e-02, 2.83018872e-02,
          1.88679248e-02, 0., 2.83018872e-02, 2.83018872e-02,
          3.77358496e-02, 2.35849060e-02, 2.83018872e-02, 4.71698120e-03,
          2.35849060e-02, 2.83018872e-02, 4.71698120e-03, 4.24528308e-02,
          3.30188684e-02, 1.88679248e-02, 4.71698120e-03, 1.88679248e-02,
          1.41509436e-02, 9.43396240e-03, 9.43396240e-03, 2.35849060e-02,
          3.30188684e-02, 1.88679248e-02, 1.41509436e-02, 1.88679248e-02,
          9.43396240e-03, 9.43396240e-03, 1.88679248e-02, 2.35849060e-02,
          1.41509436e-02, 1.41509436e-02, 9.43396240e-03, 1.41509436e-02,
          1.41509436e-02, 2.35849060e-02, 3.30188684e-02, 3.77358496e-02,
          9.43396240e-03, 0., 2.35849060e-02, 9.43396240e-03,
          5.66037744e-02, 2.35849060e-02, 2.83018872e-02, 4.71698120e-03,
          3.30188684e-02, 2.35849060e-02 ]
      - [ 7.50469044e-03, 3.56472805e-02, 2.81425901e-02, 1.31332083e-02,
          1.31332083e-02, 2.06378996e-02, 5.81613518e-02, 4.87804860e-02,
          1.68855526e-02, 2.06378996e-02, 3.18949334e-02, 1.68855526e-02,
          4.50281426e-02, 2.06378996e-02, 2.25140713e-02, 1.12570357e-02,
          4.50281426e-02, 9.38086305e-03, 1.12570357e-02, 1.12570357e-02,
          2.25140713e-02, 1.31332083e-02, 1.87617261e-02, 1.50093809e-02,
          1.50093809e-02, 1.31332083e-02, 1.50093809e-02, 5.62851783e-03,
          5.62851783e-03, 2.06378996e-02, 1.12570357e-02, 3.75234522e-03,
          1.31332083e-02, 5.62851783e-03, 9.38086305e-03, 5.62851802e-02,
          1.12570357e-02, 1.12570357e-02, 7.50469044e-03, 3.00187618e-02,
          5.62851783e-03, 0., 1.87617261e-02, 2.43902430e-02,
          7.31707290e-02, 1.12570357e-02, 9.38086305e-03, 1.50093809e-02,
          3.37711051e-02, 1.68855526e-02 ]
      - [ 1.21028740e-02, 2.26928890e-02, 1.96671709e-02, 3.02571850e-03,
          1.81543119e-02, 8.01815391e-02, 1.51285920e-02, 2.57186070e-02,
          9.07715596e-03, 1.96671709e-02, 3.32829021e-02, 2.26928890e-02,
          9.07715596e-03, 1.05900150e-02, 9.07715596e-03, 1.66414510e-02,
          1.81543119e-02, 2.26928890e-02, 7.56429601e-03, 1.51285920e-02,
          1.36157330e-02, 3.02571850e-03, 1.36157330e-02, 2.57186070e-02,
          5.44629321e-02, 6.05143700e-03, 9.07715596e-03, 3.02571841e-02,
          1.81543119e-02, 1.66414510e-02, 1.66414510e-02, 1.36157330e-02,
          2.57186070e-02, 6.05143700e-03, 5.44629321e-02, 5.74886501e-02,
          1.51285920e-02, 4.53857798e-03, 1.66414510e-02, 3.02571841e-02,
          3.02571850e-03, 1.51285925e-03, 1.96671709e-02, 2.11800300e-02,
          1.05900150e-02, 1.36157330e-02, 6.95915222e-02, 1.81543119e-02,
          1.05900150e-02, 1.05900150e-02 ]
      - [ 3.28947380e-02, 5.92105277e-02, 0., 6.57894742e-03,
          6.57894742e-03, 1.97368413e-02, 9.86842141e-02, 3.28947380e-02,
          6.57894742e-03, 4.60526310e-02, 0., 1.97368413e-02,
          1.18421055e-01, 0., 1.31578948e-02, 0., 0., 0., 2.63157897e-02,
          6.57894742e-03, 2.63157897e-02, 0., 1.31578948e-02,
          1.31578948e-02, 1.97368413e-02, 0., 6.57894742e-03,
          5.92105277e-02, 0., 6.57894742e-03, 6.57894742e-03,
          1.31578948e-02, 6.57894742e-03, 1.97368413e-02, 1.31578948e-02,
          1.31578948e-02, 0., 6.57894742e-03, 6.57894742e-03,
          1.97368413e-02, 0., 1.31578948e-02, 1.97368413e-02, 0.,
          9.86842141e-02, 2.63157897e-02, 6.57894742e-03, 5.26315793e-02,
          1.97368413e-02, 1.97368413e-02 ]
      - [ 2.47933865e-02, 3.30578499e-02, 8.26446246e-03, 0.,
          8.26446246e-03, 1.23966940e-01, 0., 8.26446246e-03, 0.,
          8.26446246e-03, 0., 0., 2.47933865e-02, 8.26446246e-03,
          3.30578499e-02, 4.13223132e-02, 4.95867729e-02, 3.30578499e-02,
          4.13223132e-02, 2.47933865e-02, 3.30578499e-02, 2.47933865e-02,
          8.26446246e-03, 4.13223132e-02, 2.47933865e-02, 8.26446246e-03,
          8.26446246e-03, 0., 8.26446246e-03, 8.26446246e-03,
          3.30578499e-02, 8.26446246e-03, 8.26446246e-03, 0., 0.,
          4.13223132e-02, 8.26446246e-03, 8.26446246e-03, 2.47933865e-02,
          1.65289249e-02, 1.65289249e-02, 0., 1.65289249e-02, 0.,
          6.61156997e-02, 3.30578499e-02, 1.65289249e-02, 4.13223132e-02,
          2.47933865e-02, 0. ]
      - [ 8.90868623e-03, 1.33630298e-02, 3.56347449e-02, 1.78173725e-02,
          3.56347449e-02, 6.68151490e-03, 2.44988874e-02, 3.11804023e-02,
          2.44988874e-02, 8.90868623e-03, 1.33630298e-02, 1.55902011e-02,
          1.55902011e-02, 1.55902011e-02, 1.78173725e-02, 2.89532300e-02,
          2.44988874e-02, 3.11804023e-02, 2.44988874e-02, 1.33630298e-02,
          6.68151490e-03, 2.00445447e-02, 6.68151490e-03, 1.55902011e-02,
          4.45434311e-03, 2.00445447e-02, 1.55902011e-02, 3.11804023e-02,
          2.89532300e-02, 2.67260596e-02, 4.00890894e-02, 2.00445447e-02,
          1.55902011e-02, 2.22717156e-03, 3.11804023e-02, 2.00445447e-02,
          2.67260596e-02, 6.68151490e-03, 2.89532300e-02, 2.89532300e-02,
          8.90868623e-03, 2.22717156e-03, 2.67260596e-02, 2.00445447e-02,
          4.00890894e-02, 2.22717151e-02, 1.33630298e-02, 1.78173725e-02,
          1.33630298e-02, 3.11804023e-02 ]
      - [ 2.05278583e-02, 2.34604105e-02, 3.22580636e-02, 8.79765395e-03,
          8.79765395e-03, 6.15835786e-02, 8.79765395e-03, 1.46627566e-02,
          1.46627566e-02, 1.46627566e-02, 1.17302053e-02, 0.,
          3.81231681e-02, 2.93255132e-03, 2.63929628e-02, 8.79765395e-03,
          1.75953079e-02, 1.75953079e-02, 1.75953079e-02, 8.79765395e-03,
          2.93255132e-02, 0., 1.75953079e-02, 4.39882688e-02,
          1.17302053e-02, 2.93255132e-03, 1.46627566e-02, 3.81231681e-02,
          1.75953079e-02, 8.79765395e-03, 1.46627566e-02, 3.81231681e-02,
          2.63929628e-02, 8.79765395e-03, 2.93255132e-03, 1.05571851e-01,
          2.93255132e-03, 1.17302053e-02, 5.86510263e-03, 2.93255132e-02,
          1.17302053e-02, 0., 2.05278583e-02, 2.93255132e-03,
          3.22580636e-02, 3.81231681e-02, 2.34604105e-02, 8.79765395e-03,
          4.69208211e-02, 2.63929628e-02 ]
      - [ 1.59453303e-02, 1.13895219e-02, 1.59453303e-02, 1.13895219e-02,
          2.05011405e-02, 2.73348540e-02, 3.64464708e-02, 1.82232354e-02,
          6.83371350e-03, 2.05011405e-02, 2.96127573e-02, 1.59453303e-02,
          3.18906605e-02, 1.59453303e-02, 9.11161769e-03, 1.36674270e-02,
          2.27790438e-02, 3.87243740e-02, 1.82232354e-02, 2.05011405e-02,
          0., 2.27790438e-02, 2.27790438e-02, 2.50569489e-02,
          4.32801843e-02, 4.55580885e-03, 2.05011405e-02, 3.87243740e-02,
          1.82232354e-02, 2.27790438e-02, 9.11161769e-03, 3.87243740e-02,
          1.82232354e-02, 4.55580885e-03, 1.36674270e-02, 2.73348540e-02,
          1.36674270e-02, 9.11161769e-03, 2.96127573e-02, 1.59453303e-02,
          9.11161769e-03, 2.27790442e-03, 3.18906605e-02, 2.50569489e-02,
          2.73348540e-02, 1.36674270e-02, 3.87243740e-02, 1.13895219e-02,
          1.36674270e-02, 2.73348540e-02 ]
      - [ 4.09836024e-02, 4.91803251e-02, 8.19672085e-03, 8.19672085e-03,
          8.19672085e-03, 6.55737668e-02, 6.55737668e-02, 5.73770478e-02,
          0., 0., 0., 5.73770478e-02, 1.22950815e-01, 0., 1.63934417e-02,
          0., 0., 0., 4.09836024e-02, 8.19672085e-03, 0., 0.,
          8.19672085e-03, 3.27868834e-02, 0., 0., 2.45901626e-02,
          9.83606502e-02, 0., 8.19672085e-03, 2.45901626e-02, 0.,
          8.19672085e-03, 2.45901626e-02, 1.63934417e-02, 3.27868834e-02,
          0., 1.63934417e-02, 0., 0., 1.63934417e-02, 0., 0.,
          1.63934417e-02, 5.73770478e-02, 2.45901626e-02, 8.19672085e-03,
          8.19672085e-03, 8.19672085e-03, 1.63934417e-02 ]
      - [ 5.66037707e-02, 5.03144637e-02, 0., 0., 1.88679248e-02,
          8.17610025e-02, 0., 0., 0., 6.28930796e-03, 0., 0.,
          6.91823885e-02, 0., 1.88679248e-02, 0., 0., 0., 5.03144637e-02,
          3.77358496e-02, 6.28930796e-03, 0., 3.14465389e-02,
          3.77358496e-02, 6.28930796e-03, 0., 1.25786159e-02,
          1.88679248e-02, 1.88679248e-02, 0., 1.88679248e-02,
          3.14465389e-02, 6.28930796e-03, 1.88679248e-02, 1.88679248e-02,
          6.28930777e-02, 0., 1.25786159e-02, 0., 4.40251566e-02,
          1.88679248e-02, 0., 0., 1.25786159e-02, 1.19496852e-01,
          1.88679248e-02, 6.28930796e-03, 1.25786159e-02, 6.28930777e-02,
          1.25786159e-02 ]
      - [ 5.06329127e-02, 5.06329127e-02, 0., 0., 1.26582282e-02,
          9.49367136e-02, 0., 0., 0., 1.89873427e-02, 0., 0.,
          6.96202517e-02, 1.26582282e-02, 0., 0., 0., 0., 3.79746854e-02,
          4.43037972e-02, 1.89873427e-02, 0., 2.53164563e-02,
          1.89873427e-02, 6.32911408e-03, 0., 1.26582282e-02,
          1.89873427e-02, 1.26582282e-02, 0., 1.89873427e-02,
          1.89873427e-02, 1.26582282e-02, 1.89873427e-02, 1.89873427e-02,
          3.79746854e-02, 6.32911408e-03, 2.53164563e-02, 6.32911408e-03,
          6.32911399e-02, 6.32911408e-03, 0., 0., 6.32911408e-03,
          1.32911399e-01, 2.53164563e-02, 6.32911408e-03, 1.26582282e-02,
          6.32911399e-02, 1.26582282e-02 ]
      - [ 5.26315793e-02, 1.46198839e-01, 5.84795326e-03, 5.84795326e-03,
          0., 2.92397663e-02, 6.43274859e-02, 0., 1.75438598e-02, 0.,
          2.92397663e-02, 5.84795326e-03, 9.94152054e-02, 5.84795326e-03,
          1.16959065e-02, 1.16959065e-02, 5.84795326e-03, 1.75438598e-02,
          4.09356728e-02, 1.16959065e-02, 0., 0., 1.75438598e-02,
          5.84795326e-03, 1.16959065e-02, 5.84795326e-03, 0.,
          4.67836261e-02, 5.84795326e-03, 1.16959065e-02, 5.84795326e-03,
          1.16959065e-02, 5.84795326e-03, 5.84795326e-03, 5.84795326e-03,
          3.50877196e-02, 1.16959065e-02, 5.84795326e-03, 1.16959065e-02,
          1.16959065e-02, 5.84795326e-03, 0., 5.84795326e-03, 0.,
          1.22807018e-01, 1.75438598e-02, 4.67836261e-02, 0.,
          1.75438598e-02, 5.84795326e-03 ]
      - [ 1.09589040e-01, 2.73972601e-02, 1.36986300e-02, 0.,
          1.36986300e-02, 0., 0., 4.10958901e-02, 1.36986300e-02,
          1.36986300e-02, 0., 0., 4.10958901e-02, 2.73972601e-02, 0., 0.,
          0., 4.10958901e-02, 1.36986300e-02, 1.36986300e-02,
          1.36986300e-02, 2.73972601e-02, 1.36986300e-02, 2.73972601e-02,
          0., 0., 1.36986300e-02, 0., 0., 1.36986300e-02, 4.10958901e-02,
          1.36986300e-02, 0., 6.84931502e-02, 0., 1.09589040e-01,
          2.73972601e-02, 2.73972601e-02, 1.36986300e-02, 0.,
          4.10958901e-02, 0., 1.36986300e-02, 0., 4.10958901e-02,
          1.36986300e-02, 5.47945201e-02, 0., 4.10958901e-02,
          1.36986300e-02 ]
      - [ 1.25000000e-01, 4.16666679e-02, 2.08333340e-02, 0., 0.,
          4.16666679e-02, 0., 0., 0., 0., 0., 0., 1.66666672e-01, 0., 0.,
          2.08333340e-02, 0., 0., 1.04166672e-01, 0., 4.16666679e-02, 0.,
          4.16666679e-02, 0., 0., 0., 0., 0., 2.08333340e-02, 0.,
          4.16666679e-02, 0., 0., 0., 0., 0., 0., 6.25000000e-02, 0., 0.,
          0., 0., 0., 0., 1.45833343e-01, 2.08333340e-02, 0.,
          2.08333340e-02, 8.33333358e-02, 0. ]
      - [ 4.61538471e-02, 5.38461544e-02, 6.15384616e-02, 1.53846154e-02,
          7.69230770e-03, 7.69230770e-03, 2.30769236e-02, 3.07692308e-02,
          1.53846154e-02, 0., 2.30769236e-02, 1.53846154e-02,
          6.92307726e-02, 7.69230770e-03, 3.07692308e-02, 3.84615399e-02,
          2.30769236e-02, 3.07692308e-02, 3.07692308e-02, 2.30769236e-02,
          1.53846154e-02, 0., 2.30769236e-02, 1.53846154e-02,
          7.69230770e-03, 1.53846154e-02, 7.69230770e-03, 3.84615399e-02,
          7.69230770e-03, 7.69230770e-03, 2.30769236e-02, 7.69230770e-03,
          0., 0., 1.53846154e-02, 3.84615399e-02, 7.69230770e-03,
          7.69230770e-03, 1.53846154e-02, 7.69230770e-03, 7.69230770e-03,
          0., 2.30769236e-02, 2.30769236e-02, 7.69230770e-03,
          7.69230770e-03, 6.15384616e-02, 7.69230770e-03, 2.30769236e-02,
          2.30769236e-02 ]
   decision_functions:
      -
         sv_count: 1
         rho: -5.9551174051333533e-01
         alpha: [ 1. ]
         index: [ 0 ]
