%YAML:1.0
---
opencv_ml_svm:
   format: 3
   svmType: C_SVC
   kernel:
      type: LINEAR
   C: 6.2500000000000000e+01
   term_criteria: { iterations:100 }
   var_count: 50
   class_count: 2
   class_labels: !!opencv-matrix
      rows: 2
      cols: 1
      dt: i
      data: [ 0, 1 ]
   sv_total: 1
   support_vectors:
      - [ 6.52860022e+00, -1.20158327e+00, -3.81175065e+00,
          1.02184324e+01, -2.04217005e+00, -3.88297379e-01,
          -1.31669134e-01, 2.30294895e+00, 1.53351080e+00,
          -1.85636148e-01, 7.30774701e-01, -1.40996739e-01,
          -1.83636522e+00, 1.94095337e+00, -3.06047022e-01,
          -3.13357139e+00, -1.59069014e+00, 2.70891309e+00,
          5.02811623e+00, 3.01220798e+00, -1.51707163e+01,
          9.52499211e-01, -1.46754193e+00, -5.46312761e+00,
          3.07513595e+00, 1.60382080e+00, -1.81965637e+00,
          3.69017482e+00, -4.39633560e+00, -7.62579489e+00,
          -5.09778969e-02, -9.96763992e+00, 1.84242821e+00,
          1.04453659e+01, 7.67127085e+00, 8.39894199e+00, 3.36797571e+00,
          3.86376166e+00, -3.74815583e+00, -1.26407537e+01,
          4.71322834e-01, 4.12105274e+00, -9.08712101e+00,
          -1.97986698e+00, 2.41103515e-01, 4.84282875e+00,
          3.20862937e+00, 5.42654395e-01, -2.49015856e+00,
          -1.66679156e+00 ]
   uncompressed_sv_total: 115
   uncompressed_support_vectors:
      - [ 3.64077673e-03, 8.49514548e-03, 9.70873795e-03, 8.49514548e-03,
          2.66990289e-02, 3.39805819e-02, 4.49029133e-02, 2.42718458e-02,
          1.33495145e-02, 1.45631069e-02, 2.18446609e-02, 1.82038844e-02,
          3.64077673e-03, 1.40776694e-01, 6.06796145e-03, 1.33495145e-02,
          7.28155347e-03, 2.66990289e-02, 4.85436898e-03, 1.09223304e-02,
          3.64077673e-03, 1.31067961e-01, 1.09223304e-02, 1.09223304e-02,
          1.21359229e-02, 1.57766994e-02, 4.85436898e-03, 7.28155347e-03,
          3.64077673e-03, 1.94174759e-02, 9.70873795e-03, 1.57766994e-02,
          1.69902910e-02, 3.15533988e-02, 1.57766994e-02, 8.49514548e-03,
          2.79126223e-02, 1.33495145e-02, 6.06796145e-03, 2.79126223e-02,
          2.06310675e-02, 4.49029133e-02, 2.30582524e-02, 1.33495145e-02,
          7.28155347e-03, 7.28155347e-03, 1.33495145e-02, 1.33495145e-02,
          8.49514548e-03, 1.33495145e-02 ]
      - [ 2.37812125e-03, 1.66468490e-02, 4.39952426e-02, 1.18906060e-02,
          5.58858477e-02, 0., 2.49702726e-02, 2.61593331e-02,
          2.02140305e-02, 1.54577885e-02, 1.54577885e-02, 8.32342450e-03,
          7.13436399e-03, 5.70749119e-02, 2.14030910e-02, 1.18906060e-02,
          4.63733636e-02, 4.16171215e-02, 1.30796665e-02, 1.54577885e-02,
          5.94530301e-03, 3.80499400e-02, 1.18906060e-02, 1.07015455e-02,
          1.30796665e-02, 2.85374559e-02, 1.78359095e-02, 1.07015455e-02,
          2.37812120e-02, 2.14030910e-02, 1.54577885e-02, 2.49702726e-02,
          3.21046375e-02, 1.42687280e-02, 3.32936980e-02, 4.75624250e-03,
          2.14030910e-02, 0., 2.49702726e-02, 1.54577885e-02, 0.,
          2.61593331e-02, 1.90249700e-02, 2.25921515e-02, 1.30796665e-02,
          4.16171215e-02, 1.07015455e-02, 1.90249700e-02, 9.51248500e-03,
          1.42687280e-02 ]
      - [ 3.71057517e-03, 1.76252313e-02, 2.87569575e-02, 2.13358067e-02,
          2.69016698e-02, 1.48423007e-02, 1.94805190e-02, 1.66975874e-02,
          1.57699436e-02, 1.94805190e-02, 1.48423007e-02, 1.20593691e-02,
          1.48423007e-02, 8.71985182e-02, 2.78293132e-03, 1.39146568e-02,
          6.49350649e-03, 1.39146568e-02, 2.78293132e-03, 3.80333960e-02,
          8.34879372e-03, 7.05009252e-02, 2.78293132e-03, 2.69016698e-02,
          1.20593691e-02, 2.31910944e-02, 1.20593691e-02, 7.42115034e-03,
          1.20593691e-02, 2.04081628e-02, 3.33951749e-02, 1.66975874e-02,
          5.10204099e-02, 5.56586264e-03, 1.11317253e-02, 6.49350649e-03,
          3.80333960e-02, 1.20593691e-02, 7.42115034e-03, 6.86456412e-02,
          1.20593691e-02, 1.76252313e-02, 1.76252313e-02, 1.94805190e-02,
          2.04081628e-02, 8.34879372e-03, 1.57699436e-02, 3.71057503e-02,
          3.71057517e-03, 1.02040814e-02 ]
      - [ 6.60066027e-03, 2.47524753e-02, 5.94059415e-02, 3.79537977e-02,
          2.97029708e-02, 6.60066027e-03, 3.46534662e-02, 2.97029708e-02,
          2.64026411e-02, 1.32013205e-02, 1.98019817e-02, 1.32013205e-02,
          3.96039635e-02, 5.77557757e-02, 1.15511557e-02, 1.15511557e-02,
          3.63036320e-02, 3.63036320e-02, 6.60066027e-03, 1.15511557e-02,
          9.90099087e-03, 2.64026411e-02, 6.60066027e-03, 1.65016502e-02,
          6.60066027e-03, 4.62046228e-02, 1.48514854e-02, 1.48514854e-02,
          1.15511557e-02, 3.63036320e-02, 9.90099087e-03, 1.32013205e-02,
          2.14521457e-02, 1.15511557e-02, 3.30033014e-03, 1.15511557e-02,
          2.14521457e-02, 2.14521457e-02, 3.13531347e-02, 1.81518160e-02,
          2.64026411e-02, 3.30033014e-03, 1.15511557e-02, 1.98019817e-02,
          1.98019817e-02, 6.60066027e-03, 8.25082511e-03, 9.90099087e-03,
          1.15511557e-02, 1.65016502e-02 ]
      - [ 2.74725282e-03, 1.78571437e-02, 3.43406610e-02, 3.29670347e-02,
          2.33516488e-02, 1.37362641e-03, 4.80769239e-02, 5.21978028e-02,
          2.19780225e-02, 9.61538497e-03, 2.33516488e-02, 9.61538497e-03,
          9.61538497e-03, 2.33516488e-02, 1.09890113e-02, 1.51098901e-02,
          6.86813220e-02, 3.98351662e-02, 2.74725282e-03, 1.64835174e-02,
          2.74725282e-03, 6.86813192e-03, 5.49450563e-03, 8.24175868e-03,
          1.09890113e-02, 4.25824188e-02, 3.02197803e-02, 1.09890113e-02,
          1.51098901e-02, 3.98351662e-02, 1.64835174e-02, 1.23626376e-02,
          2.19780225e-02, 2.88461540e-02, 1.23626376e-02, 2.74725282e-03,
          3.02197803e-02, 1.23626376e-02, 2.60989014e-02, 1.37362638e-02,
          1.64835174e-02, 1.51098901e-02, 1.92307699e-02, 4.12087925e-02,
          1.51098901e-02, 9.61538497e-03, 8.24175868e-03, 1.64835174e-02,
          5.49450563e-03, 3.84615399e-02 ]
      - [ 4.95049497e-03, 2.97029689e-02, 1.98019799e-02, 9.90098994e-03,
          2.97029689e-02, 0., 6.43564314e-02, 3.46534662e-02,
          1.48514844e-02, 4.95049497e-03, 0., 1.98019799e-02,
          5.94059378e-02, 9.90098994e-03, 1.48514844e-02, 3.96039598e-02,
          9.90098994e-03, 1.98019799e-02, 9.90098994e-03, 2.47524753e-02,
          1.48514844e-02, 1.48514844e-02, 2.47524753e-02, 2.47524753e-02,
          0., 1.48514844e-02, 4.45544533e-02, 4.95049497e-03,
          1.48514844e-02, 3.96039598e-02, 4.45544533e-02, 2.47524753e-02,
          4.95049497e-03, 9.90098994e-03, 4.95049497e-03, 4.95049497e-03,
          2.47524753e-02, 4.95049497e-03, 1.98019799e-02, 4.95049497e-03,
          0., 0., 3.46534662e-02, 3.96039598e-02, 6.93069324e-02,
          9.90098994e-03, 9.90098994e-03, 2.47524753e-02, 4.95049497e-03,
          3.96039598e-02 ]
      - [ 1.36054419e-02, 6.80272095e-03, 3.40136066e-02, 1.36054419e-02,
          2.04081628e-02, 0., 9.52380896e-02, 1.29251704e-01,
          1.36054419e-02, 6.80272095e-03, 3.40136066e-02, 5.44217676e-02,
          6.80272095e-03, 6.80272095e-03, 1.36054419e-02, 4.76190448e-02,
          6.12244904e-02, 2.72108838e-02, 2.04081628e-02, 6.80272095e-03,
          6.80272095e-03, 6.80272095e-03, 1.36054419e-02, 1.36054419e-02,
          0., 2.72108838e-02, 2.72108838e-02, 6.80272095e-03,
          6.80272095e-03, 5.44217676e-02, 6.80272095e-03, 1.36054419e-02,
          2.04081628e-02, 0., 6.80272095e-03, 0., 6.80272095e-03, 0.,
          4.76190448e-02, 1.36054419e-02, 0., 0., 2.72108838e-02,
          2.72108838e-02, 2.04081628e-02, 2.04081628e-02, 6.80272095e-03,
          0., 0., 6.80272095e-03 ]
      - [ 1.65975112e-02, 1.65975112e-02, 4.14937781e-03, 4.14937781e-03,
          0., 7.05394223e-02, 0., 0., 4.14937781e-03, 7.05394223e-02,
          1.24481339e-02, 0., 1.65975112e-02, 3.73443998e-02,
          8.29875562e-03, 0., 0., 0., 4.14937781e-03, 1.65975112e-02,
          8.29875562e-03, 5.39419129e-02, 2.07468886e-02, 2.90456451e-02,
          2.48962678e-02, 4.14937781e-03, 4.14937781e-03, 2.90456451e-02,
          2.48962678e-02, 1.24481339e-02, 4.14937781e-03, 2.90456451e-02,
          1.65975112e-02, 2.48962678e-02, 1.24481339e-02, 4.14937772e-02,
          1.24481339e-02, 3.31950225e-02, 8.29875562e-03, 5.80912903e-02,
          2.07468886e-02, 0., 7.46887997e-02, 4.14937781e-03,
          3.73443998e-02, 4.14937781e-03, 8.29875562e-03, 6.63900450e-02,
          3.73443998e-02, 1.24481339e-02 ]
      - [ 4.95049497e-03, 2.47524753e-02, 4.95049497e-03, 0.,
          1.98019799e-02, 4.95049497e-03, 9.90098994e-03, 4.95049497e-03,
          1.48514844e-02, 3.96039598e-02, 1.98019799e-02, 2.97029689e-02,
          5.94059378e-02, 6.43564314e-02, 1.98019799e-02, 4.95049497e-03,
          4.95049497e-03, 1.98019799e-02, 2.47524753e-02, 4.95049497e-03,
          1.48514844e-02, 8.41584131e-02, 4.45544533e-02, 2.97029689e-02,
          0., 1.98019799e-02, 1.98019799e-02, 1.98019799e-02,
          4.95049497e-03, 3.46534662e-02, 9.90098994e-03, 1.98019799e-02,
          0., 0., 4.95049497e-03, 2.47524753e-02, 2.97029689e-02,
          1.98019799e-02, 1.98019799e-02, 1.48514844e-02, 9.90098994e-03,
          0., 2.97029689e-02, 5.94059378e-02, 1.98019799e-02,
          4.95049497e-03, 9.90098994e-03, 9.90098994e-03, 2.97029689e-02,
          2.97029689e-02 ]
      - [ 2.23048329e-02, 2.23048329e-02, 2.23048329e-02, 7.43494416e-03,
          3.34572494e-02, 1.11524165e-02, 3.34572494e-02, 1.11524165e-02,
          2.23048329e-02, 2.97397766e-02, 3.71747203e-02, 7.43494416e-03,
          2.23048329e-02, 2.60223038e-02, 7.43494416e-03, 3.71747203e-02,
          2.23048329e-02, 1.85873602e-02, 1.48698883e-02, 3.34572494e-02,
          1.48698883e-02, 7.43494416e-03, 2.97397766e-02, 4.83271368e-02,
          1.85873602e-02, 7.43494416e-03, 1.48698883e-02, 3.71747208e-03,
          2.23048329e-02, 1.48698883e-02, 2.60223038e-02, 1.11524165e-02,
          2.60223038e-02, 0., 7.43494416e-03, 1.48698883e-02,
          1.48698883e-02, 2.23048329e-02, 7.43494416e-03, 3.34572494e-02,
          1.11524165e-02, 0., 1.85873602e-02, 1.85873602e-02,
          6.69144988e-02, 2.23048329e-02, 2.23048329e-02, 1.85873602e-02,
          1.85873602e-02, 1.48698883e-02 ]
      - [ 5.31914867e-02, 1.59574468e-02, 1.59574468e-02, 5.31914877e-03,
          3.19148935e-02, 5.31914877e-03, 1.59574468e-02, 3.19148935e-02,
          5.31914877e-03, 1.06382975e-02, 2.12765951e-02, 5.31914877e-03,
          5.85106350e-02, 1.06382975e-02, 4.25531901e-02, 1.06382975e-02,
          0., 3.19148935e-02, 3.19148935e-02, 5.31914877e-03,
          5.31914877e-03, 0., 4.78723384e-02, 2.12765951e-02,
          5.31914877e-03, 1.06382975e-02, 2.12765951e-02, 6.38297871e-02,
          5.31914877e-03, 2.12765951e-02, 1.06382975e-02, 4.78723384e-02,
          2.12765951e-02, 4.78723384e-02, 0., 5.31914877e-03,
          1.06382975e-02, 1.06382975e-02, 1.06382975e-02, 1.06382975e-02,
          2.65957434e-02, 0., 3.19148935e-02, 0., 5.85106350e-02,
          1.06382975e-02, 2.12765951e-02, 3.19148935e-02, 2.12765951e-02,
          1.06382975e-02 ]
      - [ 5.64971752e-03, 2.25988701e-02, 2.25988701e-02, 2.82485876e-02,
          2.25988701e-02, 0., 5.08474559e-02, 4.51977402e-02,
          3.38983051e-02, 5.64971752e-03, 1.12994350e-02, 2.82485876e-02,
          2.25988701e-02, 5.64971752e-03, 2.25988701e-02, 1.12994350e-02,
          2.25988701e-02, 4.51977402e-02, 1.69491526e-02, 5.64971752e-03,
          0., 5.64971752e-03, 0., 5.64971752e-03, 1.69491526e-02,
          4.51977402e-02, 1.69491526e-02, 5.64971752e-03, 1.69491526e-02,
          3.95480245e-02, 2.25988701e-02, 2.82485876e-02, 5.64971752e-03,
          1.12994350e-02, 0., 0., 4.51977402e-02, 5.64971752e-03,
          2.25988701e-02, 0., 0., 2.25988701e-02, 5.64971752e-03,
          3.95480245e-02, 1.01694912e-01, 2.82485876e-02, 5.64971752e-03,
          0., 2.25988701e-02, 5.08474559e-02 ]
      - [ 5.39083546e-03, 5.39083555e-02, 3.23450118e-02, 1.07816709e-02,
          2.69541778e-02, 1.07816709e-02, 3.77358496e-02, 2.15633418e-02,
          1.34770889e-02, 2.69541773e-03, 1.61725059e-02, 8.08625296e-03,
          5.92991896e-02, 1.07816709e-02, 1.88679248e-02, 2.96495948e-02,
          2.15633418e-02, 2.42587589e-02, 1.34770889e-02, 1.07816709e-02,
          2.69541778e-02, 0., 8.08625296e-03, 5.39083546e-03,
          8.08625296e-03, 3.77358496e-02, 5.39083546e-03, 1.88679248e-02,
          8.08625296e-03, 2.69541778e-02, 8.08625296e-03, 8.08625296e-03,
          1.88679248e-02, 5.39083546e-03, 4.58221026e-02, 1.61725059e-02,
          1.07816709e-02, 5.39083546e-03, 1.88679248e-02, 2.69541778e-02,
          5.39083546e-03, 1.07816709e-02, 1.61725059e-02, 1.34770889e-02,
          9.16442052e-02, 1.07816709e-02, 4.58221026e-02, 5.39083546e-03,
          1.61725059e-02, 4.58221026e-02 ]
      - [ 2.47933865e-02, 9.91735458e-02, 0., 0., 8.26446246e-03,
          1.65289249e-02, 4.95867729e-02, 2.47933865e-02, 0.,
          2.47933865e-02, 1.65289249e-02, 8.26446246e-03, 9.09090862e-02,
          0., 1.65289249e-02, 0., 0., 8.26446246e-03, 8.26446246e-03, 0.,
          8.26446265e-02, 0., 2.47933865e-02, 3.30578499e-02,
          8.26446246e-03, 0., 8.26446246e-03, 1.65289249e-02, 0., 0.,
          1.65289249e-02, 8.26446246e-03, 8.26446246e-03, 0., 0.,
          5.78512363e-02, 8.26446246e-03, 8.26446246e-03, 0., 0.,
          1.65289249e-02, 0., 8.26446246e-03, 0., 1.81818172e-01,
          2.47933865e-02, 8.26446246e-03, 8.26446246e-03, 7.43801594e-02,
          0. ]
      - [ 9.45626479e-03, 3.78250591e-02, 2.12765951e-02, 1.65484641e-02,
          2.83687934e-02, 1.41843967e-02, 4.96453904e-02, 6.14657216e-02,
          1.41843967e-02, 1.65484641e-02, 1.18203312e-02, 2.83687934e-02,
          9.45626479e-03, 2.36406624e-02, 9.45626479e-03, 3.78250591e-02,
          6.14657216e-02, 2.36406624e-02, 1.65484641e-02, 1.41843967e-02,
          7.09219836e-03, 9.45626479e-03, 9.45626479e-03, 1.89125296e-02,
          2.36406620e-03, 7.09219836e-03, 2.12765951e-02, 6.61938563e-02,
          1.41843967e-02, 2.83687934e-02, 1.41843967e-02, 7.09219836e-03,
          1.41843967e-02, 7.09219836e-03, 4.72813239e-03, 2.36406620e-03,
          2.36406624e-02, 4.72813239e-03, 2.12765951e-02, 4.25531901e-02,
          7.09219836e-03, 0., 1.41843967e-02, 3.07328608e-02,
          3.07328608e-02, 1.65484641e-02, 1.65484641e-02, 1.18203312e-02,
          1.89125296e-02, 2.12765951e-02 ]
      - [ 9.90098994e-03, 9.90098994e-03, 0., 9.90098994e-03,
          1.98019799e-02, 2.97029689e-02, 2.97029689e-02, 0.,
          2.97029689e-02, 9.90098994e-03, 1.98019799e-02, 0.,
          4.95049506e-02, 2.97029689e-02, 2.97029689e-02, 0.,
          2.97029689e-02, 0., 0., 9.90098994e-03, 4.95049506e-02, 0.,
          1.98019799e-02, 3.96039598e-02, 0., 0., 0., 9.90099013e-02,
          3.96039598e-02, 0., 0., 2.97029689e-02, 2.97029689e-02,
          9.90098994e-03, 1.98019799e-02, 9.90098994e-03, 9.90098994e-03,
          3.96039598e-02, 0., 1.98019799e-02, 9.90098994e-03, 0.,
          3.96039598e-02, 0., 6.93069324e-02, 9.90098994e-03,
          4.95049506e-02, 3.96039598e-02, 2.97029689e-02, 1.98019799e-02 ]
      - [ 3.13971750e-03, 3.13971750e-03, 3.13971750e-02, 1.41287288e-02,
          4.86656204e-02, 1.56985875e-03, 3.13971750e-03, 4.70957626e-03,
          1.56985875e-02, 1.72684453e-02, 2.04081647e-02, 1.56985875e-03,
          0., 1.22448981e-01, 7.84929376e-03, 2.35478804e-02,
          7.37833604e-02, 4.23861854e-02, 1.25588700e-02, 1.09890113e-02,
          4.70957626e-03, 7.22135007e-02, 2.35478804e-02, 3.76766101e-02,
          6.27943501e-03, 2.35478804e-02, 4.70957626e-03, 7.84929376e-03,
          1.41287288e-02, 4.70957607e-02, 1.72684453e-02, 2.19780225e-02,
          3.45368907e-02, 0., 1.56985875e-03, 4.70957626e-03,
          3.13971750e-02, 7.84929376e-03, 3.45368907e-02, 6.12244904e-02,
          6.27943501e-03, 0., 1.72684453e-02, 2.35478804e-02,
          1.56985875e-03, 3.13971750e-03, 6.27943501e-03, 1.72684453e-02,
          4.70957626e-03, 4.70957626e-03 ]
      - [ 1.93548389e-02, 3.87096778e-02, 5.80645166e-02, 1.29032256e-02,
          3.87096778e-02, 1.29032256e-02, 7.74193555e-02, 1.29032256e-02,
          2.58064512e-02, 0., 1.29032256e-02, 1.29032256e-02, 0.,
          2.58064512e-02, 1.29032256e-02, 1.93548389e-02, 7.09677413e-02,
          1.29032256e-02, 1.93548389e-02, 6.45161280e-03, 3.87096778e-02,
          6.45161280e-03, 6.45161280e-03, 1.93548389e-02, 0.,
          3.87096778e-02, 1.93548389e-02, 0., 2.58064512e-02,
          7.09677413e-02, 6.45161280e-03, 1.29032256e-02, 3.22580636e-02,
          1.29032256e-02, 0., 0., 4.51612882e-02, 0., 1.93548389e-02,
          1.29032256e-02, 6.45161280e-03, 6.45161280e-03, 1.29032256e-02,
          5.16129024e-02, 3.87096778e-02, 6.45161280e-03, 0.,
          6.45161280e-03, 0., 1.29032256e-02 ]
      - [ 2.04081628e-02, 4.08163257e-02, 0., 0., 2.04081628e-02,
          2.04081628e-02, 2.04081628e-02, 1.02040814e-02, 1.02040814e-02,
          0., 0., 0., 5.10204062e-02, 1.02040814e-02, 0., 0., 0.,
          2.04081628e-02, 2.04081628e-02, 0., 5.10204062e-02,
          1.02040814e-02, 0., 0., 0., 1.02040814e-02, 1.02040814e-02,
          1.02040814e-02, 2.04081628e-02, 0., 2.04081628e-02,
          6.12244904e-02, 2.04081628e-02, 2.04081628e-02, 0.,
          4.08163257e-02, 1.02040814e-02, 7.14285672e-02, 0.,
          1.02040814e-02, 6.12244904e-02, 0., 4.08163257e-02,
          3.06122452e-02, 6.12244904e-02, 3.06122452e-02, 4.08163257e-02,
          3.06122452e-02, 6.12244904e-02, 3.06122452e-02 ]
      - [ 4.29184549e-03, 4.29184549e-02, 2.57510729e-02, 4.29184549e-03,
          1.28755365e-02, 3.00429184e-02, 3.86266112e-02, 3.86266112e-02,
          0., 4.29184549e-03, 8.58369097e-03, 4.29184549e-03,
          1.11587986e-01, 1.28755365e-02, 2.14592274e-02, 3.43347639e-02,
          8.58369097e-03, 8.58369097e-03, 0., 1.71673819e-02,
          3.00429184e-02, 8.58369097e-03, 8.58369097e-03, 1.28755365e-02,
          8.58369097e-03, 1.71673819e-02, 2.57510729e-02, 2.14592274e-02,
          4.29184549e-03, 1.28755365e-02, 3.43347639e-02, 1.71673819e-02,
          2.57510729e-02, 8.58369097e-03, 4.29184549e-03, 8.58369097e-03,
          8.58369097e-03, 1.28755365e-02, 3.86266112e-02, 1.28755365e-02,
          4.29184549e-03, 0., 8.58369097e-03, 1.28755365e-02,
          1.11587986e-01, 2.57510729e-02, 1.28755365e-02, 1.71673819e-02,
          1.28755365e-02, 4.29184549e-02 ]
      - [ 3.24324332e-02, 2.70270277e-02, 1.62162166e-02, 1.08108111e-02,
          2.16216221e-02, 2.70270277e-02, 5.40540554e-03, 5.40540554e-03,
          1.62162166e-02, 5.40540554e-03, 1.08108111e-02, 5.40540554e-03,
          1.08108111e-01, 1.62162166e-02, 2.16216221e-02, 1.08108111e-02,
          1.08108111e-02, 1.62162166e-02, 2.16216221e-02, 1.08108111e-02,
          2.70270277e-02, 0., 1.08108111e-02, 2.16216221e-02, 0.,
          1.08108111e-02, 2.16216221e-02, 1.62162166e-02, 1.08108111e-02,
          2.70270277e-02, 2.16216221e-02, 2.70270277e-02, 2.16216221e-02,
          5.40540554e-03, 1.62162166e-02, 1.08108111e-02, 2.16216221e-02,
          5.40540554e-03, 1.62162166e-02, 2.16216221e-02, 5.40540554e-03,
          0., 4.86486480e-02, 1.62162166e-02, 1.29729733e-01,
          2.16216221e-02, 1.08108111e-02, 5.40540554e-03, 1.62162166e-02,
          3.24324332e-02 ]
      - [ 3.44827585e-02, 3.01724132e-02, 0., 1.29310340e-02,
          2.15517245e-02, 2.15517245e-02, 4.74137925e-02, 1.72413792e-02,
          8.62068962e-03, 4.31034481e-03, 2.58620679e-02, 0.,
          4.31034490e-02, 4.74137925e-02, 8.62068962e-03, 3.01724132e-02,
          2.58620679e-02, 3.44827585e-02, 3.01724132e-02, 8.62068962e-03,
          3.87931019e-02, 3.44827585e-02, 2.58620679e-02, 3.87931019e-02,
          4.31034481e-03, 1.72413792e-02, 1.29310340e-02, 4.31034490e-02,
          8.62068962e-03, 1.29310340e-02, 1.29310340e-02, 8.62068962e-03,
          8.62068962e-03, 0., 0., 3.87931019e-02, 1.29310340e-02,
          8.62068962e-03, 1.29310340e-02, 2.58620679e-02, 8.62068962e-03,
          1.29310340e-02, 8.62068962e-03, 3.01724132e-02, 4.74137925e-02,
          4.31034481e-03, 8.62068962e-03, 3.01724132e-02, 2.15517245e-02,
          8.62068962e-03 ]
      - [ 0., 4.68085110e-02, 2.34042555e-02, 1.27659570e-02,
          1.70212761e-02, 4.89361696e-02, 1.48936165e-02, 1.48936165e-02,
          1.91489346e-02, 2.76595727e-02, 1.27659570e-02, 3.82978693e-02,
          1.70212761e-02, 2.76595727e-02, 1.48936165e-02, 1.48936165e-02,
          1.48936165e-02, 2.76595727e-02, 1.06382975e-02, 2.76595727e-02,
          1.91489346e-02, 2.12765951e-02, 8.51063803e-03, 2.34042555e-02,
          1.70212761e-02, 1.91489346e-02, 2.12765951e-02, 1.70212761e-02,
          8.51063803e-03, 2.97872331e-02, 1.70212761e-02, 1.70212761e-02,
          2.12765951e-02, 8.51063803e-03, 1.06382975e-02, 2.97872331e-02,
          1.48936165e-02, 2.12765951e-03, 2.34042555e-02, 7.44680837e-02,
          6.38297852e-03, 0., 2.12765951e-02, 2.12765951e-02,
          1.91489346e-02, 1.27659570e-02, 2.76595727e-02, 1.48936165e-02,
          1.27659570e-02, 2.76595727e-02 ]
      - [ 2.65957434e-02, 4.25531901e-02, 1.06382975e-02, 0.,
          3.19148935e-02, 3.19148935e-02, 5.31914877e-03, 2.12765951e-02,
          0., 4.25531901e-02, 0., 1.59574468e-02, 5.31914867e-02,
          3.19148935e-02, 3.19148935e-02, 1.59574468e-02, 0.,
          5.31914877e-03, 2.12765951e-02, 2.12765951e-02, 1.59574468e-02,
          1.59574468e-02, 2.12765951e-02, 3.19148935e-02, 1.59574468e-02,
          5.31914877e-03, 3.19148935e-02, 4.25531901e-02, 1.06382975e-02,
          1.06382975e-02, 2.65957434e-02, 1.06382975e-02, 1.06382975e-02,
          5.31914877e-03, 5.31914877e-03, 4.25531901e-02, 1.06382975e-02,
          1.06382975e-02, 1.59574468e-02, 2.12765951e-02, 1.06382975e-02,
          0., 2.12765951e-02, 2.12765951e-02, 6.91489354e-02,
          2.12765951e-02, 1.06382975e-02, 1.59574468e-02, 3.72340418e-02,
          2.12765951e-02 ]
      - [ 2.67857146e-02, 3.03571429e-02, 2.67857146e-02, 2.67857146e-02,
          1.42857144e-02, 1.60714295e-02, 3.57142873e-02, 5.35714291e-02,
          1.78571437e-02, 1.07142860e-02, 2.85714287e-02, 1.96428578e-02,
          3.75000015e-02, 5.35714300e-03, 2.32142862e-02, 2.14285720e-02,
          1.96428578e-02, 1.96428578e-02, 2.32142862e-02, 1.96428578e-02,
          1.60714295e-02, 0., 1.60714295e-02, 3.39285731e-02,
          7.14285718e-03, 1.42857144e-02, 2.32142862e-02, 2.32142862e-02,
          1.25000002e-02, 1.42857144e-02, 1.78571437e-02, 2.67857146e-02,
          2.50000004e-02, 3.57142859e-03, 2.67857146e-02, 3.57142873e-02,
          8.92857183e-03, 8.92857183e-03, 2.85714287e-02, 1.07142860e-02,
          0., 5.35714300e-03, 2.85714287e-02, 1.42857144e-02,
          2.50000004e-02, 1.25000002e-02, 2.32142862e-02, 1.60714295e-02,
          2.67857146e-02, 1.78571437e-02 ]
      - [ 1.43266479e-02, 3.43839563e-02, 8.59598909e-03, 1.14613185e-02,
          1.14613185e-02, 5.73065924e-03, 2.00573076e-02, 2.29226369e-02,
          1.43266479e-02, 2.29226369e-02, 3.72492857e-02, 8.59598909e-03,
          7.73639008e-02, 5.73065924e-03, 1.43266479e-02, 2.00573076e-02,
          1.14613185e-02, 1.14613185e-02, 1.14613185e-02, 2.00573076e-02,
          2.00573076e-02, 5.73065924e-03, 1.43266479e-02, 1.14613185e-02,
          4.01146151e-02, 8.59598909e-03, 2.29226369e-02, 6.01719208e-02,
          2.00573076e-02, 5.73065924e-03, 2.57879663e-02, 2.00573076e-02,
          5.73065924e-03, 8.59598909e-03, 3.43839563e-02, 1.14613185e-02,
          5.73065924e-03, 8.59598909e-03, 1.43266479e-02, 8.59598909e-03,
          2.86532962e-03, 5.73065924e-03, 3.72492857e-02, 1.71919782e-02,
          8.88252184e-02, 0., 4.01146151e-02, 2.00573076e-02,
          1.71919782e-02, 3.43839563e-02 ]
      - [ 1.15942033e-02, 3.18840593e-02, 8.69565271e-03, 1.73913054e-02,
          1.44927539e-02, 3.47826108e-02, 2.60869581e-02, 1.15942033e-02,
          2.60869581e-02, 1.73913054e-02, 2.60869581e-02, 1.44927539e-02,
          3.18840593e-02, 1.73913054e-02, 1.15942033e-02, 1.73913054e-02,
          2.89855078e-02, 3.18840593e-02, 1.15942033e-02, 2.89855083e-03,
          1.15942033e-02, 5.79710165e-03, 8.69565271e-03, 3.76811624e-02,
          1.73913054e-02, 1.44927539e-02, 4.05797102e-02, 4.34782617e-02,
          2.02898551e-02, 5.21739163e-02, 1.15942033e-02, 3.47826108e-02,
          1.15942033e-02, 8.69565271e-03, 1.15942033e-02, 1.44927539e-02,
          4.63768132e-02, 1.73913054e-02, 8.69565271e-03, 1.15942033e-02,
          1.73913054e-02, 8.69565271e-03, 2.02898551e-02, 1.73913054e-02,
          2.31884066e-02, 2.02898551e-02, 8.69565271e-03, 1.15942033e-02,
          3.47826108e-02, 1.44927539e-02 ]
      - [ 3.27868853e-03, 1.96721312e-02, 3.27868834e-02, 1.31147541e-02,
          2.62295082e-02, 6.55737706e-03, 5.90163916e-02, 5.90163916e-02,
          1.63934417e-02, 1.63934417e-02, 1.31147541e-02, 1.96721312e-02,
          9.83606558e-03, 2.95081958e-02, 1.31147541e-02, 2.62295082e-02,
          1.96721312e-02, 2.95081958e-02, 3.27868853e-03, 1.63934417e-02,
          6.55737706e-03, 5.57377040e-02, 6.55737706e-03, 9.83606558e-03,
          2.95081958e-02, 1.63934417e-02, 3.27868834e-02, 6.55737706e-03,
          1.31147541e-02, 3.27868834e-02, 2.29508206e-02, 1.63934417e-02,
          9.83606558e-03, 3.27868853e-03, 3.60655747e-02, 0.,
          1.63934417e-02, 6.55737706e-03, 2.95081958e-02, 3.27868853e-03,
          9.83606558e-03, 3.60655747e-02, 6.55737706e-03, 2.95081958e-02,
          1.63934417e-02, 3.27868834e-02, 1.63934417e-02, 2.29508206e-02,
          6.55737706e-03, 3.60655747e-02 ]
      - [ 1.23456791e-02, 1.23456791e-02, 2.22222228e-02, 1.72839519e-02,
          2.46913582e-02, 2.96296310e-02, 8.14814866e-02, 3.95061746e-02,
          1.97530873e-02, 1.97530873e-02, 2.96296310e-02, 7.40740774e-03,
          7.40740774e-03, 4.93827183e-03, 7.40740774e-03, 3.95061746e-02,
          2.46913582e-02, 2.22222228e-02, 1.48148155e-02, 2.71604955e-02,
          2.46913582e-02, 4.93827183e-03, 1.23456791e-02, 1.97530873e-02,
          2.71604955e-02, 1.72839519e-02, 1.72839519e-02, 1.72839519e-02,
          7.40740774e-03, 2.22222228e-02, 3.70370373e-02, 1.97530873e-02,
          2.46913582e-02, 4.93827183e-03, 1.97530873e-02, 3.20987664e-02,
          2.46913582e-02, 2.46913591e-03, 3.20987664e-02, 2.22222228e-02,
          1.23456791e-02, 2.46913582e-02, 1.23456791e-02, 1.97530873e-02,
          1.48148155e-02, 1.72839519e-02, 7.40740774e-03, 2.22222228e-02,
          9.87654366e-03, 4.93827183e-03 ]
      - [ 1.71428565e-02, 4.57142852e-02, 3.71428579e-02, 1.42857144e-02,
          1.71428565e-02, 2.28571426e-02, 1.14285713e-02, 8.57142825e-03,
          1.71428565e-02, 1.42857144e-02, 2.28571426e-02, 1.71428565e-02,
          5.71428575e-02, 1.99999996e-02, 1.14285713e-02, 3.71428579e-02,
          4.28571440e-02, 2.57142857e-02, 3.42857130e-02, 3.71428579e-02,
          1.14285713e-02, 8.57142825e-03, 2.28571426e-02, 2.85714287e-02,
          8.57142825e-03, 1.99999996e-02, 1.71428565e-02, 2.28571426e-02,
          1.71428565e-02, 1.14285713e-02, 1.42857144e-02, 1.42857144e-02,
          1.99999996e-02, 2.85714283e-03, 2.85714283e-03, 3.71428579e-02,
          1.71428565e-02, 8.57142825e-03, 2.28571426e-02, 1.99999996e-02,
          5.71428565e-03, 5.71428565e-03, 5.71428565e-03, 1.42857144e-02,
          3.71428579e-02, 1.99999996e-02, 1.14285713e-02, 1.14285713e-02,
          1.71428565e-02, 3.14285718e-02 ]
      - [ 3.22580636e-02, 8.06451589e-03, 0., 0., 3.22580636e-02, 0., 0.,
          0., 8.06451589e-03, 8.06451589e-03, 0., 8.06451589e-03,
          1.12903222e-01, 0., 4.83870953e-02, 8.06451589e-03,
          5.64516112e-02, 8.06451589e-03, 4.83870953e-02, 1.61290318e-02,
          3.22580636e-02, 0., 2.41935477e-02, 8.06451589e-03,
          8.06451589e-03, 8.06451589e-03, 1.61290318e-02, 8.06451589e-03,
          6.45161271e-02, 8.06451589e-03, 2.41935477e-02, 6.45161271e-02,
          4.83870953e-02, 0., 8.06451589e-03, 2.41935477e-02,
          1.61290318e-02, 2.41935477e-02, 0., 1.61290318e-02,
          8.06451589e-03, 0., 3.22580636e-02, 0., 6.45161271e-02,
          3.22580636e-02, 8.06451589e-03, 1.61290318e-02, 1.61290318e-02,
          2.41935477e-02 ]
      - [ 8.33333358e-02, 5.95238097e-02, 1.19047621e-02, 0., 0.,
          4.76190485e-02, 0., 0., 0., 1.19047621e-02, 0., 0.,
          1.07142858e-01, 0., 5.95238097e-02, 0., 0., 0., 8.33333358e-02,
          1.19047621e-02, 1.19047621e-02, 0., 2.38095243e-02,
          4.76190485e-02, 0., 0., 1.19047621e-02, 1.19047621e-02, 0.,
          1.19047621e-02, 3.57142873e-02, 0., 1.19047621e-02, 0., 0.,
          2.38095243e-02, 0., 2.38095243e-02, 0., 3.57142873e-02,
          1.19047621e-02, 0., 1.19047621e-02, 2.38095243e-02,
          1.30952388e-01, 4.76190485e-02, 0., 0., 3.57142873e-02,
          1.19047621e-02 ]
      - [ 8.43170285e-03, 2.19224282e-02, 3.70994955e-02, 2.86677908e-02,
          3.54131535e-02, 1.01180440e-02, 2.69814506e-02, 3.87858339e-02,
          1.68634057e-02, 6.74536265e-03, 2.69814506e-02, 1.85497478e-02,
          1.34907253e-02, 1.85497478e-02, 2.19224282e-02, 4.21585180e-02,
          4.72175404e-02, 4.04721759e-02, 1.01180440e-02, 1.51770655e-02,
          1.68634066e-03, 1.85497478e-02, 1.34907253e-02, 2.52951104e-02,
          2.19224282e-02, 3.20404731e-02, 2.19224282e-02, 1.01180440e-02,
          1.18043851e-02, 2.86677908e-02, 2.36087702e-02, 1.18043851e-02,
          2.02360880e-02, 1.68634066e-03, 2.19224282e-02, 3.37268133e-03,
          2.52951104e-02, 5.05902199e-03, 4.21585180e-02, 3.03541310e-02,
          5.05902199e-03, 6.74536265e-03, 8.43170285e-03, 1.68634057e-02,
          3.87858339e-02, 1.68634057e-02, 1.01180440e-02, 1.51770655e-02,
          1.01180440e-02, 1.51770655e-02 ]
      - [ 2.50896066e-02, 7.16845877e-03, 2.50896066e-02, 2.15053763e-02,
          1.43369175e-02, 0., 1.54121861e-01, 5.37634417e-02,
          1.43369175e-02, 0., 2.86738351e-02, 7.16845877e-03,
          7.16845840e-02, 3.58422939e-03, 1.43369175e-02, 2.50896066e-02,
          3.58422920e-02, 3.22580636e-02, 2.50896066e-02, 3.58422939e-03,
          1.07526882e-02, 0., 1.43369175e-02, 2.86738351e-02,
          7.16845877e-03, 2.50896066e-02, 1.43369175e-02, 3.58422939e-03,
          0., 2.15053763e-02, 2.15053763e-02, 3.58422939e-03,
          1.07526882e-02, 7.16845877e-03, 3.58422939e-03, 2.50896066e-02,
          1.43369175e-02, 0., 1.43369175e-02, 0., 3.58422939e-03,
          7.16845877e-03, 1.43369175e-02, 1.07526882e-02, 7.88530484e-02,
          2.50896066e-02, 7.16845877e-03, 0., 2.86738351e-02,
          3.58422920e-02 ]
      - [ 3.00751887e-02, 1.50375944e-02, 3.00751887e-02, 1.50375944e-02,
          2.25563906e-02, 7.51879718e-03, 0., 7.51879718e-03,
          7.51879718e-03, 7.51879718e-03, 7.51879718e-03, 0.,
          2.25563906e-02, 3.75939868e-02, 7.51879718e-03, 1.50375944e-02,
          3.00751887e-02, 1.50375944e-02, 2.25563906e-02, 7.51879718e-03,
          0., 3.00751887e-02, 3.75939868e-02, 3.75939868e-02,
          1.50375944e-02, 2.25563906e-02, 5.26315793e-02, 2.25563906e-02,
          7.51879718e-03, 3.75939868e-02, 3.00751887e-02, 2.25563906e-02,
          1.50375944e-02, 0., 3.00751887e-02, 0., 1.50375944e-02,
          2.25563906e-02, 3.75939868e-02, 2.25563906e-02, 1.50375944e-02,
          0., 7.51879718e-03, 1.50375944e-02, 7.51879737e-02,
          5.26315793e-02, 2.25563906e-02, 7.51879718e-03, 1.50375944e-02,
          2.25563906e-02 ]
      - [ 5.12820520e-02, 6.41025649e-03, 6.41025649e-03, 1.28205130e-02,
          6.41025649e-03, 4.48717959e-02, 6.41025649e-03, 1.28205130e-02,
          2.56410260e-02, 0., 2.56410260e-02, 0., 1.02564104e-01,
          5.12820520e-02, 1.28205130e-02, 1.28205130e-02, 0., 0.,
          2.56410260e-02, 1.28205130e-02, 8.97435918e-02, 0.,
          6.41025649e-03, 6.41025649e-03, 1.28205130e-02, 6.41025649e-03,
          1.92307699e-02, 6.41025649e-03, 6.41025649e-03, 0.,
          1.92307699e-02, 0., 1.28205130e-02, 1.92307699e-02,
          1.92307699e-02, 5.76923080e-02, 0., 1.92307699e-02,
          1.28205130e-02, 3.20512839e-02, 1.28205130e-02, 0.,
          1.28205130e-02, 0., 1.28205135e-01, 1.28205130e-02,
          1.92307699e-02, 0., 3.84615399e-02, 1.28205130e-02 ]
      - [ 1.25448033e-02, 1.79211460e-02, 4.30107526e-02, 3.58422939e-03,
          5.91397844e-02, 1.79211460e-02, 0., 3.58422939e-03,
          1.25448033e-02, 1.97132621e-02, 1.79211460e-02, 3.58422939e-03,
          1.79211460e-02, 9.49820802e-02, 1.25448033e-02, 2.32974906e-02,
          9.31899622e-02, 5.19713275e-02, 8.96057300e-03, 5.37634408e-03,
          7.16845877e-03, 2.68817209e-02, 8.96057300e-03, 1.97132621e-02,
          1.79211469e-03, 1.25448033e-02, 8.96057300e-03, 3.58422939e-03,
          1.25448033e-02, 4.30107526e-02, 1.61290318e-02, 1.43369175e-02,
          4.30107526e-02, 0., 3.58422939e-03, 2.86738351e-02,
          3.22580636e-02, 1.79211469e-03, 2.50896066e-02, 5.73476702e-02,
          3.58422939e-03, 0., 2.15053763e-02, 1.61290318e-02,
          3.58422939e-03, 1.43369175e-02, 1.07526882e-02, 1.61290318e-02,
          1.43369175e-02, 1.25448033e-02 ]
      - [ 2.46913582e-02, 7.40740746e-02, 3.70370373e-02, 0.,
          1.23456791e-02, 3.70370373e-02, 0., 0., 0., 0., 0., 0.,
          8.64197537e-02, 0., 1.23456791e-02, 0., 1.23456791e-02, 0.,
          1.23456791e-02, 2.46913582e-02, 2.46913582e-02, 1.23456791e-02,
          0., 1.23456791e-02, 0., 0., 3.70370373e-02, 2.46913582e-02, 0.,
          0., 9.87654328e-02, 2.46913582e-02, 0., 0., 0., 1.23456791e-02,
          2.46913582e-02, 0., 0., 3.70370373e-02, 1.23456791e-02, 0.,
          1.23456791e-02, 0., 1.72839507e-01, 6.17283955e-02,
          2.46913582e-02, 1.23456791e-02, 2.46913582e-02, 3.70370373e-02 ]
      - [ 1.59362555e-02, 5.17928302e-02, 1.99203193e-02, 7.96812773e-03,
          1.99203193e-02, 3.98406386e-03, 7.96812773e-03, 3.98406386e-03,
          1.59362555e-02, 1.19521916e-02, 2.78884470e-02, 7.96812773e-03,
          3.58565748e-02, 7.96812773e-03, 1.59362555e-02, 2.39043832e-02,
          2.39043832e-02, 2.39043832e-02, 3.98406386e-03, 3.98406386e-02,
          0., 3.98406386e-03, 1.59362555e-02, 7.96812773e-03,
          1.99203193e-02, 1.99203193e-02, 2.78884470e-02, 2.39043832e-02,
          2.39043832e-02, 3.18725109e-02, 5.97609580e-02, 7.96812773e-03,
          1.19521916e-02, 2.78884470e-02, 7.96812773e-03, 3.98406386e-03,
          3.18725109e-02, 1.19521916e-02, 1.59362555e-02, 4.38247025e-02,
          1.19521916e-02, 0., 1.99203193e-02, 1.99203193e-02,
          8.36653411e-02, 1.19521916e-02, 1.59362555e-02, 1.59362555e-02,
          1.59362555e-02, 3.58565748e-02 ]
      - [ 5.69620281e-02, 4.43037972e-02, 0., 0., 1.26582282e-02,
          1.32911399e-01, 0., 0., 0., 5.69620281e-02, 0., 0.,
          4.43037972e-02, 6.32911408e-03, 1.26582282e-02, 0., 0.,
          6.32911408e-03, 5.69620281e-02, 6.32911408e-03, 3.16455700e-02,
          6.32911408e-03, 3.16455700e-02, 3.79746854e-02, 6.32911408e-03,
          6.32911408e-03, 1.26582282e-02, 1.89873427e-02, 1.89873427e-02,
          1.26582282e-02, 1.89873427e-02, 1.26582282e-02, 1.89873427e-02,
          0., 0., 4.43037972e-02, 6.32911408e-03, 3.79746854e-02,
          6.32911408e-03, 3.79746854e-02, 3.16455700e-02, 0.,
          2.53164563e-02, 2.53164563e-02, 2.53164563e-02, 0.,
          6.32911408e-03, 3.79746854e-02, 4.43037972e-02, 0. ]
      - [ 1.12359552e-02, 4.49438207e-02, 3.37078646e-02, 1.87265910e-02,
          7.49063678e-03, 1.12359552e-02, 2.99625471e-02, 2.62172297e-02,
          7.49063678e-03, 1.12359552e-02, 2.62172297e-02, 7.49063678e-03,
          4.86891381e-02, 2.99625471e-02, 0., 2.99625471e-02,
          3.74531820e-02, 2.99625471e-02, 2.99625471e-02, 0.,
          5.61797768e-02, 1.49812736e-02, 1.87265910e-02, 2.62172297e-02,
          3.74531839e-03, 1.49812736e-02, 7.49063678e-03, 3.37078646e-02,
          3.74531839e-03, 1.12359552e-02, 0., 2.24719103e-02,
          7.49063678e-03, 3.74531839e-03, 1.87265910e-02, 3.37078646e-02,
          1.49812736e-02, 1.49812736e-02, 4.86891381e-02, 4.49438207e-02,
          1.49812736e-02, 3.74531839e-03, 2.62172297e-02, 1.49812736e-02,
          2.99625471e-02, 3.74531839e-03, 2.99625471e-02, 7.49063678e-03,
          1.12359552e-02, 1.49812736e-02 ]
      - [ 1.40186911e-02, 9.34579410e-03, 3.27102803e-02, 9.34579410e-03,
          1.86915882e-02, 9.34579410e-03, 9.34579410e-03, 2.80373823e-02,
          2.33644843e-02, 1.40186911e-02, 4.67289705e-03, 1.40186911e-02,
          3.73831764e-02, 5.60747646e-02, 9.34579410e-03, 1.40186911e-02,
          1.02803737e-01, 9.34579410e-03, 9.34579410e-03, 1.86915882e-02,
          1.86915882e-02, 1.86915882e-02, 2.80373823e-02, 4.67289686e-02,
          1.40186911e-02, 9.34579410e-03, 4.67289705e-03, 4.67289705e-03,
          2.33644843e-02, 2.80373823e-02, 9.34579410e-03, 9.34579410e-03,
          4.67289686e-02, 0., 1.40186911e-02, 3.73831764e-02,
          3.27102803e-02, 1.40186911e-02, 3.73831764e-02, 2.33644843e-02,
          1.40186911e-02, 0., 4.67289705e-03, 0., 3.73831764e-02,
          9.34579410e-03, 4.67289705e-03, 2.80373823e-02, 1.86915882e-02,
          1.86915882e-02 ]
      - [ 4.60829493e-03, 2.76497696e-02, 3.68663594e-02, 9.21658985e-03,
          1.38248848e-02, 5.99078350e-02, 1.84331797e-02, 4.60829493e-03,
          9.21658985e-03, 2.76497696e-02, 3.22580636e-02, 1.84331797e-02,
          5.06912433e-02, 5.52995391e-02, 4.60829493e-03, 0.,
          3.22580636e-02, 4.60829493e-03, 1.38248848e-02, 1.84331797e-02,
          3.22580636e-02, 1.84331797e-02, 3.22580636e-02, 3.68663594e-02,
          2.30414756e-02, 0., 4.60829493e-03, 1.84331797e-02,
          9.21658985e-03, 1.84331797e-02, 9.21658985e-03, 1.84331797e-02,
          4.60829493e-03, 0., 9.21658985e-03, 3.22580636e-02,
          1.38248848e-02, 2.30414756e-02, 4.60829493e-03, 5.99078350e-02,
          9.21658985e-03, 9.21658985e-03, 2.76497696e-02, 1.84331797e-02,
          5.06912433e-02, 1.38248848e-02, 1.84331797e-02, 9.21658985e-03,
          2.76497696e-02, 4.60829493e-03 ]
      - [ 7.10227294e-03, 8.52272753e-03, 6.67613670e-02, 5.68181835e-03,
          4.26136367e-02, 0., 8.52272753e-03, 2.41477285e-02,
          1.27840918e-02, 1.70454551e-02, 5.68181835e-03, 7.10227294e-03,
          9.94318165e-03, 5.11363670e-02, 2.55681835e-02, 2.13068184e-02,
          8.52272734e-02, 7.52840936e-02, 9.94318165e-03, 1.42045459e-02,
          2.84090918e-03, 9.94318165e-03, 1.70454551e-02, 1.56250000e-02,
          2.84090918e-03, 3.26704569e-02, 1.84659101e-02, 2.41477285e-02,
          1.56250000e-02, 5.53977303e-02, 1.84659101e-02, 2.55681835e-02,
          2.98295468e-02, 2.84090918e-03, 7.10227294e-03, 2.84090918e-03,
          3.69318202e-02, 2.84090918e-03, 2.41477285e-02, 3.69318202e-02,
          1.42045459e-03, 0., 1.98863633e-02, 2.13068184e-02,
          1.42045459e-02, 1.42045459e-02, 4.26136376e-03, 1.84659101e-02,
          9.94318165e-03, 1.56250000e-02 ]
      - [ 1.92307699e-02, 5.49450563e-03, 1.09890113e-02, 2.74725282e-03,
          1.09890113e-02, 6.04395606e-02, 1.09890113e-02, 4.94505502e-02,
          1.09890113e-02, 1.64835174e-02, 5.49450563e-03, 1.37362638e-02,
          8.24175850e-02, 2.74725282e-03, 2.19780225e-02, 2.19780225e-02,
          1.09890113e-02, 1.09890113e-02, 2.47252751e-02, 1.09890113e-02,
          1.92307699e-02, 2.74725282e-03, 3.84615399e-02, 4.39560451e-02,
          2.74725282e-03, 2.74725282e-03, 8.24175868e-03, 3.57142873e-02,
          2.74725282e-03, 2.19780225e-02, 2.74725282e-03, 3.29670347e-02,
          1.37362638e-02, 2.74725282e-03, 8.24175868e-03, 4.12087925e-02,
          8.24175868e-03, 1.09890113e-02, 2.74725277e-02, 2.47252751e-02,
          8.24175868e-03, 2.74725282e-03, 6.04395606e-02, 8.24175868e-03,
          5.21978028e-02, 1.64835174e-02, 5.49450563e-03, 1.92307699e-02,
          5.49450554e-02, 1.64835174e-02 ]
      - [ 1.29870130e-02, 8.65800865e-03, 2.16450207e-02, 8.65800865e-03,
          0., 8.65800828e-02, 1.29870130e-02, 4.32900432e-03,
          8.65800865e-03, 4.76190485e-02, 1.29870130e-02, 0.,
          1.38528138e-01, 0., 2.16450207e-02, 0., 2.16450207e-02, 0.,
          1.73160173e-02, 1.29870130e-02, 8.65800865e-03, 4.32900432e-03,
          1.73160173e-02, 1.73160173e-02, 4.32900432e-03, 0.,
          4.32900432e-03, 4.76190485e-02, 8.65800865e-03, 8.65800865e-03,
          1.29870130e-02, 3.89610380e-02, 8.65800865e-03, 0.,
          4.32900432e-03, 5.19480519e-02, 4.32900432e-03, 2.59740259e-02,
          4.32900432e-03, 1.73160173e-02, 1.73160173e-02, 0.,
          1.73160173e-02, 0., 1.03896104e-01, 8.65800865e-03,
          2.16450207e-02, 3.03030312e-02, 5.19480519e-02, 2.16450207e-02 ]
      - [ 0., 9.96677764e-03, 3.65448482e-02, 9.96677764e-03,
          1.66112948e-02, 1.32890362e-02, 8.30564797e-02, 6.31229207e-02,
          2.32558139e-02, 0., 6.31229207e-02, 2.99003311e-02,
          9.96677764e-03, 3.32225906e-03, 9.96677764e-03, 2.32558139e-02,
          3.65448482e-02, 5.31561449e-02, 0., 1.99335553e-02,
          9.96677764e-03, 3.32225906e-03, 1.32890362e-02, 1.99335553e-02,
          1.99335553e-02, 9.96677764e-03, 2.32558139e-02, 3.65448482e-02,
          1.99335553e-02, 2.32558139e-02, 2.32558139e-02, 1.66112948e-02,
          6.64451811e-03, 2.65780725e-02, 3.65448482e-02, 3.32225906e-03,
          6.64451811e-03, 0., 2.32558139e-02, 1.32890362e-02,
          6.64451811e-03, 1.99335553e-02, 1.32890362e-02, 3.32225906e-03,
          1.99335553e-02, 2.65780725e-02, 1.66112948e-02, 6.64451811e-03,
          6.64451811e-03, 3.98671106e-02 ]
      - [ 1.38888890e-02, 2.77777780e-02, 2.43055560e-02, 2.08333340e-02,
          6.94444450e-03, 1.38888890e-02, 1.38888890e-02, 1.38888890e-02,
          1.38888890e-02, 1.04166670e-02, 6.94444450e-03, 1.38888890e-02,
          1.38888890e-02, 3.12500000e-02, 3.81944440e-02, 1.73611119e-02,
          6.59722239e-02, 2.43055560e-02, 1.04166670e-02, 2.43055560e-02,
          2.08333340e-02, 3.47222225e-03, 1.73611119e-02, 3.47222239e-02,
          6.94444450e-03, 3.47222225e-03, 2.43055560e-02, 1.73611119e-02,
          1.38888890e-02, 3.47222239e-02, 2.77777780e-02, 3.47222239e-02,
          3.47222239e-02, 0., 1.73611119e-02, 1.04166670e-02,
          2.43055560e-02, 0., 2.77777780e-02, 5.55555560e-02, 0., 0.,
          1.73611119e-02, 2.08333340e-02, 2.77777780e-02, 2.77777780e-02,
          2.43055560e-02, 1.38888890e-02, 1.38888890e-02, 3.81944440e-02 ]
      - [ 4.19753119e-02, 7.40740774e-03, 2.46913582e-02, 1.23456791e-02,
          2.22222228e-02, 1.48148155e-02, 2.46913582e-02, 1.48148155e-02,
          4.93827183e-03, 1.97530873e-02, 1.48148155e-02, 1.23456791e-02,
          1.48148155e-02, 2.46913582e-02, 2.22222228e-02, 2.96296310e-02,
          3.45679037e-02, 1.23456791e-02, 4.19753119e-02, 7.40740774e-03,
          1.23456791e-02, 4.93827183e-03, 2.22222228e-02, 3.20987664e-02,
          4.93827183e-03, 7.40740774e-03, 1.23456791e-02, 3.20987664e-02,
          1.23456791e-02, 7.40740774e-03, 1.48148155e-02, 3.20987664e-02,
          9.87654366e-03, 2.46913591e-03, 1.23456791e-02, 1.97530873e-02,
          1.48148155e-02, 1.48148155e-02, 3.95061746e-02, 3.95061746e-02,
          1.97530873e-02, 0., 4.44444455e-02, 1.97530873e-02,
          3.70370373e-02, 2.71604955e-02, 7.40740774e-03, 1.72839519e-02,
          6.66666701e-02, 9.87654366e-03 ]
      - [ 1.01522841e-02, 5.07614203e-02, 2.03045681e-02, 1.52284261e-02,
          1.52284261e-02, 2.03045681e-02, 5.07614203e-03, 4.06091362e-02,
          5.07614203e-03, 1.52284261e-02, 5.07614203e-03, 5.07614203e-03,
          7.10659921e-02, 0., 1.52284261e-02, 3.04568522e-02,
          1.01522841e-02, 1.01522841e-02, 2.03045681e-02, 3.04568522e-02,
          4.56852764e-02, 0., 2.03045681e-02, 3.55329961e-02,
          1.52284261e-02, 0., 2.03045681e-02, 2.03045681e-02,
          1.01522841e-02, 5.07614203e-03, 5.58375642e-02, 2.03045681e-02,
          1.01522841e-02, 5.07614203e-03, 0., 6.59898445e-02, 0.,
          1.01522841e-02, 2.53807101e-02, 5.07614203e-02, 5.07614203e-03,
          0., 2.53807101e-02, 5.07614203e-03, 4.56852764e-02,
          2.53807101e-02, 5.07614203e-03, 1.01522841e-02, 2.53807101e-02,
          4.06091362e-02 ]
      - [ 6.53594779e-03, 3.92156877e-02, 1.30718956e-02, 0.,
          6.53594779e-03, 9.15032700e-02, 0., 1.30718956e-02, 0.,
          3.92156877e-02, 3.26797403e-02, 1.30718956e-02, 4.57516350e-02,
          0., 2.61437912e-02, 1.96078438e-02, 6.53594779e-03, 0.,
          6.53594779e-03, 6.53594779e-03, 4.57516350e-02, 0.,
          2.61437912e-02, 3.26797403e-02, 1.30718956e-02, 0.,
          6.53594779e-03, 6.53594779e-03, 6.53594779e-03, 0.,
          1.96078438e-02, 3.26797403e-02, 0., 0., 0., 1.56862751e-01,
          1.30718956e-02, 1.30718956e-02, 2.61437912e-02, 2.61437912e-02,
          6.53594779e-03, 0., 3.92156877e-02, 2.61437912e-02,
          3.26797403e-02, 2.61437912e-02, 1.30718956e-02, 6.53594779e-03,
          4.57516350e-02, 1.30718956e-02 ]
      - [ 3.43750007e-02, 2.50000004e-02, 9.37500037e-03, 3.12500005e-03,
          2.18749996e-02, 9.37500037e-03, 6.25000009e-03, 6.25000009e-03,
          2.18749996e-02, 4.37499993e-02, 6.25000009e-03, 3.12500000e-02,
          2.50000004e-02, 1.87500007e-02, 3.12500005e-03, 1.87500007e-02,
          3.12500005e-03, 9.37500037e-03, 3.12500000e-02, 6.25000009e-03,
          9.37500037e-03, 1.87500007e-02, 2.18749996e-02, 5.00000007e-02,
          9.37500037e-03, 2.18749996e-02, 1.25000002e-02, 1.56250000e-02,
          2.18749996e-02, 6.25000009e-03, 9.37500037e-03, 4.06250022e-02,
          9.37500037e-03, 3.75000015e-02, 3.75000015e-02, 6.25000009e-03,
          3.12500005e-03, 2.18749996e-02, 1.56250000e-02, 3.75000015e-02,
          2.18749996e-02, 1.87500007e-02, 4.68750000e-02, 1.56250000e-02,
          6.87500015e-02, 9.37500037e-03, 1.25000002e-02, 3.75000015e-02,
          2.18749996e-02, 6.25000009e-03 ]
      - [ 2.38095261e-02, 7.14285746e-02, 3.96825410e-02, 1.58730168e-02,
          7.93650839e-03, 0., 2.38095261e-02, 7.93650839e-03,
          2.38095261e-02, 0., 0., 4.76190522e-02, 1.42857149e-01, 0., 0.,
          1.58730168e-02, 3.17460336e-02, 0., 7.93650839e-03,
          7.93650839e-03, 0., 0., 7.93650839e-03, 7.93650839e-03,
          7.93650839e-03, 2.38095261e-02, 3.17460336e-02, 0.,
          1.58730168e-02, 2.38095261e-02, 3.96825410e-02, 7.93650839e-03,
          7.93650839e-03, 1.58730168e-02, 1.58730168e-02, 7.93650839e-03,
          1.58730168e-02, 0., 1.58730168e-02, 0., 0., 0., 0., 0.,
          2.22222239e-01, 7.93650839e-03, 7.93650839e-03, 0.,
          2.38095261e-02, 2.38095261e-02 ]
      - [ 2.14285720e-02, 3.57142873e-02, 1.42857144e-02, 7.14285718e-03,
          1.42857144e-02, 5.71428575e-02, 0., 0., 7.14285718e-03,
          4.28571440e-02, 7.14285718e-03, 7.14285718e-03, 5.71428575e-02,
          2.14285720e-02, 7.14285718e-03, 0., 7.14285718e-03,
          1.42857144e-02, 7.14285718e-03, 7.14285718e-03, 5.00000007e-02,
          7.14285718e-03, 2.14285720e-02, 1.42857144e-02, 7.14285718e-03,
          0., 0., 3.57142873e-02, 1.42857144e-02, 1.42857144e-02,
          7.14285718e-03, 2.14285720e-02, 2.14285720e-02, 0.,
          7.14285718e-03, 5.00000007e-02, 1.42857144e-02, 1.42857144e-02,
          7.14285718e-03, 2.14285720e-02, 1.42857144e-02, 0.,
          2.85714287e-02, 7.14285718e-03, 1.85714290e-01, 1.42857144e-02,
          2.14285720e-02, 4.28571440e-02, 1.42857144e-02, 7.14285718e-03 ]
      - [ 7.29927002e-03, 3.28467153e-02, 7.29927002e-03, 3.64963501e-03,
          2.55474448e-02, 1.45985400e-02, 7.66423345e-02, 7.29926974e-02,
          3.64963501e-03, 1.09489048e-02, 3.28467153e-02, 1.45985400e-02,
          3.64963487e-02, 2.91970801e-02, 1.82481743e-02, 7.29927002e-03,
          2.55474448e-02, 1.82481743e-02, 1.82481743e-02, 1.09489048e-02,
          2.55474448e-02, 3.64963501e-03, 2.18978096e-02, 3.64963487e-02,
          1.82481743e-02, 1.09489048e-02, 1.09489048e-02, 1.09489048e-02,
          0., 7.29927002e-03, 1.09489048e-02, 1.82481743e-02,
          2.91970801e-02, 1.82481743e-02, 7.29927002e-03, 2.55474448e-02,
          1.82481743e-02, 1.45985400e-02, 2.18978096e-02, 2.18978096e-02,
          7.29927002e-03, 7.29927002e-03, 1.45985400e-02, 2.18978096e-02,
          4.37956192e-02, 2.55474448e-02, 1.82481743e-02, 3.64963487e-02,
          7.29927002e-03, 1.82481743e-02 ]
      - [ 2.45098043e-02, 5.88235334e-02, 2.45098043e-02, 9.80392192e-03,
          1.47058833e-02, 4.90196086e-02, 1.47058833e-02, 1.47058833e-02,
          9.80392192e-03, 0., 3.43137272e-02, 2.94117667e-02,
          1.96078438e-02, 1.47058833e-02, 4.90196096e-03, 9.80392192e-03,
          3.43137272e-02, 4.90196096e-03, 1.96078438e-02, 1.47058833e-02,
          3.92156877e-02, 0., 3.43137272e-02, 9.80392192e-03,
          1.96078438e-02, 9.80392192e-03, 1.47058833e-02, 1.96078438e-02,
          1.96078438e-02, 1.96078438e-02, 9.80392192e-03, 2.45098043e-02,
          1.47058833e-02, 2.45098043e-02, 1.47058833e-02, 4.41176482e-02,
          4.90196096e-03, 9.80392192e-03, 1.96078438e-02, 3.92156877e-02,
          0., 9.80392192e-03, 4.90196096e-03, 9.80392192e-03,
          3.43137272e-02, 2.45098043e-02, 6.86274543e-02, 1.47058833e-02,
          1.47058833e-02, 1.96078438e-02 ]
      - [ 5.10204071e-03, 6.63265288e-02, 4.59183678e-02, 1.53061226e-02,
          1.02040814e-02, 0., 2.04081628e-02, 1.53061226e-02,
          5.10204071e-03, 0., 3.06122452e-02, 5.10204071e-03,
          1.53061226e-02, 1.53061226e-02, 1.02040814e-02, 3.57142836e-02,
          7.65306130e-02, 2.04081628e-02, 0., 2.55102031e-02,
          2.04081628e-02, 1.53061226e-02, 1.02040814e-02, 1.02040814e-02,
          5.10204071e-03, 5.61224483e-02, 2.04081628e-02, 2.55102031e-02,
          0., 9.18367356e-02, 3.06122452e-02, 1.02040814e-02,
          2.04081628e-02, 1.02040814e-02, 2.04081628e-02, 0.,
          4.08163257e-02, 0., 4.08163257e-02, 5.10204071e-03,
          5.10204071e-03, 1.02040814e-02, 1.53061226e-02, 1.02040814e-02,
          4.59183678e-02, 5.10204071e-03, 5.10204071e-03, 5.10204071e-03,
          1.02040814e-02, 3.57142836e-02 ]
      - [ 1.42348753e-02, 1.42348753e-02, 2.13523135e-02, 1.06761567e-02,
          2.84697507e-02, 1.42348753e-02, 1.42348753e-02, 1.06761567e-02,
          2.49110311e-02, 1.06761567e-02, 3.55871879e-02, 7.11743766e-03,
          3.91459055e-02, 1.77935939e-02, 2.13523135e-02, 4.98220623e-02,
          2.49110311e-02, 2.13523135e-02, 1.42348753e-02, 1.77935939e-02,
          1.42348753e-02, 3.55871883e-03, 1.42348753e-02, 1.42348753e-02,
          1.77935939e-02, 3.55871879e-02, 1.77935939e-02, 1.06761567e-02,
          2.49110311e-02, 3.20284702e-02, 7.11743766e-03, 2.13523135e-02,
          1.77935939e-02, 3.55871883e-03, 1.06761567e-02, 2.84697507e-02,
          3.20284702e-02, 7.11743766e-03, 3.55871879e-02, 2.49110311e-02,
          7.11743766e-03, 1.06761567e-02, 1.77935939e-02, 2.49110311e-02,
          4.62633446e-02, 3.55871879e-02, 1.77935939e-02, 2.13523135e-02,
          1.06761567e-02, 2.13523135e-02 ]
      - [ 8.43881816e-03, 2.95358635e-02, 5.27426153e-02, 1.26582272e-02,
          3.58649790e-02, 0., 2.74261590e-02, 2.95358635e-02,
          2.10970454e-02, 6.32911362e-03, 2.32067499e-02, 6.32911362e-03,
          4.43037972e-02, 2.95358635e-02, 1.68776363e-02, 1.68776363e-02,
          6.75105453e-02, 4.21940908e-02, 1.68776363e-02, 1.26582272e-02,
          1.05485227e-02, 2.10970454e-02, 1.47679318e-02, 1.68776363e-02,
          6.32911362e-03, 1.68776363e-02, 3.79746817e-02, 2.53164545e-02,
          1.68776363e-02, 2.53164545e-02, 1.68776363e-02, 2.53164545e-02,
          2.32067499e-02, 2.10970454e-03, 1.05485227e-02, 8.43881816e-03,
          1.47679318e-02, 6.32911362e-03, 2.53164545e-02, 2.53164545e-02,
          2.10970454e-03, 0., 1.89873409e-02, 8.43881816e-03,
          3.58649790e-02, 1.26582272e-02, 1.05485227e-02, 1.26582272e-02,
          1.47679318e-02, 3.37552726e-02 ]
      - [ 3.71747208e-03, 2.60223038e-02, 2.97397766e-02, 2.97397766e-02,
          2.97397766e-02, 3.71747208e-03, 3.71747203e-02, 5.20446077e-02,
          3.34572494e-02, 7.43494416e-03, 1.85873602e-02, 1.85873602e-02,
          3.71747208e-03, 0., 1.85873602e-02, 3.34572494e-02,
          6.31970242e-02, 4.46096659e-02, 1.48698883e-02, 1.11524165e-02,
          1.48698883e-02, 7.43494416e-03, 1.11524165e-02, 1.48698883e-02,
          1.48698883e-02, 1.48698883e-02, 4.08921912e-02, 1.85873602e-02,
          2.23048329e-02, 1.48698883e-02, 3.34572494e-02, 1.11524165e-02,
          1.48698883e-02, 1.48698883e-02, 7.43494416e-03, 7.43494416e-03,
          2.60223038e-02, 0., 4.46096659e-02, 1.11524165e-02, 0., 0.,
          2.23048329e-02, 1.48698883e-02, 4.08921912e-02, 2.60223038e-02,
          1.48698883e-02, 1.11524165e-02, 0., 4.46096659e-02 ]
      - [ 9.20245424e-03, 4.29447852e-02, 2.45398767e-02, 1.53374225e-02,
          2.45398767e-02, 9.20245424e-03, 7.36196339e-02, 9.81595069e-02,
          1.22699384e-02, 3.06748459e-03, 2.45398767e-02, 3.68098170e-02,
          2.76073609e-02, 0., 1.84049085e-02, 3.37423310e-02,
          1.22699384e-02, 3.37423310e-02, 1.84049085e-02, 1.53374225e-02,
          6.13496918e-03, 6.13496918e-03, 6.13496918e-03, 1.22699384e-02,
          3.06748459e-03, 1.22699384e-02, 3.68098170e-02, 2.76073609e-02,
          6.13496918e-03, 1.22699384e-02, 2.14723926e-02, 9.20245424e-03,
          9.20245424e-03, 1.22699384e-02, 2.14723926e-02, 9.20245424e-03,
          3.06748459e-03, 3.06748459e-03, 2.45398767e-02, 6.13496918e-03,
          6.13496918e-03, 1.84049085e-02, 6.13496918e-03, 1.22699384e-02,
          7.36196339e-02, 1.84049085e-02, 1.84049085e-02, 1.84049085e-02,
          3.06748459e-03, 4.29447852e-02 ]
      - [ 1.48148146e-02, 2.22222209e-02, 2.22222209e-02, 2.96296291e-02,
          1.48148146e-02, 4.44444418e-02, 5.92592582e-02, 2.96296291e-02,
          2.96296291e-02, 7.40740728e-03, 7.40740728e-03, 7.40740728e-03,
          8.14814791e-02, 0., 5.18518500e-02, 1.48148146e-02,
          4.44444418e-02, 7.40740728e-03, 7.40740728e-03, 1.48148146e-02,
          1.48148146e-02, 0., 2.96296291e-02, 2.22222209e-02,
          7.40740728e-03, 7.40740728e-03, 5.92592582e-02, 7.40740728e-03,
          7.40740728e-03, 7.40740728e-03, 2.22222209e-02, 3.70370373e-02,
          0., 7.40740728e-03, 7.40740728e-03, 2.96296291e-02,
          1.48148146e-02, 0., 0., 7.40740728e-03, 0., 0., 7.40740728e-03,
          0., 2.22222209e-02, 6.66666627e-02, 1.48148146e-02,
          7.40740728e-03, 4.44444418e-02, 3.70370373e-02 ]
      - [ 1.33333337e-02, 3.00000012e-02, 6.66666683e-03, 9.99999978e-03,
          1.83333345e-02, 2.33333334e-02, 1.99999996e-02, 2.16666665e-02,
          8.33333377e-03, 2.16666665e-02, 2.33333334e-02, 2.66666673e-02,
          3.00000012e-02, 1.66666671e-03, 1.50000006e-02, 3.00000012e-02,
          1.83333345e-02, 2.33333334e-02, 1.33333337e-02, 2.83333343e-02,
          1.50000006e-02, 3.33333341e-03, 1.16666667e-02, 2.50000004e-02,
          2.66666673e-02, 1.16666667e-02, 1.33333337e-02, 1.16666667e-02,
          9.99999978e-03, 3.66666690e-02, 2.16666665e-02, 9.99999978e-03,
          1.83333345e-02, 1.33333337e-02, 1.83333345e-02, 5.33333346e-02,
          3.00000012e-02, 6.66666683e-03, 3.83333340e-02, 2.83333343e-02,
          1.33333337e-02, 9.99999978e-03, 1.66666671e-03, 1.83333345e-02,
          5.16666695e-02, 1.83333345e-02, 2.83333343e-02, 2.50000004e-02,
          2.66666673e-02, 1.99999996e-02 ]
      - [ 0., 0., 3.33333351e-02, 7.14285746e-02, 2.38095243e-02, 0.,
          7.14285746e-02, 5.71428612e-02, 3.33333351e-02, 4.76190494e-03,
          1.90476198e-02, 1.90476198e-02, 4.76190494e-03, 4.76190494e-03,
          0., 2.38095243e-02, 6.19047657e-02, 3.80952395e-02, 0.,
          4.76190494e-03, 0., 0., 1.42857153e-02, 1.42857153e-02,
          2.85714306e-02, 3.33333351e-02, 9.52380989e-03, 0., 0.,
          4.76190485e-02, 4.76190485e-02, 9.52380989e-03, 2.38095243e-02,
          9.52380989e-03, 3.80952395e-02, 0., 9.52380970e-02, 0.,
          4.28571440e-02, 0., 0., 1.90476198e-02, 1.42857153e-02,
          4.28571440e-02, 0., 9.52380989e-03, 4.76190494e-03,
          4.76190494e-03, 0., 1.90476198e-02 ]
      - [ 2.46305410e-02, 1.72413792e-02, 2.46305410e-02, 1.47783253e-02,
          2.46305410e-02, 9.85221658e-03, 1.47783253e-02, 3.44827585e-02,
          1.23152705e-02, 1.72413792e-02, 2.46305410e-02, 7.38916267e-03,
          2.21674871e-02, 4.92610829e-03, 2.21674871e-02, 2.46305410e-02,
          2.21674871e-02, 1.97044332e-02, 3.20197046e-02, 2.21674871e-02,
          1.23152705e-02, 0., 1.47783253e-02, 1.47783253e-02,
          3.20197046e-02, 9.85221658e-03, 2.95566507e-02, 2.21674871e-02,
          3.20197046e-02, 2.21674871e-02, 2.21674871e-02, 3.44827585e-02,
          1.72413792e-02, 0., 2.46305410e-02, 2.46305414e-03,
          2.70935949e-02, 1.47783253e-02, 1.97044332e-02, 1.23152705e-02,
          7.38916267e-03, 9.85221658e-03, 1.72413792e-02, 1.97044332e-02,
          6.89655170e-02, 2.21674871e-02, 2.21674871e-02, 1.23152705e-02,
          2.46305410e-02, 3.44827585e-02 ]
      - [ 5.55555569e-03, 5.55555569e-03, 2.77777780e-02, 1.11111114e-02,
          1.11111114e-02, 0., 9.44444463e-02, 4.44444455e-02,
          3.33333351e-02, 0., 2.22222228e-02, 3.88888903e-02,
          2.22222228e-02, 0., 5.55555569e-03, 3.33333351e-02,
          6.11111112e-02, 6.66666701e-02, 1.11111114e-02, 3.33333351e-02,
          5.55555569e-03, 0., 5.55555569e-03, 0., 2.77777780e-02,
          1.11111114e-02, 3.33333351e-02, 1.11111114e-02, 5.55555569e-03,
          1.66666675e-02, 6.66666701e-02, 2.22222228e-02, 1.66666675e-02,
          0., 3.33333351e-02, 1.11111114e-02, 0., 1.11111114e-02,
          3.33333351e-02, 0., 1.11111114e-02, 2.22222228e-02,
          5.55555569e-03, 5.55555569e-03, 2.77777780e-02, 4.44444455e-02,
          2.77777780e-02, 0., 5.55555569e-03, 1.11111114e-02 ]
      - [ 5.00000045e-02, 1.66666675e-02, 1.66666675e-02, 3.33333351e-02,
          8.33333377e-03, 0., 8.33333358e-02, 7.50000030e-02,
          8.33333377e-03, 8.33333377e-03, 3.33333351e-02, 8.33333377e-03,
          7.50000030e-02, 0., 5.00000045e-02, 0., 4.16666679e-02,
          1.66666675e-02, 5.00000045e-02, 8.33333377e-03, 0., 0.,
          4.16666679e-02, 4.16666679e-02, 8.33333377e-03, 0.,
          8.33333377e-03, 8.33333377e-03, 8.33333377e-03, 0.,
          1.66666675e-02, 8.33333377e-03, 8.33333377e-03, 0., 0.,
          8.33333377e-03, 8.33333377e-03, 3.33333351e-02, 1.66666675e-02,
          1.66666675e-02, 1.66666675e-02, 0., 8.33333377e-03, 0.,
          5.83333373e-02, 4.16666679e-02, 8.33333377e-03, 1.66666675e-02,
          8.33333377e-03, 2.50000022e-02 ]
      - [ 4.25531901e-02, 1.27659570e-02, 1.70212761e-02, 2.97872331e-02,
          1.27659570e-02, 0., 1.70212761e-02, 3.40425521e-02,
          1.27659570e-02, 8.51063803e-03, 2.97872331e-02, 8.51063803e-03,
          8.51063803e-03, 8.51063803e-03, 7.65957385e-02, 8.51063803e-03,
          2.55319141e-02, 8.51063803e-03, 5.53191453e-02, 2.12765951e-02,
          2.55319141e-02, 4.25531901e-03, 2.55319141e-02, 4.25531901e-02,
          4.25531901e-03, 1.27659570e-02, 2.12765951e-02, 8.51063803e-03,
          1.27659570e-02, 1.70212761e-02, 2.55319141e-02, 2.55319141e-02,
          1.27659570e-02, 0., 1.27659570e-02, 0., 8.51063803e-03,
          4.25531901e-02, 8.51063803e-03, 3.82978693e-02, 2.97872331e-02,
          4.25531901e-03, 1.70212761e-02, 8.51063803e-03, 4.68085110e-02,
          4.25531901e-02, 8.51063803e-03, 1.70212761e-02, 2.12765951e-02,
          1.70212761e-02 ]
      - [ 1.79640725e-02, 9.58083868e-02, 4.79041934e-02, 1.19760484e-02,
          3.59281451e-02, 0., 9.58083868e-02, 5.38922176e-02,
          1.19760484e-02, 1.79640725e-02, 2.99401209e-02, 0.,
          1.01796411e-01, 5.98802418e-03, 5.98802418e-03, 1.79640725e-02,
          2.99401209e-02, 1.79640725e-02, 1.79640725e-02, 1.79640725e-02,
          5.98802418e-03, 0., 5.98802418e-03, 0., 0., 1.79640725e-02,
          5.98802418e-03, 5.98802418e-03, 5.98802418e-03, 3.59281451e-02,
          2.39520967e-02, 1.79640725e-02, 2.39520967e-02, 0., 0., 0.,
          3.59281451e-02, 5.98802418e-03, 2.99401209e-02, 1.79640725e-02,
          0., 0., 1.19760484e-02, 5.98802418e-03, 7.78443143e-02, 0.,
          1.19760484e-02, 0., 0., 1.79640725e-02 ]
      - [ 1.30718956e-02, 1.96078438e-02, 3.92156877e-02, 1.96078438e-02,
          1.30718956e-02, 3.26797403e-02, 1.30718956e-02, 1.96078438e-02,
          1.30718956e-02, 0., 5.22875823e-02, 6.53594779e-03,
          2.61437912e-02, 2.61437912e-02, 2.61437912e-02, 2.61437912e-02,
          5.88235296e-02, 1.30718956e-02, 1.30718956e-02, 2.61437912e-02,
          6.53594779e-03, 1.30718956e-02, 1.30718956e-02, 0., 0.,
          6.53594779e-03, 6.53594779e-03, 6.53594779e-03, 1.96078438e-02,
          1.96078438e-02, 1.30718956e-02, 1.96078438e-02, 6.53594779e-03,
          1.96078438e-02, 1.30718956e-02, 1.96078438e-02, 1.96078438e-02,
          4.57516350e-02, 3.92156877e-02, 6.53594779e-03, 2.61437912e-02,
          1.96078438e-02, 3.92156877e-02, 1.30718956e-02, 7.18954280e-02,
          0., 3.26797403e-02, 1.96078438e-02, 0., 2.61437912e-02 ]
      - [ 3.28767151e-02, 1.09589044e-02, 2.46575344e-02, 1.64383575e-02,
          3.83561663e-02, 5.47945220e-03, 7.39726052e-02, 4.10958901e-02,
          1.36986300e-02, 1.64383575e-02, 4.10958901e-02, 8.21917877e-03,
          1.64383575e-02, 2.73972610e-03, 1.91780832e-02, 2.73972601e-02,
          5.47945220e-03, 1.64383575e-02, 2.73972601e-02, 2.46575344e-02,
          1.91780832e-02, 8.21917877e-03, 1.91780832e-02, 1.36986300e-02,
          2.73972601e-02, 1.09589044e-02, 2.46575344e-02, 4.38356176e-02,
          1.91780832e-02, 5.47945220e-03, 2.46575344e-02, 3.01369876e-02,
          8.21917877e-03, 1.36986300e-02, 2.73972601e-02, 1.36986300e-02,
          5.47945220e-03, 1.36986300e-02, 2.19178088e-02, 1.36986300e-02,
          1.64383575e-02, 8.21917877e-03, 2.19178088e-02, 5.47945220e-03,
          3.01369876e-02, 1.36986300e-02, 1.64383575e-02, 2.19178088e-02,
          1.64383575e-02, 2.19178088e-02 ]
      - [ 4.84848469e-02, 6.06060587e-03, 0., 1.81818176e-02, 0.,
          5.45454547e-02, 9.09090862e-02, 0., 0., 1.81818176e-02,
          6.06060587e-03, 6.06060587e-03, 4.24242392e-02, 6.06060587e-03,
          1.21212117e-02, 1.21212117e-02, 0., 6.06060587e-03,
          3.03030293e-02, 1.81818176e-02, 4.84848469e-02, 0.,
          8.48484784e-02, 3.03030293e-02, 6.06060587e-03, 0., 0.,
          6.06060587e-03, 1.21212117e-02, 1.21212117e-02, 6.06060587e-03,
          6.06060587e-03, 6.06060587e-03, 6.06060587e-03, 1.81818176e-02,
          9.09090862e-02, 6.06060587e-03, 6.66666627e-02, 6.06060587e-03,
          1.21212117e-02, 3.03030293e-02, 0., 3.63636352e-02,
          6.06060587e-03, 3.03030293e-02, 4.24242392e-02, 0.,
          6.06060587e-03, 4.84848469e-02, 0. ]
      - [ 2.99401209e-02, 1.79640725e-02, 5.98802418e-03, 1.79640725e-02,
          1.79640725e-02, 1.79640725e-02, 0., 5.98802418e-03,
          5.98802418e-03, 1.79640725e-02, 2.39520967e-02, 1.19760484e-02,
          9.58083868e-02, 0., 1.19760484e-02, 2.39520967e-02, 0.,
          1.19760484e-02, 5.98802418e-03, 1.79640725e-02, 1.79640725e-02,
          1.19760484e-02, 3.59281451e-02, 5.38922176e-02, 1.79640725e-02,
          5.98802418e-03, 2.39520967e-02, 2.39520967e-02, 1.19760484e-02,
          5.98802418e-03, 2.39520967e-02, 2.39520967e-02, 1.19760484e-02,
          0., 0., 2.99401209e-02, 1.19760484e-02, 2.39520967e-02,
          1.19760484e-02, 5.98802418e-03, 1.19760484e-02, 0.,
          2.99401209e-02, 2.39520967e-02, 9.58083868e-02, 2.99401209e-02,
          2.39520967e-02, 2.99401209e-02, 1.79640725e-02, 4.19161692e-02 ]
      - [ 7.25952815e-03, 3.08529940e-02, 2.90381126e-02, 9.07441042e-03,
          1.63339376e-02, 7.25952815e-03, 6.35208711e-02, 3.62976417e-02,
          1.63339376e-02, 2.35934667e-02, 2.54083481e-02, 7.25952815e-03,
          2.17785835e-02, 1.45190563e-02, 1.45190563e-02, 2.90381126e-02,
          4.71869335e-02, 2.17785835e-02, 1.27041740e-02, 1.63339376e-02,
          7.25952815e-03, 2.35934667e-02, 1.08892918e-02, 2.54083481e-02,
          2.54083481e-02, 1.27041740e-02, 1.27041740e-02, 2.35934667e-02,
          7.25952815e-03, 1.81488208e-02, 1.27041740e-02, 1.63339376e-02,
          2.72232313e-02, 1.08892918e-02, 2.90381126e-02, 1.81488208e-02,
          1.63339376e-02, 1.45190563e-02, 1.99637022e-02, 4.17422876e-02,
          9.07441042e-03, 3.62976408e-03, 2.17785835e-02, 9.07441042e-03,
          4.71869335e-02, 9.07441042e-03, 3.08529940e-02, 1.63339376e-02,
          1.99637022e-02, 9.07441042e-03 ]
      - [ 4.28571440e-02, 0., 2.14285720e-02, 2.85714287e-02,
          7.14285718e-03, 7.14285718e-03, 6.42857179e-02, 2.85714287e-02,
          2.85714287e-02, 2.85714287e-02, 3.57142873e-02, 3.57142873e-02,
          4.28571440e-02, 7.14285718e-03, 2.14285720e-02, 2.14285720e-02,
          1.42857144e-02, 7.14285718e-03, 7.14285718e-03, 5.71428575e-02,
          7.14285718e-03, 0., 1.42857144e-02, 2.14285720e-02,
          7.14285718e-03, 1.42857144e-02, 2.85714287e-02, 0.,
          1.42857144e-02, 3.57142873e-02, 5.71428575e-02, 2.14285720e-02,
          7.14285718e-03, 0., 0., 2.14285720e-02, 1.42857144e-02,
          7.14285718e-03, 2.85714287e-02, 1.42857144e-02, 0., 0.,
          7.14285718e-03, 3.57142873e-02, 5.00000007e-02, 3.57142873e-02,
          0., 1.42857144e-02, 0., 3.57142873e-02 ]
      - [ 1.56250000e-02, 1.56250000e-02, 7.81250000e-03, 7.81250000e-03,
          7.81250000e-03, 0., 0., 3.12500000e-02, 1.56250000e-02,
          3.12500000e-02, 0., 7.81250000e-03, 7.03125000e-02, 0., 0.,
          2.34375000e-02, 0., 0., 3.90625000e-02, 3.90625000e-02, 0., 0.,
          2.34375000e-02, 3.90625000e-02, 7.81250000e-03, 0.,
          4.68750000e-02, 0., 1.56250000e-02, 7.81250000e-03,
          7.03125000e-02, 3.90625000e-02, 3.90625000e-02, 1.56250000e-02,
          7.81250000e-03, 3.12500000e-02, 1.56250000e-02, 7.81250000e-03,
          1.56250000e-02, 1.56250000e-02, 7.81250000e-03, 0.,
          3.90625000e-02, 0., 6.25000000e-02, 7.81250000e-03, 0.,
          1.56250000e-02, 1.25000000e-01, 3.12500000e-02 ]
      - [ 9.00900923e-03, 4.95495498e-02, 1.80180185e-02, 1.35135138e-02,
          1.35135138e-02, 1.35135138e-02, 8.10810849e-02, 4.05405425e-02,
          1.80180185e-02, 9.00900923e-03, 4.95495498e-02, 1.80180185e-02,
          4.50450480e-02, 1.35135138e-02, 2.25225240e-02, 1.35135138e-02,
          2.25225240e-02, 2.25225240e-02, 1.80180185e-02, 2.70270277e-02,
          1.80180185e-02, 4.50450461e-03, 1.80180185e-02, 1.35135138e-02,
          9.00900923e-03, 4.50450461e-03, 9.00900923e-03, 2.25225240e-02,
          0., 1.80180185e-02, 2.25225240e-02, 2.70270277e-02,
          9.00900923e-03, 3.15315314e-02, 0., 3.60360369e-02,
          9.00900923e-03, 1.35135138e-02, 3.15315314e-02, 2.25225240e-02,
          1.35135138e-02, 4.50450461e-03, 1.80180185e-02, 9.00900923e-03,
          5.40540554e-02, 1.35135138e-02, 1.35135138e-02, 4.50450461e-03,
          1.35135138e-02, 1.80180185e-02 ]
      - [ 2.83018872e-02, 4.24528308e-02, 1.88679248e-02, 1.41509436e-02,
          2.83018872e-02, 4.24528308e-02, 9.43396240e-03, 4.24528308e-02,
          9.43396240e-03, 4.71698120e-03, 9.43396240e-03, 1.41509436e-02,
          3.77358496e-02, 0., 4.71698120e-03, 9.43396240e-03,
          2.35849060e-02, 0., 2.83018872e-02, 3.30188684e-02,
          1.88679248e-02, 0., 1.88679248e-02, 5.18867932e-02,
          4.71698120e-03, 9.43396240e-03, 3.30188684e-02, 5.18867932e-02,
          3.30188684e-02, 2.35849060e-02, 3.30188684e-02, 2.83018872e-02,
          2.35849060e-02, 4.71698120e-03, 9.43396240e-03, 3.30188684e-02,
          1.88679248e-02, 2.35849060e-02, 9.43396240e-03, 1.41509436e-02,
          2.83018872e-02, 0., 4.24528308e-02, 0., 9.43396240e-03,
          2.83018872e-02, 1.41509436e-02, 1.41509436e-02, 1.41509436e-02,
          4.71698120e-03 ]
      - [ 1.24069480e-02, 3.72208431e-02, 1.73697267e-02, 1.24069480e-02,
          2.23325063e-02, 0., 2.72952858e-02, 2.23325063e-02,
          1.24069480e-02, 1.24069480e-02, 1.98511165e-02, 1.48883369e-02,
          7.69230798e-02, 2.48138956e-03, 1.98511165e-02, 1.98511165e-02,
          2.23325063e-02, 1.98511165e-02, 2.48138960e-02, 1.48883369e-02,
          1.48883369e-02, 0., 2.48138960e-02, 1.98511165e-02,
          2.48138960e-02, 7.44416844e-03, 1.48883369e-02, 4.46650125e-02,
          1.48883369e-02, 1.98511165e-02, 1.48883369e-02, 9.92555823e-03,
          2.48138960e-02, 2.48138956e-03, 2.48138960e-02, 4.96277912e-03,
          1.24069480e-02, 4.96277912e-03, 2.97766738e-02, 2.48138956e-03,
          7.44416844e-03, 2.48138956e-03, 2.23325063e-02, 1.24069480e-02,
          9.92555842e-02, 6.20347373e-02, 7.44416844e-03, 7.44416844e-03,
          2.23325063e-02, 2.72952858e-02 ]
      - [ 2.31362469e-02, 6.68380484e-02, 7.71208201e-03, 0.,
          2.05655526e-02, 1.79948583e-02, 5.14138816e-03, 2.57069408e-03,
          1.02827763e-02, 2.57069413e-02, 2.57069408e-03, 0.,
          3.08483280e-02, 7.45501295e-02, 1.79948583e-02, 1.02827763e-02,
          5.91259636e-02, 7.71208201e-03, 2.05655526e-02, 7.71208201e-03,
          1.79948583e-02, 7.96915144e-02, 1.79948583e-02, 1.54241640e-02,
          2.57069408e-03, 0., 2.57069408e-03, 1.28534706e-02,
          7.71208201e-03, 5.14138816e-03, 2.57069408e-03, 2.05655526e-02,
          1.54241640e-02, 2.57069408e-03, 5.14138816e-03, 6.42673522e-02,
          1.28534706e-02, 5.14138816e-03, 1.54241640e-02, 2.57069413e-02,
          5.14138816e-03, 0., 2.31362469e-02, 1.79948583e-02,
          1.46529555e-01, 2.57069408e-03, 2.05655526e-02, 1.79948583e-02,
          1.79948583e-02, 5.14138816e-03 ]
      - [ 5.18134702e-03, 3.10880821e-02, 6.21761642e-02, 5.18134702e-03,
          4.14507762e-02, 1.03626940e-02, 3.10880821e-02, 4.66321222e-02,
          5.18134702e-03, 1.03626940e-02, 3.62694301e-02, 3.10880821e-02,
          5.18134702e-03, 0., 2.07253881e-02, 2.59067342e-02,
          3.62694301e-02, 3.62694301e-02, 5.18134702e-03, 5.18134702e-03,
          2.59067342e-02, 5.18134702e-03, 1.03626940e-02, 2.07253881e-02,
          5.18134702e-03, 4.14507762e-02, 4.66321222e-02, 2.07253881e-02,
          5.18134702e-03, 3.10880821e-02, 1.55440411e-02, 5.18134702e-03,
          2.07253881e-02, 0., 1.03626940e-02, 1.55440411e-02,
          5.18134702e-03, 1.03626940e-02, 1.55440411e-02, 1.55440411e-02,
          1.03626940e-02, 5.18134702e-03, 2.07253881e-02, 3.10880821e-02,
          4.66321222e-02, 2.07253881e-02, 1.03626940e-02, 1.55440411e-02,
          1.03626940e-02, 5.18134683e-02 ]
      - [ 2.63157897e-02, 9.86842066e-03, 3.28947371e-03, 3.28947371e-03,
          2.30263155e-02, 1.64473690e-02, 6.57894742e-03, 1.31578948e-02,
          6.57894742e-03, 2.63157897e-02, 2.30263155e-02, 3.28947371e-03,
          3.28947380e-02, 1.31578948e-02, 1.97368413e-02, 2.30263155e-02,
          9.86842066e-03, 1.31578948e-02, 1.31578948e-02, 3.94736826e-02,
          2.63157897e-02, 6.57894742e-03, 3.94736826e-02, 6.90789446e-02,
          6.57894742e-03, 9.86842066e-03, 9.86842066e-03, 2.96052638e-02,
          3.28947371e-03, 6.57894742e-03, 4.27631587e-02, 1.64473690e-02,
          2.96052638e-02, 1.97368413e-02, 2.30263155e-02, 2.63157897e-02,
          1.31578948e-02, 1.64473690e-02, 3.28947371e-03, 3.94736826e-02,
          2.30263155e-02, 0., 4.93421070e-02, 2.30263155e-02,
          2.30263155e-02, 1.97368413e-02, 2.96052638e-02, 2.63157897e-02,
          1.64473690e-02, 2.63157897e-02 ]
      - [ 1.96078438e-02, 2.61437912e-02, 0., 0., 0., 1.30718961e-01, 0.,
          0., 0., 1.96078438e-02, 1.30718956e-02, 0., 1.30718956e-02,
          1.30718956e-02, 3.92156877e-02, 6.53594779e-03, 0.,
          1.30718956e-02, 4.57516350e-02, 6.53594779e-03, 9.15032700e-02,
          0., 5.22875823e-02, 4.57516350e-02, 6.53594779e-03, 0.,
          1.30718956e-02, 3.26797403e-02, 2.61437912e-02, 0.,
          6.53594779e-03, 1.30718956e-02, 0., 0., 0., 1.04575165e-01, 0.,
          1.96078438e-02, 6.53594779e-03, 1.96078438e-02, 2.61437912e-02,
          1.30718956e-02, 1.30718956e-02, 0., 2.61437912e-02,
          1.30718956e-02, 2.61437912e-02, 2.61437912e-02, 6.53594807e-02,
          6.53594779e-03 ]
      - [ 9.43396240e-03, 9.43396240e-03, 3.30188684e-02, 2.83018872e-02,
          1.88679248e-02, 0., 2.83018872e-02, 2.83018872e-02,
          3.77358496e-02, 2.35849060e-02, 2.83018872e-02, 4.71698120e-03,
          2.35849060e-02, 2.83018872e-02, 4.71698120e-03, 4.24528308e-02,
          3.30188684e-02, 1.88679248e-02, 4.71698120e-03, 1.88679248e-02,
          1.41509436e-02, 9.43396240e-03, 9.43396240e-03, 2.35849060e-02,
          3.30188684e-02, 1.88679248e-02, 1.41509436e-02, 1.88679248e-02,
          9.43396240e-03, 9.43396240e-03, 1.88679248e-02, 2.35849060e-02,
          1.41509436e-02, 1.41509436e-02, 9.43396240e-03, 1.41509436e-02,
          1.41509436e-02, 2.35849060e-02, 3.30188684e-02, 3.77358496e-02,
          9.43396240e-03, 0., 2.35849060e-02, 9.43396240e-03,
          5.66037744e-02, 2.35849060e-02, 2.83018872e-02, 4.71698120e-03,
          3.30188684e-02, 2.35849060e-02 ]
      - [ 6.55737706e-03, 3.27868853e-03, 4.26229499e-02, 1.63934417e-02,
          4.91803288e-02, 3.27868853e-03, 0., 3.27868853e-03,
          1.31147541e-02, 1.96721312e-02, 1.31147541e-02, 1.31147541e-02,
          6.55737706e-03, 2.29508206e-02, 1.31147541e-02, 3.60655747e-02,
          5.90163916e-02, 4.91803288e-02, 9.83606558e-03, 9.83606558e-03,
          2.29508206e-02, 9.83606558e-03, 2.95081958e-02, 3.27868834e-02,
          3.27868853e-03, 3.27868834e-02, 3.27868853e-03, 1.96721312e-02,
          1.31147541e-02, 4.26229499e-02, 1.31147541e-02, 2.95081958e-02,
          4.26229499e-02, 1.63934417e-02, 6.55737706e-03, 1.31147541e-02,
          4.26229499e-02, 3.27868853e-03, 1.96721312e-02, 2.29508206e-02,
          9.83606558e-03, 1.63934417e-02, 1.96721312e-02, 1.63934417e-02,
          3.27868834e-02, 9.83606558e-03, 2.29508206e-02, 1.31147541e-02,
          1.63934417e-02, 3.27868834e-02 ]
      - [ 6.12244848e-03, 0., 3.87755074e-02, 1.02040814e-02,
          3.46938744e-02, 1.83673464e-02, 1.22448970e-02, 2.04081624e-03,
          1.63265299e-02, 2.04081628e-02, 1.02040814e-02, 8.16326495e-03,
          1.42857134e-02, 5.91836721e-02, 1.42857134e-02, 2.85714269e-02,
          5.71428537e-02, 3.06122433e-02, 1.83673464e-02, 8.16326495e-03,
          1.42857134e-02, 3.06122433e-02, 2.24489793e-02, 3.06122433e-02,
          1.63265299e-02, 2.44897939e-02, 6.12244848e-03, 2.65306104e-02,
          1.83673464e-02, 2.24489793e-02, 1.83673464e-02, 2.85714269e-02,
          4.69387732e-02, 0., 6.12244848e-03, 4.08163248e-03,
          1.83673464e-02, 6.12244848e-03, 2.04081628e-02, 5.91836721e-02,
          1.02040814e-02, 0., 2.04081628e-02, 3.26530598e-02,
          3.06122433e-02, 1.63265299e-02, 4.08163248e-03, 3.26530598e-02,
          1.42857134e-02, 1.02040814e-02 ]
      - [ 2.57731955e-02, 1.18556701e-01, 0., 5.15463902e-03,
          5.15463902e-03, 2.06185561e-02, 5.15463902e-03, 0., 0.,
          1.54639166e-02, 5.15463902e-03, 5.15463902e-03, 9.79381427e-02,
          5.15463902e-03, 2.57731955e-02, 1.03092780e-02, 1.03092780e-02,
          0., 1.54639166e-02, 1.03092780e-02, 4.12371121e-02,
          5.15463902e-03, 0., 5.15463902e-03, 5.15463902e-03,
          3.09278332e-02, 2.06185561e-02, 6.18556663e-02, 5.15463902e-03,
          1.54639166e-02, 0., 1.03092780e-02, 5.15463902e-03,
          2.57731955e-02, 5.15463902e-03, 6.70103058e-02, 1.03092780e-02,
          2.06185561e-02, 5.15463902e-03, 3.60824727e-02, 0.,
          1.03092780e-02, 1.54639166e-02, 2.57731955e-02, 1.08247422e-01,
          2.06185561e-02, 1.54639166e-02, 5.15463902e-03, 2.57731955e-02,
          1.54639166e-02 ]
      - [ 2.47933865e-02, 3.30578499e-02, 8.26446246e-03, 0.,
          8.26446246e-03, 1.23966940e-01, 0., 8.26446246e-03, 0.,
          8.26446246e-03, 0., 0., 2.47933865e-02, 8.26446246e-03,
          3.30578499e-02, 4.13223132e-02, 4.95867729e-02, 3.30578499e-02,
          4.13223132e-02, 2.47933865e-02, 3.30578499e-02, 2.47933865e-02,
          8.26446246e-03, 4.13223132e-02, 2.47933865e-02, 8.26446246e-03,
          8.26446246e-03, 0., 8.26446246e-03, 8.26446246e-03,
          3.30578499e-02, 8.26446246e-03, 8.26446246e-03, 0., 0.,
          4.13223132e-02, 8.26446246e-03, 8.26446246e-03, 2.47933865e-02,
          1.65289249e-02, 1.65289249e-02, 0., 1.65289249e-02, 0.,
          6.61156997e-02, 3.30578499e-02, 1.65289249e-02, 4.13223132e-02,
          2.47933865e-02, 0. ]
      - [ 7.06214691e-03, 8.47457629e-03, 2.40112990e-02, 1.12994350e-02,
          2.96610165e-02, 5.64971752e-03, 2.96610165e-02, 5.64971752e-02,
          2.54237279e-02, 1.83615815e-02, 2.96610165e-02, 2.82485876e-02,
          1.27118640e-02, 3.38983051e-02, 7.06214691e-03, 1.69491526e-02,
          4.94350269e-02, 4.66101691e-02, 1.41242938e-02, 4.23728814e-03,
          1.83615815e-02, 1.55367237e-02, 9.88700613e-03, 1.55367237e-02,
          1.69491526e-02, 3.53107341e-02, 1.41242938e-02, 1.41242938e-02,
          3.10734473e-02, 3.38983051e-02, 5.64971752e-03, 2.68361587e-02,
          4.37853113e-02, 2.82485876e-03, 2.54237279e-02, 7.06214691e-03,
          1.83615815e-02, 5.64971752e-03, 2.68361587e-02, 2.54237279e-02,
          5.64971752e-03, 1.69491526e-02, 1.41242938e-02, 1.27118640e-02,
          3.38983051e-02, 8.47457629e-03, 1.12994350e-02, 2.11864412e-02,
          5.64971752e-03, 1.83615815e-02 ]
      - [ 8.90868623e-03, 1.33630298e-02, 3.56347449e-02, 1.78173725e-02,
          3.56347449e-02, 6.68151490e-03, 2.44988874e-02, 3.11804023e-02,
          2.44988874e-02, 8.90868623e-03, 1.33630298e-02, 1.55902011e-02,
          1.55902011e-02, 1.55902011e-02, 1.78173725e-02, 2.89532300e-02,
          2.44988874e-02, 3.11804023e-02, 2.44988874e-02, 1.33630298e-02,
          6.68151490e-03, 2.00445447e-02, 6.68151490e-03, 1.55902011e-02,
          4.45434311e-03, 2.00445447e-02, 1.55902011e-02, 3.11804023e-02,
          2.89532300e-02, 2.67260596e-02, 4.00890894e-02, 2.00445447e-02,
          1.55902011e-02, 2.22717156e-03, 3.11804023e-02, 2.00445447e-02,
          2.67260596e-02, 6.68151490e-03, 2.89532300e-02, 2.89532300e-02,
          8.90868623e-03, 2.22717156e-03, 2.67260596e-02, 2.00445447e-02,
          4.00890894e-02, 2.22717151e-02, 1.33630298e-02, 1.78173725e-02,
          1.33630298e-02, 3.11804023e-02 ]
      - [ 2.54777074e-02, 3.18471342e-02, 2.54777074e-02, 3.18471342e-03,
          1.27388537e-02, 2.54777074e-02, 9.55414027e-03, 9.55414027e-03,
          9.55414027e-03, 1.59235671e-02, 3.18471342e-03, 3.18471342e-03,
          1.08280256e-01, 0., 2.86624208e-02, 1.91082805e-02,
          6.36942685e-03, 2.54777074e-02, 1.59235671e-02, 0.,
          2.86624208e-02, 0., 1.27388537e-02, 6.36942685e-03,
          6.36942685e-03, 0., 3.50318477e-02, 5.41401282e-02,
          2.86624208e-02, 9.55414027e-03, 3.18471342e-03, 1.59235671e-02,
          1.91082805e-02, 0., 1.59235671e-02, 4.77707013e-02,
          6.36942685e-03, 3.18471342e-03, 2.54777074e-02, 3.18471342e-03,
          3.18471342e-03, 0., 6.36942685e-03, 1.59235671e-02,
          1.43312097e-01, 1.59235671e-02, 3.50318477e-02, 9.55414027e-03,
          2.86624208e-02, 4.14012745e-02 ]
      - [ 0., 1.18644066e-01, 5.64971752e-03, 2.25988701e-02,
          2.82485876e-02, 5.64971752e-03, 3.95480245e-02, 2.82485876e-02,
          3.38983051e-02, 1.69491526e-02, 1.12994350e-02, 1.12994350e-02,
          0., 3.95480245e-02, 3.38983051e-02, 0., 3.95480245e-02,
          2.82485876e-02, 0., 0., 0., 2.25988701e-02, 1.69491526e-02,
          5.64971752e-03, 0., 2.25988701e-02, 1.12994350e-02,
          1.12994350e-02, 0., 3.38983051e-02, 3.38983051e-02,
          5.64971752e-03, 3.95480245e-02, 0., 1.12994350e-02,
          5.64971752e-03, 6.21468946e-02, 0., 1.69491526e-02,
          2.25988701e-02, 0., 5.64971752e-03, 5.64971752e-03,
          7.90960491e-02, 2.82485876e-02, 2.25988701e-02, 2.82485876e-02,
          1.69491526e-02, 0., 2.82485876e-02 ]
      - [ 9.17431153e-03, 6.42201826e-02, 1.37614673e-02, 1.83486231e-02,
          2.75229346e-02, 9.17431153e-03, 4.58715558e-02, 2.29357779e-02,
          2.29357779e-02, 4.58715577e-03, 1.83486231e-02, 3.21100913e-02,
          1.37614673e-02, 4.58715558e-02, 9.17431153e-03, 3.21100913e-02,
          2.75229346e-02, 4.12844010e-02, 0., 9.17431153e-03, 0.,
          3.21100913e-02, 2.75229346e-02, 1.83486231e-02, 1.37614673e-02,
          2.29357779e-02, 2.75229346e-02, 1.83486231e-02, 0.,
          5.96330240e-02, 3.21100913e-02, 4.58715577e-03, 1.37614673e-02,
          0., 1.83486231e-02, 4.58715577e-03, 2.29357779e-02, 0.,
          4.58715558e-02, 1.83486231e-02, 0., 0., 4.58715577e-03,
          4.58715558e-02, 2.29357779e-02, 9.17431153e-03, 1.37614673e-02,
          1.83486231e-02, 9.17431153e-03, 2.75229346e-02 ]
      - [ 1.19047621e-02, 2.97619049e-02, 4.16666679e-02, 5.95238106e-03,
          1.19047621e-02, 2.38095243e-02, 2.97619049e-02, 2.97619049e-02,
          5.95238106e-03, 2.38095243e-02, 1.19047621e-02, 5.95238106e-03,
          6.54761940e-02, 1.19047621e-02, 1.19047621e-02, 1.78571437e-02,
          3.57142873e-02, 1.19047621e-02, 1.19047621e-02, 0.,
          4.16666679e-02, 0., 2.38095243e-02, 3.57142873e-02,
          2.38095243e-02, 5.95238106e-03, 0., 3.57142873e-02,
          5.95238106e-03, 1.19047621e-02, 3.57142873e-02, 1.19047621e-02,
          2.38095243e-02, 0., 2.97619049e-02, 5.95238106e-03,
          2.97619049e-02, 1.19047621e-02, 1.19047621e-02, 2.38095243e-02,
          5.95238106e-03, 5.95238106e-03, 1.78571437e-02, 5.95238106e-03,
          1.01190478e-01, 2.38095243e-02, 1.19047621e-02, 1.19047621e-02,
          2.38095243e-02, 2.38095243e-02 ]
      - [ 0., 1.11940298e-02, 1.86567158e-02, 0., 4.47761193e-02,
          2.98507456e-02, 1.11940298e-02, 2.61194017e-02, 3.73134320e-03,
          7.46268639e-03, 2.23880596e-02, 3.73134320e-03, 3.73134320e-03,
          2.53731340e-01, 7.46268639e-03, 1.86567158e-02, 1.04477607e-01,
          4.10447754e-02, 0., 7.46268639e-03, 3.73134320e-03,
          2.98507456e-02, 7.46268639e-03, 7.46268639e-03, 0.,
          7.83582106e-02, 1.49253728e-02, 3.73134320e-03, 3.73134320e-03,
          5.97014911e-02, 0., 3.73134320e-03, 2.98507456e-02,
          3.73134320e-03, 3.73134320e-03, 1.49253728e-02, 3.73134315e-02,
          3.73134320e-03, 1.11940298e-02, 2.23880596e-02, 0., 0.,
          7.46268639e-03, 0., 0., 3.73134320e-03, 7.46268639e-03,
          3.73134320e-03, 3.73134320e-03, 1.86567158e-02 ]
      - [ 1.59453303e-02, 1.13895219e-02, 1.59453303e-02, 1.13895219e-02,
          2.05011405e-02, 2.73348540e-02, 3.64464708e-02, 1.82232354e-02,
          6.83371350e-03, 2.05011405e-02, 2.96127573e-02, 1.59453303e-02,
          3.18906605e-02, 1.59453303e-02, 9.11161769e-03, 1.36674270e-02,
          2.27790438e-02, 3.87243740e-02, 1.82232354e-02, 2.05011405e-02,
          0., 2.27790438e-02, 2.27790438e-02, 2.50569489e-02,
          4.32801843e-02, 4.55580885e-03, 2.05011405e-02, 3.87243740e-02,
          1.82232354e-02, 2.27790438e-02, 9.11161769e-03, 3.87243740e-02,
          1.82232354e-02, 4.55580885e-03, 1.36674270e-02, 2.73348540e-02,
          1.36674270e-02, 9.11161769e-03, 2.96127573e-02, 1.59453303e-02,
          9.11161769e-03, 2.27790442e-03, 3.18906605e-02, 2.50569489e-02,
          2.73348540e-02, 1.36674270e-02, 3.87243740e-02, 1.13895219e-02,
          1.36674270e-02, 2.73348540e-02 ]
      - [ 1.89573467e-02, 1.89573467e-02, 4.73933667e-03, 0.,
          4.73933667e-03, 6.63507134e-02, 2.84360200e-02, 4.73933667e-03,
          0., 7.10900500e-02, 4.73933667e-03, 0., 7.58293867e-02,
          1.42180100e-02, 2.36966833e-02, 4.73933667e-03, 2.36966833e-02,
          0., 3.31753567e-02, 4.73933667e-03, 1.42180100e-02, 0.,
          2.36966833e-02, 2.36966833e-02, 0., 4.73933667e-03,
          9.47867334e-03, 7.58293867e-02, 1.89573467e-02, 4.73933667e-03,
          9.47867334e-03, 3.31753567e-02, 1.42180100e-02, 4.73933667e-03,
          4.73933667e-03, 7.10900500e-02, 9.47867334e-03, 4.73933667e-03,
          0., 4.26540300e-02, 1.42180100e-02, 0., 2.84360200e-02, 0.,
          6.63507134e-02, 1.89573467e-02, 2.84360200e-02, 1.42180100e-02,
          4.26540300e-02, 1.42180100e-02 ]
      - [ 2.10526325e-02, 1.05263162e-02, 3.15789506e-02, 2.10526325e-02,
          1.05263162e-02, 1.05263162e-02, 1.05263162e-02, 4.21052650e-02,
          0., 2.10526325e-02, 2.10526325e-02, 2.10526325e-02,
          1.26315802e-01, 2.10526325e-02, 2.10526325e-02, 1.05263162e-02,
          2.10526325e-02, 1.05263162e-02, 2.10526325e-02, 0.,
          1.05263162e-02, 0., 0., 0., 0., 0., 3.15789506e-02,
          7.36842155e-02, 0., 0., 2.10526325e-02, 0., 1.05263162e-02, 0.,
          0., 1.05263162e-02, 1.05263162e-02, 1.05263162e-02,
          2.10526325e-02, 1.05263162e-02, 1.05263162e-02, 0., 0.,
          2.10526325e-02, 1.68421060e-01, 3.15789506e-02, 1.05263162e-02,
          4.21052650e-02, 0., 5.26315793e-02 ]
      - [ 1.19047621e-02, 5.95238106e-03, 1.19047621e-02, 0.,
          5.95238106e-03, 1.42857149e-01, 0., 5.95238106e-03, 0.,
          2.38095243e-02, 5.95238106e-03, 5.95238106e-03, 5.95238097e-02,
          6.54761940e-02, 3.57142873e-02, 5.95238106e-03, 5.95238106e-03,
          2.38095243e-02, 1.78571437e-02, 1.19047621e-02, 7.73809552e-02,
          0., 0., 2.38095243e-02, 0., 5.95238106e-03, 0., 3.57142873e-02,
          5.95238106e-03, 0., 1.19047621e-02, 1.78571437e-02,
          5.95238106e-03, 0., 5.95238106e-03, 1.96428582e-01, 0., 0., 0.,
          4.16666679e-02, 0., 0., 1.19047621e-02, 5.95238106e-03,
          3.57142873e-02, 2.97619049e-02, 5.95238106e-03, 1.19047621e-02,
          1.19047621e-02, 1.19047621e-02 ]
      - [ 1.92307699e-02, 5.12820520e-02, 5.12820520e-02, 5.12820520e-02,
          4.48717959e-02, 6.41025649e-03, 1.28205130e-02, 0.,
          4.48717959e-02, 6.41025649e-03, 0., 0., 7.05128238e-02,
          3.20512839e-02, 1.92307699e-02, 6.41025649e-03, 3.20512839e-02,
          1.28205130e-02, 6.41025649e-03, 0., 0., 3.20512839e-02,
          6.41025649e-03, 6.41025649e-03, 0., 1.28205130e-02,
          3.84615399e-02, 1.92307699e-02, 1.92307699e-02, 8.97435918e-02,
          2.56410260e-02, 6.41025649e-03, 1.28205130e-02, 0., 0.,
          6.41025649e-03, 6.41025677e-02, 6.41025649e-03, 1.92307699e-02,
          1.28205130e-02, 6.41025649e-03, 0., 6.41025649e-03,
          1.28205130e-02, 7.69230798e-02, 6.41025649e-03, 0.,
          6.41025649e-03, 1.28205130e-02, 2.56410260e-02 ]
      - [ 4.68750000e-02, 6.25000000e-02, 0., 0., 2.34375000e-02, 0.,
          2.34375000e-02, 7.81250000e-03, 0., 7.81250000e-03,
          7.81250000e-03, 7.81250000e-03, 7.81250000e-02, 1.56250000e-02,
          2.34375000e-02, 7.81250000e-03, 0., 1.56250000e-02,
          2.34375000e-02, 2.34375000e-02, 2.34375000e-02, 0.,
          1.56250000e-02, 3.12500000e-02, 1.56250000e-02, 7.81250000e-03,
          0., 4.68750000e-02, 7.81250000e-03, 3.12500000e-02,
          1.56250000e-02, 2.34375000e-02, 2.34375000e-02, 0.,
          7.81250000e-03, 7.81250000e-03, 7.81250000e-03, 7.81250000e-03,
          7.81250000e-03, 2.34375000e-02, 1.56250000e-02, 0.,
          1.56250000e-02, 1.56250000e-02, 1.48437500e-01, 1.56250000e-02,
          3.90625000e-02, 2.34375000e-02, 2.34375000e-02, 2.34375000e-02 ]
      - [ 2.87769791e-02, 5.75539581e-02, 7.19424477e-03, 0.,
          7.19424477e-03, 0., 2.15827338e-02, 7.19424477e-03, 0.,
          7.19424477e-03, 7.19424477e-03, 0., 5.03597148e-02,
          7.19424477e-03, 3.59712243e-02, 1.43884895e-02, 5.03597148e-02,
          1.43884895e-02, 2.87769791e-02, 0., 4.31654677e-02, 0., 0.,
          2.15827338e-02, 7.19424477e-03, 0., 2.15827338e-02,
          1.07913673e-01, 0., 2.15827338e-02, 0., 1.43884895e-02,
          1.43884895e-02, 0., 7.19424477e-03, 3.59712243e-02,
          4.31654677e-02, 0., 0., 2.87769791e-02, 0., 1.43884895e-02,
          7.19424477e-03, 2.15827338e-02, 1.15107916e-01, 2.15827338e-02,
          5.75539581e-02, 1.43884895e-02, 2.87769791e-02, 7.19424477e-03 ]
      - [ 3.86100379e-03, 1.93050187e-02, 1.93050187e-02, 3.86100379e-03,
          0., 1.93050187e-02, 3.86100379e-03, 1.54440152e-02,
          3.86100379e-03, 3.86100379e-03, 2.31660232e-02, 7.72200758e-03,
          8.49420801e-02, 3.08880303e-02, 7.72200758e-03, 1.15830116e-02,
          5.79150580e-02, 2.70270258e-02, 3.86100379e-03, 1.54440152e-02,
          2.31660232e-02, 7.72200758e-03, 3.86100379e-03, 2.70270258e-02,
          0., 1.93050187e-02, 1.93050187e-02, 2.31660232e-02,
          1.54440152e-02, 1.93050187e-02, 3.08880303e-02, 1.93050187e-02,
          2.31660232e-02, 7.72200758e-03, 3.86100374e-02, 1.54440152e-02,
          3.47490348e-02, 1.54440152e-02, 2.31660232e-02, 3.86100374e-02,
          1.15830116e-02, 0., 1.54440152e-02, 7.72200758e-03,
          1.00386098e-01, 3.86100374e-02, 1.54440152e-02, 1.54440152e-02,
          3.86100379e-03, 2.31660232e-02 ]
      - [ 5.06329127e-02, 5.06329127e-02, 0., 0., 1.26582282e-02,
          9.49367136e-02, 0., 0., 0., 1.89873427e-02, 0., 0.,
          6.96202517e-02, 1.26582282e-02, 0., 0., 0., 0., 3.79746854e-02,
          4.43037972e-02, 1.89873427e-02, 0., 2.53164563e-02,
          1.89873427e-02, 6.32911408e-03, 0., 1.26582282e-02,
          1.89873427e-02, 1.26582282e-02, 0., 1.89873427e-02,
          1.89873427e-02, 1.26582282e-02, 1.89873427e-02, 1.89873427e-02,
          3.79746854e-02, 6.32911408e-03, 2.53164563e-02, 6.32911408e-03,
          6.32911399e-02, 6.32911408e-03, 0., 0., 6.32911408e-03,
          1.32911399e-01, 2.53164563e-02, 6.32911408e-03, 1.26582282e-02,
          6.32911399e-02, 1.26582282e-02 ]
      - [ 6.77966094e-03, 6.77966094e-03, 2.37288140e-02, 1.01694912e-02,
          1.35593219e-02, 1.01694912e-02, 6.44067824e-02, 2.37288140e-02,
          2.37288140e-02, 1.35593219e-02, 4.06779647e-02, 1.69491526e-02,
          6.77966094e-03, 4.74576280e-02, 6.77966094e-03, 3.05084735e-02,
          1.05084747e-01, 5.42372875e-02, 1.69491526e-02, 3.38983047e-03,
          6.77966094e-03, 1.35593219e-02, 1.35593219e-02, 1.35593219e-02,
          1.35593219e-02, 5.76271191e-02, 1.35593219e-02, 1.35593219e-02,
          0., 6.10169470e-02, 6.77966094e-03, 2.03389823e-02,
          3.05084735e-02, 6.77966094e-03, 6.77966094e-03, 3.38983047e-03,
          2.71186437e-02, 1.35593219e-02, 3.72881368e-02, 1.35593219e-02,
          6.77966094e-03, 6.77966094e-03, 1.01694912e-02, 2.03389823e-02,
          1.01694912e-02, 3.38983047e-03, 6.77966094e-03, 1.35593219e-02,
          0., 2.37288140e-02 ]
      - [ 5.58659201e-03, 5.58659211e-02, 1.11731840e-02, 5.58659201e-03,
          1.11731840e-02, 6.14525117e-02, 0., 1.67597756e-02,
          1.67597756e-02, 1.67597756e-02, 5.58659201e-03, 4.46927361e-02,
          7.26256967e-02, 0., 1.67597756e-02, 1.11731840e-02,
          1.67597756e-02, 0., 1.67597756e-02, 5.58659201e-03,
          2.23463681e-02, 1.11731840e-02, 1.11731840e-02, 3.91061455e-02,
          5.58659201e-03, 1.11731840e-02, 1.11731840e-02, 4.46927361e-02,
          5.58659201e-03, 4.46927361e-02, 1.11731840e-02, 1.11731840e-02,
          5.58659201e-03, 1.67597756e-02, 2.79329605e-02, 6.14525117e-02,
          1.11731840e-02, 5.58659201e-03, 2.23463681e-02, 1.67597756e-02,
          0., 0., 2.23463681e-02, 5.02793267e-02, 6.70391023e-02,
          2.23463681e-02, 2.23463681e-02, 1.11731840e-02, 5.58659201e-03,
          1.11731840e-02 ]
      - [ 5.26315793e-02, 1.46198839e-01, 5.84795326e-03, 5.84795326e-03,
          0., 2.92397663e-02, 6.43274859e-02, 0., 1.75438598e-02, 0.,
          2.92397663e-02, 5.84795326e-03, 9.94152054e-02, 5.84795326e-03,
          1.16959065e-02, 1.16959065e-02, 5.84795326e-03, 1.75438598e-02,
          4.09356728e-02, 1.16959065e-02, 0., 0., 1.75438598e-02,
          5.84795326e-03, 1.16959065e-02, 5.84795326e-03, 0.,
          4.67836261e-02, 5.84795326e-03, 1.16959065e-02, 5.84795326e-03,
          1.16959065e-02, 5.84795326e-03, 5.84795326e-03, 5.84795326e-03,
          3.50877196e-02, 1.16959065e-02, 5.84795326e-03, 1.16959065e-02,
          1.16959065e-02, 5.84795326e-03, 0., 5.84795326e-03, 0.,
          1.22807018e-01, 1.75438598e-02, 4.67836261e-02, 0.,
          1.75438598e-02, 5.84795326e-03 ]
      - [ 3.73831764e-02, 3.73831764e-02, 0., 0., 0., 8.41121450e-02, 0.,
          9.34579410e-03, 0., 0., 1.86915882e-02, 1.86915882e-02,
          6.54205605e-02, 0., 9.34579410e-03, 9.34579410e-03, 0., 0.,
          3.73831764e-02, 0., 5.60747646e-02, 0., 2.80373823e-02,
          2.80373823e-02, 0., 0., 0., 1.86915882e-02, 0., 9.34579410e-03,
          1.86915882e-02, 1.86915882e-02, 0., 2.80373823e-02,
          9.34579410e-03, 1.40186906e-01, 2.80373823e-02, 2.80373823e-02,
          1.86915882e-02, 0., 1.86915882e-02, 0., 9.34579410e-03, 0.,
          1.86915882e-02, 0., 2.80373823e-02, 0., 1.49532706e-01,
          1.86915882e-02 ]
      - [ 1.25000000e-01, 4.16666679e-02, 2.08333340e-02, 0., 0.,
          4.16666679e-02, 0., 0., 0., 0., 0., 0., 1.66666672e-01, 0., 0.,
          2.08333340e-02, 0., 0., 1.04166672e-01, 0., 4.16666679e-02, 0.,
          4.16666679e-02, 0., 0., 0., 0., 0., 2.08333340e-02, 0.,
          4.16666679e-02, 0., 0., 0., 0., 0., 0., 6.25000000e-02, 0., 0.,
          0., 0., 0., 0., 1.45833343e-01, 2.08333340e-02, 0.,
          2.08333340e-02, 8.33333358e-02, 0. ]
      - [ 5.00000007e-02, 1.25000002e-02, 3.75000015e-02, 1.25000002e-02,
          0., 0., 0., 3.75000015e-02, 1.25000002e-02, 2.50000004e-02,
          1.25000002e-02, 0., 6.25000000e-02, 0., 1.25000002e-02, 0.,
          5.00000007e-02, 0., 5.00000007e-02, 0., 2.50000004e-02, 0.,
          2.50000004e-02, 6.25000000e-02, 0., 0., 2.50000004e-02,
          8.74999985e-02, 2.50000004e-02, 0., 0., 0., 0., 7.50000030e-02,
          0., 2.50000004e-02, 0., 1.25000002e-02, 0., 3.75000015e-02,
          1.25000002e-02, 0., 1.25000002e-02, 0., 7.50000030e-02,
          3.75000015e-02, 1.25000002e-02, 3.75000015e-02, 3.75000015e-02,
          0. ]
      - [ 1.36363637e-02, 1.59090906e-02, 2.15909090e-02, 7.95454532e-03,
          2.27272715e-02, 1.81818176e-02, 1.02272723e-02, 2.15909090e-02,
          7.95454532e-03, 2.72727273e-02, 1.02272723e-02, 1.24999993e-02,
          2.27272715e-02, 4.65909094e-02, 1.93181820e-02, 2.15909090e-02,
          3.40909064e-02, 2.27272715e-02, 2.15909090e-02, 1.24999993e-02,
          1.13636358e-02, 2.38636360e-02, 1.59090906e-02, 1.93181820e-02,
          1.13636358e-02, 1.93181820e-02, 1.93181820e-02, 1.36363637e-02,
          1.93181820e-02, 3.40909064e-02, 1.81818176e-02, 2.04545446e-02,
          2.84090899e-02, 3.40909092e-03, 1.24999993e-02, 2.95454543e-02,
          1.93181820e-02, 6.81818184e-03, 2.84090899e-02, 3.40909064e-02,
          9.09090880e-03, 3.40909092e-03, 2.84090899e-02, 2.61363629e-02,
          4.43181805e-02, 1.93181820e-02, 1.70454532e-02, 3.97727266e-02,
          1.59090906e-02, 1.70454532e-02 ]
      - [ 4.20420431e-02, 4.50450480e-02, 1.50150154e-02, 3.00300308e-03,
          9.00900923e-03, 0., 9.00900923e-03, 1.20120123e-02,
          6.00600615e-03, 6.00600615e-03, 2.10210215e-02, 2.40240246e-02,
          1.11111112e-01, 3.00300308e-03, 1.20120123e-02, 3.00300308e-03,
          3.30330357e-02, 1.80180185e-02, 2.70270277e-02, 6.00600615e-03,
          6.00600615e-03, 9.00900923e-03, 1.50150154e-02, 9.00900923e-03,
          2.40240246e-02, 2.10210215e-02, 2.40240246e-02, 2.10210215e-02,
          9.00900923e-03, 1.20120123e-02, 9.00900923e-03, 3.00300308e-03,
          3.00300308e-03, 3.00300308e-03, 3.00300308e-02, 3.00300308e-03,
          1.50150154e-02, 6.00600615e-03, 1.20120123e-02, 0.,
          6.00600615e-03, 1.80180185e-02, 6.00600615e-03, 6.00600615e-03,
          2.28228241e-01, 2.70270277e-02, 1.50150154e-02, 6.00600615e-03,
          3.30330357e-02, 1.50150154e-02 ]
      - [ 2.85714287e-02, 2.53968257e-02, 0., 3.17460322e-03,
          3.17460336e-02, 4.12698425e-02, 6.34920644e-03, 3.17460322e-03,
          9.52380989e-03, 3.49206366e-02, 3.17460336e-02, 1.26984129e-02,
          3.17460336e-02, 1.26984129e-02, 1.26984129e-02, 9.52380989e-03,
          0., 1.26984129e-02, 2.22222228e-02, 6.34920644e-03,
          1.90476198e-02, 6.34920644e-03, 3.17460336e-02, 4.76190485e-02,
          2.22222228e-02, 9.52380989e-03, 0., 9.52380989e-03,
          9.52380989e-03, 6.34920644e-03, 1.26984129e-02, 4.44444455e-02,
          3.80952395e-02, 6.66666701e-02, 2.22222228e-02, 5.39682545e-02,
          3.17460322e-03, 1.90476198e-02, 1.26984129e-02, 3.17460322e-03,
          3.17460336e-02, 9.52380989e-03, 5.39682545e-02, 6.34920644e-03,
          6.34920644e-03, 9.52380989e-03, 4.44444455e-02, 2.53968257e-02,
          3.49206366e-02, 3.17460322e-03 ]
      - [ 2.17391308e-02, 5.79710156e-02, 7.24637695e-03, 0.,
          1.44927539e-02, 7.24637695e-03, 7.24637695e-03, 0.,
          1.44927539e-02, 7.24637695e-03, 4.34782617e-02, 3.62318829e-02,
          7.24637657e-02, 0., 0., 2.89855078e-02, 0., 1.44927539e-02,
          1.44927539e-02, 2.17391308e-02, 0., 7.24637695e-03,
          2.17391308e-02, 4.34782617e-02, 3.62318829e-02, 1.44927539e-02,
          0., 1.44927539e-02, 0., 0., 7.24637695e-03, 4.34782617e-02,
          7.24637695e-03, 1.44927539e-02, 4.34782617e-02, 3.62318829e-02,
          1.44927539e-02, 2.89855078e-02, 1.44927539e-02, 7.24637657e-02,
          1.44927539e-02, 7.24637695e-03, 7.24637695e-03, 3.62318829e-02,
          7.24637657e-02, 0., 2.89855078e-02, 1.44927539e-02,
          2.17391308e-02, 7.24637695e-03 ]
      - [ 8.57142881e-02, 3.80952395e-02, 9.52380989e-03, 9.52380989e-03,
          0., 2.85714306e-02, 0., 0., 9.52380989e-03, 2.85714306e-02, 0.,
          0., 1.23809531e-01, 6.66666701e-02, 1.90476198e-02, 0., 0., 0.,
          4.76190485e-02, 0., 0., 0., 1.90476198e-02, 9.52380989e-03, 0.,
          0., 9.52380989e-03, 9.52380989e-03, 0., 0., 0., 2.85714306e-02,
          0., 4.76190485e-02, 0., 0., 0., 3.80952395e-02, 0.,
          2.85714306e-02, 0., 0., 9.52380970e-02, 0., 1.23809531e-01,
          9.52380989e-03, 1.90476198e-02, 2.85714306e-02, 4.76190485e-02,
          1.90476198e-02 ]
   decision_functions:
      -
         sv_count: 1
         rho: -8.4925799428461934e-01
         alpha: [ 1. ]
         index: [ 0 ]
