%YAML:1.0
---
opencv_ml_svm:
   format: 3
   svmType: C_SVC
   kernel:
      type: LINEAR
   C: 1.0000000000000001e-01
   term_criteria: { iterations:100 }
   var_count: 50
   class_count: 2
   class_labels: !!opencv-matrix
      rows: 2
      cols: 1
      dt: i
      data: [ 0, 1 ]
   sv_total: 1
   support_vectors:
      - [ 3.23811336e-03, 6.18006152e-06, -1.41333847e-03,
          2.62146234e-03, -4.65597113e-04, -3.62580735e-03,
          1.35802198e-03, 4.33904934e-04, 6.89690700e-03,
          -6.86063868e-05, 2.69439444e-03, 8.20017140e-03,
          4.04437911e-03, -4.33920044e-03, -2.58277659e-03,
          -1.15071714e-03, -2.57134065e-03, -8.38743243e-03,
          3.20503232e-03, 7.38357194e-03, -2.85965228e-03,
          3.98555771e-03, 3.31366644e-03, 3.98658123e-03,
          -8.73148907e-03, -7.76683883e-05, -1.76217058e-03,
          -5.79586346e-03, 7.37807772e-04, 8.10657395e-04,
          5.39532630e-03, 4.58934857e-03, -5.51030133e-03,
          9.60538909e-03, -2.63606128e-03, -8.47016182e-03,
          -7.79401837e-03, 2.09691469e-03, 5.82102966e-03,
          7.69466977e-04, -2.93301325e-03, 3.27763357e-03,
          1.39502622e-03, -3.49423499e-03, -2.56442907e-03,
          -2.44247448e-03, -4.97322064e-03, 6.07330236e-04,
          3.61658121e-03, -5.44089684e-03 ]
   uncompressed_sv_total: 84
   uncompressed_support_vectors:
      - [ 2.16450216e-03, 3.35497819e-02, 8.65800865e-03, 8.65800865e-03,
          1.40692638e-02, 2.92207785e-02, 8.65800865e-03, 6.49350649e-03,
          1.19047621e-02, 1.83982681e-02, 1.83982681e-02, 7.57575780e-03,
          1.62337665e-02, 1.53679654e-01, 5.41125517e-03, 7.57575780e-03,
          6.49350649e-03, 1.29870130e-02, 3.24675324e-03, 8.65800865e-03,
          1.19047621e-02, 1.91558436e-01, 3.24675324e-03, 6.49350649e-03,
          3.35497819e-02, 1.83982681e-02, 7.57575780e-03, 1.51515156e-02,
          6.49350649e-03, 1.94805190e-02, 6.49350649e-03, 7.57575780e-03,
          4.32900432e-03, 3.78787890e-02, 1.94805190e-02, 3.24675329e-02,
          1.51515156e-02, 2.05627698e-02, 1.08225108e-03, 9.74025950e-03,
          2.59740259e-02, 2.27272734e-02, 8.65800865e-03, 2.48917751e-02,
          2.05627698e-02, 1.08225108e-03, 2.16450207e-02, 1.62337665e-02,
          1.08225108e-03, 6.49350649e-03 ]
      - [ 6.68896316e-03, 3.34448144e-02, 3.34448158e-03, 5.01672225e-03,
          1.67224072e-02, 1.17056854e-02, 2.34113708e-02, 4.84949835e-02,
          8.36120360e-03, 1.50501672e-02, 2.67558526e-02, 1.67224072e-02,
          3.51170562e-02, 8.36120360e-03, 1.83946490e-02, 2.00668890e-02,
          1.67224072e-02, 1.50501672e-02, 1.00334445e-02, 2.34113708e-02,
          1.83946490e-02, 2.17391308e-02, 1.17056854e-02, 1.83946490e-02,
          2.34113708e-02, 5.01672225e-03, 2.67558526e-02, 2.34113708e-02,
          1.50501672e-02, 2.50836127e-02, 2.67558526e-02, 2.00668890e-02,
          2.34113708e-02, 1.17056854e-02, 2.34113708e-02, 2.17391308e-02,
          2.67558526e-02, 5.01672225e-03, 1.50501672e-02, 2.67558526e-02,
          6.68896316e-03, 1.83946490e-02, 2.00668890e-02, 2.34113708e-02,
          3.67892981e-02, 3.01003344e-02, 4.34782617e-02, 1.67224072e-02,
          1.17056854e-02, 4.01337780e-02 ]
      - [ 8.17995891e-03, 6.13496900e-02, 1.43149281e-02, 2.04498973e-02,
          1.02249486e-02, 2.45398767e-02, 6.13496918e-03, 8.17995891e-03,
          1.43149281e-02, 2.24948861e-02, 1.43149281e-02, 1.02249486e-02,
          5.52147217e-02, 3.47648263e-02, 1.22699384e-02, 1.63599178e-02,
          1.84049085e-02, 4.08997945e-03, 1.22699384e-02, 2.24948861e-02,
          1.22699384e-02, 4.08997945e-03, 1.02249486e-02, 1.63599178e-02,
          0., 1.63599178e-02, 1.22699384e-02, 2.86298562e-02,
          1.63599178e-02, 2.04498973e-02, 3.06748450e-02, 2.65848674e-02,
          6.13496918e-03, 2.04498973e-03, 2.04498973e-02, 5.11247441e-02,
          1.63599178e-02, 1.43149281e-02, 2.04498973e-02, 2.04498973e-02,
          1.43149281e-02, 2.04498973e-03, 2.04498973e-02, 5.52147217e-02,
          7.97545984e-02, 1.22699384e-02, 3.27198356e-02, 1.63599178e-02,
          1.43149281e-02, 1.63599178e-02 ]
      - [ 3.08324769e-03, 5.13874646e-03, 2.77492311e-02, 1.74717382e-02,
          1.95272360e-02, 4.11099708e-03, 1.54162394e-02, 1.54162394e-02,
          2.26104837e-02, 1.43884895e-02, 8.22199415e-03, 2.05549854e-03,
          9.24974307e-03, 2.46659830e-01, 6.16649538e-03, 5.13874646e-03,
          4.62487154e-02, 1.43884895e-02, 2.05549854e-03, 3.08324769e-03,
          3.08324769e-03, 1.69578627e-01, 2.05549854e-03, 4.11099708e-03,
          7.19424477e-03, 4.11099717e-02, 2.05549854e-03, 6.16649538e-03,
          2.05549854e-03, 1.74717382e-02, 3.08324769e-03, 2.05549854e-03,
          3.28879766e-02, 2.56937314e-02, 1.02774929e-02, 2.05549854e-03,
          1.43884895e-02, 5.13874646e-03, 1.23329908e-02, 2.15827338e-02,
          8.22199415e-03, 5.24152145e-02, 0., 1.95272360e-02,
          7.19424477e-03, 1.54162394e-02, 7.19424477e-03, 1.33607406e-02,
          0., 4.11099708e-03 ]
      - [ 5.61797759e-03, 3.74531839e-03, 3.55805233e-02, 2.80898884e-02,
          2.62172297e-02, 5.24344593e-02, 9.36329551e-03, 5.61797759e-03,
          2.62172297e-02, 1.12359552e-02, 2.05992516e-02, 3.74531839e-03,
          1.31086148e-02, 9.17603001e-02, 3.74531839e-03, 7.49063678e-03,
          2.05992516e-02, 1.12359552e-02, 1.87265920e-03, 5.61797759e-03,
          9.36329551e-03, 8.80149826e-02, 9.36329551e-03, 2.05992516e-02,
          1.68539323e-02, 3.74531820e-02, 0., 1.12359552e-02,
          5.61797759e-03, 4.11985032e-02, 1.31086148e-02, 7.49063678e-03,
          2.62172297e-02, 5.05617969e-02, 1.87265910e-02, 7.67790303e-02,
          2.05992516e-02, 3.74531839e-03, 1.12359552e-02, 4.11985032e-02,
          1.87265920e-03, 2.62172297e-02, 7.49063678e-03, 1.31086148e-02,
          3.74531839e-03, 0., 2.80898884e-02, 9.36329551e-03,
          1.12359552e-02, 5.61797759e-03 ]
      - [ 2.02429155e-03, 1.82186235e-02, 3.44129577e-02, 3.03643737e-02,
          2.22672075e-02, 3.03643737e-02, 2.83400826e-02, 4.04858291e-02,
          3.03643737e-02, 4.04858310e-03, 3.23886648e-02, 3.64372469e-02,
          3.03643737e-02, 4.04858310e-03, 1.82186235e-02, 1.61943324e-02,
          2.22672075e-02, 2.02429146e-02, 6.07287465e-03, 2.02429146e-02,
          1.61943324e-02, 4.04858310e-03, 6.07287465e-03, 1.01214573e-02,
          1.41700413e-02, 1.82186235e-02, 3.23886648e-02, 1.41700413e-02,
          1.21457493e-02, 2.83400826e-02, 1.82186235e-02, 6.07287465e-03,
          3.23886648e-02, 8.09716620e-03, 1.61943324e-02, 4.45344150e-02,
          1.61943324e-02, 1.82186235e-02, 1.82186235e-02, 2.02429146e-02,
          1.61943324e-02, 2.42914986e-02, 6.07287465e-03, 2.42914986e-02,
          3.64372469e-02, 1.21457493e-02, 2.22672075e-02, 2.02429155e-03,
          1.01214573e-02, 4.45344150e-02 ]
      - [ 5.39083546e-03, 5.39083555e-02, 3.23450118e-02, 1.07816709e-02,
          2.69541778e-02, 1.07816709e-02, 3.77358496e-02, 2.15633418e-02,
          1.34770889e-02, 2.69541773e-03, 1.61725059e-02, 8.08625296e-03,
          5.92991896e-02, 1.07816709e-02, 1.88679248e-02, 2.96495948e-02,
          2.15633418e-02, 2.42587589e-02, 1.34770889e-02, 1.07816709e-02,
          2.69541778e-02, 0., 8.08625296e-03, 5.39083546e-03,
          8.08625296e-03, 3.77358496e-02, 5.39083546e-03, 1.88679248e-02,
          8.08625296e-03, 2.69541778e-02, 8.08625296e-03, 8.08625296e-03,
          1.88679248e-02, 5.39083546e-03, 4.58221026e-02, 1.61725059e-02,
          1.07816709e-02, 5.39083546e-03, 1.88679248e-02, 2.69541778e-02,
          5.39083546e-03, 1.07816709e-02, 1.61725059e-02, 1.34770889e-02,
          9.16442052e-02, 1.07816709e-02, 4.58221026e-02, 5.39083546e-03,
          1.61725059e-02, 4.58221026e-02 ]
      - [ 2.47933865e-02, 9.91735458e-02, 0., 0., 8.26446246e-03,
          1.65289249e-02, 4.95867729e-02, 2.47933865e-02, 0.,
          2.47933865e-02, 1.65289249e-02, 8.26446246e-03, 9.09090862e-02,
          0., 1.65289249e-02, 0., 0., 8.26446246e-03, 8.26446246e-03, 0.,
          8.26446265e-02, 0., 2.47933865e-02, 3.30578499e-02,
          8.26446246e-03, 0., 8.26446246e-03, 1.65289249e-02, 0., 0.,
          1.65289249e-02, 8.26446246e-03, 8.26446246e-03, 0., 0.,
          5.78512363e-02, 8.26446246e-03, 8.26446246e-03, 0., 0.,
          1.65289249e-02, 0., 8.26446246e-03, 0., 1.81818172e-01,
          2.47933865e-02, 8.26446246e-03, 8.26446246e-03, 7.43801594e-02,
          0. ]
      - [ 9.45626479e-03, 3.78250591e-02, 2.12765951e-02, 1.65484641e-02,
          2.83687934e-02, 1.41843967e-02, 4.96453904e-02, 6.14657216e-02,
          1.41843967e-02, 1.65484641e-02, 1.18203312e-02, 2.83687934e-02,
          9.45626479e-03, 2.36406624e-02, 9.45626479e-03, 3.78250591e-02,
          6.14657216e-02, 2.36406624e-02, 1.65484641e-02, 1.41843967e-02,
          7.09219836e-03, 9.45626479e-03, 9.45626479e-03, 1.89125296e-02,
          2.36406620e-03, 7.09219836e-03, 2.12765951e-02, 6.61938563e-02,
          1.41843967e-02, 2.83687934e-02, 1.41843967e-02, 7.09219836e-03,
          1.41843967e-02, 7.09219836e-03, 4.72813239e-03, 2.36406620e-03,
          2.36406624e-02, 4.72813239e-03, 2.12765951e-02, 4.25531901e-02,
          7.09219836e-03, 0., 1.41843967e-02, 3.07328608e-02,
          3.07328608e-02, 1.65484641e-02, 1.65484641e-02, 1.18203312e-02,
          1.89125296e-02, 2.12765951e-02 ]
      - [ 9.90098994e-03, 9.90098994e-03, 0., 9.90098994e-03,
          1.98019799e-02, 2.97029689e-02, 2.97029689e-02, 0.,
          2.97029689e-02, 9.90098994e-03, 1.98019799e-02, 0.,
          4.95049506e-02, 2.97029689e-02, 2.97029689e-02, 0.,
          2.97029689e-02, 0., 0., 9.90098994e-03, 4.95049506e-02, 0.,
          1.98019799e-02, 3.96039598e-02, 0., 0., 0., 9.90099013e-02,
          3.96039598e-02, 0., 0., 2.97029689e-02, 2.97029689e-02,
          9.90098994e-03, 1.98019799e-02, 9.90098994e-03, 9.90098994e-03,
          3.96039598e-02, 0., 1.98019799e-02, 9.90098994e-03, 0.,
          3.96039598e-02, 0., 6.93069324e-02, 9.90098994e-03,
          4.95049506e-02, 3.96039598e-02, 2.97029689e-02, 1.98019799e-02 ]
      - [ 3.13971750e-03, 3.13971750e-03, 3.13971750e-02, 1.41287288e-02,
          4.86656204e-02, 1.56985875e-03, 3.13971750e-03, 4.70957626e-03,
          1.56985875e-02, 1.72684453e-02, 2.04081647e-02, 1.56985875e-03,
          0., 1.22448981e-01, 7.84929376e-03, 2.35478804e-02,
          7.37833604e-02, 4.23861854e-02, 1.25588700e-02, 1.09890113e-02,
          4.70957626e-03, 7.22135007e-02, 2.35478804e-02, 3.76766101e-02,
          6.27943501e-03, 2.35478804e-02, 4.70957626e-03, 7.84929376e-03,
          1.41287288e-02, 4.70957607e-02, 1.72684453e-02, 2.19780225e-02,
          3.45368907e-02, 0., 1.56985875e-03, 4.70957626e-03,
          3.13971750e-02, 7.84929376e-03, 3.45368907e-02, 6.12244904e-02,
          6.27943501e-03, 0., 1.72684453e-02, 2.35478804e-02,
          1.56985875e-03, 3.13971750e-03, 6.27943501e-03, 1.72684453e-02,
          4.70957626e-03, 4.70957626e-03 ]
      - [ 2.04081628e-02, 4.08163257e-02, 0., 0., 2.04081628e-02,
          2.04081628e-02, 2.04081628e-02, 1.02040814e-02, 1.02040814e-02,
          0., 0., 0., 5.10204062e-02, 1.02040814e-02, 0., 0., 0.,
          2.04081628e-02, 2.04081628e-02, 0., 5.10204062e-02,
          1.02040814e-02, 0., 0., 0., 1.02040814e-02, 1.02040814e-02,
          1.02040814e-02, 2.04081628e-02, 0., 2.04081628e-02,
          6.12244904e-02, 2.04081628e-02, 2.04081628e-02, 0.,
          4.08163257e-02, 1.02040814e-02, 7.14285672e-02, 0.,
          1.02040814e-02, 6.12244904e-02, 0., 4.08163257e-02,
          3.06122452e-02, 6.12244904e-02, 3.06122452e-02, 4.08163257e-02,
          3.06122452e-02, 6.12244904e-02, 3.06122452e-02 ]
      - [ 3.44827585e-02, 3.01724132e-02, 0., 1.29310340e-02,
          2.15517245e-02, 2.15517245e-02, 4.74137925e-02, 1.72413792e-02,
          8.62068962e-03, 4.31034481e-03, 2.58620679e-02, 0.,
          4.31034490e-02, 4.74137925e-02, 8.62068962e-03, 3.01724132e-02,
          2.58620679e-02, 3.44827585e-02, 3.01724132e-02, 8.62068962e-03,
          3.87931019e-02, 3.44827585e-02, 2.58620679e-02, 3.87931019e-02,
          4.31034481e-03, 1.72413792e-02, 1.29310340e-02, 4.31034490e-02,
          8.62068962e-03, 1.29310340e-02, 1.29310340e-02, 8.62068962e-03,
          8.62068962e-03, 0., 0., 3.87931019e-02, 1.29310340e-02,
          8.62068962e-03, 1.29310340e-02, 2.58620679e-02, 8.62068962e-03,
          1.29310340e-02, 8.62068962e-03, 3.01724132e-02, 4.74137925e-02,
          4.31034481e-03, 8.62068962e-03, 3.01724132e-02, 2.15517245e-02,
          8.62068962e-03 ]
      - [ 0., 4.68085110e-02, 2.34042555e-02, 1.27659570e-02,
          1.70212761e-02, 4.89361696e-02, 1.48936165e-02, 1.48936165e-02,
          1.91489346e-02, 2.76595727e-02, 1.27659570e-02, 3.82978693e-02,
          1.70212761e-02, 2.76595727e-02, 1.48936165e-02, 1.48936165e-02,
          1.48936165e-02, 2.76595727e-02, 1.06382975e-02, 2.76595727e-02,
          1.91489346e-02, 2.12765951e-02, 8.51063803e-03, 2.34042555e-02,
          1.70212761e-02, 1.91489346e-02, 2.12765951e-02, 1.70212761e-02,
          8.51063803e-03, 2.97872331e-02, 1.70212761e-02, 1.70212761e-02,
          2.12765951e-02, 8.51063803e-03, 1.06382975e-02, 2.97872331e-02,
          1.48936165e-02, 2.12765951e-03, 2.34042555e-02, 7.44680837e-02,
          6.38297852e-03, 0., 2.12765951e-02, 2.12765951e-02,
          1.91489346e-02, 1.27659570e-02, 2.76595727e-02, 1.48936165e-02,
          1.27659570e-02, 2.76595727e-02 ]
      - [ 2.65957434e-02, 4.25531901e-02, 1.06382975e-02, 0.,
          3.19148935e-02, 3.19148935e-02, 5.31914877e-03, 2.12765951e-02,
          0., 4.25531901e-02, 0., 1.59574468e-02, 5.31914867e-02,
          3.19148935e-02, 3.19148935e-02, 1.59574468e-02, 0.,
          5.31914877e-03, 2.12765951e-02, 2.12765951e-02, 1.59574468e-02,
          1.59574468e-02, 2.12765951e-02, 3.19148935e-02, 1.59574468e-02,
          5.31914877e-03, 3.19148935e-02, 4.25531901e-02, 1.06382975e-02,
          1.06382975e-02, 2.65957434e-02, 1.06382975e-02, 1.06382975e-02,
          5.31914877e-03, 5.31914877e-03, 4.25531901e-02, 1.06382975e-02,
          1.06382975e-02, 1.59574468e-02, 2.12765951e-02, 1.06382975e-02,
          0., 2.12765951e-02, 2.12765951e-02, 6.91489354e-02,
          2.12765951e-02, 1.06382975e-02, 1.59574468e-02, 3.72340418e-02,
          2.12765951e-02 ]
      - [ 1.15942033e-02, 3.18840593e-02, 8.69565271e-03, 1.73913054e-02,
          1.44927539e-02, 3.47826108e-02, 2.60869581e-02, 1.15942033e-02,
          2.60869581e-02, 1.73913054e-02, 2.60869581e-02, 1.44927539e-02,
          3.18840593e-02, 1.73913054e-02, 1.15942033e-02, 1.73913054e-02,
          2.89855078e-02, 3.18840593e-02, 1.15942033e-02, 2.89855083e-03,
          1.15942033e-02, 5.79710165e-03, 8.69565271e-03, 3.76811624e-02,
          1.73913054e-02, 1.44927539e-02, 4.05797102e-02, 4.34782617e-02,
          2.02898551e-02, 5.21739163e-02, 1.15942033e-02, 3.47826108e-02,
          1.15942033e-02, 8.69565271e-03, 1.15942033e-02, 1.44927539e-02,
          4.63768132e-02, 1.73913054e-02, 8.69565271e-03, 1.15942033e-02,
          1.73913054e-02, 8.69565271e-03, 2.02898551e-02, 1.73913054e-02,
          2.31884066e-02, 2.02898551e-02, 8.69565271e-03, 1.15942033e-02,
          3.47826108e-02, 1.44927539e-02 ]
      - [ 5.12820520e-02, 6.41025649e-03, 6.41025649e-03, 1.28205130e-02,
          6.41025649e-03, 4.48717959e-02, 6.41025649e-03, 1.28205130e-02,
          2.56410260e-02, 0., 2.56410260e-02, 0., 1.02564104e-01,
          5.12820520e-02, 1.28205130e-02, 1.28205130e-02, 0., 0.,
          2.56410260e-02, 1.28205130e-02, 8.97435918e-02, 0.,
          6.41025649e-03, 6.41025649e-03, 1.28205130e-02, 6.41025649e-03,
          1.92307699e-02, 6.41025649e-03, 6.41025649e-03, 0.,
          1.92307699e-02, 0., 1.28205130e-02, 1.92307699e-02,
          1.92307699e-02, 5.76923080e-02, 0., 1.92307699e-02,
          1.28205130e-02, 3.20512839e-02, 1.28205130e-02, 0.,
          1.28205130e-02, 0., 1.28205135e-01, 1.28205130e-02,
          1.92307699e-02, 0., 3.84615399e-02, 1.28205130e-02 ]
      - [ 1.25448033e-02, 1.79211460e-02, 4.30107526e-02, 3.58422939e-03,
          5.91397844e-02, 1.79211460e-02, 0., 3.58422939e-03,
          1.25448033e-02, 1.97132621e-02, 1.79211460e-02, 3.58422939e-03,
          1.79211460e-02, 9.49820802e-02, 1.25448033e-02, 2.32974906e-02,
          9.31899622e-02, 5.19713275e-02, 8.96057300e-03, 5.37634408e-03,
          7.16845877e-03, 2.68817209e-02, 8.96057300e-03, 1.97132621e-02,
          1.79211469e-03, 1.25448033e-02, 8.96057300e-03, 3.58422939e-03,
          1.25448033e-02, 4.30107526e-02, 1.61290318e-02, 1.43369175e-02,
          4.30107526e-02, 0., 3.58422939e-03, 2.86738351e-02,
          3.22580636e-02, 1.79211469e-03, 2.50896066e-02, 5.73476702e-02,
          3.58422939e-03, 0., 2.15053763e-02, 1.61290318e-02,
          3.58422939e-03, 1.43369175e-02, 1.07526882e-02, 1.61290318e-02,
          1.43369175e-02, 1.25448033e-02 ]
      - [ 2.46913582e-02, 7.40740746e-02, 3.70370373e-02, 0.,
          1.23456791e-02, 3.70370373e-02, 0., 0., 0., 0., 0., 0.,
          8.64197537e-02, 0., 1.23456791e-02, 0., 1.23456791e-02, 0.,
          1.23456791e-02, 2.46913582e-02, 2.46913582e-02, 1.23456791e-02,
          0., 1.23456791e-02, 0., 0., 3.70370373e-02, 2.46913582e-02, 0.,
          0., 9.87654328e-02, 2.46913582e-02, 0., 0., 0., 1.23456791e-02,
          2.46913582e-02, 0., 0., 3.70370373e-02, 1.23456791e-02, 0.,
          1.23456791e-02, 0., 1.72839507e-01, 6.17283955e-02,
          2.46913582e-02, 1.23456791e-02, 2.46913582e-02, 3.70370373e-02 ]
      - [ 5.69620281e-02, 4.43037972e-02, 0., 0., 1.26582282e-02,
          1.32911399e-01, 0., 0., 0., 5.69620281e-02, 0., 0.,
          4.43037972e-02, 6.32911408e-03, 1.26582282e-02, 0., 0.,
          6.32911408e-03, 5.69620281e-02, 6.32911408e-03, 3.16455700e-02,
          6.32911408e-03, 3.16455700e-02, 3.79746854e-02, 6.32911408e-03,
          6.32911408e-03, 1.26582282e-02, 1.89873427e-02, 1.89873427e-02,
          1.26582282e-02, 1.89873427e-02, 1.26582282e-02, 1.89873427e-02,
          0., 0., 4.43037972e-02, 6.32911408e-03, 3.79746854e-02,
          6.32911408e-03, 3.79746854e-02, 3.16455700e-02, 0.,
          2.53164563e-02, 2.53164563e-02, 2.53164563e-02, 0.,
          6.32911408e-03, 3.79746854e-02, 4.43037972e-02, 0. ]
      - [ 1.40186911e-02, 9.34579410e-03, 3.27102803e-02, 9.34579410e-03,
          1.86915882e-02, 9.34579410e-03, 9.34579410e-03, 2.80373823e-02,
          2.33644843e-02, 1.40186911e-02, 4.67289705e-03, 1.40186911e-02,
          3.73831764e-02, 5.60747646e-02, 9.34579410e-03, 1.40186911e-02,
          1.02803737e-01, 9.34579410e-03, 9.34579410e-03, 1.86915882e-02,
          1.86915882e-02, 1.86915882e-02, 2.80373823e-02, 4.67289686e-02,
          1.40186911e-02, 9.34579410e-03, 4.67289705e-03, 4.67289705e-03,
          2.33644843e-02, 2.80373823e-02, 9.34579410e-03, 9.34579410e-03,
          4.67289686e-02, 0., 1.40186911e-02, 3.73831764e-02,
          3.27102803e-02, 1.40186911e-02, 3.73831764e-02, 2.33644843e-02,
          1.40186911e-02, 0., 4.67289705e-03, 0., 3.73831764e-02,
          9.34579410e-03, 4.67289705e-03, 2.80373823e-02, 1.86915882e-02,
          1.86915882e-02 ]
      - [ 7.10227294e-03, 8.52272753e-03, 6.67613670e-02, 5.68181835e-03,
          4.26136367e-02, 0., 8.52272753e-03, 2.41477285e-02,
          1.27840918e-02, 1.70454551e-02, 5.68181835e-03, 7.10227294e-03,
          9.94318165e-03, 5.11363670e-02, 2.55681835e-02, 2.13068184e-02,
          8.52272734e-02, 7.52840936e-02, 9.94318165e-03, 1.42045459e-02,
          2.84090918e-03, 9.94318165e-03, 1.70454551e-02, 1.56250000e-02,
          2.84090918e-03, 3.26704569e-02, 1.84659101e-02, 2.41477285e-02,
          1.56250000e-02, 5.53977303e-02, 1.84659101e-02, 2.55681835e-02,
          2.98295468e-02, 2.84090918e-03, 7.10227294e-03, 2.84090918e-03,
          3.69318202e-02, 2.84090918e-03, 2.41477285e-02, 3.69318202e-02,
          1.42045459e-03, 0., 1.98863633e-02, 2.13068184e-02,
          1.42045459e-02, 1.42045459e-02, 4.26136376e-03, 1.84659101e-02,
          9.94318165e-03, 1.56250000e-02 ]
      - [ 1.29870130e-02, 8.65800865e-03, 2.16450207e-02, 8.65800865e-03,
          0., 8.65800828e-02, 1.29870130e-02, 4.32900432e-03,
          8.65800865e-03, 4.76190485e-02, 1.29870130e-02, 0.,
          1.38528138e-01, 0., 2.16450207e-02, 0., 2.16450207e-02, 0.,
          1.73160173e-02, 1.29870130e-02, 8.65800865e-03, 4.32900432e-03,
          1.73160173e-02, 1.73160173e-02, 4.32900432e-03, 0.,
          4.32900432e-03, 4.76190485e-02, 8.65800865e-03, 8.65800865e-03,
          1.29870130e-02, 3.89610380e-02, 8.65800865e-03, 0.,
          4.32900432e-03, 5.19480519e-02, 4.32900432e-03, 2.59740259e-02,
          4.32900432e-03, 1.73160173e-02, 1.73160173e-02, 0.,
          1.73160173e-02, 0., 1.03896104e-01, 8.65800865e-03,
          2.16450207e-02, 3.03030312e-02, 5.19480519e-02, 2.16450207e-02 ]
      - [ 1.38888890e-02, 2.77777780e-02, 2.43055560e-02, 2.08333340e-02,
          6.94444450e-03, 1.38888890e-02, 1.38888890e-02, 1.38888890e-02,
          1.38888890e-02, 1.04166670e-02, 6.94444450e-03, 1.38888890e-02,
          1.38888890e-02, 3.12500000e-02, 3.81944440e-02, 1.73611119e-02,
          6.59722239e-02, 2.43055560e-02, 1.04166670e-02, 2.43055560e-02,
          2.08333340e-02, 3.47222225e-03, 1.73611119e-02, 3.47222239e-02,
          6.94444450e-03, 3.47222225e-03, 2.43055560e-02, 1.73611119e-02,
          1.38888890e-02, 3.47222239e-02, 2.77777780e-02, 3.47222239e-02,
          3.47222239e-02, 0., 1.73611119e-02, 1.04166670e-02,
          2.43055560e-02, 0., 2.77777780e-02, 5.55555560e-02, 0., 0.,
          1.73611119e-02, 2.08333340e-02, 2.77777780e-02, 2.77777780e-02,
          2.43055560e-02, 1.38888890e-02, 1.38888890e-02, 3.81944440e-02 ]
      - [ 6.53594779e-03, 3.92156877e-02, 1.30718956e-02, 0.,
          6.53594779e-03, 9.15032700e-02, 0., 1.30718956e-02, 0.,
          3.92156877e-02, 3.26797403e-02, 1.30718956e-02, 4.57516350e-02,
          0., 2.61437912e-02, 1.96078438e-02, 6.53594779e-03, 0.,
          6.53594779e-03, 6.53594779e-03, 4.57516350e-02, 0.,
          2.61437912e-02, 3.26797403e-02, 1.30718956e-02, 0.,
          6.53594779e-03, 6.53594779e-03, 6.53594779e-03, 0.,
          1.96078438e-02, 3.26797403e-02, 0., 0., 0., 1.56862751e-01,
          1.30718956e-02, 1.30718956e-02, 2.61437912e-02, 2.61437912e-02,
          6.53594779e-03, 0., 3.92156877e-02, 2.61437912e-02,
          3.26797403e-02, 2.61437912e-02, 1.30718956e-02, 6.53594779e-03,
          4.57516350e-02, 1.30718956e-02 ]
      - [ 2.14285720e-02, 3.57142873e-02, 1.42857144e-02, 7.14285718e-03,
          1.42857144e-02, 5.71428575e-02, 0., 0., 7.14285718e-03,
          4.28571440e-02, 7.14285718e-03, 7.14285718e-03, 5.71428575e-02,
          2.14285720e-02, 7.14285718e-03, 0., 7.14285718e-03,
          1.42857144e-02, 7.14285718e-03, 7.14285718e-03, 5.00000007e-02,
          7.14285718e-03, 2.14285720e-02, 1.42857144e-02, 7.14285718e-03,
          0., 0., 3.57142873e-02, 1.42857144e-02, 1.42857144e-02,
          7.14285718e-03, 2.14285720e-02, 2.14285720e-02, 0.,
          7.14285718e-03, 5.00000007e-02, 1.42857144e-02, 1.42857144e-02,
          7.14285718e-03, 2.14285720e-02, 1.42857144e-02, 0.,
          2.85714287e-02, 7.14285718e-03, 1.85714290e-01, 1.42857144e-02,
          2.14285720e-02, 4.28571440e-02, 1.42857144e-02, 7.14285718e-03 ]
      - [ 5.10204071e-03, 6.63265288e-02, 4.59183678e-02, 1.53061226e-02,
          1.02040814e-02, 0., 2.04081628e-02, 1.53061226e-02,
          5.10204071e-03, 0., 3.06122452e-02, 5.10204071e-03,
          1.53061226e-02, 1.53061226e-02, 1.02040814e-02, 3.57142836e-02,
          7.65306130e-02, 2.04081628e-02, 0., 2.55102031e-02,
          2.04081628e-02, 1.53061226e-02, 1.02040814e-02, 1.02040814e-02,
          5.10204071e-03, 5.61224483e-02, 2.04081628e-02, 2.55102031e-02,
          0., 9.18367356e-02, 3.06122452e-02, 1.02040814e-02,
          2.04081628e-02, 1.02040814e-02, 2.04081628e-02, 0.,
          4.08163257e-02, 0., 4.08163257e-02, 5.10204071e-03,
          5.10204071e-03, 1.02040814e-02, 1.53061226e-02, 1.02040814e-02,
          4.59183678e-02, 5.10204071e-03, 5.10204071e-03, 5.10204071e-03,
          1.02040814e-02, 3.57142836e-02 ]
      - [ 1.42348753e-02, 1.42348753e-02, 2.13523135e-02, 1.06761567e-02,
          2.84697507e-02, 1.42348753e-02, 1.42348753e-02, 1.06761567e-02,
          2.49110311e-02, 1.06761567e-02, 3.55871879e-02, 7.11743766e-03,
          3.91459055e-02, 1.77935939e-02, 2.13523135e-02, 4.98220623e-02,
          2.49110311e-02, 2.13523135e-02, 1.42348753e-02, 1.77935939e-02,
          1.42348753e-02, 3.55871883e-03, 1.42348753e-02, 1.42348753e-02,
          1.77935939e-02, 3.55871879e-02, 1.77935939e-02, 1.06761567e-02,
          2.49110311e-02, 3.20284702e-02, 7.11743766e-03, 2.13523135e-02,
          1.77935939e-02, 3.55871883e-03, 1.06761567e-02, 2.84697507e-02,
          3.20284702e-02, 7.11743766e-03, 3.55871879e-02, 2.49110311e-02,
          7.11743766e-03, 1.06761567e-02, 1.77935939e-02, 2.49110311e-02,
          4.62633446e-02, 3.55871879e-02, 1.77935939e-02, 2.13523135e-02,
          1.06761567e-02, 2.13523135e-02 ]
      - [ 6.21118024e-03, 2.48447210e-02, 3.10559012e-02, 1.86335407e-02,
          1.86335407e-02, 0., 6.21118024e-02, 9.93788838e-02,
          1.86335407e-02, 0., 2.48447210e-02, 1.86335407e-02, 0.,
          1.24223605e-02, 2.48447210e-02, 4.96894419e-02, 2.48447210e-02,
          6.83229864e-02, 2.48447210e-02, 2.48447210e-02, 0.,
          6.21118024e-03, 1.24223605e-02, 1.24223605e-02, 6.21118024e-03,
          6.21118024e-03, 3.10559012e-02, 4.96894419e-02, 1.86335407e-02,
          6.21118024e-03, 2.48447210e-02, 1.86335407e-02, 1.86335407e-02,
          2.48447210e-02, 3.72670814e-02, 0., 1.86335407e-02, 0.,
          2.48447210e-02, 6.21118024e-03, 0., 0., 6.21118024e-03,
          1.24223605e-02, 3.10559012e-02, 2.48447210e-02, 1.86335407e-02,
          0., 6.21118024e-03, 2.48447210e-02 ]
      - [ 1.33333337e-02, 3.00000012e-02, 6.66666683e-03, 9.99999978e-03,
          1.83333345e-02, 2.33333334e-02, 1.99999996e-02, 2.16666665e-02,
          8.33333377e-03, 2.16666665e-02, 2.33333334e-02, 2.66666673e-02,
          3.00000012e-02, 1.66666671e-03, 1.50000006e-02, 3.00000012e-02,
          1.83333345e-02, 2.33333334e-02, 1.33333337e-02, 2.83333343e-02,
          1.50000006e-02, 3.33333341e-03, 1.16666667e-02, 2.50000004e-02,
          2.66666673e-02, 1.16666667e-02, 1.33333337e-02, 1.16666667e-02,
          9.99999978e-03, 3.66666690e-02, 2.16666665e-02, 9.99999978e-03,
          1.83333345e-02, 1.33333337e-02, 1.83333345e-02, 5.33333346e-02,
          3.00000012e-02, 6.66666683e-03, 3.83333340e-02, 2.83333343e-02,
          1.33333337e-02, 9.99999978e-03, 1.66666671e-03, 1.83333345e-02,
          5.16666695e-02, 1.83333345e-02, 2.83333343e-02, 2.50000004e-02,
          2.66666673e-02, 1.99999996e-02 ]
      - [ 0., 0., 3.33333351e-02, 7.14285746e-02, 2.38095243e-02, 0.,
          7.14285746e-02, 5.71428612e-02, 3.33333351e-02, 4.76190494e-03,
          1.90476198e-02, 1.90476198e-02, 4.76190494e-03, 4.76190494e-03,
          0., 2.38095243e-02, 6.19047657e-02, 3.80952395e-02, 0.,
          4.76190494e-03, 0., 0., 1.42857153e-02, 1.42857153e-02,
          2.85714306e-02, 3.33333351e-02, 9.52380989e-03, 0., 0.,
          4.76190485e-02, 4.76190485e-02, 9.52380989e-03, 2.38095243e-02,
          9.52380989e-03, 3.80952395e-02, 0., 9.52380970e-02, 0.,
          4.28571440e-02, 0., 0., 1.90476198e-02, 1.42857153e-02,
          4.28571440e-02, 0., 9.52380989e-03, 4.76190494e-03,
          4.76190494e-03, 0., 1.90476198e-02 ]
      - [ 5.68720400e-02, 0., 4.73933667e-03, 2.36966833e-02,
          4.73933667e-03, 3.79146934e-02, 6.16113767e-02, 5.21327034e-02,
          1.42180100e-02, 9.47867334e-03, 4.73933667e-03, 4.73933667e-03,
          4.26540300e-02, 0., 5.21327034e-02, 3.31753567e-02, 0.,
          2.84360200e-02, 5.21327034e-02, 2.84360200e-02, 1.89573467e-02,
          0., 9.47867334e-03, 9.47867334e-03, 2.84360200e-02, 0.,
          1.89573467e-02, 2.84360200e-02, 0., 0., 1.42180100e-02,
          9.47867334e-03, 4.73933667e-03, 9.47867334e-03, 1.42180100e-02,
          6.63507134e-02, 0., 2.36966833e-02, 4.73933667e-02,
          9.47867334e-03, 4.73933667e-03, 4.73933667e-03, 1.89573467e-02,
          4.73933667e-03, 7.10900500e-02, 4.73933667e-02, 9.47867334e-03,
          4.73933667e-03, 0., 9.47867334e-03 ]
      - [ 3.58565748e-02, 0., 7.96812773e-03, 1.59362555e-02,
          1.99203193e-02, 3.18725109e-02, 1.99203193e-02, 0.,
          1.99203193e-02, 1.99203193e-02, 4.38247025e-02, 7.96812773e-03,
          3.98406386e-02, 2.39043832e-02, 7.96812773e-02, 1.59362555e-02,
          7.56972134e-02, 1.19521916e-02, 3.58565748e-02, 1.59362555e-02,
          3.98406386e-03, 2.39043832e-02, 1.99203193e-02, 2.39043832e-02,
          1.19521916e-02, 1.99203193e-02, 1.59362555e-02, 2.39043832e-02,
          3.98406386e-03, 1.19521916e-02, 7.96812773e-03, 3.98406386e-03,
          3.18725109e-02, 3.98406386e-03, 1.99203193e-02, 1.59362555e-02,
          0., 1.59362555e-02, 7.96812773e-03, 1.59362555e-02,
          1.59362555e-02, 3.98406386e-03, 7.96812773e-03, 0.,
          6.77290857e-02, 6.37450218e-02, 1.59362555e-02, 3.98406386e-03,
          0., 1.59362555e-02 ]
      - [ 9.56937764e-03, 4.78468873e-02, 1.91387553e-02, 1.43540669e-02,
          1.91387553e-02, 9.56937764e-03, 3.34928222e-02, 7.65550211e-02,
          2.87081338e-02, 9.56937764e-03, 2.87081338e-02, 3.34928222e-02,
          1.43540669e-02, 0., 1.91387553e-02, 2.87081338e-02,
          9.56937764e-03, 2.39234436e-02, 9.56937764e-03, 9.56937764e-03,
          1.43540669e-02, 4.78468882e-03, 9.56937764e-03, 1.91387553e-02,
          4.78468882e-03, 3.34928222e-02, 3.82775106e-02, 2.39234436e-02,
          1.43540669e-02, 3.34928222e-02, 2.87081338e-02, 4.78468882e-03,
          4.78468882e-03, 0., 9.56937764e-03, 5.26315756e-02,
          1.43540669e-02, 4.78468882e-03, 2.39234436e-02, 2.39234436e-02,
          4.78468882e-03, 1.43540669e-02, 4.78468882e-03, 1.91387553e-02,
          1.43540669e-02, 3.34928222e-02, 4.78468873e-02, 1.43540669e-02,
          4.78468882e-03, 3.34928222e-02 ]
      - [ 1.94805190e-02, 2.27272734e-02, 1.62337665e-02, 1.29870130e-02,
          9.74025950e-03, 4.22077924e-02, 6.16883114e-02, 4.87012975e-02,
          3.24675324e-03, 6.49350649e-03, 2.27272734e-02, 3.24675324e-03,
          2.59740259e-02, 0., 2.59740259e-02, 2.27272734e-02,
          9.74025950e-03, 1.29870130e-02, 1.62337665e-02, 6.49350649e-03,
          2.27272734e-02, 3.24675324e-03, 2.92207785e-02, 2.27272734e-02,
          9.74025950e-03, 2.27272734e-02, 2.27272734e-02, 1.62337665e-02,
          6.49350649e-03, 1.94805190e-02, 1.94805190e-02, 1.29870130e-02,
          1.62337665e-02, 1.94805190e-02, 1.62337665e-02, 7.46753216e-02,
          3.24675324e-03, 2.59740259e-02, 1.29870130e-02, 2.27272734e-02,
          2.59740259e-02, 9.74025950e-03, 2.59740259e-02, 2.27272734e-02,
          4.22077924e-02, 9.74025950e-03, 2.92207785e-02, 1.62337665e-02,
          1.29870130e-02, 1.62337665e-02 ]
      - [ 6.49350658e-02, 1.29870130e-02, 2.59740259e-02, 1.73160173e-02,
          1.73160173e-02, 2.16450207e-02, 4.76190485e-02, 3.03030312e-02,
          1.73160173e-02, 2.16450207e-02, 1.29870130e-02, 8.65800865e-03,
          4.32900414e-02, 0., 5.62770553e-02, 8.65800865e-03,
          4.32900432e-03, 2.16450207e-02, 3.89610380e-02, 1.73160173e-02,
          8.65800865e-03, 0., 1.73160173e-02, 1.73160173e-02,
          1.29870130e-02, 4.32900432e-03, 1.73160173e-02, 3.89610380e-02,
          2.16450207e-02, 8.65800865e-03, 1.29870130e-02, 8.65800865e-03,
          1.73160173e-02, 4.32900432e-03, 1.73160173e-02, 2.16450207e-02,
          4.32900432e-03, 1.29870130e-02, 4.32900432e-03, 3.03030312e-02,
          0., 4.32900432e-03, 8.65800865e-03, 4.32900432e-03,
          8.65800828e-02, 2.59740259e-02, 1.73160173e-02, 1.29870130e-02,
          1.73160173e-02, 5.19480519e-02 ]
      - [ 4.34782617e-02, 2.71739140e-02, 1.08695654e-02, 0.,
          5.43478271e-03, 1.19565219e-01, 2.17391308e-02, 1.08695654e-02,
          0., 5.43478271e-03, 5.43478271e-03, 1.08695654e-02,
          3.80434804e-02, 0., 1.08695654e-02, 5.43478271e-03, 0.,
          5.43478271e-03, 1.08695654e-02, 2.17391308e-02, 2.71739140e-02,
          0., 7.06521720e-02, 4.89130430e-02, 1.63043477e-02, 0.,
          1.08695654e-02, 2.17391308e-02, 1.63043477e-02, 1.08695654e-02,
          2.17391308e-02, 1.63043477e-02, 5.43478271e-03, 2.17391308e-02,
          2.17391308e-02, 2.71739140e-02, 0., 1.63043477e-02,
          5.43478271e-03, 2.71739140e-02, 1.08695654e-02, 0.,
          1.08695654e-02, 5.43478271e-03, 1.08695656e-01, 1.08695654e-02,
          4.89130430e-02, 3.80434804e-02, 1.08695654e-02, 1.63043477e-02 ]
      - [ 4.34782617e-02, 4.89130430e-02, 5.43478271e-03, 0.,
          5.43478271e-03, 1.08695654e-02, 0., 0., 0., 2.17391308e-02,
          1.63043477e-02, 0., 8.15217420e-02, 0., 3.26086953e-02, 0.,
          1.08695654e-02, 5.43478271e-03, 2.71739140e-02, 0.,
          5.43478271e-03, 1.08695654e-02, 1.63043477e-02, 1.08695654e-02,
          2.17391308e-02, 1.08695654e-02, 2.17391308e-02, 7.06521720e-02,
          1.08695654e-02, 0., 0., 2.71739140e-02, 5.43478271e-03,
          2.71739140e-02, 5.43478271e-03, 4.89130430e-02, 5.43478271e-03,
          2.71739140e-02, 0., 1.63043477e-02, 2.71739140e-02, 0.,
          3.26086953e-02, 0., 1.30434781e-01, 3.26086953e-02,
          1.63043477e-02, 1.08695654e-02, 8.15217420e-02, 1.63043477e-02 ]
      - [ 2.31362469e-02, 6.68380484e-02, 7.71208201e-03, 0.,
          2.05655526e-02, 1.79948583e-02, 5.14138816e-03, 2.57069408e-03,
          1.02827763e-02, 2.57069413e-02, 2.57069408e-03, 0.,
          3.08483280e-02, 7.45501295e-02, 1.79948583e-02, 1.02827763e-02,
          5.91259636e-02, 7.71208201e-03, 2.05655526e-02, 7.71208201e-03,
          1.79948583e-02, 7.96915144e-02, 1.79948583e-02, 1.54241640e-02,
          2.57069408e-03, 0., 2.57069408e-03, 1.28534706e-02,
          7.71208201e-03, 5.14138816e-03, 2.57069408e-03, 2.05655526e-02,
          1.54241640e-02, 2.57069408e-03, 5.14138816e-03, 6.42673522e-02,
          1.28534706e-02, 5.14138816e-03, 1.54241640e-02, 2.57069413e-02,
          5.14138816e-03, 0., 2.31362469e-02, 1.79948583e-02,
          1.46529555e-01, 2.57069408e-03, 2.05655526e-02, 1.79948583e-02,
          1.79948583e-02, 5.14138816e-03 ]
      - [ 5.18134702e-03, 3.10880821e-02, 6.21761642e-02, 5.18134702e-03,
          4.14507762e-02, 1.03626940e-02, 3.10880821e-02, 4.66321222e-02,
          5.18134702e-03, 1.03626940e-02, 3.62694301e-02, 3.10880821e-02,
          5.18134702e-03, 0., 2.07253881e-02, 2.59067342e-02,
          3.62694301e-02, 3.62694301e-02, 5.18134702e-03, 5.18134702e-03,
          2.59067342e-02, 5.18134702e-03, 1.03626940e-02, 2.07253881e-02,
          5.18134702e-03, 4.14507762e-02, 4.66321222e-02, 2.07253881e-02,
          5.18134702e-03, 3.10880821e-02, 1.55440411e-02, 5.18134702e-03,
          2.07253881e-02, 0., 1.03626940e-02, 1.55440411e-02,
          5.18134702e-03, 1.03626940e-02, 1.55440411e-02, 1.55440411e-02,
          1.03626940e-02, 5.18134702e-03, 2.07253881e-02, 3.10880821e-02,
          4.66321222e-02, 2.07253881e-02, 1.03626940e-02, 1.55440411e-02,
          1.03626940e-02, 5.18134683e-02 ]
      - [ 1.57068074e-02, 4.71204184e-02, 5.23560215e-03, 5.23560215e-03,
          1.04712043e-02, 7.85340294e-02, 1.04712043e-02, 3.14136147e-02,
          1.04712043e-02, 3.14136147e-02, 2.09424086e-02, 5.23560215e-03,
          2.09424086e-02, 1.57068074e-02, 2.61780098e-02, 5.23560215e-03,
          4.18848172e-02, 1.04712043e-02, 2.61780098e-02, 5.23560215e-03,
          5.23560215e-03, 5.75916246e-02, 5.23560215e-03, 0.,
          5.23560215e-03, 1.57068074e-02, 0., 5.23560215e-03, 0.,
          3.66492160e-02, 1.04712043e-02, 5.23560215e-03, 1.04712043e-02,
          5.23560215e-03, 5.23560215e-03, 5.23560196e-02, 2.09424086e-02,
          7.32984319e-02, 5.23560215e-03, 1.57068074e-02, 6.80628270e-02,
          5.23560215e-03, 1.57068074e-02, 3.14136147e-02, 6.28272295e-02,
          2.61780098e-02, 5.23560215e-03, 1.57068074e-02, 5.23560215e-03,
          5.23560215e-03 ]
      - [ 2.63157897e-02, 9.86842066e-03, 3.28947371e-03, 3.28947371e-03,
          2.30263155e-02, 1.64473690e-02, 6.57894742e-03, 1.31578948e-02,
          6.57894742e-03, 2.63157897e-02, 2.30263155e-02, 3.28947371e-03,
          3.28947380e-02, 1.31578948e-02, 1.97368413e-02, 2.30263155e-02,
          9.86842066e-03, 1.31578948e-02, 1.31578948e-02, 3.94736826e-02,
          2.63157897e-02, 6.57894742e-03, 3.94736826e-02, 6.90789446e-02,
          6.57894742e-03, 9.86842066e-03, 9.86842066e-03, 2.96052638e-02,
          3.28947371e-03, 6.57894742e-03, 4.27631587e-02, 1.64473690e-02,
          2.96052638e-02, 1.97368413e-02, 2.30263155e-02, 2.63157897e-02,
          1.31578948e-02, 1.64473690e-02, 3.28947371e-03, 3.94736826e-02,
          2.30263155e-02, 0., 4.93421070e-02, 2.30263155e-02,
          2.30263155e-02, 1.97368413e-02, 2.96052638e-02, 2.63157897e-02,
          1.64473690e-02, 2.63157897e-02 ]
      - [ 1.96078438e-02, 2.61437912e-02, 0., 0., 0., 1.30718961e-01, 0.,
          0., 0., 1.96078438e-02, 1.30718956e-02, 0., 1.30718956e-02,
          1.30718956e-02, 3.92156877e-02, 6.53594779e-03, 0.,
          1.30718956e-02, 4.57516350e-02, 6.53594779e-03, 9.15032700e-02,
          0., 5.22875823e-02, 4.57516350e-02, 6.53594779e-03, 0.,
          1.30718956e-02, 3.26797403e-02, 2.61437912e-02, 0.,
          6.53594779e-03, 1.30718956e-02, 0., 0., 0., 1.04575165e-01, 0.,
          1.96078438e-02, 6.53594779e-03, 1.96078438e-02, 2.61437912e-02,
          1.30718956e-02, 1.30718956e-02, 0., 2.61437912e-02,
          1.30718956e-02, 2.61437912e-02, 2.61437912e-02, 6.53594807e-02,
          6.53594779e-03 ]
      - [ 9.43396240e-03, 9.43396240e-03, 3.30188684e-02, 2.83018872e-02,
          1.88679248e-02, 0., 2.83018872e-02, 2.83018872e-02,
          3.77358496e-02, 2.35849060e-02, 2.83018872e-02, 4.71698120e-03,
          2.35849060e-02, 2.83018872e-02, 4.71698120e-03, 4.24528308e-02,
          3.30188684e-02, 1.88679248e-02, 4.71698120e-03, 1.88679248e-02,
          1.41509436e-02, 9.43396240e-03, 9.43396240e-03, 2.35849060e-02,
          3.30188684e-02, 1.88679248e-02, 1.41509436e-02, 1.88679248e-02,
          9.43396240e-03, 9.43396240e-03, 1.88679248e-02, 2.35849060e-02,
          1.41509436e-02, 1.41509436e-02, 9.43396240e-03, 1.41509436e-02,
          1.41509436e-02, 2.35849060e-02, 3.30188684e-02, 3.77358496e-02,
          9.43396240e-03, 0., 2.35849060e-02, 9.43396240e-03,
          5.66037744e-02, 2.35849060e-02, 2.83018872e-02, 4.71698120e-03,
          3.30188684e-02, 2.35849060e-02 ]
      - [ 7.50469044e-03, 3.56472805e-02, 2.81425901e-02, 1.31332083e-02,
          1.31332083e-02, 2.06378996e-02, 5.81613518e-02, 4.87804860e-02,
          1.68855526e-02, 2.06378996e-02, 3.18949334e-02, 1.68855526e-02,
          4.50281426e-02, 2.06378996e-02, 2.25140713e-02, 1.12570357e-02,
          4.50281426e-02, 9.38086305e-03, 1.12570357e-02, 1.12570357e-02,
          2.25140713e-02, 1.31332083e-02, 1.87617261e-02, 1.50093809e-02,
          1.50093809e-02, 1.31332083e-02, 1.50093809e-02, 5.62851783e-03,
          5.62851783e-03, 2.06378996e-02, 1.12570357e-02, 3.75234522e-03,
          1.31332083e-02, 5.62851783e-03, 9.38086305e-03, 5.62851802e-02,
          1.12570357e-02, 1.12570357e-02, 7.50469044e-03, 3.00187618e-02,
          5.62851783e-03, 0., 1.87617261e-02, 2.43902430e-02,
          7.31707290e-02, 1.12570357e-02, 9.38086305e-03, 1.50093809e-02,
          3.37711051e-02, 1.68855526e-02 ]
      - [ 6.55737706e-03, 3.27868853e-03, 4.26229499e-02, 1.63934417e-02,
          4.91803288e-02, 3.27868853e-03, 0., 3.27868853e-03,
          1.31147541e-02, 1.96721312e-02, 1.31147541e-02, 1.31147541e-02,
          6.55737706e-03, 2.29508206e-02, 1.31147541e-02, 3.60655747e-02,
          5.90163916e-02, 4.91803288e-02, 9.83606558e-03, 9.83606558e-03,
          2.29508206e-02, 9.83606558e-03, 2.95081958e-02, 3.27868834e-02,
          3.27868853e-03, 3.27868834e-02, 3.27868853e-03, 1.96721312e-02,
          1.31147541e-02, 4.26229499e-02, 1.31147541e-02, 2.95081958e-02,
          4.26229499e-02, 1.63934417e-02, 6.55737706e-03, 1.31147541e-02,
          4.26229499e-02, 3.27868853e-03, 1.96721312e-02, 2.29508206e-02,
          9.83606558e-03, 1.63934417e-02, 1.96721312e-02, 1.63934417e-02,
          3.27868834e-02, 9.83606558e-03, 2.29508206e-02, 1.31147541e-02,
          1.63934417e-02, 3.27868834e-02 ]
      - [ 6.12244848e-03, 0., 3.87755074e-02, 1.02040814e-02,
          3.46938744e-02, 1.83673464e-02, 1.22448970e-02, 2.04081624e-03,
          1.63265299e-02, 2.04081628e-02, 1.02040814e-02, 8.16326495e-03,
          1.42857134e-02, 5.91836721e-02, 1.42857134e-02, 2.85714269e-02,
          5.71428537e-02, 3.06122433e-02, 1.83673464e-02, 8.16326495e-03,
          1.42857134e-02, 3.06122433e-02, 2.24489793e-02, 3.06122433e-02,
          1.63265299e-02, 2.44897939e-02, 6.12244848e-03, 2.65306104e-02,
          1.83673464e-02, 2.24489793e-02, 1.83673464e-02, 2.85714269e-02,
          4.69387732e-02, 0., 6.12244848e-03, 4.08163248e-03,
          1.83673464e-02, 6.12244848e-03, 2.04081628e-02, 5.91836721e-02,
          1.02040814e-02, 0., 2.04081628e-02, 3.26530598e-02,
          3.06122433e-02, 1.63265299e-02, 4.08163248e-03, 3.26530598e-02,
          1.42857134e-02, 1.02040814e-02 ]
      - [ 1.21028740e-02, 2.26928890e-02, 1.96671709e-02, 3.02571850e-03,
          1.81543119e-02, 8.01815391e-02, 1.51285920e-02, 2.57186070e-02,
          9.07715596e-03, 1.96671709e-02, 3.32829021e-02, 2.26928890e-02,
          9.07715596e-03, 1.05900150e-02, 9.07715596e-03, 1.66414510e-02,
          1.81543119e-02, 2.26928890e-02, 7.56429601e-03, 1.51285920e-02,
          1.36157330e-02, 3.02571850e-03, 1.36157330e-02, 2.57186070e-02,
          5.44629321e-02, 6.05143700e-03, 9.07715596e-03, 3.02571841e-02,
          1.81543119e-02, 1.66414510e-02, 1.66414510e-02, 1.36157330e-02,
          2.57186070e-02, 6.05143700e-03, 5.44629321e-02, 5.74886501e-02,
          1.51285920e-02, 4.53857798e-03, 1.66414510e-02, 3.02571841e-02,
          3.02571850e-03, 1.51285925e-03, 1.96671709e-02, 2.11800300e-02,
          1.05900150e-02, 1.36157330e-02, 6.95915222e-02, 1.81543119e-02,
          1.05900150e-02, 1.05900150e-02 ]
      - [ 2.57731955e-02, 1.18556701e-01, 0., 5.15463902e-03,
          5.15463902e-03, 2.06185561e-02, 5.15463902e-03, 0., 0.,
          1.54639166e-02, 5.15463902e-03, 5.15463902e-03, 9.79381427e-02,
          5.15463902e-03, 2.57731955e-02, 1.03092780e-02, 1.03092780e-02,
          0., 1.54639166e-02, 1.03092780e-02, 4.12371121e-02,
          5.15463902e-03, 0., 5.15463902e-03, 5.15463902e-03,
          3.09278332e-02, 2.06185561e-02, 6.18556663e-02, 5.15463902e-03,
          1.54639166e-02, 0., 1.03092780e-02, 5.15463902e-03,
          2.57731955e-02, 5.15463902e-03, 6.70103058e-02, 1.03092780e-02,
          2.06185561e-02, 5.15463902e-03, 3.60824727e-02, 0.,
          1.03092780e-02, 1.54639166e-02, 2.57731955e-02, 1.08247422e-01,
          2.06185561e-02, 1.54639166e-02, 5.15463902e-03, 2.57731955e-02,
          1.54639166e-02 ]
      - [ 3.28947380e-02, 5.92105277e-02, 0., 6.57894742e-03,
          6.57894742e-03, 1.97368413e-02, 9.86842141e-02, 3.28947380e-02,
          6.57894742e-03, 4.60526310e-02, 0., 1.97368413e-02,
          1.18421055e-01, 0., 1.31578948e-02, 0., 0., 0., 2.63157897e-02,
          6.57894742e-03, 2.63157897e-02, 0., 1.31578948e-02,
          1.31578948e-02, 1.97368413e-02, 0., 6.57894742e-03,
          5.92105277e-02, 0., 6.57894742e-03, 6.57894742e-03,
          1.31578948e-02, 6.57894742e-03, 1.97368413e-02, 1.31578948e-02,
          1.31578948e-02, 0., 6.57894742e-03, 6.57894742e-03,
          1.97368413e-02, 0., 1.31578948e-02, 1.97368413e-02, 0.,
          9.86842141e-02, 2.63157897e-02, 6.57894742e-03, 5.26315793e-02,
          1.97368413e-02, 1.97368413e-02 ]
      - [ 2.47933865e-02, 3.30578499e-02, 8.26446246e-03, 0.,
          8.26446246e-03, 1.23966940e-01, 0., 8.26446246e-03, 0.,
          8.26446246e-03, 0., 0., 2.47933865e-02, 8.26446246e-03,
          3.30578499e-02, 4.13223132e-02, 4.95867729e-02, 3.30578499e-02,
          4.13223132e-02, 2.47933865e-02, 3.30578499e-02, 2.47933865e-02,
          8.26446246e-03, 4.13223132e-02, 2.47933865e-02, 8.26446246e-03,
          8.26446246e-03, 0., 8.26446246e-03, 8.26446246e-03,
          3.30578499e-02, 8.26446246e-03, 8.26446246e-03, 0., 0.,
          4.13223132e-02, 8.26446246e-03, 8.26446246e-03, 2.47933865e-02,
          1.65289249e-02, 1.65289249e-02, 0., 1.65289249e-02, 0.,
          6.61156997e-02, 3.30578499e-02, 1.65289249e-02, 4.13223132e-02,
          2.47933865e-02, 0. ]
      - [ 2.64705885e-02, 8.82352982e-03, 5.88235306e-03, 0.,
          2.35294122e-02, 8.52941200e-02, 1.76470596e-02, 2.05882359e-02,
          0., 1.47058824e-02, 2.35294122e-02, 1.76470596e-02,
          5.88235306e-03, 1.76470596e-02, 8.82352982e-03, 8.82352982e-03,
          2.94117648e-02, 2.05882359e-02, 5.88235306e-03, 1.76470596e-02,
          2.05882359e-02, 0., 2.05882359e-02, 1.17647061e-02,
          1.76470596e-02, 5.88235306e-03, 2.94117653e-03, 2.35294122e-02,
          1.17647061e-02, 2.35294122e-02, 1.47058824e-02, 5.88235306e-03,
          8.82352982e-03, 2.94117653e-03, 1.76470596e-02, 1.44117653e-01,
          2.35294122e-02, 2.94117648e-02, 1.47058824e-02, 3.23529430e-02,
          2.64705885e-02, 5.88235306e-03, 2.94117653e-03, 3.23529430e-02,
          1.76470596e-02, 2.35294122e-02, 4.70588244e-02, 2.64705885e-02,
          1.76470596e-02, 8.82352982e-03 ]
      - [ 1.40845068e-02, 7.04225339e-03, 4.22535203e-02, 1.40845068e-02,
          2.11267602e-02, 1.40845068e-02, 4.22535203e-02, 2.81690136e-02,
          1.40845068e-02, 0., 2.81690136e-02, 2.11267602e-02,
          2.11267602e-02, 1.40845068e-02, 1.40845068e-02, 1.40845068e-02,
          7.74647892e-02, 2.81690136e-02, 1.40845068e-02, 2.11267602e-02,
          2.11267602e-02, 0., 0., 0., 2.11267602e-02, 7.04225339e-03,
          4.92957756e-02, 0., 0., 4.22535203e-02, 2.81690136e-02,
          7.04225339e-03, 2.11267602e-02, 0., 4.22535203e-02,
          4.22535203e-02, 6.33802786e-02, 7.04225339e-03, 1.40845068e-02,
          2.11267602e-02, 7.04225339e-03, 7.04225339e-03, 1.40845068e-02,
          5.63380271e-02, 7.04225339e-03, 7.04225339e-03, 1.40845068e-02,
          0., 7.04225339e-03, 4.22535203e-02 ]
      - [ 7.06214691e-03, 8.47457629e-03, 2.40112990e-02, 1.12994350e-02,
          2.96610165e-02, 5.64971752e-03, 2.96610165e-02, 5.64971752e-02,
          2.54237279e-02, 1.83615815e-02, 2.96610165e-02, 2.82485876e-02,
          1.27118640e-02, 3.38983051e-02, 7.06214691e-03, 1.69491526e-02,
          4.94350269e-02, 4.66101691e-02, 1.41242938e-02, 4.23728814e-03,
          1.83615815e-02, 1.55367237e-02, 9.88700613e-03, 1.55367237e-02,
          1.69491526e-02, 3.53107341e-02, 1.41242938e-02, 1.41242938e-02,
          3.10734473e-02, 3.38983051e-02, 5.64971752e-03, 2.68361587e-02,
          4.37853113e-02, 2.82485876e-03, 2.54237279e-02, 7.06214691e-03,
          1.83615815e-02, 5.64971752e-03, 2.68361587e-02, 2.54237279e-02,
          5.64971752e-03, 1.69491526e-02, 1.41242938e-02, 1.27118640e-02,
          3.38983051e-02, 8.47457629e-03, 1.12994350e-02, 2.11864412e-02,
          5.64971752e-03, 1.83615815e-02 ]
      - [ 8.90868623e-03, 1.33630298e-02, 3.56347449e-02, 1.78173725e-02,
          3.56347449e-02, 6.68151490e-03, 2.44988874e-02, 3.11804023e-02,
          2.44988874e-02, 8.90868623e-03, 1.33630298e-02, 1.55902011e-02,
          1.55902011e-02, 1.55902011e-02, 1.78173725e-02, 2.89532300e-02,
          2.44988874e-02, 3.11804023e-02, 2.44988874e-02, 1.33630298e-02,
          6.68151490e-03, 2.00445447e-02, 6.68151490e-03, 1.55902011e-02,
          4.45434311e-03, 2.00445447e-02, 1.55902011e-02, 3.11804023e-02,
          2.89532300e-02, 2.67260596e-02, 4.00890894e-02, 2.00445447e-02,
          1.55902011e-02, 2.22717156e-03, 3.11804023e-02, 2.00445447e-02,
          2.67260596e-02, 6.68151490e-03, 2.89532300e-02, 2.89532300e-02,
          8.90868623e-03, 2.22717156e-03, 2.67260596e-02, 2.00445447e-02,
          4.00890894e-02, 2.22717151e-02, 1.33630298e-02, 1.78173725e-02,
          1.33630298e-02, 3.11804023e-02 ]
      - [ 2.54777074e-02, 3.18471342e-02, 2.54777074e-02, 3.18471342e-03,
          1.27388537e-02, 2.54777074e-02, 9.55414027e-03, 9.55414027e-03,
          9.55414027e-03, 1.59235671e-02, 3.18471342e-03, 3.18471342e-03,
          1.08280256e-01, 0., 2.86624208e-02, 1.91082805e-02,
          6.36942685e-03, 2.54777074e-02, 1.59235671e-02, 0.,
          2.86624208e-02, 0., 1.27388537e-02, 6.36942685e-03,
          6.36942685e-03, 0., 3.50318477e-02, 5.41401282e-02,
          2.86624208e-02, 9.55414027e-03, 3.18471342e-03, 1.59235671e-02,
          1.91082805e-02, 0., 1.59235671e-02, 4.77707013e-02,
          6.36942685e-03, 3.18471342e-03, 2.54777074e-02, 3.18471342e-03,
          3.18471342e-03, 0., 6.36942685e-03, 1.59235671e-02,
          1.43312097e-01, 1.59235671e-02, 3.50318477e-02, 9.55414027e-03,
          2.86624208e-02, 4.14012745e-02 ]
      - [ 0., 1.18644066e-01, 5.64971752e-03, 2.25988701e-02,
          2.82485876e-02, 5.64971752e-03, 3.95480245e-02, 2.82485876e-02,
          3.38983051e-02, 1.69491526e-02, 1.12994350e-02, 1.12994350e-02,
          0., 3.95480245e-02, 3.38983051e-02, 0., 3.95480245e-02,
          2.82485876e-02, 0., 0., 0., 2.25988701e-02, 1.69491526e-02,
          5.64971752e-03, 0., 2.25988701e-02, 1.12994350e-02,
          1.12994350e-02, 0., 3.38983051e-02, 3.38983051e-02,
          5.64971752e-03, 3.95480245e-02, 0., 1.12994350e-02,
          5.64971752e-03, 6.21468946e-02, 0., 1.69491526e-02,
          2.25988701e-02, 0., 5.64971752e-03, 5.64971752e-03,
          7.90960491e-02, 2.82485876e-02, 2.25988701e-02, 2.82485876e-02,
          1.69491526e-02, 0., 2.82485876e-02 ]
      - [ 9.17431153e-03, 6.42201826e-02, 1.37614673e-02, 1.83486231e-02,
          2.75229346e-02, 9.17431153e-03, 4.58715558e-02, 2.29357779e-02,
          2.29357779e-02, 4.58715577e-03, 1.83486231e-02, 3.21100913e-02,
          1.37614673e-02, 4.58715558e-02, 9.17431153e-03, 3.21100913e-02,
          2.75229346e-02, 4.12844010e-02, 0., 9.17431153e-03, 0.,
          3.21100913e-02, 2.75229346e-02, 1.83486231e-02, 1.37614673e-02,
          2.29357779e-02, 2.75229346e-02, 1.83486231e-02, 0.,
          5.96330240e-02, 3.21100913e-02, 4.58715577e-03, 1.37614673e-02,
          0., 1.83486231e-02, 4.58715577e-03, 2.29357779e-02, 0.,
          4.58715558e-02, 1.83486231e-02, 0., 0., 4.58715577e-03,
          4.58715558e-02, 2.29357779e-02, 9.17431153e-03, 1.37614673e-02,
          1.83486231e-02, 9.17431153e-03, 2.75229346e-02 ]
      - [ 1.70068033e-02, 0., 1.02040814e-02, 6.80272095e-03,
          6.80272095e-03, 1.66666657e-01, 6.80272095e-03, 0.,
          6.80272095e-03, 3.40136066e-02, 2.04081628e-02, 6.80272095e-03,
          1.02040814e-02, 2.04081628e-02, 1.02040814e-02, 1.70068033e-02,
          1.70068033e-02, 3.40136047e-03, 1.02040814e-02, 1.36054419e-02,
          1.36054419e-02, 4.76190448e-02, 1.02040814e-02, 2.04081628e-02,
          2.04081628e-02, 1.36054419e-02, 0., 3.40136066e-02,
          1.70068033e-02, 1.70068033e-02, 2.04081628e-02, 2.38095224e-02,
          2.38095224e-02, 1.70068033e-02, 1.36054419e-02, 8.50340128e-02,
          0., 6.80272095e-03, 1.70068033e-02, 5.10204062e-02,
          6.80272095e-03, 1.36054419e-02, 3.06122452e-02, 1.02040814e-02,
          3.40136047e-03, 1.36054419e-02, 4.42176871e-02, 2.72108838e-02,
          1.36054419e-02, 0. ]
      - [ 1.19047621e-02, 2.97619049e-02, 4.16666679e-02, 5.95238106e-03,
          1.19047621e-02, 2.38095243e-02, 2.97619049e-02, 2.97619049e-02,
          5.95238106e-03, 2.38095243e-02, 1.19047621e-02, 5.95238106e-03,
          6.54761940e-02, 1.19047621e-02, 1.19047621e-02, 1.78571437e-02,
          3.57142873e-02, 1.19047621e-02, 1.19047621e-02, 0.,
          4.16666679e-02, 0., 2.38095243e-02, 3.57142873e-02,
          2.38095243e-02, 5.95238106e-03, 0., 3.57142873e-02,
          5.95238106e-03, 1.19047621e-02, 3.57142873e-02, 1.19047621e-02,
          2.38095243e-02, 0., 2.97619049e-02, 5.95238106e-03,
          2.97619049e-02, 1.19047621e-02, 1.19047621e-02, 2.38095243e-02,
          5.95238106e-03, 5.95238106e-03, 1.78571437e-02, 5.95238106e-03,
          1.01190478e-01, 2.38095243e-02, 1.19047621e-02, 1.19047621e-02,
          2.38095243e-02, 2.38095243e-02 ]
      - [ 2.05278583e-02, 2.34604105e-02, 3.22580636e-02, 8.79765395e-03,
          8.79765395e-03, 6.15835786e-02, 8.79765395e-03, 1.46627566e-02,
          1.46627566e-02, 1.46627566e-02, 1.17302053e-02, 0.,
          3.81231681e-02, 2.93255132e-03, 2.63929628e-02, 8.79765395e-03,
          1.75953079e-02, 1.75953079e-02, 1.75953079e-02, 8.79765395e-03,
          2.93255132e-02, 0., 1.75953079e-02, 4.39882688e-02,
          1.17302053e-02, 2.93255132e-03, 1.46627566e-02, 3.81231681e-02,
          1.75953079e-02, 8.79765395e-03, 1.46627566e-02, 3.81231681e-02,
          2.63929628e-02, 8.79765395e-03, 2.93255132e-03, 1.05571851e-01,
          2.93255132e-03, 1.17302053e-02, 5.86510263e-03, 2.93255132e-02,
          1.17302053e-02, 0., 2.05278583e-02, 2.93255132e-03,
          3.22580636e-02, 3.81231681e-02, 2.34604105e-02, 8.79765395e-03,
          4.69208211e-02, 2.63929628e-02 ]
      - [ 0., 1.11940298e-02, 1.86567158e-02, 0., 4.47761193e-02,
          2.98507456e-02, 1.11940298e-02, 2.61194017e-02, 3.73134320e-03,
          7.46268639e-03, 2.23880596e-02, 3.73134320e-03, 3.73134320e-03,
          2.53731340e-01, 7.46268639e-03, 1.86567158e-02, 1.04477607e-01,
          4.10447754e-02, 0., 7.46268639e-03, 3.73134320e-03,
          2.98507456e-02, 7.46268639e-03, 7.46268639e-03, 0.,
          7.83582106e-02, 1.49253728e-02, 3.73134320e-03, 3.73134320e-03,
          5.97014911e-02, 0., 3.73134320e-03, 2.98507456e-02,
          3.73134320e-03, 3.73134320e-03, 1.49253728e-02, 3.73134315e-02,
          3.73134320e-03, 1.11940298e-02, 2.23880596e-02, 0., 0.,
          7.46268639e-03, 0., 0., 3.73134320e-03, 7.46268639e-03,
          3.73134320e-03, 3.73134320e-03, 1.86567158e-02 ]
      - [ 1.59453303e-02, 1.13895219e-02, 1.59453303e-02, 1.13895219e-02,
          2.05011405e-02, 2.73348540e-02, 3.64464708e-02, 1.82232354e-02,
          6.83371350e-03, 2.05011405e-02, 2.96127573e-02, 1.59453303e-02,
          3.18906605e-02, 1.59453303e-02, 9.11161769e-03, 1.36674270e-02,
          2.27790438e-02, 3.87243740e-02, 1.82232354e-02, 2.05011405e-02,
          0., 2.27790438e-02, 2.27790438e-02, 2.50569489e-02,
          4.32801843e-02, 4.55580885e-03, 2.05011405e-02, 3.87243740e-02,
          1.82232354e-02, 2.27790438e-02, 9.11161769e-03, 3.87243740e-02,
          1.82232354e-02, 4.55580885e-03, 1.36674270e-02, 2.73348540e-02,
          1.36674270e-02, 9.11161769e-03, 2.96127573e-02, 1.59453303e-02,
          9.11161769e-03, 2.27790442e-03, 3.18906605e-02, 2.50569489e-02,
          2.73348540e-02, 1.36674270e-02, 3.87243740e-02, 1.13895219e-02,
          1.36674270e-02, 2.73348540e-02 ]
      - [ 1.89573467e-02, 1.89573467e-02, 4.73933667e-03, 0.,
          4.73933667e-03, 6.63507134e-02, 2.84360200e-02, 4.73933667e-03,
          0., 7.10900500e-02, 4.73933667e-03, 0., 7.58293867e-02,
          1.42180100e-02, 2.36966833e-02, 4.73933667e-03, 2.36966833e-02,
          0., 3.31753567e-02, 4.73933667e-03, 1.42180100e-02, 0.,
          2.36966833e-02, 2.36966833e-02, 0., 4.73933667e-03,
          9.47867334e-03, 7.58293867e-02, 1.89573467e-02, 4.73933667e-03,
          9.47867334e-03, 3.31753567e-02, 1.42180100e-02, 4.73933667e-03,
          4.73933667e-03, 7.10900500e-02, 9.47867334e-03, 4.73933667e-03,
          0., 4.26540300e-02, 1.42180100e-02, 0., 2.84360200e-02, 0.,
          6.63507134e-02, 1.89573467e-02, 2.84360200e-02, 1.42180100e-02,
          4.26540300e-02, 1.42180100e-02 ]
      - [ 2.10526325e-02, 1.05263162e-02, 3.15789506e-02, 2.10526325e-02,
          1.05263162e-02, 1.05263162e-02, 1.05263162e-02, 4.21052650e-02,
          0., 2.10526325e-02, 2.10526325e-02, 2.10526325e-02,
          1.26315802e-01, 2.10526325e-02, 2.10526325e-02, 1.05263162e-02,
          2.10526325e-02, 1.05263162e-02, 2.10526325e-02, 0.,
          1.05263162e-02, 0., 0., 0., 0., 0., 3.15789506e-02,
          7.36842155e-02, 0., 0., 2.10526325e-02, 0., 1.05263162e-02, 0.,
          0., 1.05263162e-02, 1.05263162e-02, 1.05263162e-02,
          2.10526325e-02, 1.05263162e-02, 1.05263162e-02, 0., 0.,
          2.10526325e-02, 1.68421060e-01, 3.15789506e-02, 1.05263162e-02,
          4.21052650e-02, 0., 5.26315793e-02 ]
      - [ 1.19047621e-02, 5.95238106e-03, 1.19047621e-02, 0.,
          5.95238106e-03, 1.42857149e-01, 0., 5.95238106e-03, 0.,
          2.38095243e-02, 5.95238106e-03, 5.95238106e-03, 5.95238097e-02,
          6.54761940e-02, 3.57142873e-02, 5.95238106e-03, 5.95238106e-03,
          2.38095243e-02, 1.78571437e-02, 1.19047621e-02, 7.73809552e-02,
          0., 0., 2.38095243e-02, 0., 5.95238106e-03, 0., 3.57142873e-02,
          5.95238106e-03, 0., 1.19047621e-02, 1.78571437e-02,
          5.95238106e-03, 0., 5.95238106e-03, 1.96428582e-01, 0., 0., 0.,
          4.16666679e-02, 0., 0., 1.19047621e-02, 5.95238106e-03,
          3.57142873e-02, 2.97619049e-02, 5.95238106e-03, 1.19047621e-02,
          1.19047621e-02, 1.19047621e-02 ]
      - [ 1.92307699e-02, 5.12820520e-02, 5.12820520e-02, 5.12820520e-02,
          4.48717959e-02, 6.41025649e-03, 1.28205130e-02, 0.,
          4.48717959e-02, 6.41025649e-03, 0., 0., 7.05128238e-02,
          3.20512839e-02, 1.92307699e-02, 6.41025649e-03, 3.20512839e-02,
          1.28205130e-02, 6.41025649e-03, 0., 0., 3.20512839e-02,
          6.41025649e-03, 6.41025649e-03, 0., 1.28205130e-02,
          3.84615399e-02, 1.92307699e-02, 1.92307699e-02, 8.97435918e-02,
          2.56410260e-02, 6.41025649e-03, 1.28205130e-02, 0., 0.,
          6.41025649e-03, 6.41025677e-02, 6.41025649e-03, 1.92307699e-02,
          1.28205130e-02, 6.41025649e-03, 0., 6.41025649e-03,
          1.28205130e-02, 7.69230798e-02, 6.41025649e-03, 0.,
          6.41025649e-03, 1.28205130e-02, 2.56410260e-02 ]
      - [ 3.00751887e-02, 5.26315793e-02, 0., 1.50375944e-02,
          2.25563906e-02, 1.50375944e-02, 3.00751887e-02, 7.51879718e-03,
          2.25563906e-02, 7.51879718e-03, 0., 1.50375944e-02,
          3.75939868e-02, 6.76691756e-02, 1.50375944e-02, 7.51879718e-03,
          2.25563906e-02, 3.00751887e-02, 2.25563906e-02, 1.50375944e-02,
          0., 7.51879718e-03, 0., 3.00751887e-02, 0., 3.00751887e-02,
          3.00751887e-02, 1.50375944e-02, 0., 6.76691756e-02, 0.,
          7.51879718e-03, 4.51127812e-02, 0., 7.51879718e-03,
          1.50375944e-02, 3.00751887e-02, 1.50375944e-02, 1.50375944e-02,
          7.51879718e-03, 2.25563906e-02, 0., 0., 2.25563906e-02,
          9.77443606e-02, 1.50375944e-02, 7.51879718e-03, 0.,
          4.51127812e-02, 3.00751887e-02 ]
      - [ 4.68750000e-02, 6.25000000e-02, 0., 0., 2.34375000e-02, 0.,
          2.34375000e-02, 7.81250000e-03, 0., 7.81250000e-03,
          7.81250000e-03, 7.81250000e-03, 7.81250000e-02, 1.56250000e-02,
          2.34375000e-02, 7.81250000e-03, 0., 1.56250000e-02,
          2.34375000e-02, 2.34375000e-02, 2.34375000e-02, 0.,
          1.56250000e-02, 3.12500000e-02, 1.56250000e-02, 7.81250000e-03,
          0., 4.68750000e-02, 7.81250000e-03, 3.12500000e-02,
          1.56250000e-02, 2.34375000e-02, 2.34375000e-02, 0.,
          7.81250000e-03, 7.81250000e-03, 7.81250000e-03, 7.81250000e-03,
          7.81250000e-03, 2.34375000e-02, 1.56250000e-02, 0.,
          1.56250000e-02, 1.56250000e-02, 1.48437500e-01, 1.56250000e-02,
          3.90625000e-02, 2.34375000e-02, 2.34375000e-02, 2.34375000e-02 ]
      - [ 2.87769791e-02, 5.75539581e-02, 7.19424477e-03, 0.,
          7.19424477e-03, 0., 2.15827338e-02, 7.19424477e-03, 0.,
          7.19424477e-03, 7.19424477e-03, 0., 5.03597148e-02,
          7.19424477e-03, 3.59712243e-02, 1.43884895e-02, 5.03597148e-02,
          1.43884895e-02, 2.87769791e-02, 0., 4.31654677e-02, 0., 0.,
          2.15827338e-02, 7.19424477e-03, 0., 2.15827338e-02,
          1.07913673e-01, 0., 2.15827338e-02, 0., 1.43884895e-02,
          1.43884895e-02, 0., 7.19424477e-03, 3.59712243e-02,
          4.31654677e-02, 0., 0., 2.87769791e-02, 0., 1.43884895e-02,
          7.19424477e-03, 2.15827338e-02, 1.15107916e-01, 2.15827338e-02,
          5.75539581e-02, 1.43884895e-02, 2.87769791e-02, 7.19424477e-03 ]
      - [ 3.86100379e-03, 1.93050187e-02, 1.93050187e-02, 3.86100379e-03,
          0., 1.93050187e-02, 3.86100379e-03, 1.54440152e-02,
          3.86100379e-03, 3.86100379e-03, 2.31660232e-02, 7.72200758e-03,
          8.49420801e-02, 3.08880303e-02, 7.72200758e-03, 1.15830116e-02,
          5.79150580e-02, 2.70270258e-02, 3.86100379e-03, 1.54440152e-02,
          2.31660232e-02, 7.72200758e-03, 3.86100379e-03, 2.70270258e-02,
          0., 1.93050187e-02, 1.93050187e-02, 2.31660232e-02,
          1.54440152e-02, 1.93050187e-02, 3.08880303e-02, 1.93050187e-02,
          2.31660232e-02, 7.72200758e-03, 3.86100374e-02, 1.54440152e-02,
          3.47490348e-02, 1.54440152e-02, 2.31660232e-02, 3.86100374e-02,
          1.15830116e-02, 0., 1.54440152e-02, 7.72200758e-03,
          1.00386098e-01, 3.86100374e-02, 1.54440152e-02, 1.54440152e-02,
          3.86100379e-03, 2.31660232e-02 ]
      - [ 5.33333346e-02, 5.33333346e-02, 0., 6.66666683e-03,
          6.66666683e-03, 8.66666660e-02, 0., 0., 0., 6.66666683e-03, 0.,
          0., 6.00000024e-02, 0., 0., 6.66666683e-03, 0., 6.66666683e-03,
          4.66666669e-02, 2.66666673e-02, 3.33333351e-02, 0.,
          3.33333351e-02, 1.99999996e-02, 1.99999996e-02, 0.,
          6.66666683e-03, 3.99999991e-02, 1.99999996e-02, 0.,
          2.66666673e-02, 2.66666673e-02, 1.33333337e-02, 1.99999996e-02,
          1.99999996e-02, 6.00000024e-02, 0., 1.33333337e-02,
          6.66666683e-03, 2.66666673e-02, 1.99999996e-02, 0., 0.,
          6.66666683e-03, 1.46666676e-01, 6.66666683e-03, 1.33333337e-02,
          1.33333337e-02, 4.66666669e-02, 0. ]
      - [ 2.63157897e-02, 6.57894760e-02, 1.31578948e-02, 0.,
          6.57894742e-03, 7.23684207e-02, 1.31578948e-02, 2.63157897e-02,
          0., 1.97368413e-02, 0., 3.94736826e-02, 1.31578952e-01, 0., 0.,
          6.57894742e-03, 6.57894742e-03, 0., 2.63157897e-02,
          6.57894742e-03, 1.31578948e-02, 0., 2.63157897e-02,
          2.63157897e-02, 6.57894742e-03, 0., 0., 6.57894760e-02, 0.,
          1.31578948e-02, 1.31578948e-02, 1.31578948e-02, 0.,
          1.31578948e-02, 2.63157897e-02, 3.94736826e-02, 3.94736826e-02,
          1.31578948e-02, 1.31578948e-02, 6.57894742e-03, 1.31578948e-02,
          0., 0., 1.97368413e-02, 1.44736841e-01, 6.57894742e-03,
          1.31578948e-02, 6.57894742e-03, 6.57894742e-03, 0. ]
      - [ 1.80412363e-02, 2.57731951e-03, 2.57731955e-02, 7.73195829e-03,
          1.54639166e-02, 0., 5.92783503e-02, 5.15463902e-03,
          2.83505153e-02, 7.73195829e-03, 3.86597924e-02, 2.83505153e-02,
          1.54639166e-02, 6.18556663e-02, 5.15463902e-03, 2.06185561e-02,
          2.57731955e-02, 2.06185561e-02, 1.28865978e-02, 7.73195829e-03,
          2.06185561e-02, 1.03092780e-02, 1.03092780e-02, 1.80412363e-02,
          2.57731955e-02, 6.44329861e-02, 0., 1.54639166e-02,
          7.73195829e-03, 2.31958758e-02, 1.03092780e-02, 7.73195829e-03,
          1.80412363e-02, 1.80412363e-02, 5.67010306e-02, 0.,
          2.31958758e-02, 0., 2.57731955e-02, 2.83505153e-02, 0.,
          1.80412363e-02, 1.54639166e-02, 3.09278332e-02, 4.38144319e-02,
          7.73195829e-03, 5.92783503e-02, 1.80412363e-02, 0.,
          1.54639166e-02 ]
      - [ 6.77966094e-03, 6.77966094e-03, 2.37288140e-02, 1.01694912e-02,
          1.35593219e-02, 1.01694912e-02, 6.44067824e-02, 2.37288140e-02,
          2.37288140e-02, 1.35593219e-02, 4.06779647e-02, 1.69491526e-02,
          6.77966094e-03, 4.74576280e-02, 6.77966094e-03, 3.05084735e-02,
          1.05084747e-01, 5.42372875e-02, 1.69491526e-02, 3.38983047e-03,
          6.77966094e-03, 1.35593219e-02, 1.35593219e-02, 1.35593219e-02,
          1.35593219e-02, 5.76271191e-02, 1.35593219e-02, 1.35593219e-02,
          0., 6.10169470e-02, 6.77966094e-03, 2.03389823e-02,
          3.05084735e-02, 6.77966094e-03, 6.77966094e-03, 3.38983047e-03,
          2.71186437e-02, 1.35593219e-02, 3.72881368e-02, 1.35593219e-02,
          6.77966094e-03, 6.77966094e-03, 1.01694912e-02, 2.03389823e-02,
          1.01694912e-02, 3.38983047e-03, 6.77966094e-03, 1.35593219e-02,
          0., 2.37288140e-02 ]
      - [ 5.58659201e-03, 5.58659211e-02, 1.11731840e-02, 5.58659201e-03,
          1.11731840e-02, 6.14525117e-02, 0., 1.67597756e-02,
          1.67597756e-02, 1.67597756e-02, 5.58659201e-03, 4.46927361e-02,
          7.26256967e-02, 0., 1.67597756e-02, 1.11731840e-02,
          1.67597756e-02, 0., 1.67597756e-02, 5.58659201e-03,
          2.23463681e-02, 1.11731840e-02, 1.11731840e-02, 3.91061455e-02,
          5.58659201e-03, 1.11731840e-02, 1.11731840e-02, 4.46927361e-02,
          5.58659201e-03, 4.46927361e-02, 1.11731840e-02, 1.11731840e-02,
          5.58659201e-03, 1.67597756e-02, 2.79329605e-02, 6.14525117e-02,
          1.11731840e-02, 5.58659201e-03, 2.23463681e-02, 1.67597756e-02,
          0., 0., 2.23463681e-02, 5.02793267e-02, 6.70391023e-02,
          2.23463681e-02, 2.23463681e-02, 1.11731840e-02, 5.58659201e-03,
          1.11731840e-02 ]
      - [ 5.88235306e-03, 4.70588244e-02, 5.88235306e-03, 5.88235306e-03,
          5.88235306e-03, 4.70588244e-02, 2.94117648e-02, 5.88235306e-03,
          1.76470596e-02, 2.35294122e-02, 0., 5.29411770e-02,
          9.41176489e-02, 0., 5.88235306e-03, 5.88235306e-03,
          1.76470596e-02, 5.88235306e-03, 3.52941193e-02, 0.,
          5.88235306e-03, 1.17647061e-02, 1.17647061e-02, 3.52941193e-02,
          5.88235306e-03, 1.17647061e-02, 5.88235306e-03, 4.70588244e-02,
          1.76470596e-02, 2.94117648e-02, 1.76470596e-02, 2.35294122e-02,
          1.17647061e-02, 5.88235306e-03, 1.17647061e-02, 7.05882385e-02,
          2.94117648e-02, 5.88235306e-03, 1.17647061e-02, 5.88235306e-03,
          5.88235306e-03, 0., 1.76470596e-02, 3.52941193e-02,
          7.64705911e-02, 1.76470596e-02, 2.35294122e-02, 1.76470596e-02,
          5.88235306e-03, 1.17647061e-02 ]
      - [ 5.26315793e-02, 1.46198839e-01, 5.84795326e-03, 5.84795326e-03,
          0., 2.92397663e-02, 6.43274859e-02, 0., 1.75438598e-02, 0.,
          2.92397663e-02, 5.84795326e-03, 9.94152054e-02, 5.84795326e-03,
          1.16959065e-02, 1.16959065e-02, 5.84795326e-03, 1.75438598e-02,
          4.09356728e-02, 1.16959065e-02, 0., 0., 1.75438598e-02,
          5.84795326e-03, 1.16959065e-02, 5.84795326e-03, 0.,
          4.67836261e-02, 5.84795326e-03, 1.16959065e-02, 5.84795326e-03,
          1.16959065e-02, 5.84795326e-03, 5.84795326e-03, 5.84795326e-03,
          3.50877196e-02, 1.16959065e-02, 5.84795326e-03, 1.16959065e-02,
          1.16959065e-02, 5.84795326e-03, 0., 5.84795326e-03, 0.,
          1.22807018e-01, 1.75438598e-02, 4.67836261e-02, 0.,
          1.75438598e-02, 5.84795326e-03 ]
      - [ 3.73831764e-02, 3.73831764e-02, 0., 0., 0., 8.41121450e-02, 0.,
          9.34579410e-03, 0., 0., 1.86915882e-02, 1.86915882e-02,
          6.54205605e-02, 0., 9.34579410e-03, 9.34579410e-03, 0., 0.,
          3.73831764e-02, 0., 5.60747646e-02, 0., 2.80373823e-02,
          2.80373823e-02, 0., 0., 0., 1.86915882e-02, 0., 9.34579410e-03,
          1.86915882e-02, 1.86915882e-02, 0., 2.80373823e-02,
          9.34579410e-03, 1.40186906e-01, 2.80373823e-02, 2.80373823e-02,
          1.86915882e-02, 0., 1.86915882e-02, 0., 9.34579410e-03, 0.,
          1.86915882e-02, 0., 2.80373823e-02, 0., 1.49532706e-01,
          1.86915882e-02 ]
      - [ 1.09289614e-02, 6.01092875e-02, 3.27868834e-02, 0.,
          2.73224041e-02, 1.42076492e-01, 5.46448072e-03, 0.,
          1.09289614e-02, 1.09289614e-02, 5.46448072e-03, 1.63934417e-02,
          3.27868834e-02, 5.46448072e-03, 1.09289614e-02, 5.46448072e-03,
          1.09289614e-02, 5.46448072e-03, 2.73224041e-02, 2.18579229e-02,
          5.46448072e-03, 5.46448072e-03, 0., 2.18579229e-02,
          1.63934417e-02, 5.46448072e-03, 2.73224041e-02, 6.01092875e-02,
          0., 1.63934417e-02, 1.63934417e-02, 5.46448072e-03,
          1.63934417e-02, 2.73224041e-02, 5.46448072e-03, 8.74316916e-02,
          0., 1.09289614e-02, 1.63934417e-02, 1.63934417e-02, 0., 0.,
          1.09289614e-02, 2.18579229e-02, 7.65027329e-02, 1.63934417e-02,
          1.63934417e-02, 5.46448072e-03, 2.18579229e-02, 2.73224041e-02 ]
      - [ 1.38632162e-02, 1.29390024e-02, 1.47874309e-02, 5.54528646e-03,
          1.94085035e-02, 8.41035098e-02, 7.39371544e-03, 4.62107221e-03,
          4.62107221e-03, 3.78927924e-02, 1.75600741e-02, 3.69685772e-03,
          3.60443629e-02, 3.97412218e-02, 1.66358594e-02, 3.69685772e-03,
          1.20147876e-02, 9.24214441e-03, 1.29390024e-02, 2.31053606e-02,
          1.20147876e-02, 2.58780047e-02, 5.54528646e-03, 6.46950118e-03,
          1.29390024e-02, 1.75600741e-02, 4.62107221e-03, 1.10905729e-02,
          3.69685772e-03, 2.49537900e-02, 2.12569311e-02, 1.10905729e-02,
          2.49537900e-02, 2.95748618e-02, 6.46950118e-03, 1.26617372e-01,
          3.69685777e-02, 2.77264323e-03, 2.77264323e-03, 3.97412218e-02,
          3.69685772e-03, 1.20147876e-02, 9.24214441e-03, 2.86506470e-02,
          2.49537900e-02, 3.51201482e-02, 9.24214441e-03, 3.60443629e-02,
          2.03327183e-02, 1.38632162e-02 ]
      - [ 1.36363637e-02, 1.59090906e-02, 2.15909090e-02, 7.95454532e-03,
          2.27272715e-02, 1.81818176e-02, 1.02272723e-02, 2.15909090e-02,
          7.95454532e-03, 2.72727273e-02, 1.02272723e-02, 1.24999993e-02,
          2.27272715e-02, 4.65909094e-02, 1.93181820e-02, 2.15909090e-02,
          3.40909064e-02, 2.27272715e-02, 2.15909090e-02, 1.24999993e-02,
          1.13636358e-02, 2.38636360e-02, 1.59090906e-02, 1.93181820e-02,
          1.13636358e-02, 1.93181820e-02, 1.93181820e-02, 1.36363637e-02,
          1.93181820e-02, 3.40909064e-02, 1.81818176e-02, 2.04545446e-02,
          2.84090899e-02, 3.40909092e-03, 1.24999993e-02, 2.95454543e-02,
          1.93181820e-02, 6.81818184e-03, 2.84090899e-02, 3.40909064e-02,
          9.09090880e-03, 3.40909092e-03, 2.84090899e-02, 2.61363629e-02,
          4.43181805e-02, 1.93181820e-02, 1.70454532e-02, 3.97727266e-02,
          1.59090906e-02, 1.70454532e-02 ]
      - [ 4.44444455e-02, 1.33333337e-02, 4.44444455e-03, 1.77777782e-02,
          1.77777782e-02, 1.33333337e-02, 3.99999991e-02, 3.11111119e-02,
          2.66666673e-02, 4.44444455e-03, 1.33333337e-02, 1.33333337e-02,
          5.33333346e-02, 8.88888910e-03, 4.44444455e-03, 4.44444455e-03,
          3.99999991e-02, 8.88888910e-03, 3.55555564e-02, 4.44444455e-03,
          1.77777782e-02, 0., 8.88888910e-03, 1.33333337e-02,
          8.88888910e-03, 8.88888910e-03, 2.22222228e-02, 1.33333340e-01,
          0., 8.88888910e-03, 8.88888910e-03, 2.66666673e-02,
          8.88888910e-03, 2.66666673e-02, 1.77777782e-02, 1.77777782e-02,
          4.44444455e-03, 4.44444455e-03, 4.44444455e-03, 4.44444455e-03,
          8.88888910e-03, 8.88888910e-03, 3.11111119e-02, 0.,
          1.20000005e-01, 4.44444455e-03, 1.33333337e-02, 2.22222228e-02,
          2.22222228e-02, 2.22222228e-02 ]
      - [ 4.20420431e-02, 4.50450480e-02, 1.50150154e-02, 3.00300308e-03,
          9.00900923e-03, 0., 9.00900923e-03, 1.20120123e-02,
          6.00600615e-03, 6.00600615e-03, 2.10210215e-02, 2.40240246e-02,
          1.11111112e-01, 3.00300308e-03, 1.20120123e-02, 3.00300308e-03,
          3.30330357e-02, 1.80180185e-02, 2.70270277e-02, 6.00600615e-03,
          6.00600615e-03, 9.00900923e-03, 1.50150154e-02, 9.00900923e-03,
          2.40240246e-02, 2.10210215e-02, 2.40240246e-02, 2.10210215e-02,
          9.00900923e-03, 1.20120123e-02, 9.00900923e-03, 3.00300308e-03,
          3.00300308e-03, 3.00300308e-03, 3.00300308e-02, 3.00300308e-03,
          1.50150154e-02, 6.00600615e-03, 1.20120123e-02, 0.,
          6.00600615e-03, 1.80180185e-02, 6.00600615e-03, 6.00600615e-03,
          2.28228241e-01, 2.70270277e-02, 1.50150154e-02, 6.00600615e-03,
          3.30330357e-02, 1.50150154e-02 ]
   decision_functions:
      -
         sv_count: 1
         rho: -1.0004001098765987e+00
         alpha: [ 1. ]
         index: [ 0 ]
