%YAML:1.0
---
opencv_ml_svm:
   format: 3
   svmType: C_SVC
   kernel:
      type: LINEAR
   C: 6.2500000000000000e+01
   term_criteria: { iterations:100 }
   var_count: 100
   class_count: 2
   class_labels: !!opencv-matrix
      rows: 2
      cols: 1
      dt: i
      data: [ 0, 1 ]
   sv_total: 1
   support_vectors:
      - [ -3.85804486e+00, 2.16004610e+00, -3.47600913e+00,
          -1.90711826e-01, 2.29359913e+00, -3.95063925e+00,
          2.63947964e+00, -3.93792415e+00, -1.11321196e-01,
          -5.39277124e+00, -2.49939847e+00, 8.54507387e-01,
          8.94279957e-01, 1.71497810e+00, -1.85655534e+00,
          2.83970785e+00, -1.86709449e-01, 1.83941543e+00,
          -2.76917744e+00, -1.02720368e+00, -1.31351674e+00,
          2.35499573e+00, 4.90896082e+00, 2.93359661e+00,
          -2.85675168e+00, -3.20310086e-01, 3.13002110e+00,
          -1.85726142e+00, 2.26592636e+00, -7.54314327e+00,
          2.33944511e+00, 7.76048422e-01, -1.13948441e+00,
          -3.85422885e-01, 8.93893301e-01, -9.37362289e+00,
          -5.01815176e+00, -3.72052002e+00, 1.58140790e+00,
          -1.00964107e-01, -1.07631242e+00, 1.15425026e+00,
          -8.51752937e-01, -1.23804259e+00, -2.66814256e+00,
          1.28447282e+00, -1.01917565e+00, -3.68424988e+00,
          2.87967372e+00, -2.80325437e+00, -2.31403303e+00,
          2.80070257e+00, 1.49847186e+00, -1.83929533e-01,
          -5.11955798e-01, -1.68864742e-01, 6.49996662e+00,
          -5.08593082e+00, -2.55130911e+00, 5.21747351e+00,
          -2.85479641e+00, -3.65087533e+00, 1.85211885e+00,
          -4.47853756e+00, 2.81556797e+00, 6.91794395e-01,
          -5.85216141e+00, 2.82969737e+00, -1.57959640e-01,
          -4.19798946e+00, 4.70565128e+00, -1.23056781e+00,
          1.29564261e+00, 2.19763517e+00, 2.53159094e+00, 2.40843987e+00,
          -3.60048842e+00, 6.23696518e+00, -3.42467809e+00,
          -2.46544499e-02, 9.35137391e-01, 3.68952680e+00,
          -4.85371113e-01, 1.98486710e+00, 6.41542625e+00,
          -1.24533856e+00, 3.02782011e+00, 3.95620108e+00,
          5.37552500e+00, 9.61634922e+00, 6.17822744e-02, 3.96283317e+00,
          -8.49331188e+00, -4.63007069e+00, 5.08180094e+00,
          1.04983759e+00, 3.30530763e+00, 1.28411329e+00,
          -4.03385544e+00, 3.36268574e-01 ]
   uncompressed_sv_total: 90
   uncompressed_support_vectors:
      - [ 5.44959120e-03, 0., 6.81198901e-03, 5.44959120e-03,
          5.44959120e-03, 6.81198901e-03, 3.26975472e-02, 2.31607631e-02,
          1.36239780e-03, 1.90735683e-02, 1.22615807e-02, 4.08719340e-03,
          4.08719340e-03, 1.63487736e-02, 6.81198901e-03, 4.08719340e-03,
          6.81198901e-03, 1.22615807e-02, 0., 1.08991824e-02,
          6.81198901e-03, 3.95095348e-02, 4.08719340e-03, 4.08719340e-03,
          2.31607631e-02, 3.67847420e-02, 2.72479560e-03, 1.77111719e-02,
          1.49863753e-02, 1.36239780e-03, 6.81198901e-03, 1.77111719e-02,
          9.53678414e-03, 2.31607631e-02, 4.08719340e-03, 1.77111719e-02,
          5.44959120e-03, 5.44959120e-03, 2.72479560e-03, 0.,
          3.67847420e-02, 4.08719331e-02, 4.08719340e-03, 1.08991824e-02,
          3.81471366e-02, 5.44959120e-03, 8.17438681e-03, 8.17438681e-03,
          2.72479560e-03, 1.36239780e-03, 2.04359666e-02, 0.,
          1.22615807e-02, 6.81198901e-03, 1.08991824e-02, 9.53678414e-03,
          0., 1.63487736e-02, 0., 0., 2.72479560e-03, 5.44959120e-03,
          5.44959120e-03, 8.17438681e-03, 1.36239780e-03, 6.81198901e-03,
          5.44959120e-03, 5.44959120e-03, 1.36239780e-03, 1.22615807e-02,
          2.72479560e-03, 5.44959120e-03, 0., 2.45231614e-02,
          4.08719340e-03, 2.72479560e-02, 2.72479560e-03, 3.54223438e-02,
          1.36239780e-03, 1.36239780e-02, 1.36239780e-03, 0.,
          6.81198901e-03, 5.44959120e-03, 1.36239780e-02, 1.22615807e-02,
          1.36239780e-02, 1.90735683e-02, 1.36239780e-03, 4.08719340e-03,
          3.26975472e-02, 4.08719340e-03, 1.49863753e-02, 1.36239780e-02,
          1.36239780e-03, 6.81198901e-03, 2.72479560e-03, 1.36239780e-03,
          6.81198901e-03, 5.44959120e-03 ]
      - [ 1.07816709e-02, 0., 2.69541773e-03, 5.39083546e-03, 0.,
          1.34770889e-02, 7.27762803e-02, 8.08625296e-03, 0.,
          4.85175177e-02, 0., 8.08625296e-03, 1.34770889e-02,
          8.08625296e-02, 5.39083546e-03, 2.69541773e-03, 4.04312648e-02,
          1.07816709e-02, 0., 1.07816709e-02, 0., 0., 1.61725059e-02,
          8.08625296e-03, 2.15633418e-02, 0., 8.08625296e-03,
          1.34770889e-02, 8.08625296e-03, 1.34770889e-02, 5.39083546e-03,
          5.39083546e-03, 5.39083546e-03, 5.39083546e-03, 8.08625296e-03,
          1.61725059e-02, 1.61725059e-02, 8.08625296e-03, 1.07816709e-02,
          2.96495948e-02, 0., 1.07816709e-02, 2.69541773e-03,
          2.15633418e-02, 2.69541773e-03, 0., 0., 2.69541773e-03,
          1.61725059e-02, 5.39083546e-03, 4.85175177e-02, 0.,
          5.39083546e-03, 8.08625296e-03, 2.69541778e-02, 1.34770889e-02,
          8.08625296e-03, 2.69541773e-03, 5.39083546e-03, 1.34770889e-02,
          2.69541773e-03, 8.08625296e-03, 0., 5.39083546e-03,
          2.69541773e-03, 8.08625296e-03, 2.69541773e-03, 8.08625296e-03,
          8.08625296e-03, 5.39083546e-03, 2.69541773e-03, 0.,
          2.69541773e-03, 2.15633418e-02, 1.88679248e-02, 2.69541773e-03,
          1.07816709e-02, 1.07816709e-02, 2.69541773e-03, 5.39083546e-03,
          0., 5.39083546e-03, 2.69541773e-03, 2.69541773e-03,
          1.88679248e-02, 2.42587589e-02, 5.39083546e-03, 2.69541773e-03,
          2.69541773e-03, 5.39083546e-03, 8.08625296e-03, 2.69541773e-03,
          0., 4.31266837e-02, 5.39083546e-03, 0., 0., 2.69541773e-03,
          2.69541773e-03, 8.08625296e-03 ]
      - [ 7.61179812e-03, 6.66032359e-03, 1.04662227e-02, 6.66032359e-03,
          5.70884859e-03, 1.56993330e-01, 4.75737359e-03, 1.23691717e-02,
          3.80589906e-03, 4.75737359e-03, 5.70884859e-03, 4.75737359e-03,
          5.70884859e-03, 9.51474765e-04, 7.61179812e-03, 5.70884859e-03,
          1.14176972e-02, 8.56327266e-03, 7.61179812e-03, 9.51474719e-03,
          6.66032359e-03, 0., 3.80589906e-03, 5.70884859e-03,
          5.70884859e-03, 2.85442430e-03, 8.56327266e-03, 4.75737359e-03,
          6.66032359e-03, 4.75737359e-03, 8.56327266e-03, 5.70884859e-03,
          1.23691717e-02, 7.61179812e-03, 5.70884859e-03, 1.99809708e-02,
          5.70884859e-03, 1.04662227e-02, 4.75737359e-03, 5.70884859e-03,
          2.85442430e-03, 8.46812576e-02, 3.80589906e-03, 5.70884859e-03,
          4.75737359e-03, 3.80589906e-03, 3.80589906e-03, 7.61179812e-03,
          3.80589906e-03, 6.66032359e-03, 1.14176972e-02, 3.80589906e-03,
          2.85442430e-03, 2.85442430e-03, 1.52235962e-02, 7.61179812e-03,
          1.90294953e-03, 1.33206472e-02, 8.56327266e-03, 9.51474765e-04,
          1.23691717e-02, 7.61179812e-03, 8.56327266e-03, 6.66032359e-03,
          1.90294953e-03, 2.85442430e-03, 5.70884859e-03, 7.61179812e-03,
          2.85442430e-03, 5.70884859e-03, 4.75737359e-03, 5.70884859e-03,
          4.75737359e-03, 1.23691717e-02, 2.85442430e-03, 2.37868689e-02,
          9.51474765e-04, 8.37297812e-02, 6.66032359e-03, 4.75737359e-03,
          7.61179812e-03, 7.61179812e-03, 1.04662227e-02, 8.56327266e-03,
          1.23691717e-02, 1.23691717e-02, 6.66032359e-03, 1.33206472e-02,
          8.56327266e-03, 9.51474719e-03, 8.56327266e-03, 7.61179812e-03,
          7.61179812e-03, 3.80589906e-03, 1.90294953e-03, 1.23691717e-02,
          1.90294953e-03, 1.14176972e-02, 1.42721217e-02, 1.90294953e-03 ]
      - [ 1.23966932e-02, 5.16528916e-03, 1.96280982e-02, 7.23140454e-03,
          4.13223123e-03, 9.29751992e-03, 2.16942132e-02, 4.13223123e-03,
          1.03305783e-02, 1.85950398e-02, 5.57851233e-02, 2.27272715e-02,
          4.13223123e-03, 3.09917331e-03, 1.34297516e-02, 6.19834661e-03,
          5.16528916e-03, 1.54958675e-02, 5.16528916e-03, 1.13636358e-02,
          7.23140454e-03, 7.23140454e-03, 6.19834661e-03, 4.13223123e-03,
          5.16528916e-03, 4.13223123e-03, 2.06611562e-03, 6.19834661e-03,
          5.16528916e-03, 1.03305783e-02, 3.09917331e-03, 3.40909064e-02,
          1.34297516e-02, 2.99586765e-02, 6.19834661e-03, 7.23140454e-03,
          1.54958675e-02, 8.26446246e-03, 7.23140454e-03, 9.29751992e-03,
          2.06611562e-03, 8.26446246e-03, 2.06611562e-03, 1.75619833e-02,
          2.06611562e-03, 1.13636358e-02, 1.96280982e-02, 6.19834661e-03,
          1.03305781e-03, 7.23140454e-03, 6.19834661e-03, 9.29751992e-03,
          4.13223123e-03, 1.23966932e-02, 1.13636358e-02, 1.23966932e-02,
          0., 2.16942132e-02, 1.03305783e-02, 3.09917331e-03,
          1.34297516e-02, 1.13636358e-02, 4.13223123e-03, 1.03305783e-02,
          2.06611562e-03, 2.47933865e-02, 7.23140454e-03, 5.16528916e-03,
          5.16528916e-03, 2.06611562e-03, 2.06611562e-03, 1.96280982e-02,
          4.13223123e-03, 9.29751992e-03, 4.13223123e-03, 0.,
          7.23140454e-03, 5.16528916e-03, 1.03305781e-03, 1.34297516e-02,
          3.09917331e-03, 6.19834661e-03, 5.16528916e-03, 5.16528916e-03,
          5.16528916e-03, 1.34297516e-02, 4.13223123e-03, 4.75206599e-02,
          1.03305783e-02, 2.47933865e-02, 1.03305783e-02, 4.13223123e-03,
          7.23140454e-03, 8.26446246e-03, 1.85950398e-02, 2.68595032e-02,
          7.23140454e-03, 1.03305783e-02, 1.03305783e-02, 4.13223123e-03 ]
      - [ 0., 5.61797759e-03, 5.61797759e-03, 0., 1.49812736e-02,
          3.74531820e-02, 9.36329551e-03, 3.74531839e-03, 2.05992516e-02,
          3.18352059e-02, 1.49812736e-02, 2.80898884e-02, 3.74531839e-03,
          8.05243477e-02, 1.87265920e-03, 1.87265920e-03, 2.99625471e-02,
          7.49063678e-03, 3.74531839e-03, 1.87265920e-03, 0.,
          1.49812736e-02, 5.61797759e-03, 3.74531839e-03, 5.61797759e-03,
          1.87265920e-03, 1.87265920e-03, 3.74531839e-03, 0.,
          2.24719103e-02, 1.87265920e-03, 1.87265910e-02, 1.31086148e-02,
          1.87265910e-02, 3.74531839e-03, 4.49438207e-02, 1.31086148e-02,
          2.24719103e-02, 3.74531839e-03, 1.68539323e-02, 1.87265920e-03,
          1.68539323e-02, 1.12359552e-02, 9.36329551e-03, 5.61797759e-03,
          1.87265920e-03, 1.49812736e-02, 3.74531839e-03, 1.87265920e-03,
          3.74531839e-03, 2.43445691e-02, 5.61797759e-03, 5.61797759e-03,
          7.49063678e-03, 1.49812736e-02, 0., 0., 1.87265920e-03,
          3.74531839e-03, 0., 1.49812736e-02, 1.87265920e-03, 0.,
          3.18352059e-02, 3.74531839e-03, 5.61797759e-03, 0., 0.,
          1.31086148e-02, 3.74531839e-03, 5.61797759e-03, 0.,
          2.62172297e-02, 1.87265910e-02, 1.87265920e-03, 5.61797759e-03,
          3.74531839e-03, 2.43445691e-02, 0., 1.68539323e-02,
          5.61797759e-03, 3.74531839e-03, 0., 1.87265920e-03,
          1.49812736e-02, 3.74531839e-03, 3.74531839e-03, 3.37078646e-02,
          1.87265920e-03, 1.68539323e-02, 1.31086148e-02, 7.49063678e-03,
          0., 2.80898884e-02, 1.12359552e-02, 9.36329551e-03,
          5.61797759e-03, 0., 1.87265920e-03, 3.74531839e-03 ]
      - [ 1.01214573e-02, 2.02429146e-02, 6.07287465e-03, 0.,
          4.04858310e-03, 1.82186235e-02, 8.09716620e-03, 2.22672075e-02,
          8.09716620e-03, 1.21457493e-02, 4.04858310e-03, 1.61943324e-02,
          0., 2.02429155e-03, 8.09716620e-03, 2.02429155e-03,
          6.07287465e-03, 2.02429155e-03, 4.04858310e-03, 1.21457493e-02,
          8.09716620e-03, 0., 6.07287465e-03, 2.02429155e-03,
          6.07287465e-03, 1.61943324e-02, 2.02429155e-03, 1.41700413e-02,
          2.02429155e-03, 2.42914986e-02, 1.01214573e-02, 4.04858310e-03,
          8.09716620e-03, 2.02429155e-03, 1.21457493e-02, 1.82186235e-02,
          2.22672075e-02, 6.07287465e-03, 1.01214573e-02, 8.09716620e-03,
          1.21457493e-02, 2.02429146e-02, 0., 1.82186235e-02,
          2.02429155e-03, 4.04858310e-03, 1.61943324e-02, 0.,
          6.07287465e-03, 4.04858310e-03, 1.82186235e-02, 1.41700413e-02,
          4.04858310e-03, 2.02429155e-03, 1.41700413e-02, 1.41700413e-02,
          0., 8.09716620e-03, 4.04858310e-03, 0., 1.82186235e-02,
          6.07287465e-03, 8.09716620e-03, 4.04858310e-03, 4.04858310e-03,
          1.21457493e-02, 4.04858310e-03, 4.04858310e-03, 2.02429155e-03,
          8.09716620e-03, 0., 2.83400826e-02, 1.82186235e-02,
          1.41700413e-02, 2.42914986e-02, 2.02429146e-02, 8.09716620e-03,
          4.04858310e-03, 4.04858310e-03, 8.09716620e-03, 1.21457493e-02,
          2.02429155e-03, 1.61943324e-02, 1.82186235e-02, 3.64372469e-02,
          2.63157897e-02, 2.63157897e-02, 1.41700413e-02, 1.41700413e-02,
          1.01214573e-02, 1.01214573e-02, 2.02429146e-02, 2.83400826e-02,
          1.21457493e-02, 8.09716620e-03, 1.41700413e-02, 2.02429155e-03,
          8.09716620e-03, 8.09716620e-03, 2.02429155e-03 ]
      - [ 3.19148935e-02, 0., 2.12765951e-02, 2.12765951e-02,
          1.06382975e-02, 0., 5.31914877e-03, 3.19148935e-02, 0., 0., 0.,
          1.59574468e-02, 1.06382975e-02, 0., 2.65957434e-02, 0.,
          1.06382975e-02, 5.31914877e-03, 5.31914877e-03, 1.59574468e-02,
          5.31914877e-03, 0., 2.65957434e-02, 2.12765951e-02, 0., 0.,
          2.12765951e-02, 0., 5.31914877e-03, 1.06382975e-02,
          5.31914877e-03, 1.06382975e-02, 5.31914877e-03, 1.59574468e-02,
          5.31914877e-03, 5.31914877e-03, 2.12765951e-02, 2.65957434e-02,
          5.31914877e-03, 0., 0., 0., 2.12765951e-02, 0., 4.25531901e-02,
          0., 1.06382975e-02, 2.12765951e-02, 2.12765951e-02,
          1.59574468e-02, 2.12765951e-02, 1.06382975e-02, 2.12765951e-02,
          0., 0., 2.12765951e-02, 1.59574468e-02, 5.31914877e-03,
          1.06382975e-02, 2.12765951e-02, 5.31914877e-03, 2.65957434e-02,
          0., 5.31914877e-03, 0., 5.31914877e-03, 0., 1.06382975e-02,
          5.31914877e-03, 1.06382975e-02, 1.59574468e-02, 1.06382975e-02,
          0., 1.59574468e-02, 5.31914877e-03, 5.31914877e-03,
          1.06382975e-02, 2.12765951e-02, 1.59574468e-02, 1.59574468e-02,
          0., 0., 1.06382975e-02, 0., 2.12765951e-02, 1.59574468e-02,
          5.31914877e-03, 0., 5.31914877e-03, 0., 0., 2.65957434e-02,
          2.12765951e-02, 0., 1.06382975e-02, 0., 5.31914877e-03, 0., 0.,
          2.65957434e-02 ]
      - [ 5.64971752e-03, 5.64971752e-03, 5.64971752e-03, 1.12994350e-02,
          0., 0., 3.38983051e-02, 6.21468946e-02, 0., 5.64971752e-03,
          5.64971752e-03, 5.64971752e-03, 0., 0., 1.12994350e-02,
          5.64971752e-03, 0., 1.69491526e-02, 1.12994350e-02,
          1.69491526e-02, 0., 0., 0., 0., 1.12994350e-02, 0.,
          5.64971752e-03, 5.64971752e-03, 5.64971752e-03, 2.82485876e-02,
          1.69491526e-02, 5.64971752e-03, 1.12994350e-02, 0.,
          1.12994350e-02, 0., 2.25988701e-02, 5.64971752e-03, 0.,
          1.69491526e-02, 0., 1.69491526e-02, 5.64971752e-03,
          1.12994350e-02, 0., 5.64971752e-03, 5.64971752e-03, 0.,
          5.64971752e-03, 3.95480245e-02, 5.64971752e-03, 3.95480245e-02,
          5.64971752e-03, 5.64971752e-03, 0., 5.64971752e-03, 0., 0.,
          2.82485876e-02, 0., 5.64971752e-03, 5.64971752e-03,
          5.64971752e-03, 5.64971752e-03, 5.64971752e-03, 5.64971752e-03,
          0., 1.12994350e-02, 5.64971752e-03, 1.69491526e-02,
          5.64971752e-03, 2.82485876e-02, 0., 0., 5.64971752e-03, 0.,
          5.64971752e-03, 0., 0., 0., 0., 1.12994350e-02, 1.69491526e-02,
          5.64971752e-03, 2.82485876e-02, 2.82485876e-02, 1.69491526e-02,
          5.08474559e-02, 2.82485876e-02, 0., 2.82485876e-02,
          5.64971752e-03, 3.38983051e-02, 0., 5.64971752e-03,
          4.51977402e-02, 5.64971752e-03, 1.69491526e-02, 1.12994350e-02,
          1.69491526e-02 ]
      - [ 5.39083546e-03, 2.42587589e-02, 1.07816709e-02, 5.39083546e-03,
          5.39083546e-03, 5.39083546e-03, 1.07816709e-02, 5.66037707e-02,
          0., 0., 5.39083546e-03, 8.08625296e-03, 1.61725059e-02, 0.,
          5.39083546e-03, 5.39083546e-03, 5.39083546e-03, 1.61725059e-02,
          2.69541773e-03, 3.23450118e-02, 1.07816709e-02, 0.,
          2.69541773e-03, 0., 8.08625296e-03, 5.39083546e-03,
          8.08625296e-03, 2.69541773e-03, 8.08625296e-03, 5.39083546e-03,
          0., 2.69541773e-03, 8.08625296e-03, 5.39083546e-03,
          8.08625296e-03, 8.08625296e-03, 5.39083546e-03, 2.69541773e-03,
          2.69541773e-03, 1.07816709e-02, 2.69541773e-03, 5.39083546e-03,
          0., 1.34770889e-02, 8.08625296e-03, 0., 1.61725059e-02, 0.,
          1.61725059e-02, 1.88679248e-02, 3.23450118e-02, 1.07816709e-02,
          8.08625296e-03, 8.08625296e-03, 4.31266837e-02, 2.15633418e-02,
          2.69541773e-03, 1.61725059e-02, 1.88679248e-02, 2.69541773e-03,
          1.88679248e-02, 5.39083546e-03, 2.69541773e-03, 0.,
          2.69541773e-03, 5.39083546e-03, 2.69541773e-03, 8.08625296e-03,
          8.08625296e-03, 3.77358496e-02, 1.07816709e-02, 1.07816709e-02,
          2.69541773e-03, 5.39083546e-03, 5.39083546e-03, 0.,
          5.39083546e-03, 5.39083546e-03, 2.69541773e-03, 1.34770889e-02,
          0., 5.39083546e-03, 2.42587589e-02, 2.69541773e-03,
          4.31266837e-02, 1.34770889e-02, 8.08625296e-03, 2.96495948e-02,
          1.07816709e-02, 2.96495948e-02, 2.69541773e-03, 1.07816709e-02,
          4.85175177e-02, 5.39083546e-03, 8.08625296e-03, 1.07816709e-02,
          2.69541773e-03, 8.08625296e-03, 1.07816709e-02, 0. ]
      - [ 3.30578499e-02, 0., 0., 8.26446246e-03, 8.26446246e-03,
          1.65289249e-02, 2.47933865e-02, 1.48760319e-01, 0., 0., 0.,
          8.26446246e-03, 5.78512363e-02, 0., 1.65289249e-02, 0., 0.,
          1.65289249e-02, 0., 2.47933865e-02, 8.26446265e-02, 0.,
          2.47933865e-02, 8.26446246e-03, 8.26446246e-03, 0.,
          8.26446246e-03, 0., 0., 0., 0., 0., 0., 0., 8.26446246e-03,
          4.13223132e-02, 0., 0., 0., 0., 0., 0., 0., 8.26446246e-03,
          8.26446246e-03, 8.26446246e-03, 0., 8.26446246e-03,
          3.30578499e-02, 0., 8.26446246e-03, 0., 8.26446246e-03,
          2.47933865e-02, 0., 0., 8.26446246e-03, 2.47933865e-02, 0.,
          8.26446246e-03, 0., 2.47933865e-02, 0., 1.65289249e-02, 0., 0.,
          8.26446246e-03, 0., 0., 8.26446246e-03, 8.26446246e-03, 0., 0.,
          1.65289249e-02, 0., 0., 0., 0., 8.26446246e-03, 8.26446246e-03,
          1.65289249e-02, 0., 8.26446246e-03, 8.26446246e-03,
          1.15702473e-01, 1.65289249e-02, 8.26446246e-03, 0., 0., 0., 0.,
          0., 1.65289249e-02, 0., 8.26446246e-03, 0., 8.26446246e-03, 0.,
          0., 0. ]
      - [ 2.50000022e-02, 8.33333377e-03, 0., 8.33333377e-03,
          8.33333377e-03, 0., 0., 1.25000000e-01, 0., 0., 0.,
          8.33333377e-03, 2.50000022e-02, 0., 8.33333377e-03, 0., 0., 0.,
          2.50000022e-02, 1.66666675e-02, 2.50000022e-02, 0.,
          2.50000022e-02, 2.50000022e-02, 0., 0., 8.33333377e-03, 0.,
          3.33333351e-02, 8.33333377e-03, 0., 0., 0., 0., 0., 0., 0., 0.,
          0., 0., 0., 0., 1.66666675e-02, 0., 1.66666675e-02, 0., 0.,
          8.33333377e-03, 8.33333377e-03, 8.33333377e-03, 0.,
          1.66666675e-02, 8.33333377e-03, 2.50000022e-02, 0., 0., 0., 0.,
          8.33333377e-03, 0., 0., 1.66666675e-02, 2.50000022e-02, 0.,
          8.33333377e-03, 0., 8.33333377e-03, 0., 8.33333377e-03,
          1.66666675e-02, 4.16666679e-02, 1.66666675e-02, 0., 0., 0., 0.,
          8.33333377e-03, 0., 8.33333377e-03, 0., 8.33333377e-03,
          2.50000022e-02, 1.66666675e-02, 8.33333377e-03, 9.16666687e-02,
          3.33333351e-02, 0., 0., 1.66666675e-02, 0., 0., 1.66666675e-02,
          5.83333373e-02, 3.33333351e-02, 0., 0., 0., 1.66666675e-02, 0.,
          1.66666675e-02 ]
      - [ 9.90098994e-03, 0., 0., 9.90098994e-03, 9.90098994e-03,
          2.97029689e-02, 9.90098994e-03, 3.96039598e-02, 0.,
          9.90098994e-03, 1.98019799e-02, 9.90098994e-03, 0.,
          1.98019799e-02, 9.90098994e-03, 0., 0., 9.90098994e-03, 0.,
          1.98019799e-02, 4.95049506e-02, 0., 9.90098994e-03,
          1.98019799e-02, 0., 0., 0., 0., 9.90098994e-03, 0., 0., 0.,
          1.98019799e-02, 9.90098994e-03, 0., 9.90098994e-03,
          9.90098994e-03, 0., 0., 0., 0., 0., 9.90098994e-03, 0.,
          7.92079195e-02, 9.90098994e-03, 0., 3.96039598e-02,
          9.90098994e-03, 4.95049506e-02, 9.90098994e-03, 9.90098994e-03,
          1.98019799e-02, 9.90098994e-03, 9.90098994e-03, 1.98019799e-02,
          0., 0., 0., 9.90098994e-03, 0., 9.90098994e-03, 9.90098994e-03,
          1.98019799e-02, 9.90098994e-03, 9.90098994e-03, 1.98019799e-02,
          0., 0., 1.98019799e-02, 2.97029689e-02, 9.90098994e-03,
          9.90098994e-03, 0., 0., 0., 0., 0., 9.90098994e-03,
          1.98019799e-02, 0., 0., 9.90098994e-03, 0., 3.96039598e-02, 0.,
          0., 0., 2.97029689e-02, 1.98019799e-02, 0., 0., 9.90098994e-03,
          9.90098994e-03, 0., 0., 4.95049506e-02, 0., 0., 1.98019799e-02 ]
      - [ 1.56985875e-03, 0., 2.51177400e-02, 2.19780225e-02,
          1.88383050e-02, 0., 3.13971750e-03, 0., 1.56985875e-03,
          3.29670347e-02, 1.88383050e-02, 7.84929376e-03, 0.,
          3.92464697e-02, 1.56985875e-03, 6.27943501e-03, 1.88383050e-02,
          7.84929376e-03, 1.41287288e-02, 3.13971750e-03, 1.56985875e-03,
          6.27943501e-03, 6.27943501e-03, 3.13971750e-03, 1.56985875e-03,
          1.56985875e-03, 6.27943501e-03, 9.41915251e-03, 3.13971750e-03,
          1.56985875e-02, 1.56985875e-03, 3.13971750e-03, 3.76766101e-02,
          1.09890113e-02, 6.27943501e-03, 0., 1.41287288e-02,
          6.27943501e-02, 3.45368907e-02, 2.66875997e-02, 3.13971750e-03,
          0., 2.82574575e-02, 1.25588700e-02, 1.56985875e-03,
          1.56985875e-03, 1.25588700e-02, 7.84929376e-03, 1.56985875e-03,
          1.56985875e-02, 4.70957626e-03, 1.09890113e-02, 3.13971750e-03,
          1.25588700e-02, 0., 7.84929376e-03, 3.13971750e-03,
          3.13971750e-03, 6.27943501e-03, 3.13971750e-03, 1.41287288e-02,
          7.84929376e-03, 1.25588700e-02, 9.41915251e-03, 3.13971750e-03,
          2.35478804e-02, 3.13971750e-03, 0., 1.72684453e-02, 0.,
          7.84929376e-03, 4.70957626e-03, 0., 9.41915251e-03,
          4.70957626e-03, 1.56985875e-03, 6.27943501e-03, 0., 0.,
          1.56985875e-02, 4.70957626e-03, 2.04081647e-02, 6.27943501e-03,
          0., 0., 3.13971750e-03, 0., 4.70957626e-03, 7.84929376e-03,
          2.82574575e-02, 6.27943501e-03, 9.41915251e-03, 0.,
          3.29670347e-02, 1.88383050e-02, 4.23861854e-02, 3.45368907e-02,
          3.13971750e-03, 1.56985875e-02, 4.70957626e-03 ]
      - [ 6.45161280e-03, 0., 6.45161280e-03, 0., 1.29032256e-02, 0.,
          5.16129024e-02, 1.93548389e-02, 6.45161280e-03, 1.29032256e-02,
          6.45161280e-03, 6.45161280e-03, 0., 6.45161280e-03,
          6.45161280e-03, 0., 0., 1.29032256e-02, 6.45161280e-03,
          6.45161280e-03, 3.87096778e-02, 0., 6.45161280e-03,
          6.45161280e-03, 0., 1.29032256e-02, 2.58064512e-02, 0.,
          2.58064512e-02, 5.16129024e-02, 6.45161280e-03, 6.45161280e-03,
          6.45161280e-03, 6.45161280e-03, 6.45161280e-03, 0.,
          3.22580636e-02, 0., 6.45161280e-03, 0., 0., 6.45161280e-03,
          6.45161280e-03, 3.22580636e-02, 0., 0., 6.45161280e-03, 0.,
          6.45161280e-03, 1.93548389e-02, 0., 0., 0., 0., 0.,
          1.93548389e-02, 1.93548389e-02, 1.29032256e-02, 0.,
          1.93548389e-02, 4.51612882e-02, 1.29032256e-02, 6.45161280e-03,
          6.45161280e-03, 6.45161280e-03, 1.29032256e-02, 6.45161280e-03,
          6.45161280e-03, 0., 1.93548389e-02, 1.29032256e-02,
          6.45161280e-03, 6.45161280e-03, 1.29032256e-02, 0., 0.,
          1.29032256e-02, 0., 0., 3.22580636e-02, 6.45161280e-03,
          6.45161280e-03, 1.29032256e-02, 6.45161280e-03, 0.,
          1.29032256e-02, 1.29032256e-02, 2.58064512e-02, 1.29032256e-02,
          6.45161280e-03, 2.58064512e-02, 1.29032256e-02, 0.,
          6.45161280e-03, 1.29032256e-02, 2.58064512e-02, 0.,
          1.29032256e-02, 3.87096778e-02, 0. ]
      - [ 7.63358781e-03, 1.52671756e-02, 7.63358781e-03, 2.29007639e-02,
          7.63358781e-03, 0., 0., 1.06870227e-01, 2.29007639e-02, 0., 0.,
          0., 1.52671756e-02, 0., 7.63358781e-03, 1.52671756e-02,
          7.63358781e-03, 0., 1.52671756e-02, 2.29007639e-02,
          6.87022880e-02, 0., 1.52671756e-02, 2.29007639e-02,
          1.52671756e-02, 0., 1.52671756e-02, 7.63358781e-03,
          7.63358781e-03, 7.63358781e-03, 7.63358781e-03, 7.63358781e-03,
          2.29007639e-02, 0., 0., 7.63358781e-03, 2.29007639e-02,
          7.63358781e-03, 0., 7.63358781e-03, 0., 0., 7.63358781e-03, 0.,
          0., 7.63358781e-03, 7.63358781e-03, 7.63358781e-03,
          7.63358781e-03, 0., 1.52671756e-02, 0., 1.52671756e-02, 0., 0.,
          2.29007639e-02, 2.29007639e-02, 0., 0., 1.52671756e-02, 0., 0.,
          0., 2.29007639e-02, 0., 1.52671756e-02, 7.63358781e-03,
          2.29007639e-02, 0., 1.52671756e-02, 0., 0., 0., 0.,
          7.63358781e-03, 0., 1.52671756e-02, 0., 7.63358781e-03,
          6.10687025e-02, 1.52671756e-02, 0., 0., 1.52671756e-02,
          3.81679386e-02, 0., 0., 0., 0., 1.52671756e-02, 7.63358781e-03,
          7.63358781e-03, 2.29007639e-02, 0., 7.63358781e-03,
          1.52671756e-02, 7.63358781e-03, 1.52671756e-02, 0.,
          7.63358781e-03 ]
      - [ 3.06122452e-02, 1.02040814e-02, 1.02040814e-02, 1.02040814e-02,
          1.02040814e-02, 2.04081628e-02, 0., 4.08163257e-02,
          1.02040814e-02, 1.02040814e-02, 1.02040814e-02, 3.06122452e-02,
          3.06122452e-02, 0., 0., 1.02040814e-02, 1.02040814e-02,
          2.04081628e-02, 0., 0., 3.06122452e-02, 2.04081628e-02, 0., 0.,
          1.02040814e-02, 1.02040814e-02, 0., 0., 2.04081628e-02,
          1.02040814e-02, 0., 1.02040814e-02, 0., 1.02040814e-02, 0.,
          3.06122452e-02, 0., 0., 1.02040814e-02, 0., 1.02040814e-02, 0.,
          4.08163257e-02, 1.02040814e-02, 2.04081628e-02, 2.04081628e-02,
          1.02040814e-02, 1.02040814e-02, 3.06122452e-02, 1.02040814e-02,
          1.02040814e-02, 0., 3.06122452e-02, 0., 1.02040814e-02,
          1.02040814e-02, 1.02040814e-02, 0., 1.02040814e-02, 0., 0.,
          1.02040814e-02, 0., 1.02040814e-02, 0., 0., 4.08163257e-02, 0.,
          0., 3.06122452e-02, 1.02040814e-02, 0., 0., 0., 0., 0.,
          1.02040814e-02, 0., 4.08163257e-02, 0., 0., 2.04081628e-02, 0.,
          0., 5.10204062e-02, 1.02040814e-02, 0., 0., 0., 1.02040814e-02,
          2.04081628e-02, 0., 4.08163257e-02, 0., 0., 0., 1.02040814e-02,
          0., 0., 1.02040814e-02 ]
      - [ 1.59574468e-02, 5.31914877e-03, 5.31914877e-03, 5.31914877e-03,
          2.12765951e-02, 1.59574468e-02, 0., 4.78723384e-02, 0.,
          5.31914877e-03, 0., 1.59574468e-02, 1.06382975e-02, 0.,
          2.12765951e-02, 1.59574468e-02, 1.06382975e-02, 1.06382975e-02,
          5.31914877e-03, 2.12765951e-02, 1.59574468e-02, 0.,
          1.06382975e-02, 1.59574468e-02, 5.31914877e-03, 0.,
          5.31914877e-03, 3.19148935e-02, 1.06382975e-02, 5.31914877e-03,
          1.06382975e-02, 0., 0., 0., 1.06382975e-02, 3.19148935e-02, 0.,
          5.31914877e-03, 1.59574468e-02, 0., 0., 0., 1.06382975e-02, 0.,
          1.06382975e-02, 2.12765951e-02, 2.65957434e-02, 0.,
          2.12765951e-02, 0., 5.31914877e-03, 0., 3.19148935e-02,
          2.65957434e-02, 5.31914877e-03, 5.31914877e-03, 1.06382975e-02,
          1.06382975e-02, 1.06382975e-02, 0., 5.31914877e-03,
          2.12765951e-02, 1.59574468e-02, 5.31914877e-03, 5.31914877e-03,
          5.31914877e-03, 5.31914877e-03, 5.31914877e-03, 5.31914877e-03,
          2.12765951e-02, 0., 0., 0., 0., 0., 5.31914877e-03, 0., 0.,
          1.59574468e-02, 2.12765951e-02, 5.31914877e-03, 1.06382975e-02,
          1.06382975e-02, 2.65957434e-02, 3.72340418e-02, 1.59574468e-02,
          2.12765951e-02, 0., 0., 1.06382975e-02, 2.12765951e-02,
          5.31914877e-03, 2.65957434e-02, 5.31914877e-03, 5.31914877e-03,
          1.06382975e-02, 3.19148935e-02, 1.06382975e-02, 0., 0. ]
      - [ 8.57142825e-03, 2.28571426e-02, 1.42857144e-02, 5.71428565e-03,
          1.42857144e-02, 1.71428565e-02, 2.85714283e-03, 2.28571426e-02,
          2.85714283e-03, 8.57142825e-03, 2.85714283e-03, 5.71428565e-03,
          8.57142825e-03, 0., 2.85714283e-03, 1.14285713e-02,
          1.14285713e-02, 1.14285713e-02, 1.42857144e-02, 2.57142857e-02,
          8.57142825e-03, 0., 1.14285713e-02, 8.57142825e-03,
          2.85714283e-03, 2.85714283e-03, 2.85714283e-03, 1.14285713e-02,
          2.85714283e-03, 5.71428565e-03, 5.71428565e-03, 2.85714283e-03,
          1.14285713e-02, 0., 1.14285713e-02, 3.14285718e-02,
          1.14285713e-02, 1.42857144e-02, 8.57142825e-03, 8.57142825e-03,
          0., 0., 1.14285713e-02, 8.57142825e-03, 5.71428565e-03,
          8.57142825e-03, 1.42857144e-02, 5.71428565e-03, 8.57142825e-03,
          8.57142825e-03, 8.57142825e-03, 1.71428565e-02, 1.42857144e-02,
          5.71428565e-03, 2.85714283e-03, 1.42857144e-02, 1.71428565e-02,
          5.71428565e-03, 1.71428565e-02, 1.14285713e-02, 1.42857144e-02,
          1.71428565e-02, 1.14285713e-02, 1.42857144e-02, 1.71428565e-02,
          1.71428565e-02, 2.85714283e-03, 8.57142825e-03, 0.,
          1.99999996e-02, 2.85714283e-03, 1.71428565e-02, 0.,
          1.14285713e-02, 0., 2.85714283e-03, 1.71428565e-02, 0., 0.,
          5.71428565e-03, 1.42857144e-02, 1.42857144e-02, 5.71428565e-03,
          0., 4.28571440e-02, 5.71428565e-03, 1.14285713e-02,
          1.99999996e-02, 1.71428565e-02, 1.14285713e-02, 1.42857144e-02,
          1.14285713e-02, 2.57142857e-02, 2.85714283e-03, 1.14285713e-02,
          5.71428565e-03, 0., 8.57142825e-03, 3.14285718e-02,
          2.85714283e-03 ]
      - [ 1.19047621e-02, 0., 0., 0., 0., 3.57142873e-02, 0.,
          9.52380970e-02, 0., 0., 0., 0., 2.38095243e-02, 0.,
          4.76190485e-02, 0., 0., 0., 0., 7.14285746e-02, 2.38095243e-02,
          0., 2.38095243e-02, 3.57142873e-02, 0., 0., 0., 0.,
          1.19047621e-02, 1.19047621e-02, 1.19047621e-02, 0., 0., 0., 0.,
          2.38095243e-02, 0., 1.19047621e-02, 0., 0., 0., 0., 0.,
          3.57142873e-02, 0., 1.19047621e-02, 3.57142873e-02, 0.,
          1.19047621e-02, 1.19047621e-02, 0., 0., 3.57142873e-02,
          1.19047621e-02, 0., 0., 2.38095243e-02, 0., 0., 4.76190485e-02,
          2.38095243e-02, 4.76190485e-02, 0., 0., 0., 0., 1.19047621e-02,
          2.38095243e-02, 0., 2.38095243e-02, 1.19047621e-02, 0., 0., 0.,
          0., 0., 1.19047621e-02, 0., 1.19047621e-02, 1.19047621e-02, 0.,
          0., 0., 0., 7.14285746e-02, 0., 0., 0., 0., 1.19047621e-02,
          4.76190485e-02, 0., 1.19047621e-02, 0., 0., 0., 1.19047621e-02,
          0., 0., 0. ]
      - [ 1.18043851e-02, 8.43170285e-03, 2.19224282e-02, 1.01180440e-02,
          8.43170285e-03, 3.37268133e-03, 1.01180440e-02, 2.86677908e-02,
          1.68634066e-03, 1.68634057e-02, 1.01180440e-02, 5.05902199e-03,
          3.37268133e-03, 5.05902199e-03, 8.43170285e-03, 8.43170285e-03,
          8.43170285e-03, 1.68634057e-02, 1.18043851e-02, 1.01180440e-02,
          1.68634066e-03, 5.05902199e-03, 8.43170285e-03, 8.43170285e-03,
          1.34907253e-02, 3.37268133e-03, 3.37268133e-03, 1.18043851e-02,
          6.74536265e-03, 1.34907253e-02, 3.37268133e-03, 1.34907253e-02,
          1.85497478e-02, 1.01180440e-02, 1.34907253e-02, 0.,
          1.51770655e-02, 2.02360880e-02, 1.18043851e-02, 5.05902199e-03,
          1.68634066e-03, 1.68634066e-03, 8.43170285e-03, 1.68634057e-02,
          0., 5.05902199e-03, 1.68634057e-02, 1.18043851e-02,
          5.05902199e-03, 5.05902199e-03, 3.37268133e-03, 2.02360880e-02,
          5.05902199e-03, 1.68634066e-03, 1.51770655e-02, 8.43170285e-03,
          0., 1.34907253e-02, 3.03541310e-02, 3.37268133e-03,
          2.52951104e-02, 1.01180440e-02, 2.69814506e-02, 5.05902199e-03,
          0., 1.85497478e-02, 3.37268133e-03, 6.74536265e-03,
          5.05902199e-03, 5.05902199e-03, 3.37268133e-03, 2.36087702e-02,
          5.05902199e-03, 5.05902199e-03, 1.51770655e-02, 0.,
          6.74536265e-03, 0., 3.37268133e-03, 1.34907253e-02,
          5.05902199e-03, 8.43170285e-03, 2.36087702e-02, 8.43170285e-03,
          1.51770655e-02, 1.68634057e-02, 1.34907253e-02, 2.19224282e-02,
          1.18043851e-02, 1.01180440e-02, 1.34907253e-02, 1.68634057e-02,
          1.01180440e-02, 1.01180440e-02, 1.85497478e-02, 1.68634057e-02,
          1.68634066e-03, 1.01180440e-02, 1.01180440e-02, 5.05902199e-03 ]
      - [ 5.12820520e-02, 0., 0., 0., 2.56410260e-02, 3.84615399e-02, 0.,
          7.69230798e-02, 1.28205130e-02, 0., 6.41025649e-03,
          1.92307699e-02, 1.28205130e-02, 6.41025649e-03, 6.41025649e-03,
          0., 0., 0., 0., 1.92307699e-02, 6.41025677e-02, 0.,
          6.41025649e-03, 6.41025649e-03, 6.41025649e-03, 0.,
          6.41025649e-03, 0., 0., 0., 1.28205130e-02, 6.41025649e-03, 0.,
          0., 1.28205130e-02, 6.41025677e-02, 0., 6.41025649e-03,
          1.28205130e-02, 0., 0., 0., 3.84615399e-02, 0., 0.,
          1.28205130e-02, 2.56410260e-02, 0., 6.41025649e-03,
          3.84615399e-02, 1.28205130e-02, 1.28205130e-02, 1.92307699e-02,
          0., 1.28205130e-02, 0., 1.28205130e-02, 0., 6.41025649e-03,
          2.56410260e-02, 0., 1.28205130e-02, 1.28205130e-02, 0., 0., 0.,
          1.92307699e-02, 0., 0., 6.41025649e-03, 0., 0., 0., 0.,
          1.28205130e-02, 0., 1.92307699e-02, 1.92307699e-02,
          6.41025649e-03, 0., 6.41025649e-03, 6.41025649e-03,
          6.41025649e-03, 1.28205130e-02, 8.97435918e-02, 1.28205130e-02,
          0., 1.28205130e-02, 6.41025649e-03, 6.41025649e-03, 0.,
          1.28205130e-02, 0., 0., 0., 0., 1.28205130e-02, 0., 0., 0. ]
      - [ 1.25448033e-02, 8.96057300e-03, 2.86738351e-02, 5.37634408e-03,
          1.97132621e-02, 7.16845877e-03, 0., 0., 0., 1.79211460e-02,
          1.61290318e-02, 1.07526882e-02, 5.37634408e-03, 4.12186384e-02,
          3.58422939e-03, 3.58422939e-03, 1.79211460e-02, 5.37634408e-03,
          2.68817209e-02, 7.16845877e-03, 3.58422939e-03, 3.58422939e-03,
          1.79211469e-03, 0., 0., 0., 1.07526882e-02, 5.37634408e-03,
          7.16845877e-03, 1.97132621e-02, 5.37634408e-03, 1.79211469e-03,
          3.94265242e-02, 0., 7.16845877e-03, 2.32974906e-02,
          1.07526882e-02, 5.19713275e-02, 2.32974906e-02, 2.50896066e-02,
          0., 0., 1.97132621e-02, 1.25448033e-02, 1.79211469e-03,
          5.37634408e-03, 1.43369175e-02, 8.96057300e-03, 8.96057300e-03,
          5.37634408e-03, 1.07526882e-02, 8.96057300e-03, 5.37634408e-03,
          1.07526882e-02, 3.58422939e-03, 8.96057300e-03, 1.79211469e-03,
          5.37634408e-03, 2.86738351e-02, 3.58422939e-03, 1.79211460e-02,
          7.16845877e-03, 8.96057300e-03, 8.96057300e-03, 5.37634408e-03,
          3.58422939e-03, 0., 5.37634408e-03, 7.16845877e-03,
          7.16845877e-03, 3.58422939e-03, 5.37634408e-03, 0., 0.,
          1.79211469e-03, 0., 0., 0., 0., 2.32974906e-02, 3.58422939e-03,
          1.43369175e-02, 5.37634408e-03, 1.79211469e-03, 1.61290318e-02,
          0., 1.79211469e-03, 1.07526882e-02, 1.07526882e-02,
          1.79211460e-02, 8.96057300e-03, 8.96057300e-03, 1.25448033e-02,
          2.86738351e-02, 1.79211460e-02, 3.22580636e-02, 1.43369175e-02,
          8.96057300e-03, 3.04659493e-02, 5.37634408e-03 ]
      - [ 2.46913582e-02, 0., 0., 0., 1.23456791e-02, 2.46913582e-02, 0.,
          1.23456791e-01, 0., 0., 0., 1.23456791e-02, 4.93827164e-02, 0.,
          0., 0., 0., 2.46913582e-02, 0., 3.70370373e-02, 3.70370373e-02,
          1.23456791e-02, 0., 1.23456791e-02, 0., 0., 0., 1.23456791e-02,
          0., 1.23456791e-02, 4.93827164e-02, 0., 1.23456791e-02, 0., 0.,
          0., 0., 0., 0., 0., 0., 0., 0., 0., 1.23456791e-02,
          3.70370373e-02, 1.23456791e-02, 0., 0., 6.17283955e-02, 0., 0.,
          0., 0., 0., 0., 1.23456791e-02, 0., 0., 1.23456791e-02, 0., 0.,
          0., 2.46913582e-02, 0., 1.23456791e-02, 0., 2.46913582e-02, 0.,
          4.93827164e-02, 1.23456791e-02, 1.23456791e-02, 0., 0., 0., 0.,
          0., 0., 1.23456791e-02, 0., 0., 2.46913582e-02, 0.,
          2.46913582e-02, 4.93827164e-02, 0., 0., 0., 0., 0., 0.,
          1.23456791e-02, 4.93827164e-02, 2.46913582e-02, 6.17283955e-02,
          0., 0., 0., 0., 0. ]
      - [ 1.99203193e-02, 1.59362555e-02, 7.96812773e-03, 3.98406386e-03,
          1.59362555e-02, 3.98406386e-03, 0., 4.38247025e-02,
          1.19521916e-02, 0., 1.19521916e-02, 7.96812773e-03,
          1.59362555e-02, 0., 0., 3.18725109e-02, 3.98406386e-03,
          2.39043832e-02, 3.98406386e-03, 2.39043832e-02, 0., 0.,
          1.19521916e-02, 0., 1.59362555e-02, 0., 0., 1.99203193e-02,
          1.99203193e-02, 1.59362555e-02, 1.99203193e-02, 3.98406386e-03,
          3.98406386e-03, 7.96812773e-03, 7.96812773e-03, 0.,
          7.96812773e-03, 1.19521916e-02, 7.96812773e-03, 1.59362555e-02,
          7.96812773e-03, 0., 1.19521916e-02, 3.18725109e-02,
          1.19521916e-02, 0., 1.19521916e-02, 1.19521916e-02, 0., 0.,
          7.96812773e-03, 3.98406386e-03, 7.96812773e-03, 7.96812773e-03,
          7.96812773e-03, 1.59362555e-02, 0., 1.59362555e-02,
          7.96812773e-03, 3.98406386e-03, 1.99203193e-02, 2.39043832e-02,
          3.98406386e-03, 1.19521916e-02, 7.96812773e-03, 7.96812773e-03,
          7.96812773e-03, 2.39043832e-02, 7.96812773e-03, 3.98406386e-03,
          1.19521916e-02, 7.96812773e-03, 0., 3.98406386e-03,
          1.19521916e-02, 0., 1.59362555e-02, 1.19521916e-02,
          3.98406386e-03, 1.59362555e-02, 0., 7.96812773e-03,
          3.98406386e-03, 2.39043832e-02, 3.98406386e-02, 0.,
          7.96812773e-03, 1.19521916e-02, 3.98406386e-03, 1.19521916e-02,
          0., 1.19521916e-02, 3.18725109e-02, 0., 7.96812773e-03,
          7.96812773e-03, 7.96812773e-03, 7.96812773e-03, 2.39043832e-02,
          0. ]
      - [ 3.79746854e-02, 0., 0., 1.26582282e-02, 0., 8.86075944e-02, 0.,
          6.32911408e-03, 0., 0., 6.32911408e-03, 2.53164563e-02,
          4.43037972e-02, 6.32911408e-03, 6.32911408e-03, 6.32911408e-03,
          0., 0., 6.32911408e-03, 1.26582282e-02, 2.53164563e-02, 0.,
          1.26582282e-02, 1.89873427e-02, 6.32911408e-03, 0.,
          6.32911408e-03, 1.26582282e-02, 0., 6.32911408e-03,
          6.32911408e-03, 0., 6.32911408e-03, 0., 0., 2.53164563e-02,
          6.32911408e-03, 6.32911408e-03, 6.32911408e-03, 6.32911408e-03,
          0., 0., 6.32911408e-03, 0., 0., 0., 3.16455700e-02,
          3.16455700e-02, 1.26582282e-02, 1.26582282e-02, 1.26582282e-02,
          0., 3.16455700e-02, 4.43037972e-02, 0., 6.32911408e-03,
          1.26582282e-02, 0., 6.32911408e-03, 3.16455700e-02, 0.,
          4.43037972e-02, 6.32911408e-03, 1.26582282e-02, 6.32911408e-03,
          0., 6.32911408e-03, 6.32911408e-03, 6.32911408e-03,
          1.26582282e-02, 1.89873427e-02, 0., 0., 0., 0., 0.,
          1.26582282e-02, 0., 1.89873427e-02, 0., 6.32911408e-03,
          1.26582282e-02, 0., 0., 1.26582282e-02, 0., 0., 6.32911408e-03,
          0., 3.16455700e-02, 3.16455700e-02, 0., 6.32911408e-03,
          6.32911408e-03, 0., 6.32911408e-03, 6.96202517e-02, 0., 0.,
          6.32911408e-03 ]
      - [ 0., 3.74531839e-03, 3.74531839e-03, 3.74531839e-03,
          3.74531839e-03, 3.74531839e-03, 1.12359552e-02, 1.49812736e-02,
          0., 0., 7.49063678e-03, 7.49063678e-03, 1.12359552e-02,
          3.74531839e-03, 0., 0., 1.49812736e-02, 1.12359552e-02,
          1.87265910e-02, 3.74531839e-03, 4.11985032e-02, 0.,
          7.49063678e-03, 7.49063678e-03, 0., 7.49063678e-03,
          1.49812736e-02, 1.12359552e-02, 1.49812736e-02, 0., 0., 0.,
          1.49812736e-02, 3.74531839e-03, 1.12359552e-02, 2.99625471e-02,
          7.49063678e-03, 0., 1.87265910e-02, 1.49812736e-02,
          1.12359552e-02, 3.74531839e-03, 1.12359552e-02, 7.49063678e-03,
          2.62172297e-02, 0., 2.62172297e-02, 3.74531839e-03,
          1.12359552e-02, 2.24719103e-02, 2.62172297e-02, 1.12359552e-02,
          1.12359552e-02, 7.49063678e-03, 1.12359552e-02, 0.,
          7.49063678e-03, 2.24719103e-02, 1.12359552e-02, 3.74531839e-03,
          1.49812736e-02, 7.49063678e-03, 2.62172297e-02, 3.74531820e-02,
          3.74531839e-03, 3.74531839e-03, 3.74531839e-03, 0.,
          7.49063678e-03, 3.74531820e-02, 1.12359552e-02, 3.37078646e-02,
          7.49063678e-03, 1.12359552e-02, 0., 3.74531839e-03,
          3.74531839e-03, 0., 3.74531839e-03, 3.74531839e-03, 0.,
          1.12359552e-02, 1.49812736e-02, 7.49063678e-03, 3.74531820e-02,
          1.49812736e-02, 3.74531839e-03, 3.74531839e-03, 3.74531839e-03,
          1.87265910e-02, 3.74531839e-03, 7.49063678e-03, 7.49063678e-03,
          3.74531839e-03, 3.74531839e-03, 1.12359552e-02, 2.62172297e-02,
          7.49063678e-03, 1.12359552e-02, 1.49812736e-02 ]
      - [ 9.34579410e-03, 4.67289705e-03, 9.34579410e-03, 4.67289705e-03,
          1.86915882e-02, 9.34579410e-03, 0., 2.33644843e-02, 0.,
          9.34579410e-03, 1.40186911e-02, 0., 1.86915882e-02,
          1.40186911e-02, 9.34579410e-03, 4.67289705e-03, 1.40186911e-02,
          4.67289705e-03, 4.67289705e-03, 9.34579410e-03, 1.40186911e-02,
          0., 1.40186911e-02, 2.33644843e-02, 9.34579410e-03, 0., 0.,
          4.67289705e-03, 9.34579410e-03, 4.67289705e-03, 0., 0.,
          2.80373823e-02, 4.67289705e-03, 9.34579410e-03, 3.27102803e-02,
          9.34579410e-03, 3.73831764e-02, 4.67289705e-03, 3.73831764e-02,
          0., 0., 2.33644843e-02, 4.67289705e-03, 0., 0., 0.,
          9.34579410e-03, 4.67289705e-03, 4.67289705e-03, 0.,
          9.34579410e-03, 1.86915882e-02, 0., 9.34579410e-03,
          4.67289705e-03, 9.34579410e-03, 4.67289705e-03, 1.40186911e-02,
          9.34579410e-03, 1.86915882e-02, 0., 4.67289705e-03, 0., 0.,
          2.80373823e-02, 9.34579410e-03, 0., 9.34579410e-03, 0., 0.,
          1.40186911e-02, 0., 4.67289705e-03, 9.34579410e-03,
          1.40186911e-02, 4.67289705e-03, 0., 9.34579410e-03,
          1.40186911e-02, 1.40186911e-02, 9.34579410e-03, 9.34579410e-03,
          0., 2.33644843e-02, 9.34579410e-03, 4.67289705e-03, 0.,
          1.40186911e-02, 1.86915882e-02, 0., 4.67289705e-03,
          9.34579410e-03, 4.20560725e-02, 9.34579410e-03, 3.73831764e-02,
          9.34579410e-03, 3.27102803e-02, 5.14018685e-02, 9.34579410e-03 ]
      - [ 8.52272753e-03, 9.94318165e-03, 3.55113633e-02, 7.10227294e-03,
          1.98863633e-02, 0., 0., 7.10227294e-03, 2.84090918e-03,
          1.56250000e-02, 1.13636367e-02, 4.26136376e-03, 7.10227294e-03,
          8.52272753e-03, 9.94318165e-03, 5.68181835e-03, 1.56250000e-02,
          2.13068184e-02, 1.42045459e-02, 2.13068184e-02, 2.84090918e-03,
          4.26136376e-03, 8.52272753e-03, 0., 1.42045459e-03,
          1.42045459e-03, 1.42045459e-02, 1.13636367e-02, 9.94318165e-03,
          7.10227294e-03, 8.52272753e-03, 0., 4.68750000e-02,
          2.84090918e-03, 1.27840918e-02, 1.42045459e-03, 8.52272753e-03,
          2.55681835e-02, 9.94318165e-03, 3.40909101e-02, 0., 0.,
          1.98863633e-02, 4.26136376e-03, 2.84090918e-03, 4.26136376e-03,
          2.84090918e-03, 9.94318165e-03, 7.10227294e-03, 1.56250000e-02,
          0., 1.13636367e-02, 1.42045459e-03, 1.13636367e-02,
          1.42045459e-03, 1.13636367e-02, 4.26136376e-03, 7.10227294e-03,
          2.41477285e-02, 0., 5.11363670e-02, 5.68181835e-03,
          9.94318165e-03, 2.27272734e-02, 4.26136376e-03, 9.94318165e-03,
          2.84090918e-03, 8.52272753e-03, 4.26136376e-03, 1.42045459e-03,
          8.52272753e-03, 1.70454551e-02, 0., 0., 1.42045459e-03,
          1.42045459e-03, 1.42045459e-02, 2.84090918e-03, 1.42045459e-03,
          1.70454551e-02, 0., 1.13636367e-02, 8.52272753e-03,
          7.10227294e-03, 0., 1.27840918e-02, 0., 9.94318165e-03,
          8.52272753e-03, 1.13636367e-02, 1.13636367e-02, 2.13068184e-02,
          7.10227294e-03, 2.13068184e-02, 1.56250000e-02, 3.55113633e-02,
          1.42045459e-03, 7.10227294e-03, 4.11931835e-02, 7.10227294e-03 ]
      - [ 8.24175868e-03, 5.49450563e-03, 2.74725282e-03, 1.09890113e-02,
          5.49450563e-03, 3.84615399e-02, 2.74725282e-03, 3.84615399e-02,
          2.74725282e-03, 5.49450563e-03, 0., 2.47252751e-02,
          4.67032976e-02, 2.74725282e-03, 1.92307699e-02, 0.,
          5.49450563e-03, 8.24175868e-03, 1.64835174e-02, 2.47252751e-02,
          5.49450563e-03, 0., 1.64835174e-02, 1.92307699e-02,
          5.49450563e-03, 8.24175868e-03, 2.74725277e-02, 2.74725282e-03,
          5.49450563e-03, 1.09890113e-02, 0., 2.74725282e-03,
          1.37362638e-02, 0., 1.64835174e-02, 3.29670347e-02,
          5.49450563e-03, 8.24175868e-03, 5.49450563e-03, 2.74725282e-03,
          2.74725282e-03, 2.74725282e-03, 5.49450563e-03, 5.49450563e-03,
          1.09890113e-02, 5.49450563e-03, 1.92307699e-02, 2.74725282e-03,
          1.92307699e-02, 4.39560451e-02, 5.49450563e-03, 2.74725282e-03,
          1.64835174e-02, 8.24175868e-03, 5.49450563e-03, 5.49450563e-03,
          8.24175868e-03, 8.24175868e-03, 8.24175868e-03, 5.49450563e-03,
          5.49450563e-03, 8.24175868e-03, 5.49450563e-03, 1.64835174e-02,
          0., 2.74725282e-03, 8.24175868e-03, 2.74725282e-03, 0., 0.,
          4.67032976e-02, 1.37362638e-02, 0., 5.49450563e-03,
          5.49450563e-03, 0., 5.49450563e-03, 0., 8.24175868e-03,
          5.49450563e-03, 8.24175868e-03, 1.09890113e-02, 5.49450563e-03,
          2.74725282e-03, 4.39560451e-02, 3.02197803e-02, 5.49450563e-03,
          0., 5.49450563e-03, 1.37362638e-02, 5.49450563e-03,
          5.49450563e-03, 1.64835174e-02, 1.09890113e-02, 2.74725282e-03,
          5.49450563e-03, 0., 1.37362638e-02, 0., 2.19780225e-02 ]
      - [ 1.73160173e-02, 0., 0., 4.32900432e-03, 8.65800865e-03,
          6.92640692e-02, 8.65800865e-03, 6.49350658e-02, 0., 0., 0.,
          3.46320346e-02, 4.32900414e-02, 0., 4.32900432e-03,
          4.32900432e-03, 4.32900432e-03, 0., 0., 1.29870130e-02,
          8.65800865e-03, 4.32900432e-03, 0., 4.32900432e-03,
          4.32900432e-03, 0., 4.32900432e-03, 8.65800865e-03,
          1.29870130e-02, 4.32900432e-03, 1.73160173e-02, 0.,
          1.73160173e-02, 0., 0., 1.73160173e-02, 4.32900432e-03,
          4.32900432e-03, 4.32900432e-03, 0., 4.32900432e-03, 0.,
          8.65800865e-03, 0., 4.32900432e-03, 8.65800865e-03,
          2.16450207e-02, 1.73160173e-02, 2.16450207e-02, 5.62770553e-02,
          8.65800865e-03, 8.65800865e-03, 2.16450207e-02, 2.59740259e-02,
          0., 4.32900432e-03, 4.32900432e-03, 0., 0., 4.32900432e-03,
          4.32900432e-03, 1.29870130e-02, 0., 2.59740259e-02, 0.,
          4.32900432e-03, 1.29870130e-02, 8.65800865e-03, 4.32900432e-03,
          1.29870130e-02, 4.32900432e-03, 0., 8.65800865e-03,
          1.29870130e-02, 0., 4.32900432e-03, 0., 0., 8.65800865e-03, 0.,
          1.29870130e-02, 4.32900432e-03, 4.32900432e-03, 0.,
          1.03896104e-01, 4.32900432e-03, 0., 0., 8.65800865e-03,
          1.73160173e-02, 0., 2.59740259e-02, 2.16450207e-02,
          1.73160173e-02, 0., 4.32900432e-03, 8.65800865e-03, 0.,
          8.65800865e-03, 1.73160173e-02 ]
      - [ 1.04166670e-02, 1.04166670e-02, 0., 6.94444450e-03,
          1.73611119e-02, 3.47222225e-03, 3.47222225e-03, 1.38888890e-02,
          3.47222225e-03, 1.04166670e-02, 6.94444450e-03, 0.,
          6.94444450e-03, 2.43055560e-02, 2.77777780e-02, 1.04166670e-02,
          6.94444450e-03, 6.94444450e-03, 3.47222225e-03, 1.73611119e-02,
          1.73611119e-02, 6.94444450e-03, 1.04166670e-02, 6.94444450e-03,
          0., 0., 6.94444450e-03, 6.94444450e-03, 6.94444450e-03,
          6.94444450e-03, 1.04166670e-02, 3.47222225e-03, 1.73611119e-02,
          0., 6.94444450e-03, 1.04166670e-02, 1.38888890e-02,
          2.43055560e-02, 1.04166670e-02, 6.94444450e-03, 0., 0.,
          3.47222225e-03, 1.04166670e-02, 3.47222225e-03, 1.38888890e-02,
          2.08333340e-02, 3.47222225e-03, 1.04166670e-02, 6.94444450e-03,
          1.73611119e-02, 2.08333340e-02, 0., 0., 1.04166670e-02,
          2.43055560e-02, 0., 1.04166670e-02, 1.38888890e-02,
          3.47222225e-03, 1.04166670e-02, 1.04166670e-02, 6.94444450e-03,
          1.73611119e-02, 1.04166670e-02, 1.38888890e-02, 0.,
          6.94444450e-03, 6.94444450e-03, 1.38888890e-02, 6.94444450e-03,
          6.94444450e-03, 0., 3.47222225e-03, 3.47222225e-03,
          3.47222225e-03, 1.38888890e-02, 0., 3.47222225e-03,
          1.04166670e-02, 6.94444450e-03, 1.38888890e-02, 2.08333340e-02,
          1.04166670e-02, 1.73611119e-02, 6.94444450e-03, 1.04166670e-02,
          0., 1.04166670e-02, 3.47222239e-02, 1.04166670e-02,
          2.08333340e-02, 5.20833321e-02, 1.04166670e-02, 2.43055560e-02,
          1.04166670e-02, 6.94444450e-03, 3.47222225e-03, 3.12500000e-02,
          1.04166670e-02 ]
      - [ 6.53594779e-03, 0., 0., 1.30718956e-02, 1.30718956e-02,
          8.49673226e-02, 0., 6.53594779e-03, 0., 0., 0., 4.57516350e-02,
          5.88235296e-02, 0., 1.30718956e-02, 1.30718956e-02, 0., 0., 0.,
          3.26797403e-02, 2.61437912e-02, 0., 6.53594779e-03, 0.,
          1.30718956e-02, 6.53594779e-03, 6.53594779e-03, 0., 0., 0., 0.,
          6.53594779e-03, 6.53594779e-03, 0., 1.96078438e-02,
          1.11111112e-01, 0., 1.30718956e-02, 1.30718956e-02, 0.,
          6.53594779e-03, 0., 1.30718956e-02, 6.53594779e-03, 0.,
          1.30718956e-02, 1.96078438e-02, 0., 1.96078438e-02,
          5.22875823e-02, 1.30718956e-02, 6.53594779e-03, 1.30718956e-02,
          3.26797403e-02, 0., 0., 1.30718956e-02, 6.53594779e-03, 0.,
          6.53594779e-03, 0., 1.96078438e-02, 1.30718956e-02,
          6.53594779e-03, 6.53594779e-03, 0., 0., 0., 0., 6.53594779e-03,
          1.30718956e-02, 0., 0., 1.30718956e-02, 1.96078438e-02, 0., 0.,
          0., 0., 0., 1.96078438e-02, 1.30718956e-02, 0., 0.,
          2.61437912e-02, 6.53594779e-03, 6.53594779e-03, 0.,
          6.53594779e-03, 2.61437912e-02, 1.96078438e-02, 6.53594779e-03,
          1.30718956e-02, 0., 6.53594779e-03, 0., 6.53594779e-03, 0., 0.,
          6.53594779e-03 ]
      - [ 1.42857144e-02, 0., 7.14285718e-03, 7.14285718e-03, 0.,
          2.14285720e-02, 0., 1.50000006e-01, 7.14285718e-03, 0., 0.,
          7.14285718e-03, 1.42857144e-02, 7.14285718e-03, 7.14285718e-03,
          0., 7.14285718e-03, 0., 0., 1.42857144e-02, 4.28571440e-02, 0.,
          7.14285718e-03, 7.14285718e-03, 0., 0., 7.14285718e-03,
          7.14285718e-03, 1.42857144e-02, 0., 0., 7.14285718e-03, 0.,
          7.14285718e-03, 0., 4.28571440e-02, 0., 1.42857144e-02,
          7.14285718e-03, 0., 0., 0., 7.14285718e-03, 0., 1.42857144e-02,
          7.14285718e-03, 7.14285718e-03, 2.85714287e-02, 2.85714287e-02,
          7.14285718e-03, 7.14285718e-03, 7.14285718e-03, 1.42857144e-02,
          3.57142873e-02, 0., 7.14285718e-03, 0., 0., 7.14285718e-03,
          7.14285718e-03, 7.14285718e-03, 2.14285720e-02, 0.,
          5.00000007e-02, 0., 2.14285720e-02, 1.42857144e-02,
          7.14285718e-03, 0., 1.42857144e-02, 1.42857144e-02,
          7.14285718e-03, 7.14285718e-03, 0., 0., 0., 7.14285718e-03, 0.,
          2.14285720e-02, 1.42857144e-02, 0., 1.42857144e-02, 0., 0.,
          5.00000007e-02, 0., 0., 0., 0., 2.14285720e-02, 0., 0.,
          7.14285718e-03, 1.42857144e-02, 7.14285718e-03, 2.14285720e-02,
          4.28571440e-02, 0., 0., 0. ]
      - [ 1.47058833e-02, 9.80392192e-03, 0., 1.47058833e-02,
          4.90196096e-03, 2.94117667e-02, 4.90196096e-03, 1.96078438e-02,
          0., 4.90196096e-03, 4.90196096e-03, 1.96078438e-02,
          3.92156877e-02, 0., 4.90196096e-03, 4.90196096e-03, 0.,
          9.80392192e-03, 1.47058833e-02, 9.80392192e-03, 1.47058833e-02,
          0., 1.47058833e-02, 9.80392192e-03, 1.96078438e-02,
          4.90196096e-03, 4.90196096e-03, 4.90196096e-03, 4.90196096e-03,
          9.80392192e-03, 0., 4.90196096e-03, 4.90196096e-03, 0.,
          9.80392192e-03, 2.45098043e-02, 0., 0., 0., 9.80392192e-03, 0.,
          4.90196096e-03, 0., 9.80392192e-03, 4.90196096e-03,
          9.80392192e-03, 3.43137272e-02, 4.90196096e-03, 4.90196096e-03,
          0., 5.39215691e-02, 9.80392192e-03, 0., 4.90196096e-03,
          9.80392192e-03, 1.47058833e-02, 9.80392192e-03, 4.90196096e-03,
          4.90196096e-03, 9.80392192e-03, 9.80392192e-03, 2.94117667e-02,
          4.90196096e-03, 9.80392192e-03, 0., 0., 9.80392192e-03,
          4.90196096e-03, 0., 2.45098043e-02, 4.90196096e-03,
          2.45098043e-02, 4.90196096e-03, 2.94117667e-02, 1.47058833e-02,
          4.90196096e-03, 2.45098043e-02, 1.47058833e-02, 4.90196096e-03,
          4.90196096e-03, 4.90196096e-03, 4.90196096e-03, 1.47058833e-02,
          4.90196096e-03, 1.96078438e-02, 4.90196096e-03, 2.94117667e-02,
          4.90196096e-03, 4.90196096e-03, 3.92156877e-02, 1.47058833e-02,
          9.80392192e-03, 9.80392192e-03, 9.80392192e-03, 0.,
          4.90196096e-03, 4.90196096e-03, 9.80392192e-03, 1.96078438e-02,
          9.80392192e-03 ]
      - [ 1.53061226e-02, 2.04081628e-02, 5.10204071e-03, 5.10204071e-03,
          1.53061226e-02, 0., 5.10204071e-03, 2.04081628e-02, 0.,
          5.10204071e-03, 1.53061226e-02, 0., 1.02040814e-02, 0., 0.,
          1.02040814e-02, 0., 2.55102031e-02, 2.04081628e-02,
          1.53061226e-02, 1.53061226e-02, 1.53061226e-02, 0., 0.,
          5.10204071e-03, 0., 1.53061226e-02, 1.02040814e-02, 0.,
          5.10204062e-02, 5.10204071e-03, 1.02040814e-02, 1.02040814e-02,
          1.02040814e-02, 2.04081628e-02, 0., 3.06122452e-02,
          5.10204071e-03, 0., 1.02040814e-02, 0., 5.10204071e-03,
          1.02040814e-02, 3.57142836e-02, 2.04081628e-02, 5.10204071e-03,
          0., 0., 5.10204071e-03, 0., 5.10204071e-03, 5.10204071e-03,
          5.10204071e-03, 5.10204071e-03, 1.02040814e-02, 0., 0.,
          2.55102031e-02, 5.10204071e-03, 0., 2.04081628e-02, 0.,
          1.02040814e-02, 0., 5.10204071e-03, 1.53061226e-02, 0.,
          1.53061226e-02, 5.10204071e-03, 1.53061226e-02, 5.10204071e-03,
          3.57142836e-02, 0., 2.04081628e-02, 0., 0., 0., 0., 0.,
          5.10204071e-03, 0., 0., 1.53061226e-02, 2.04081628e-02,
          2.04081628e-02, 5.10204071e-03, 5.10204071e-03, 5.61224483e-02,
          1.02040814e-02, 0., 5.10204071e-03, 2.04081628e-02,
          2.55102031e-02, 5.10204071e-03, 1.53061226e-02, 1.53061226e-02,
          5.10204071e-03, 2.04081628e-02, 5.10204062e-02, 5.10204071e-03 ]
      - [ 8.43881816e-03, 1.47679318e-02, 8.43881816e-03, 4.21940908e-03,
          1.68776363e-02, 0., 8.43881816e-03, 2.74261590e-02, 0.,
          1.89873409e-02, 1.26582272e-02, 2.10970454e-03, 1.89873409e-02,
          8.43881816e-03, 8.43881816e-03, 1.05485227e-02, 6.32911362e-03,
          2.10970454e-03, 8.43881816e-03, 1.68776363e-02, 8.43881816e-03,
          2.10970454e-03, 1.26582272e-02, 4.21940908e-03, 4.21940908e-03,
          2.10970454e-03, 8.43881816e-03, 2.10970454e-02, 4.21940908e-03,
          2.10970454e-03, 6.32911362e-03, 2.10970454e-03, 2.32067499e-02,
          2.10970454e-03, 1.05485227e-02, 6.32911362e-03, 4.21940908e-03,
          2.10970454e-02, 1.47679318e-02, 1.68776363e-02, 0., 0.,
          1.05485227e-02, 4.21940908e-03, 1.68776363e-02, 8.43881816e-03,
          4.21940908e-03, 6.32911362e-03, 4.21940908e-03, 2.10970454e-03,
          6.32911362e-03, 1.47679318e-02, 8.43881816e-03, 2.10970454e-03,
          6.32911362e-03, 6.32911362e-03, 6.32911362e-03, 8.43881816e-03,
          2.32067499e-02, 2.10970454e-03, 1.47679318e-02, 1.89873409e-02,
          2.10970454e-03, 1.05485227e-02, 0., 4.21940908e-03,
          6.32911362e-03, 1.26582272e-02, 0., 1.26582272e-02,
          1.26582272e-02, 4.00843844e-02, 0., 2.10970454e-03,
          8.43881816e-03, 0., 4.21940908e-03, 0., 4.21940908e-03,
          2.32067499e-02, 4.21940908e-03, 1.68776363e-02, 1.47679318e-02,
          2.32067499e-02, 3.58649790e-02, 1.05485227e-02, 4.21940908e-03,
          8.43881816e-03, 1.89873409e-02, 4.21940908e-03, 6.32911362e-03,
          2.95358635e-02, 2.74261590e-02, 2.95358635e-02, 6.32911362e-03,
          1.68776363e-02, 0., 1.05485227e-02, 2.53164545e-02,
          8.43881816e-03 ]
      - [ 1.11524165e-02, 4.08921912e-02, 3.71747208e-03, 3.71747208e-03,
          1.11524165e-02, 0., 1.11524165e-02, 2.60223038e-02,
          3.71747208e-03, 1.48698883e-02, 7.43494416e-03, 0.,
          3.71747208e-03, 0., 3.71747208e-03, 1.48698883e-02,
          1.48698883e-02, 7.43494416e-03, 1.11524165e-02, 1.11524165e-02,
          1.11524165e-02, 0., 0., 3.71747208e-03, 3.71747208e-03, 0.,
          3.71747208e-03, 1.85873602e-02, 3.71747208e-03, 3.71747208e-03,
          1.85873602e-02, 0., 1.48698883e-02, 0., 1.85873602e-02,
          7.43494416e-03, 1.85873602e-02, 3.71747208e-03, 7.43494416e-03,
          1.11524165e-02, 0., 0., 7.43494416e-03, 3.71747208e-03,
          1.85873602e-02, 3.71747208e-03, 7.43494416e-03, 7.43494416e-03,
          3.71747208e-03, 3.71747208e-03, 1.11524165e-02, 4.46096659e-02,
          0., 7.43494416e-03, 7.43494416e-03, 3.71747208e-03,
          7.43494416e-03, 1.11524165e-02, 2.60223038e-02, 3.71747208e-03,
          1.48698883e-02, 1.11524165e-02, 1.11524165e-02, 3.71747208e-03,
          0., 2.60223038e-02, 0., 1.11524165e-02, 0., 1.85873602e-02,
          7.43494416e-03, 3.34572494e-02, 0., 3.71747208e-03,
          7.43494416e-03, 3.71747208e-03, 1.48698883e-02, 1.11524165e-02,
          0., 1.85873602e-02, 1.48698883e-02, 7.43494416e-03,
          2.97397766e-02, 2.23048329e-02, 0., 3.71747203e-02,
          1.48698883e-02, 7.43494416e-03, 2.23048329e-02, 3.71747208e-03,
          1.11524165e-02, 3.71747208e-03, 1.11524165e-02, 7.43494416e-03,
          2.23048329e-02, 1.48698883e-02, 0., 7.43494416e-03,
          3.34572494e-02, 3.71747208e-03 ]
      - [ 1.84049085e-02, 9.20245424e-03, 1.53374225e-02, 9.20245424e-03,
          6.13496918e-03, 9.20245424e-03, 5.52147217e-02, 5.21472394e-02,
          3.06748459e-03, 0., 0., 3.06748459e-03, 0., 0., 9.20245424e-03,
          6.13496918e-03, 3.06748459e-03, 3.06748459e-03, 2.76073609e-02,
          1.53374225e-02, 3.06748459e-03, 0., 6.13496918e-03,
          3.06748459e-03, 6.13496918e-03, 3.06748459e-03, 6.13496918e-03,
          1.22699384e-02, 3.06748459e-03, 0., 1.53374225e-02,
          3.06748459e-03, 3.06748459e-03, 3.06748459e-03, 2.14723926e-02,
          6.13496918e-03, 6.13496918e-03, 9.20245424e-03, 3.06748459e-03,
          0., 3.06748459e-03, 9.20245424e-03, 6.13496918e-03,
          3.06748459e-03, 2.14723926e-02, 3.06748459e-03, 3.06748459e-03,
          6.13496918e-03, 3.06748459e-03, 1.84049085e-02, 1.53374225e-02,
          1.84049085e-02, 3.06748459e-03, 0., 1.84049085e-02,
          3.06748459e-03, 3.06748459e-03, 1.53374225e-02, 1.53374225e-02,
          3.06748459e-03, 1.22699384e-02, 1.22699384e-02, 9.20245424e-03,
          6.13496918e-03, 3.06748459e-03, 6.13496918e-03, 0.,
          9.20245424e-03, 9.20245424e-03, 2.45398767e-02, 3.06748459e-03,
          1.53374225e-02, 3.06748459e-03, 3.06748459e-03, 1.53374225e-02,
          0., 1.22699384e-02, 6.13496918e-03, 0., 9.20245424e-03, 0.,
          6.13496918e-03, 1.84049085e-02, 3.37423310e-02, 3.06748450e-02,
          7.97545984e-02, 3.06748450e-02, 1.53374225e-02, 2.14723926e-02,
          9.20245424e-03, 0., 1.22699384e-02, 2.14723926e-02, 0.,
          3.06748459e-03, 1.22699384e-02, 0., 6.13496918e-03,
          9.20245424e-03, 0. ]
      - [ 6.66666683e-03, 1.16666667e-02, 1.33333337e-02, 1.66666671e-03,
          1.66666671e-03, 1.66666675e-02, 1.16666667e-02, 3.50000001e-02,
          1.66666671e-03, 4.99999989e-03, 6.66666683e-03, 1.66666675e-02,
          1.16666667e-02, 0., 3.33333341e-03, 1.50000006e-02,
          4.99999989e-03, 2.16666665e-02, 8.33333377e-03, 1.66666675e-02,
          9.99999978e-03, 0., 8.33333377e-03, 8.33333377e-03,
          1.83333345e-02, 1.66666671e-03, 1.66666671e-03, 1.66666671e-03,
          9.99999978e-03, 2.33333334e-02, 9.99999978e-03, 8.33333377e-03,
          6.66666683e-03, 4.99999989e-03, 1.50000006e-02, 3.83333340e-02,
          1.50000006e-02, 3.33333341e-03, 4.99999989e-03, 4.99999989e-03,
          4.99999989e-03, 6.66666683e-03, 6.66666683e-03, 9.99999978e-03,
          8.33333377e-03, 1.66666671e-03, 1.50000006e-02, 3.33333341e-03,
          6.66666683e-03, 9.99999978e-03, 1.16666667e-02, 4.99999989e-03,
          8.33333377e-03, 1.66666675e-02, 1.16666667e-02, 1.66666675e-02,
          4.99999989e-03, 4.99999989e-03, 3.00000012e-02, 9.99999978e-03,
          8.33333377e-03, 6.66666683e-03, 2.33333334e-02, 4.99999989e-03,
          1.33333337e-02, 6.66666683e-03, 3.33333341e-03, 1.50000006e-02,
          9.99999978e-03, 1.33333337e-02, 0., 1.16666667e-02,
          1.66666671e-03, 1.50000006e-02, 9.99999978e-03, 1.99999996e-02,
          8.33333377e-03, 8.33333377e-03, 8.33333377e-03, 9.99999978e-03,
          4.99999989e-03, 4.99999989e-03, 9.99999978e-03, 8.33333377e-03,
          3.33333351e-02, 8.33333377e-03, 1.16666667e-02, 6.66666683e-03,
          6.66666683e-03, 1.50000006e-02, 3.00000012e-02, 6.66666683e-03,
          6.66666683e-03, 3.33333341e-03, 9.99999978e-03, 6.66666683e-03,
          3.33333341e-03, 9.99999978e-03, 6.66666683e-03, 9.99999978e-03 ]
      - [ 3.79146934e-02, 0., 0., 4.73933667e-03, 1.42180100e-02,
          2.84360200e-02, 4.26540300e-02, 2.84360200e-02, 4.73933667e-03,
          0., 0., 4.73933667e-03, 4.73933667e-03, 0., 2.36966833e-02,
          9.47867334e-03, 0., 9.47867334e-03, 4.73933667e-03,
          3.31753567e-02, 2.84360200e-02, 0., 4.73933667e-03,
          4.73933667e-03, 2.36966833e-02, 9.47867334e-03, 9.47867334e-03,
          4.73933667e-03, 0., 0., 2.36966833e-02, 4.73933667e-03, 0., 0.,
          2.36966833e-02, 5.21327034e-02, 0., 4.73933667e-03,
          4.73933667e-03, 0., 0., 4.73933667e-03, 0., 0., 9.47867334e-03,
          2.36966833e-02, 4.73933667e-03, 4.73933667e-03, 1.42180100e-02,
          4.73933667e-03, 4.73933667e-03, 0., 0., 9.47867334e-03,
          1.42180100e-02, 1.89573467e-02, 1.89573467e-02, 4.73933667e-03,
          1.89573467e-02, 3.31753567e-02, 4.73933667e-03, 2.36966833e-02,
          9.47867334e-03, 4.73933667e-03, 9.47867334e-03, 0.,
          9.47867334e-03, 1.89573467e-02, 0., 0., 1.42180100e-02,
          1.42180100e-02, 2.84360200e-02, 0., 4.73933667e-03, 0.,
          4.73933667e-03, 4.73933667e-03, 9.47867334e-03, 4.73933667e-03,
          9.47867334e-03, 0., 2.84360200e-02, 1.42180100e-02,
          1.89573467e-02, 3.79146934e-02, 4.73933667e-03, 0.,
          4.73933667e-03, 4.73933667e-03, 4.73933667e-03, 9.47867334e-03,
          4.73933667e-03, 0., 0., 0., 0., 4.26540300e-02, 0.,
          9.47867334e-03 ]
      - [ 1.81818176e-02, 0., 6.06060587e-03, 0., 0., 4.24242392e-02,
          8.48484784e-02, 2.42424235e-02, 0., 0., 0., 1.81818176e-02,
          1.21212117e-02, 0., 0., 0., 0., 6.06060587e-03, 1.21212117e-02,
          1.81818176e-02, 3.63636352e-02, 0., 3.63636352e-02,
          3.03030293e-02, 6.06060587e-03, 0., 6.06060587e-03,
          1.81818176e-02, 6.06060587e-03, 6.06060587e-03, 6.06060587e-03,
          6.06060587e-03, 0., 1.21212117e-02, 6.06060587e-03,
          8.48484784e-02, 6.06060587e-03, 0., 0., 0., 0., 0.,
          6.06060587e-03, 0., 6.06060587e-03, 3.03030293e-02,
          1.81818176e-02, 0., 1.81818176e-02, 1.21212117e-02, 0., 0.,
          3.63636352e-02, 1.81818176e-02, 0., 0., 2.42424235e-02, 0., 0.,
          3.03030293e-02, 0., 6.06060587e-03, 6.06060587e-03, 0., 0., 0.,
          4.24242392e-02, 6.06060587e-03, 6.06060587e-03, 6.06060587e-03,
          1.81818176e-02, 0., 1.81818176e-02, 6.06060587e-03, 0., 0., 0.,
          0., 4.24242392e-02, 0., 1.21212117e-02, 1.21212117e-02,
          6.06060587e-03, 0., 1.81818176e-02, 0., 6.06060587e-03, 0., 0.,
          0., 1.21212117e-02, 1.21212117e-02, 0., 0., 0., 0.,
          5.45454547e-02, 0., 0., 0. ]
      - [ 7.25952815e-03, 5.44464588e-03, 1.27041740e-02, 1.63339376e-02,
          9.07441042e-03, 5.44464588e-03, 5.80762252e-02, 3.26678753e-02,
          5.44464588e-03, 7.25952815e-03, 1.81488204e-03, 0.,
          1.08892918e-02, 5.44464588e-03, 1.27041740e-02, 3.62976408e-03,
          1.81488208e-02, 7.25952815e-03, 9.07441042e-03, 5.44464588e-03,
          5.44464588e-03, 5.44464588e-03, 1.81488204e-03, 7.25952815e-03,
          1.99637022e-02, 0., 5.44464588e-03, 1.27041740e-02,
          1.45190563e-02, 1.08892918e-02, 5.44464588e-03, 0.,
          1.27041740e-02, 7.25952815e-03, 1.27041740e-02, 1.63339376e-02,
          9.07441042e-03, 2.54083481e-02, 1.63339376e-02, 1.45190563e-02,
          1.81488204e-03, 0., 1.08892918e-02, 3.62976408e-03,
          3.62976408e-03, 1.81488204e-03, 9.07441042e-03, 9.07441042e-03,
          5.44464588e-03, 1.08892918e-02, 1.63339376e-02, 9.07441042e-03,
          7.25952815e-03, 1.81488208e-02, 2.72232313e-02, 7.25952815e-03,
          3.62976408e-03, 9.07441042e-03, 3.62976408e-03, 7.25952815e-03,
          1.63339376e-02, 1.81488208e-02, 1.08892918e-02, 9.07441042e-03,
          5.44464588e-03, 7.25952815e-03, 7.25952815e-03, 5.44464588e-03,
          3.62976408e-03, 3.08529940e-02, 1.08892918e-02, 5.44464588e-03,
          1.81488204e-03, 1.63339376e-02, 3.62976408e-03, 3.62976408e-03,
          1.81488204e-03, 7.25952815e-03, 3.62976408e-03, 7.25952815e-03,
          1.81488204e-03, 1.08892918e-02, 7.25952815e-03, 5.44464588e-03,
          1.81488208e-02, 3.44827585e-02, 7.25952815e-03, 7.25952815e-03,
          1.81488204e-03, 1.99637022e-02, 3.62976408e-03, 1.81488208e-02,
          3.62976408e-03, 2.35934667e-02, 1.63339376e-02, 1.27041740e-02,
          3.62976408e-03, 1.81488204e-03, 1.63339376e-02, 7.25952815e-03 ]
      - [ 1.59362555e-02, 3.98406386e-03, 2.39043832e-02, 0.,
          7.96812773e-03, 1.99203193e-02, 3.98406386e-03, 5.17928302e-02,
          7.96812773e-03, 3.98406386e-03, 1.19521916e-02, 7.96812773e-03,
          1.19521916e-02, 1.59362555e-02, 4.78087664e-02, 0.,
          7.96812773e-03, 3.98406386e-03, 1.59362555e-02, 5.57768941e-02,
          3.98406386e-03, 7.96812773e-03, 1.19521916e-02, 2.39043832e-02,
          3.98406386e-03, 0., 0., 3.98406386e-03, 7.96812773e-03, 0.,
          1.19521916e-02, 0., 1.59362555e-02, 0., 3.98406386e-03,
          3.98406386e-03, 0., 3.98406386e-03, 3.98406386e-03, 0.,
          3.98406386e-03, 3.98406386e-03, 7.96812773e-03, 0.,
          1.59362555e-02, 3.18725109e-02, 7.96812773e-03, 3.98406386e-03,
          7.96812773e-03, 0., 1.99203193e-02, 7.96812773e-03,
          3.98406386e-03, 1.59362555e-02, 1.59362555e-02, 7.96812773e-03,
          2.39043832e-02, 3.98406386e-03, 0., 1.99203193e-02,
          3.98406386e-03, 1.99203193e-02, 1.19521916e-02, 3.98406386e-03,
          3.98406386e-03, 7.96812773e-03, 1.19521916e-02, 2.39043832e-02,
          0., 0., 3.98406386e-03, 0., 3.98406386e-03, 2.39043832e-02,
          3.98406386e-03, 0., 1.19521916e-02, 3.98406386e-03,
          7.96812773e-03, 1.59362555e-02, 0., 3.98406386e-03,
          7.96812773e-03, 1.19521916e-02, 1.59362555e-02, 0.,
          3.98406386e-03, 7.96812773e-03, 3.98406386e-03, 1.19521916e-02,
          0., 3.98406386e-03, 1.99203193e-02, 2.78884470e-02,
          1.19521916e-02, 7.96812773e-03, 7.96812773e-03, 7.96812773e-03,
          4.78087664e-02, 3.98406386e-03 ]
      - [ 1.06100794e-02, 1.06100794e-02, 1.06100794e-02, 2.65251985e-03,
          7.95755908e-03, 0., 7.95755908e-03, 4.24403176e-02, 0.,
          2.65251985e-03, 5.30503970e-03, 1.06100794e-02, 5.30503970e-03,
          0., 5.30503970e-03, 1.32625997e-02, 5.30503970e-03,
          1.32625997e-02, 1.32625997e-02, 1.85676385e-02, 1.06100794e-02,
          0., 7.95755908e-03, 1.06100794e-02, 1.06100794e-02, 0.,
          1.85676385e-02, 1.59151182e-02, 0., 1.32625997e-02,
          1.06100794e-02, 0., 2.65251985e-03, 7.95755908e-03,
          1.85676385e-02, 5.30503970e-03, 1.32625997e-02, 1.06100794e-02,
          2.12201588e-02, 7.95755908e-03, 0., 7.95755908e-03,
          1.85676385e-02, 2.65251985e-03, 1.06100794e-02, 1.85676385e-02,
          2.65251985e-03, 1.06100794e-02, 1.32625997e-02, 7.95755908e-03,
          2.38726791e-02, 1.06100794e-02, 0., 1.32625997e-02,
          2.65251994e-02, 7.95755908e-03, 1.32625997e-02, 1.85676385e-02,
          5.30503970e-03, 1.06100794e-02, 2.65251985e-03, 1.06100794e-02,
          7.95755908e-03, 1.32625997e-02, 1.32625997e-02, 1.32625997e-02,
          0., 5.30503970e-03, 7.95755908e-03, 1.59151182e-02,
          5.30503970e-03, 1.32625997e-02, 5.30503970e-03, 1.32625997e-02,
          1.32625997e-02, 0., 1.85676385e-02, 0., 2.65251985e-03,
          5.30503970e-03, 2.65251985e-03, 7.95755908e-03, 1.85676385e-02,
          2.65251985e-03, 2.12201588e-02, 5.30503988e-02, 1.06100794e-02,
          5.30503970e-03, 7.95755908e-03, 1.32625997e-02, 2.65251994e-02,
          1.06100794e-02, 1.59151182e-02, 2.65251985e-03, 1.06100794e-02,
          2.65251985e-03, 0., 2.12201588e-02, 2.65251985e-03,
          2.65251985e-03 ]
      - [ 1.29870130e-02, 3.24675324e-03, 9.74025950e-03, 6.49350649e-03,
          6.49350649e-03, 2.92207785e-02, 3.57142873e-02, 2.59740259e-02,
          3.24675324e-03, 0., 6.49350649e-03, 1.29870130e-02,
          1.29870130e-02, 0., 1.29870130e-02, 3.24675324e-03,
          6.49350649e-03, 0., 1.29870130e-02, 1.62337665e-02,
          2.27272734e-02, 0., 1.62337665e-02, 6.49350649e-03,
          6.49350649e-03, 0., 9.74025950e-03, 9.74025950e-03,
          6.49350649e-03, 9.74025950e-03, 1.62337665e-02, 6.49350649e-03,
          6.49350649e-03, 1.29870130e-02, 6.49350649e-03, 4.54545468e-02,
          0., 9.74025950e-03, 2.27272734e-02, 0., 3.24675324e-03,
          3.24675324e-03, 6.49350649e-03, 6.49350649e-03, 6.49350649e-03,
          3.24675324e-03, 1.62337665e-02, 3.24675324e-03, 6.49350649e-03,
          9.74025950e-03, 1.94805190e-02, 6.49350649e-03, 0.,
          3.24675324e-03, 9.74025950e-03, 3.24675324e-03, 9.74025950e-03,
          1.94805190e-02, 1.29870130e-02, 6.49350649e-03, 3.24675324e-03,
          9.74025950e-03, 9.74025950e-03, 9.74025950e-03, 3.24675324e-03,
          0., 1.29870130e-02, 3.24675324e-03, 3.24675324e-03,
          1.29870130e-02, 1.94805190e-02, 1.29870130e-02, 9.74025950e-03,
          2.27272734e-02, 1.29870130e-02, 3.24675324e-03, 9.74025950e-03,
          6.49350649e-03, 1.94805190e-02, 1.62337665e-02, 9.74025950e-03,
          6.49350649e-03, 6.49350649e-03, 1.62337665e-02, 1.62337665e-02,
          1.94805190e-02, 0., 1.94805190e-02, 9.74025950e-03,
          2.59740259e-02, 1.29870130e-02, 1.94805190e-02, 1.62337665e-02,
          6.49350649e-03, 3.24675324e-03, 3.24675324e-03, 9.74025950e-03,
          6.49350649e-03, 0., 3.24675324e-03 ]
      - [ 1.73160173e-02, 1.29870130e-02, 4.32900432e-03, 0.,
          4.32900432e-03, 2.16450207e-02, 3.03030312e-02, 7.35930726e-02,
          0., 0., 4.32900432e-03, 8.65800865e-03, 1.73160173e-02, 0.,
          3.03030312e-02, 4.32900432e-03, 1.29870130e-02, 4.32900432e-03,
          1.29870130e-02, 3.03030312e-02, 8.65800865e-03, 0., 0.,
          8.65800865e-03, 8.65800865e-03, 4.32900432e-03, 2.59740259e-02,
          1.73160173e-02, 2.16450207e-02, 4.32900432e-03, 3.03030312e-02,
          4.32900432e-03, 0., 8.65800865e-03, 0., 1.29870130e-02,
          4.32900432e-03, 0., 0., 0., 0., 4.32900432e-03, 4.32900432e-03,
          0., 2.59740259e-02, 1.73160173e-02, 0., 4.32900432e-03,
          4.32900432e-03, 1.73160173e-02, 1.73160173e-02, 4.32900432e-03,
          0., 1.73160173e-02, 8.65800865e-03, 1.29870130e-02,
          1.73160173e-02, 1.29870130e-02, 1.29870130e-02, 3.89610380e-02,
          8.65800865e-03, 1.29870130e-02, 8.65800865e-03, 8.65800865e-03,
          8.65800865e-03, 4.32900432e-03, 8.65800865e-03, 8.65800865e-03,
          0., 4.32900432e-03, 0., 4.32900432e-03, 8.65800865e-03,
          4.32900432e-03, 1.29870130e-02, 8.65800865e-03, 1.73160173e-02,
          0., 4.32900432e-03, 2.59740259e-02, 4.32900432e-03, 0.,
          1.29870130e-02, 8.65800865e-03, 1.73160173e-02, 1.73160173e-02,
          4.32900432e-03, 0., 1.29870130e-02, 1.29870130e-02,
          8.65800865e-03, 2.59740259e-02, 2.59740259e-02, 4.32900432e-03,
          0., 0., 0., 0., 4.32900432e-03, 8.65800865e-03 ]
      - [ 5.43478271e-03, 1.08695654e-02, 0., 0., 1.08695654e-02,
          1.03260875e-01, 2.17391308e-02, 8.69565234e-02, 0., 0., 0.,
          1.63043477e-02, 5.43478271e-03, 0., 5.43478271e-03,
          1.08695654e-02, 0., 5.43478271e-03, 5.43478271e-03,
          1.63043477e-02, 2.17391308e-02, 0., 5.43478280e-02,
          3.26086953e-02, 0., 0., 5.43478271e-03, 1.08695654e-02, 0.,
          1.08695654e-02, 5.43478271e-03, 5.43478271e-03, 5.43478271e-03,
          1.08695654e-02, 0., 2.17391308e-02, 0., 0., 5.43478271e-03,
          5.43478271e-03, 0., 0., 5.43478271e-03, 0., 2.17391308e-02, 0.,
          1.63043477e-02, 2.17391308e-02, 1.08695654e-02, 1.08695654e-02,
          1.63043477e-02, 0., 0., 0., 1.08695654e-02, 5.43478271e-03, 0.,
          0., 5.43478271e-03, 3.26086953e-02, 5.43478271e-03,
          5.43478271e-03, 0., 2.17391308e-02, 1.63043477e-02,
          5.43478271e-03, 2.17391308e-02, 1.08695654e-02, 0.,
          1.63043477e-02, 1.08695654e-02, 0., 0., 0., 0., 1.63043477e-02,
          5.43478271e-03, 1.63043477e-02, 1.08695654e-02, 1.08695654e-02,
          5.43478271e-03, 1.08695654e-02, 0., 5.43478271e-03,
          3.26086953e-02, 5.43478271e-03, 1.63043477e-02, 0., 0.,
          1.63043477e-02, 5.43478271e-03, 1.63043477e-02, 2.17391308e-02,
          0., 0., 5.43478271e-03, 1.63043477e-02, 5.43478271e-03, 0.,
          5.43478271e-03 ]
      - [ 2.17391308e-02, 0., 1.08695654e-02, 0., 0., 0., 0.,
          9.23913047e-02, 0., 0., 5.43478271e-03, 1.08695654e-02,
          4.89130430e-02, 0., 3.80434804e-02, 0., 5.43478271e-03,
          5.43478271e-03, 0., 1.08695654e-02, 5.43478271e-03, 0.,
          1.08695654e-02, 5.43478271e-03, 1.08695654e-02, 1.63043477e-02,
          0., 1.63043477e-02, 1.08695654e-02, 5.43478271e-03, 0.,
          2.71739140e-02, 0., 2.71739140e-02, 0., 2.71739140e-02, 0.,
          1.63043477e-02, 0., 0., 2.17391308e-02, 0., 0., 0.,
          4.34782617e-02, 3.26086953e-02, 1.08695654e-02, 5.43478271e-03,
          3.80434804e-02, 1.08695654e-02, 0., 0., 3.80434804e-02,
          1.08695654e-02, 5.43478271e-03, 5.43478271e-03, 1.08695654e-02,
          0., 0., 3.26086953e-02, 5.43478271e-03, 2.71739140e-02, 0.,
          1.08695654e-02, 0., 0., 5.43478271e-03, 5.43478271e-03, 0.,
          3.80434804e-02, 1.08695654e-02, 0., 0., 1.08695654e-02, 0.,
          5.43478271e-03, 5.43478271e-03, 0., 5.43478271e-03,
          1.08695654e-02, 0., 0., 0., 0., 7.06521720e-02, 0., 0., 0., 0.,
          1.08695654e-02, 0., 0., 3.26086953e-02, 1.63043477e-02, 0., 0.,
          1.08695654e-02, 0., 1.08695654e-02, 1.08695654e-02 ]
      - [ 7.71208201e-03, 0., 5.14138816e-03, 1.28534706e-02,
          1.28534706e-02, 5.14138816e-03, 0., 1.38817474e-01, 0.,
          3.08483280e-02, 7.71208201e-03, 1.28534706e-02, 2.57069413e-02,
          2.05655526e-02, 1.02827763e-02, 0., 1.54241640e-02,
          1.02827763e-02, 2.57069408e-03, 7.71208201e-03, 1.02827763e-02,
          1.54241640e-02, 2.57069408e-03, 0., 2.57069408e-03, 0.,
          2.57069408e-03, 1.02827763e-02, 1.28534706e-02, 0., 0.,
          5.14138816e-03, 1.28534706e-02, 5.14138816e-03, 0.,
          5.14138825e-02, 1.79948583e-02, 2.31362469e-02, 2.82776356e-02,
          2.57069408e-03, 0., 0., 1.28534706e-02, 1.02827763e-02,
          5.14138816e-03, 0., 2.57069408e-03, 1.79948583e-02,
          1.02827763e-02, 7.71208201e-03, 5.14138816e-03, 2.57069408e-03,
          5.14138816e-03, 1.79948583e-02, 0., 7.71208201e-03,
          1.54241640e-02, 1.02827763e-02, 2.57069408e-03, 1.54241640e-02,
          5.14138816e-03, 5.14138816e-03, 2.57069408e-03, 3.08483280e-02,
          1.02827763e-02, 7.71208201e-03, 2.57069408e-03, 0.,
          1.02827763e-02, 3.08483280e-02, 7.71208201e-03, 0.,
          2.57069408e-03, 0., 0., 2.57069408e-03, 5.14138816e-03, 0.,
          2.57069408e-03, 2.57069408e-03, 2.57069408e-03, 1.28534706e-02,
          2.57069408e-03, 2.57069408e-03, 2.57069413e-02, 0., 0., 0.,
          2.57069408e-03, 1.02827763e-02, 1.02827763e-02, 2.57069408e-03,
          2.57069408e-03, 4.11311053e-02, 5.14138816e-03, 5.14138816e-03,
          4.62724939e-02, 7.71208201e-03, 7.71208201e-03, 5.14138816e-03 ]
      - [ 1.03626940e-02, 2.59067342e-02, 2.07253881e-02, 1.03626940e-02,
          0., 0., 1.55440411e-02, 1.55440411e-02, 5.18134702e-03, 0., 0.,
          0., 0., 0., 0., 0., 0., 2.59067342e-02, 1.55440411e-02,
          1.55440411e-02, 1.55440411e-02, 0., 1.03626940e-02,
          1.55440411e-02, 0., 0., 5.18134702e-03, 5.18134702e-03,
          5.18134702e-03, 2.07253881e-02, 5.18134702e-03, 0.,
          5.18134702e-03, 0., 1.03626940e-02, 5.18134702e-03,
          1.03626940e-02, 1.55440411e-02, 0., 0., 0., 5.18134702e-03,
          1.03626940e-02, 5.18134702e-03, 5.18134702e-03, 0.,
          2.59067342e-02, 1.55440411e-02, 5.18134702e-03, 0.,
          1.03626940e-02, 5.18134702e-03, 1.03626940e-02, 0.,
          1.03626940e-02, 1.55440411e-02, 0., 5.18134702e-03,
          1.03626940e-02, 0., 3.62694301e-02, 0., 1.03626940e-02,
          1.03626940e-02, 0., 2.07253881e-02, 1.03626940e-02,
          1.03626940e-02, 0., 2.07253881e-02, 0., 3.62694301e-02, 0.,
          1.55440411e-02, 1.03626940e-02, 1.03626940e-02, 1.03626940e-02,
          0., 1.03626940e-02, 3.10880821e-02, 0., 1.03626940e-02,
          5.18134702e-03, 1.03626940e-02, 1.03626940e-02, 2.07253881e-02,
          2.59067342e-02, 1.03626940e-02, 5.18134702e-03, 1.03626940e-02,
          2.59067342e-02, 2.59067342e-02, 7.77202025e-02, 0.,
          2.59067342e-02, 1.55440411e-02, 0., 1.03626940e-02,
          3.10880821e-02, 5.18134702e-03 ]
      - [ 1.57068074e-02, 5.23560215e-03, 0., 0., 5.23560215e-03,
          6.28272295e-02, 5.23560215e-03, 4.71204184e-02, 0.,
          2.09424086e-02, 5.23560215e-03, 5.23560215e-03, 5.23560215e-03,
          5.23560215e-03, 0., 0., 1.57068074e-02, 0., 5.23560215e-03,
          3.14136147e-02, 5.23560215e-03, 2.09424086e-02, 5.23560215e-03,
          0., 5.23560215e-03, 0., 0., 0., 1.04712043e-02, 1.04712043e-02,
          5.23560215e-03, 3.14136147e-02, 1.57068074e-02, 2.61780098e-02,
          5.23560215e-03, 4.18848172e-02, 1.04712043e-02, 0.,
          5.23560215e-03, 2.09424086e-02, 0., 5.23560215e-03,
          1.04712043e-02, 1.57068074e-02, 0., 5.23560215e-03, 0.,
          1.04712043e-02, 5.23560215e-03, 5.23560215e-03, 0.,
          5.23560215e-03, 5.23560215e-03, 2.09424086e-02, 0., 0., 0.,
          5.23560215e-03, 5.23560215e-03, 0., 5.23560215e-03,
          2.61780098e-02, 5.23560215e-03, 0., 5.23560215e-03,
          1.57068074e-02, 7.85340294e-02, 0., 5.23560215e-03,
          2.61780098e-02, 1.04712043e-02, 0., 0., 1.04712043e-02,
          5.23560215e-03, 5.23560215e-03, 5.23560215e-03, 0.,
          7.32984319e-02, 1.04712043e-02, 0., 0., 5.23560215e-03, 0.,
          2.09424086e-02, 3.14136147e-02, 0., 5.23560215e-03,
          1.04712043e-02, 0., 1.57068074e-02, 0., 1.04712043e-02,
          5.23560215e-03, 0., 2.09424086e-02, 1.04712043e-02,
          5.23560215e-03, 1.04712043e-02, 5.23560215e-03 ]
      - [ 9.86842066e-03, 1.97368413e-02, 0., 3.28947371e-03,
          1.31578948e-02, 9.86842066e-03, 0., 1.31578948e-02,
          3.28947371e-03, 0., 6.57894742e-03, 1.31578948e-02,
          6.57894742e-03, 0., 2.63157897e-02, 2.96052638e-02,
          6.57894742e-03, 1.31578948e-02, 3.28947371e-03, 6.57894742e-03,
          2.30263155e-02, 0., 6.57894742e-03, 6.57894742e-03,
          6.57894742e-03, 3.28947371e-03, 2.63157897e-02, 1.97368413e-02,
          3.28947371e-03, 3.28947371e-03, 6.57894742e-03, 3.28947371e-03,
          2.63157897e-02, 6.57894742e-03, 0., 1.97368413e-02,
          6.57894742e-03, 9.86842066e-03, 9.86842066e-03, 0., 0., 0.,
          2.96052638e-02, 6.57894742e-03, 3.28947371e-03, 1.64473690e-02,
          3.28947380e-02, 9.86842066e-03, 9.86842066e-03, 2.63157897e-02,
          2.30263155e-02, 0., 1.64473690e-02, 2.63157897e-02,
          1.64473690e-02, 2.30263155e-02, 9.86842066e-03, 1.97368413e-02,
          6.57894742e-03, 6.57894742e-03, 0., 9.86842066e-03, 0.,
          1.64473690e-02, 3.28947371e-03, 3.28947371e-03, 9.86842066e-03,
          2.96052638e-02, 3.28947371e-03, 0., 2.63157897e-02, 0.,
          3.28947371e-03, 1.64473690e-02, 3.28947371e-03, 0.,
          6.57894742e-03, 6.57894742e-03, 1.64473690e-02, 9.86842066e-03,
          9.86842066e-03, 3.28947371e-03, 6.57894742e-03, 6.57894742e-03,
          2.63157897e-02, 9.86842066e-03, 3.28947371e-03, 6.57894742e-03,
          0., 1.31578948e-02, 2.63157897e-02, 6.57894742e-03,
          1.31578948e-02, 3.28947371e-03, 6.57894742e-03, 6.57894742e-03,
          1.64473690e-02, 6.57894742e-03, 3.28947371e-03, 6.57894742e-03 ]
      - [ 2.61437912e-02, 0., 6.53594779e-03, 6.53594779e-03,
          6.53594779e-03, 1.04575165e-01, 0., 1.96078438e-02, 0., 0.,
          6.53594779e-03, 3.26797403e-02, 4.57516350e-02, 0.,
          3.26797403e-02, 0., 0., 6.53594779e-03, 0., 6.53594779e-03,
          7.84313753e-02, 0., 1.96078438e-02, 1.30718956e-02,
          6.53594779e-03, 0., 0., 6.53594779e-03, 0., 0., 0., 0., 0.,
          1.30718956e-02, 0., 7.18954280e-02, 0., 1.30718956e-02,
          6.53594779e-03, 6.53594779e-03, 6.53594779e-03, 6.53594779e-03,
          6.53594779e-03, 1.30718956e-02, 1.30718956e-02, 6.53594779e-03,
          1.96078438e-02, 1.30718956e-02, 1.96078438e-02, 1.30718956e-02,
          0., 0., 1.30718956e-02, 6.53594779e-03, 0., 0., 1.30718956e-02,
          0., 0., 6.53594779e-03, 0., 3.92156877e-02, 6.53594779e-03,
          3.92156877e-02, 6.53594779e-03, 6.53594779e-03, 2.61437912e-02,
          0., 0., 6.53594779e-03, 1.30718956e-02, 0., 0., 0.,
          6.53594779e-03, 0., 1.30718956e-02, 0., 1.96078438e-02, 0.,
          6.53594779e-03, 6.53594779e-03, 0., 0., 1.30718956e-02, 0., 0.,
          6.53594779e-03, 6.53594779e-03, 6.53594779e-03, 6.53594779e-03,
          0., 2.61437912e-02, 0., 0., 0., 4.57516350e-02, 0., 0., 0. ]
      - [ 2.35849060e-02, 9.43396240e-03, 9.43396240e-03, 9.43396240e-03,
          4.71698120e-03, 0., 4.71698120e-03, 3.30188684e-02,
          4.71698120e-03, 1.41509436e-02, 1.41509436e-02, 4.71698120e-03,
          1.41509436e-02, 0., 0., 9.43396240e-03, 9.43396240e-03,
          9.43396240e-03, 9.43396240e-03, 1.41509436e-02, 9.43396240e-03,
          0., 4.71698120e-03, 4.71698120e-03, 2.83018872e-02,
          9.43396240e-03, 9.43396240e-03, 0., 0., 0., 0., 4.71698120e-03,
          2.83018872e-02, 9.43396240e-03, 2.35849060e-02, 4.71698120e-03,
          4.71698120e-03, 2.35849060e-02, 1.88679248e-02, 4.71698120e-03,
          4.71698120e-03, 0., 4.71698120e-03, 4.71698120e-03,
          1.88679248e-02, 0., 1.41509436e-02, 4.71698120e-03,
          9.43396240e-03, 9.43396240e-03, 9.43396240e-03, 2.83018872e-02,
          1.41509436e-02, 9.43396240e-03, 4.71698120e-03, 9.43396240e-03,
          0., 1.88679248e-02, 2.83018872e-02, 0., 0., 2.35849060e-02,
          9.43396240e-03, 4.71698120e-03, 4.71698120e-03, 2.35849060e-02,
          1.41509436e-02, 4.71698120e-03, 4.71698120e-03, 9.43396240e-03,
          0., 2.35849060e-02, 4.71698120e-03, 1.41509436e-02, 0., 0.,
          4.71698120e-03, 0., 9.43396240e-03, 9.43396240e-03,
          1.88679248e-02, 1.41509436e-02, 2.35849060e-02, 4.71698120e-03,
          1.41509436e-02, 9.43396240e-03, 0., 4.71698120e-03,
          2.35849060e-02, 9.43396240e-03, 1.41509436e-02, 1.88679248e-02,
          2.35849060e-02, 1.88679248e-02, 9.43396240e-03, 9.43396240e-03,
          0., 9.43396240e-03, 2.35849060e-02, 4.71698120e-03 ]
      - [ 1.12570357e-02, 3.75234522e-03, 3.75234522e-03, 9.38086305e-03,
          5.62851783e-03, 1.12570357e-02, 3.75234522e-02, 4.87804860e-02,
          3.75234522e-03, 5.62851783e-03, 7.50469044e-03, 2.81425901e-02,
          1.31332083e-02, 3.75234522e-03, 1.12570357e-02, 5.62851783e-03,
          9.38086305e-03, 7.50469044e-03, 3.75234522e-03, 1.50093809e-02,
          1.68855526e-02, 7.50469044e-03, 1.68855526e-02, 7.50469044e-03,
          1.12570357e-02, 1.87617261e-03, 3.75234522e-03, 5.62851783e-03,
          3.75234522e-03, 1.50093809e-02, 1.12570357e-02, 5.62851783e-03,
          1.12570357e-02, 3.75234522e-03, 3.75234522e-03, 3.18949334e-02,
          0., 1.12570357e-02, 9.38086305e-03, 7.50469044e-03, 0., 0.,
          5.62851783e-03, 1.50093809e-02, 0., 5.62851783e-03,
          1.68855526e-02, 9.38086305e-03, 9.38086305e-03, 7.50469044e-03,
          3.75234522e-03, 1.31332083e-02, 1.50093809e-02, 1.87617261e-02,
          7.50469044e-03, 1.87617261e-03, 9.38086305e-03, 1.87617261e-02,
          7.50469044e-03, 5.62851783e-03, 1.68855526e-02, 1.12570357e-02,
          5.62851783e-03, 1.87617261e-03, 3.75234522e-03, 3.75234522e-03,
          1.12570357e-02, 7.50469044e-03, 5.62851783e-03, 7.50469044e-03,
          5.62851783e-03, 9.38086305e-03, 3.75234522e-03, 3.00187618e-02,
          1.87617261e-03, 1.87617261e-03, 1.87617261e-03, 1.87617261e-03,
          3.75234522e-03, 1.12570357e-02, 5.62851783e-03, 1.87617261e-03,
          9.38086305e-03, 7.50469044e-03, 4.69043143e-02, 3.56472805e-02,
          1.50093809e-02, 1.12570357e-02, 5.62851783e-03, 1.50093809e-02,
          5.62851783e-03, 3.75234522e-03, 2.62664165e-02, 1.12570357e-02,
          3.75234522e-03, 1.87617261e-03, 1.12570357e-02, 0.,
          3.18949334e-02, 1.87617261e-03 ]
      - [ 1.96721312e-02, 1.31147541e-02, 3.27868834e-02, 1.31147541e-02,
          1.63934417e-02, 0., 0., 2.29508206e-02, 6.55737706e-03,
          1.63934417e-02, 1.31147541e-02, 1.31147541e-02, 6.55737706e-03,
          0., 3.27868853e-03, 3.27868853e-03, 1.96721312e-02,
          1.63934417e-02, 1.96721312e-02, 0., 1.63934417e-02, 0.,
          1.63934417e-02, 1.31147541e-02, 0., 3.27868853e-03,
          6.55737706e-03, 2.29508206e-02, 1.63934417e-02, 2.29508206e-02,
          0., 0., 2.95081958e-02, 6.55737706e-03, 9.83606558e-03,
          6.55737706e-03, 9.83606558e-03, 2.95081958e-02, 2.29508206e-02,
          2.62295082e-02, 6.55737706e-03, 1.31147541e-02, 2.29508206e-02,
          1.31147541e-02, 3.27868853e-03, 6.55737706e-03, 3.27868853e-03,
          3.27868853e-03, 6.55737706e-03, 9.83606558e-03, 1.63934417e-02,
          9.83606558e-03, 0., 3.27868853e-03, 6.55737706e-03,
          2.62295082e-02, 3.27868853e-03, 9.83606558e-03, 6.55737706e-03,
          0., 1.96721312e-02, 1.31147541e-02, 0., 1.96721312e-02,
          3.27868853e-03, 2.29508206e-02, 3.27868853e-03, 0.,
          9.83606558e-03, 6.55737706e-03, 9.83606558e-03, 1.31147541e-02,
          3.27868853e-03, 6.55737706e-03, 3.27868853e-03, 3.27868853e-03,
          6.55737706e-03, 1.31147541e-02, 3.27868853e-03, 2.29508206e-02,
          3.27868853e-03, 3.27868853e-03, 3.27868853e-03, 0.,
          3.27868853e-03, 3.27868853e-03, 3.27868853e-03, 6.55737706e-03,
          3.27868853e-03, 1.31147541e-02, 6.55737706e-03, 1.96721312e-02,
          6.55737706e-03, 6.55737706e-03, 1.31147541e-02, 1.96721312e-02,
          0., 9.83606558e-03, 1.31147541e-02, 1.31147541e-02 ]
      - [ 8.16326495e-03, 4.08163248e-03, 1.63265299e-02, 2.04081628e-02,
          2.85714269e-02, 1.63265299e-02, 2.04081624e-03, 1.83673464e-02,
          0., 2.24489793e-02, 8.16326495e-03, 1.02040814e-02,
          2.04081624e-03, 2.44897939e-02, 8.16326495e-03, 8.16326495e-03,
          2.04081628e-02, 8.16326495e-03, 1.63265299e-02, 6.12244848e-03,
          6.12244848e-03, 4.08163248e-03, 6.12244848e-03, 8.16326495e-03,
          6.12244848e-03, 0., 4.08163248e-03, 4.08163248e-03,
          6.12244848e-03, 1.42857134e-02, 4.08163248e-03, 0.,
          2.44897939e-02, 6.12244848e-03, 1.63265299e-02, 4.08163248e-03,
          1.22448970e-02, 3.26530598e-02, 2.04081628e-02, 6.12244848e-03,
          0., 0., 2.04081628e-02, 8.16326495e-03, 1.02040814e-02,
          1.02040814e-02, 2.04081628e-02, 2.04081628e-02, 6.12244848e-03,
          1.22448970e-02, 0., 8.16326495e-03, 0., 1.63265299e-02,
          4.08163248e-03, 1.83673464e-02, 8.16326495e-03, 6.12244848e-03,
          8.16326495e-03, 2.04081624e-03, 1.42857134e-02, 8.16326495e-03,
          1.42857134e-02, 8.16326495e-03, 6.12244848e-03, 4.08163248e-03,
          4.08163248e-03, 2.04081624e-03, 8.16326495e-03, 0.,
          6.12244848e-03, 1.22448970e-02, 2.04081624e-03, 2.04081624e-03,
          8.16326495e-03, 0., 8.16326495e-03, 0., 8.16326495e-03,
          1.42857134e-02, 1.02040814e-02, 6.12244848e-03, 1.02040814e-02,
          4.08163248e-03, 1.02040814e-02, 0., 4.08163248e-03,
          1.02040814e-02, 1.22448970e-02, 2.44897939e-02, 8.16326495e-03,
          2.04081628e-02, 1.42857134e-02, 3.26530598e-02, 1.42857134e-02,
          1.83673464e-02, 2.65306104e-02, 4.08163248e-03, 1.63265299e-02,
          8.16326495e-03 ]
      - [ 1.05900150e-02, 1.51285925e-03, 1.05900150e-02, 1.21028740e-02,
          9.07715596e-03, 6.35400862e-02, 1.05900150e-02, 3.02571850e-03,
          3.02571850e-03, 3.02571850e-03, 1.51285925e-03, 9.07715596e-03,
          9.07715596e-03, 1.51285925e-03, 7.56429601e-03, 6.05143700e-03,
          3.02571850e-03, 7.56429601e-03, 6.05143700e-03, 9.07715596e-03,
          4.53857798e-03, 0., 7.56429601e-03, 6.05143700e-03,
          4.99243550e-02, 3.02571850e-03, 6.05143700e-03, 1.36157330e-02,
          7.56429601e-03, 9.07715596e-03, 3.02571850e-03, 3.02571850e-03,
          6.05143700e-03, 3.02571850e-03, 6.05143700e-03, 4.99243550e-02,
          7.56429601e-03, 1.05900150e-02, 1.21028740e-02, 3.02571850e-03,
          0., 1.51285925e-03, 1.36157330e-02, 9.07715596e-03,
          1.36157330e-02, 3.02571850e-03, 1.36157330e-02, 1.51285920e-02,
          3.02571850e-03, 6.05143700e-03, 6.80786669e-02, 1.51285925e-03,
          3.02571850e-03, 1.21028740e-02, 4.84114960e-02, 1.36157330e-02,
          4.53857798e-03, 7.56429601e-03, 4.53857798e-03, 3.02571850e-03,
          1.05900150e-02, 4.53857798e-03, 7.56429601e-03, 1.51285920e-02,
          6.05143700e-03, 4.53857798e-03, 1.51285925e-03, 1.36157330e-02,
          3.02571850e-03, 1.66414510e-02, 9.07715596e-03, 7.56429601e-03,
          1.51285925e-03, 3.17700431e-02, 7.56429601e-03, 4.53857798e-03,
          1.66414510e-02, 3.02571850e-03, 3.02571850e-03, 1.21028740e-02,
          4.53857798e-03, 4.53857798e-03, 3.02571850e-03, 4.53857798e-03,
          4.53857798e-03, 1.81543119e-02, 1.66414510e-02, 3.02571850e-03,
          3.02571850e-03, 1.66414510e-02, 1.21028740e-02, 1.51285920e-02,
          1.36157330e-02, 4.53857798e-03, 6.05143700e-03, 1.21028740e-02,
          7.56429601e-03, 1.21028740e-02, 7.56429601e-03, 6.05143700e-03 ]
      - [ 3.60824727e-02, 0., 5.15463902e-03, 0., 0., 1.54639166e-02, 0.,
          6.70103058e-02, 5.15463902e-03, 0., 1.03092780e-02,
          2.06185561e-02, 5.15463911e-02, 0., 1.54639166e-02, 0., 0.,
          5.15463902e-03, 0., 5.15463911e-02, 3.60824727e-02, 0., 0., 0.,
          5.15463902e-03, 0., 0., 1.54639166e-02, 0., 1.03092780e-02,
          5.15463902e-03, 2.06185561e-02, 0., 1.03092780e-02,
          5.15463902e-03, 4.12371121e-02, 1.03092780e-02, 0., 0.,
          5.15463902e-03, 0., 5.15463902e-03, 5.15463902e-03, 0.,
          3.09278332e-02, 0., 1.54639166e-02, 5.15463902e-03, 0.,
          5.15463902e-03, 5.15463902e-03, 0., 1.54639166e-02,
          1.03092780e-02, 0., 0., 5.15463902e-03, 1.54639166e-02,
          5.15463902e-03, 1.03092780e-02, 0., 2.06185561e-02, 0., 0., 0.,
          5.15463902e-03, 1.54639166e-02, 1.03092780e-02, 0.,
          8.24742243e-02, 5.15463902e-03, 0., 0., 0., 0., 5.15463902e-03,
          2.06185561e-02, 0., 5.15463902e-03, 5.15463902e-03, 0.,
          1.54639166e-02, 0., 5.15463902e-03, 6.70103058e-02, 0.,
          5.15463902e-03, 3.09278332e-02, 0., 1.03092780e-02,
          1.54639166e-02, 1.03092780e-02, 4.12371121e-02, 5.15463902e-03,
          0., 1.03092780e-02, 1.03092780e-02, 0., 1.03092780e-02,
          5.15463902e-03 ]
      - [ 3.28947380e-02, 0., 0., 6.57894742e-03, 0., 6.57894742e-03,
          8.55263174e-02, 7.89473653e-02, 0., 6.57894742e-03, 0.,
          6.57894742e-03, 1.97368413e-02, 0., 6.57894742e-03,
          1.31578948e-02, 0., 0., 6.57894742e-03, 7.23684207e-02,
          1.97368413e-02, 0., 0., 0., 1.97368413e-02, 0., 0., 0., 0., 0.,
          0., 1.31578948e-02, 0., 3.28947380e-02, 0., 1.31578948e-02, 0.,
          0., 0., 0., 0., 1.31578948e-02, 0., 6.57894742e-03,
          6.57894742e-03, 1.97368413e-02, 1.97368413e-02, 1.31578948e-02,
          2.63157897e-02, 5.92105277e-02, 6.57894742e-03, 6.57894742e-03,
          0., 1.31578948e-02, 1.31578948e-02, 6.57894742e-03, 0., 0.,
          1.31578948e-02, 6.57894742e-03, 0., 3.28947380e-02, 0.,
          3.94736826e-02, 6.57894742e-03, 0., 0., 6.57894742e-03,
          6.57894742e-03, 5.26315793e-02, 6.57894742e-03, 0., 0., 0., 0.,
          1.31578948e-02, 1.97368413e-02, 6.57894742e-03, 6.57894742e-03,
          6.57894742e-03, 0., 6.57894742e-03, 1.31578948e-02,
          1.31578948e-02, 3.94736826e-02, 2.63157897e-02, 0., 0.,
          6.57894742e-03, 0., 0., 0., 1.31578948e-02, 0., 0., 0., 0., 0.,
          0., 6.57894742e-03 ]
      - [ 1.65289249e-02, 8.26446246e-03, 8.26446246e-03, 8.26446246e-03,
          8.26446246e-03, 9.09090862e-02, 0., 6.61156997e-02, 0., 0., 0.,
          1.65289249e-02, 3.30578499e-02, 0., 1.65289249e-02,
          1.65289249e-02, 0., 0., 0., 2.47933865e-02, 2.47933865e-02,
          8.26446246e-03, 8.26446246e-03, 2.47933865e-02, 0., 0., 0.,
          8.26446246e-03, 0., 8.26446246e-03, 0., 8.26446246e-03,
          1.65289249e-02, 8.26446246e-03, 3.30578499e-02, 2.47933865e-02,
          0., 8.26446246e-03, 0., 1.65289249e-02, 0., 0., 8.26446246e-03,
          0., 0., 1.65289249e-02, 1.65289249e-02, 4.13223132e-02,
          8.26446246e-03, 0., 1.65289249e-02, 0., 2.47933865e-02,
          8.26446246e-03, 0., 0., 0., 0., 0., 8.26446246e-03,
          8.26446246e-03, 2.47933865e-02, 8.26446246e-03, 2.47933865e-02,
          0., 2.47933865e-02, 1.65289249e-02, 1.65289249e-02, 0., 0., 0.,
          8.26446246e-03, 0., 8.26446246e-03, 0., 0., 8.26446246e-03, 0.,
          1.65289249e-02, 0., 2.47933865e-02, 2.47933865e-02,
          8.26446246e-03, 0., 8.26446246e-03, 0., 0., 0., 0., 0., 0., 0.,
          8.26446246e-03, 1.65289249e-02, 0., 0., 3.30578499e-02,
          1.65289249e-02, 3.30578499e-02, 0. ]
      - [ 1.17647061e-02, 2.94117653e-03, 1.17647061e-02, 8.82352982e-03,
          5.88235306e-03, 5.88235296e-02, 5.88235306e-03, 8.82352982e-03,
          0., 2.94117653e-03, 2.94117653e-03, 3.52941193e-02,
          2.94117653e-03, 2.94117653e-03, 8.82352982e-03, 8.82352982e-03,
          0., 5.88235306e-03, 1.17647061e-02, 5.88235306e-03,
          2.05882359e-02, 0., 2.94117653e-03, 5.88235306e-03,
          1.47058824e-02, 8.82352982e-03, 8.82352982e-03, 8.82352982e-03,
          2.94117653e-03, 5.88235306e-03, 0., 0., 0., 0., 0.,
          9.70588252e-02, 1.76470596e-02, 1.17647061e-02, 5.88235306e-03,
          8.82352982e-03, 1.47058824e-02, 0., 8.82352982e-03,
          1.17647061e-02, 0., 5.88235306e-03, 1.17647061e-02,
          1.17647061e-02, 1.17647061e-02, 2.05882359e-02, 5.00000007e-02,
          2.94117653e-03, 2.94117653e-03, 1.17647061e-02, 1.76470596e-02,
          5.88235306e-03, 2.94117653e-03, 2.94117653e-03, 1.47058824e-02,
          1.76470596e-02, 2.94117653e-03, 1.17647061e-02, 8.82352982e-03,
          2.05882359e-02, 5.88235306e-03, 8.82352982e-03, 1.47058824e-02,
          1.17647061e-02, 2.94117653e-03, 8.82352982e-03, 0.,
          5.88235306e-03, 0., 1.47058824e-02, 0., 1.17647061e-02,
          2.94117653e-03, 2.94117653e-03, 5.88235306e-03, 8.82352982e-03,
          5.88235306e-03, 5.88235306e-03, 5.88235306e-03, 2.94117653e-03,
          5.88235306e-03, 2.05882359e-02, 1.17647061e-02, 2.94117653e-03,
          0., 1.76470596e-02, 1.76470596e-02, 0., 8.82352982e-03,
          2.05882359e-02, 1.17647061e-02, 1.76470596e-02, 2.35294122e-02,
          2.94117653e-03, 1.47058824e-02, 2.94117653e-03 ]
      - [ 0., 7.04225339e-03, 7.04225339e-03, 0., 7.04225339e-03,
          7.04225339e-03, 2.81690136e-02, 7.04225339e-03, 0., 0., 0.,
          2.11267602e-02, 7.04225339e-03, 7.04225339e-03, 0., 0.,
          7.04225339e-03, 7.04225339e-03, 7.04225339e-03, 1.40845068e-02,
          7.04225339e-03, 0., 0., 0., 1.40845068e-02, 7.04225339e-03, 0.,
          7.04225339e-03, 7.04225339e-03, 3.52112651e-02, 7.04225339e-03,
          0., 1.40845068e-02, 0., 1.40845068e-02, 3.52112651e-02,
          3.52112651e-02, 7.04225339e-03, 0., 4.22535203e-02, 0., 0., 0.,
          1.40845068e-02, 0., 7.04225339e-03, 2.11267602e-02,
          7.04225339e-03, 0., 0., 1.40845068e-02, 1.40845068e-02, 0., 0.,
          2.81690136e-02, 1.40845068e-02, 0., 3.52112651e-02,
          1.40845068e-02, 7.04225339e-03, 3.52112651e-02, 2.81690136e-02,
          7.04225339e-03, 0., 0., 2.81690136e-02, 7.04225339e-03,
          7.04225339e-03, 7.04225339e-03, 0., 7.04225339e-03,
          2.81690136e-02, 0., 1.40845068e-02, 0., 0., 0., 0.,
          7.04225339e-03, 0., 0., 0., 0., 2.81690136e-02, 1.40845068e-02,
          1.40845068e-02, 2.11267602e-02, 1.40845068e-02, 7.04225339e-03,
          7.04225339e-03, 7.04225339e-03, 1.40845068e-02, 2.81690136e-02,
          1.40845068e-02, 1.40845068e-02, 1.40845068e-02, 0.,
          7.04225339e-03, 7.74647892e-02, 0. ]
      - [ 1.12994350e-02, 5.64971752e-03, 1.97740123e-02, 7.06214691e-03,
          2.82485876e-02, 2.82485876e-03, 1.55367237e-02, 1.83615815e-02,
          2.82485876e-03, 1.55367237e-02, 2.11864412e-02, 7.06214691e-03,
          0., 4.23728814e-03, 2.82485876e-03, 1.41242938e-03,
          1.41242938e-02, 1.12994350e-02, 2.25988701e-02, 5.64971752e-03,
          9.88700613e-03, 0., 2.82485876e-03, 1.41242938e-03,
          1.12994350e-02, 2.82485876e-03, 1.41242938e-02, 1.41242938e-02,
          1.69491526e-02, 9.88700613e-03, 2.82485876e-03, 8.47457629e-03,
          2.25988701e-02, 1.41242938e-03, 1.12994350e-02, 1.41242938e-03,
          7.06214691e-03, 3.10734473e-02, 1.83615815e-02, 5.64971752e-03,
          2.82485876e-03, 1.12994350e-02, 2.54237279e-02, 1.12994350e-02,
          1.55367237e-02, 5.64971752e-03, 1.41242938e-03, 1.12994350e-02,
          1.41242938e-03, 9.88700613e-03, 9.88700613e-03, 1.12994350e-02,
          1.41242938e-03, 1.69491526e-02, 1.69491526e-02, 1.69491526e-02,
          1.41242938e-03, 1.12994350e-02, 2.96610165e-02, 1.41242938e-03,
          1.55367237e-02, 1.55367237e-02, 1.27118640e-02, 9.88700613e-03,
          1.41242938e-03, 5.64971752e-03, 1.41242938e-03, 1.41242938e-03,
          5.64971752e-03, 2.82485876e-03, 4.23728814e-03, 1.41242938e-02,
          0., 7.06214691e-03, 1.27118640e-02, 4.23728814e-03,
          1.97740123e-02, 0., 1.41242938e-03, 1.27118640e-02, 0.,
          4.23728814e-03, 1.55367237e-02, 7.06214691e-03, 7.06214691e-03,
          3.24858762e-02, 2.25988701e-02, 1.69491526e-02, 1.41242938e-02,
          1.12994350e-02, 8.47457629e-03, 7.06214691e-03, 1.12994350e-02,
          1.55367237e-02, 8.47457629e-03, 8.47457629e-03, 5.64971752e-03,
          1.41242938e-03, 1.41242938e-02, 1.55367237e-02 ]
      - [ 1.33630298e-02, 8.90868623e-03, 1.33630298e-02, 2.22717156e-03,
          2.22717156e-03, 2.22717156e-03, 1.55902011e-02, 2.89532300e-02,
          4.45434311e-03, 1.11358576e-02, 8.90868623e-03, 1.33630298e-02,
          6.68151490e-03, 6.68151490e-03, 8.90868623e-03, 1.33630298e-02,
          6.68151490e-03, 1.55902011e-02, 2.22717156e-03, 6.68151490e-03,
          4.45434311e-03, 0., 2.22717156e-03, 4.45434311e-03,
          4.45434311e-03, 4.45434311e-03, 6.68151490e-03, 1.78173725e-02,
          2.00445447e-02, 8.90868623e-03, 2.22717151e-02, 6.68151490e-03,
