%YAML:1.0
---
opencv_ml_svm:
   format: 3
   svmType: C_SVC
   kernel:
      type: LINEAR
   C: 3.1250000000000000e+02
   term_criteria: { iterations:100 }
   var_count: 100
   class_count: 2
   class_labels: !!opencv-matrix
      rows: 2
      cols: 1
      dt: i
      data: [ 0, 1 ]
   sv_total: 1
   support_vectors:
      - [ 2.28748226e+00, 5.28079033e-01, -1.90098643e+00,
          5.72084951e+00, -4.61698914e+00, 9.73405987e-02,
          5.60721111e+00, -5.17040968e+00, -2.72751951e+00,
          5.27040815e+00, -9.12333584e+00, -6.93466568e+00,
          5.84986830e+00, 4.65600798e-03, 1.54925175e+01, 1.51197851e+00,
          8.26944923e+00, -7.30687666e+00, -4.11034298e+00,
          1.68786869e+01, 1.53188229e+01, 3.22956276e+00, 6.59770155e+00,
          -7.35969257e+00, -4.02945232e+00, 3.54170513e+00,
          -2.24010539e+00, 3.74914908e+00, 8.53721046e+00,
          1.33510904e+01, 2.34863520e+00, -8.36722660e+00,
          4.27343512e+00, 3.77690387e+00, -2.81383920e+00,
          -7.34193182e+00, -2.11205816e+00, 1.34821262e+01,
          9.80646372e-01, -4.60992479e+00, 5.88227081e+00,
          4.54727888e+00, 2.14331165e-01, 4.97008562e+00,
          -2.02261677e+01, -2.95103359e+00, -2.85547447e+00,
          -9.45890248e-01, -6.13937569e+00, 6.45014942e-02,
          -5.24581480e+00, -3.87783736e-01, -1.39316797e+00,
          3.97737399e-02, -5.37174273e+00, -1.82296443e+00,
          -1.84510670e+01, -1.32187529e+01, 6.84943056e+00,
          -1.29170294e+01, 1.38799930e+00, -1.04600787e+00,
          -6.59784031e+00, -4.82667208e+00, 5.52116060e+00,
          6.16482735e+00, -2.10122228e+00, 9.42354488e+00,
          -3.11529827e+00, -6.62967825e+00, 1.22933376e+00,
          4.09052801e+00, 1.14254351e+01, 5.60063362e-01,
          -3.25936246e+00, 2.44606152e-01, 1.03648958e+01,
          -3.87963843e+00, 1.63065600e+00, 1.87455189e+00,
          3.15113163e+00, -3.73493743e+00, 4.19296312e+00,
          1.26386428e+00, -2.49481416e+00, 1.08568668e+01,
          -7.81160164e+00, -1.69038906e+01, 1.30108070e+00,
          -9.20823860e+00, -6.20918512e+00, -9.34068012e+00,
          3.59693217e+00, 7.46037960e+00, -2.84257591e-01,
          -5.06098413e+00, -7.57636607e-01, 3.94734645e+00,
          -1.19563508e+00, 8.18788147e+00 ]
   uncompressed_sv_total: 57
   uncompressed_support_vectors:
      - [ 5.52486209e-03, 5.52486209e-03, 2.62430944e-02, 6.90607773e-03,
          5.52486209e-03, 1.65745858e-02, 6.90607773e-03, 1.93370171e-02,
          2.90055256e-02, 5.52486209e-03, 2.76243109e-02, 1.38121552e-03,
          9.66850854e-03, 9.66850854e-03, 8.28729291e-03, 8.28729291e-03,
          6.90607773e-03, 5.52486209e-03, 4.14364645e-03, 0.,
          1.24309398e-02, 2.76243105e-03, 0., 1.38121552e-03,
          2.34806631e-02, 1.79558024e-02, 1.38121552e-03, 2.76243105e-03,
          9.66850854e-03, 1.65745858e-02, 2.76243105e-03, 3.03867422e-02,
          8.28729291e-03, 1.51933711e-02, 5.52486209e-03, 1.79558024e-02,
          9.66850854e-03, 6.90607773e-03, 4.14364645e-03, 2.62430944e-02,
          2.07182337e-02, 1.51933711e-02, 5.52486209e-03, 8.28729291e-03,
          5.52486209e-03, 8.28729291e-03, 8.28729291e-03, 1.38121552e-03,
          2.76243105e-03, 4.14364645e-03, 4.14364645e-03, 1.10497242e-02,
          1.10497242e-02, 0., 2.34806631e-02, 2.07182337e-02,
          2.76243105e-03, 9.66850854e-03, 8.28729291e-03, 1.38121552e-03,
          1.51933711e-02, 1.10497242e-02, 4.14364645e-03, 6.90607773e-03,
          5.52486209e-03, 8.28729291e-03, 2.76243105e-03, 4.14364645e-03,
          1.38121552e-03, 1.10497242e-02, 2.76243105e-03, 6.90607773e-03,
          2.62430944e-02, 1.38121555e-02, 6.90607773e-03, 3.45303863e-02,
          1.10497242e-02, 1.24309398e-02, 1.38121552e-03, 1.79558024e-02,
          5.52486209e-03, 4.14364645e-03, 5.52486209e-03, 2.76243105e-03,
          1.65745858e-02, 1.10497242e-02, 1.51933711e-02, 6.21546991e-02,
          9.66850854e-03, 6.90607773e-03, 2.76243105e-03, 2.76243105e-03,
          1.38121552e-03, 1.65745858e-02, 8.28729291e-03, 9.66850854e-03,
          0., 5.52486209e-03, 1.24309398e-02, 0. ]
      - [ 5.67536894e-03, 1.13507384e-03, 1.92962550e-02, 6.81044301e-03,
          2.27014767e-03, 1.13507379e-02, 4.31328043e-02, 1.24858124e-02,
          0., 3.40522151e-03, 2.04313286e-02, 6.81044301e-03,
          1.13507384e-03, 1.24858124e-02, 5.67536894e-03, 3.40522151e-03,
          4.54029534e-03, 1.70261078e-02, 4.54029534e-03, 3.40522151e-03,
          4.54029534e-03, 5.67536894e-03, 6.81044301e-03, 7.94551708e-03,
          1.58910342e-02, 1.58910342e-02, 6.81044301e-03, 3.40522151e-03,
          7.94551708e-03, 6.81044301e-03, 1.13507384e-03, 2.27014758e-02,
          7.94551708e-03, 2.38365512e-02, 1.13507379e-02, 2.27014767e-03,
          4.54029534e-03, 6.81044301e-03, 1.36208860e-02, 1.13507384e-03,
          1.47559596e-02, 1.10102162e-01, 5.67536894e-03, 6.81044301e-03,
          1.58910342e-02, 3.40522151e-03, 7.94551708e-03, 6.81044301e-03,
          3.40522151e-03, 3.40522151e-03, 1.92962550e-02, 3.40522151e-03,
          1.24858124e-02, 5.67536894e-03, 1.70261078e-02, 5.67536894e-03,
          0., 1.70261078e-02, 7.94551708e-03, 1.13507384e-03,
          6.81044301e-03, 0., 6.81044301e-03, 7.94551708e-03,
          4.54029534e-03, 2.27014767e-03, 5.67536894e-03, 1.13507384e-03,
          3.40522151e-03, 4.54029534e-03, 2.27014767e-03, 1.02156643e-02,
          1.13507384e-03, 1.02156643e-02, 3.17820683e-02, 1.24858124e-02,
          2.27014767e-03, 7.03745782e-02, 4.54029534e-03, 6.81044301e-03,
          5.67536894e-03, 3.40522151e-03, 2.27014758e-02, 2.27014767e-03,
          1.24858124e-02, 6.81044301e-03, 7.94551708e-03, 3.85925099e-02,
          6.81044301e-03, 7.94551708e-03, 4.54029534e-03, 2.27014767e-03,
          4.54029534e-03, 1.24858124e-02, 1.13507384e-03, 9.08059068e-03,
          1.02156643e-02, 3.40522151e-03, 1.02156643e-02, 2.27014767e-03 ]
      - [ 2.04498973e-03, 4.08997945e-03, 2.04498973e-03, 8.17995891e-03,
          2.04498973e-03, 1.63599178e-02, 0., 5.72597124e-02,
          8.17995891e-03, 1.22699384e-02, 2.04498973e-03, 2.04498973e-02,
          6.13496918e-03, 1.22699384e-02, 2.04498973e-03, 2.45398767e-02,
          1.22699384e-02, 1.84049085e-02, 8.17995891e-03, 6.13496918e-03,
          8.17995891e-03, 2.04498973e-03, 6.13496918e-03, 8.17995891e-03,
          0., 6.13496918e-03, 4.08997945e-03, 2.04498973e-02,
          1.02249486e-02, 1.02249486e-02, 2.04498973e-03, 2.04498973e-03,
          1.43149281e-02, 2.04498973e-03, 1.02249486e-02, 2.86298562e-02,
          8.17995891e-03, 1.02249486e-02, 1.43149281e-02, 6.13496918e-03,
          8.17995891e-03, 0., 2.04498973e-03, 1.02249486e-02,
          1.84049085e-02, 0., 1.02249486e-02, 2.04498973e-03,
          1.22699384e-02, 6.13496918e-03, 2.45398767e-02, 2.04498973e-03,
          1.02249486e-02, 2.04498973e-02, 1.63599178e-02, 0.,
          8.17995891e-03, 4.08997945e-03, 2.04498973e-03, 6.13496918e-03,
          2.04498973e-03, 4.08997945e-03, 1.02249486e-02, 1.22699384e-02,
          1.02249486e-02, 8.17995891e-03, 4.08997945e-03, 6.13496918e-03,
          8.17995891e-03, 5.11247441e-02, 1.43149281e-02, 2.04498973e-03,
          1.02249486e-02, 1.43149281e-02, 4.08997945e-03, 1.02249486e-02,
          1.22699384e-02, 0., 4.08997945e-03, 8.17995891e-03,
          8.17995891e-03, 6.13496918e-03, 1.02249486e-02, 6.13496918e-03,
          6.13496900e-02, 4.08997945e-03, 8.17995891e-03, 8.17995891e-03,
          2.04498973e-03, 8.17995891e-03, 3.68098170e-02, 8.17995891e-03,
          8.17995891e-03, 6.13496918e-03, 4.08997945e-03, 8.17995891e-03,
          1.63599178e-02, 1.43149281e-02, 0., 1.63599178e-02 ]
      - [ 1.23966932e-02, 5.16528916e-03, 1.96280982e-02, 7.23140454e-03,
          4.13223123e-03, 9.29751992e-03, 2.16942132e-02, 4.13223123e-03,
          1.03305783e-02, 1.85950398e-02, 5.57851233e-02, 2.27272715e-02,
          4.13223123e-03, 3.09917331e-03, 1.34297516e-02, 6.19834661e-03,
          5.16528916e-03, 1.54958675e-02, 5.16528916e-03, 1.13636358e-02,
          7.23140454e-03, 7.23140454e-03, 6.19834661e-03, 4.13223123e-03,
          5.16528916e-03, 4.13223123e-03, 2.06611562e-03, 6.19834661e-03,
          5.16528916e-03, 1.03305783e-02, 3.09917331e-03, 3.40909064e-02,
          1.34297516e-02, 2.99586765e-02, 6.19834661e-03, 7.23140454e-03,
          1.54958675e-02, 8.26446246e-03, 7.23140454e-03, 9.29751992e-03,
          2.06611562e-03, 8.26446246e-03, 2.06611562e-03, 1.75619833e-02,
          2.06611562e-03, 1.13636358e-02, 1.96280982e-02, 6.19834661e-03,
          1.03305781e-03, 7.23140454e-03, 6.19834661e-03, 9.29751992e-03,
          4.13223123e-03, 1.23966932e-02, 1.13636358e-02, 1.23966932e-02,
          0., 2.16942132e-02, 1.03305783e-02, 3.09917331e-03,
          1.34297516e-02, 1.13636358e-02, 4.13223123e-03, 1.03305783e-02,
          2.06611562e-03, 2.47933865e-02, 7.23140454e-03, 5.16528916e-03,
          5.16528916e-03, 2.06611562e-03, 2.06611562e-03, 1.96280982e-02,
          4.13223123e-03, 9.29751992e-03, 4.13223123e-03, 0.,
          7.23140454e-03, 5.16528916e-03, 1.03305781e-03, 1.34297516e-02,
          3.09917331e-03, 6.19834661e-03, 5.16528916e-03, 5.16528916e-03,
          5.16528916e-03, 1.34297516e-02, 4.13223123e-03, 4.75206599e-02,
          1.03305783e-02, 2.47933865e-02, 1.03305783e-02, 4.13223123e-03,
          7.23140454e-03, 8.26446246e-03, 1.85950398e-02, 2.68595032e-02,
          7.23140454e-03, 1.03305783e-02, 1.03305783e-02, 4.13223123e-03 ]
      - [ 7.35294167e-03, 1.47058833e-02, 1.96078438e-02, 2.45098048e-03,
          2.45098048e-03, 0., 7.35294167e-03, 5.88235334e-02, 0.,
          1.47058833e-02, 4.90196086e-02, 4.90196096e-03, 2.45098048e-03,
          4.90196086e-02, 0., 7.35294167e-03, 1.47058833e-02,
          4.90196096e-03, 2.45098048e-03, 4.90196096e-03, 2.45098048e-03,
          1.71568636e-02, 9.80392192e-03, 0., 4.90196096e-03,
          1.47058833e-02, 4.90196096e-03, 2.45098048e-03, 2.45098048e-03,
          4.90196096e-03, 9.80392192e-03, 1.22549022e-02, 1.47058833e-02,
          1.96078438e-02, 0., 2.45098048e-03, 2.20588241e-02,
          1.71568636e-02, 4.90196096e-03, 2.20588241e-02, 1.71568636e-02,
          1.71568636e-02, 2.45098048e-03, 1.47058833e-02, 1.71568636e-02,
          4.90196096e-03, 9.80392192e-03, 7.35294167e-03, 0.,
          2.45098048e-03, 4.90196096e-03, 7.35294167e-03, 0.,
          7.35294167e-03, 7.35294167e-03, 7.35294167e-03, 0.,
          9.80392192e-03, 1.22549022e-02, 2.45098048e-03, 7.35294167e-03,
          4.90196096e-03, 1.71568636e-02, 7.35294167e-03, 2.45098048e-03,
          1.71568636e-02, 2.45098048e-03, 7.35294167e-03, 9.80392192e-03,
          1.71568636e-02, 2.45098048e-03, 1.71568636e-02, 0.,
          1.22549022e-02, 2.20588241e-02, 0., 7.35294167e-03,
          1.47058833e-02, 2.45098048e-03, 1.47058833e-02, 0.,
          2.45098048e-03, 7.35294167e-03, 1.47058833e-02, 3.18627469e-02,
          7.35294167e-03, 0., 3.43137272e-02, 4.90196096e-03,
          1.71568636e-02, 4.90196096e-03, 7.35294167e-03, 9.80392192e-03,
          1.22549022e-02, 1.47058833e-02, 1.47058833e-02, 2.45098048e-03,
          7.35294167e-03, 9.80392192e-03, 2.45098048e-03 ]
      - [ 1.24481339e-02, 4.14937781e-03, 0., 2.07468886e-02,
          8.29875562e-03, 2.48962678e-02, 0., 2.90456451e-02,
          8.29875562e-03, 0., 1.24481339e-02, 3.31950225e-02,
          1.24481339e-02, 8.29875562e-03, 4.14937781e-03, 4.14937781e-03,
          1.24481339e-02, 0., 0., 8.29875562e-03, 4.14937781e-03,
          1.24481339e-02, 4.14937781e-03, 4.14937781e-03, 4.14937781e-03,
          0., 0., 8.29875562e-03, 8.29875562e-03, 1.24481339e-02, 0.,
          2.90456451e-02, 4.14937781e-03, 2.48962678e-02, 0.,
          2.07468886e-02, 4.14937781e-03, 1.24481339e-02, 1.24481339e-02,
          4.14937781e-03, 0., 0., 4.14937781e-03, 4.14937781e-03,
          8.29875562e-03, 0., 4.97925356e-02, 2.90456451e-02,
          1.24481339e-02, 2.90456451e-02, 4.14937781e-03, 0.,
          2.07468886e-02, 3.31950225e-02, 4.14937781e-03, 8.29875562e-03,
          4.14937781e-03, 1.24481339e-02, 4.14937781e-03, 8.29875562e-03,
          0., 0., 0., 1.24481339e-02, 1.65975112e-02, 0., 2.48962678e-02,
          0., 0., 0., 4.56431545e-02, 0., 8.29875562e-03, 4.14937781e-03,
          0., 8.29875562e-03, 1.24481339e-02, 8.29875562e-03,
          2.48962678e-02, 0., 2.90456451e-02, 4.56431545e-02, 0., 0.,
          2.07468886e-02, 0., 0., 4.14937781e-03, 0., 2.90456451e-02, 0.,
          8.29875562e-03, 8.29875562e-03, 0., 8.29875562e-03, 0.,
          5.39419129e-02, 0., 0., 1.65975112e-02 ]
      - [ 9.90098994e-03, 0., 0., 9.90098994e-03, 9.90098994e-03,
          2.97029689e-02, 9.90098994e-03, 3.96039598e-02, 0.,
          9.90098994e-03, 1.98019799e-02, 9.90098994e-03, 0.,
          1.98019799e-02, 9.90098994e-03, 0., 0., 9.90098994e-03, 0.,
          1.98019799e-02, 4.95049506e-02, 0., 9.90098994e-03,
          1.98019799e-02, 0., 0., 0., 0., 9.90098994e-03, 0., 0., 0.,
          1.98019799e-02, 9.90098994e-03, 0., 9.90098994e-03,
          9.90098994e-03, 0., 0., 0., 0., 0., 9.90098994e-03, 0.,
          7.92079195e-02, 9.90098994e-03, 0., 3.96039598e-02,
          9.90098994e-03, 4.95049506e-02, 9.90098994e-03, 9.90098994e-03,
          1.98019799e-02, 9.90098994e-03, 9.90098994e-03, 1.98019799e-02,
          0., 0., 0., 9.90098994e-03, 0., 9.90098994e-03, 9.90098994e-03,
          1.98019799e-02, 9.90098994e-03, 9.90098994e-03, 1.98019799e-02,
          0., 0., 1.98019799e-02, 2.97029689e-02, 9.90098994e-03,
          9.90098994e-03, 0., 0., 0., 0., 0., 9.90098994e-03,
          1.98019799e-02, 0., 0., 9.90098994e-03, 0., 3.96039598e-02, 0.,
          0., 0., 2.97029689e-02, 1.98019799e-02, 0., 0., 9.90098994e-03,
          9.90098994e-03, 0., 0., 4.95049506e-02, 0., 0., 1.98019799e-02 ]
      - [ 6.71140943e-03, 0., 0., 2.68456377e-02, 6.71140943e-03,
          7.38255009e-02, 0., 3.35570462e-02, 6.71140943e-03, 0.,
          6.71140943e-03, 1.34228189e-02, 6.71140943e-03, 0.,
          6.71140943e-03, 0., 1.34228189e-02, 6.71140943e-03,
          6.71140943e-03, 2.68456377e-02, 2.68456377e-02, 6.71140943e-03,
          1.34228189e-02, 6.71140943e-03, 0., 0., 2.01342292e-02,
          6.71140943e-03, 1.34228189e-02, 6.71140943e-03, 0., 0., 0.,
          6.71140943e-03, 1.34228189e-02, 0., 0., 2.01342292e-02,
          2.01342292e-02, 0., 0., 0., 6.71140943e-03, 0., 6.04026839e-02,
          1.34228189e-02, 1.34228189e-02, 6.71140943e-03, 6.71140924e-02,
          3.35570462e-02, 6.71140943e-03, 0., 1.34228189e-02,
          1.34228189e-02, 0., 0., 2.01342292e-02, 6.71140943e-03, 0.,
          6.71140943e-03, 0., 1.34228189e-02, 0., 1.34228189e-02,
          6.71140943e-03, 6.71140943e-03, 2.68456377e-02, 0., 0.,
          6.71140943e-03, 3.35570462e-02, 0., 0., 0., 6.71140943e-03, 0.,
          6.71140943e-03, 0., 1.34228189e-02, 6.71140943e-03,
          1.34228189e-02, 1.34228189e-02, 0., 0., 2.01342292e-02, 0., 0.,
          0., 0., 2.68456377e-02, 1.34228189e-02, 6.71140943e-03,
          2.01342292e-02, 0., 0., 6.71140943e-03, 1.34228189e-02,
          6.71140943e-03, 0., 4.69798669e-02 ]
      - [ 2.15517245e-02, 8.62068962e-03, 2.58620679e-02, 1.29310340e-02,
          1.72413792e-02, 2.15517245e-02, 3.01724132e-02, 3.44827585e-02,
          4.31034481e-03, 4.31034481e-03, 2.58620679e-02, 2.15517245e-02,
          2.58620679e-02, 0., 4.31034481e-03, 4.31034481e-03, 0.,
          8.62068962e-03, 3.01724132e-02, 0., 3.87931019e-02,
          4.31034481e-03, 1.29310340e-02, 1.72413792e-02, 4.31034481e-03,
          4.31034481e-03, 1.29310340e-02, 1.29310340e-02, 1.29310340e-02,
          0., 4.31034481e-03, 8.62068962e-03, 8.62068962e-03, 0., 0.,
          3.44827585e-02, 8.62068962e-03, 1.72413792e-02, 2.58620679e-02,
          4.31034481e-03, 0., 8.62068962e-03, 8.62068962e-03,
          8.62068962e-03, 1.29310340e-02, 4.31034481e-03, 4.31034481e-03,
          8.62068962e-03, 8.62068962e-03, 1.29310340e-02, 8.62068962e-03,
          4.31034481e-03, 8.62068962e-03, 4.31034481e-03, 0.,
          1.29310340e-02, 1.72413792e-02, 8.62068962e-03, 8.62068962e-03,
          2.15517245e-02, 0., 8.62068962e-03, 1.29310340e-02,
          4.31034481e-03, 4.31034481e-03, 0., 0., 0., 4.31034481e-03,
          1.29310340e-02, 0., 0., 8.62068962e-03, 8.62068962e-03,
          4.31034481e-03, 0., 4.31034481e-03, 0., 4.31034481e-03,
          4.31034481e-03, 4.31034481e-03, 0., 1.29310340e-02,
          8.62068962e-03, 3.87931019e-02, 1.72413792e-02, 0.,
          1.72413792e-02, 8.62068962e-03, 1.29310340e-02, 1.72413792e-02,
          4.31034481e-03, 0., 0., 4.31034481e-03, 0., 3.44827585e-02,
          8.62068962e-03, 1.72413792e-02, 4.31034481e-03 ]
      - [ 4.25531901e-03, 1.48936165e-02, 1.48936165e-02, 1.06382975e-02,
          6.38297852e-03, 3.19148935e-02, 4.25531901e-03, 1.06382975e-02,
          2.12765951e-03, 6.38297852e-03, 1.06382975e-02, 2.34042555e-02,
          6.38297852e-03, 6.38297852e-03, 2.12765951e-03, 8.51063803e-03,
          4.25531901e-03, 6.38297852e-03, 8.51063803e-03, 1.48936165e-02,
          8.51063803e-03, 6.38297852e-03, 6.38297852e-03, 1.06382975e-02,
          1.27659570e-02, 0., 2.12765951e-03, 1.06382975e-02,
          4.25531901e-03, 1.48936165e-02, 1.27659570e-02, 8.51063803e-03,
          6.38297852e-03, 1.06382975e-02, 1.06382975e-02, 1.27659570e-02,
          1.06382975e-02, 1.48936165e-02, 8.51063803e-03, 1.27659570e-02,
          0., 0., 4.25531901e-03, 4.25531901e-03, 1.48936165e-02,
          6.38297852e-03, 2.76595727e-02, 0., 2.12765951e-03,
          4.25531901e-03, 2.12765951e-02, 8.51063803e-03, 1.06382975e-02,
          1.27659570e-02, 8.51063803e-03, 8.51063803e-03, 2.12765951e-03,
          2.12765951e-03, 1.91489346e-02, 2.12765951e-03, 1.48936165e-02,
          8.51063803e-03, 1.91489346e-02, 8.51063803e-03, 8.51063803e-03,
          1.06382975e-02, 2.12765951e-03, 8.51063803e-03, 8.51063803e-03,
          4.04255316e-02, 1.48936165e-02, 1.48936165e-02, 2.12765951e-03,
          6.38297852e-03, 2.12765951e-03, 6.38297852e-03, 6.38297852e-03,
          4.25531901e-03, 4.25531901e-03, 1.27659570e-02, 8.51063803e-03,
          6.38297852e-03, 1.06382975e-02, 1.27659570e-02, 1.06382975e-02,
          6.38297852e-03, 2.97872331e-02, 1.27659570e-02, 1.06382975e-02,
          5.10638282e-02, 1.06382975e-02, 1.48936165e-02, 1.70212761e-02,
          4.25531901e-03, 6.38297852e-03, 6.38297852e-03, 1.91489346e-02,
          8.51063803e-03, 0., 6.38297852e-03 ]
      - [ 8.59598909e-03, 5.73065924e-03, 0., 2.86532962e-03,
          1.43266479e-02, 2.86532962e-03, 5.73065924e-03, 7.73639008e-02,
          2.86532962e-03, 1.14613185e-02, 2.86532962e-03, 5.73065924e-03,
          1.43266479e-02, 5.73065924e-03, 2.86532962e-03, 1.43266479e-02,
          2.86532962e-03, 0., 0., 1.71919782e-02, 1.14613185e-02, 0.,
          5.73065924e-03, 2.86532962e-03, 3.72492857e-02, 2.86532962e-03,
          5.73065924e-03, 5.73065924e-03, 8.59598909e-03, 0.,
          1.14613185e-02, 1.14613185e-02, 5.73065924e-03, 8.59598909e-03,
          5.73065924e-03, 1.14613185e-02, 2.86532962e-03, 1.14613185e-02,
          8.59598909e-03, 0., 0., 0., 5.73065924e-03, 8.59598909e-03,
          4.01146151e-02, 0., 5.73065924e-03, 1.43266479e-02,
          8.59598909e-03, 1.43266479e-02, 4.01146151e-02, 8.59598909e-03,
          5.73065924e-03, 1.14613185e-02, 3.43839563e-02, 0.,
          5.73065924e-03, 8.59598909e-03, 1.43266479e-02, 5.73065924e-03,
          5.73065924e-03, 1.43266479e-02, 8.59598909e-03, 5.73065924e-03,
          5.73065924e-03, 1.14613185e-02, 2.86532962e-03, 2.86532962e-03,
          5.73065924e-03, 2.00573076e-02, 3.43839563e-02, 1.14613185e-02,
          0., 2.29226369e-02, 1.43266479e-02, 2.86532962e-03,
          1.14613185e-02, 0., 2.86532962e-03, 0., 0., 5.73065924e-03,
          8.59598909e-03, 1.71919782e-02, 6.30372539e-02, 1.43266479e-02,
          5.73065924e-03, 8.59598909e-03, 1.43266479e-02, 2.86532962e-03,
          5.73065924e-03, 1.14613185e-02, 2.57879663e-02, 0.,
          5.73065924e-03, 8.59598909e-03, 8.59598909e-03, 8.59598909e-03,
          2.86532962e-03, 1.14613185e-02 ]
      - [ 1.50375944e-02, 7.51879718e-03, 7.51879718e-03, 1.50375944e-02,
          1.50375944e-02, 0., 0., 4.51127812e-02, 7.51879718e-03,
          1.50375944e-02, 7.51879718e-03, 0., 7.51879718e-03, 0., 0.,
          7.51879718e-03, 7.51879718e-03, 7.51879718e-03, 1.50375944e-02,
          1.50375944e-02, 0., 0., 1.50375944e-02, 3.00751887e-02,
          7.51879718e-03, 7.51879718e-03, 7.51879718e-03, 7.51879718e-03,
          1.50375944e-02, 3.00751887e-02, 7.51879718e-03, 7.51879718e-03,
          7.51879718e-03, 0., 0., 0., 7.51879718e-03, 7.51879718e-03,
          7.51879718e-03, 0., 7.51879718e-03, 0., 1.50375944e-02,
          1.50375944e-02, 2.25563906e-02, 2.25563906e-02, 7.51879718e-03,
          0., 0., 1.50375944e-02, 1.50375944e-02, 0., 1.50375944e-02, 0.,
          0., 7.51879718e-03, 1.50375944e-02, 1.50375944e-02,
          1.50375944e-02, 2.25563906e-02, 1.50375944e-02, 1.50375944e-02,
          1.50375944e-02, 7.51879718e-03, 0., 0., 0., 3.00751887e-02,
          7.51879718e-03, 1.50375944e-02, 7.51879718e-03, 7.51879718e-03,
          7.51879718e-03, 0., 7.51879718e-03, 0., 0., 0., 0.,
          2.25563906e-02, 7.51879718e-03, 0., 0., 3.00751887e-02,
          1.50375944e-02, 0., 0., 1.50375944e-02, 7.51879718e-03,
          1.50375944e-02, 1.50375944e-02, 4.51127812e-02, 7.51879718e-03,
          3.00751887e-02, 7.51879718e-03, 7.51879718e-03, 5.26315793e-02,
          1.50375944e-02, 0., 0. ]
      - [ 3.79746854e-02, 0., 0., 1.26582282e-02, 0., 8.86075944e-02, 0.,
          6.32911408e-03, 0., 0., 6.32911408e-03, 2.53164563e-02,
          4.43037972e-02, 6.32911408e-03, 6.32911408e-03, 6.32911408e-03,
          0., 0., 6.32911408e-03, 1.26582282e-02, 2.53164563e-02, 0.,
          1.26582282e-02, 1.89873427e-02, 6.32911408e-03, 0.,
          6.32911408e-03, 1.26582282e-02, 0., 6.32911408e-03,
          6.32911408e-03, 0., 6.32911408e-03, 0., 0., 2.53164563e-02,
          6.32911408e-03, 6.32911408e-03, 6.32911408e-03, 6.32911408e-03,
          0., 0., 6.32911408e-03, 0., 0., 0., 3.16455700e-02,
          3.16455700e-02, 1.26582282e-02, 1.26582282e-02, 1.26582282e-02,
          0., 3.16455700e-02, 4.43037972e-02, 0., 6.32911408e-03,
          1.26582282e-02, 0., 6.32911408e-03, 3.16455700e-02, 0.,
          4.43037972e-02, 6.32911408e-03, 1.26582282e-02, 6.32911408e-03,
          0., 6.32911408e-03, 6.32911408e-03, 6.32911408e-03,
          1.26582282e-02, 1.89873427e-02, 0., 0., 0., 0., 0.,
          1.26582282e-02, 0., 1.89873427e-02, 0., 6.32911408e-03,
          1.26582282e-02, 0., 0., 1.26582282e-02, 0., 0., 6.32911408e-03,
          0., 3.16455700e-02, 3.16455700e-02, 0., 6.32911408e-03,
          6.32911408e-03, 0., 6.32911408e-03, 6.96202517e-02, 0., 0.,
          6.32911408e-03 ]
      - [ 0., 3.74531839e-03, 3.74531839e-03, 3.74531839e-03,
          3.74531839e-03, 3.74531839e-03, 1.12359552e-02, 1.49812736e-02,
          0., 0., 7.49063678e-03, 7.49063678e-03, 1.12359552e-02,
          3.74531839e-03, 0., 0., 1.49812736e-02, 1.12359552e-02,
          1.87265910e-02, 3.74531839e-03, 4.11985032e-02, 0.,
          7.49063678e-03, 7.49063678e-03, 0., 7.49063678e-03,
          1.49812736e-02, 1.12359552e-02, 1.49812736e-02, 0., 0., 0.,
          1.49812736e-02, 3.74531839e-03, 1.12359552e-02, 2.99625471e-02,
          7.49063678e-03, 0., 1.87265910e-02, 1.49812736e-02,
          1.12359552e-02, 3.74531839e-03, 1.12359552e-02, 7.49063678e-03,
          2.62172297e-02, 0., 2.62172297e-02, 3.74531839e-03,
          1.12359552e-02, 2.24719103e-02, 2.62172297e-02, 1.12359552e-02,
          1.12359552e-02, 7.49063678e-03, 1.12359552e-02, 0.,
          7.49063678e-03, 2.24719103e-02, 1.12359552e-02, 3.74531839e-03,
          1.49812736e-02, 7.49063678e-03, 2.62172297e-02, 3.74531820e-02,
          3.74531839e-03, 3.74531839e-03, 3.74531839e-03, 0.,
          7.49063678e-03, 3.74531820e-02, 1.12359552e-02, 3.37078646e-02,
          7.49063678e-03, 1.12359552e-02, 0., 3.74531839e-03,
          3.74531839e-03, 0., 3.74531839e-03, 3.74531839e-03, 0.,
          1.12359552e-02, 1.49812736e-02, 7.49063678e-03, 3.74531820e-02,
          1.49812736e-02, 3.74531839e-03, 3.74531839e-03, 3.74531839e-03,
          1.87265910e-02, 3.74531839e-03, 7.49063678e-03, 7.49063678e-03,
          3.74531839e-03, 3.74531839e-03, 1.12359552e-02, 2.62172297e-02,
          7.49063678e-03, 1.12359552e-02, 1.49812736e-02 ]
      - [ 9.37500037e-03, 3.12500005e-03, 9.37500037e-03, 1.25000002e-02,
          9.37500037e-03, 6.25000009e-03, 0., 5.00000007e-02,
          3.12500005e-03, 0., 1.25000002e-02, 1.25000002e-02,
          2.50000004e-02, 6.25000009e-03, 0., 0., 6.25000009e-03,
          3.12500005e-03, 6.25000009e-03, 0., 3.12500005e-03,
          3.12500005e-03, 1.25000002e-02, 1.87500007e-02, 3.12500005e-03,
          1.56250000e-02, 3.12500005e-03, 6.25000009e-03, 1.56250000e-02,
          3.12500005e-03, 9.37500037e-03, 2.50000004e-02, 0.,
          4.68750000e-02, 6.25000009e-03, 3.12500005e-03, 3.12500005e-03,
          2.18749996e-02, 1.56250000e-02, 0., 1.56250000e-02,
          1.25000002e-02, 2.50000004e-02, 6.25000009e-03, 9.37500037e-03,
          1.25000002e-02, 3.12500005e-03, 1.25000002e-02, 3.12500005e-03,
          9.37500037e-03, 9.37500037e-03, 3.12500005e-03, 2.18749996e-02,
          1.87500007e-02, 1.87500007e-02, 3.12500005e-03, 6.25000009e-03,
          9.37500037e-03, 9.37500037e-03, 2.50000004e-02, 3.12500005e-03,
          1.25000002e-02, 0., 4.68750000e-02, 0., 3.12500005e-03,
          3.12500005e-03, 3.12500005e-03, 3.12500005e-03, 3.12500005e-03,
          1.87500007e-02, 0., 6.25000009e-03, 3.12500005e-03,
          6.25000009e-03, 3.12500005e-03, 1.25000002e-02, 1.87500007e-02,
          3.12500005e-03, 1.25000002e-02, 3.12500005e-03, 1.56250000e-02,
          9.37500037e-03, 0., 1.87500007e-02, 3.12500005e-03,
          2.81250011e-02, 9.37500037e-03, 1.25000002e-02, 2.50000004e-02,
          9.37500037e-03, 1.25000002e-02, 3.12500005e-03, 9.37500037e-03,
          6.25000009e-03, 0., 2.18749996e-02, 6.25000009e-03,
          3.12500005e-03, 1.56250000e-02 ]
      - [ 7.93650839e-03, 1.58730168e-02, 1.58730168e-02, 7.93650839e-03,
          0., 0., 7.93650839e-03, 2.14285731e-01, 0., 0., 7.93650839e-03,
          7.93650839e-03, 2.38095261e-02, 0., 0., 1.58730168e-02, 0., 0.,
          0., 0., 0., 0., 7.93650839e-03, 0., 0., 0., 0., 7.93650839e-03,
          7.93650839e-03, 1.58730168e-02, 7.93650839e-03, 7.93650839e-03,
          7.93650839e-03, 0., 1.58730168e-02, 0., 7.93650839e-03, 0., 0.,
          7.93650839e-03, 0., 0., 0., 0., 0., 0., 0., 0., 0., 0., 0.,
          1.58730168e-02, 7.93650839e-03, 0., 7.93650839e-03, 0., 0.,
          7.93650839e-03, 0., 2.38095261e-02, 3.96825410e-02,
          3.96825410e-02, 0., 0., 0., 2.38095261e-02, 0., 0.,
          7.93650839e-03, 7.93650839e-03, 0., 0., 0., 0., 0., 0.,
          7.93650839e-03, 1.58730168e-02, 0., 0., 0., 0., 7.93650839e-03,
          7.93650839e-03, 2.06349224e-01, 7.93650839e-03, 3.17460336e-02,
          7.93650839e-03, 3.17460336e-02, 0., 0., 0., 0., 7.93650839e-03,
          2.38095261e-02, 7.93650839e-03, 0., 1.58730168e-02,
          7.93650839e-03, 7.93650839e-03 ]
      - [ 1.53061226e-02, 2.04081628e-02, 5.10204071e-03, 5.10204071e-03,
          1.53061226e-02, 0., 5.10204071e-03, 2.04081628e-02, 0.,
          5.10204071e-03, 1.53061226e-02, 0., 1.02040814e-02, 0., 0.,
          1.02040814e-02, 0., 2.55102031e-02, 2.04081628e-02,
          1.53061226e-02, 1.53061226e-02, 1.53061226e-02, 0., 0.,
          5.10204071e-03, 0., 1.53061226e-02, 1.02040814e-02, 0.,
          5.10204062e-02, 5.10204071e-03, 1.02040814e-02, 1.02040814e-02,
          1.02040814e-02, 2.04081628e-02, 0., 3.06122452e-02,
          5.10204071e-03, 0., 1.02040814e-02, 0., 5.10204071e-03,
          1.02040814e-02, 3.57142836e-02, 2.04081628e-02, 5.10204071e-03,
          0., 0., 5.10204071e-03, 0., 5.10204071e-03, 5.10204071e-03,
          5.10204071e-03, 5.10204071e-03, 1.02040814e-02, 0., 0.,
          2.55102031e-02, 5.10204071e-03, 0., 2.04081628e-02, 0.,
          1.02040814e-02, 0., 5.10204071e-03, 1.53061226e-02, 0.,
          1.53061226e-02, 5.10204071e-03, 1.53061226e-02, 5.10204071e-03,
          3.57142836e-02, 0., 2.04081628e-02, 0., 0., 0., 0., 0.,
          5.10204071e-03, 0., 0., 1.53061226e-02, 2.04081628e-02,
          2.04081628e-02, 5.10204071e-03, 5.10204071e-03, 5.61224483e-02,
          1.02040814e-02, 0., 5.10204071e-03, 2.04081628e-02,
          2.55102031e-02, 5.10204071e-03, 1.53061226e-02, 1.53061226e-02,
          5.10204071e-03, 2.04081628e-02, 5.10204062e-02, 5.10204071e-03 ]
      - [ 6.21118024e-03, 6.21118024e-03, 1.86335407e-02, 1.24223605e-02,
          6.21118024e-03, 0., 5.59006222e-02, 1.24223605e-02,
          6.21118024e-03, 1.24223605e-02, 0., 0., 1.24223605e-02, 0., 0.,
          0., 1.24223605e-02, 1.86335407e-02, 2.48447210e-02, 0., 0., 0.,
          6.21118024e-03, 6.21118024e-03, 6.21118024e-03, 0., 0.,
          1.86335407e-02, 0., 6.21118024e-03, 1.86335407e-02, 0.,
          6.21118024e-03, 0., 3.72670814e-02, 0., 1.24223605e-02,
          1.24223605e-02, 2.48447210e-02, 0., 0., 0., 1.24223605e-02,
          1.24223605e-02, 4.96894419e-02, 6.21118024e-03, 0., 0.,
          1.24223605e-02, 1.86335407e-02, 6.21118024e-03, 1.86335407e-02,
          6.21118024e-03, 0., 3.72670814e-02, 1.24223605e-02,
          6.21118024e-03, 2.48447210e-02, 2.48447210e-02, 6.21118024e-03,
          1.24223605e-02, 1.86335407e-02, 1.86335407e-02, 0., 0.,
          1.24223605e-02, 0., 1.86335407e-02, 6.21118024e-03, 0.,
          6.21118024e-03, 2.48447210e-02, 0., 0., 2.48447210e-02, 0.,
          6.21118024e-03, 1.86335407e-02, 0., 6.21118024e-03, 0.,
          1.24223605e-02, 0., 2.48447210e-02, 6.21118024e-03,
          6.83229864e-02, 6.21118024e-03, 6.21118024e-03, 3.10559012e-02,
          6.21118024e-03, 0., 3.10559012e-02, 6.21118024e-03, 0., 0., 0.,
          6.21118024e-03, 0., 6.21118024e-03, 0. ]
      - [ 1.92307699e-02, 7.69230770e-03, 0., 7.69230770e-03,
          1.15384618e-02, 8.46153870e-02, 3.84615385e-03, 4.23076935e-02,
          0., 0., 3.84615385e-03, 2.69230772e-02, 1.92307699e-02, 0.,
          1.92307699e-02, 3.84615385e-03, 3.84615385e-03, 0., 0.,
          1.53846154e-02, 1.92307699e-02, 0., 2.69230772e-02,
          1.92307699e-02, 1.15384618e-02, 3.84615385e-03, 0.,
          7.69230770e-03, 3.84615385e-03, 3.84615385e-03, 1.92307699e-02,
          3.84615385e-03, 3.84615385e-03, 0., 3.84615385e-03,
          5.38461544e-02, 0., 1.15384618e-02, 1.15384618e-02, 0.,
          7.69230770e-03, 1.92307699e-02, 3.84615385e-03, 3.84615385e-03,
          1.15384618e-02, 0., 0., 3.84615385e-03, 1.92307699e-02,
          7.69230770e-03, 1.15384618e-02, 0., 2.30769236e-02,
          2.30769236e-02, 2.69230772e-02, 3.84615385e-03, 4.23076935e-02,
          0., 3.84615385e-03, 3.07692308e-02, 3.84615385e-03,
          3.84615385e-03, 0., 3.84615385e-03, 0., 3.84615385e-03,
          2.30769236e-02, 2.30769236e-02, 3.84615385e-03, 1.92307699e-02,
          1.53846154e-02, 0., 1.15384618e-02, 1.15384618e-02,
          3.84615385e-03, 0., 0., 3.84615385e-03, 7.69230770e-03,
          3.84615385e-03, 1.92307699e-02, 1.15384618e-02, 0.,
          7.69230770e-03, 3.46153863e-02, 1.15384618e-02, 7.69230770e-03,
          0., 0., 3.84615385e-03, 1.15384618e-02, 1.15384618e-02,
          3.84615385e-03, 0., 0., 3.84615385e-03, 1.15384618e-02, 0., 0.,
          3.84615385e-03 ]
      - [ 1.66666675e-02, 8.33333377e-03, 8.33333377e-03, 0.,
          8.33333377e-03, 0., 4.16666679e-02, 5.83333373e-02, 0., 0., 0.,
          1.66666675e-02, 8.33333377e-03, 0., 0., 0., 0., 0., 0.,
          1.66666675e-02, 0., 0., 3.33333351e-02, 2.50000022e-02, 0., 0.,
          0., 0., 0., 0., 5.83333373e-02, 8.33333377e-03, 8.33333377e-03,
          8.33333377e-03, 0., 0., 0., 0., 0., 0., 8.33333377e-03, 0.,
          1.66666675e-02, 0., 8.33333377e-03, 2.50000022e-02, 0.,
          8.33333377e-03, 0., 0., 8.33333377e-03, 2.50000022e-02, 0.,
          8.33333377e-03, 0., 0., 4.16666679e-02, 0., 0., 3.33333351e-02,
          1.66666675e-02, 8.33333377e-03, 1.66666675e-02, 0.,
          1.66666675e-02, 0., 2.50000022e-02, 2.50000022e-02, 0.,
          1.66666675e-02, 8.33333377e-03, 1.66666675e-02, 8.33333377e-03,
          2.50000022e-02, 1.66666675e-02, 0., 0., 0., 8.33333377e-03,
          8.33333377e-03, 0., 0., 2.50000022e-02, 0., 5.83333373e-02,
          5.00000045e-02, 2.50000022e-02, 0., 0., 8.33333377e-03, 0.,
          2.50000022e-02, 8.33333377e-03, 0., 0., 0., 1.66666675e-02,
          8.33333377e-03, 3.33333351e-02, 1.66666675e-02 ]
      - [ 5.88235334e-02, 9.80392192e-03, 0., 0., 0., 1.96078438e-02,
          5.88235334e-02, 9.80392192e-03, 0., 0., 0., 0., 9.80392192e-03,
          0., 0., 9.80392192e-03, 0., 9.80392192e-03, 3.92156877e-02,
          9.80392192e-03, 9.80392192e-03, 0., 2.94117667e-02,
          2.94117667e-02, 9.80392192e-03, 9.80392192e-03, 2.94117667e-02,
          0., 0., 9.80392192e-03, 9.80392192e-03, 0., 0., 9.80392192e-03,
          9.80392192e-03, 4.90196086e-02, 9.80392192e-03, 9.80392192e-03,
          1.96078438e-02, 0., 9.80392192e-03, 0., 0., 0., 0.,
          1.96078438e-02, 9.80392192e-03, 9.80392192e-03, 1.96078438e-02,
          0., 1.96078438e-02, 9.80392192e-03, 9.80392192e-03, 0., 0.,
          2.94117667e-02, 1.96078438e-02, 0., 0., 9.80392192e-03,
          9.80392192e-03, 9.80392192e-03, 0., 0., 0., 0., 1.96078438e-02,
          2.94117667e-02, 0., 2.94117667e-02, 9.80392192e-03,
          9.80392192e-03, 0., 5.88235334e-02, 1.96078438e-02,
          9.80392192e-03, 9.80392192e-03, 0., 9.80392192e-03, 0., 0.,
          9.80392192e-03, 0., 0., 5.88235334e-02, 9.80392192e-03, 0., 0.,
          1.96078438e-02, 9.80392192e-03, 9.80392192e-03, 9.80392192e-03,
          0., 0., 0., 0., 0., 0., 0., 0. ]
      - [ 9.70873795e-03, 9.70873795e-03, 0., 4.85436898e-03,
          4.85436898e-03, 1.94174759e-02, 9.70873795e-03, 4.36893217e-02,
          9.70873795e-03, 4.85436898e-03, 0., 0., 4.85436898e-03, 0.,
          3.88349518e-02, 4.85436898e-03, 0., 9.70873795e-03,
          1.45631069e-02, 4.36893217e-02, 4.85436898e-03, 0.,
          3.39805819e-02, 3.39805819e-02, 4.85436898e-03, 0.,
          2.42718458e-02, 0., 1.94174759e-02, 4.85436898e-03,
          1.45631069e-02, 4.85436898e-03, 0., 0., 9.70873795e-03,
          9.70873795e-03, 1.45631069e-02, 4.85436898e-03, 0., 0., 0., 0.,
          1.45631069e-02, 4.85436898e-03, 3.39805819e-02, 1.94174759e-02,
          0., 0., 1.45631069e-02, 9.70873795e-03, 4.85436898e-03, 0.,
          1.45631069e-02, 9.70873795e-03, 4.85436898e-03, 9.70873795e-03,
          4.85436916e-02, 4.85436898e-03, 9.70873795e-03, 3.39805819e-02,
          1.45631069e-02, 1.45631069e-02, 1.45631069e-02, 0., 0.,
          4.85436898e-03, 2.42718458e-02, 4.85436898e-03, 4.85436898e-03,
          4.85436898e-03, 4.85436898e-03, 9.70873795e-03, 4.85436898e-03,
          0., 0., 9.70873795e-03, 4.85436898e-03, 0., 1.94174759e-02,
          4.85436898e-03, 9.70873795e-03, 0., 0., 3.39805819e-02,
          3.39805819e-02, 9.70873795e-03, 1.45631069e-02, 0.,
          9.70873795e-03, 1.45631069e-02, 4.85436898e-03, 4.85436898e-03,
          3.39805819e-02, 0., 4.85436898e-03, 0., 0., 1.45631069e-02,
          9.70873795e-03, 0. ]
      - [ 1.81818176e-02, 0., 6.06060587e-03, 0., 0., 4.24242392e-02,
          8.48484784e-02, 2.42424235e-02, 0., 0., 0., 1.81818176e-02,
          1.21212117e-02, 0., 0., 0., 0., 6.06060587e-03, 1.21212117e-02,
          1.81818176e-02, 3.63636352e-02, 0., 3.63636352e-02,
          3.03030293e-02, 6.06060587e-03, 0., 6.06060587e-03,
          1.81818176e-02, 6.06060587e-03, 6.06060587e-03, 6.06060587e-03,
          6.06060587e-03, 0., 1.21212117e-02, 6.06060587e-03,
          8.48484784e-02, 6.06060587e-03, 0., 0., 0., 0., 0.,
          6.06060587e-03, 0., 6.06060587e-03, 3.03030293e-02,
          1.81818176e-02, 0., 1.81818176e-02, 1.21212117e-02, 0., 0.,
          3.63636352e-02, 1.81818176e-02, 0., 0., 2.42424235e-02, 0., 0.,
          3.03030293e-02, 0., 6.06060587e-03, 6.06060587e-03, 0., 0., 0.,
          4.24242392e-02, 6.06060587e-03, 6.06060587e-03, 6.06060587e-03,
          1.81818176e-02, 0., 1.81818176e-02, 6.06060587e-03, 0., 0., 0.,
          0., 4.24242392e-02, 0., 1.21212117e-02, 1.21212117e-02,
          6.06060587e-03, 0., 1.81818176e-02, 0., 6.06060587e-03, 0., 0.,
          0., 1.21212117e-02, 1.21212117e-02, 0., 0., 0., 0.,
          5.45454547e-02, 0., 0., 0. ]
      - [ 6.82593836e-03, 6.82593836e-03, 3.41296918e-03, 6.82593836e-03,
          6.82593836e-03, 0., 2.04778146e-02, 4.77815680e-02,
          1.02389073e-02, 0., 2.04778146e-02, 3.41296918e-03,
          6.82593836e-03, 6.82593836e-03, 1.02389073e-02, 1.70648452e-02,
          0., 6.82593836e-03, 6.82593836e-03, 1.36518767e-02,
          1.02389073e-02, 0., 1.70648452e-02, 1.02389073e-02,
          2.38907840e-02, 3.41296918e-03, 0., 1.36518767e-02,
          6.82593836e-03, 6.82593836e-03, 1.02389073e-02, 3.41296918e-03,
          6.82593836e-03, 6.82593836e-03, 6.82593836e-03, 3.41296918e-03,
          6.82593836e-03, 6.82593836e-03, 0., 6.82593836e-03,
          3.41296918e-03, 3.07167228e-02, 1.36518767e-02, 3.41296918e-03,
          6.82593836e-03, 0., 1.36518767e-02, 3.41296918e-03,
          2.38907840e-02, 6.82593836e-03, 2.38907840e-02, 6.82593836e-03,
          1.70648452e-02, 3.41296918e-03, 1.70648452e-02, 6.82593836e-03,
          3.41296904e-02, 6.82593836e-03, 1.36518767e-02, 2.38907840e-02,
          3.41296918e-03, 3.41296918e-03, 3.41296918e-03, 3.41296918e-03,
          3.41296918e-03, 1.02389073e-02, 6.82593836e-03, 2.04778146e-02,
          3.41296918e-03, 0., 6.82593836e-03, 1.36518767e-02,
          6.82593836e-03, 2.73037534e-02, 1.70648452e-02, 6.82593836e-03,
          1.70648452e-02, 3.75426598e-02, 1.02389073e-02, 1.02389073e-02,
          6.82593836e-03, 1.02389073e-02, 1.70648452e-02, 1.02389073e-02,
          1.70648452e-02, 2.04778146e-02, 3.41296918e-03, 3.07167228e-02,
          3.41296918e-03, 3.41296918e-03, 3.41296918e-03, 1.70648452e-02,
          0., 6.82593836e-03, 3.41296918e-03, 1.02389073e-02,
          6.82593836e-03, 0., 3.41296918e-03, 3.41296918e-03 ]
      - [ 2.58899685e-02, 1.61812305e-02, 0., 1.29449842e-02,
          6.47249212e-03, 3.55987065e-02, 1.29449842e-02, 1.00323625e-01,
          0., 0., 0., 6.47249212e-03, 9.70873795e-03, 0., 1.61812305e-02,
          2.58899685e-02, 6.47249212e-03, 9.70873795e-03, 0.,
          1.29449842e-02, 6.47249212e-03, 0., 6.47249212e-03,
          1.61812305e-02, 3.23624606e-03, 0., 9.70873795e-03,
          9.70873795e-03, 9.70873795e-03, 3.23624606e-03, 9.70873795e-03,
          9.70873795e-03, 0., 0., 6.47249212e-03, 1.29449842e-02, 0.,
          6.47249212e-03, 3.23624606e-03, 1.29449842e-02, 0., 0.,
          3.23624606e-03, 9.70873795e-03, 1.61812305e-02, 6.47249212e-03,
          1.29449842e-02, 3.23624606e-03, 1.61812305e-02, 3.23624606e-03,
          9.70873795e-03, 1.29449842e-02, 1.61812305e-02, 0.,
          9.70873795e-03, 1.61812305e-02, 4.20711972e-02, 6.47249212e-03,
          1.29449842e-02, 3.23624611e-02, 0., 3.23624606e-03,
          1.61812305e-02, 6.47249212e-03, 6.47249212e-03, 9.70873795e-03,
          0., 2.58899685e-02, 6.47249212e-03, 0., 3.23624606e-03,
          1.61812305e-02, 3.23624606e-03, 3.23624606e-03, 3.23624606e-03,
          0., 6.47249212e-03, 0., 6.47249212e-03, 1.61812305e-02,
          1.29449842e-02, 3.23624606e-03, 9.70873795e-03, 1.29449842e-02,
          8.09061527e-02, 1.61812305e-02, 0., 3.23624606e-03, 0.,
          1.29449842e-02, 6.47249212e-03, 3.23624606e-03, 3.23624606e-03,
          0., 1.61812305e-02, 6.47249212e-03, 9.70873795e-03,
          1.61812305e-02, 0., 0. ]
      - [ 0., 6.02409616e-03, 9.03614424e-03, 0., 3.01204808e-03,
          1.50602404e-02, 5.12048155e-02, 4.81927693e-02, 3.01204808e-03,
          0., 9.03614424e-03, 3.01204808e-02, 1.80722885e-02, 0.,
          3.01204808e-03, 1.20481923e-02, 0., 0., 3.01204808e-03,
          1.80722885e-02, 6.02409616e-03, 0., 1.80722885e-02,
          9.03614424e-03, 3.31325307e-02, 3.01204808e-03, 9.03614424e-03,
          6.02409616e-03, 1.20481923e-02, 3.01204808e-03, 1.20481923e-02,
          0., 0., 0., 1.80722885e-02, 6.02409616e-02, 6.02409616e-03,
          3.01204808e-03, 0., 0., 0., 9.03614424e-03, 6.02409616e-03, 0.,
          0., 6.02409616e-03, 0., 3.01204808e-03, 9.03614424e-03,
          6.02409616e-03, 3.31325307e-02, 3.01204808e-03, 1.50602404e-02,
          3.01204808e-03, 3.61445770e-02, 3.01204808e-03, 1.50602404e-02,
          0., 6.02409616e-03, 2.40963846e-02, 6.02409616e-03, 0.,
          9.03614424e-03, 9.03614424e-03, 1.50602404e-02, 0.,
          6.02409616e-03, 9.03614424e-03, 9.03614424e-03, 1.20481923e-02,
          0., 0., 0., 3.91566232e-02, 9.03614424e-03, 9.03614424e-03,
          6.02409616e-03, 2.40963846e-02, 3.01204808e-03, 6.02409616e-03,
          9.03614424e-03, 1.20481923e-02, 9.03614424e-03, 1.20481923e-02,
          6.92771077e-02, 2.40963846e-02, 9.03614424e-03, 3.01204808e-03,
          6.02409616e-03, 6.02409616e-03, 6.02409616e-03, 3.01204808e-03,
          6.02409616e-03, 0., 0., 0., 2.40963846e-02, 1.80722885e-02, 0.,
          6.02409616e-03 ]
      - [ 5.43478271e-03, 1.08695654e-02, 0., 0., 1.08695654e-02,
          1.03260875e-01, 2.17391308e-02, 8.69565234e-02, 0., 0., 0.,
          1.63043477e-02, 5.43478271e-03, 0., 5.43478271e-03,
          1.08695654e-02, 0., 5.43478271e-03, 5.43478271e-03,
          1.63043477e-02, 2.17391308e-02, 0., 5.43478280e-02,
          3.26086953e-02, 0., 0., 5.43478271e-03, 1.08695654e-02, 0.,
          1.08695654e-02, 5.43478271e-03, 5.43478271e-03, 5.43478271e-03,
          1.08695654e-02, 0., 2.17391308e-02, 0., 0., 5.43478271e-03,
          5.43478271e-03, 0., 0., 5.43478271e-03, 0., 2.17391308e-02, 0.,
          1.63043477e-02, 2.17391308e-02, 1.08695654e-02, 1.08695654e-02,
          1.63043477e-02, 0., 0., 0., 1.08695654e-02, 5.43478271e-03, 0.,
          0., 5.43478271e-03, 3.26086953e-02, 5.43478271e-03,
          5.43478271e-03, 0., 2.17391308e-02, 1.63043477e-02,
          5.43478271e-03, 2.17391308e-02, 1.08695654e-02, 0.,
          1.63043477e-02, 1.08695654e-02, 0., 0., 0., 0., 1.63043477e-02,
          5.43478271e-03, 1.63043477e-02, 1.08695654e-02, 1.08695654e-02,
          5.43478271e-03, 1.08695654e-02, 0., 5.43478271e-03,
          3.26086953e-02, 5.43478271e-03, 1.63043477e-02, 0., 0.,
          1.63043477e-02, 5.43478271e-03, 1.63043477e-02, 2.17391308e-02,
          0., 0., 5.43478271e-03, 1.63043477e-02, 5.43478271e-03, 0.,
          5.43478271e-03 ]
      - [ 2.17391308e-02, 0., 1.08695654e-02, 0., 0., 0., 0.,
          9.23913047e-02, 0., 0., 5.43478271e-03, 1.08695654e-02,
          4.89130430e-02, 0., 3.80434804e-02, 0., 5.43478271e-03,
          5.43478271e-03, 0., 1.08695654e-02, 5.43478271e-03, 0.,
          1.08695654e-02, 5.43478271e-03, 1.08695654e-02, 1.63043477e-02,
          0., 1.63043477e-02, 1.08695654e-02, 5.43478271e-03, 0.,
          2.71739140e-02, 0., 2.71739140e-02, 0., 2.71739140e-02, 0.,
          1.63043477e-02, 0., 0., 2.17391308e-02, 0., 0., 0.,
          4.34782617e-02, 3.26086953e-02, 1.08695654e-02, 5.43478271e-03,
          3.80434804e-02, 1.08695654e-02, 0., 0., 3.80434804e-02,
          1.08695654e-02, 5.43478271e-03, 5.43478271e-03, 1.08695654e-02,
          0., 0., 3.26086953e-02, 5.43478271e-03, 2.71739140e-02, 0.,
          1.08695654e-02, 0., 0., 5.43478271e-03, 5.43478271e-03, 0.,
          3.80434804e-02, 1.08695654e-02, 0., 0., 1.08695654e-02, 0.,
          5.43478271e-03, 5.43478271e-03, 0., 5.43478271e-03,
          1.08695654e-02, 0., 0., 0., 0., 7.06521720e-02, 0., 0., 0., 0.,
          1.08695654e-02, 0., 0., 3.26086953e-02, 1.63043477e-02, 0., 0.,
          1.08695654e-02, 0., 1.08695654e-02, 1.08695654e-02 ]
      - [ 7.71208201e-03, 0., 5.14138816e-03, 1.28534706e-02,
          1.28534706e-02, 5.14138816e-03, 0., 1.38817474e-01, 0.,
          3.08483280e-02, 7.71208201e-03, 1.28534706e-02, 2.57069413e-02,
          2.05655526e-02, 1.02827763e-02, 0., 1.54241640e-02,
          1.02827763e-02, 2.57069408e-03, 7.71208201e-03, 1.02827763e-02,
          1.54241640e-02, 2.57069408e-03, 0., 2.57069408e-03, 0.,
          2.57069408e-03, 1.02827763e-02, 1.28534706e-02, 0., 0.,
          5.14138816e-03, 1.28534706e-02, 5.14138816e-03, 0.,
          5.14138825e-02, 1.79948583e-02, 2.31362469e-02, 2.82776356e-02,
          2.57069408e-03, 0., 0., 1.28534706e-02, 1.02827763e-02,
          5.14138816e-03, 0., 2.57069408e-03, 1.79948583e-02,
          1.02827763e-02, 7.71208201e-03, 5.14138816e-03, 2.57069408e-03,
          5.14138816e-03, 1.79948583e-02, 0., 7.71208201e-03,
          1.54241640e-02, 1.02827763e-02, 2.57069408e-03, 1.54241640e-02,
          5.14138816e-03, 5.14138816e-03, 2.57069408e-03, 3.08483280e-02,
          1.02827763e-02, 7.71208201e-03, 2.57069408e-03, 0.,
          1.02827763e-02, 3.08483280e-02, 7.71208201e-03, 0.,
          2.57069408e-03, 0., 0., 2.57069408e-03, 5.14138816e-03, 0.,
          2.57069408e-03, 2.57069408e-03, 2.57069408e-03, 1.28534706e-02,
          2.57069408e-03, 2.57069408e-03, 2.57069413e-02, 0., 0., 0.,
          2.57069408e-03, 1.02827763e-02, 1.02827763e-02, 2.57069408e-03,
          2.57069408e-03, 4.11311053e-02, 5.14138816e-03, 5.14138816e-03,
          4.62724939e-02, 7.71208201e-03, 7.71208201e-03, 5.14138816e-03 ]
      - [ 1.05900150e-02, 1.51285925e-03, 1.05900150e-02, 1.21028740e-02,
          9.07715596e-03, 6.35400862e-02, 1.05900150e-02, 3.02571850e-03,
          3.02571850e-03, 3.02571850e-03, 1.51285925e-03, 9.07715596e-03,
          9.07715596e-03, 1.51285925e-03, 7.56429601e-03, 6.05143700e-03,
          3.02571850e-03, 7.56429601e-03, 6.05143700e-03, 9.07715596e-03,
          4.53857798e-03, 0., 7.56429601e-03, 6.05143700e-03,
          4.99243550e-02, 3.02571850e-03, 6.05143700e-03, 1.36157330e-02,
          7.56429601e-03, 9.07715596e-03, 3.02571850e-03, 3.02571850e-03,
          6.05143700e-03, 3.02571850e-03, 6.05143700e-03, 4.99243550e-02,
          7.56429601e-03, 1.05900150e-02, 1.21028740e-02, 3.02571850e-03,
          0., 1.51285925e-03, 1.36157330e-02, 9.07715596e-03,
          1.36157330e-02, 3.02571850e-03, 1.36157330e-02, 1.51285920e-02,
          3.02571850e-03, 6.05143700e-03, 6.80786669e-02, 1.51285925e-03,
          3.02571850e-03, 1.21028740e-02, 4.84114960e-02, 1.36157330e-02,
          4.53857798e-03, 7.56429601e-03, 4.53857798e-03, 3.02571850e-03,
          1.05900150e-02, 4.53857798e-03, 7.56429601e-03, 1.51285920e-02,
          6.05143700e-03, 4.53857798e-03, 1.51285925e-03, 1.36157330e-02,
          3.02571850e-03, 1.66414510e-02, 9.07715596e-03, 7.56429601e-03,
          1.51285925e-03, 3.17700431e-02, 7.56429601e-03, 4.53857798e-03,
          1.66414510e-02, 3.02571850e-03, 3.02571850e-03, 1.21028740e-02,
          4.53857798e-03, 4.53857798e-03, 3.02571850e-03, 4.53857798e-03,
          4.53857798e-03, 1.81543119e-02, 1.66414510e-02, 3.02571850e-03,
          3.02571850e-03, 1.66414510e-02, 1.21028740e-02, 1.51285920e-02,
          1.36157330e-02, 4.53857798e-03, 6.05143700e-03, 1.21028740e-02,
          7.56429601e-03, 1.21028740e-02, 7.56429601e-03, 6.05143700e-03 ]
      - [ 3.60824727e-02, 0., 5.15463902e-03, 0., 0., 1.54639166e-02, 0.,
          6.70103058e-02, 5.15463902e-03, 0., 1.03092780e-02,
          2.06185561e-02, 5.15463911e-02, 0., 1.54639166e-02, 0., 0.,
          5.15463902e-03, 0., 5.15463911e-02, 3.60824727e-02, 0., 0., 0.,
          5.15463902e-03, 0., 0., 1.54639166e-02, 0., 1.03092780e-02,
          5.15463902e-03, 2.06185561e-02, 0., 1.03092780e-02,
          5.15463902e-03, 4.12371121e-02, 1.03092780e-02, 0., 0.,
          5.15463902e-03, 0., 5.15463902e-03, 5.15463902e-03, 0.,
          3.09278332e-02, 0., 1.54639166e-02, 5.15463902e-03, 0.,
          5.15463902e-03, 5.15463902e-03, 0., 1.54639166e-02,
          1.03092780e-02, 0., 0., 5.15463902e-03, 1.54639166e-02,
          5.15463902e-03, 1.03092780e-02, 0., 2.06185561e-02, 0., 0., 0.,
          5.15463902e-03, 1.54639166e-02, 1.03092780e-02, 0.,
          8.24742243e-02, 5.15463902e-03, 0., 0., 0., 0., 5.15463902e-03,
          2.06185561e-02, 0., 5.15463902e-03, 5.15463902e-03, 0.,
          1.54639166e-02, 0., 5.15463902e-03, 6.70103058e-02, 0.,
          5.15463902e-03, 3.09278332e-02, 0., 1.03092780e-02,
          1.54639166e-02, 1.03092780e-02, 4.12371121e-02, 5.15463902e-03,
          0., 1.03092780e-02, 1.03092780e-02, 0., 1.03092780e-02,
          5.15463902e-03 ]
      - [ 5.64971752e-03, 1.69491526e-02, 2.25988701e-02, 0., 0., 0.,
          1.69491526e-02, 1.69491526e-02, 5.64971752e-03, 3.95480245e-02,
          1.12994350e-02, 1.69491526e-02, 0., 2.82485876e-02,
          1.12994350e-02, 5.64971752e-03, 1.69491526e-02, 2.82485876e-02,
          2.25988701e-02, 0., 0., 5.64971752e-03, 0., 0., 0., 0., 0.,
          1.12994350e-02, 5.64971752e-03, 1.69491526e-02, 1.69491526e-02,
          0., 5.64971752e-03, 0., 0., 0., 1.12994350e-02, 1.69491526e-02,
          1.12994350e-02, 2.25988701e-02, 0., 0., 0., 5.08474559e-02,
          5.64971752e-03, 1.69491526e-02, 5.64971752e-03, 0., 0.,
          1.69491526e-02, 1.12994350e-02, 5.64971752e-03, 0., 0.,
          5.64971752e-03, 1.69491526e-02, 0., 9.60451961e-02,
          2.25988701e-02, 0., 5.64971752e-03, 5.64971752e-03,
          5.64971752e-03, 1.12994350e-02, 0., 5.64971752e-03, 0., 0.,
          2.25988701e-02, 6.21468946e-02, 0., 1.12994350e-02,
          1.12994350e-02, 5.64971752e-03, 0., 0., 1.69491526e-02, 0., 0.,
          1.69491526e-02, 5.64971752e-03, 0., 1.69491526e-02,
          1.12994350e-02, 5.64971752e-03, 1.12994350e-02, 5.64971752e-03,
          1.12994350e-02, 5.64971752e-03, 1.12994350e-02, 2.25988701e-02,
          0., 5.64971752e-03, 2.25988701e-02, 1.12994350e-02,
          2.25988701e-02, 5.64971752e-03, 0., 0., 0. ]
      - [ 6.80272095e-03, 0., 0., 1.70068033e-02, 1.70068033e-02,
          1.56462580e-01, 0., 0., 6.80272095e-03, 1.36054419e-02,
          1.70068033e-02, 2.38095224e-02, 0., 0., 3.40136047e-03,
          3.40136047e-03, 1.36054419e-02, 0., 6.80272095e-03,
          1.36054419e-02, 1.02040814e-02, 6.80272095e-03, 6.80272095e-03,
          3.40136047e-03, 1.02040814e-02, 0., 0., 1.36054419e-02,
          6.80272095e-03, 1.36054419e-02, 0., 2.72108838e-02,
          1.36054419e-02, 1.02040814e-02, 1.36054419e-02, 6.12244904e-02,
          6.80272095e-03, 2.72108838e-02, 6.80272095e-03, 0., 0.,
          1.36054419e-02, 1.02040814e-02, 3.40136047e-03, 6.80272095e-03,
          6.80272095e-03, 1.36054419e-02, 1.70068033e-02, 3.40136047e-03,
          1.02040814e-02, 3.06122452e-02, 0., 1.36054419e-02,
          3.40136066e-02, 3.40136047e-03, 1.70068033e-02, 6.80272095e-03,
          3.40136047e-03, 0., 1.36054419e-02, 0., 0., 3.40136047e-03,
          3.74149643e-02, 1.02040814e-02, 1.70068033e-02, 3.40136047e-03,
          0., 1.36054419e-02, 0., 3.40136047e-03, 0., 6.80272095e-03, 0.,
          1.36054419e-02, 0., 1.70068033e-02, 3.40136047e-03,
          6.80272095e-03, 0., 1.70068033e-02, 1.70068033e-02,
          6.80272095e-03, 0., 0., 0., 6.80272095e-03, 3.40136047e-03, 0.,
          1.36054419e-02, 6.80272095e-03, 3.40136047e-03, 0.,
          1.36054419e-02, 1.02040814e-02, 3.40136047e-03, 6.80272095e-03,
          3.40136047e-03, 0., 6.80272095e-03 ]
      - [ 3.73134320e-03, 3.73134320e-03, 3.73134315e-02, 0.,
          1.11940298e-02, 1.86567158e-02, 0., 0., 3.73134320e-03,
          1.49253728e-02, 6.34328350e-02, 3.73134320e-03, 3.73134320e-03,
          1.00746267e-01, 0., 0., 7.46268639e-03, 1.86567158e-02,
          1.49253728e-02, 0., 3.73134320e-03, 7.46268639e-03,
          3.73134320e-03, 3.73134320e-03, 0., 0., 7.46268639e-03,
          1.11940298e-02, 3.73134320e-03, 1.86567158e-02, 3.73134320e-03,
          0., 5.97014911e-02, 3.73134320e-03, 7.46268639e-03,
          1.86567158e-02, 3.73134320e-03, 3.35820876e-02, 7.46268639e-03,
          4.10447754e-02, 0., 0., 1.49253728e-02, 0., 3.73134320e-03, 0.,
          1.49253728e-02, 3.73134320e-03, 0., 0., 3.73134320e-03,
          3.73134320e-03, 3.73134320e-03, 3.73134320e-03, 0.,
          3.73134320e-03, 0., 1.49253728e-02, 1.86567158e-02, 0.,
          1.49253728e-02, 7.46268639e-03, 3.73134320e-03, 3.73134320e-03,
          3.73134320e-03, 7.46268639e-03, 3.73134320e-03, 7.46268639e-03,
          0., 0., 0., 7.46268639e-03, 0., 7.46268639e-03, 0., 0., 0., 0.,
          0., 2.23880596e-02, 3.73134320e-03, 0., 3.73134320e-03,
          3.73134320e-03, 3.73134320e-03, 1.86567158e-02, 0.,
          4.85074632e-02, 3.73134320e-03, 3.73134320e-03, 0.,
          3.73134320e-03, 0., 2.23880596e-02, 3.73134320e-03,
          5.97014911e-02, 0., 1.49253728e-02, 7.83582106e-02,
          3.73134320e-03 ]
      - [ 1.19047621e-02, 0., 1.19047621e-02, 5.95238106e-03,
          5.95238106e-03, 1.36904761e-01, 0., 1.78571437e-02, 0., 0.,
          1.78571437e-02, 2.97619049e-02, 0., 1.78571437e-02,
          1.19047621e-02, 5.95238106e-03, 0., 5.95238106e-03,
          1.19047621e-02, 4.16666679e-02, 7.14285746e-02, 0., 0.,
          5.95238106e-03, 0., 0., 5.95238106e-03, 1.78571437e-02,
          5.95238106e-03, 0., 1.19047621e-02, 0., 5.95238106e-03, 0., 0.,
          1.72619045e-01, 0., 1.78571437e-02, 0., 0., 0., 0.,
          1.78571437e-02, 0., 1.78571437e-02, 1.78571437e-02,
          1.78571437e-02, 1.19047621e-02, 1.19047621e-02, 0.,
          5.95238106e-03, 0., 5.95238106e-03, 2.38095243e-02,
          5.95238106e-03, 0., 1.19047621e-02, 0., 0., 5.95238106e-03, 0.,
          5.95238106e-03, 0., 5.95238106e-03, 5.95238106e-03,
          5.95238106e-03, 0., 5.95238106e-03, 0., 5.95238106e-03, 0.,
          1.19047621e-02, 0., 0., 1.19047621e-02, 5.95238106e-03, 0., 0.,
          0., 0., 1.19047621e-02, 0., 0., 0., 2.97619049e-02, 0.,
          5.95238106e-03, 0., 0., 1.78571437e-02, 0., 1.78571437e-02,
          2.97619049e-02, 0., 0., 0., 5.95238106e-03, 0., 5.95238106e-03,
          5.95238106e-03 ]
      - [ 4.31654677e-02, 7.19424477e-03, 1.43884895e-02, 0.,
          1.43884895e-02, 0., 7.19424477e-03, 5.03597148e-02, 0., 0., 0.,
          7.19424477e-03, 4.31654677e-02, 0., 2.87769791e-02, 0., 0.,
          7.19424477e-03, 0., 1.43884895e-02, 2.87769791e-02, 0., 0.,
          1.43884895e-02, 0., 0., 1.43884895e-02, 1.43884895e-02,
          7.19424477e-03, 2.87769791e-02, 0., 0., 0., 0., 0.,
          2.87769791e-02, 3.59712243e-02, 7.19424477e-03, 0.,
          7.19424477e-03, 0., 1.43884895e-02, 1.43884895e-02,
          7.19424477e-03, 5.75539581e-02, 1.43884895e-02, 1.43884895e-02,
          7.19424477e-03, 2.15827338e-02, 3.59712243e-02, 5.03597148e-02,
          0., 0., 7.19424477e-03, 0., 1.43884895e-02, 1.43884895e-02, 0.,
          7.19424477e-03, 7.19424477e-03, 7.19424477e-03, 7.19424477e-03,
          0., 2.87769791e-02, 0., 0., 0., 0., 7.19424477e-03,
          3.59712243e-02, 0., 0., 0., 0., 7.19424477e-03, 0.,
          1.43884895e-02, 0., 0., 7.19424477e-03, 0., 0., 1.43884895e-02,
          1.43884895e-02, 3.59712243e-02, 7.19424477e-03, 0., 0., 0., 0.,
          2.87769791e-02, 7.19424477e-03, 0., 5.03597148e-02, 0., 0., 0.,
          0., 1.43884895e-02, 0. ]
      - [ 1.88679248e-02, 0., 0., 0., 1.25786159e-02, 7.54716992e-02, 0.,
          1.13207541e-01, 0., 0., 0., 2.51572318e-02, 3.77358496e-02, 0.,
          6.28930796e-03, 1.25786159e-02, 0., 0., 0., 0., 0., 0.,
          1.88679248e-02, 1.88679248e-02, 0., 0., 0., 0., 0., 0.,
          6.28930796e-03, 1.88679248e-02, 0., 1.25786159e-02, 0.,
          4.40251566e-02, 0., 1.25786159e-02, 0., 0., 0., 0.,
          6.28930796e-03, 0., 2.51572318e-02, 1.88679248e-02,
          6.28930796e-03, 0., 5.03144637e-02, 6.28930796e-03, 0., 0.,
          1.25786159e-02, 6.28930796e-03, 6.28930796e-03, 6.28930796e-03,
          3.14465389e-02, 6.28930796e-03, 0., 3.77358496e-02, 0.,
          1.88679248e-02, 0., 1.25786159e-02, 3.14465389e-02,
          6.28930796e-03, 6.28930796e-03, 0., 6.28930796e-03,
          3.14465389e-02, 0., 0., 0., 0., 0., 0., 1.25786159e-02, 0.,
          1.25786159e-02, 1.88679248e-02, 6.28930796e-03, 6.28930796e-03,
          0., 1.25786159e-02, 4.40251566e-02, 0., 6.28930796e-03, 0., 0.,
          2.51572318e-02, 0., 1.25786159e-02, 6.28930796e-03, 0.,
          1.25786159e-02, 0., 2.51572318e-02, 1.25786159e-02, 0.,
          1.88679248e-02 ]
      - [ 1.89873427e-02, 6.32911408e-03, 0., 0., 1.89873427e-02,
          7.59493709e-02, 0., 1.13924056e-01, 0., 0., 0., 1.89873427e-02,
          4.43037972e-02, 6.32911408e-03, 0., 1.26582282e-02, 0., 0., 0.,
          6.32911408e-03, 1.26582282e-02, 0., 1.26582282e-02,
          1.26582282e-02, 0., 0., 0., 0., 0., 6.32911408e-03, 0.,
          1.89873427e-02, 0., 6.32911408e-03, 0., 3.16455700e-02, 0., 0.,
          0., 0., 0., 0., 6.32911408e-03, 0., 1.89873427e-02,
          1.89873427e-02, 3.16455700e-02, 0., 3.16455700e-02,
          2.53164563e-02, 0., 0., 3.79746854e-02, 6.32911408e-03,
          6.32911408e-03, 6.32911408e-03, 3.16455700e-02, 6.32911408e-03,
          0., 3.16455700e-02, 0., 1.26582282e-02, 0., 6.32911408e-03,
          1.89873427e-02, 6.32911408e-03, 1.26582282e-02, 0.,
          1.26582282e-02, 3.16455700e-02, 0., 0., 0., 0., 0., 0.,
          6.32911408e-03, 0., 6.32911408e-03, 1.26582282e-02,
          1.89873427e-02, 6.32911408e-03, 0., 1.26582282e-02,
          4.43037972e-02, 0., 6.32911408e-03, 0., 0., 5.06329127e-02, 0.,
          0., 6.32911408e-03, 0., 1.26582282e-02, 0., 1.89873427e-02,
          6.32911408e-03, 0., 6.32911408e-03 ]
      - [ 6.57894742e-03, 0., 0., 0., 0., 5.92105277e-02, 1.31578948e-02,
          1.38157889e-01, 0., 0., 0., 2.63157897e-02, 1.97368413e-02, 0.,
          0., 6.57894742e-03, 0., 1.31578948e-02, 1.31578948e-02, 0.,
          1.31578948e-02, 0., 1.31578948e-02, 1.97368413e-02,
          6.57894742e-03, 1.31578948e-02, 6.57894742e-03, 1.97368413e-02,
          0., 0., 0., 0., 0., 6.57894742e-03, 0., 3.28947380e-02,
          2.63157897e-02, 0., 0., 1.97368413e-02, 6.57894742e-03, 0.,
          6.57894742e-03, 6.57894742e-03, 5.26315793e-02, 6.57894742e-03,
          6.57894742e-03, 0., 0., 6.57894742e-03, 6.57894742e-03, 0., 0.,
          1.31578948e-02, 1.97368413e-02, 0., 1.97368413e-02,
          6.57894742e-03, 0., 1.31578948e-02, 6.57894742e-03,
          6.57894742e-03, 0., 6.57894742e-03, 0., 6.57894742e-03,
          6.57894742e-03, 6.57894742e-03, 1.31578948e-02, 3.28947380e-02,
          0., 0., 6.57894742e-03, 0., 6.57894742e-03, 1.31578948e-02, 0.,
          0., 0., 6.57894742e-03, 0., 0., 0., 0., 1.44736841e-01,
          1.97368413e-02, 1.97368413e-02, 0., 0., 6.57894742e-03,
          1.31578948e-02, 0., 6.57894742e-03, 6.57894742e-03, 0.,
          6.57894742e-03, 0., 0., 0., 1.31578948e-02 ]
      - [ 6.09756075e-03, 0., 0., 0., 0., 4.87804860e-02, 0.,
          1.15853652e-01, 0., 0., 0., 1.21951215e-02, 1.21951215e-02, 0.,
          0., 6.09756075e-03, 0., 1.21951215e-02, 0., 0., 1.82926822e-02,
          0., 1.21951215e-02, 2.43902430e-02, 1.21951215e-02,
          1.21951215e-02, 1.21951215e-02, 0., 0., 0., 0., 0., 0.,
          6.09756075e-03, 6.09756075e-03, 2.43902430e-02, 1.21951215e-02,
          6.09756075e-03, 0., 1.21951215e-02, 0., 0., 6.09756075e-03,
          6.09756075e-03, 4.87804860e-02, 1.21951215e-02, 6.09756075e-03,
          0., 1.21951215e-02, 1.21951215e-02, 0., 0., 0., 2.43902430e-02,
          1.82926822e-02, 0., 1.82926822e-02, 1.82926822e-02,
          1.21951215e-02, 6.09756075e-03, 1.21951215e-02, 1.21951215e-02,
          6.09756075e-03, 3.04878037e-02, 6.09756075e-03, 6.09756075e-03,
          1.21951215e-02, 1.21951215e-02, 6.09756075e-03, 3.65853645e-02,
          6.09756075e-03, 6.09756075e-03, 6.09756075e-03, 6.09756075e-03,
          6.09756075e-03, 1.21951215e-02, 0., 0., 6.09756075e-03, 0., 0.,
          0., 0., 0., 1.28048778e-01, 1.82926822e-02, 1.21951215e-02,
          1.21951215e-02, 0., 1.21951215e-02, 1.21951215e-02, 0.,
          6.09756075e-03, 0., 6.09756075e-03, 6.09756075e-03, 0.,
          6.09756075e-03, 0., 1.82926822e-02 ]
      - [ 1.54639166e-02, 5.15463902e-03, 2.31958758e-02, 2.57731951e-03,
          5.15463902e-03, 0., 3.35051529e-02, 3.09278332e-02,
          1.28865978e-02, 7.73195829e-03, 4.38144319e-02, 0.,
          5.15463902e-03, 1.80412363e-02, 5.15463902e-03, 5.15463902e-03,
          1.54639166e-02, 1.03092780e-02, 1.03092780e-02, 7.73195829e-03,
          1.03092780e-02, 2.57731951e-03, 2.57731951e-03, 1.03092780e-02,
          1.54639166e-02, 2.57731951e-03, 5.15463902e-03, 7.73195829e-03,
          2.57731951e-03, 2.57731951e-03, 5.15463902e-03, 2.57731951e-03,
          1.54639166e-02, 5.15463902e-03, 7.73195829e-03, 0.,
          1.54639166e-02, 1.80412363e-02, 2.06185561e-02, 1.54639166e-02,
          0., 1.03092780e-02, 1.03092780e-02, 1.03092780e-02,
          1.54639166e-02, 2.57731951e-03, 7.73195829e-03, 1.03092780e-02,
          0., 1.28865978e-02, 4.63917516e-02, 7.73195829e-03, 0.,
          7.73195829e-03, 3.86597924e-02, 0., 7.73195829e-03,
          4.38144319e-02, 1.03092780e-02, 1.03092780e-02, 5.15463902e-03,
          5.15463902e-03, 2.06185561e-02, 7.73195829e-03, 2.57731951e-03,
          2.57731951e-03, 0., 0., 2.57731951e-03, 0., 5.15463902e-03,
          1.03092780e-02, 5.15463902e-03, 1.28865978e-02, 2.06185561e-02,
          5.15463902e-03, 7.73195829e-03, 1.03092780e-02, 2.57731951e-03,
          7.73195829e-03, 5.15463902e-03, 7.73195829e-03, 1.54639166e-02,
          0., 1.03092780e-02, 0., 1.80412363e-02, 4.89690714e-02,
          7.73195829e-03, 5.15463902e-03, 5.15463902e-03, 1.03092780e-02,
          2.57731951e-03, 1.28865978e-02, 7.73195829e-03, 2.06185561e-02,
          0., 7.73195829e-03, 0., 2.57731951e-03 ]
      - [ 3.84615385e-03, 7.69230770e-03, 3.84615399e-02, 3.84615385e-03,
          7.69230770e-03, 0., 1.15384618e-02, 2.69230772e-02, 0.,
          7.69230770e-03, 2.69230772e-02, 7.69230770e-03, 7.69230770e-03,
          7.69230770e-03, 0., 7.69230770e-03, 0., 1.15384618e-02,
          1.53846154e-02, 7.69230770e-03, 3.84615385e-03, 3.84615385e-03,
          0., 0., 4.23076935e-02, 0., 3.84615385e-03, 3.84615385e-03, 0.,
          0., 0., 0., 1.15384618e-02, 0., 7.69230770e-03, 0.,
          3.84615385e-03, 7.69230770e-03, 7.69230770e-03, 4.23076935e-02,
          0., 3.84615399e-02, 7.69230770e-03, 3.84615385e-03,
          7.69230770e-03, 7.69230770e-03, 1.15384618e-02, 3.84615385e-03,
          3.84615385e-03, 0., 0., 1.53846154e-02, 0., 3.84615385e-03,
          4.61538471e-02, 0., 0., 1.92307699e-02, 1.53846154e-02, 0.,
          3.84615385e-03, 7.69230770e-03, 2.30769236e-02, 3.84615385e-03,
          0., 1.15384618e-02, 0., 3.84615385e-03, 0., 7.69230770e-03,
          3.84615385e-03, 1.53846154e-02, 0., 1.15384618e-02,
          7.69230770e-03, 0., 1.92307699e-02, 0., 0., 0., 0.,
          1.53846154e-02, 1.92307699e-02, 7.69230770e-03, 4.23076935e-02,
          1.92307699e-02, 1.92307699e-02, 1.19230770e-01, 1.92307699e-02,
          3.84615385e-03, 7.69230770e-03, 0., 3.84615385e-03,
          1.53846154e-02, 2.30769236e-02, 2.30769236e-02, 3.84615385e-03,
          3.84615385e-03, 1.15384618e-02, 0. ]
      - [ 6.77966094e-03, 0., 2.37288140e-02, 3.38983047e-03, 0.,
          6.77966094e-03, 3.72881368e-02, 3.38983047e-03, 0.,
          1.35593219e-02, 3.38983051e-02, 3.38983047e-03, 0.,
          2.71186437e-02, 0., 0., 1.01694912e-02, 2.37288140e-02,
          2.71186437e-02, 1.01694912e-02, 0., 3.38983047e-03,
          3.38983047e-03, 0., 6.77966094e-03, 1.01694912e-02,
          1.69491526e-02, 3.38983047e-03, 1.35593219e-02, 2.37288140e-02,
          3.38983047e-03, 1.01694912e-02, 1.69491526e-02, 6.77966094e-03,
          1.35593219e-02, 0., 1.35593219e-02, 1.69491526e-02,
          2.71186437e-02, 3.05084735e-02, 0., 0., 1.35593219e-02,
          3.38983047e-03, 6.77966094e-03, 0., 6.77966094e-03,
          6.77966094e-03, 0., 1.35593219e-02, 3.38983047e-03,
          1.35593219e-02, 0., 3.38983047e-03, 3.38983047e-03,
          3.38983047e-03, 6.77966094e-03, 1.01694912e-02, 1.69491526e-02,
          0., 1.35593219e-02, 3.38983047e-03, 2.37288140e-02,
          3.38983047e-03, 3.38983047e-03, 1.69491526e-02, 3.38983047e-03,
          0., 3.38983047e-03, 3.38983047e-03, 3.38983047e-03,
          2.03389823e-02, 3.38983047e-03, 1.35593219e-02, 1.69491526e-02,
          3.38983047e-03, 3.38983047e-03, 0., 6.77966094e-03,
          6.77966094e-03, 0., 6.77966094e-03, 2.37288140e-02,
          3.38983047e-03, 1.01694912e-02, 1.01694912e-02, 1.35593219e-02,
          4.74576280e-02, 3.05084735e-02, 3.38983047e-03, 3.38983047e-03,
          6.77966094e-03, 1.35593219e-02, 1.01694912e-02, 6.77966094e-03,
          2.03389823e-02, 1.35593219e-02, 6.77966094e-03, 4.40677963e-02,
          1.01694912e-02 ]
      - [ 1.16959065e-02, 5.84795326e-03, 5.84795326e-03, 5.84795326e-03,
          0., 2.33918130e-02, 5.26315793e-02, 1.11111112e-01, 0., 0.,
          5.84795326e-03, 2.33918130e-02, 1.75438598e-02, 0.,
          1.16959065e-02, 1.16959065e-02, 0., 5.84795326e-03,
          5.84795326e-03, 2.92397663e-02, 0., 0., 1.75438598e-02,
          5.84795326e-03, 0., 0., 0., 1.16959065e-02, 0., 0., 0., 0., 0.,
          0., 5.84795326e-03, 1.16959065e-02, 0., 0., 0., 1.16959065e-02,
          0., 0., 0., 1.75438598e-02, 2.33918130e-02, 1.16959065e-02,
          1.16959065e-02, 0., 1.16959065e-02, 0., 3.50877196e-02,
          5.84795326e-03, 5.84795326e-03, 5.84795326e-03, 0.,
          5.84795326e-03, 1.75438598e-02, 9.35672522e-02, 0.,
          4.67836261e-02, 0., 1.75438598e-02, 5.84795326e-03,
          1.16959065e-02, 0., 1.16959065e-02, 5.84795326e-03, 0., 0.,
          4.67836261e-02, 5.84795326e-03, 1.16959065e-02, 0.,
          5.84795326e-03, 1.16959065e-02, 0., 1.75438598e-02, 0.,
          5.84795326e-03, 0., 0., 0., 0., 0., 7.01754391e-02, 0.,
          5.84795326e-03, 5.84795326e-03, 1.75438598e-02, 5.84795326e-03,
          5.84795326e-03, 5.84795326e-03, 1.75438598e-02, 0., 0.,
          5.84795326e-03, 0., 5.84795326e-03, 5.84795326e-03,
          5.84795326e-03 ]
      - [ 1.86915882e-02, 9.34579410e-03, 0., 9.34579410e-03,
          9.34579410e-03, 6.54205605e-02, 0., 9.34579410e-03, 0., 0., 0.,
          9.34579410e-03, 0., 0., 9.34579410e-03, 0., 0., 9.34579410e-03,
          0., 9.34579410e-03, 3.73831764e-02, 0., 1.86915882e-02,
          1.86915882e-02, 0., 0., 0., 9.34579410e-03, 9.34579410e-03,
          9.34579410e-03, 9.34579410e-03, 0., 0., 0., 1.86915882e-02,
          1.21495321e-01, 9.34579410e-03, 0., 0., 0., 0., 0., 0.,
          9.34579410e-03, 9.34579410e-03, 0., 0., 0., 7.47663528e-02, 0.,
          9.34579410e-03, 0., 7.47663528e-02, 0., 9.34579410e-03, 0.,
          4.67289686e-02, 9.34579410e-03, 0., 2.80373823e-02, 0., 0.,
          9.34579410e-03, 2.80373823e-02, 0., 0., 2.80373823e-02, 0., 0.,
          1.86915882e-02, 0., 0., 0., 9.34579410e-03, 9.34579410e-03, 0.,
          0., 2.80373823e-02, 1.86915882e-02, 0., 0., 9.34579410e-03, 0.,
          0., 6.54205605e-02, 0., 1.86915882e-02, 0., 0., 0., 0.,
          9.34579410e-03, 0., 0., 0., 0., 4.67289686e-02, 9.34579410e-03,
          0., 0. ]
      - [ 1.09289614e-02, 2.73224041e-02, 0., 0., 0., 1.20218575e-01,
          5.46448072e-03, 6.01092875e-02, 5.46448072e-03, 0.,
          5.46448072e-03, 2.73224041e-02, 1.63934417e-02, 0.,
          5.46448072e-03, 1.09289614e-02, 5.46448072e-03, 5.46448072e-03,
          0., 2.18579229e-02, 0., 0., 0., 5.46448072e-03, 1.63934417e-02,
          0., 2.18579229e-02, 2.18579229e-02, 0., 0., 5.46448072e-03,
          5.46448072e-03, 1.09289614e-02, 0., 5.46448072e-03,
          6.55737668e-02, 0., 0., 1.63934417e-02, 0., 0., 0., 0., 0.,
          3.82513665e-02, 1.09289614e-02, 2.73224041e-02, 0., 0.,
          1.63934417e-02, 5.46448072e-03, 0., 5.46448072e-03,
          1.63934417e-02, 5.46448072e-03, 1.63934417e-02, 2.18579229e-02,
          5.46448072e-03, 0., 5.46448072e-03, 1.09289614e-02,
          1.09289614e-02, 5.46448072e-03, 1.09289614e-02, 0.,
          1.09289614e-02, 5.46448072e-03, 1.63934417e-02, 0.,
          3.82513665e-02, 5.46448072e-03, 0., 0., 0., 5.46448072e-03, 0.,
          0., 1.63934417e-02, 0., 2.18579229e-02, 5.46448072e-03, 0., 0.,
          2.18579229e-02, 2.73224041e-02, 0., 1.63934417e-02, 0., 0.,
          2.18579229e-02, 1.63934417e-02, 1.63934417e-02, 1.63934417e-02,
          0., 0., 5.46448072e-03, 0., 1.09289614e-02, 0., 5.46448072e-03 ]
      - [ 1.36986300e-02, 0., 0., 1.36986300e-02, 2.73972601e-02, 0., 0.,
          4.10958901e-02, 0., 0., 0., 2.73972601e-02, 1.36986300e-02, 0.,
          0., 1.36986300e-02, 0., 0., 4.10958901e-02, 1.36986300e-02, 0.,
          0., 1.36986300e-02, 0., 0., 0., 1.36986300e-02, 0.,
          1.36986300e-02, 1.36986300e-02, 1.36986300e-02, 2.73972601e-02,
          0., 2.73972601e-02, 0., 8.21917802e-02, 1.36986300e-02, 0.,
          1.36986300e-02, 0., 0., 0., 0., 0., 0., 0., 0., 0.,
          1.36986300e-02, 4.10958901e-02, 4.10958901e-02, 2.73972601e-02,
          1.36986300e-02, 1.36986300e-02, 0., 0., 2.73972601e-02,
          1.36986300e-02, 1.36986300e-02, 8.21917802e-02, 0., 0., 0.,
          1.36986300e-02, 0., 1.36986300e-02, 1.36986300e-02, 0., 0.,
          1.36986300e-02, 0., 1.36986300e-02, 0., 0., 0., 0., 0.,
          1.36986300e-02, 1.36986300e-02, 0., 0., 0., 0., 1.36986300e-02,
          2.73972601e-02, 2.73972601e-02, 0., 0., 1.36986300e-02, 0., 0.,
          1.36986300e-02, 0., 0., 2.73972601e-02, 1.36986300e-02,
          4.10958901e-02, 0., 0., 0. ]
      - [ 4.16666679e-02, 0., 0., 0., 0., 4.16666679e-02, 0.,
          1.25000000e-01, 0., 0., 0., 0., 2.08333340e-02, 0., 0., 0., 0.,
          0., 0., 0., 4.16666679e-02, 0., 2.08333340e-02, 2.08333340e-02,
          0., 0., 0., 2.08333340e-02, 0., 0., 2.08333340e-02, 0., 0., 0.,
          2.08333340e-02, 0., 0., 0., 0., 0., 0., 0., 0., 0., 0., 0., 0.,
          0., 0., 0., 0., 0., 8.33333358e-02, 0., 0., 2.08333340e-02,
          1.04166672e-01, 0., 0., 6.25000000e-02, 2.08333340e-02, 0., 0.,
          0., 0., 0., 2.08333340e-02, 2.08333340e-02, 0., 6.25000000e-02,
          0., 0., 0., 0., 0., 0., 2.08333340e-02, 0., 0., 0., 0., 0., 0.,
          0., 1.25000000e-01, 0., 0., 0., 0., 0., 0., 0., 2.08333340e-02,
          0., 2.08333340e-02, 0., 4.16666679e-02, 0., 0., 0. ]
      - [ 1.25000002e-02, 0., 0., 0., 1.25000002e-02, 0., 0.,
          5.00000007e-02, 2.50000004e-02, 0., 0., 0., 2.50000004e-02, 0.,
          0., 0., 0., 0., 1.25000002e-02, 0., 3.75000015e-02, 0., 0.,
          2.50000004e-02, 0., 0., 1.25000002e-02, 3.75000015e-02, 0., 0.,
          1.25000002e-02, 8.74999985e-02, 0., 5.00000007e-02, 0.,
          1.25000002e-02, 0., 0., 0., 0., 0., 0., 1.25000002e-02, 0.,
          8.74999985e-02, 1.25000002e-02, 0., 0., 1.25000002e-02,
          1.25000002e-02, 0., 0., 1.25000002e-02, 1.25000002e-02, 0., 0.,
          1.25000002e-02, 0., 0., 1.25000002e-02, 0., 5.00000007e-02, 0.,
          3.75000015e-02, 0., 0., 0., 1.25000002e-02, 1.25000002e-02,
          1.25000002e-02, 1.25000002e-02, 0., 0., 0., 0., 0.,
          1.25000002e-02, 0., 1.25000002e-02, 0., 0., 0., 0.,
          1.25000002e-02, 3.75000015e-02, 3.75000015e-02, 0., 0., 0.,
          1.25000002e-02, 0., 3.75000015e-02, 1.25000002e-02, 0., 0., 0.,
          5.00000007e-02, 0., 3.75000015e-02, 0. ]
      - [ 1.29390024e-02, 2.77264323e-03, 7.39371544e-03, 7.39371544e-03,
          6.46950118e-03, 5.73012941e-02, 6.46950118e-03, 1.75600741e-02,
          2.77264323e-03, 3.69685772e-03, 2.03327183e-02, 4.15896475e-02,
          1.84842888e-02, 1.01663591e-02, 1.84842888e-02, 1.57116447e-02,
          6.46950118e-03, 1.57116447e-02, 5.54528646e-03, 1.01663591e-02,
          6.46950118e-03, 7.39371544e-03, 1.84842886e-03, 2.77264323e-03,
          4.62107221e-03, 1.84842886e-03, 9.24214430e-04, 0.,
          7.39371544e-03, 1.94085035e-02, 5.54528646e-03, 1.01663591e-02,
          0., 1.38632162e-02, 0., 9.05730128e-02, 2.77264323e-02,
          7.39371544e-03, 1.20147876e-02, 4.62107221e-03, 9.24214430e-04,
          1.01663591e-02, 4.62107221e-03, 6.46950118e-03, 3.69685772e-03,
          2.21811458e-02, 3.51201482e-02, 2.21811458e-02, 4.62107221e-03,
          1.84842886e-03, 5.54528646e-03, 9.24214430e-04, 3.69685772e-03,
          3.32717188e-02, 2.77264323e-03, 2.12569311e-02, 1.84842886e-03,
          1.84842886e-03, 9.24214430e-04, 7.39371544e-03, 1.84842886e-03,
          9.24214441e-03, 1.84842886e-03, 6.46950118e-03, 7.39371544e-03,
          2.77264323e-03, 9.24214430e-04, 5.54528646e-03, 3.69685772e-03,
          4.62107221e-03, 2.77264323e-03, 5.54528646e-03, 4.62107221e-03,
          8.31792969e-03, 0., 1.10905729e-02, 4.62107221e-03,
          1.66358594e-02, 1.84842886e-03, 1.66358594e-02, 1.20147876e-02,
          9.24214441e-03, 2.77264323e-03, 3.69685772e-03, 2.58780047e-02,
          2.77264323e-03, 1.84842886e-03, 1.20147876e-02, 0.,
          2.77264323e-02, 2.40295753e-02, 9.24214441e-03, 1.29390024e-02,
          7.39371544e-03, 1.84842886e-03, 1.10905729e-02, 5.54528646e-03,
          1.84842886e-03, 2.77264323e-03, 5.54528646e-03 ]
      - [ 1.36363637e-02, 6.81818184e-03, 9.09090880e-03, 9.09090880e-03,
          1.13636358e-02, 1.47727272e-02, 4.54545440e-03, 2.61363629e-02,
          3.40909092e-03, 1.81818176e-02, 1.36363637e-02, 2.04545446e-02,
          5.68181789e-03, 1.36363637e-02, 1.13636358e-02, 9.09090880e-03,
          4.54545440e-03, 1.47727272e-02, 5.68181789e-03, 1.70454532e-02,
          6.81818184e-03, 1.24999993e-02, 5.68181789e-03, 1.02272723e-02,
          6.81818184e-03, 1.13636360e-03, 6.81818184e-03, 1.13636358e-02,
          1.13636358e-02, 1.36363637e-02, 3.40909092e-03, 1.02272723e-02,
          1.24999993e-02, 4.54545440e-03, 1.02272723e-02, 1.59090906e-02,
          7.95454532e-03, 1.36363637e-02, 7.95454532e-03, 6.81818184e-03,
          1.13636360e-03, 1.13636360e-03, 1.59090906e-02, 1.24999993e-02,
          5.68181789e-03, 7.95454532e-03, 1.02272723e-02, 2.04545446e-02,
          9.09090880e-03, 9.09090880e-03, 1.13636358e-02, 5.68181789e-03,
          6.81818184e-03, 9.09090880e-03, 7.95454532e-03, 1.24999993e-02,
          1.36363637e-02, 1.36363637e-02, 1.36363637e-02, 9.09090880e-03,
          1.02272723e-02, 1.36363637e-02, 1.59090906e-02, 9.09090880e-03,
          4.54545440e-03, 7.95454532e-03, 2.27272720e-03, 4.54545440e-03,
          7.95454532e-03, 5.68181789e-03, 1.36363637e-02, 1.36363637e-02,
          0., 5.68181789e-03, 2.27272720e-03, 7.95454532e-03,
          9.09090880e-03, 2.27272720e-03, 3.40909092e-03, 1.02272723e-02,
          7.95454532e-03, 1.24999993e-02, 2.27272720e-03, 6.81818184e-03,
          1.47727272e-02, 1.13636358e-02, 5.68181789e-03, 1.24999993e-02,
          3.40909092e-03, 1.70454532e-02, 1.36363637e-02, 1.24999993e-02,
          1.36363637e-02, 3.06818169e-02, 1.47727272e-02, 2.04545446e-02,
          1.59090906e-02, 7.95454532e-03, 9.09090880e-03, 7.95454532e-03 ]
      - [ 7.69230770e-03, 1.53846154e-02, 7.69230770e-03, 7.69230770e-03,
          7.69230770e-03, 0., 7.69230770e-03, 7.69230770e-03, 0., 0.,
          7.69230770e-03, 7.69230770e-03, 1.53846154e-02, 0.,
          7.69230770e-03, 7.69230770e-03, 0., 1.53846154e-02,
          7.69230770e-03, 7.69230770e-03, 7.69230770e-03, 0.,
          1.53846154e-02, 7.69230770e-03, 7.69230770e-03, 0., 0.,
          7.69230770e-03, 2.30769236e-02, 0., 1.53846154e-02, 0.,
          7.69230770e-03, 0., 2.30769236e-02, 2.30769236e-02,
          1.53846154e-02, 0., 0., 0., 7.69230770e-03, 0., 7.69230770e-03,
          7.69230770e-03, 4.61538471e-02, 0., 0., 7.69230770e-03,
          7.69230770e-03, 0., 4.61538471e-02, 2.30769236e-02,
          1.53846154e-02, 0., 1.53846154e-02, 7.69230770e-03,
          7.69230770e-03, 7.69230770e-03, 1.53846154e-02, 3.07692308e-02,
          3.84615399e-02, 7.69230770e-03, 7.69230770e-03, 3.84615399e-02,
          0., 7.69230770e-03, 7.69230770e-03, 1.53846154e-02,
          7.69230770e-03, 3.84615399e-02, 1.53846154e-02, 1.53846154e-02,
          0., 1.53846154e-02, 7.69230770e-03, 0., 0., 0., 0.,
          7.69230770e-03, 0., 7.69230770e-03, 1.53846154e-02,
          7.69230770e-03, 6.15384616e-02, 0., 7.69230770e-03,
          7.69230770e-03, 1.53846154e-02, 7.69230770e-03, 2.30769236e-02,
          3.07692308e-02, 0., 7.69230770e-03, 7.69230770e-03, 0.,
          7.69230770e-03, 7.69230770e-03, 7.69230770e-03, 0. ]
      - [ 1.50150154e-02, 1.80180185e-02, 6.00600615e-03, 0., 0., 0.,
          6.00600615e-03, 1.98198199e-01, 0., 0., 1.50150154e-02, 0.,
          2.10210215e-02, 0., 6.00600615e-03, 3.00300308e-03, 0.,
          1.50150154e-02, 6.00600615e-03, 6.00600615e-03, 3.00300308e-03,
          0., 9.00900923e-03, 6.00600615e-03, 1.80180185e-02,
          3.00300308e-03, 9.00900923e-03, 1.20120123e-02, 0.,
          3.00300308e-03, 9.00900923e-03, 9.00900923e-03, 3.00300308e-03,
          3.00300308e-03, 3.00300308e-03, 3.00300308e-03, 0., 0.,
          6.00600615e-03, 0., 6.00600615e-03, 1.50150154e-02,
          9.00900923e-03, 1.80180185e-02, 1.20120123e-02, 1.20120123e-02,
          6.00600615e-03, 3.00300308e-03, 3.00300308e-02, 3.00300308e-03,
          1.20120123e-02, 6.00600615e-03, 3.00300308e-03, 3.00300308e-03,
          1.80180185e-02, 3.00300308e-03, 2.10210215e-02, 3.00300308e-02,
          3.00300308e-03, 3.00300308e-02, 0., 9.00900923e-03,
          9.00900923e-03, 6.00600615e-03, 0., 3.00300308e-03,
          3.00300308e-03, 9.00900923e-03, 1.80180185e-02, 3.00300308e-03,
          3.00300308e-03, 3.00300308e-03, 0., 6.00600615e-03,
          9.00900923e-03, 3.00300308e-03, 9.00900923e-03, 0., 0.,
          6.00600615e-03, 3.00300308e-03, 0., 1.20120123e-02,
          1.20120123e-02, 1.05105110e-01, 9.00900923e-03, 2.10210215e-02,
          1.50150154e-02, 0., 0., 3.00300308e-03, 1.20120123e-02,
          1.50150154e-02, 6.00600615e-03, 3.00300308e-03, 9.00900923e-03,
          6.00600615e-03, 9.00900923e-03, 0., 3.00300308e-03 ]
      - [ 9.52380989e-03, 0., 1.26984129e-02, 2.53968257e-02,
          1.58730168e-02, 2.85714287e-02, 6.34920644e-03, 0.,
          3.17460322e-03, 0., 6.34920644e-03, 9.52380989e-03,
          1.58730168e-02, 0., 6.34920644e-03, 0., 0., 3.17460322e-03,
          9.52380989e-03, 0., 1.90476198e-02, 0., 1.26984129e-02,
          9.52380989e-03, 1.90476198e-02, 1.58730168e-02, 3.17460322e-03,
          9.52380989e-03, 1.26984129e-02, 0., 0., 2.22222228e-02, 0.,
          1.90476198e-02, 9.52380989e-03, 4.44444455e-02, 6.34920644e-03,
          6.34920644e-03, 0., 0., 1.58730168e-02, 9.52380989e-03,
          1.58730168e-02, 6.34920644e-03, 6.34920644e-03, 0.,
          3.17460322e-03, 2.85714287e-02, 1.58730168e-02, 2.53968257e-02,
          3.80952395e-02, 3.17460322e-03, 2.22222228e-02, 1.26984129e-02,
          1.58730168e-02, 2.85714287e-02, 9.52380989e-03, 6.34920644e-03,
          0., 1.58730168e-02, 0., 6.34920644e-03, 0., 2.53968257e-02, 0.,
          0., 1.26984129e-02, 0., 3.17460322e-03, 2.22222228e-02,
          3.80952395e-02, 0., 3.17460322e-03, 1.90476198e-02,
          9.52380989e-03, 6.34920644e-03, 6.34920644e-03, 4.44444455e-02,
          9.52380989e-03, 1.26984129e-02, 1.26984129e-02, 3.17460336e-02,
          0., 0., 2.53968257e-02, 3.17460322e-03, 9.52380989e-03, 0.,
          3.17460322e-03, 6.34920644e-03, 6.34920644e-03, 0.,
          3.17460322e-03, 3.17460322e-03, 0., 6.34920644e-03,
          9.52380989e-03, 6.34920644e-03, 0., 1.26984129e-02 ]
      - [ 0., 0., 7.24637695e-03, 2.17391308e-02, 0., 0., 0.,
          7.24637657e-02, 0., 0., 0., 3.62318829e-02, 1.44927539e-02, 0.,
          0., 7.24637695e-03, 7.24637695e-03, 7.24637695e-03,
          7.24637695e-03, 0., 0., 0., 1.44927539e-02, 3.62318829e-02,
          2.17391308e-02, 7.24637695e-03, 0., 0., 0., 7.24637695e-03,
          1.44927539e-02, 0., 0., 0., 1.44927539e-02, 1.44927539e-02,
          7.24637695e-03, 2.17391308e-02, 1.44927539e-02, 7.24637695e-03,
          1.44927539e-02, 7.24637695e-03, 0., 7.24637695e-03,
          1.44927539e-02, 0., 1.44927539e-02, 7.24637695e-03,
          7.24637695e-03, 0., 2.89855078e-02, 0., 1.44927539e-02,
          7.24637695e-03, 4.34782617e-02, 0., 7.24637695e-03,
          2.17391308e-02, 0., 7.24637695e-03, 7.24637695e-03,
          7.24637695e-03, 7.24637695e-03, 7.24637695e-03, 0., 0.,
          2.17391308e-02, 7.24637695e-03, 7.24637695e-03, 4.34782617e-02,
          7.24637695e-03, 7.24637695e-03, 0., 3.62318829e-02, 0.,
          1.44927539e-02, 0., 1.44927539e-02, 7.24637695e-03, 0., 0.,
          1.44927539e-02, 7.24637695e-03, 0., 7.97101483e-02, 0.,
          1.44927539e-02, 7.24637695e-03, 1.44927539e-02, 4.34782617e-02,
          2.17391308e-02, 0., 7.24637695e-03, 0., 0., 0., 2.17391308e-02,
          7.24637695e-03, 0., 0. ]
      - [ 3.11284047e-02, 1.16731515e-02, 7.78210117e-03, 3.89105058e-03,
          3.11284047e-02, 1.55642023e-02, 7.78210117e-03, 8.17120597e-02,
          3.89105058e-03, 0., 3.89105058e-03, 0., 0., 3.89105058e-03, 0.,
          1.16731515e-02, 0., 7.78210117e-03, 0., 0., 1.55642023e-02, 0.,
          7.78210117e-03, 1.16731515e-02, 1.16731515e-02, 0., 0.,
          7.78210117e-03, 7.78210117e-03, 0., 0., 0., 3.89105058e-03,
          3.89105058e-03, 0., 3.89105058e-03, 0., 3.89105058e-03,
          3.89105058e-03, 1.55642023e-02, 0., 7.78210089e-02,
          1.55642023e-02, 0., 8.56031105e-02, 7.78210117e-03,
          1.94552522e-02, 0., 0., 1.55642023e-02, 1.16731515e-02,
          3.89105058e-03, 0., 1.55642023e-02, 1.16731515e-02, 0.,
          7.78210117e-03, 3.89105058e-03, 0., 7.78210117e-03,
          1.94552522e-02, 7.78210117e-03, 3.89105058e-03, 3.50194536e-02,
          0., 1.16731515e-02, 0., 7.78210117e-03, 0., 2.72373538e-02,
          7.78210117e-03, 1.55642023e-02, 0., 7.78210117e-03,
          7.78210117e-03, 3.89105058e-03, 0., 3.89105044e-02,
          3.89105058e-03, 0., 1.16731515e-02, 1.16731515e-02,
          3.89105058e-03, 1.16731515e-02, 1.55642023e-02, 1.16731515e-02,
          3.50194536e-02, 3.89105058e-03, 3.89105058e-03, 1.16731515e-02,
          0., 1.55642023e-02, 1.16731515e-02, 7.78210117e-03,
          1.16731515e-02, 0., 3.89105058e-03, 0., 1.16731515e-02,
          1.55642023e-02 ]
      - [ 2.85714306e-02, 0., 0., 9.52380989e-03, 0., 1.90476198e-02, 0.,
          1.14285722e-01, 9.52380989e-03, 0., 1.90476198e-02,
          1.90476198e-02, 0., 0., 9.52380989e-03, 0., 0., 0., 0.,
          9.52380989e-03, 0., 0., 0., 0., 0., 0., 0., 0., 0., 0., 0.,
          1.90476198e-02, 0., 3.80952395e-02, 0., 0., 0., 0.,
          9.52380989e-03, 0., 0., 0., 0., 0., 9.52380989e-03,
          9.52380989e-03, 9.52380989e-03, 1.90476198e-02, 4.76190485e-02,
          0., 9.52380989e-03, 0., 9.52380989e-03, 1.90476198e-02, 0., 0.,
          2.85714306e-02, 0., 0., 5.71428612e-02, 9.52380989e-03,
          1.90476198e-02, 0., 0., 0., 0., 1.90476198e-02, 0., 0.,
          4.76190485e-02, 5.71428612e-02, 0., 9.52380989e-03, 0., 0., 0.,
          0., 0., 1.90476198e-02, 0., 0., 3.80952395e-02, 0.,
          9.52380989e-03, 1.23809531e-01, 0., 0., 0., 0., 9.52380989e-03,
          0., 0., 1.90476198e-02, 0., 0., 0., 9.52380970e-02, 0., 0., 0. ]
   decision_functions:
      -
         sv_count: 1
         rho: -1.9463254027053543e+00
         alpha: [ 1. ]
         index: [ 0 ]
