%YAML:1.0
---
opencv_ml_svm:
   format: 3
   svmType: C_SVC
   kernel:
      type: LINEAR
   C: 6.2500000000000000e+01
   term_criteria: { iterations:100 }
   var_count: 100
   class_count: 2
   class_labels: !!opencv-matrix
      rows: 2
      cols: 1
      dt: i
      data: [ 0, 1 ]
   sv_total: 1
   support_vectors:
      - [ 2.37609029e+00, -7.65899241e-01, 2.58255768e+00,
          -9.00437653e-01, 4.39415932e+00, 5.74554682e-01,
          2.27454543e+00, 6.73264265e+00, -8.64070511e+00,
          -6.45465994e+00, -1.50606406e+00, 1.13882852e+00,
          4.20477057e+00, -6.48835945e+00, 1.13784924e-01,
          7.60123491e-01, -6.60916042e+00, 5.41838217e+00,
          3.38783360e+00, 2.64560986e+00, 1.28128159e+00,
          -9.84216404e+00, 3.29711509e+00, 4.38867569e+00,
          1.38198709e+00, -1.11433296e+01, -7.67553985e-01,
          1.02141559e+00, -5.61022162e-01, 9.03106868e-01,
          5.26532936e+00, -5.65622902e+00, -3.92976856e+00,
          -3.67972159e+00, 1.28584206e+00, 6.78640747e+00,
          -1.07566714e+00, 4.26264811e+00, 1.92980075e+00,
          3.07124496e+00, -1.02816477e+01, -1.11396532e+01,
          7.15799046e+00, -3.72353244e+00, 3.77010441e+00,
          2.83108115e+00, -1.49707019e+00, 3.90219331e-01,
          1.49476731e+00, 3.10152817e+00, -3.90303946e+00,
          2.49472976e+00, 1.20445848e+00, 1.35246336e+00,
          -1.79611838e+00, -9.01746571e-01, 4.56109285e+00,
          2.72822809e+00, -3.50798815e-02, 7.30355501e+00,
          -1.50709653e+00, 1.47457719e-01, 2.16997355e-01,
          4.58597374e+00, -3.76826286e+00, 8.66093814e-01,
          2.14046335e+00, 2.88342738e+00, -4.79795277e-01,
          7.27853775e-01, 2.63811231e+00, 9.04069841e-01,
          -1.07395954e+01, 9.55230117e-01, -2.15995836e+00,
          -8.62266636e+00, 1.22612798e+00, -9.03782654e+00,
          2.79414320e+00, -6.20046735e-01, 6.73319995e-01,
          4.37764883e+00, 2.68651628e+00, 5.25329471e-01,
          -5.38605690e+00, -2.62964511e+00, 6.04176700e-01,
          1.20920312e+00, 2.49159789e+00, -1.02955550e-01,
          -2.92475605e+00, -1.49318552e+00, 1.36730433e+00,
          -2.95257020e+00, -4.75143790e-01, 3.37994576e+00,
          1.37825418e+00, 8.44542623e-01, 2.94645262e+00, 1.75898039e+00 ]
   uncompressed_sv_total: 63
   uncompressed_support_vectors:
      - [ 5.52486209e-03, 5.52486209e-03, 2.62430944e-02, 6.90607773e-03,
          5.52486209e-03, 1.65745858e-02, 6.90607773e-03, 1.93370171e-02,
          2.90055256e-02, 5.52486209e-03, 2.76243109e-02, 1.38121552e-03,
          9.66850854e-03, 9.66850854e-03, 8.28729291e-03, 8.28729291e-03,
          6.90607773e-03, 5.52486209e-03, 4.14364645e-03, 0.,
          1.24309398e-02, 2.76243105e-03, 0., 1.38121552e-03,
          2.34806631e-02, 1.79558024e-02, 1.38121552e-03, 2.76243105e-03,
          9.66850854e-03, 1.65745858e-02, 2.76243105e-03, 3.03867422e-02,
          8.28729291e-03, 1.51933711e-02, 5.52486209e-03, 1.79558024e-02,
          9.66850854e-03, 6.90607773e-03, 4.14364645e-03, 2.62430944e-02,
          2.07182337e-02, 1.51933711e-02, 5.52486209e-03, 8.28729291e-03,
          5.52486209e-03, 8.28729291e-03, 8.28729291e-03, 1.38121552e-03,
          2.76243105e-03, 4.14364645e-03, 4.14364645e-03, 1.10497242e-02,
          1.10497242e-02, 0., 2.34806631e-02, 2.07182337e-02,
          2.76243105e-03, 9.66850854e-03, 8.28729291e-03, 1.38121552e-03,
          1.51933711e-02, 1.10497242e-02, 4.14364645e-03, 6.90607773e-03,
          5.52486209e-03, 8.28729291e-03, 2.76243105e-03, 4.14364645e-03,
          1.38121552e-03, 1.10497242e-02, 2.76243105e-03, 6.90607773e-03,
          2.62430944e-02, 1.38121555e-02, 6.90607773e-03, 3.45303863e-02,
          1.10497242e-02, 1.24309398e-02, 1.38121552e-03, 1.79558024e-02,
          5.52486209e-03, 4.14364645e-03, 5.52486209e-03, 2.76243105e-03,
          1.65745858e-02, 1.10497242e-02, 1.51933711e-02, 6.21546991e-02,
          9.66850854e-03, 6.90607773e-03, 2.76243105e-03, 2.76243105e-03,
          1.38121552e-03, 1.65745858e-02, 8.28729291e-03, 9.66850854e-03,
          0., 5.52486209e-03, 1.24309398e-02, 0. ]
      - [ 2.05338816e-03, 6.16016425e-03, 2.05338816e-03, 8.21355265e-03,
          1.02669410e-02, 1.02669410e-02, 1.23203285e-02, 3.90143767e-02,
          1.43737169e-02, 2.05338816e-03, 4.10677632e-03, 1.43737169e-02,
          4.10677632e-03, 0., 6.16016425e-03, 1.43737169e-02,
          6.16016425e-03, 6.16016425e-03, 2.05338816e-03, 2.25872695e-02,
          2.87474338e-02, 2.05338816e-03, 8.21355265e-03, 1.23203285e-02,
          6.16016425e-03, 1.23203285e-02, 1.84804928e-02, 2.05338816e-03,
          0., 6.16016425e-03, 6.16016425e-03, 2.66940463e-02,
          6.16016425e-03, 1.43737169e-02, 1.02669410e-02, 2.25872695e-02,
          6.16016425e-03, 6.16016425e-03, 6.16016425e-03, 1.02669410e-02,
          1.23203285e-02, 6.16016425e-03, 6.16016425e-03, 6.16016425e-03,
          4.10677632e-03, 8.21355265e-03, 6.16016425e-03, 1.02669410e-02,
          1.02669410e-02, 1.43737169e-02, 2.05338821e-02, 4.10677632e-03,
          1.02669410e-02, 4.10677632e-03, 4.10677632e-03, 0.,
          6.16016425e-03, 2.25872695e-02, 2.05338816e-03, 4.10677632e-03,
          4.10677632e-03, 2.05338816e-03, 4.10677632e-03, 1.43737169e-02,
          1.43737169e-02, 8.21355265e-03, 2.05338816e-03, 6.16016425e-03,
          8.21355265e-03, 1.02669410e-02, 1.64271053e-02, 4.10677632e-03,
          1.84804928e-02, 8.21355265e-03, 8.21355265e-03, 2.25872695e-02,
          8.21355265e-03, 3.08008231e-02, 2.05338816e-03, 2.05338816e-03,
          1.64271053e-02, 8.21355265e-03, 6.16016425e-03, 8.21355265e-03,
          5.33880927e-02, 1.23203285e-02, 2.66940463e-02, 4.10677632e-03,
          6.16016425e-03, 4.10677632e-03, 1.43737169e-02, 8.21355265e-03,
          1.23203285e-02, 0., 2.05338816e-03, 2.05338816e-03,
          4.51745391e-02, 0., 2.05338816e-03, 1.23203285e-02 ]
      - [ 2.61096610e-03, 2.61096610e-03, 1.04438644e-02, 5.22193220e-03,
          2.61096610e-03, 0., 3.91644910e-02, 2.34986953e-02,
          2.34986953e-02, 1.30548310e-02, 1.30548310e-02, 5.22193220e-03,
          7.83289783e-03, 7.83289783e-03, 0., 1.56657957e-02,
          7.83289783e-03, 5.22193220e-03, 7.83289783e-03, 2.61096610e-03,
          1.04438644e-02, 5.22193220e-03, 0., 0., 1.56657957e-02,
          2.08877288e-02, 0., 7.83289783e-03, 5.22193220e-03,
          1.04438644e-02, 5.22193220e-03, 5.22193220e-03, 3.39425579e-02,
          5.22193220e-03, 5.22193220e-03, 7.83289783e-03, 5.22193220e-03,
          1.56657957e-02, 1.04438644e-02, 2.61096610e-03, 1.82767622e-02,
          2.61096610e-03, 0., 1.04438644e-02, 7.83289783e-03, 0.,
          7.83289783e-03, 2.61096610e-03, 7.83289783e-03, 0.,
          1.30548310e-02, 0., 5.22193220e-03, 7.83289783e-03,
          1.82767622e-02, 7.83289783e-03, 5.22193220e-03, 5.22193220e-03,
          5.22193220e-03, 0., 1.56657957e-02, 1.04438644e-02,
          1.30548310e-02, 7.83289783e-03, 2.61096610e-03, 2.61096610e-03,
          2.61096610e-03, 5.22193220e-03, 2.61096610e-03, 2.08877288e-02,
          0., 7.83289783e-03, 2.08877288e-02, 2.34986953e-02,
          7.83289783e-03, 1.04438644e-02, 7.83289783e-03, 0.,
          2.61096610e-03, 7.83289783e-03, 1.30548310e-02, 0.,
          5.22193220e-03, 2.61096610e-03, 9.13838148e-02, 6.78851157e-02,
          1.30548310e-02, 1.04438644e-02, 2.61096610e-03, 5.22193220e-03,
          5.22193220e-03, 1.30548310e-02, 0., 4.17754576e-02,
          2.61096610e-03, 1.56657957e-02, 1.04438644e-02, 0.,
          3.39425579e-02, 0. ]
      - [ 1.07816709e-02, 0., 2.69541773e-03, 5.39083546e-03, 0.,
          1.34770889e-02, 7.27762803e-02, 8.08625296e-03, 0.,
          4.85175177e-02, 0., 8.08625296e-03, 1.34770889e-02,
          8.08625296e-02, 5.39083546e-03, 2.69541773e-03, 4.04312648e-02,
          1.07816709e-02, 0., 1.07816709e-02, 0., 0., 1.61725059e-02,
          8.08625296e-03, 2.15633418e-02, 0., 8.08625296e-03,
          1.34770889e-02, 8.08625296e-03, 1.34770889e-02, 5.39083546e-03,
          5.39083546e-03, 5.39083546e-03, 5.39083546e-03, 8.08625296e-03,
          1.61725059e-02, 1.61725059e-02, 8.08625296e-03, 1.07816709e-02,
          2.96495948e-02, 0., 1.07816709e-02, 2.69541773e-03,
          2.15633418e-02, 2.69541773e-03, 0., 0., 2.69541773e-03,
          1.61725059e-02, 5.39083546e-03, 4.85175177e-02, 0.,
          5.39083546e-03, 8.08625296e-03, 2.69541778e-02, 1.34770889e-02,
          8.08625296e-03, 2.69541773e-03, 5.39083546e-03, 1.34770889e-02,
          2.69541773e-03, 8.08625296e-03, 0., 5.39083546e-03,
          2.69541773e-03, 8.08625296e-03, 2.69541773e-03, 8.08625296e-03,
          8.08625296e-03, 5.39083546e-03, 2.69541773e-03, 0.,
          2.69541773e-03, 2.15633418e-02, 1.88679248e-02, 2.69541773e-03,
          1.07816709e-02, 1.07816709e-02, 2.69541773e-03, 5.39083546e-03,
          0., 5.39083546e-03, 2.69541773e-03, 2.69541773e-03,
          1.88679248e-02, 2.42587589e-02, 5.39083546e-03, 2.69541773e-03,
          2.69541773e-03, 5.39083546e-03, 8.08625296e-03, 2.69541773e-03,
          0., 4.31266837e-02, 5.39083546e-03, 0., 0., 2.69541773e-03,
          2.69541773e-03, 8.08625296e-03 ]
      - [ 9.51248500e-03, 7.13436399e-03, 2.25921515e-02, 7.13436399e-03,
          5.94530301e-03, 0., 1.42687280e-02, 8.32342450e-03,
          1.18906063e-03, 1.90249700e-02, 1.78359095e-02, 8.32342450e-03,
          2.37812125e-03, 3.09155770e-02, 8.32342450e-03, 1.07015455e-02,
          1.78359095e-02, 7.13436399e-03, 1.07015455e-02, 4.75624250e-03,
          1.18906063e-03, 2.37812120e-02, 4.75624250e-03, 2.37812125e-03,
          8.32342450e-03, 0., 3.56718199e-03, 9.51248500e-03,
          9.51248500e-03, 1.66468490e-02, 1.07015455e-02, 1.30796665e-02,
          1.90249700e-02, 8.32342450e-03, 7.13436399e-03, 0.,
          1.90249700e-02, 1.30796665e-02, 1.66468490e-02, 5.94530301e-03,
          0., 2.25921515e-02, 1.18906060e-02, 1.54577885e-02,
          8.32342450e-03, 2.02140305e-02, 1.18906063e-03, 1.18906060e-02,
          3.56718199e-03, 3.56718199e-03, 1.07015455e-02, 9.51248500e-03,
          7.13436399e-03, 4.75624250e-03, 2.49702726e-02, 1.54577885e-02,
          2.37812125e-03, 4.75624250e-03, 1.54577885e-02, 1.18906063e-03,
          2.02140305e-02, 1.54577885e-02, 1.42687280e-02, 4.75624250e-03,
          7.13436399e-03, 9.51248500e-03, 0., 7.13436399e-03,
          9.51248500e-03, 1.07015455e-02, 1.07015455e-02, 1.42687280e-02,
          5.94530301e-03, 2.37812125e-03, 2.37812125e-03, 2.37812125e-03,
          7.13436399e-03, 1.18906060e-02, 0., 3.32936980e-02,
          2.37812125e-03, 9.51248500e-03, 9.51248500e-03, 8.32342450e-03,
          4.75624250e-03, 2.14030910e-02, 4.75624250e-03, 1.66468490e-02,
          9.51248500e-03, 1.07015455e-02, 5.94530301e-03, 2.49702726e-02,
          7.13436399e-03, 1.07015455e-02, 8.32342450e-03, 8.32342450e-03,
          1.18906063e-03, 7.13436399e-03, 2.25921515e-02, 1.54577885e-02 ]
      - [ 6.15763525e-03, 9.85221658e-03, 1.47783253e-02, 6.15763525e-03,
          7.38916267e-03, 6.15763525e-03, 1.47783253e-02, 9.85221658e-03,
          2.33990140e-02, 1.10837435e-02, 3.69458133e-03, 6.15763525e-03,
          2.46305414e-03, 2.21674871e-02, 6.15763525e-03, 6.15763525e-03,
          8.62068962e-03, 1.35467974e-02, 6.15763525e-03, 2.46305410e-02,
          1.23152705e-02, 8.00492615e-02, 3.69458133e-03, 2.46305414e-03,
          3.69458133e-03, 1.23152705e-02, 4.92610829e-03, 9.85221658e-03,
          6.15763525e-03, 2.33990140e-02, 1.10837435e-02, 9.85221658e-03,
          1.10837435e-02, 7.38916267e-03, 7.38916267e-03, 4.92610829e-03,
          2.09359601e-02, 7.38916267e-03, 4.92610829e-03, 4.92610829e-03,
          1.10837435e-02, 1.10837435e-02, 6.15763525e-03, 1.60098523e-02,
          9.85221658e-03, 4.92610829e-03, 7.38916267e-03, 4.92610829e-03,
          8.62068962e-03, 3.69458133e-03, 2.21674871e-02, 9.85221658e-03,
          2.46305414e-03, 9.85221658e-03, 9.85221658e-03, 7.38916267e-03,
          1.23152707e-03, 1.35467974e-02, 2.46305414e-03, 1.23152707e-03,
          8.62068962e-03, 1.23152705e-02, 1.23152705e-02, 9.85221658e-03,
          2.46305414e-03, 6.15763525e-03, 1.23152707e-03, 6.15763525e-03,
          8.62068962e-03, 1.47783253e-02, 7.38916267e-03, 1.23152705e-02,
          2.33990140e-02, 1.97044332e-02, 8.62068962e-03, 4.92610829e-03,
          7.38916267e-03, 7.38916267e-03, 2.46305414e-03, 1.35467974e-02,
          7.38916267e-03, 3.69458133e-03, 8.62068962e-03, 1.23152705e-02,
          1.60098523e-02, 1.47783253e-02, 4.92610829e-03, 2.21674871e-02,
          7.38916267e-03, 4.92610829e-03, 2.70935949e-02, 7.38916267e-03,
          1.35467974e-02, 1.23152707e-03, 7.38916267e-03, 6.15763525e-03,
          1.10837435e-02, 7.38916267e-03, 3.69458133e-03, 1.23152707e-03 ]
      - [ 8.36120360e-03, 1.83946490e-02, 6.68896316e-03, 1.67224072e-02,
          1.67224079e-03, 5.01672225e-03, 1.67224072e-02, 3.17725763e-02,
          1.67224079e-03, 8.36120360e-03, 8.36120360e-03, 1.67224072e-02,
          5.01672225e-03, 0., 1.17056854e-02, 1.17056854e-02,
          8.36120360e-03, 1.33779263e-02, 8.36120360e-03, 1.17056854e-02,
          1.33779263e-02, 1.33779263e-02, 3.34448158e-03, 3.34448158e-03,
          1.33779263e-02, 0., 6.68896316e-03, 3.34448158e-03,
          1.33779263e-02, 1.50501672e-02, 1.83946490e-02, 3.34448158e-03,
          3.34448158e-03, 5.01672225e-03, 1.00334445e-02, 1.17056854e-02,
          1.33779263e-02, 1.00334445e-02, 5.01672225e-03, 3.34448158e-03,
          0., 1.67224072e-02, 3.34448158e-03, 8.36120360e-03,
          1.50501672e-02, 1.00334445e-02, 6.68896316e-03, 1.00334445e-02,
          3.34448158e-03, 8.36120360e-03, 3.01003344e-02, 1.67224079e-03,
          1.00334445e-02, 8.36120360e-03, 2.00668890e-02, 1.67224072e-02,
          5.01672225e-03, 6.68896316e-03, 1.33779263e-02, 1.67224079e-03,
          1.67224079e-03, 8.36120360e-03, 1.67224079e-03, 1.00334445e-02,
          3.34448158e-03, 6.68896316e-03, 5.01672225e-03, 1.67224072e-02,
          1.00334445e-02, 1.83946490e-02, 5.01672225e-03, 2.00668890e-02,
          5.01672225e-03, 1.00334445e-02, 6.68896316e-03, 8.36120360e-03,
          6.68896316e-03, 6.68896316e-03, 3.34448158e-03, 1.33779263e-02,
          5.01672225e-03, 6.68896316e-03, 8.36120360e-03, 1.17056854e-02,
          3.34448144e-02, 3.84615399e-02, 1.33779263e-02, 1.67224079e-03,
          5.01672225e-03, 1.33779263e-02, 2.17391308e-02, 1.67224072e-02,
          2.00668890e-02, 6.68896316e-03, 8.36120360e-03, 6.68896316e-03,
          1.17056854e-02, 1.17056854e-02, 8.36120360e-03, 8.36120360e-03 ]
      - [ 7.61179812e-03, 6.66032359e-03, 1.04662227e-02, 6.66032359e-03,
          5.70884859e-03, 1.56993330e-01, 4.75737359e-03, 1.23691717e-02,
          3.80589906e-03, 4.75737359e-03, 5.70884859e-03, 4.75737359e-03,
          5.70884859e-03, 9.51474765e-04, 7.61179812e-03, 5.70884859e-03,
          1.14176972e-02, 8.56327266e-03, 7.61179812e-03, 9.51474719e-03,
          6.66032359e-03, 0., 3.80589906e-03, 5.70884859e-03,
          5.70884859e-03, 2.85442430e-03, 8.56327266e-03, 4.75737359e-03,
          6.66032359e-03, 4.75737359e-03, 8.56327266e-03, 5.70884859e-03,
          1.23691717e-02, 7.61179812e-03, 5.70884859e-03, 1.99809708e-02,
          5.70884859e-03, 1.04662227e-02, 4.75737359e-03, 5.70884859e-03,
          2.85442430e-03, 8.46812576e-02, 3.80589906e-03, 5.70884859e-03,
          4.75737359e-03, 3.80589906e-03, 3.80589906e-03, 7.61179812e-03,
          3.80589906e-03, 6.66032359e-03, 1.14176972e-02, 3.80589906e-03,
          2.85442430e-03, 2.85442430e-03, 1.52235962e-02, 7.61179812e-03,
          1.90294953e-03, 1.33206472e-02, 8.56327266e-03, 9.51474765e-04,
          1.23691717e-02, 7.61179812e-03, 8.56327266e-03, 6.66032359e-03,
          1.90294953e-03, 2.85442430e-03, 5.70884859e-03, 7.61179812e-03,
          2.85442430e-03, 5.70884859e-03, 4.75737359e-03, 5.70884859e-03,
          4.75737359e-03, 1.23691717e-02, 2.85442430e-03, 2.37868689e-02,
          9.51474765e-04, 8.37297812e-02, 6.66032359e-03, 4.75737359e-03,
          7.61179812e-03, 7.61179812e-03, 1.04662227e-02, 8.56327266e-03,
          1.23691717e-02, 1.23691717e-02, 6.66032359e-03, 1.33206472e-02,
          8.56327266e-03, 9.51474719e-03, 8.56327266e-03, 7.61179812e-03,
          7.61179812e-03, 3.80589906e-03, 1.90294953e-03, 1.23691717e-02,
          1.90294953e-03, 1.14176972e-02, 1.42721217e-02, 1.90294953e-03 ]
      - [ 8.92857183e-03, 7.14285718e-03, 8.92857183e-03, 1.42857144e-02,
          1.25000002e-02, 1.78571430e-03, 1.78571437e-02, 1.42857144e-02,
          2.50000004e-02, 3.57142859e-03, 1.07142860e-02, 1.07142860e-02,
          3.57142859e-03, 5.35714300e-03, 1.42857144e-02, 7.14285718e-03,
          5.35714300e-03, 5.35714300e-03, 7.14285718e-03, 1.60714295e-02,
          1.78571430e-03, 0., 3.57142859e-03, 7.14285718e-03,
          8.92857183e-03, 2.50000004e-02, 3.57142859e-03, 8.92857183e-03,
          7.14285718e-03, 1.07142860e-02, 5.35714300e-03, 1.42857144e-02,
          1.42857144e-02, 7.14285718e-03, 1.25000002e-02, 5.35714300e-03,
          1.42857144e-02, 3.57142859e-03, 1.60714295e-02, 3.57142859e-03,
          2.14285720e-02, 8.92857183e-03, 5.35714300e-03, 8.92857183e-03,
          1.42857144e-02, 3.57142859e-03, 1.60714295e-02, 1.25000002e-02,
          7.14285718e-03, 8.92857183e-03, 5.35714300e-03, 1.25000002e-02,
          8.92857183e-03, 1.42857144e-02, 1.25000002e-02, 1.07142860e-02,
          3.57142859e-03, 2.50000004e-02, 1.42857144e-02, 7.14285718e-03,
          1.25000002e-02, 5.35714300e-03, 1.96428578e-02, 1.78571437e-02,
          3.57142859e-03, 3.57142859e-03, 3.57142859e-03, 8.92857183e-03,
          3.57142859e-03, 8.92857183e-03, 1.25000002e-02, 1.07142860e-02,
          2.67857146e-02, 8.92857183e-03, 0., 1.07142860e-02,
          5.35714300e-03, 1.78571430e-03, 0., 1.60714295e-02,
          3.57142859e-03, 3.57142859e-03, 2.67857146e-02, 5.35714300e-03,
          2.32142862e-02, 1.60714295e-02, 1.78571430e-03, 1.60714295e-02,
          7.14285718e-03, 7.14285718e-03, 1.60714295e-02, 1.42857144e-02,
          1.07142860e-02, 1.07142860e-02, 1.25000002e-02, 1.42857144e-02,
          5.35714300e-03, 7.14285718e-03, 1.42857144e-02, 8.92857183e-03 ]
      - [ 1.01522841e-02, 2.53807101e-03, 6.34517753e-03, 8.88324901e-03,
          5.07614203e-03, 3.29949223e-02, 1.26903551e-02, 1.26903551e-02,
          1.52284261e-02, 6.34517753e-03, 1.01522841e-02, 1.39593910e-02,
          6.34517753e-03, 1.26903551e-03, 2.53807101e-03, 7.61421304e-03,
          5.07614203e-03, 3.80710652e-03, 7.61421304e-03, 1.52284261e-02,
          6.34517753e-03, 2.53807101e-03, 5.07614203e-03, 7.61421304e-03,
          1.64974611e-02, 1.52284261e-02, 3.80710652e-03, 6.34517753e-03,
          7.61421304e-03, 1.14213191e-02, 5.07614203e-03, 2.66497452e-02,
          2.53807101e-03, 1.64974611e-02, 6.34517753e-03, 8.88324901e-03,
          7.61421304e-03, 1.77664980e-02, 8.88324901e-03, 2.53807101e-03,
          1.14213191e-02, 8.24873075e-02, 6.34517753e-03, 2.03045681e-02,
          5.07614203e-03, 7.61421304e-03, 2.28426382e-02, 1.64974611e-02,
          3.80710652e-03, 7.61421304e-03, 2.41116751e-02, 3.80710652e-03,
          2.53807101e-03, 1.14213191e-02, 1.52284261e-02, 1.01522841e-02,
          2.53807101e-03, 3.80710652e-03, 3.80710652e-03, 1.26903551e-03,
          3.80710652e-03, 5.07614203e-03, 3.80710652e-03, 6.34517753e-03,
          1.26903551e-03, 6.34517753e-03, 8.88324901e-03, 5.07614203e-03,
          1.39593910e-02, 5.07614203e-03, 3.80710652e-03, 3.80710652e-03,
          1.01522841e-02, 3.55329961e-02, 8.88324901e-03, 1.90355331e-02,
          5.07614203e-03, 2.28426382e-02, 6.34517753e-03, 1.01522841e-02,
          1.26903551e-02, 1.01522841e-02, 5.07614203e-03, 5.07614203e-03,
          8.88324901e-03, 1.01522841e-02, 3.80710652e-03, 3.17258872e-02,
          1.26903551e-03, 1.64974611e-02, 1.64974611e-02, 7.61421304e-03,
          3.80710652e-03, 7.61421304e-03, 5.07614203e-03, 7.61421304e-03,
          1.64974611e-02, 3.80710652e-03, 2.53807101e-03, 3.80710652e-03 ]
      - [ 4.63821879e-03, 1.11317253e-02, 9.27643757e-03, 6.49350649e-03,
          1.02040814e-02, 7.42115034e-03, 1.48423007e-02, 1.20593691e-02,
          1.02040814e-02, 1.85528751e-02, 1.39146568e-02, 1.20593691e-02,
          4.63821879e-03, 6.02968447e-02, 2.78293132e-03, 2.22634505e-02,
          1.94805190e-02, 5.56586264e-03, 1.02040814e-02, 0.,
          3.71057517e-03, 5.00927642e-02, 0., 5.56586264e-03,
          5.56586264e-03, 1.02040814e-02, 2.78293132e-03, 9.27643757e-03,
          7.42115034e-03, 1.94805190e-02, 2.78293132e-03, 2.78293132e-03,
          3.33951749e-02, 5.56586264e-03, 4.63821879e-03, 2.78293132e-03,
          2.41187382e-02, 2.50463821e-02, 5.56586264e-03, 3.43228206e-02,
          1.11317253e-02, 7.42115034e-03, 1.11317253e-02, 1.76252313e-02,
          6.49350649e-03, 2.78293132e-03, 1.66975874e-02, 2.04081628e-02,
          2.78293132e-03, 6.49350649e-03, 1.20593691e-02, 2.78293132e-03,
          2.78293132e-03, 9.27643757e-03, 6.49350649e-03, 1.29870130e-02,
          9.27643792e-04, 1.20593691e-02, 1.85528758e-03, 1.85528758e-03,
          7.42115034e-03, 2.78293132e-03, 2.78293132e-03, 7.42115034e-03,
          2.59740259e-02, 1.29870130e-02, 9.27643792e-04, 3.71057517e-03,
          4.63821879e-03, 9.27643757e-03, 9.27643757e-03, 4.63821879e-03,
          1.11317253e-02, 1.57699436e-02, 3.71057517e-03, 5.56586264e-03,
          2.78293132e-03, 2.78293132e-03, 1.85528758e-03, 1.39146568e-02,
          1.85528751e-02, 8.34879372e-03, 3.71057517e-03, 1.02040814e-02,
          1.85528751e-02, 1.20593691e-02, 7.42115034e-03, 1.57699436e-02,
          1.85528758e-03, 1.94805190e-02, 4.63821879e-03, 7.42115034e-03,
          1.85528758e-03, 2.78293132e-03, 1.66975874e-02, 1.02040814e-02,
          9.27643792e-04, 2.78293132e-03, 2.78293132e-03, 7.42115034e-03 ]
      - [ 2.04498973e-03, 4.08997945e-03, 2.04498973e-03, 8.17995891e-03,
          2.04498973e-03, 1.63599178e-02, 0., 5.72597124e-02,
          8.17995891e-03, 1.22699384e-02, 2.04498973e-03, 2.04498973e-02,
          6.13496918e-03, 1.22699384e-02, 2.04498973e-03, 2.45398767e-02,
          1.22699384e-02, 1.84049085e-02, 8.17995891e-03, 6.13496918e-03,
          8.17995891e-03, 2.04498973e-03, 6.13496918e-03, 8.17995891e-03,
          0., 6.13496918e-03, 4.08997945e-03, 2.04498973e-02,
          1.02249486e-02, 1.02249486e-02, 2.04498973e-03, 2.04498973e-03,
          1.43149281e-02, 2.04498973e-03, 1.02249486e-02, 2.86298562e-02,
          8.17995891e-03, 1.02249486e-02, 1.43149281e-02, 6.13496918e-03,
          8.17995891e-03, 0., 2.04498973e-03, 1.02249486e-02,
          1.84049085e-02, 0., 1.02249486e-02, 2.04498973e-03,
          1.22699384e-02, 6.13496918e-03, 2.45398767e-02, 2.04498973e-03,
          1.02249486e-02, 2.04498973e-02, 1.63599178e-02, 0.,
          8.17995891e-03, 4.08997945e-03, 2.04498973e-03, 6.13496918e-03,
          2.04498973e-03, 4.08997945e-03, 1.02249486e-02, 1.22699384e-02,
          1.02249486e-02, 8.17995891e-03, 4.08997945e-03, 6.13496918e-03,
          8.17995891e-03, 5.11247441e-02, 1.43149281e-02, 2.04498973e-03,
          1.02249486e-02, 1.43149281e-02, 4.08997945e-03, 1.02249486e-02,
          1.22699384e-02, 0., 4.08997945e-03, 8.17995891e-03,
          8.17995891e-03, 6.13496918e-03, 1.02249486e-02, 6.13496918e-03,
          6.13496900e-02, 4.08997945e-03, 8.17995891e-03, 8.17995891e-03,
          2.04498973e-03, 8.17995891e-03, 3.68098170e-02, 8.17995891e-03,
          8.17995891e-03, 6.13496918e-03, 4.08997945e-03, 8.17995891e-03,
          1.63599178e-02, 1.43149281e-02, 0., 1.63599178e-02 ]
      - [ 4.02144808e-03, 0., 1.07238609e-02, 8.04289617e-03,
          9.38337855e-03, 2.27882043e-02, 1.87667571e-02, 1.07238609e-02,
          1.60857923e-02, 6.70241285e-03, 1.07238609e-02, 1.60857923e-02,
          8.04289617e-03, 1.34048257e-02, 4.02144808e-03, 0.,
          2.41286866e-02, 2.68096523e-03, 1.07238609e-02, 4.02144808e-03,
          1.20643433e-02, 2.68096514e-02, 8.04289617e-03, 1.34048262e-03,
          2.01072395e-02, 5.36193047e-03, 9.38337855e-03, 2.01072395e-02,
          8.04289617e-03, 1.60857923e-02, 4.02144808e-03, 8.04289617e-03,
          1.87667571e-02, 1.34048257e-02, 6.70241285e-03, 1.34048257e-02,
          8.04289617e-03, 1.07238609e-02, 2.68096523e-03, 1.60857923e-02,
          0., 1.34048257e-02, 6.70241285e-03, 6.70241285e-03,
          1.74262747e-02, 6.70241285e-03, 1.87667571e-02, 9.38337855e-03,
          5.36193047e-03, 5.36193047e-03, 1.87667571e-02, 1.34048262e-03,
          1.34048262e-03, 1.47453090e-02, 2.01072395e-02, 1.47453090e-02,
          2.68096523e-03, 6.70241285e-03, 5.36193047e-03, 2.68096523e-03,
          9.38337855e-03, 6.70241285e-03, 5.36193047e-03, 9.38337855e-03,
          2.68096523e-03, 2.01072395e-02, 1.34048262e-03, 4.02144808e-03,
          2.68096523e-03, 2.01072395e-02, 6.70241285e-03, 8.04289617e-03,
          1.87667571e-02, 2.01072395e-02, 1.47453090e-02, 6.70241285e-03,
          1.74262747e-02, 1.87667571e-02, 0., 9.38337855e-03,
          4.02144808e-03, 1.07238609e-02, 2.68096523e-03, 2.68096523e-03,
          1.20643433e-02, 2.01072395e-02, 9.38337855e-03, 1.34048257e-02,
          5.36193047e-03, 1.34048257e-02, 9.38337855e-03, 8.04289617e-03,
          2.68096523e-03, 1.47453090e-02, 3.08311004e-02, 1.07238609e-02,
          4.02144808e-03, 6.70241285e-03, 1.34048262e-03, 6.70241285e-03 ]
      - [ 1.96850393e-02, 3.93700786e-03, 1.77165344e-02, 3.93700786e-03,
          5.90551179e-03, 1.18110236e-02, 5.90551179e-03, 1.77165344e-02,
          1.18110236e-02, 1.18110236e-02, 3.34645659e-02, 5.90551179e-03,
          7.87401572e-03, 1.96850393e-03, 9.84251965e-03, 7.87401572e-03,
          9.84251965e-03, 5.90551179e-03, 1.96850393e-03, 1.37795275e-02,
          1.77165344e-02, 1.96850393e-03, 5.90551179e-03, 0.,
          9.84251965e-03, 1.57480314e-02, 7.87401572e-03, 0.,
          3.93700786e-03, 9.84251965e-03, 1.96850393e-03, 1.18110236e-02,
          1.18110236e-02, 1.18110236e-02, 1.18110236e-02, 5.90551179e-03,
          1.96850393e-03, 1.37795275e-02, 5.90551179e-03, 5.90551179e-03,
          7.87401572e-03, 5.31496070e-02, 3.93700786e-03, 1.18110236e-02,
          5.90551179e-03, 5.90551179e-03, 2.36220472e-02, 1.57480314e-02,
          5.90551179e-03, 7.87401572e-03, 3.74015756e-02, 7.87401572e-03,
          5.90551179e-03, 1.18110236e-02, 7.87401572e-03, 7.87401572e-03,
          3.93700786e-03, 1.96850393e-03, 9.84251965e-03, 3.93700786e-03,
          5.90551179e-03, 1.18110236e-02, 7.87401572e-03, 1.18110236e-02,
          1.96850393e-03, 3.93700786e-03, 1.57480314e-02, 5.90551179e-03,
          7.87401572e-03, 9.84251965e-03, 3.93700786e-03, 9.84251965e-03,
          9.84251965e-03, 2.95275599e-02, 7.87401572e-03, 5.90551179e-03,
          3.93700786e-03, 2.75590550e-02, 9.84251965e-03, 7.87401572e-03,
          1.96850393e-03, 7.87401572e-03, 1.18110236e-02, 9.84251965e-03,
          2.55905502e-02, 2.36220472e-02, 1.18110236e-02, 2.95275599e-02,
          7.87401572e-03, 1.18110236e-02, 1.37795275e-02, 3.93700786e-03,
          5.90551179e-03, 0., 5.90551179e-03, 3.93700786e-03,
          9.84251965e-03, 3.93700786e-03, 5.90551179e-03, 1.96850393e-03 ]
      - [ 6.51890459e-03, 1.30378092e-02, 1.04302475e-02, 3.91134294e-03,
          1.04302475e-02, 1.43415900e-02, 3.65058668e-02, 1.69491526e-02,
          1.69491526e-02, 7.82268587e-03, 7.82268587e-03, 7.82268587e-03,
          1.30378094e-03, 0., 1.30378094e-03, 7.82268587e-03,
          5.21512376e-03, 5.21512376e-03, 1.30378092e-02, 3.91134294e-03,
          9.12646670e-03, 5.21512376e-03, 9.12646670e-03, 2.60756188e-03,
          1.69491526e-02, 1.56453717e-02, 9.12646670e-03, 6.51890459e-03,
          7.82268587e-03, 1.17340283e-02, 2.60756188e-03, 6.51890459e-03,
          1.30378092e-02, 9.12646670e-03, 5.21512376e-03, 5.21512376e-03,
          9.12646670e-03, 1.04302475e-02, 7.82268587e-03, 1.17340283e-02,
          2.21642759e-02, 3.25945243e-02, 9.12646670e-03, 1.95567142e-02,
          1.69491526e-02, 6.51890459e-03, 9.12646670e-03, 2.60756188e-03,
          2.60756188e-03, 5.21512376e-03, 1.95567142e-02, 1.82529334e-02,
          6.51890459e-03, 1.17340283e-02, 2.47718375e-02, 5.21512376e-03,
          3.91134294e-03, 1.17340283e-02, 9.12646670e-03, 5.21512376e-03,
          1.43415900e-02, 3.91134294e-03, 1.30378092e-02, 3.91134294e-03,
          2.60756188e-03, 1.56453717e-02, 0., 5.21512376e-03,
          1.17340283e-02, 6.51890459e-03, 5.21512376e-03, 1.30378092e-02,
          1.69491526e-02, 2.60756183e-02, 9.12646670e-03, 9.12646670e-03,
          1.17340283e-02, 3.78096476e-02, 0., 6.51890459e-03,
          7.82268587e-03, 0., 1.17340283e-02, 7.82268587e-03,
          1.17340283e-02, 2.99869608e-02, 1.43415900e-02, 1.82529334e-02,
          1.30378092e-02, 1.43415900e-02, 1.30378092e-02, 6.51890459e-03,
          9.12646670e-03, 0., 5.21512376e-03, 3.91134294e-03,
          1.30378094e-03, 3.91134294e-03, 0., 7.82268587e-03 ]
      - [ 1.23966932e-02, 5.16528916e-03, 1.96280982e-02, 7.23140454e-03,
          4.13223123e-03, 9.29751992e-03, 2.16942132e-02, 4.13223123e-03,
          1.03305783e-02, 1.85950398e-02, 5.57851233e-02, 2.27272715e-02,
          4.13223123e-03, 3.09917331e-03, 1.34297516e-02, 6.19834661e-03,
          5.16528916e-03, 1.54958675e-02, 5.16528916e-03, 1.13636358e-02,
          7.23140454e-03, 7.23140454e-03, 6.19834661e-03, 4.13223123e-03,
          5.16528916e-03, 4.13223123e-03, 2.06611562e-03, 6.19834661e-03,
          5.16528916e-03, 1.03305783e-02, 3.09917331e-03, 3.40909064e-02,
          1.34297516e-02, 2.99586765e-02, 6.19834661e-03, 7.23140454e-03,
          1.54958675e-02, 8.26446246e-03, 7.23140454e-03, 9.29751992e-03,
          2.06611562e-03, 8.26446246e-03, 2.06611562e-03, 1.75619833e-02,
          2.06611562e-03, 1.13636358e-02, 1.96280982e-02, 6.19834661e-03,
          1.03305781e-03, 7.23140454e-03, 6.19834661e-03, 9.29751992e-03,
          4.13223123e-03, 1.23966932e-02, 1.13636358e-02, 1.23966932e-02,
          0., 2.16942132e-02, 1.03305783e-02, 3.09917331e-03,
          1.34297516e-02, 1.13636358e-02, 4.13223123e-03, 1.03305783e-02,
          2.06611562e-03, 2.47933865e-02, 7.23140454e-03, 5.16528916e-03,
          5.16528916e-03, 2.06611562e-03, 2.06611562e-03, 1.96280982e-02,
          4.13223123e-03, 9.29751992e-03, 4.13223123e-03, 0.,
          7.23140454e-03, 5.16528916e-03, 1.03305781e-03, 1.34297516e-02,
          3.09917331e-03, 6.19834661e-03, 5.16528916e-03, 5.16528916e-03,
          5.16528916e-03, 1.34297516e-02, 4.13223123e-03, 4.75206599e-02,
          1.03305783e-02, 2.47933865e-02, 1.03305783e-02, 4.13223123e-03,
          7.23140454e-03, 8.26446246e-03, 1.85950398e-02, 2.68595032e-02,
          7.23140454e-03, 1.03305783e-02, 1.03305783e-02, 4.13223123e-03 ]
      - [ 0., 5.61797759e-03, 5.61797759e-03, 0., 1.49812736e-02,
          3.74531820e-02, 9.36329551e-03, 3.74531839e-03, 2.05992516e-02,
          3.18352059e-02, 1.49812736e-02, 2.80898884e-02, 3.74531839e-03,
          8.05243477e-02, 1.87265920e-03, 1.87265920e-03, 2.99625471e-02,
          7.49063678e-03, 3.74531839e-03, 1.87265920e-03, 0.,
          1.49812736e-02, 5.61797759e-03, 3.74531839e-03, 5.61797759e-03,
          1.87265920e-03, 1.87265920e-03, 3.74531839e-03, 0.,
          2.24719103e-02, 1.87265920e-03, 1.87265910e-02, 1.31086148e-02,
          1.87265910e-02, 3.74531839e-03, 4.49438207e-02, 1.31086148e-02,
          2.24719103e-02, 3.74531839e-03, 1.68539323e-02, 1.87265920e-03,
          1.68539323e-02, 1.12359552e-02, 9.36329551e-03, 5.61797759e-03,
          1.87265920e-03, 1.49812736e-02, 3.74531839e-03, 1.87265920e-03,
          3.74531839e-03, 2.43445691e-02, 5.61797759e-03, 5.61797759e-03,
          7.49063678e-03, 1.49812736e-02, 0., 0., 1.87265920e-03,
          3.74531839e-03, 0., 1.49812736e-02, 1.87265920e-03, 0.,
          3.18352059e-02, 3.74531839e-03, 5.61797759e-03, 0., 0.,
          1.31086148e-02, 3.74531839e-03, 5.61797759e-03, 0.,
          2.62172297e-02, 1.87265910e-02, 1.87265920e-03, 5.61797759e-03,
          3.74531839e-03, 2.43445691e-02, 0., 1.68539323e-02,
          5.61797759e-03, 3.74531839e-03, 0., 1.87265920e-03,
          1.49812736e-02, 3.74531839e-03, 3.74531839e-03, 3.37078646e-02,
          1.87265920e-03, 1.68539323e-02, 1.31086148e-02, 7.49063678e-03,
          0., 2.80898884e-02, 1.12359552e-02, 9.36329551e-03,
          5.61797759e-03, 0., 1.87265920e-03, 3.74531839e-03 ]
      - [ 6.64451811e-03, 1.32890362e-02, 3.32225906e-03, 2.65780725e-02,
          3.32225906e-03, 6.64451811e-03, 6.64451811e-03, 2.32558139e-02,
          1.32890362e-02, 9.96677764e-03, 3.32225906e-03, 3.32225906e-03,
          0., 1.66112948e-02, 0., 1.99335553e-02, 1.99335553e-02,
          1.32890362e-02, 3.32225906e-03, 6.64451811e-03, 3.32225906e-03,
          2.99003311e-02, 6.64451811e-03, 3.32225906e-03, 6.64451811e-03,
          3.32225906e-03, 6.64451811e-03, 3.32225906e-03, 9.96677764e-03,
          1.32890362e-02, 6.64451811e-03, 0., 1.66112948e-02, 0.,
          1.66112948e-02, 0., 1.99335553e-02, 0., 6.64451811e-03,
          1.32890362e-02, 3.32225906e-03, 2.65780725e-02, 3.32225906e-03,
          9.96677764e-03, 3.32225906e-03, 3.32225906e-03, 2.32558139e-02,
          0., 0., 0., 1.66112948e-02, 2.32558139e-02, 0., 0.,
          3.32225906e-03, 3.32225906e-03, 0., 9.96677764e-03,
          4.98338863e-02, 0., 6.64451811e-03, 6.64451811e-03,
          1.99335553e-02, 0., 1.66112948e-02, 9.96677764e-03,
          9.96677764e-03, 9.96677764e-03, 6.64451811e-03, 6.64451811e-03,
          6.64451811e-03, 6.64451811e-03, 2.32558139e-02, 6.64451811e-03,
          0., 9.96677764e-03, 3.32225906e-03, 3.32225906e-03,
          9.96677764e-03, 1.32890362e-02, 6.64451811e-03, 9.96677764e-03,
          9.96677764e-03, 2.99003311e-02, 3.98671106e-02, 9.96677764e-03,
          1.32890362e-02, 6.64451811e-03, 1.99335553e-02, 9.96677764e-03,
          3.32225906e-03, 1.66112948e-02, 6.64451811e-03, 9.96677764e-03,
          1.66112948e-02, 1.32890362e-02, 2.32558139e-02, 1.66112948e-02,
          1.66112948e-02, 0. ]
      - [ 1.01214573e-02, 2.02429146e-02, 6.07287465e-03, 0.,
          4.04858310e-03, 1.82186235e-02, 8.09716620e-03, 2.22672075e-02,
          8.09716620e-03, 1.21457493e-02, 4.04858310e-03, 1.61943324e-02,
          0., 2.02429155e-03, 8.09716620e-03, 2.02429155e-03,
          6.07287465e-03, 2.02429155e-03, 4.04858310e-03, 1.21457493e-02,
          8.09716620e-03, 0., 6.07287465e-03, 2.02429155e-03,
          6.07287465e-03, 1.61943324e-02, 2.02429155e-03, 1.41700413e-02,
          2.02429155e-03, 2.42914986e-02, 1.01214573e-02, 4.04858310e-03,
          8.09716620e-03, 2.02429155e-03, 1.21457493e-02, 1.82186235e-02,
          2.22672075e-02, 6.07287465e-03, 1.01214573e-02, 8.09716620e-03,
          1.21457493e-02, 2.02429146e-02, 0., 1.82186235e-02,
          2.02429155e-03, 4.04858310e-03, 1.61943324e-02, 0.,
          6.07287465e-03, 4.04858310e-03, 1.82186235e-02, 1.41700413e-02,
          4.04858310e-03, 2.02429155e-03, 1.41700413e-02, 1.41700413e-02,
          0., 8.09716620e-03, 4.04858310e-03, 0., 1.82186235e-02,
          6.07287465e-03, 8.09716620e-03, 4.04858310e-03, 4.04858310e-03,
          1.21457493e-02, 4.04858310e-03, 4.04858310e-03, 2.02429155e-03,
          8.09716620e-03, 0., 2.83400826e-02, 1.82186235e-02,
          1.41700413e-02, 2.42914986e-02, 2.02429146e-02, 8.09716620e-03,
          4.04858310e-03, 4.04858310e-03, 8.09716620e-03, 1.21457493e-02,
          2.02429155e-03, 1.61943324e-02, 1.82186235e-02, 3.64372469e-02,
          2.63157897e-02, 2.63157897e-02, 1.41700413e-02, 1.41700413e-02,
          1.01214573e-02, 1.01214573e-02, 2.02429146e-02, 2.83400826e-02,
          1.21457493e-02, 8.09716620e-03, 1.41700413e-02, 2.02429155e-03,
          8.09716620e-03, 8.09716620e-03, 2.02429155e-03 ]
      - [ 1.48514854e-02, 6.60066027e-03, 2.64026411e-02, 6.60066027e-03,
          1.48514854e-02, 4.95049544e-03, 2.31023114e-02, 1.48514854e-02,
          1.65016502e-02, 4.95049544e-03, 2.64026411e-02, 6.60066027e-03,
          1.65016507e-03, 1.65016502e-02, 4.95049544e-03, 8.25082511e-03,
          6.60066027e-03, 8.25082511e-03, 1.98019817e-02, 3.30033014e-03,
          1.65016507e-03, 1.15511557e-02, 3.30033014e-03, 1.65016507e-03,
          1.65016507e-03, 1.48514854e-02, 4.95049544e-03, 9.90099087e-03,
          3.30033014e-03, 1.32013205e-02, 3.30033014e-03, 1.48514854e-02,
          1.81518160e-02, 9.90099087e-03, 1.65016507e-03, 3.30033014e-03,
          1.32013205e-02, 2.31023114e-02, 3.30033014e-03, 8.25082511e-03,
          2.31023114e-02, 0., 6.60066027e-03, 1.32013205e-02,
          8.25082511e-03, 1.65016507e-03, 3.30033014e-03, 8.25082511e-03,
          0., 4.95049544e-03, 4.95049544e-03, 1.98019817e-02,
          9.90099087e-03, 1.15511557e-02, 3.30033014e-03, 8.25082511e-03,
          0., 2.97029708e-02, 1.81518160e-02, 0., 2.64026411e-02,
          9.90099087e-03, 1.15511557e-02, 9.90099087e-03, 8.25082511e-03,
          8.25082511e-03, 3.30033014e-03, 3.30033014e-03, 6.60066027e-03,
          3.30033014e-03, 8.25082511e-03, 2.47524753e-02, 2.31023114e-02,
          3.30033014e-03, 1.65016507e-03, 4.95049544e-03, 8.25082511e-03,
          1.65016507e-03, 1.65016507e-03, 8.25082511e-03, 1.65016507e-03,
          6.60066027e-03, 1.32013205e-02, 1.15511557e-02, 4.45544571e-02,
          1.81518160e-02, 9.90099087e-03, 2.80528069e-02, 9.90099087e-03,
          4.95049544e-03, 1.65016507e-03, 2.97029708e-02, 6.60066027e-03,
          1.48514854e-02, 8.25082511e-03, 2.64026411e-02, 1.65016507e-03,
          1.65016507e-03, 8.25082511e-03, 0. ]
      - [ 7.35294167e-03, 1.47058833e-02, 1.96078438e-02, 2.45098048e-03,
          2.45098048e-03, 0., 7.35294167e-03, 5.88235334e-02, 0.,
          1.47058833e-02, 4.90196086e-02, 4.90196096e-03, 2.45098048e-03,
          4.90196086e-02, 0., 7.35294167e-03, 1.47058833e-02,
          4.90196096e-03, 2.45098048e-03, 4.90196096e-03, 2.45098048e-03,
          1.71568636e-02, 9.80392192e-03, 0., 4.90196096e-03,
          1.47058833e-02, 4.90196096e-03, 2.45098048e-03, 2.45098048e-03,
          4.90196096e-03, 9.80392192e-03, 1.22549022e-02, 1.47058833e-02,
          1.96078438e-02, 0., 2.45098048e-03, 2.20588241e-02,
          1.71568636e-02, 4.90196096e-03, 2.20588241e-02, 1.71568636e-02,
          1.71568636e-02, 2.45098048e-03, 1.47058833e-02, 1.71568636e-02,
          4.90196096e-03, 9.80392192e-03, 7.35294167e-03, 0.,
          2.45098048e-03, 4.90196096e-03, 7.35294167e-03, 0.,
          7.35294167e-03, 7.35294167e-03, 7.35294167e-03, 0.,
          9.80392192e-03, 1.22549022e-02, 2.45098048e-03, 7.35294167e-03,
          4.90196096e-03, 1.71568636e-02, 7.35294167e-03, 2.45098048e-03,
          1.71568636e-02, 2.45098048e-03, 7.35294167e-03, 9.80392192e-03,
          1.71568636e-02, 2.45098048e-03, 1.71568636e-02, 0.,
          1.22549022e-02, 2.20588241e-02, 0., 7.35294167e-03,
          1.47058833e-02, 2.45098048e-03, 1.47058833e-02, 0.,
          2.45098048e-03, 7.35294167e-03, 1.47058833e-02, 3.18627469e-02,
          7.35294167e-03, 0., 3.43137272e-02, 4.90196096e-03,
          1.71568636e-02, 4.90196096e-03, 7.35294167e-03, 9.80392192e-03,
          1.22549022e-02, 1.47058833e-02, 1.47058833e-02, 2.45098048e-03,
          7.35294167e-03, 9.80392192e-03, 2.45098048e-03 ]
      - [ 2.97619053e-03, 4.46428591e-03, 1.48809524e-02, 1.19047621e-02,
          5.95238106e-03, 1.48809527e-03, 2.67857146e-02, 1.48809524e-02,
          1.93452388e-02, 3.42261903e-02, 4.01785709e-02, 2.97619053e-03,
          2.97619053e-03, 2.97619053e-03, 7.44047621e-03, 2.97619053e-03,
          7.44047621e-03, 5.95238106e-03, 2.97619053e-03, 5.95238106e-03,
          0., 1.48809527e-03, 5.95238106e-03, 2.97619053e-03,
          1.19047621e-02, 7.44047621e-03, 1.48809527e-03, 1.04166670e-02,
          1.33928573e-02, 1.19047621e-02, 4.46428591e-03, 5.80357164e-02,
          5.95238106e-03, 5.05952388e-02, 1.19047621e-02, 0.,
          2.08333340e-02, 1.48809527e-03, 5.95238106e-03, 7.44047621e-03,
          1.48809524e-02, 1.33928573e-02, 5.95238106e-03, 1.19047621e-02,
          2.97619053e-03, 4.46428591e-03, 5.95238106e-03, 7.44047621e-03,
          0., 1.48809527e-03, 4.46428591e-03, 1.04166670e-02,
          4.46428591e-03, 1.48809527e-03, 7.44047621e-03, 1.33928573e-02,
          0., 7.44047621e-03, 7.44047621e-03, 0., 1.93452388e-02,
          2.97619053e-03, 1.93452388e-02, 1.48809527e-03, 4.46428591e-03,
          8.92857183e-03, 2.97619053e-03, 7.44047621e-03, 1.48809527e-03,
          2.97619053e-03, 4.46428591e-03, 1.04166670e-02, 3.27380970e-02,
          7.44047621e-03, 1.63690485e-02, 4.46428591e-03, 8.92857183e-03,
          1.19047621e-02, 0., 1.63690485e-02, 4.46428591e-03,
          2.97619053e-03, 2.52976194e-02, 7.44047621e-03, 2.52976194e-02,
          2.97619053e-03, 4.46428591e-03, 5.05952388e-02, 8.92857183e-03,
          2.97619053e-03, 1.48809527e-03, 8.92857183e-03, 1.78571437e-02,
          2.38095243e-02, 1.93452388e-02, 1.48809527e-03, 0.,
          1.04166670e-02, 1.19047621e-02, 7.44047621e-03 ]
      - [ 4.12087934e-03, 2.19780225e-02, 1.64835174e-02, 4.12087934e-03,
          1.37362641e-03, 0., 3.15934084e-02, 1.51098901e-02,
          1.09890113e-02, 1.37362638e-02, 2.47252751e-02, 2.74725282e-03,
          4.12087934e-03, 8.24175868e-03, 4.12087934e-03, 2.74725282e-03,
          1.23626376e-02, 1.09890113e-02, 2.06043962e-02, 2.74725282e-03,
          0., 0., 2.74725282e-03, 1.37362641e-03, 8.24175868e-03,
          1.51098901e-02, 2.06043962e-02, 9.61538497e-03, 8.24175868e-03,
          8.24175868e-03, 4.12087934e-03, 1.23626376e-02, 1.92307699e-02,
          1.64835174e-02, 6.86813192e-03, 0., 1.23626376e-02,
          6.86813192e-03, 1.09890113e-02, 1.09890113e-02, 1.64835174e-02,
          5.49450563e-03, 5.49450563e-03, 2.47252751e-02, 5.49450563e-03,
          1.37362641e-03, 2.74725282e-03, 6.86813192e-03, 4.12087934e-03,
          2.74725282e-03, 6.86813192e-03, 1.92307699e-02, 4.12087934e-03,
          2.74725282e-03, 9.61538497e-03, 6.86813192e-03, 0.,
          2.88461540e-02, 1.51098901e-02, 1.37362641e-03, 2.33516488e-02,
          2.74725282e-03, 1.23626376e-02, 4.12087934e-03, 2.74725282e-03,
          8.24175868e-03, 1.37362641e-03, 5.49450563e-03, 1.09890113e-02,
          4.12087934e-03, 1.09890113e-02, 3.57142873e-02, 2.06043962e-02,
          8.24175868e-03, 1.37362641e-03, 2.74725282e-03, 4.12087934e-03,
          1.09890113e-02, 1.37362641e-03, 1.09890113e-02, 1.37362641e-03,
          8.24175868e-03, 1.09890113e-02, 1.78571437e-02, 1.09890113e-02,
          2.74725277e-02, 5.49450563e-03, 3.43406610e-02, 1.37362638e-02,
          5.49450563e-03, 1.09890113e-02, 1.09890113e-02, 8.24175868e-03,
          1.37362638e-02, 8.24175868e-03, 2.60989014e-02, 1.37362641e-03,
          6.86813192e-03, 3.15934084e-02, 5.49450563e-03 ]
      - [ 1.44927539e-02, 6.21118024e-03, 2.07039341e-02, 2.07039341e-03,
          8.28157365e-03, 0., 3.51966880e-02, 2.69151144e-02,
          2.48447210e-02, 2.69151144e-02, 4.14078683e-03, 0.,
          4.14078683e-03, 1.86335407e-02, 6.21118024e-03, 2.07039341e-03,
          6.21118024e-03, 2.07039341e-02, 1.24223605e-02, 2.07039341e-03,
          4.14078683e-03, 2.07039341e-03, 2.07039341e-03, 0.,
          2.27743275e-02, 0., 4.14078683e-03, 6.21118024e-03,
          6.21118024e-03, 2.07039341e-03, 8.28157365e-03, 2.07039341e-03,
          6.21118024e-03, 2.07039341e-03, 1.03519671e-02, 2.07039341e-03,
          6.21118024e-03, 1.03519671e-02, 1.03519671e-02, 2.48447210e-02,
          0., 2.69151144e-02, 1.44927539e-02, 4.14078683e-03,
          6.21118024e-03, 1.03519671e-02, 6.21118024e-03, 8.28157365e-03,
          4.14078683e-03, 4.14078683e-03, 1.24223605e-02, 6.21118024e-03,
          0., 0., 2.69151144e-02, 4.14078683e-03, 4.14078683e-03,
          1.03519671e-02, 1.65631473e-02, 6.21118024e-03, 4.34782617e-02,
          4.14078683e-03, 4.14078683e-03, 0., 4.14078683e-03,
          8.28157365e-03, 0., 6.21118024e-03, 2.07039341e-03,
          4.14078683e-03, 2.07039341e-03, 1.44927539e-02, 1.44927539e-02,
          1.03519671e-02, 2.69151144e-02, 1.24223605e-02, 6.21118024e-03,
          4.14078683e-02, 0., 6.21118024e-03, 2.07039341e-03,
          4.14078683e-03, 1.86335407e-02, 1.44927539e-02, 1.03519671e-02,
          3.93374749e-02, 6.21118024e-03, 8.28157365e-03, 1.24223605e-02,
          4.14078683e-03, 6.21118024e-03, 1.03519671e-02, 8.28157365e-03,
          2.27743275e-02, 4.14078683e-03, 2.69151144e-02, 0.,
          1.24223605e-02, 2.48447210e-02, 6.21118024e-03 ]
      - [ 1.28055885e-02, 9.31315497e-03, 1.28055885e-02, 1.28055885e-02,
          3.49243311e-03, 1.04772989e-02, 2.32828874e-03, 1.51338764e-02,
          1.04772989e-02, 1.04772989e-02, 9.31315497e-03, 6.98486622e-03,
          4.65657748e-03, 1.16414437e-03, 5.82072185e-03, 5.82072185e-03,
          6.98486622e-03, 4.65657748e-03, 1.39697324e-02, 8.14901106e-03,
          2.32828874e-03, 4.65657748e-03, 3.49243311e-03, 1.16414437e-03,
          1.74621660e-02, 1.74621660e-02, 5.82072185e-03, 1.16414437e-02,
          1.28055885e-02, 2.09545977e-02, 4.65657748e-03, 1.39697324e-02,
          1.51338764e-02, 1.39697324e-02, 1.28055885e-02, 8.14901106e-03,
          8.14901106e-03, 6.98486622e-03, 8.14901106e-03, 1.04772989e-02,
          1.86263099e-02, 6.40279427e-02, 2.32828874e-03, 1.28055885e-02,
          5.82072185e-03, 4.65657748e-03, 1.39697324e-02, 9.31315497e-03,
          3.49243311e-03, 1.16414437e-03, 9.31315497e-03, 6.98486622e-03,
          3.49243311e-03, 4.65657748e-03, 2.44470313e-02, 1.51338764e-02,
          2.32828874e-03, 1.28055885e-02, 1.16414437e-02, 2.32828874e-03,
          1.74621660e-02, 1.51338764e-02, 2.09545977e-02, 5.82072185e-03,
          8.14901106e-03, 1.39697324e-02, 1.16414437e-03, 5.82072185e-03,
          8.14901106e-03, 3.49243311e-03, 5.82072185e-03, 1.39697324e-02,
          9.31315497e-03, 1.28055885e-02, 0., 8.14901106e-03,
          1.04772989e-02, 3.49243321e-02, 1.16414437e-03, 1.62980221e-02,
          6.98486622e-03, 6.98486622e-03, 1.16414437e-02, 6.98486622e-03,
          8.14901106e-03, 6.98486622e-03, 1.16414437e-02, 2.44470313e-02,
          3.49243311e-03, 1.51338764e-02, 6.98486622e-03, 1.74621660e-02,
          5.82072185e-03, 8.14901106e-03, 3.49243311e-03, 6.98486622e-03,
          3.49243311e-03, 1.74621660e-02, 5.82072185e-03, 1.16414437e-02 ]
      - [ 1.21951215e-02, 2.43902439e-03, 2.68292688e-02, 1.70731712e-02,
          9.75609757e-03, 7.31707318e-03, 4.87804879e-03, 0.,
          4.87804879e-03, 5.36585376e-02, 1.46341464e-02, 4.87804879e-03,
          2.43902439e-03, 2.43902439e-03, 2.43902439e-03, 0.,
          3.17073166e-02, 4.87804879e-03, 7.31707318e-03, 4.87804879e-03,
          9.75609757e-03, 2.43902439e-03, 9.75609757e-03, 1.21951215e-02,
          4.87804879e-03, 2.19512191e-02, 7.31707318e-03, 2.43902439e-03,
          1.95121951e-02, 1.70731712e-02, 2.43902439e-03, 1.46341464e-02,
          1.95121951e-02, 1.95121951e-02, 1.21951215e-02, 4.87804879e-03,
          1.21951215e-02, 2.43902439e-03, 2.68292688e-02, 2.43902439e-03,
          1.21951215e-02, 3.17073166e-02, 0., 1.46341464e-02,
          2.43902439e-03, 2.43902439e-03, 2.43902439e-03, 4.87804879e-03,
          2.43902439e-03, 4.87804879e-03, 1.21951215e-02, 2.19512191e-02,
          0., 7.31707318e-03, 7.31707318e-03, 7.31707318e-03,
          9.75609757e-03, 7.31707318e-03, 1.46341464e-02, 7.31707318e-03,
          1.46341464e-02, 7.31707318e-03, 1.95121951e-02, 7.31707318e-03,
          4.87804879e-03, 1.95121951e-02, 0., 2.43902439e-03,
          7.31707318e-03, 4.87804879e-03, 2.43902439e-03, 1.70731712e-02,
          0., 7.31707318e-03, 4.87804879e-03, 4.87804879e-03,
          7.31707318e-03, 4.87804879e-03, 2.43902439e-03, 2.68292688e-02,
          4.87804879e-03, 7.31707318e-03, 1.95121951e-02, 4.87804879e-03,
          2.92682927e-02, 2.19512191e-02, 9.75609757e-03, 1.70731712e-02,
          1.46341464e-02, 4.87804879e-03, 9.75609757e-03, 1.46341464e-02,
          0., 1.46341464e-02, 1.70731712e-02, 2.19512191e-02, 0., 0.,
          7.31707318e-03, 2.43902439e-03 ]
      - [ 9.90098994e-03, 9.90098994e-03, 4.95049497e-03, 9.90098994e-03,
          0., 0., 1.98019799e-02, 5.94059378e-02, 4.95049497e-03,
          9.90098994e-03, 9.90098994e-03, 9.90098994e-03, 4.95049497e-03,
          4.95049497e-03, 4.95049497e-03, 9.90098994e-03, 2.47524753e-02,
          1.98019799e-02, 9.90098994e-03, 4.95049497e-03, 0., 0.,
          4.95049497e-03, 4.95049497e-03, 0., 0., 1.48514844e-02,
          9.90098994e-03, 9.90098994e-03, 2.47524753e-02, 1.98019799e-02,
          1.48514844e-02, 1.48514844e-02, 0., 1.48514844e-02, 0.,
          1.98019799e-02, 0., 1.48514844e-02, 0., 0., 0., 9.90098994e-03,
          1.48514844e-02, 0., 0., 0., 1.98019799e-02, 0., 9.90098994e-03,
          4.95049497e-03, 9.90098994e-03, 4.95049497e-03, 4.95049497e-03,
          0., 0., 4.95049497e-03, 9.90098994e-03, 0., 4.95049497e-03,
          1.98019799e-02, 9.90098994e-03, 2.47524753e-02, 4.95049497e-03,
          4.95049497e-03, 1.48514844e-02, 0., 9.90098994e-03,
          1.48514844e-02, 1.48514844e-02, 1.48514844e-02, 4.45544533e-02,
          0., 0., 4.95049497e-03, 4.95049497e-03, 0., 0., 0.,
          1.48514844e-02, 9.90098994e-03, 9.90098994e-03, 3.46534662e-02,
          2.97029689e-02, 5.94059378e-02, 4.95049497e-03, 9.90098994e-03,
          4.95049497e-03, 0., 9.90098994e-03, 1.48514844e-02,
          9.90098994e-03, 2.97029689e-02, 0., 1.48514844e-02,
          9.90098994e-03, 4.95049497e-03, 9.90098994e-03, 4.95049497e-03,
          2.47524753e-02 ]
      - [ 1.24481339e-02, 4.14937781e-03, 0., 2.07468886e-02,
          8.29875562e-03, 2.48962678e-02, 0., 2.90456451e-02,
          8.29875562e-03, 0., 1.24481339e-02, 3.31950225e-02,
          1.24481339e-02, 8.29875562e-03, 4.14937781e-03, 4.14937781e-03,
          1.24481339e-02, 0., 0., 8.29875562e-03, 4.14937781e-03,
          1.24481339e-02, 4.14937781e-03, 4.14937781e-03, 4.14937781e-03,
          0., 0., 8.29875562e-03, 8.29875562e-03, 1.24481339e-02, 0.,
          2.90456451e-02, 4.14937781e-03, 2.48962678e-02, 0.,
          2.07468886e-02, 4.14937781e-03, 1.24481339e-02, 1.24481339e-02,
          4.14937781e-03, 0., 0., 4.14937781e-03, 4.14937781e-03,
          8.29875562e-03, 0., 4.97925356e-02, 2.90456451e-02,
          1.24481339e-02, 2.90456451e-02, 4.14937781e-03, 0.,
          2.07468886e-02, 3.31950225e-02, 4.14937781e-03, 8.29875562e-03,
          4.14937781e-03, 1.24481339e-02, 4.14937781e-03, 8.29875562e-03,
          0., 0., 0., 1.24481339e-02, 1.65975112e-02, 0., 2.48962678e-02,
          0., 0., 0., 4.56431545e-02, 0., 8.29875562e-03, 4.14937781e-03,
          0., 8.29875562e-03, 1.24481339e-02, 8.29875562e-03,
          2.48962678e-02, 0., 2.90456451e-02, 4.56431545e-02, 0., 0.,
          2.07468886e-02, 0., 0., 4.14937781e-03, 0., 2.90456451e-02, 0.,
          8.29875562e-03, 8.29875562e-03, 0., 8.29875562e-03, 0.,
          5.39419129e-02, 0., 0., 1.65975112e-02 ]
      - [ 5.39083546e-03, 2.42587589e-02, 1.07816709e-02, 5.39083546e-03,
          5.39083546e-03, 5.39083546e-03, 1.07816709e-02, 5.66037707e-02,
          0., 0., 5.39083546e-03, 8.08625296e-03, 1.61725059e-02, 0.,
          5.39083546e-03, 5.39083546e-03, 5.39083546e-03, 1.61725059e-02,
          2.69541773e-03, 3.23450118e-02, 1.07816709e-02, 0.,
          2.69541773e-03, 0., 8.08625296e-03, 5.39083546e-03,
          8.08625296e-03, 2.69541773e-03, 8.08625296e-03, 5.39083546e-03,
          0., 2.69541773e-03, 8.08625296e-03, 5.39083546e-03,
          8.08625296e-03, 8.08625296e-03, 5.39083546e-03, 2.69541773e-03,
          2.69541773e-03, 1.07816709e-02, 2.69541773e-03, 5.39083546e-03,
          0., 1.34770889e-02, 8.08625296e-03, 0., 1.61725059e-02, 0.,
          1.61725059e-02, 1.88679248e-02, 3.23450118e-02, 1.07816709e-02,
          8.08625296e-03, 8.08625296e-03, 4.31266837e-02, 2.15633418e-02,
          2.69541773e-03, 1.61725059e-02, 1.88679248e-02, 2.69541773e-03,
          1.88679248e-02, 5.39083546e-03, 2.69541773e-03, 0.,
          2.69541773e-03, 5.39083546e-03, 2.69541773e-03, 8.08625296e-03,
          8.08625296e-03, 3.77358496e-02, 1.07816709e-02, 1.07816709e-02,
          2.69541773e-03, 5.39083546e-03, 5.39083546e-03, 0.,
          5.39083546e-03, 5.39083546e-03, 2.69541773e-03, 1.34770889e-02,
          0., 5.39083546e-03, 2.42587589e-02, 2.69541773e-03,
          4.31266837e-02, 1.34770889e-02, 8.08625296e-03, 2.96495948e-02,
          1.07816709e-02, 2.96495948e-02, 2.69541773e-03, 1.07816709e-02,
          4.85175177e-02, 5.39083546e-03, 8.08625296e-03, 1.07816709e-02,
          2.69541773e-03, 8.08625296e-03, 1.07816709e-02, 0. ]
      - [ 1.56985875e-03, 0., 2.51177400e-02, 2.19780225e-02,
          1.88383050e-02, 0., 3.13971750e-03, 0., 1.56985875e-03,
          3.29670347e-02, 1.88383050e-02, 7.84929376e-03, 0.,
          3.92464697e-02, 1.56985875e-03, 6.27943501e-03, 1.88383050e-02,
          7.84929376e-03, 1.41287288e-02, 3.13971750e-03, 1.56985875e-03,
          6.27943501e-03, 6.27943501e-03, 3.13971750e-03, 1.56985875e-03,
          1.56985875e-03, 6.27943501e-03, 9.41915251e-03, 3.13971750e-03,
          1.56985875e-02, 1.56985875e-03, 3.13971750e-03, 3.76766101e-02,
          1.09890113e-02, 6.27943501e-03, 0., 1.41287288e-02,
          6.27943501e-02, 3.45368907e-02, 2.66875997e-02, 3.13971750e-03,
          0., 2.82574575e-02, 1.25588700e-02, 1.56985875e-03,
          1.56985875e-03, 1.25588700e-02, 7.84929376e-03, 1.56985875e-03,
          1.56985875e-02, 4.70957626e-03, 1.09890113e-02, 3.13971750e-03,
          1.25588700e-02, 0., 7.84929376e-03, 3.13971750e-03,
          3.13971750e-03, 6.27943501e-03, 3.13971750e-03, 1.41287288e-02,
          7.84929376e-03, 1.25588700e-02, 9.41915251e-03, 3.13971750e-03,
          2.35478804e-02, 3.13971750e-03, 0., 1.72684453e-02, 0.,
          7.84929376e-03, 4.70957626e-03, 0., 9.41915251e-03,
          4.70957626e-03, 1.56985875e-03, 6.27943501e-03, 0., 0.,
          1.56985875e-02, 4.70957626e-03, 2.04081647e-02, 6.27943501e-03,
          0., 0., 3.13971750e-03, 0., 4.70957626e-03, 7.84929376e-03,
          2.82574575e-02, 6.27943501e-03, 9.41915251e-03, 0.,
          3.29670347e-02, 1.88383050e-02, 4.23861854e-02, 3.45368907e-02,
          3.13971750e-03, 1.56985875e-02, 4.70957626e-03 ]
      - [ 6.45161280e-03, 0., 6.45161280e-03, 0., 1.29032256e-02, 0.,
          5.16129024e-02, 1.93548389e-02, 6.45161280e-03, 1.29032256e-02,
          6.45161280e-03, 6.45161280e-03, 0., 6.45161280e-03,
          6.45161280e-03, 0., 0., 1.29032256e-02, 6.45161280e-03,
          6.45161280e-03, 3.87096778e-02, 0., 6.45161280e-03,
          6.45161280e-03, 0., 1.29032256e-02, 2.58064512e-02, 0.,
          2.58064512e-02, 5.16129024e-02, 6.45161280e-03, 6.45161280e-03,
          6.45161280e-03, 6.45161280e-03, 6.45161280e-03, 0.,
          3.22580636e-02, 0., 6.45161280e-03, 0., 0., 6.45161280e-03,
          6.45161280e-03, 3.22580636e-02, 0., 0., 6.45161280e-03, 0.,
          6.45161280e-03, 1.93548389e-02, 0., 0., 0., 0., 0.,
          1.93548389e-02, 1.93548389e-02, 1.29032256e-02, 0.,
          1.93548389e-02, 4.51612882e-02, 1.29032256e-02, 6.45161280e-03,
          6.45161280e-03, 6.45161280e-03, 1.29032256e-02, 6.45161280e-03,
          6.45161280e-03, 0., 1.93548389e-02, 1.29032256e-02,
          6.45161280e-03, 6.45161280e-03, 1.29032256e-02, 0., 0.,
          1.29032256e-02, 0., 0., 3.22580636e-02, 6.45161280e-03,
          6.45161280e-03, 1.29032256e-02, 6.45161280e-03, 0.,
          1.29032256e-02, 1.29032256e-02, 2.58064512e-02, 1.29032256e-02,
          6.45161280e-03, 2.58064512e-02, 1.29032256e-02, 0.,
          6.45161280e-03, 1.29032256e-02, 2.58064512e-02, 0.,
          1.29032256e-02, 3.87096778e-02, 0. ]
      - [ 4.25531901e-03, 1.48936165e-02, 1.48936165e-02, 1.06382975e-02,
          6.38297852e-03, 3.19148935e-02, 4.25531901e-03, 1.06382975e-02,
          2.12765951e-03, 6.38297852e-03, 1.06382975e-02, 2.34042555e-02,
          6.38297852e-03, 6.38297852e-03, 2.12765951e-03, 8.51063803e-03,
          4.25531901e-03, 6.38297852e-03, 8.51063803e-03, 1.48936165e-02,
          8.51063803e-03, 6.38297852e-03, 6.38297852e-03, 1.06382975e-02,
          1.27659570e-02, 0., 2.12765951e-03, 1.06382975e-02,
          4.25531901e-03, 1.48936165e-02, 1.27659570e-02, 8.51063803e-03,
          6.38297852e-03, 1.06382975e-02, 1.06382975e-02, 1.27659570e-02,
          1.06382975e-02, 1.48936165e-02, 8.51063803e-03, 1.27659570e-02,
          0., 0., 4.25531901e-03, 4.25531901e-03, 1.48936165e-02,
          6.38297852e-03, 2.76595727e-02, 0., 2.12765951e-03,
          4.25531901e-03, 2.12765951e-02, 8.51063803e-03, 1.06382975e-02,
          1.27659570e-02, 8.51063803e-03, 8.51063803e-03, 2.12765951e-03,
          2.12765951e-03, 1.91489346e-02, 2.12765951e-03, 1.48936165e-02,
          8.51063803e-03, 1.91489346e-02, 8.51063803e-03, 8.51063803e-03,
          1.06382975e-02, 2.12765951e-03, 8.51063803e-03, 8.51063803e-03,
          4.04255316e-02, 1.48936165e-02, 1.48936165e-02, 2.12765951e-03,
          6.38297852e-03, 2.12765951e-03, 6.38297852e-03, 6.38297852e-03,
          4.25531901e-03, 4.25531901e-03, 1.27659570e-02, 8.51063803e-03,
          6.38297852e-03, 1.06382975e-02, 1.27659570e-02, 1.06382975e-02,
          6.38297852e-03, 2.97872331e-02, 1.27659570e-02, 1.06382975e-02,
          5.10638282e-02, 1.06382975e-02, 1.48936165e-02, 1.70212761e-02,
          4.25531901e-03, 6.38297852e-03, 6.38297852e-03, 1.91489346e-02,
          8.51063803e-03, 0., 6.38297852e-03 ]
      - [ 6.55737706e-03, 9.83606558e-03, 9.83606558e-03, 9.83606558e-03,
          1.31147541e-02, 6.55737706e-03, 3.60655747e-02, 1.63934417e-02,
          0., 1.63934417e-02, 1.31147541e-02, 1.31147541e-02,
          6.55737706e-03, 6.55737706e-03, 6.55737706e-03, 9.83606558e-03,
          6.55737706e-03, 1.96721312e-02, 1.31147541e-02, 1.31147541e-02,
          3.27868853e-03, 1.31147541e-02, 0., 3.27868853e-03,
          1.96721312e-02, 0., 1.63934417e-02, 6.55737706e-03,
          1.31147541e-02, 9.83606558e-03, 9.83606558e-03, 1.63934417e-02,
          0., 9.83606558e-03, 6.55737706e-03, 0., 6.55737706e-03,
          1.31147541e-02, 1.96721312e-02, 0., 3.27868853e-03,
          3.27868834e-02, 3.27868853e-03, 6.55737706e-03, 0.,
          1.96721312e-02, 0., 1.31147541e-02, 0., 3.27868853e-03,
          9.83606558e-03, 9.83606558e-03, 3.27868853e-03, 9.83606558e-03,
          1.96721312e-02, 6.55737706e-03, 0., 3.27868834e-02,
          9.83606558e-03, 0., 1.63934417e-02, 3.27868853e-03,
          2.29508206e-02, 6.55737706e-03, 3.27868853e-03, 1.96721312e-02,
          0., 1.31147541e-02, 1.63934417e-02, 3.27868853e-03,
          3.27868853e-03, 1.96721312e-02, 0., 3.27868853e-03,
          9.83606558e-03, 3.27868853e-03, 6.55737706e-03, 0.,
          3.27868853e-03, 9.83606558e-03, 0., 1.63934417e-02,
          1.63934417e-02, 1.63934417e-02, 1.31147541e-02, 3.93442623e-02,
          1.31147541e-02, 1.31147541e-02, 1.31147541e-02, 0.,
          1.63934417e-02, 2.29508206e-02, 6.55737706e-03, 9.83606558e-03,
          6.55737706e-03, 2.62295082e-02, 1.31147541e-02, 0.,
          6.55737706e-03, 3.27868853e-03 ]
      - [ 2.46913591e-03, 4.93827183e-03, 7.40740774e-03, 2.46913591e-03,
          2.46913591e-03, 2.46913582e-02, 6.41975328e-02, 4.93827183e-03,
          2.46913591e-03, 1.23456791e-02, 4.93827183e-03, 1.23456791e-02,
          7.40740774e-03, 0., 2.46913591e-03, 1.48148155e-02,
          9.87654366e-03, 1.48148155e-02, 1.72839519e-02, 7.40740774e-03,
          1.48148155e-02, 0., 9.87654366e-03, 7.40740774e-03,
          1.23456791e-02, 0., 7.40740774e-03, 7.40740774e-03,
          2.46913591e-03, 7.40740774e-03, 4.93827183e-03, 9.87654366e-03,
          2.46913591e-03, 9.87654366e-03, 2.71604955e-02, 2.22222228e-02,
          1.23456791e-02, 7.40740774e-03, 4.93827183e-03, 1.48148155e-02,
          4.93827183e-03, 1.72839519e-02, 9.87654366e-03, 7.40740774e-03,
          4.93827183e-03, 7.40740774e-03, 4.93827183e-03, 9.87654366e-03,
          4.93827183e-03, 2.46913591e-03, 7.40740774e-03, 1.97530873e-02,
          2.46913591e-03, 1.23456791e-02, 1.72839519e-02, 2.46913582e-02,
          2.46913591e-03, 1.23456791e-02, 1.23456791e-02, 9.87654366e-03,
          9.87654366e-03, 7.40740774e-03, 2.22222228e-02, 2.46913591e-03,
          4.93827183e-03, 7.40740774e-03, 7.40740774e-03, 7.40740774e-03,
          1.72839519e-02, 4.93827183e-03, 4.93827183e-03, 9.87654366e-03,
          0., 2.96296310e-02, 2.46913591e-03, 1.48148155e-02,
          4.93827183e-03, 2.46913591e-03, 2.46913591e-03, 9.87654366e-03,
          2.71604955e-02, 1.48148155e-02, 1.48148155e-02, 4.93827183e-03,
          2.46913591e-03, 2.96296310e-02, 4.93827183e-03, 1.97530873e-02,
          1.48148155e-02, 1.48148155e-02, 1.72839519e-02, 1.72839519e-02,
          9.87654366e-03, 4.93827183e-03, 7.40740774e-03, 4.93827183e-03,
          0., 4.93827183e-03, 7.40740774e-03, 4.93827183e-03 ]
      - [ 1.18043851e-02, 8.43170285e-03, 2.19224282e-02, 1.01180440e-02,
          8.43170285e-03, 3.37268133e-03, 1.01180440e-02, 2.86677908e-02,
          1.68634066e-03, 1.68634057e-02, 1.01180440e-02, 5.05902199e-03,
          3.37268133e-03, 5.05902199e-03, 8.43170285e-03, 8.43170285e-03,
          8.43170285e-03, 1.68634057e-02, 1.18043851e-02, 1.01180440e-02,
          1.68634066e-03, 5.05902199e-03, 8.43170285e-03, 8.43170285e-03,
          1.34907253e-02, 3.37268133e-03, 3.37268133e-03, 1.18043851e-02,
          6.74536265e-03, 1.34907253e-02, 3.37268133e-03, 1.34907253e-02,
          1.85497478e-02, 1.01180440e-02, 1.34907253e-02, 0.,
          1.51770655e-02, 2.02360880e-02, 1.18043851e-02, 5.05902199e-03,
          1.68634066e-03, 1.68634066e-03, 8.43170285e-03, 1.68634057e-02,
          0., 5.05902199e-03, 1.68634057e-02, 1.18043851e-02,
          5.05902199e-03, 5.05902199e-03, 3.37268133e-03, 2.02360880e-02,
          5.05902199e-03, 1.68634066e-03, 1.51770655e-02, 8.43170285e-03,
          0., 1.34907253e-02, 3.03541310e-02, 3.37268133e-03,
          2.52951104e-02, 1.01180440e-02, 2.69814506e-02, 5.05902199e-03,
          0., 1.85497478e-02, 3.37268133e-03, 6.74536265e-03,
          5.05902199e-03, 5.05902199e-03, 3.37268133e-03, 2.36087702e-02,
          5.05902199e-03, 5.05902199e-03, 1.51770655e-02, 0.,
          6.74536265e-03, 0., 3.37268133e-03, 1.34907253e-02,
          5.05902199e-03, 8.43170285e-03, 2.36087702e-02, 8.43170285e-03,
          1.51770655e-02, 1.68634057e-02, 1.34907253e-02, 2.19224282e-02,
          1.18043851e-02, 1.01180440e-02, 1.34907253e-02, 1.68634057e-02,
          1.01180440e-02, 1.01180440e-02, 1.85497478e-02, 1.68634057e-02,
          1.68634066e-03, 1.01180440e-02, 1.01180440e-02, 5.05902199e-03 ]
      - [ 1.25448033e-02, 8.96057300e-03, 2.86738351e-02, 5.37634408e-03,
          1.97132621e-02, 7.16845877e-03, 0., 0., 0., 1.79211460e-02,
          1.61290318e-02, 1.07526882e-02, 5.37634408e-03, 4.12186384e-02,
          3.58422939e-03, 3.58422939e-03, 1.79211460e-02, 5.37634408e-03,
          2.68817209e-02, 7.16845877e-03, 3.58422939e-03, 3.58422939e-03,
          1.79211469e-03, 0., 0., 0., 1.07526882e-02, 5.37634408e-03,
          7.16845877e-03, 1.97132621e-02, 5.37634408e-03, 1.79211469e-03,
          3.94265242e-02, 0., 7.16845877e-03, 2.32974906e-02,
          1.07526882e-02, 5.19713275e-02, 2.32974906e-02, 2.50896066e-02,
          0., 0., 1.97132621e-02, 1.25448033e-02, 1.79211469e-03,
          5.37634408e-03, 1.43369175e-02, 8.96057300e-03, 8.96057300e-03,
          5.37634408e-03, 1.07526882e-02, 8.96057300e-03, 5.37634408e-03,
          1.07526882e-02, 3.58422939e-03, 8.96057300e-03, 1.79211469e-03,
          5.37634408e-03, 2.86738351e-02, 3.58422939e-03, 1.79211460e-02,
          7.16845877e-03, 8.96057300e-03, 8.96057300e-03, 5.37634408e-03,
          3.58422939e-03, 0., 5.37634408e-03, 7.16845877e-03,
          7.16845877e-03, 3.58422939e-03, 5.37634408e-03, 0., 0.,
          1.79211469e-03, 0., 0., 0., 0., 2.32974906e-02, 3.58422939e-03,
          1.43369175e-02, 5.37634408e-03, 1.79211469e-03, 1.61290318e-02,
          0., 1.79211469e-03, 1.07526882e-02, 1.07526882e-02,
          1.79211460e-02, 8.96057300e-03, 8.96057300e-03, 1.25448033e-02,
          2.86738351e-02, 1.79211460e-02, 3.22580636e-02, 1.43369175e-02,
          8.96057300e-03, 3.04659493e-02, 5.37634408e-03 ]
      - [ 3.32225906e-03, 1.99335553e-02, 6.64451811e-03, 3.32225906e-03,
          1.32890362e-02, 0., 3.98671106e-02, 1.32890362e-02, 0., 0.,
          1.32890362e-02, 6.64451811e-03, 3.32225906e-03, 0.,
          6.64451811e-03, 3.32225906e-03, 1.32890362e-02, 9.96677764e-03,
          1.32890362e-02, 0., 9.96677764e-03, 0., 1.32890362e-02,
          6.64451811e-03, 2.32558139e-02, 3.32225906e-03, 3.32225906e-03,
          6.64451811e-03, 6.64451811e-03, 1.66112948e-02, 1.32890362e-02,
          0., 0., 3.32225906e-03, 1.99335553e-02, 0., 0., 0.,
          3.32225906e-03, 1.32890362e-02, 0., 1.66112948e-02,
          6.64451811e-03, 6.64451811e-03, 2.32558139e-02, 6.64451811e-03,
          1.32890362e-02, 0., 6.64451811e-03, 0., 9.96677764e-03,
          1.32890362e-02, 0., 0., 2.99003311e-02, 6.64451811e-03, 0.,
          9.96677764e-03, 1.99335553e-02, 0., 9.96677764e-03,
          9.96677764e-03, 1.99335553e-02, 3.32225906e-03, 0.,
          1.32890362e-02, 6.64451811e-03, 6.64451811e-03, 9.96677764e-03,
          3.32225906e-03, 9.96677764e-03, 5.64784035e-02, 0.,
          4.65116277e-02, 9.96677764e-03, 6.64451811e-03, 9.96677764e-03,
          1.32890362e-02, 3.32225906e-03, 1.32890362e-02, 3.32225906e-03,
          3.32225906e-03, 3.65448482e-02, 1.66112948e-02, 1.32890362e-02,
          3.65448482e-02, 1.32890362e-02, 6.64451811e-03, 1.66112948e-02,
          3.32225906e-03, 3.32225906e-03, 2.65780725e-02, 1.66112948e-02,
          6.64451811e-03, 6.64451811e-03, 0., 0., 1.99335553e-02,
          2.65780725e-02, 9.96677764e-03 ]
      - [ 1.04166670e-02, 1.04166670e-02, 0., 6.94444450e-03,
          1.73611119e-02, 3.47222225e-03, 3.47222225e-03, 1.38888890e-02,
          3.47222225e-03, 1.04166670e-02, 6.94444450e-03, 0.,
          6.94444450e-03, 2.43055560e-02, 2.77777780e-02, 1.04166670e-02,
          6.94444450e-03, 6.94444450e-03, 3.47222225e-03, 1.73611119e-02,
          1.73611119e-02, 6.94444450e-03, 1.04166670e-02, 6.94444450e-03,
          0., 0., 6.94444450e-03, 6.94444450e-03, 6.94444450e-03,
          6.94444450e-03, 1.04166670e-02, 3.47222225e-03, 1.73611119e-02,
          0., 6.94444450e-03, 1.04166670e-02, 1.38888890e-02,
          2.43055560e-02, 1.04166670e-02, 6.94444450e-03, 0., 0.,
          3.47222225e-03, 1.04166670e-02, 3.47222225e-03, 1.38888890e-02,
          2.08333340e-02, 3.47222225e-03, 1.04166670e-02, 6.94444450e-03,
          1.73611119e-02, 2.08333340e-02, 0., 0., 1.04166670e-02,
          2.43055560e-02, 0., 1.04166670e-02, 1.38888890e-02,
          3.47222225e-03, 1.04166670e-02, 1.04166670e-02, 6.94444450e-03,
          1.73611119e-02, 1.04166670e-02, 1.38888890e-02, 0.,
          6.94444450e-03, 6.94444450e-03, 1.38888890e-02, 6.94444450e-03,
          6.94444450e-03, 0., 3.47222225e-03, 3.47222225e-03,
          3.47222225e-03, 1.38888890e-02, 0., 3.47222225e-03,
          1.04166670e-02, 6.94444450e-03, 1.38888890e-02, 2.08333340e-02,
          1.04166670e-02, 1.73611119e-02, 6.94444450e-03, 1.04166670e-02,
          0., 1.04166670e-02, 3.47222239e-02, 1.04166670e-02,
          2.08333340e-02, 5.20833321e-02, 1.04166670e-02, 2.43055560e-02,
          1.04166670e-02, 6.94444450e-03, 3.47222225e-03, 3.12500000e-02,
          1.04166670e-02 ]
      - [ 9.37500037e-03, 3.12500005e-03, 9.37500037e-03, 1.25000002e-02,
          9.37500037e-03, 6.25000009e-03, 0., 5.00000007e-02,
          3.12500005e-03, 0., 1.25000002e-02, 1.25000002e-02,
          2.50000004e-02, 6.25000009e-03, 0., 0., 6.25000009e-03,
          3.12500005e-03, 6.25000009e-03, 0., 3.12500005e-03,
          3.12500005e-03, 1.25000002e-02, 1.87500007e-02, 3.12500005e-03,
          1.56250000e-02, 3.12500005e-03, 6.25000009e-03, 1.56250000e-02,
          3.12500005e-03, 9.37500037e-03, 2.50000004e-02, 0.,
          4.68750000e-02, 6.25000009e-03, 3.12500005e-03, 3.12500005e-03,
          2.18749996e-02, 1.56250000e-02, 0., 1.56250000e-02,
          1.25000002e-02, 2.50000004e-02, 6.25000009e-03, 9.37500037e-03,
          1.25000002e-02, 3.12500005e-03, 1.25000002e-02, 3.12500005e-03,
          9.37500037e-03, 9.37500037e-03, 3.12500005e-03, 2.18749996e-02,
          1.87500007e-02, 1.87500007e-02, 3.12500005e-03, 6.25000009e-03,
          9.37500037e-03, 9.37500037e-03, 2.50000004e-02, 3.12500005e-03,
          1.25000002e-02, 0., 4.68750000e-02, 0., 3.12500005e-03,
          3.12500005e-03, 3.12500005e-03, 3.12500005e-03, 3.12500005e-03,
          1.87500007e-02, 0., 6.25000009e-03, 3.12500005e-03,
          6.25000009e-03, 3.12500005e-03, 1.25000002e-02, 1.87500007e-02,
          3.12500005e-03, 1.25000002e-02, 3.12500005e-03, 1.56250000e-02,
          9.37500037e-03, 0., 1.87500007e-02, 3.12500005e-03,
          2.81250011e-02, 9.37500037e-03, 1.25000002e-02, 2.50000004e-02,
          9.37500037e-03, 1.25000002e-02, 3.12500005e-03, 9.37500037e-03,
          6.25000009e-03, 0., 2.18749996e-02, 6.25000009e-03,
          3.12500005e-03, 1.56250000e-02 ]
      - [ 1.45985400e-02, 1.45985400e-02, 1.45985400e-02, 7.29927002e-03,
          7.29927002e-03, 1.09489048e-02, 6.56934306e-02, 2.55474448e-02,
          0., 3.64963501e-03, 3.64963501e-03, 1.45985400e-02,
          3.64963501e-03, 1.45985400e-02, 1.45985400e-02, 0.,
          3.64963501e-03, 1.09489048e-02, 1.09489048e-02, 1.45985400e-02,
          1.45985400e-02, 0., 1.45985400e-02, 1.82481743e-02,
          1.09489048e-02, 3.64963501e-03, 7.29927002e-03, 0.,
          3.64963501e-03, 1.09489048e-02, 7.29927002e-03, 3.64963501e-03,
          1.09489048e-02, 1.09489048e-02, 7.29927002e-03, 1.09489048e-02,
          3.64963501e-03, 7.29927002e-03, 7.29927002e-03, 0., 0.,
          7.29927002e-03, 1.45985400e-02, 0., 1.09489048e-02,
          1.09489048e-02, 1.09489048e-02, 2.55474448e-02, 1.09489048e-02,
          7.29927002e-03, 1.09489048e-02, 3.64963501e-03, 0.,
          1.09489048e-02, 7.29927002e-03, 1.45985400e-02, 7.29927002e-03,
          1.09489048e-02, 3.64963501e-03, 3.64963501e-03, 7.29927002e-03,
          1.82481743e-02, 1.45985400e-02, 1.82481743e-02, 7.29927002e-03,
          7.29927002e-03, 1.09489048e-02, 0., 0., 1.82481743e-02,
          7.29927002e-03, 3.64963501e-03, 0., 7.29927002e-03,
          1.45985400e-02, 7.29927002e-03, 0., 3.64963501e-03,
          1.09489048e-02, 7.29927002e-03, 0., 1.09489048e-02,
          1.09489048e-02, 7.29927002e-03, 3.64963487e-02, 6.20437935e-02,
          7.29927002e-03, 1.09489048e-02, 3.64963501e-03, 1.09489048e-02,
          1.82481743e-02, 3.64963501e-03, 1.82481743e-02, 2.18978096e-02,
          7.29927002e-03, 3.64963501e-03, 7.29927002e-03, 3.64963501e-03,
          3.64963501e-03, 7.29927002e-03 ]
      - [ 1.47058833e-02, 9.80392192e-03, 0., 1.47058833e-02,
          4.90196096e-03, 2.94117667e-02, 4.90196096e-03, 1.96078438e-02,
          0., 4.90196096e-03, 4.90196096e-03, 1.96078438e-02,
          3.92156877e-02, 0., 4.90196096e-03, 4.90196096e-03, 0.,
          9.80392192e-03, 1.47058833e-02, 9.80392192e-03, 1.47058833e-02,
          0., 1.47058833e-02, 9.80392192e-03, 1.96078438e-02,
          4.90196096e-03, 4.90196096e-03, 4.90196096e-03, 4.90196096e-03,
          9.80392192e-03, 0., 4.90196096e-03, 4.90196096e-03, 0.,
          9.80392192e-03, 2.45098043e-02, 0., 0., 0., 9.80392192e-03, 0.,
          4.90196096e-03, 0., 9.80392192e-03, 4.90196096e-03,
          9.80392192e-03, 3.43137272e-02, 4.90196096e-03, 4.90196096e-03,
          0., 5.39215691e-02, 9.80392192e-03, 0., 4.90196096e-03,
          9.80392192e-03, 1.47058833e-02, 9.80392192e-03, 4.90196096e-03,
          4.90196096e-03, 9.80392192e-03, 9.80392192e-03, 2.94117667e-02,
          4.90196096e-03, 9.80392192e-03, 0., 0., 9.80392192e-03,
          4.90196096e-03, 0., 2.45098043e-02, 4.90196096e-03,
          2.45098043e-02, 4.90196096e-03, 2.94117667e-02, 1.47058833e-02,
          4.90196096e-03, 2.45098043e-02, 1.47058833e-02, 4.90196096e-03,
          4.90196096e-03, 4.90196096e-03, 4.90196096e-03, 1.47058833e-02,
          4.90196096e-03, 1.96078438e-02, 4.90196096e-03, 2.94117667e-02,
          4.90196096e-03, 4.90196096e-03, 3.92156877e-02, 1.47058833e-02,
          9.80392192e-03, 9.80392192e-03, 9.80392192e-03, 0.,
          4.90196096e-03, 4.90196096e-03, 9.80392192e-03, 1.96078438e-02,
          9.80392192e-03 ]
      - [ 0., 7.40740728e-03, 0., 0., 0., 4.44444418e-02, 5.18518500e-02,
          1.48148146e-02, 1.48148146e-02, 7.40740728e-03, 0.,
          2.22222209e-02, 1.48148146e-02, 0., 2.96296291e-02,
          7.40740728e-03, 0., 7.40740728e-03, 0., 5.92592582e-02,
          1.48148146e-02, 0., 2.22222209e-02, 0., 0., 0., 1.48148146e-02,
          1.48148146e-02, 0., 0., 2.22222209e-02, 7.40740728e-03,
          7.40740728e-03, 7.40740728e-03, 7.40740728e-03, 7.40740728e-03,
          1.48148146e-02, 0., 0., 0., 0., 0., 7.40740728e-03,
          7.40740728e-03, 7.40740728e-03, 2.22222209e-02, 0.,
          7.40740728e-03, 1.48148146e-02, 0., 1.48148146e-02,
          1.48148146e-02, 1.48148146e-02, 0., 0., 0., 7.40740728e-03, 0.,
          3.70370373e-02, 7.40740728e-03, 2.22222209e-02, 7.40740728e-03,
          0., 0., 1.48148146e-02, 7.40740728e-03, 0., 3.70370373e-02, 0.,
          7.40740728e-03, 0., 0., 2.22222209e-02, 1.48148146e-02, 0.,
          7.40740728e-03, 1.48148146e-02, 0., 7.40740728e-03, 0., 0.,
          7.40740728e-03, 7.40740728e-03, 3.70370373e-02, 5.18518500e-02,
          7.40740728e-03, 7.40740728e-03, 0., 2.22222209e-02, 0., 0.,
          1.48148146e-02, 2.22222209e-02, 0., 7.40740728e-03, 0.,
          7.40740728e-03, 0., 2.96296291e-02, 2.96296291e-02 ]
      - [ 0., 1.42857153e-02, 2.85714306e-02, 4.76190494e-03, 0., 0.,
          3.80952395e-02, 0., 4.76190494e-03, 0., 1.42857153e-02, 0.,
          4.76190494e-03, 4.76190494e-03, 0., 1.42857153e-02,
          4.76190494e-03, 2.38095243e-02, 9.52380989e-03, 4.76190494e-03,
          0., 0., 4.76190494e-03, 4.76190494e-03, 2.38095243e-02, 0.,
          1.90476198e-02, 0., 0., 1.42857153e-02, 4.76190494e-03,
          4.76190494e-03, 1.42857153e-02, 0., 9.52380989e-03, 0.,
          1.90476198e-02, 4.76190494e-03, 0., 7.14285746e-02, 0.,
          1.90476198e-02, 4.76190494e-03, 3.33333351e-02, 0., 0.,
          4.76190494e-03, 0., 0., 0., 0., 5.23809530e-02, 0.,
          4.76190494e-03, 3.33333351e-02, 9.52380989e-03, 0., 0.,
          9.52380989e-03, 4.76190494e-03, 1.42857153e-02, 0.,
          1.42857153e-02, 0., 0., 2.85714306e-02, 0., 0., 4.76190494e-03,
          0., 1.42857153e-02, 1.42857153e-02, 2.38095243e-02,
          1.90476198e-02, 0., 0., 0., 9.52380989e-03, 0., 1.90476198e-02,
          9.52380989e-03, 4.76190494e-03, 3.33333351e-02, 4.76190494e-03,
          4.76190494e-03, 4.28571440e-02, 9.52380989e-03, 1.90476198e-02,
          4.76190485e-02, 0., 0., 4.76190494e-03, 0., 0., 3.33333351e-02,
          1.90476198e-02, 0., 1.90476198e-02, 3.80952395e-02,
          4.76190494e-03 ]
      - [ 8.16326495e-03, 4.08163248e-03, 0., 4.08163248e-03,
          8.16326495e-03, 1.63265299e-02, 4.08163257e-02, 2.85714269e-02,
          2.44897939e-02, 4.08163248e-03, 0., 4.08163248e-03,
          4.08163248e-03, 0., 0., 1.22448970e-02, 4.08163248e-03,
          8.16326495e-03, 2.44897939e-02, 2.44897939e-02, 4.08163248e-03,
          0., 8.16326495e-03, 4.08163248e-03, 2.04081628e-02,
          4.08163248e-03, 4.08163248e-03, 4.08163248e-03, 8.16326495e-03,
          2.44897939e-02, 1.22448970e-02, 8.16326495e-03, 8.16326495e-03,
          8.16326495e-03, 8.16326495e-03, 2.44897939e-02, 1.63265299e-02,
          0., 8.16326495e-03, 2.04081628e-02, 8.16326495e-03, 0., 0.,
          8.16326495e-03, 4.08163248e-03, 8.16326495e-03, 4.08163248e-03,
          4.08163248e-03, 4.08163248e-03, 8.16326495e-03, 0.,
          3.67346928e-02, 4.08163248e-03, 0., 4.08163248e-03,
          8.16326495e-03, 8.16326495e-03, 8.16326495e-03, 8.16326495e-03,
          1.22448970e-02, 8.16326495e-03, 1.22448970e-02, 1.22448970e-02,
          0., 4.08163248e-03, 3.26530598e-02, 1.22448970e-02,
          1.22448970e-02, 4.08163248e-03, 0., 8.16326495e-03,
          2.04081628e-02, 1.63265299e-02, 8.16326495e-03, 8.16326495e-03,
          1.63265299e-02, 0., 0., 4.08163248e-03, 8.16326495e-03,
          1.22448970e-02, 0., 1.22448970e-02, 8.16326495e-03,
          4.08163257e-02, 3.26530598e-02, 2.44897939e-02, 2.85714269e-02,
          4.08163257e-02, 4.08163248e-03, 0., 0., 0., 0., 8.16326495e-03,
          1.63265299e-02, 0., 8.16326495e-03, 8.16326495e-03,
          1.22448970e-02 ]
      - [ 2.14285720e-02, 0., 1.07142860e-02, 7.14285718e-03,
          3.57142859e-03, 1.42857144e-02, 7.14285718e-03, 2.85714287e-02,
          3.57142859e-03, 7.14285718e-03, 1.07142860e-02, 3.57142859e-03,
          7.14285718e-03, 0., 3.57142859e-03, 1.78571437e-02,
          7.14285718e-03, 1.42857144e-02, 3.57142859e-03, 3.57142859e-03,
          3.57142859e-03, 1.07142860e-02, 7.14285718e-03, 7.14285718e-03,
          1.07142860e-02, 1.42857144e-02, 1.07142860e-02, 3.57142859e-03,
          1.07142860e-02, 1.07142860e-02, 4.28571440e-02, 3.57142873e-02,
          0., 5.00000007e-02, 1.78571437e-02, 2.14285720e-02,
          7.14285718e-03, 0., 1.07142860e-02, 0., 1.78571437e-02,
          1.07142860e-02, 0., 0., 0., 3.57142859e-03, 7.14285718e-03,
          7.14285718e-03, 7.14285718e-03, 1.07142860e-02, 2.14285720e-02,
          7.14285718e-03, 7.14285718e-03, 0., 7.14285718e-03,
          7.14285718e-03, 1.42857144e-02, 0., 3.57142859e-03,
          2.50000004e-02, 3.57142859e-03, 3.57142859e-03, 3.57142859e-03,
          0., 0., 1.42857144e-02, 2.50000004e-02, 2.50000004e-02,
          3.57142859e-03, 3.57142859e-03, 1.42857144e-02, 0.,
          7.14285718e-03, 1.78571437e-02, 0., 3.57142859e-03,
          3.57142859e-03, 1.42857144e-02, 2.14285720e-02, 1.07142860e-02,
          3.57142859e-03, 1.07142860e-02, 0., 7.14285718e-03,
          1.42857144e-02, 1.78571437e-02, 0., 5.71428575e-02,
          3.57142859e-03, 7.14285718e-03, 3.57142859e-03, 3.57142859e-03,
          3.57142859e-03, 1.42857144e-02, 7.14285718e-03, 0.,
          2.85714287e-02, 2.14285720e-02, 1.07142860e-02, 3.57142859e-03 ]
      - [ 1.00334445e-02, 1.33779263e-02, 0., 0., 1.00334445e-02, 0.,
          1.00334445e-02, 3.01003344e-02, 1.33779263e-02, 6.68896316e-03,
          6.68896316e-03, 1.33779263e-02, 1.67224072e-02, 0.,
          3.34448158e-03, 2.00668890e-02, 3.34448158e-03, 0.,
          3.34448158e-03, 3.01003344e-02, 1.00334445e-02, 0.,
          1.67224072e-02, 2.34113708e-02, 6.68896316e-03, 0.,
          3.34448158e-03, 6.68896316e-03, 3.34448158e-03, 6.68896316e-03,
          3.67892981e-02, 3.34448158e-03, 0., 1.00334445e-02,
          2.00668890e-02, 2.34113708e-02, 1.00334445e-02, 0., 0., 0., 0.,
          0., 0., 1.33779263e-02, 3.34448158e-03, 1.33779263e-02,
          3.34448158e-03, 1.00334445e-02, 2.34113708e-02, 0.,
          1.00334445e-02, 6.68896316e-03, 1.67224072e-02, 6.68896316e-03,
          6.68896316e-03, 0., 2.00668890e-02, 3.34448158e-03,
          3.34448158e-03, 2.67558526e-02, 1.33779263e-02, 3.34448158e-03,
          6.68896316e-03, 1.00334445e-02, 1.67224072e-02, 6.68896316e-03,
          1.33779263e-02, 2.00668890e-02, 0., 6.68896316e-03,
          6.68896316e-03, 1.00334445e-02, 1.33779263e-02, 3.34448158e-03,
          6.68896316e-03, 6.68896316e-03, 3.34448158e-03, 2.00668890e-02,
          6.68896316e-03, 3.34448158e-03, 1.00334445e-02, 3.34448158e-03,
          6.68896316e-03, 3.01003344e-02, 6.68896288e-02, 4.01337780e-02,
          0., 1.00334445e-02, 1.00334445e-02, 3.34448158e-03,
          1.67224072e-02, 1.00334445e-02, 5.35117052e-02, 0., 0.,
          3.34448158e-03, 6.68896316e-03, 3.34448158e-03, 3.34448158e-03,
          6.68896316e-03 ]
      - [ 8.69565178e-03, 0., 1.30434781e-02, 4.34782589e-03, 0., 0.,
          8.26086923e-02, 2.17391290e-02, 1.30434781e-02, 4.34782589e-03,
          4.34782589e-03, 1.30434781e-02, 8.69565178e-03, 0.,
          4.34782589e-03, 3.04347817e-02, 0., 4.34782589e-03,
          1.73913036e-02, 0., 1.30434781e-02, 0., 1.73913036e-02,
          4.34782589e-03, 4.34782589e-03, 8.69565178e-03, 4.34782589e-03,
          8.69565178e-03, 1.30434781e-02, 8.69565178e-03, 1.73913036e-02,
          1.30434781e-02, 0., 4.34782589e-03, 4.34782589e-03,
          2.60869563e-02, 8.69565178e-03, 0., 8.69565178e-03, 0.,
          1.30434781e-02, 1.30434781e-02, 4.34782589e-03, 0.,
          1.30434781e-02, 8.69565178e-03, 0., 0., 0., 4.34782589e-03,
          8.69565178e-03, 2.17391290e-02, 4.34782589e-03, 4.34782589e-03,
          8.69565178e-03, 0., 1.73913036e-02, 4.34782589e-03,
          4.34782589e-03, 2.60869563e-02, 4.34782589e-03, 8.69565178e-03,
          8.69565178e-03, 1.30434781e-02, 8.69565178e-03, 4.34782589e-03,
          8.69565178e-03, 2.17391290e-02, 0., 4.34782589e-03,
          4.34782589e-03, 0., 1.73913036e-02, 6.95652142e-02,
          4.34782589e-03, 4.34782589e-03, 1.30434781e-02, 1.73913036e-02,
          4.34782589e-03, 8.69565178e-03, 1.30434781e-02, 0.,
          8.69565178e-03, 1.30434781e-02, 3.47826071e-02, 6.08695634e-02,
          8.69565178e-03, 2.17391290e-02, 4.34782589e-03, 4.34782589e-03,
          8.69565178e-03, 4.34782589e-03, 0., 0., 0., 4.34782589e-03,
          1.30434781e-02, 1.73913036e-02, 0., 4.34782589e-03 ]
      - [ 6.82593836e-03, 6.82593836e-03, 3.41296918e-03, 6.82593836e-03,
          6.82593836e-03, 0., 2.04778146e-02, 4.77815680e-02,
          1.02389073e-02, 0., 2.04778146e-02, 3.41296918e-03,
          6.82593836e-03, 6.82593836e-03, 1.02389073e-02, 1.70648452e-02,
          0., 6.82593836e-03, 6.82593836e-03, 1.36518767e-02,
          1.02389073e-02, 0., 1.70648452e-02, 1.02389073e-02,
          2.38907840e-02, 3.41296918e-03, 0., 1.36518767e-02,
          6.82593836e-03, 6.82593836e-03, 1.02389073e-02, 3.41296918e-03,
          6.82593836e-03, 6.82593836e-03, 6.82593836e-03, 3.41296918e-03,
          6.82593836e-03, 6.82593836e-03, 0., 6.82593836e-03,
          3.41296918e-03, 3.07167228e-02, 1.36518767e-02, 3.41296918e-03,
          6.82593836e-03, 0., 1.36518767e-02, 3.41296918e-03,
          2.38907840e-02, 6.82593836e-03, 2.38907840e-02, 6.82593836e-03,
          1.70648452e-02, 3.41296918e-03, 1.70648452e-02, 6.82593836e-03,
          3.41296904e-02, 6.82593836e-03, 1.36518767e-02, 2.38907840e-02,
          3.41296918e-03, 3.41296918e-03, 3.41296918e-03, 3.41296918e-03,
          3.41296918e-03, 1.02389073e-02, 6.82593836e-03, 2.04778146e-02,
          3.41296918e-03, 0., 6.82593836e-03, 1.36518767e-02,
          6.82593836e-03, 2.73037534e-02, 1.70648452e-02, 6.82593836e-03,
          1.70648452e-02, 3.75426598e-02, 1.02389073e-02, 1.02389073e-02,
          6.82593836e-03, 1.02389073e-02, 1.70648452e-02, 1.02389073e-02,
          1.70648452e-02, 2.04778146e-02, 3.41296918e-03, 3.07167228e-02,
          3.41296918e-03, 3.41296918e-03, 3.41296918e-03, 1.70648452e-02,
          0., 6.82593836e-03, 3.41296918e-03, 1.02389073e-02,
          6.82593836e-03, 0., 3.41296918e-03, 3.41296918e-03 ]
      - [ 1.29032256e-02, 1.61290318e-02, 1.29032256e-02, 6.45161280e-03,
          3.22580640e-03, 3.22580640e-03, 1.61290318e-02, 3.87096778e-02,
          9.67741944e-03, 3.22580640e-03, 3.22580640e-03, 0.,
          3.22580636e-02, 0., 6.45161280e-03, 2.90322583e-02, 0., 0.,
          3.22580640e-03, 2.58064512e-02, 1.93548389e-02, 0.,
          3.22580640e-03, 9.67741944e-03, 1.29032256e-02, 0., 0., 0.,
          6.45161280e-03, 0., 1.29032256e-02, 0., 9.67741944e-03, 0.,
          1.61290318e-02, 2.90322583e-02, 1.29032256e-02, 0.,
          6.45161280e-03, 1.61290318e-02, 0., 3.22580640e-03, 0., 0.,
          1.29032256e-02, 1.61290318e-02, 3.22580640e-03, 0.,
          1.93548389e-02, 0., 0., 9.67741944e-03, 2.25806441e-02,
          6.45161280e-03, 9.67741944e-03, 9.67741944e-03, 1.29032256e-02,
          0., 1.29032256e-02, 1.29032256e-02, 2.90322583e-02,
          1.29032256e-02, 0., 3.22580640e-03, 6.45161280e-03,
          3.22580640e-03, 6.45161280e-03, 2.90322583e-02, 0.,
          2.58064512e-02, 3.22580640e-03, 3.22580640e-03, 3.22580640e-03,
          6.45161280e-03, 0., 3.22580640e-03, 3.22580640e-03, 0.,
          3.22580640e-03, 6.45161280e-03, 1.29032256e-02, 0.,
          3.22580640e-03, 1.93548389e-02, 1.22580640e-01, 4.19354849e-02,
          1.61290318e-02, 9.67741944e-03, 1.29032256e-02, 3.22580640e-03,
          6.45161280e-03, 9.67741944e-03, 1.29032256e-02, 6.45161280e-03,
          6.45161280e-03, 0., 6.45161280e-03, 2.25806441e-02,
          6.45161280e-03, 3.22580640e-03 ]
      - [ 1.57068074e-02, 5.23560215e-03, 0., 0., 5.23560215e-03,
          6.28272295e-02, 5.23560215e-03, 4.71204184e-02, 0.,
          2.09424086e-02, 5.23560215e-03, 5.23560215e-03, 5.23560215e-03,
          5.23560215e-03, 0., 0., 1.57068074e-02, 0., 5.23560215e-03,
          3.14136147e-02, 5.23560215e-03, 2.09424086e-02, 5.23560215e-03,
          0., 5.23560215e-03, 0., 0., 0., 1.04712043e-02, 1.04712043e-02,
          5.23560215e-03, 3.14136147e-02, 1.57068074e-02, 2.61780098e-02,
          5.23560215e-03, 4.18848172e-02, 1.04712043e-02, 0.,
          5.23560215e-03, 2.09424086e-02, 0., 5.23560215e-03,
          1.04712043e-02, 1.57068074e-02, 0., 5.23560215e-03, 0.,
          1.04712043e-02, 5.23560215e-03, 5.23560215e-03, 0.,
          5.23560215e-03, 5.23560215e-03, 2.09424086e-02, 0., 0., 0.,
          5.23560215e-03, 5.23560215e-03, 0., 5.23560215e-03,
          2.61780098e-02, 5.23560215e-03, 0., 5.23560215e-03,
          1.57068074e-02, 7.85340294e-02, 0., 5.23560215e-03,
          2.61780098e-02, 1.04712043e-02, 0., 0., 1.04712043e-02,
          5.23560215e-03, 5.23560215e-03, 5.23560215e-03, 0.,
          7.32984319e-02, 1.04712043e-02, 0., 0., 5.23560215e-03, 0.,
          2.09424086e-02, 3.14136147e-02, 0., 5.23560215e-03,
          1.04712043e-02, 0., 1.57068074e-02, 0., 1.04712043e-02,
          5.23560215e-03, 0., 2.09424086e-02, 1.04712043e-02,
          5.23560215e-03, 1.04712043e-02, 5.23560215e-03 ]
      - [ 1.96721312e-02, 1.31147541e-02, 3.27868834e-02, 1.31147541e-02,
          1.63934417e-02, 0., 0., 2.29508206e-02, 6.55737706e-03,
          1.63934417e-02, 1.31147541e-02, 1.31147541e-02, 6.55737706e-03,
          0., 3.27868853e-03, 3.27868853e-03, 1.96721312e-02,
          1.63934417e-02, 1.96721312e-02, 0., 1.63934417e-02, 0.,
          1.63934417e-02, 1.31147541e-02, 0., 3.27868853e-03,
          6.55737706e-03, 2.29508206e-02, 1.63934417e-02, 2.29508206e-02,
          0., 0., 2.95081958e-02, 6.55737706e-03, 9.83606558e-03,
          6.55737706e-03, 9.83606558e-03, 2.95081958e-02, 2.29508206e-02,
          2.62295082e-02, 6.55737706e-03, 1.31147541e-02, 2.29508206e-02,
          1.31147541e-02, 3.27868853e-03, 6.55737706e-03, 3.27868853e-03,
          3.27868853e-03, 6.55737706e-03, 9.83606558e-03, 1.63934417e-02,
          9.83606558e-03, 0., 3.27868853e-03, 6.55737706e-03,
          2.62295082e-02, 3.27868853e-03, 9.83606558e-03, 6.55737706e-03,
          0., 1.96721312e-02, 1.31147541e-02, 0., 1.96721312e-02,
          3.27868853e-03, 2.29508206e-02, 3.27868853e-03, 0.,
          9.83606558e-03, 6.55737706e-03, 9.83606558e-03, 1.31147541e-02,
          3.27868853e-03, 6.55737706e-03, 3.27868853e-03, 3.27868853e-03,
          6.55737706e-03, 1.31147541e-02, 3.27868853e-03, 2.29508206e-02,
          3.27868853e-03, 3.27868853e-03, 3.27868853e-03, 0.,
          3.27868853e-03, 3.27868853e-03, 3.27868853e-03, 6.55737706e-03,
          3.27868853e-03, 1.31147541e-02, 6.55737706e-03, 1.96721312e-02,
          6.55737706e-03, 6.55737706e-03, 1.31147541e-02, 1.96721312e-02,
          0., 9.83606558e-03, 1.31147541e-02, 1.31147541e-02 ]
      - [ 1.12994350e-02, 5.64971752e-03, 1.97740123e-02, 7.06214691e-03,
          2.82485876e-02, 2.82485876e-03, 1.55367237e-02, 1.83615815e-02,
          2.82485876e-03, 1.55367237e-02, 2.11864412e-02, 7.06214691e-03,
          0., 4.23728814e-03, 2.82485876e-03, 1.41242938e-03,
          1.41242938e-02, 1.12994350e-02, 2.25988701e-02, 5.64971752e-03,
          9.88700613e-03, 0., 2.82485876e-03, 1.41242938e-03,
          1.12994350e-02, 2.82485876e-03, 1.41242938e-02, 1.41242938e-02,
          1.69491526e-02, 9.88700613e-03, 2.82485876e-03, 8.47457629e-03,
          2.25988701e-02, 1.41242938e-03, 1.12994350e-02, 1.41242938e-03,
          7.06214691e-03, 3.10734473e-02, 1.83615815e-02, 5.64971752e-03,
          2.82485876e-03, 1.12994350e-02, 2.54237279e-02, 1.12994350e-02,
          1.55367237e-02, 5.64971752e-03, 1.41242938e-03, 1.12994350e-02,
          1.41242938e-03, 9.88700613e-03, 9.88700613e-03, 1.12994350e-02,
          1.41242938e-03, 1.69491526e-02, 1.69491526e-02, 1.69491526e-02,
          1.41242938e-03, 1.12994350e-02, 2.96610165e-02, 1.41242938e-03,
          1.55367237e-02, 1.55367237e-02, 1.27118640e-02, 9.88700613e-03,
          1.41242938e-03, 5.64971752e-03, 1.41242938e-03, 1.41242938e-03,
          5.64971752e-03, 2.82485876e-03, 4.23728814e-03, 1.41242938e-02,
          0., 7.06214691e-03, 1.27118640e-02, 4.23728814e-03,
          1.97740123e-02, 0., 1.41242938e-03, 1.27118640e-02, 0.,
          4.23728814e-03, 1.55367237e-02, 7.06214691e-03, 7.06214691e-03,
          3.24858762e-02, 2.25988701e-02, 1.69491526e-02, 1.41242938e-02,
          1.12994350e-02, 8.47457629e-03, 7.06214691e-03, 1.12994350e-02,
          1.55367237e-02, 8.47457629e-03, 8.47457629e-03, 5.64971752e-03,
          1.41242938e-03, 1.41242938e-02, 1.55367237e-02 ]
      - [ 5.64971752e-03, 1.69491526e-02, 2.25988701e-02, 0., 0., 0.,
          1.69491526e-02, 1.69491526e-02, 5.64971752e-03, 3.95480245e-02,
          1.12994350e-02, 1.69491526e-02, 0., 2.82485876e-02,
          1.12994350e-02, 5.64971752e-03, 1.69491526e-02, 2.82485876e-02,
          2.25988701e-02, 0., 0., 5.64971752e-03, 0., 0., 0., 0., 0.,
          1.12994350e-02, 5.64971752e-03, 1.69491526e-02, 1.69491526e-02,
          0., 5.64971752e-03, 0., 0., 0., 1.12994350e-02, 1.69491526e-02,
          1.12994350e-02, 2.25988701e-02, 0., 0., 0., 5.08474559e-02,
          5.64971752e-03, 1.69491526e-02, 5.64971752e-03, 0., 0.,
          1.69491526e-02, 1.12994350e-02, 5.64971752e-03, 0., 0.,
          5.64971752e-03, 1.69491526e-02, 0., 9.60451961e-02,
          2.25988701e-02, 0., 5.64971752e-03, 5.64971752e-03,
          5.64971752e-03, 1.12994350e-02, 0., 5.64971752e-03, 0., 0.,
          2.25988701e-02, 6.21468946e-02, 0., 1.12994350e-02,
          1.12994350e-02, 5.64971752e-03, 0., 0., 1.69491526e-02, 0., 0.,
          1.69491526e-02, 5.64971752e-03, 0., 1.69491526e-02,
          1.12994350e-02, 5.64971752e-03, 1.12994350e-02, 5.64971752e-03,
          1.12994350e-02, 5.64971752e-03, 1.12994350e-02, 2.25988701e-02,
          0., 5.64971752e-03, 2.25988701e-02, 1.12994350e-02,
          2.25988701e-02, 5.64971752e-03, 0., 0., 0. ]
      - [ 6.80272095e-03, 0., 0., 1.70068033e-02, 1.70068033e-02,
          1.56462580e-01, 0., 0., 6.80272095e-03, 1.36054419e-02,
          1.70068033e-02, 2.38095224e-02, 0., 0., 3.40136047e-03,
          3.40136047e-03, 1.36054419e-02, 0., 6.80272095e-03,
          1.36054419e-02, 1.02040814e-02, 6.80272095e-03, 6.80272095e-03,
          3.40136047e-03, 1.02040814e-02, 0., 0., 1.36054419e-02,
          6.80272095e-03, 1.36054419e-02, 0., 2.72108838e-02,
          1.36054419e-02, 1.02040814e-02, 1.36054419e-02, 6.12244904e-02,
          6.80272095e-03, 2.72108838e-02, 6.80272095e-03, 0., 0.,
          1.36054419e-02, 1.02040814e-02, 3.40136047e-03, 6.80272095e-03,
          6.80272095e-03, 1.36054419e-02, 1.70068033e-02, 3.40136047e-03,
          1.02040814e-02, 3.06122452e-02, 0., 1.36054419e-02,
          3.40136066e-02, 3.40136047e-03, 1.70068033e-02, 6.80272095e-03,
          3.40136047e-03, 0., 1.36054419e-02, 0., 0., 3.40136047e-03,
          3.74149643e-02, 1.02040814e-02, 1.70068033e-02, 3.40136047e-03,
          0., 1.36054419e-02, 0., 3.40136047e-03, 0., 6.80272095e-03, 0.,
          1.36054419e-02, 0., 1.70068033e-02, 3.40136047e-03,
          6.80272095e-03, 0., 1.70068033e-02, 1.70068033e-02,
          6.80272095e-03, 0., 0., 0., 6.80272095e-03, 3.40136047e-03, 0.,
          1.36054419e-02, 6.80272095e-03, 3.40136047e-03, 0.,
          1.36054419e-02, 1.02040814e-02, 3.40136047e-03, 6.80272095e-03,
          3.40136047e-03, 0., 6.80272095e-03 ]
      - [ 3.73134320e-03, 3.73134320e-03, 3.73134315e-02, 0.,
          1.11940298e-02, 1.86567158e-02, 0., 0., 3.73134320e-03,
          1.49253728e-02, 6.34328350e-02, 3.73134320e-03, 3.73134320e-03,
          1.00746267e-01, 0., 0., 7.46268639e-03, 1.86567158e-02,
          1.49253728e-02, 0., 3.73134320e-03, 7.46268639e-03,
          3.73134320e-03, 3.73134320e-03, 0., 0., 7.46268639e-03,
          1.11940298e-02, 3.73134320e-03, 1.86567158e-02, 3.73134320e-03,
          0., 5.97014911e-02, 3.73134320e-03, 7.46268639e-03,
          1.86567158e-02, 3.73134320e-03, 3.35820876e-02, 7.46268639e-03,
          4.10447754e-02, 0., 0., 1.49253728e-02, 0., 3.73134320e-03, 0.,
          1.49253728e-02, 3.73134320e-03, 0., 0., 3.73134320e-03,
          3.73134320e-03, 3.73134320e-03, 3.73134320e-03, 0.,
          3.73134320e-03, 0., 1.49253728e-02, 1.86567158e-02, 0.,
          1.49253728e-02, 7.46268639e-03, 3.73134320e-03, 3.73134320e-03,
          3.73134320e-03, 7.46268639e-03, 3.73134320e-03, 7.46268639e-03,
          0., 0., 0., 7.46268639e-03, 0., 7.46268639e-03, 0., 0., 0., 0.,
          0., 2.23880596e-02, 3.73134320e-03, 0., 3.73134320e-03,
          3.73134320e-03, 3.73134320e-03, 1.86567158e-02, 0.,
          4.85074632e-02, 3.73134320e-03, 3.73134320e-03, 0.,
          3.73134320e-03, 0., 2.23880596e-02, 3.73134320e-03,
          5.97014911e-02, 0., 1.49253728e-02, 7.83582106e-02,
          3.73134320e-03 ]
      - [ 2.10526325e-02, 2.10526325e-02, 0., 0., 0., 1.05263162e-02,
          1.05263162e-02, 9.47368443e-02, 0., 1.05263162e-02,
          2.10526325e-02, 5.26315793e-02, 0., 0., 0., 0., 1.05263162e-02,
          1.05263162e-02, 1.05263162e-02, 3.15789506e-02, 1.05263162e-02,
          0., 0., 0., 0., 0., 0., 1.05263162e-02, 0., 0., 1.05263162e-02,
          0., 0., 0., 0., 0., 2.10526325e-02, 0., 0., 0., 1.05263162e-02,
          0., 0., 2.10526325e-02, 1.05263162e-02, 0., 0., 0., 0.,
          2.10526325e-02, 0., 1.05263162e-02, 0., 1.05263162e-02, 0., 0.,
          0., 0., 2.10526325e-02, 1.05263162e-02, 3.15789506e-02,
          3.15789506e-02, 1.05263162e-02, 2.10526325e-02, 0.,
          1.05263162e-02, 1.05263162e-02, 0., 0., 2.10526325e-02, 0.,
          1.05263162e-02, 0., 0., 0., 0., 1.05263162e-02, 0.,
          1.05263162e-02, 1.05263162e-02, 0., 0., 0., 1.05263162e-02,
          1.05263159e-01, 3.15789506e-02, 2.10526325e-02, 0., 0., 0., 0.,
          0., 1.15789481e-01, 2.10526325e-02, 2.10526325e-02, 0., 0.,
          1.05263162e-02, 1.05263162e-02, 0. ]
      - [ 1.92307699e-02, 6.41025649e-03, 0., 0., 0., 0., 6.41025649e-03,
          6.41025677e-02, 3.20512839e-02, 3.20512839e-02, 0., 0.,
          1.28205130e-02, 1.28205130e-02, 6.41025649e-03, 0.,
          1.92307699e-02, 2.56410260e-02, 0., 2.56410260e-02, 0.,
          6.41025649e-03, 0., 6.41025649e-03, 0., 0., 0., 1.28205130e-02,
          6.41025649e-03, 7.05128238e-02, 1.28205130e-02, 0.,
          6.41025649e-03, 0., 6.41025649e-03, 6.41025649e-03,
          5.76923080e-02, 0., 1.28205130e-02, 6.41025649e-03, 0., 0.,
          1.28205130e-02, 1.92307699e-02, 1.92307699e-02, 6.41025649e-03,
          0., 0., 6.41025649e-03, 0., 0., 6.41025649e-03, 0.,
          6.41025649e-03, 0., 0., 0., 1.28205130e-02, 6.41025649e-03, 0.,
          3.20512839e-02, 6.41025649e-03, 1.28205130e-02, 1.28205130e-02,
          0., 0., 6.41025649e-03, 0., 0., 2.56410260e-02, 6.41025649e-03,
          3.84615399e-02, 2.56410260e-02, 0., 6.41025649e-03, 0.,
          1.28205130e-02, 0., 6.41025649e-03, 2.56410260e-02, 0., 0.,
          6.41025649e-03, 2.56410260e-02, 5.12820520e-02, 0., 0.,
          6.41025649e-03, 1.28205130e-02, 6.41025649e-03, 6.41025649e-03,
          1.92307699e-02, 1.28205130e-02, 1.92307699e-02, 0.,
          3.20512839e-02, 0., 0., 1.28205130e-02, 0. ]
      - [ 1.54639166e-02, 5.15463902e-03, 2.31958758e-02, 2.57731951e-03,
          5.15463902e-03, 0., 3.35051529e-02, 3.09278332e-02,
          1.28865978e-02, 7.73195829e-03, 4.38144319e-02, 0.,
          5.15463902e-03, 1.80412363e-02, 5.15463902e-03, 5.15463902e-03,
          1.54639166e-02, 1.03092780e-02, 1.03092780e-02, 7.73195829e-03,
          1.03092780e-02, 2.57731951e-03, 2.57731951e-03, 1.03092780e-02,
          1.54639166e-02, 2.57731951e-03, 5.15463902e-03, 7.73195829e-03,
          2.57731951e-03, 2.57731951e-03, 5.15463902e-03, 2.57731951e-03,
          1.54639166e-02, 5.15463902e-03, 7.73195829e-03, 0.,
          1.54639166e-02, 1.80412363e-02, 2.06185561e-02, 1.54639166e-02,
          0., 1.03092780e-02, 1.03092780e-02, 1.03092780e-02,
          1.54639166e-02, 2.57731951e-03, 7.73195829e-03, 1.03092780e-02,
          0., 1.28865978e-02, 4.63917516e-02, 7.73195829e-03, 0.,
          7.73195829e-03, 3.86597924e-02, 0., 7.73195829e-03,
          4.38144319e-02, 1.03092780e-02, 1.03092780e-02, 5.15463902e-03,
          5.15463902e-03, 2.06185561e-02, 7.73195829e-03, 2.57731951e-03,
          2.57731951e-03, 0., 0., 2.57731951e-03, 0., 5.15463902e-03,
          1.03092780e-02, 5.15463902e-03, 1.28865978e-02, 2.06185561e-02,
          5.15463902e-03, 7.73195829e-03, 1.03092780e-02, 2.57731951e-03,
          7.73195829e-03, 5.15463902e-03, 7.73195829e-03, 1.54639166e-02,
          0., 1.03092780e-02, 0., 1.80412363e-02, 4.89690714e-02,
          7.73195829e-03, 5.15463902e-03, 5.15463902e-03, 1.03092780e-02,
          2.57731951e-03, 1.28865978e-02, 7.73195829e-03, 2.06185561e-02,
          0., 7.73195829e-03, 0., 2.57731951e-03 ]
      - [ 3.84615385e-03, 7.69230770e-03, 3.84615399e-02, 3.84615385e-03,
          7.69230770e-03, 0., 1.15384618e-02, 2.69230772e-02, 0.,
          7.69230770e-03, 2.69230772e-02, 7.69230770e-03, 7.69230770e-03,
          7.69230770e-03, 0., 7.69230770e-03, 0., 1.15384618e-02,
          1.53846154e-02, 7.69230770e-03, 3.84615385e-03, 3.84615385e-03,
          0., 0., 4.23076935e-02, 0., 3.84615385e-03, 3.84615385e-03, 0.,
          0., 0., 0., 1.15384618e-02, 0., 7.69230770e-03, 0.,
          3.84615385e-03, 7.69230770e-03, 7.69230770e-03, 4.23076935e-02,
          0., 3.84615399e-02, 7.69230770e-03, 3.84615385e-03,
          7.69230770e-03, 7.69230770e-03, 1.15384618e-02, 3.84615385e-03,
          3.84615385e-03, 0., 0., 1.53846154e-02, 0., 3.84615385e-03,
          4.61538471e-02, 0., 0., 1.92307699e-02, 1.53846154e-02, 0.,
          3.84615385e-03, 7.69230770e-03, 2.30769236e-02, 3.84615385e-03,
          0., 1.15384618e-02, 0., 3.84615385e-03, 0., 7.69230770e-03,
          3.84615385e-03, 1.53846154e-02, 0., 1.15384618e-02,
          7.69230770e-03, 0., 1.92307699e-02, 0., 0., 0., 0.,
          1.53846154e-02, 1.92307699e-02, 7.69230770e-03, 4.23076935e-02,
          1.92307699e-02, 1.92307699e-02, 1.19230770e-01, 1.92307699e-02,
          3.84615385e-03, 7.69230770e-03, 0., 3.84615385e-03,
          1.53846154e-02, 2.30769236e-02, 2.30769236e-02, 3.84615385e-03,
          3.84615385e-03, 1.15384618e-02, 0. ]
