%YAML:1.0
---
opencv_ml_svm:
   format: 3
   svmType: C_SVC
   kernel:
      type: LINEAR
   C: 6.2500000000000000e+01
   term_criteria: { iterations:100 }
   var_count: 100
   class_count: 2
   class_labels: !!opencv-matrix
      rows: 2
      cols: 1
      dt: i
      data: [ 0, 1 ]
   sv_total: 1
   support_vectors:
      - [ 3.76482773e+00, 3.32766795e+00, 3.24986339e+00,
          -3.96837211e+00, -8.62954426e+00, 2.40680432e+00,
          4.26302624e+00, 1.82974130e-01, 4.74632549e+00, 5.37667513e+00,
          2.06138968e+00, 3.25126338e+00, -4.44602442e+00,
          2.42451859e+00, 2.11119437e+00, 6.63435936e+00, 1.03536999e+00,
          -4.82303715e+00, -3.06874299e+00, -3.48233104e+00,
          -1.48176470e+01, -6.75638914e-01, 5.94763994e-01,
          2.04933023e+00, 4.41291904e+00, 2.66137624e+00,
          -4.98316097e+00, 3.62322164e+00, -4.30219221e+00,
          -2.93157458e+00, 1.34062123e+00, 3.97938848e+00,
          -1.95624197e+00, 5.27837372e+00, -2.01415110e+00,
          8.41837215e+00, 4.39786196e+00, -4.81701946e+00,
          -3.57378274e-01, 2.52442265e+00, 5.23960638e+00,
          5.56245470e+00, -7.74532318e+00, -4.33849669e+00,
          7.85655737e+00, 1.40153146e+00, 6.02399826e-01,
          -1.13374317e+00, -1.75987756e+00, -1.15672483e+01,
          5.08105516e+00, 4.73333120e+00, -5.31824493e+00,
          -1.47660422e+00, 7.02672625e+00, 1.88945127e+00,
          5.88508749e+00, 6.94789028e+00, 1.99599802e+00, 5.83297157e+00,
          1.14180613e+00, 2.31981730e+00, -4.62802649e+00,
          -1.28404129e+00, 3.07491231e+00, -1.31934476e+00,
          3.77742338e+00, 3.81687641e+00, -2.78008914e+00,
          7.07820654e+00, -1.07079582e+01, -2.56711555e+00,
          6.33194065e+00, 3.37961388e+00, -1.02681316e-01,
          2.56622148e+00, 2.33948445e+00, 3.31287766e+00, 1.32499087e+00,
          -8.02406967e-01, -3.11274648e-01, -3.06086302e+00,
          -7.43137026e+00, 3.69881511e-01, -3.73979545e+00,
          6.22466707e+00, -3.60966659e+00, -1.85327113e+00,
          -5.78536987e-01, -1.18531809e+01, -6.23270655e+00,
          -7.64034462e+00, -3.31817007e+00, 4.04797459e+00,
          -6.82280159e+00, -4.63068104e+00, -4.33281803e+00,
          -9.55202937e-01, 1.36138654e+00, -7.46510839e+00 ]
   uncompressed_sv_total: 126
   uncompressed_support_vectors:
      - [ 4.85436898e-03, 1.21359224e-03, 2.30582524e-02, 7.28155347e-03,
          8.49514548e-03, 2.42718458e-02, 2.30582524e-02, 6.06796145e-03,
          9.70873795e-03, 1.21359224e-03, 2.91262139e-02, 4.85436898e-03,
          1.21359224e-03, 1.00728154e-01, 4.85436898e-03, 0., 0.,
          1.82038844e-02, 8.49514548e-03, 3.64077673e-03, 1.21359224e-03,
          1.05582528e-01, 3.64077673e-03, 1.21359224e-03, 3.64077673e-03,
          1.33495145e-02, 7.28155347e-03, 7.28155347e-03, 1.57766994e-02,
          6.06796145e-03, 2.42718449e-03, 6.06796145e-03, 4.85436898e-03,
          7.28155347e-03, 6.06796145e-03, 3.64077673e-03, 3.64077673e-03,
          8.49514548e-03, 2.42718449e-03, 1.09223304e-02, 1.94174759e-02,
          4.00485434e-02, 1.69902910e-02, 1.69902910e-02, 2.42718449e-03,
          6.06796145e-03, 1.09223304e-02, 6.06796145e-03, 1.21359224e-03,
          7.28155347e-03, 8.49514548e-03, 7.28155347e-03, 7.28155347e-03,
          1.09223304e-02, 1.21359229e-02, 1.33495145e-02, 1.21359224e-03,
          1.21359229e-02, 1.69902910e-02, 1.21359224e-03, 7.28155347e-03,
          4.85436898e-03, 6.06796145e-03, 9.70873795e-03, 0.,
          1.21359229e-02, 4.85436898e-03, 1.21359224e-03, 7.28155347e-03,
          2.42718449e-03, 6.06796145e-03, 1.09223304e-02, 6.06796145e-03,
          9.70873795e-03, 2.42718449e-03, 9.70873795e-03, 1.21359224e-03,
          2.54854374e-02, 2.42718449e-03, 7.28155347e-03, 3.64077673e-03,
          6.06796145e-03, 1.82038844e-02, 2.42718449e-03, 3.64077673e-03,
          1.45631069e-02, 1.33495145e-02, 1.09223304e-02, 3.64077673e-03,
          1.94174759e-02, 3.64077673e-03, 4.85436898e-03, 2.42718449e-03,
          1.21359229e-02, 4.85436898e-03, 9.70873795e-03, 2.42718449e-03,
          1.21359224e-03, 1.21359224e-03, 4.85436898e-03 ]
      - [ 2.05338816e-03, 6.16016425e-03, 2.05338816e-03, 8.21355265e-03,
          1.02669410e-02, 1.02669410e-02, 1.23203285e-02, 3.90143767e-02,
          1.43737169e-02, 2.05338816e-03, 4.10677632e-03, 1.43737169e-02,
          4.10677632e-03, 0., 6.16016425e-03, 1.43737169e-02,
          6.16016425e-03, 6.16016425e-03, 2.05338816e-03, 2.25872695e-02,
          2.87474338e-02, 2.05338816e-03, 8.21355265e-03, 1.23203285e-02,
          6.16016425e-03, 1.23203285e-02, 1.84804928e-02, 2.05338816e-03,
          0., 6.16016425e-03, 6.16016425e-03, 2.66940463e-02,
          6.16016425e-03, 1.43737169e-02, 1.02669410e-02, 2.25872695e-02,
          6.16016425e-03, 6.16016425e-03, 6.16016425e-03, 1.02669410e-02,
          1.23203285e-02, 6.16016425e-03, 6.16016425e-03, 6.16016425e-03,
          4.10677632e-03, 8.21355265e-03, 6.16016425e-03, 1.02669410e-02,
          1.02669410e-02, 1.43737169e-02, 2.05338821e-02, 4.10677632e-03,
          1.02669410e-02, 4.10677632e-03, 4.10677632e-03, 0.,
          6.16016425e-03, 2.25872695e-02, 2.05338816e-03, 4.10677632e-03,
          4.10677632e-03, 2.05338816e-03, 4.10677632e-03, 1.43737169e-02,
          1.43737169e-02, 8.21355265e-03, 2.05338816e-03, 6.16016425e-03,
          8.21355265e-03, 1.02669410e-02, 1.64271053e-02, 4.10677632e-03,
          1.84804928e-02, 8.21355265e-03, 8.21355265e-03, 2.25872695e-02,
          8.21355265e-03, 3.08008231e-02, 2.05338816e-03, 2.05338816e-03,
          1.64271053e-02, 8.21355265e-03, 6.16016425e-03, 8.21355265e-03,
          5.33880927e-02, 1.23203285e-02, 2.66940463e-02, 4.10677632e-03,
          6.16016425e-03, 4.10677632e-03, 1.43737169e-02, 8.21355265e-03,
          1.23203285e-02, 0., 2.05338816e-03, 2.05338816e-03,
          4.51745391e-02, 0., 2.05338816e-03, 1.23203285e-02 ]
      - [ 8.36120360e-03, 1.83946490e-02, 6.68896316e-03, 1.67224072e-02,
          1.67224079e-03, 5.01672225e-03, 1.67224072e-02, 3.17725763e-02,
          1.67224079e-03, 8.36120360e-03, 8.36120360e-03, 1.67224072e-02,
          5.01672225e-03, 0., 1.17056854e-02, 1.17056854e-02,
          8.36120360e-03, 1.33779263e-02, 8.36120360e-03, 1.17056854e-02,
          1.33779263e-02, 1.33779263e-02, 3.34448158e-03, 3.34448158e-03,
          1.33779263e-02, 0., 6.68896316e-03, 3.34448158e-03,
          1.33779263e-02, 1.50501672e-02, 1.83946490e-02, 3.34448158e-03,
          3.34448158e-03, 5.01672225e-03, 1.00334445e-02, 1.17056854e-02,
          1.33779263e-02, 1.00334445e-02, 5.01672225e-03, 3.34448158e-03,
          0., 1.67224072e-02, 3.34448158e-03, 8.36120360e-03,
          1.50501672e-02, 1.00334445e-02, 6.68896316e-03, 1.00334445e-02,
          3.34448158e-03, 8.36120360e-03, 3.01003344e-02, 1.67224079e-03,
          1.00334445e-02, 8.36120360e-03, 2.00668890e-02, 1.67224072e-02,
          5.01672225e-03, 6.68896316e-03, 1.33779263e-02, 1.67224079e-03,
          1.67224079e-03, 8.36120360e-03, 1.67224079e-03, 1.00334445e-02,
          3.34448158e-03, 6.68896316e-03, 5.01672225e-03, 1.67224072e-02,
          1.00334445e-02, 1.83946490e-02, 5.01672225e-03, 2.00668890e-02,
          5.01672225e-03, 1.00334445e-02, 6.68896316e-03, 8.36120360e-03,
          6.68896316e-03, 6.68896316e-03, 3.34448158e-03, 1.33779263e-02,
          5.01672225e-03, 6.68896316e-03, 8.36120360e-03, 1.17056854e-02,
          3.34448144e-02, 3.84615399e-02, 1.33779263e-02, 1.67224079e-03,
          5.01672225e-03, 1.33779263e-02, 2.17391308e-02, 1.67224072e-02,
          2.00668890e-02, 6.68896316e-03, 8.36120360e-03, 6.68896316e-03,
          1.17056854e-02, 1.17056854e-02, 8.36120360e-03, 8.36120360e-03 ]
      - [ 8.92857183e-03, 7.14285718e-03, 8.92857183e-03, 1.42857144e-02,
          1.25000002e-02, 1.78571430e-03, 1.78571437e-02, 1.42857144e-02,
          2.50000004e-02, 3.57142859e-03, 1.07142860e-02, 1.07142860e-02,
          3.57142859e-03, 5.35714300e-03, 1.42857144e-02, 7.14285718e-03,
          5.35714300e-03, 5.35714300e-03, 7.14285718e-03, 1.60714295e-02,
          1.78571430e-03, 0., 3.57142859e-03, 7.14285718e-03,
          8.92857183e-03, 2.50000004e-02, 3.57142859e-03, 8.92857183e-03,
          7.14285718e-03, 1.07142860e-02, 5.35714300e-03, 1.42857144e-02,
          1.42857144e-02, 7.14285718e-03, 1.25000002e-02, 5.35714300e-03,
          1.42857144e-02, 3.57142859e-03, 1.60714295e-02, 3.57142859e-03,
          2.14285720e-02, 8.92857183e-03, 5.35714300e-03, 8.92857183e-03,
          1.42857144e-02, 3.57142859e-03, 1.60714295e-02, 1.25000002e-02,
          7.14285718e-03, 8.92857183e-03, 5.35714300e-03, 1.25000002e-02,
          8.92857183e-03, 1.42857144e-02, 1.25000002e-02, 1.07142860e-02,
          3.57142859e-03, 2.50000004e-02, 1.42857144e-02, 7.14285718e-03,
          1.25000002e-02, 5.35714300e-03, 1.96428578e-02, 1.78571437e-02,
          3.57142859e-03, 3.57142859e-03, 3.57142859e-03, 8.92857183e-03,
          3.57142859e-03, 8.92857183e-03, 1.25000002e-02, 1.07142860e-02,
          2.67857146e-02, 8.92857183e-03, 0., 1.07142860e-02,
          5.35714300e-03, 1.78571430e-03, 0., 1.60714295e-02,
          3.57142859e-03, 3.57142859e-03, 2.67857146e-02, 5.35714300e-03,
          2.32142862e-02, 1.60714295e-02, 1.78571430e-03, 1.60714295e-02,
          7.14285718e-03, 7.14285718e-03, 1.60714295e-02, 1.42857144e-02,
          1.07142860e-02, 1.07142860e-02, 1.25000002e-02, 1.42857144e-02,
          5.35714300e-03, 7.14285718e-03, 1.42857144e-02, 8.92857183e-03 ]
      - [ 2.04498973e-03, 4.08997945e-03, 2.04498973e-03, 8.17995891e-03,
          2.04498973e-03, 1.63599178e-02, 0., 5.72597124e-02,
          8.17995891e-03, 1.22699384e-02, 2.04498973e-03, 2.04498973e-02,
          6.13496918e-03, 1.22699384e-02, 2.04498973e-03, 2.45398767e-02,
          1.22699384e-02, 1.84049085e-02, 8.17995891e-03, 6.13496918e-03,
          8.17995891e-03, 2.04498973e-03, 6.13496918e-03, 8.17995891e-03,
          0., 6.13496918e-03, 4.08997945e-03, 2.04498973e-02,
          1.02249486e-02, 1.02249486e-02, 2.04498973e-03, 2.04498973e-03,
          1.43149281e-02, 2.04498973e-03, 1.02249486e-02, 2.86298562e-02,
          8.17995891e-03, 1.02249486e-02, 1.43149281e-02, 6.13496918e-03,
          8.17995891e-03, 0., 2.04498973e-03, 1.02249486e-02,
          1.84049085e-02, 0., 1.02249486e-02, 2.04498973e-03,
          1.22699384e-02, 6.13496918e-03, 2.45398767e-02, 2.04498973e-03,
          1.02249486e-02, 2.04498973e-02, 1.63599178e-02, 0.,
          8.17995891e-03, 4.08997945e-03, 2.04498973e-03, 6.13496918e-03,
          2.04498973e-03, 4.08997945e-03, 1.02249486e-02, 1.22699384e-02,
          1.02249486e-02, 8.17995891e-03, 4.08997945e-03, 6.13496918e-03,
          8.17995891e-03, 5.11247441e-02, 1.43149281e-02, 2.04498973e-03,
          1.02249486e-02, 1.43149281e-02, 4.08997945e-03, 1.02249486e-02,
          1.22699384e-02, 0., 4.08997945e-03, 8.17995891e-03,
          8.17995891e-03, 6.13496918e-03, 1.02249486e-02, 6.13496918e-03,
          6.13496900e-02, 4.08997945e-03, 8.17995891e-03, 8.17995891e-03,
          2.04498973e-03, 8.17995891e-03, 3.68098170e-02, 8.17995891e-03,
          8.17995891e-03, 6.13496918e-03, 4.08997945e-03, 8.17995891e-03,
          1.63599178e-02, 1.43149281e-02, 0., 1.63599178e-02 ]
      - [ 1.23966932e-02, 5.16528916e-03, 1.96280982e-02, 7.23140454e-03,
          4.13223123e-03, 9.29751992e-03, 2.16942132e-02, 4.13223123e-03,
          1.03305783e-02, 1.85950398e-02, 5.57851233e-02, 2.27272715e-02,
          4.13223123e-03, 3.09917331e-03, 1.34297516e-02, 6.19834661e-03,
          5.16528916e-03, 1.54958675e-02, 5.16528916e-03, 1.13636358e-02,
          7.23140454e-03, 7.23140454e-03, 6.19834661e-03, 4.13223123e-03,
          5.16528916e-03, 4.13223123e-03, 2.06611562e-03, 6.19834661e-03,
          5.16528916e-03, 1.03305783e-02, 3.09917331e-03, 3.40909064e-02,
          1.34297516e-02, 2.99586765e-02, 6.19834661e-03, 7.23140454e-03,
          1.54958675e-02, 8.26446246e-03, 7.23140454e-03, 9.29751992e-03,
          2.06611562e-03, 8.26446246e-03, 2.06611562e-03, 1.75619833e-02,
          2.06611562e-03, 1.13636358e-02, 1.96280982e-02, 6.19834661e-03,
          1.03305781e-03, 7.23140454e-03, 6.19834661e-03, 9.29751992e-03,
          4.13223123e-03, 1.23966932e-02, 1.13636358e-02, 1.23966932e-02,
          0., 2.16942132e-02, 1.03305783e-02, 3.09917331e-03,
          1.34297516e-02, 1.13636358e-02, 4.13223123e-03, 1.03305783e-02,
          2.06611562e-03, 2.47933865e-02, 7.23140454e-03, 5.16528916e-03,
          5.16528916e-03, 2.06611562e-03, 2.06611562e-03, 1.96280982e-02,
          4.13223123e-03, 9.29751992e-03, 4.13223123e-03, 0.,
          7.23140454e-03, 5.16528916e-03, 1.03305781e-03, 1.34297516e-02,
          3.09917331e-03, 6.19834661e-03, 5.16528916e-03, 5.16528916e-03,
          5.16528916e-03, 1.34297516e-02, 4.13223123e-03, 4.75206599e-02,
          1.03305783e-02, 2.47933865e-02, 1.03305783e-02, 4.13223123e-03,
          7.23140454e-03, 8.26446246e-03, 1.85950398e-02, 2.68595032e-02,
          7.23140454e-03, 1.03305783e-02, 1.03305783e-02, 4.13223123e-03 ]
      - [ 6.64451811e-03, 1.32890362e-02, 3.32225906e-03, 2.65780725e-02,
          3.32225906e-03, 6.64451811e-03, 6.64451811e-03, 2.32558139e-02,
          1.32890362e-02, 9.96677764e-03, 3.32225906e-03, 3.32225906e-03,
          0., 1.66112948e-02, 0., 1.99335553e-02, 1.99335553e-02,
          1.32890362e-02, 3.32225906e-03, 6.64451811e-03, 3.32225906e-03,
          2.99003311e-02, 6.64451811e-03, 3.32225906e-03, 6.64451811e-03,
          3.32225906e-03, 6.64451811e-03, 3.32225906e-03, 9.96677764e-03,
          1.32890362e-02, 6.64451811e-03, 0., 1.66112948e-02, 0.,
          1.66112948e-02, 0., 1.99335553e-02, 0., 6.64451811e-03,
          1.32890362e-02, 3.32225906e-03, 2.65780725e-02, 3.32225906e-03,
          9.96677764e-03, 3.32225906e-03, 3.32225906e-03, 2.32558139e-02,
          0., 0., 0., 1.66112948e-02, 2.32558139e-02, 0., 0.,
          3.32225906e-03, 3.32225906e-03, 0., 9.96677764e-03,
          4.98338863e-02, 0., 6.64451811e-03, 6.64451811e-03,
          1.99335553e-02, 0., 1.66112948e-02, 9.96677764e-03,
          9.96677764e-03, 9.96677764e-03, 6.64451811e-03, 6.64451811e-03,
          6.64451811e-03, 6.64451811e-03, 2.32558139e-02, 6.64451811e-03,
          0., 9.96677764e-03, 3.32225906e-03, 3.32225906e-03,
          9.96677764e-03, 1.32890362e-02, 6.64451811e-03, 9.96677764e-03,
          9.96677764e-03, 2.99003311e-02, 3.98671106e-02, 9.96677764e-03,
          1.32890362e-02, 6.64451811e-03, 1.99335553e-02, 9.96677764e-03,
          3.32225906e-03, 1.66112948e-02, 6.64451811e-03, 9.96677764e-03,
          1.66112948e-02, 1.32890362e-02, 2.32558139e-02, 1.66112948e-02,
          1.66112948e-02, 0. ]
      - [ 1.48514854e-02, 6.60066027e-03, 2.64026411e-02, 6.60066027e-03,
          1.48514854e-02, 4.95049544e-03, 2.31023114e-02, 1.48514854e-02,
          1.65016502e-02, 4.95049544e-03, 2.64026411e-02, 6.60066027e-03,
          1.65016507e-03, 1.65016502e-02, 4.95049544e-03, 8.25082511e-03,
          6.60066027e-03, 8.25082511e-03, 1.98019817e-02, 3.30033014e-03,
          1.65016507e-03, 1.15511557e-02, 3.30033014e-03, 1.65016507e-03,
          1.65016507e-03, 1.48514854e-02, 4.95049544e-03, 9.90099087e-03,
          3.30033014e-03, 1.32013205e-02, 3.30033014e-03, 1.48514854e-02,
          1.81518160e-02, 9.90099087e-03, 1.65016507e-03, 3.30033014e-03,
          1.32013205e-02, 2.31023114e-02, 3.30033014e-03, 8.25082511e-03,
          2.31023114e-02, 0., 6.60066027e-03, 1.32013205e-02,
          8.25082511e-03, 1.65016507e-03, 3.30033014e-03, 8.25082511e-03,
          0., 4.95049544e-03, 4.95049544e-03, 1.98019817e-02,
          9.90099087e-03, 1.15511557e-02, 3.30033014e-03, 8.25082511e-03,
          0., 2.97029708e-02, 1.81518160e-02, 0., 2.64026411e-02,
          9.90099087e-03, 1.15511557e-02, 9.90099087e-03, 8.25082511e-03,
          8.25082511e-03, 3.30033014e-03, 3.30033014e-03, 6.60066027e-03,
          3.30033014e-03, 8.25082511e-03, 2.47524753e-02, 2.31023114e-02,
          3.30033014e-03, 1.65016507e-03, 4.95049544e-03, 8.25082511e-03,
          1.65016507e-03, 1.65016507e-03, 8.25082511e-03, 1.65016507e-03,
          6.60066027e-03, 1.32013205e-02, 1.15511557e-02, 4.45544571e-02,
          1.81518160e-02, 9.90099087e-03, 2.80528069e-02, 9.90099087e-03,
          4.95049544e-03, 1.65016507e-03, 2.97029708e-02, 6.60066027e-03,
          1.48514854e-02, 8.25082511e-03, 2.64026411e-02, 1.65016507e-03,
          1.65016507e-03, 8.25082511e-03, 0. ]
      - [ 1.21951215e-02, 2.43902439e-03, 2.68292688e-02, 1.70731712e-02,
          9.75609757e-03, 7.31707318e-03, 4.87804879e-03, 0.,
          4.87804879e-03, 5.36585376e-02, 1.46341464e-02, 4.87804879e-03,
          2.43902439e-03, 2.43902439e-03, 2.43902439e-03, 0.,
          3.17073166e-02, 4.87804879e-03, 7.31707318e-03, 4.87804879e-03,
          9.75609757e-03, 2.43902439e-03, 9.75609757e-03, 1.21951215e-02,
          4.87804879e-03, 2.19512191e-02, 7.31707318e-03, 2.43902439e-03,
          1.95121951e-02, 1.70731712e-02, 2.43902439e-03, 1.46341464e-02,
          1.95121951e-02, 1.95121951e-02, 1.21951215e-02, 4.87804879e-03,
          1.21951215e-02, 2.43902439e-03, 2.68292688e-02, 2.43902439e-03,
          1.21951215e-02, 3.17073166e-02, 0., 1.46341464e-02,
          2.43902439e-03, 2.43902439e-03, 2.43902439e-03, 4.87804879e-03,
          2.43902439e-03, 4.87804879e-03, 1.21951215e-02, 2.19512191e-02,
          0., 7.31707318e-03, 7.31707318e-03, 7.31707318e-03,
          9.75609757e-03, 7.31707318e-03, 1.46341464e-02, 7.31707318e-03,
          1.46341464e-02, 7.31707318e-03, 1.95121951e-02, 7.31707318e-03,
          4.87804879e-03, 1.95121951e-02, 0., 2.43902439e-03,
          7.31707318e-03, 4.87804879e-03, 2.43902439e-03, 1.70731712e-02,
          0., 7.31707318e-03, 4.87804879e-03, 4.87804879e-03,
          7.31707318e-03, 4.87804879e-03, 2.43902439e-03, 2.68292688e-02,
          4.87804879e-03, 7.31707318e-03, 1.95121951e-02, 4.87804879e-03,
          2.92682927e-02, 2.19512191e-02, 9.75609757e-03, 1.70731712e-02,
          1.46341464e-02, 4.87804879e-03, 9.75609757e-03, 1.46341464e-02,
          0., 1.46341464e-02, 1.70731712e-02, 2.19512191e-02, 0., 0.,
          7.31707318e-03, 2.43902439e-03 ]
      - [ 9.90098994e-03, 9.90098994e-03, 4.95049497e-03, 9.90098994e-03,
          0., 0., 1.98019799e-02, 5.94059378e-02, 4.95049497e-03,
          9.90098994e-03, 9.90098994e-03, 9.90098994e-03, 4.95049497e-03,
          4.95049497e-03, 4.95049497e-03, 9.90098994e-03, 2.47524753e-02,
          1.98019799e-02, 9.90098994e-03, 4.95049497e-03, 0., 0.,
          4.95049497e-03, 4.95049497e-03, 0., 0., 1.48514844e-02,
          9.90098994e-03, 9.90098994e-03, 2.47524753e-02, 1.98019799e-02,
          1.48514844e-02, 1.48514844e-02, 0., 1.48514844e-02, 0.,
          1.98019799e-02, 0., 1.48514844e-02, 0., 0., 0., 9.90098994e-03,
          1.48514844e-02, 0., 0., 0., 1.98019799e-02, 0., 9.90098994e-03,
          4.95049497e-03, 9.90098994e-03, 4.95049497e-03, 4.95049497e-03,
          0., 0., 4.95049497e-03, 9.90098994e-03, 0., 4.95049497e-03,
          1.98019799e-02, 9.90098994e-03, 2.47524753e-02, 4.95049497e-03,
          4.95049497e-03, 1.48514844e-02, 0., 9.90098994e-03,
          1.48514844e-02, 1.48514844e-02, 1.48514844e-02, 4.45544533e-02,
          0., 0., 4.95049497e-03, 4.95049497e-03, 0., 0., 0.,
          1.48514844e-02, 9.90098994e-03, 9.90098994e-03, 3.46534662e-02,
          2.97029689e-02, 5.94059378e-02, 4.95049497e-03, 9.90098994e-03,
          4.95049497e-03, 0., 9.90098994e-03, 1.48514844e-02,
          9.90098994e-03, 2.97029689e-02, 0., 1.48514844e-02,
          9.90098994e-03, 4.95049497e-03, 9.90098994e-03, 4.95049497e-03,
          2.47524753e-02 ]
      - [ 6.80272095e-03, 6.80272095e-03, 6.80272095e-03, 6.80272095e-03,
          0., 0., 3.40136066e-02, 6.80272095e-03, 0., 1.36054419e-02,
          6.80272095e-03, 0., 0., 6.80272095e-03, 0., 0., 6.80272095e-03,
          6.80272095e-03, 2.72108838e-02, 0., 6.80272095e-03, 0.,
          6.80272095e-03, 6.80272095e-03, 0., 6.80272095e-03,
          6.80272095e-03, 0., 0., 1.36054419e-02, 1.36054419e-02, 0.,
          2.04081628e-02, 6.80272095e-03, 3.40136066e-02, 0., 0.,
          6.80272095e-03, 2.04081628e-02, 2.72108838e-02, 0., 0.,
          6.80272095e-03, 6.80272095e-03, 0., 0., 0., 0., 0., 0.,
          6.80272095e-03, 1.36054419e-02, 0., 0., 6.80272095e-03,
          6.80272095e-03, 6.80272095e-03, 2.04081628e-02, 4.08163257e-02,
          0., 1.36054419e-02, 0., 3.40136066e-02, 0., 6.80272095e-03,
          6.80272095e-03, 0., 6.80272095e-03, 1.36054419e-02, 0.,
          1.36054419e-02, 5.44217676e-02, 0., 2.72108838e-02, 0., 0.,
          2.72108838e-02, 0., 0., 6.80272095e-03, 0., 0., 5.44217676e-02,
          1.36054419e-02, 6.80272095e-03, 6.12244904e-02, 5.44217676e-02,
          1.36054419e-02, 6.80272095e-03, 0., 6.80272095e-03,
          2.72108838e-02, 1.36054419e-02, 0., 6.80272095e-03,
          2.04081628e-02, 0., 1.36054419e-02, 4.08163257e-02,
          2.04081628e-02 ]
      - [ 1.24481339e-02, 4.14937781e-03, 0., 2.07468886e-02,
          8.29875562e-03, 2.48962678e-02, 0., 2.90456451e-02,
          8.29875562e-03, 0., 1.24481339e-02, 3.31950225e-02,
          1.24481339e-02, 8.29875562e-03, 4.14937781e-03, 4.14937781e-03,
          1.24481339e-02, 0., 0., 8.29875562e-03, 4.14937781e-03,
          1.24481339e-02, 4.14937781e-03, 4.14937781e-03, 4.14937781e-03,
          0., 0., 8.29875562e-03, 8.29875562e-03, 1.24481339e-02, 0.,
          2.90456451e-02, 4.14937781e-03, 2.48962678e-02, 0.,
          2.07468886e-02, 4.14937781e-03, 1.24481339e-02, 1.24481339e-02,
          4.14937781e-03, 0., 0., 4.14937781e-03, 4.14937781e-03,
          8.29875562e-03, 0., 4.97925356e-02, 2.90456451e-02,
          1.24481339e-02, 2.90456451e-02, 4.14937781e-03, 0.,
          2.07468886e-02, 3.31950225e-02, 4.14937781e-03, 8.29875562e-03,
          4.14937781e-03, 1.24481339e-02, 4.14937781e-03, 8.29875562e-03,
          0., 0., 0., 1.24481339e-02, 1.65975112e-02, 0., 2.48962678e-02,
          0., 0., 0., 4.56431545e-02, 0., 8.29875562e-03, 4.14937781e-03,
          0., 8.29875562e-03, 1.24481339e-02, 8.29875562e-03,
          2.48962678e-02, 0., 2.90456451e-02, 4.56431545e-02, 0., 0.,
          2.07468886e-02, 0., 0., 4.14937781e-03, 0., 2.90456451e-02, 0.,
          8.29875562e-03, 8.29875562e-03, 0., 8.29875562e-03, 0.,
          5.39419129e-02, 0., 0., 1.65975112e-02 ]
      - [ 4.95049497e-03, 9.90098994e-03, 4.95049497e-03, 9.90098994e-03,
          0., 4.95049497e-03, 9.90098994e-03, 1.48514844e-02,
          4.95049497e-03, 4.95049497e-03, 1.48514844e-02, 0.,
          4.95049497e-03, 9.90098994e-03, 1.98019799e-02, 4.95049497e-03,
          4.95049497e-03, 2.97029689e-02, 1.48514844e-02, 4.95049506e-02,
          1.48514844e-02, 1.98019799e-02, 1.48514844e-02, 4.95049497e-03,
          0., 9.90098994e-03, 9.90098994e-03, 0., 0., 2.47524753e-02,
          4.95049497e-03, 0., 0., 4.95049497e-03, 0., 1.48514844e-02,
          4.95049497e-03, 9.90098994e-03, 1.98019799e-02, 9.90098994e-03,
          4.95049497e-03, 0., 2.47524753e-02, 4.95049497e-03,
          4.95049497e-03, 4.95049497e-03, 4.95049497e-03, 4.95049497e-03,
          1.48514844e-02, 1.98019799e-02, 4.95049497e-03, 9.90098994e-03,
          2.47524753e-02, 4.95049497e-03, 0., 0., 2.47524753e-02,
          9.90098994e-03, 9.90098994e-03, 4.95049497e-03, 9.90098994e-03,
          9.90098994e-03, 0., 4.95049497e-03, 4.95049497e-03,
          4.95049497e-03, 1.48514844e-02, 4.95049497e-03, 2.47524753e-02,
          0., 1.48514844e-02, 0., 0., 4.95049497e-03, 4.95049497e-03,
          1.48514844e-02, 9.90098994e-03, 0., 4.95049497e-03,
          1.48514844e-02, 4.95049497e-03, 2.97029689e-02, 0.,
          9.90098994e-03, 3.46534662e-02, 0., 1.98019799e-02,
          1.98019799e-02, 0., 4.95049497e-03, 3.96039598e-02,
          1.48514844e-02, 9.90098994e-03, 0., 2.97029689e-02,
          9.90098994e-03, 3.96039598e-02, 4.95049497e-03, 0.,
          4.95049497e-03 ]
      - [ 2.97397766e-02, 1.11524165e-02, 1.11524165e-02, 1.11524165e-02,
          2.60223038e-02, 1.11524165e-02, 2.23048329e-02, 2.60223038e-02,
          3.71747208e-03, 7.43494416e-03, 0., 0., 7.43494416e-03,
          1.85873602e-02, 3.71747208e-03, 1.48698883e-02, 3.71747208e-03,
          7.43494416e-03, 7.43494416e-03, 2.97397766e-02, 7.43494416e-03,
          0., 2.60223038e-02, 2.23048329e-02, 7.43494416e-03, 0.,
          7.43494416e-03, 7.43494416e-03, 2.60223038e-02, 3.71747208e-03,
          3.71747208e-03, 3.71747208e-03, 1.11524165e-02, 7.43494416e-03,
          2.23048329e-02, 1.48698883e-02, 7.43494416e-03, 1.48698883e-02,
          3.71747208e-03, 7.43494416e-03, 0., 0., 1.11524165e-02,
          1.48698883e-02, 0., 7.43494416e-03, 3.71747208e-03,
          2.23048329e-02, 7.43494416e-03, 1.11524165e-02, 1.85873602e-02,
          7.43494416e-03, 1.48698883e-02, 1.85873602e-02, 0.,
          1.11524165e-02, 3.71747208e-03, 0., 3.71747208e-03,
          3.71747208e-03, 1.48698883e-02, 2.23048329e-02, 1.48698883e-02,
          1.85873602e-02, 2.23048329e-02, 7.43494416e-03, 1.11524165e-02,
          0., 7.43494416e-03, 7.43494416e-03, 7.43494416e-03,
          1.11524165e-02, 0., 2.23048329e-02, 7.43494416e-03, 0., 0., 0.,
          1.11524165e-02, 2.23048329e-02, 3.71747208e-03, 0., 0.,
          7.43494416e-03, 1.11524165e-02, 1.11524165e-02, 7.43494416e-03,
          3.71747208e-03, 1.85873602e-02, 7.43494416e-03, 1.48698883e-02,
          1.11524165e-02, 7.43494416e-03, 1.48698883e-02, 7.43494416e-03,
          1.48698883e-02, 7.43494416e-03, 1.48698883e-02, 7.43494416e-03,
          3.71747208e-03 ]
      - [ 3.19148935e-02, 0., 2.12765951e-02, 2.12765951e-02,
          1.06382975e-02, 0., 5.31914877e-03, 3.19148935e-02, 0., 0., 0.,
          1.59574468e-02, 1.06382975e-02, 0., 2.65957434e-02, 0.,
          1.06382975e-02, 5.31914877e-03, 5.31914877e-03, 1.59574468e-02,
          5.31914877e-03, 0., 2.65957434e-02, 2.12765951e-02, 0., 0.,
          2.12765951e-02, 0., 5.31914877e-03, 1.06382975e-02,
          5.31914877e-03, 1.06382975e-02, 5.31914877e-03, 1.59574468e-02,
          5.31914877e-03, 5.31914877e-03, 2.12765951e-02, 2.65957434e-02,
          5.31914877e-03, 0., 0., 0., 2.12765951e-02, 0., 4.25531901e-02,
          0., 1.06382975e-02, 2.12765951e-02, 2.12765951e-02,
          1.59574468e-02, 2.12765951e-02, 1.06382975e-02, 2.12765951e-02,
          0., 0., 2.12765951e-02, 1.59574468e-02, 5.31914877e-03,
          1.06382975e-02, 2.12765951e-02, 5.31914877e-03, 2.65957434e-02,
          0., 5.31914877e-03, 0., 5.31914877e-03, 0., 1.06382975e-02,
          5.31914877e-03, 1.06382975e-02, 1.59574468e-02, 1.06382975e-02,
          0., 1.59574468e-02, 5.31914877e-03, 5.31914877e-03,
          1.06382975e-02, 2.12765951e-02, 1.59574468e-02, 1.59574468e-02,
          0., 0., 1.06382975e-02, 0., 2.12765951e-02, 1.59574468e-02,
          5.31914877e-03, 0., 5.31914877e-03, 0., 0., 2.65957434e-02,
          2.12765951e-02, 0., 1.06382975e-02, 0., 5.31914877e-03, 0., 0.,
          2.65957434e-02 ]
      - [ 5.64971752e-03, 5.64971752e-03, 5.64971752e-03, 1.12994350e-02,
          0., 0., 3.38983051e-02, 6.21468946e-02, 0., 5.64971752e-03,
          5.64971752e-03, 5.64971752e-03, 0., 0., 1.12994350e-02,
          5.64971752e-03, 0., 1.69491526e-02, 1.12994350e-02,
          1.69491526e-02, 0., 0., 0., 0., 1.12994350e-02, 0.,
          5.64971752e-03, 5.64971752e-03, 5.64971752e-03, 2.82485876e-02,
          1.69491526e-02, 5.64971752e-03, 1.12994350e-02, 0.,
          1.12994350e-02, 0., 2.25988701e-02, 5.64971752e-03, 0.,
          1.69491526e-02, 0., 1.69491526e-02, 5.64971752e-03,
          1.12994350e-02, 0., 5.64971752e-03, 5.64971752e-03, 0.,
          5.64971752e-03, 3.95480245e-02, 5.64971752e-03, 3.95480245e-02,
          5.64971752e-03, 5.64971752e-03, 0., 5.64971752e-03, 0., 0.,
          2.82485876e-02, 0., 5.64971752e-03, 5.64971752e-03,
          5.64971752e-03, 5.64971752e-03, 5.64971752e-03, 5.64971752e-03,
          0., 1.12994350e-02, 5.64971752e-03, 1.69491526e-02,
          5.64971752e-03, 2.82485876e-02, 0., 0., 5.64971752e-03, 0.,
          5.64971752e-03, 0., 0., 0., 0., 1.12994350e-02, 1.69491526e-02,
          5.64971752e-03, 2.82485876e-02, 2.82485876e-02, 1.69491526e-02,
          5.08474559e-02, 2.82485876e-02, 0., 2.82485876e-02,
          5.64971752e-03, 3.38983051e-02, 0., 5.64971752e-03,
          4.51977402e-02, 5.64971752e-03, 1.69491526e-02, 1.12994350e-02,
          1.69491526e-02 ]
      - [ 5.39083546e-03, 2.42587589e-02, 1.07816709e-02, 5.39083546e-03,
          5.39083546e-03, 5.39083546e-03, 1.07816709e-02, 5.66037707e-02,
          0., 0., 5.39083546e-03, 8.08625296e-03, 1.61725059e-02, 0.,
          5.39083546e-03, 5.39083546e-03, 5.39083546e-03, 1.61725059e-02,
          2.69541773e-03, 3.23450118e-02, 1.07816709e-02, 0.,
          2.69541773e-03, 0., 8.08625296e-03, 5.39083546e-03,
          8.08625296e-03, 2.69541773e-03, 8.08625296e-03, 5.39083546e-03,
          0., 2.69541773e-03, 8.08625296e-03, 5.39083546e-03,
          8.08625296e-03, 8.08625296e-03, 5.39083546e-03, 2.69541773e-03,
          2.69541773e-03, 1.07816709e-02, 2.69541773e-03, 5.39083546e-03,
          0., 1.34770889e-02, 8.08625296e-03, 0., 1.61725059e-02, 0.,
          1.61725059e-02, 1.88679248e-02, 3.23450118e-02, 1.07816709e-02,
          8.08625296e-03, 8.08625296e-03, 4.31266837e-02, 2.15633418e-02,
          2.69541773e-03, 1.61725059e-02, 1.88679248e-02, 2.69541773e-03,
          1.88679248e-02, 5.39083546e-03, 2.69541773e-03, 0.,
          2.69541773e-03, 5.39083546e-03, 2.69541773e-03, 8.08625296e-03,
          8.08625296e-03, 3.77358496e-02, 1.07816709e-02, 1.07816709e-02,
          2.69541773e-03, 5.39083546e-03, 5.39083546e-03, 0.,
          5.39083546e-03, 5.39083546e-03, 2.69541773e-03, 1.34770889e-02,
          0., 5.39083546e-03, 2.42587589e-02, 2.69541773e-03,
          4.31266837e-02, 1.34770889e-02, 8.08625296e-03, 2.96495948e-02,
          1.07816709e-02, 2.96495948e-02, 2.69541773e-03, 1.07816709e-02,
          4.85175177e-02, 5.39083546e-03, 8.08625296e-03, 1.07816709e-02,
          2.69541773e-03, 8.08625296e-03, 1.07816709e-02, 0. ]
      - [ 3.30578499e-02, 0., 0., 8.26446246e-03, 8.26446246e-03,
          1.65289249e-02, 2.47933865e-02, 1.48760319e-01, 0., 0., 0.,
          8.26446246e-03, 5.78512363e-02, 0., 1.65289249e-02, 0., 0.,
          1.65289249e-02, 0., 2.47933865e-02, 8.26446265e-02, 0.,
          2.47933865e-02, 8.26446246e-03, 8.26446246e-03, 0.,
          8.26446246e-03, 0., 0., 0., 0., 0., 0., 0., 8.26446246e-03,
          4.13223132e-02, 0., 0., 0., 0., 0., 0., 0., 8.26446246e-03,
          8.26446246e-03, 8.26446246e-03, 0., 8.26446246e-03,
          3.30578499e-02, 0., 8.26446246e-03, 0., 8.26446246e-03,
          2.47933865e-02, 0., 0., 8.26446246e-03, 2.47933865e-02, 0.,
          8.26446246e-03, 0., 2.47933865e-02, 0., 1.65289249e-02, 0., 0.,
          8.26446246e-03, 0., 0., 8.26446246e-03, 8.26446246e-03, 0., 0.,
          1.65289249e-02, 0., 0., 0., 0., 8.26446246e-03, 8.26446246e-03,
          1.65289249e-02, 0., 8.26446246e-03, 8.26446246e-03,
          1.15702473e-01, 1.65289249e-02, 8.26446246e-03, 0., 0., 0., 0.,
          0., 1.65289249e-02, 0., 8.26446246e-03, 0., 8.26446246e-03, 0.,
          0., 0. ]
      - [ 1.89125296e-02, 7.09219836e-03, 4.72813239e-03, 4.72813239e-03,
          2.36406620e-03, 4.72813239e-03, 1.65484641e-02, 2.12765951e-02,
          0., 7.09219836e-03, 7.09219836e-03, 2.36406620e-03,
          1.41843967e-02, 4.72813239e-03, 0., 2.36406620e-03,
          4.72813239e-03, 9.45626479e-03, 4.72813239e-03, 9.45626479e-03,
          2.36406620e-03, 0., 7.09219836e-03, 2.36406620e-03,
          2.36406620e-03, 4.72813239e-03, 7.09219836e-03, 2.36406624e-02,
          7.09219836e-03, 7.09219836e-03, 7.09219836e-03, 4.72813239e-03,
          1.65484641e-02, 2.36406620e-03, 9.45626479e-03, 0.,
          1.18203312e-02, 1.18203312e-02, 1.41843967e-02, 1.18203312e-02,
          7.09219836e-03, 0., 7.09219836e-03, 7.09219836e-03,
          2.83687934e-02, 4.72813239e-03, 1.89125296e-02, 7.09219836e-03,
          7.09219836e-03, 7.09219836e-03, 7.09219836e-03, 1.65484641e-02,
          1.18203312e-02, 7.09219836e-03, 2.36406620e-03, 7.09219836e-03,
          4.72813239e-03, 1.18203312e-02, 3.30969281e-02, 2.36406620e-03,
          2.12765951e-02, 1.89125296e-02, 2.60047279e-02, 1.89125296e-02,
          2.36406620e-03, 7.09219836e-03, 0., 7.09219836e-03,
          7.09219836e-03, 1.18203312e-02, 4.72813239e-03, 3.54609936e-02,
          4.72813239e-03, 2.36406620e-03, 7.09219836e-03, 2.36406620e-03,
          1.65484641e-02, 0., 0., 1.89125296e-02, 2.36406620e-03,
          2.36406620e-03, 2.83687934e-02, 2.12765951e-02, 1.89125296e-02,
          2.60047279e-02, 1.41843967e-02, 4.72813239e-03, 2.36406624e-02,
          2.36406624e-02, 1.89125296e-02, 1.18203312e-02, 4.72813239e-03,
          1.41843967e-02, 1.65484641e-02, 1.41843967e-02, 4.72813239e-03,
          9.45626479e-03, 2.60047279e-02, 2.36406620e-03 ]
      - [ 2.50000022e-02, 8.33333377e-03, 0., 8.33333377e-03,
          8.33333377e-03, 0., 0., 1.25000000e-01, 0., 0., 0.,
          8.33333377e-03, 2.50000022e-02, 0., 8.33333377e-03, 0., 0., 0.,
          2.50000022e-02, 1.66666675e-02, 2.50000022e-02, 0.,
          2.50000022e-02, 2.50000022e-02, 0., 0., 8.33333377e-03, 0.,
          3.33333351e-02, 8.33333377e-03, 0., 0., 0., 0., 0., 0., 0., 0.,
          0., 0., 0., 0., 1.66666675e-02, 0., 1.66666675e-02, 0., 0.,
          8.33333377e-03, 8.33333377e-03, 8.33333377e-03, 0.,
          1.66666675e-02, 8.33333377e-03, 2.50000022e-02, 0., 0., 0., 0.,
          8.33333377e-03, 0., 0., 1.66666675e-02, 2.50000022e-02, 0.,
          8.33333377e-03, 0., 8.33333377e-03, 0., 8.33333377e-03,
          1.66666675e-02, 4.16666679e-02, 1.66666675e-02, 0., 0., 0., 0.,
          8.33333377e-03, 0., 8.33333377e-03, 0., 8.33333377e-03,
          2.50000022e-02, 1.66666675e-02, 8.33333377e-03, 9.16666687e-02,
          3.33333351e-02, 0., 0., 1.66666675e-02, 0., 0., 1.66666675e-02,
          5.83333373e-02, 3.33333351e-02, 0., 0., 0., 1.66666675e-02, 0.,
          1.66666675e-02 ]
      - [ 9.90098994e-03, 0., 0., 9.90098994e-03, 9.90098994e-03,
          2.97029689e-02, 9.90098994e-03, 3.96039598e-02, 0.,
          9.90098994e-03, 1.98019799e-02, 9.90098994e-03, 0.,
          1.98019799e-02, 9.90098994e-03, 0., 0., 9.90098994e-03, 0.,
          1.98019799e-02, 4.95049506e-02, 0., 9.90098994e-03,
          1.98019799e-02, 0., 0., 0., 0., 9.90098994e-03, 0., 0., 0.,
          1.98019799e-02, 9.90098994e-03, 0., 9.90098994e-03,
          9.90098994e-03, 0., 0., 0., 0., 0., 9.90098994e-03, 0.,
          7.92079195e-02, 9.90098994e-03, 0., 3.96039598e-02,
          9.90098994e-03, 4.95049506e-02, 9.90098994e-03, 9.90098994e-03,
          1.98019799e-02, 9.90098994e-03, 9.90098994e-03, 1.98019799e-02,
          0., 0., 0., 9.90098994e-03, 0., 9.90098994e-03, 9.90098994e-03,
          1.98019799e-02, 9.90098994e-03, 9.90098994e-03, 1.98019799e-02,
          0., 0., 1.98019799e-02, 2.97029689e-02, 9.90098994e-03,
          9.90098994e-03, 0., 0., 0., 0., 0., 9.90098994e-03,
          1.98019799e-02, 0., 0., 9.90098994e-03, 0., 3.96039598e-02, 0.,
          0., 0., 2.97029689e-02, 1.98019799e-02, 0., 0., 9.90098994e-03,
          9.90098994e-03, 0., 0., 4.95049506e-02, 0., 0., 1.98019799e-02 ]
      - [ 1.56985875e-03, 0., 2.51177400e-02, 2.19780225e-02,
          1.88383050e-02, 0., 3.13971750e-03, 0., 1.56985875e-03,
          3.29670347e-02, 1.88383050e-02, 7.84929376e-03, 0.,
          3.92464697e-02, 1.56985875e-03, 6.27943501e-03, 1.88383050e-02,
          7.84929376e-03, 1.41287288e-02, 3.13971750e-03, 1.56985875e-03,
          6.27943501e-03, 6.27943501e-03, 3.13971750e-03, 1.56985875e-03,
          1.56985875e-03, 6.27943501e-03, 9.41915251e-03, 3.13971750e-03,
          1.56985875e-02, 1.56985875e-03, 3.13971750e-03, 3.76766101e-02,
          1.09890113e-02, 6.27943501e-03, 0., 1.41287288e-02,
          6.27943501e-02, 3.45368907e-02, 2.66875997e-02, 3.13971750e-03,
          0., 2.82574575e-02, 1.25588700e-02, 1.56985875e-03,
          1.56985875e-03, 1.25588700e-02, 7.84929376e-03, 1.56985875e-03,
          1.56985875e-02, 4.70957626e-03, 1.09890113e-02, 3.13971750e-03,
          1.25588700e-02, 0., 7.84929376e-03, 3.13971750e-03,
          3.13971750e-03, 6.27943501e-03, 3.13971750e-03, 1.41287288e-02,
          7.84929376e-03, 1.25588700e-02, 9.41915251e-03, 3.13971750e-03,
          2.35478804e-02, 3.13971750e-03, 0., 1.72684453e-02, 0.,
          7.84929376e-03, 4.70957626e-03, 0., 9.41915251e-03,
          4.70957626e-03, 1.56985875e-03, 6.27943501e-03, 0., 0.,
          1.56985875e-02, 4.70957626e-03, 2.04081647e-02, 6.27943501e-03,
          0., 0., 3.13971750e-03, 0., 4.70957626e-03, 7.84929376e-03,
          2.82574575e-02, 6.27943501e-03, 9.41915251e-03, 0.,
          3.29670347e-02, 1.88383050e-02, 4.23861854e-02, 3.45368907e-02,
          3.13971750e-03, 1.56985875e-02, 4.70957626e-03 ]
      - [ 6.45161280e-03, 0., 6.45161280e-03, 0., 1.29032256e-02, 0.,
          5.16129024e-02, 1.93548389e-02, 6.45161280e-03, 1.29032256e-02,
          6.45161280e-03, 6.45161280e-03, 0., 6.45161280e-03,
          6.45161280e-03, 0., 0., 1.29032256e-02, 6.45161280e-03,
          6.45161280e-03, 3.87096778e-02, 0., 6.45161280e-03,
          6.45161280e-03, 0., 1.29032256e-02, 2.58064512e-02, 0.,
          2.58064512e-02, 5.16129024e-02, 6.45161280e-03, 6.45161280e-03,
          6.45161280e-03, 6.45161280e-03, 6.45161280e-03, 0.,
          3.22580636e-02, 0., 6.45161280e-03, 0., 0., 6.45161280e-03,
          6.45161280e-03, 3.22580636e-02, 0., 0., 6.45161280e-03, 0.,
          6.45161280e-03, 1.93548389e-02, 0., 0., 0., 0., 0.,
          1.93548389e-02, 1.93548389e-02, 1.29032256e-02, 0.,
          1.93548389e-02, 4.51612882e-02, 1.29032256e-02, 6.45161280e-03,
          6.45161280e-03, 6.45161280e-03, 1.29032256e-02, 6.45161280e-03,
          6.45161280e-03, 0., 1.93548389e-02, 1.29032256e-02,
          6.45161280e-03, 6.45161280e-03, 1.29032256e-02, 0., 0.,
          1.29032256e-02, 0., 0., 3.22580636e-02, 6.45161280e-03,
          6.45161280e-03, 1.29032256e-02, 6.45161280e-03, 0.,
          1.29032256e-02, 1.29032256e-02, 2.58064512e-02, 1.29032256e-02,
          6.45161280e-03, 2.58064512e-02, 1.29032256e-02, 0.,
          6.45161280e-03, 1.29032256e-02, 2.58064512e-02, 0.,
          1.29032256e-02, 3.87096778e-02, 0. ]
      - [ 7.63358781e-03, 1.52671756e-02, 7.63358781e-03, 2.29007639e-02,
          7.63358781e-03, 0., 0., 1.06870227e-01, 2.29007639e-02, 0., 0.,
          0., 1.52671756e-02, 0., 7.63358781e-03, 1.52671756e-02,
          7.63358781e-03, 0., 1.52671756e-02, 2.29007639e-02,
          6.87022880e-02, 0., 1.52671756e-02, 2.29007639e-02,
          1.52671756e-02, 0., 1.52671756e-02, 7.63358781e-03,
          7.63358781e-03, 7.63358781e-03, 7.63358781e-03, 7.63358781e-03,
          2.29007639e-02, 0., 0., 7.63358781e-03, 2.29007639e-02,
          7.63358781e-03, 0., 7.63358781e-03, 0., 0., 7.63358781e-03, 0.,
          0., 7.63358781e-03, 7.63358781e-03, 7.63358781e-03,
          7.63358781e-03, 0., 1.52671756e-02, 0., 1.52671756e-02, 0., 0.,
          2.29007639e-02, 2.29007639e-02, 0., 0., 1.52671756e-02, 0., 0.,
          0., 2.29007639e-02, 0., 1.52671756e-02, 7.63358781e-03,
          2.29007639e-02, 0., 1.52671756e-02, 0., 0., 0., 0.,
          7.63358781e-03, 0., 1.52671756e-02, 0., 7.63358781e-03,
          6.10687025e-02, 1.52671756e-02, 0., 0., 1.52671756e-02,
          3.81679386e-02, 0., 0., 0., 0., 1.52671756e-02, 7.63358781e-03,
          7.63358781e-03, 2.29007639e-02, 0., 7.63358781e-03,
          1.52671756e-02, 7.63358781e-03, 1.52671756e-02, 0.,
          7.63358781e-03 ]
      - [ 3.06122452e-02, 1.02040814e-02, 1.02040814e-02, 1.02040814e-02,
          1.02040814e-02, 2.04081628e-02, 0., 4.08163257e-02,
          1.02040814e-02, 1.02040814e-02, 1.02040814e-02, 3.06122452e-02,
          3.06122452e-02, 0., 0., 1.02040814e-02, 1.02040814e-02,
          2.04081628e-02, 0., 0., 3.06122452e-02, 2.04081628e-02, 0., 0.,
          1.02040814e-02, 1.02040814e-02, 0., 0., 2.04081628e-02,
          1.02040814e-02, 0., 1.02040814e-02, 0., 1.02040814e-02, 0.,
          3.06122452e-02, 0., 0., 1.02040814e-02, 0., 1.02040814e-02, 0.,
          4.08163257e-02, 1.02040814e-02, 2.04081628e-02, 2.04081628e-02,
          1.02040814e-02, 1.02040814e-02, 3.06122452e-02, 1.02040814e-02,
          1.02040814e-02, 0., 3.06122452e-02, 0., 1.02040814e-02,
          1.02040814e-02, 1.02040814e-02, 0., 1.02040814e-02, 0., 0.,
          1.02040814e-02, 0., 1.02040814e-02, 0., 0., 4.08163257e-02, 0.,
          0., 3.06122452e-02, 1.02040814e-02, 0., 0., 0., 0., 0.,
          1.02040814e-02, 0., 4.08163257e-02, 0., 0., 2.04081628e-02, 0.,
          0., 5.10204062e-02, 1.02040814e-02, 0., 0., 0., 1.02040814e-02,
          2.04081628e-02, 0., 4.08163257e-02, 0., 0., 0., 1.02040814e-02,
          0., 0., 1.02040814e-02 ]
      - [ 4.29184549e-03, 1.28755365e-02, 8.58369097e-03, 0.,
          1.71673819e-02, 2.14592274e-02, 8.58369097e-03, 8.15450624e-02,
          0., 8.58369097e-03, 8.58369097e-03, 0., 1.28755365e-02, 0.,
          1.71673819e-02, 1.71673819e-02, 0., 4.29184549e-03,
          4.29184549e-03, 2.14592274e-02, 2.57510729e-02, 0.,
          4.29184549e-03, 4.29184549e-03, 8.58369097e-03, 4.29184549e-03,
          4.29184549e-03, 4.29184549e-03, 0., 0., 1.71673819e-02,
          4.29184549e-03, 1.28755365e-02, 1.28755365e-02, 1.71673819e-02,
          4.29184549e-03, 0., 0., 4.29184549e-03, 1.28755365e-02, 0., 0.,
          1.28755365e-02, 4.29184549e-03, 4.29184549e-03, 8.58369097e-03,
          4.29184549e-03, 4.29184549e-03, 1.28755365e-02, 1.71673819e-02,
          4.29184549e-03, 4.29184549e-03, 0., 4.29184549e-03, 0.,
          8.58369097e-03, 0., 4.29184549e-03, 1.71673819e-02, 0.,
          4.29184549e-03, 4.29184549e-03, 2.14592274e-02, 1.71673819e-02,
          4.29184549e-03, 0., 4.29184549e-03, 8.58369097e-03, 0.,
          2.14592274e-02, 4.29184549e-03, 8.58369097e-03, 0.,
          4.29184549e-03, 0., 0., 8.58369097e-03, 0., 4.29184549e-03,
          4.29184549e-03, 8.58369097e-03, 8.58369097e-03, 3.43347639e-02,
          2.14592274e-02, 1.11587986e-01, 2.57510729e-02, 1.28755365e-02,
          8.58369097e-03, 0., 1.28755365e-02, 1.28755365e-02,
          3.00429184e-02, 4.29184549e-02, 4.29184549e-03, 4.29184549e-03,
          4.29184549e-03, 0., 1.71673819e-02, 8.58369097e-03,
          8.58369097e-03 ]
      - [ 6.71140943e-03, 0., 0., 2.68456377e-02, 6.71140943e-03,
          7.38255009e-02, 0., 3.35570462e-02, 6.71140943e-03, 0.,
          6.71140943e-03, 1.34228189e-02, 6.71140943e-03, 0.,
          6.71140943e-03, 0., 1.34228189e-02, 6.71140943e-03,
          6.71140943e-03, 2.68456377e-02, 2.68456377e-02, 6.71140943e-03,
          1.34228189e-02, 6.71140943e-03, 0., 0., 2.01342292e-02,
          6.71140943e-03, 1.34228189e-02, 6.71140943e-03, 0., 0., 0.,
          6.71140943e-03, 1.34228189e-02, 0., 0., 2.01342292e-02,
          2.01342292e-02, 0., 0., 0., 6.71140943e-03, 0., 6.04026839e-02,
          1.34228189e-02, 1.34228189e-02, 6.71140943e-03, 6.71140924e-02,
          3.35570462e-02, 6.71140943e-03, 0., 1.34228189e-02,
          1.34228189e-02, 0., 0., 2.01342292e-02, 6.71140943e-03, 0.,
          6.71140943e-03, 0., 1.34228189e-02, 0., 1.34228189e-02,
          6.71140943e-03, 6.71140943e-03, 2.68456377e-02, 0., 0.,
          6.71140943e-03, 3.35570462e-02, 0., 0., 0., 6.71140943e-03, 0.,
          6.71140943e-03, 0., 1.34228189e-02, 6.71140943e-03,
          1.34228189e-02, 1.34228189e-02, 0., 0., 2.01342292e-02, 0., 0.,
          0., 0., 2.68456377e-02, 1.34228189e-02, 6.71140943e-03,
          2.01342292e-02, 0., 0., 6.71140943e-03, 1.34228189e-02,
          6.71140943e-03, 0., 4.69798669e-02 ]
      - [ 1.62162166e-02, 5.40540554e-03, 5.40540554e-03, 5.40540554e-03,
          2.16216221e-02, 2.16216221e-02, 5.40540554e-03, 9.18918923e-02,
          5.40540554e-03, 0., 0., 5.40540554e-03, 2.16216221e-02, 0.,
          2.16216221e-02, 5.40540554e-03, 0., 5.40540554e-03,
          1.08108111e-02, 4.86486480e-02, 2.70270277e-02, 0., 0., 0., 0.,
          0., 1.08108111e-02, 5.40540554e-03, 5.40540554e-03,
          2.16216221e-02, 1.62162166e-02, 0., 5.40540554e-03,
          5.40540554e-03, 1.08108111e-02, 0., 1.62162166e-02,
          1.62162166e-02, 5.40540554e-03, 0., 0., 0., 5.40540554e-03,
          1.08108111e-02, 1.62162166e-02, 5.40540554e-03, 0.,
          5.40540554e-03, 1.08108111e-02, 2.16216221e-02, 1.08108111e-02,
          1.08108111e-02, 0., 0., 1.08108111e-02, 1.62162166e-02,
          2.16216221e-02, 0., 1.08108111e-02, 1.62162166e-02,
          1.08108111e-02, 5.40540554e-03, 0., 2.16216221e-02,
          1.08108111e-02, 5.40540554e-03, 0., 0., 0., 0., 4.32432443e-02,
          1.08108111e-02, 5.40540554e-03, 5.40540554e-03, 0., 0.,
          5.40540554e-03, 0., 5.40540554e-03, 5.40540554e-03,
          5.40540554e-03, 5.40540554e-03, 0., 5.40540554e-03,
          7.02702701e-02, 5.40540554e-03, 5.40540554e-03, 0.,
          1.62162166e-02, 5.40540554e-03, 1.62162166e-02, 2.16216221e-02,
          4.32432443e-02, 5.40540554e-03, 5.40540554e-03, 5.40540554e-03,
          5.40540554e-03, 0., 1.08108111e-02, 1.62162166e-02 ]
      - [ 2.15517245e-02, 8.62068962e-03, 2.58620679e-02, 1.29310340e-02,
          1.72413792e-02, 2.15517245e-02, 3.01724132e-02, 3.44827585e-02,
          4.31034481e-03, 4.31034481e-03, 2.58620679e-02, 2.15517245e-02,
          2.58620679e-02, 0., 4.31034481e-03, 4.31034481e-03, 0.,
          8.62068962e-03, 3.01724132e-02, 0., 3.87931019e-02,
          4.31034481e-03, 1.29310340e-02, 1.72413792e-02, 4.31034481e-03,
          4.31034481e-03, 1.29310340e-02, 1.29310340e-02, 1.29310340e-02,
          0., 4.31034481e-03, 8.62068962e-03, 8.62068962e-03, 0., 0.,
          3.44827585e-02, 8.62068962e-03, 1.72413792e-02, 2.58620679e-02,
          4.31034481e-03, 0., 8.62068962e-03, 8.62068962e-03,
          8.62068962e-03, 1.29310340e-02, 4.31034481e-03, 4.31034481e-03,
          8.62068962e-03, 8.62068962e-03, 1.29310340e-02, 8.62068962e-03,
          4.31034481e-03, 8.62068962e-03, 4.31034481e-03, 0.,
          1.29310340e-02, 1.72413792e-02, 8.62068962e-03, 8.62068962e-03,
          2.15517245e-02, 0., 8.62068962e-03, 1.29310340e-02,
          4.31034481e-03, 4.31034481e-03, 0., 0., 0., 4.31034481e-03,
          1.29310340e-02, 0., 0., 8.62068962e-03, 8.62068962e-03,
          4.31034481e-03, 0., 4.31034481e-03, 0., 4.31034481e-03,
          4.31034481e-03, 4.31034481e-03, 0., 1.29310340e-02,
          8.62068962e-03, 3.87931019e-02, 1.72413792e-02, 0.,
          1.72413792e-02, 8.62068962e-03, 1.29310340e-02, 1.72413792e-02,
          4.31034481e-03, 0., 0., 4.31034481e-03, 0., 3.44827585e-02,
          8.62068962e-03, 1.72413792e-02, 4.31034481e-03 ]
      - [ 4.25531901e-03, 1.48936165e-02, 1.48936165e-02, 1.06382975e-02,
          6.38297852e-03, 3.19148935e-02, 4.25531901e-03, 1.06382975e-02,
          2.12765951e-03, 6.38297852e-03, 1.06382975e-02, 2.34042555e-02,
          6.38297852e-03, 6.38297852e-03, 2.12765951e-03, 8.51063803e-03,
          4.25531901e-03, 6.38297852e-03, 8.51063803e-03, 1.48936165e-02,
          8.51063803e-03, 6.38297852e-03, 6.38297852e-03, 1.06382975e-02,
          1.27659570e-02, 0., 2.12765951e-03, 1.06382975e-02,
          4.25531901e-03, 1.48936165e-02, 1.27659570e-02, 8.51063803e-03,
          6.38297852e-03, 1.06382975e-02, 1.06382975e-02, 1.27659570e-02,
          1.06382975e-02, 1.48936165e-02, 8.51063803e-03, 1.27659570e-02,
          0., 0., 4.25531901e-03, 4.25531901e-03, 1.48936165e-02,
          6.38297852e-03, 2.76595727e-02, 0., 2.12765951e-03,
          4.25531901e-03, 2.12765951e-02, 8.51063803e-03, 1.06382975e-02,
          1.27659570e-02, 8.51063803e-03, 8.51063803e-03, 2.12765951e-03,
          2.12765951e-03, 1.91489346e-02, 2.12765951e-03, 1.48936165e-02,
          8.51063803e-03, 1.91489346e-02, 8.51063803e-03, 8.51063803e-03,
          1.06382975e-02, 2.12765951e-03, 8.51063803e-03, 8.51063803e-03,
          4.04255316e-02, 1.48936165e-02, 1.48936165e-02, 2.12765951e-03,
          6.38297852e-03, 2.12765951e-03, 6.38297852e-03, 6.38297852e-03,
          4.25531901e-03, 4.25531901e-03, 1.27659570e-02, 8.51063803e-03,
          6.38297852e-03, 1.06382975e-02, 1.27659570e-02, 1.06382975e-02,
          6.38297852e-03, 2.97872331e-02, 1.27659570e-02, 1.06382975e-02,
          5.10638282e-02, 1.06382975e-02, 1.48936165e-02, 1.70212761e-02,
          4.25531901e-03, 6.38297852e-03, 6.38297852e-03, 1.91489346e-02,
          8.51063803e-03, 0., 6.38297852e-03 ]
      - [ 1.59574468e-02, 5.31914877e-03, 5.31914877e-03, 5.31914877e-03,
          2.12765951e-02, 1.59574468e-02, 0., 4.78723384e-02, 0.,
          5.31914877e-03, 0., 1.59574468e-02, 1.06382975e-02, 0.,
          2.12765951e-02, 1.59574468e-02, 1.06382975e-02, 1.06382975e-02,
          5.31914877e-03, 2.12765951e-02, 1.59574468e-02, 0.,
          1.06382975e-02, 1.59574468e-02, 5.31914877e-03, 0.,
          5.31914877e-03, 3.19148935e-02, 1.06382975e-02, 5.31914877e-03,
          1.06382975e-02, 0., 0., 0., 1.06382975e-02, 3.19148935e-02, 0.,
          5.31914877e-03, 1.59574468e-02, 0., 0., 0., 1.06382975e-02, 0.,
          1.06382975e-02, 2.12765951e-02, 2.65957434e-02, 0.,
          2.12765951e-02, 0., 5.31914877e-03, 0., 3.19148935e-02,
          2.65957434e-02, 5.31914877e-03, 5.31914877e-03, 1.06382975e-02,
          1.06382975e-02, 1.06382975e-02, 0., 5.31914877e-03,
          2.12765951e-02, 1.59574468e-02, 5.31914877e-03, 5.31914877e-03,
          5.31914877e-03, 5.31914877e-03, 5.31914877e-03, 5.31914877e-03,
          2.12765951e-02, 0., 0., 0., 0., 0., 5.31914877e-03, 0., 0.,
          1.59574468e-02, 2.12765951e-02, 5.31914877e-03, 1.06382975e-02,
          1.06382975e-02, 2.65957434e-02, 3.72340418e-02, 1.59574468e-02,
          2.12765951e-02, 0., 0., 1.06382975e-02, 2.12765951e-02,
          5.31914877e-03, 2.65957434e-02, 5.31914877e-03, 5.31914877e-03,
          1.06382975e-02, 3.19148935e-02, 1.06382975e-02, 0., 0. ]
      - [ 1.60714295e-02, 7.14285718e-03, 1.78571430e-03, 7.14285718e-03,
          7.14285718e-03, 1.25000002e-02, 2.50000004e-02, 1.42857144e-02,
          8.92857183e-03, 5.35714300e-03, 7.14285718e-03, 8.92857183e-03,
          1.96428578e-02, 1.78571430e-03, 1.60714295e-02, 1.25000002e-02,
          1.78571430e-03, 5.35714300e-03, 2.32142862e-02, 1.96428578e-02,
          7.14285718e-03, 0., 5.35714300e-03, 1.25000002e-02,
          1.07142860e-02, 1.78571430e-03, 1.60714295e-02, 1.07142860e-02,
          1.25000002e-02, 7.14285718e-03, 5.35714300e-03, 5.35714300e-03,
          1.25000002e-02, 0., 1.25000002e-02, 2.67857146e-02,
          7.14285718e-03, 5.35714300e-03, 5.35714300e-03, 7.14285718e-03,
          0., 3.57142859e-03, 1.25000002e-02, 0., 1.07142860e-02,
          7.14285718e-03, 1.78571430e-03, 1.25000002e-02, 1.78571437e-02,
          1.42857144e-02, 1.60714295e-02, 1.25000002e-02, 8.92857183e-03,
          1.07142860e-02, 2.14285720e-02, 1.78571430e-03, 8.92857183e-03,
          8.92857183e-03, 1.60714295e-02, 8.92857183e-03, 1.60714295e-02,
          5.35714300e-03, 1.42857144e-02, 1.60714295e-02, 3.57142859e-03,
          7.14285718e-03, 1.78571430e-03, 7.14285718e-03, 1.78571430e-03,
          1.96428578e-02, 1.42857144e-02, 1.25000002e-02, 1.60714295e-02,
          1.25000002e-02, 2.14285720e-02, 0., 7.14285718e-03, 0., 0.,
          7.14285718e-03, 5.35714300e-03, 7.14285718e-03, 8.92857183e-03,
          7.14285718e-03, 2.50000004e-02, 4.28571440e-02, 5.35714300e-03,
          1.25000002e-02, 7.14285718e-03, 8.92857183e-03, 7.14285718e-03,
          1.78571437e-02, 1.42857144e-02, 0., 1.07142860e-02,
          3.57142859e-03, 3.57142859e-03, 1.60714295e-02, 1.07142860e-02,
          1.42857144e-02 ]
      - [ 8.59598909e-03, 5.73065924e-03, 0., 2.86532962e-03,
          1.43266479e-02, 2.86532962e-03, 5.73065924e-03, 7.73639008e-02,
          2.86532962e-03, 1.14613185e-02, 2.86532962e-03, 5.73065924e-03,
          1.43266479e-02, 5.73065924e-03, 2.86532962e-03, 1.43266479e-02,
          2.86532962e-03, 0., 0., 1.71919782e-02, 1.14613185e-02, 0.,
          5.73065924e-03, 2.86532962e-03, 3.72492857e-02, 2.86532962e-03,
          5.73065924e-03, 5.73065924e-03, 8.59598909e-03, 0.,
          1.14613185e-02, 1.14613185e-02, 5.73065924e-03, 8.59598909e-03,
          5.73065924e-03, 1.14613185e-02, 2.86532962e-03, 1.14613185e-02,
          8.59598909e-03, 0., 0., 0., 5.73065924e-03, 8.59598909e-03,
          4.01146151e-02, 0., 5.73065924e-03, 1.43266479e-02,
          8.59598909e-03, 1.43266479e-02, 4.01146151e-02, 8.59598909e-03,
          5.73065924e-03, 1.14613185e-02, 3.43839563e-02, 0.,
          5.73065924e-03, 8.59598909e-03, 1.43266479e-02, 5.73065924e-03,
          5.73065924e-03, 1.43266479e-02, 8.59598909e-03, 5.73065924e-03,
          5.73065924e-03, 1.14613185e-02, 2.86532962e-03, 2.86532962e-03,
          5.73065924e-03, 2.00573076e-02, 3.43839563e-02, 1.14613185e-02,
          0., 2.29226369e-02, 1.43266479e-02, 2.86532962e-03,
          1.14613185e-02, 0., 2.86532962e-03, 0., 0., 5.73065924e-03,
          8.59598909e-03, 1.71919782e-02, 6.30372539e-02, 1.43266479e-02,
          5.73065924e-03, 8.59598909e-03, 1.43266479e-02, 2.86532962e-03,
          5.73065924e-03, 1.14613185e-02, 2.57879663e-02, 0.,
          5.73065924e-03, 8.59598909e-03, 8.59598909e-03, 8.59598909e-03,
          2.86532962e-03, 1.14613185e-02 ]
      - [ 1.15942033e-02, 5.79710165e-03, 2.02898551e-02, 1.15942033e-02,
          1.73913054e-02, 2.31884066e-02, 1.73913054e-02, 2.02898551e-02,
          2.89855083e-03, 5.79710165e-03, 2.89855083e-03, 1.15942033e-02,
          1.73913054e-02, 0., 2.89855083e-03, 5.79710165e-03,
          2.89855083e-03, 1.73913054e-02, 1.44927539e-02, 2.02898551e-02,
          0., 0., 0., 5.79710165e-03, 8.69565271e-03, 2.89855083e-03,
          8.69565271e-03, 1.15942033e-02, 8.69565271e-03, 3.47826108e-02,
          8.69565271e-03, 1.15942033e-02, 0., 5.79710165e-03,
          8.69565271e-03, 1.15942033e-02, 1.44927539e-02, 5.79710165e-03,
          8.69565271e-03, 8.69565271e-03, 5.79710165e-03, 8.69565271e-03,
          8.69565271e-03, 8.69565271e-03, 2.60869581e-02, 2.89855083e-03,
          5.79710165e-03, 2.89855083e-03, 8.69565271e-03, 1.73913054e-02,
          1.44927539e-02, 1.73913054e-02, 2.31884066e-02, 8.69565271e-03,
          5.79710165e-03, 8.69565271e-03, 2.89855083e-03, 1.15942033e-02,
          2.89855083e-03, 0., 5.79710165e-03, 5.79710165e-03,
          5.79710165e-03, 2.89855083e-03, 0., 0., 1.73913054e-02,
          1.15942033e-02, 8.69565271e-03, 1.73913054e-02, 1.15942033e-02,
          8.69565271e-03, 2.89855083e-03, 2.89855083e-03, 2.02898551e-02,
          2.89855083e-03, 2.89855083e-03, 0., 1.44927539e-02,
          2.89855083e-03, 5.79710165e-03, 8.69565271e-03, 1.15942033e-02,
          3.76811624e-02, 2.02898551e-02, 5.79710165e-03, 1.44927539e-02,
          2.02898551e-02, 2.31884066e-02, 1.15942033e-02, 8.69565271e-03,
          0., 8.69565271e-03, 2.89855083e-03, 0., 1.44927539e-02,
          2.89855078e-02, 2.89855083e-03, 1.44927539e-02, 2.60869581e-02 ]
      - [ 6.55737706e-03, 9.83606558e-03, 9.83606558e-03, 9.83606558e-03,
          1.31147541e-02, 6.55737706e-03, 3.60655747e-02, 1.63934417e-02,
          0., 1.63934417e-02, 1.31147541e-02, 1.31147541e-02,
          6.55737706e-03, 6.55737706e-03, 6.55737706e-03, 9.83606558e-03,
          6.55737706e-03, 1.96721312e-02, 1.31147541e-02, 1.31147541e-02,
          3.27868853e-03, 1.31147541e-02, 0., 3.27868853e-03,
          1.96721312e-02, 0., 1.63934417e-02, 6.55737706e-03,
          1.31147541e-02, 9.83606558e-03, 9.83606558e-03, 1.63934417e-02,
          0., 9.83606558e-03, 6.55737706e-03, 0., 6.55737706e-03,
          1.31147541e-02, 1.96721312e-02, 0., 3.27868853e-03,
          3.27868834e-02, 3.27868853e-03, 6.55737706e-03, 0.,
          1.96721312e-02, 0., 1.31147541e-02, 0., 3.27868853e-03,
          9.83606558e-03, 9.83606558e-03, 3.27868853e-03, 9.83606558e-03,
          1.96721312e-02, 6.55737706e-03, 0., 3.27868834e-02,
          9.83606558e-03, 0., 1.63934417e-02, 3.27868853e-03,
          2.29508206e-02, 6.55737706e-03, 3.27868853e-03, 1.96721312e-02,
          0., 1.31147541e-02, 1.63934417e-02, 3.27868853e-03,
          3.27868853e-03, 1.96721312e-02, 0., 3.27868853e-03,
          9.83606558e-03, 3.27868853e-03, 6.55737706e-03, 0.,
          3.27868853e-03, 9.83606558e-03, 0., 1.63934417e-02,
          1.63934417e-02, 1.63934417e-02, 1.31147541e-02, 3.93442623e-02,
          1.31147541e-02, 1.31147541e-02, 1.31147541e-02, 0.,
          1.63934417e-02, 2.29508206e-02, 6.55737706e-03, 9.83606558e-03,
          6.55737706e-03, 2.62295082e-02, 1.31147541e-02, 0.,
          6.55737706e-03, 3.27868853e-03 ]
      - [ 2.46913591e-03, 4.93827183e-03, 7.40740774e-03, 2.46913591e-03,
          2.46913591e-03, 2.46913582e-02, 6.41975328e-02, 4.93827183e-03,
          2.46913591e-03, 1.23456791e-02, 4.93827183e-03, 1.23456791e-02,
          7.40740774e-03, 0., 2.46913591e-03, 1.48148155e-02,
          9.87654366e-03, 1.48148155e-02, 1.72839519e-02, 7.40740774e-03,
          1.48148155e-02, 0., 9.87654366e-03, 7.40740774e-03,
          1.23456791e-02, 0., 7.40740774e-03, 7.40740774e-03,
          2.46913591e-03, 7.40740774e-03, 4.93827183e-03, 9.87654366e-03,
          2.46913591e-03, 9.87654366e-03, 2.71604955e-02, 2.22222228e-02,
          1.23456791e-02, 7.40740774e-03, 4.93827183e-03, 1.48148155e-02,
          4.93827183e-03, 1.72839519e-02, 9.87654366e-03, 7.40740774e-03,
          4.93827183e-03, 7.40740774e-03, 4.93827183e-03, 9.87654366e-03,
          4.93827183e-03, 2.46913591e-03, 7.40740774e-03, 1.97530873e-02,
          2.46913591e-03, 1.23456791e-02, 1.72839519e-02, 2.46913582e-02,
          2.46913591e-03, 1.23456791e-02, 1.23456791e-02, 9.87654366e-03,
          9.87654366e-03, 7.40740774e-03, 2.22222228e-02, 2.46913591e-03,
          4.93827183e-03, 7.40740774e-03, 7.40740774e-03, 7.40740774e-03,
          1.72839519e-02, 4.93827183e-03, 4.93827183e-03, 9.87654366e-03,
          0., 2.96296310e-02, 2.46913591e-03, 1.48148155e-02,
          4.93827183e-03, 2.46913591e-03, 2.46913591e-03, 9.87654366e-03,
          2.71604955e-02, 1.48148155e-02, 1.48148155e-02, 4.93827183e-03,
          2.46913591e-03, 2.96296310e-02, 4.93827183e-03, 1.97530873e-02,
          1.48148155e-02, 1.48148155e-02, 1.72839519e-02, 1.72839519e-02,
          9.87654366e-03, 4.93827183e-03, 7.40740774e-03, 4.93827183e-03,
          0., 4.93827183e-03, 7.40740774e-03, 4.93827183e-03 ]
      - [ 8.57142825e-03, 2.28571426e-02, 1.42857144e-02, 5.71428565e-03,
          1.42857144e-02, 1.71428565e-02, 2.85714283e-03, 2.28571426e-02,
          2.85714283e-03, 8.57142825e-03, 2.85714283e-03, 5.71428565e-03,
          8.57142825e-03, 0., 2.85714283e-03, 1.14285713e-02,
          1.14285713e-02, 1.14285713e-02, 1.42857144e-02, 2.57142857e-02,
          8.57142825e-03, 0., 1.14285713e-02, 8.57142825e-03,
          2.85714283e-03, 2.85714283e-03, 2.85714283e-03, 1.14285713e-02,
          2.85714283e-03, 5.71428565e-03, 5.71428565e-03, 2.85714283e-03,
          1.14285713e-02, 0., 1.14285713e-02, 3.14285718e-02,
          1.14285713e-02, 1.42857144e-02, 8.57142825e-03, 8.57142825e-03,
          0., 0., 1.14285713e-02, 8.57142825e-03, 5.71428565e-03,
          8.57142825e-03, 1.42857144e-02, 5.71428565e-03, 8.57142825e-03,
          8.57142825e-03, 8.57142825e-03, 1.71428565e-02, 1.42857144e-02,
          5.71428565e-03, 2.85714283e-03, 1.42857144e-02, 1.71428565e-02,
          5.71428565e-03, 1.71428565e-02, 1.14285713e-02, 1.42857144e-02,
          1.71428565e-02, 1.14285713e-02, 1.42857144e-02, 1.71428565e-02,
          1.71428565e-02, 2.85714283e-03, 8.57142825e-03, 0.,
          1.99999996e-02, 2.85714283e-03, 1.71428565e-02, 0.,
          1.14285713e-02, 0., 2.85714283e-03, 1.71428565e-02, 0., 0.,
          5.71428565e-03, 1.42857144e-02, 1.42857144e-02, 5.71428565e-03,
          0., 4.28571440e-02, 5.71428565e-03, 1.14285713e-02,
          1.99999996e-02, 1.71428565e-02, 1.14285713e-02, 1.42857144e-02,
          1.14285713e-02, 2.57142857e-02, 2.85714283e-03, 1.14285713e-02,
          5.71428565e-03, 0., 8.57142825e-03, 3.14285718e-02,
          2.85714283e-03 ]
      - [ 2.41935477e-02, 1.61290318e-02, 0., 3.22580636e-02,
          8.06451589e-03, 0., 0., 2.41935477e-02, 1.61290318e-02, 0., 0.,
          0., 2.41935477e-02, 0., 3.22580636e-02, 1.61290318e-02,
          3.22580636e-02, 0., 0., 1.61290318e-02, 3.22580636e-02, 0.,
          2.41935477e-02, 0., 8.06451589e-03, 1.61290318e-02,
          8.06451589e-03, 3.22580636e-02, 8.06451589e-03, 8.06451589e-03,
          1.61290318e-02, 0., 1.61290318e-02, 8.06451589e-03,
          8.06451589e-03, 2.41935477e-02, 0., 8.06451589e-03, 0., 0.,
          8.06451589e-03, 0., 1.61290318e-02, 8.06451589e-03,
          8.06451589e-03, 2.41935477e-02, 0., 0., 0., 4.03225794e-02, 0.,
          0., 1.61290318e-02, 0., 8.06451589e-03, 2.41935477e-02,
          4.03225794e-02, 0., 0., 1.61290318e-02, 0., 0., 0.,
          1.61290318e-02, 0., 8.06451589e-03, 8.06451589e-03,
          8.06451589e-03, 8.06451589e-03, 0., 8.06451589e-03,
          8.06451589e-03, 0., 0., 0., 0., 1.61290318e-02, 0., 0.,
          1.61290318e-02, 0., 3.22580636e-02, 0., 1.61290318e-02,
          8.87096748e-02, 0., 0., 8.06451589e-03, 0., 0., 8.06451589e-03,
          8.06451589e-03, 0., 8.06451589e-03, 1.61290318e-02, 0., 0.,
          8.06451589e-03, 3.22580636e-02, 8.06451589e-03 ]
      - [ 1.19047621e-02, 0., 0., 0., 0., 3.57142873e-02, 0.,
          9.52380970e-02, 0., 0., 0., 0., 2.38095243e-02, 0.,
          4.76190485e-02, 0., 0., 0., 0., 7.14285746e-02, 2.38095243e-02,
          0., 2.38095243e-02, 3.57142873e-02, 0., 0., 0., 0.,
          1.19047621e-02, 1.19047621e-02, 1.19047621e-02, 0., 0., 0., 0.,
          2.38095243e-02, 0., 1.19047621e-02, 0., 0., 0., 0., 0.,
          3.57142873e-02, 0., 1.19047621e-02, 3.57142873e-02, 0.,
          1.19047621e-02, 1.19047621e-02, 0., 0., 3.57142873e-02,
          1.19047621e-02, 0., 0., 2.38095243e-02, 0., 0., 4.76190485e-02,
          2.38095243e-02, 4.76190485e-02, 0., 0., 0., 0., 1.19047621e-02,
          2.38095243e-02, 0., 2.38095243e-02, 1.19047621e-02, 0., 0., 0.,
          0., 0., 1.19047621e-02, 0., 1.19047621e-02, 1.19047621e-02, 0.,
          0., 0., 0., 7.14285746e-02, 0., 0., 0., 0., 1.19047621e-02,
          4.76190485e-02, 0., 1.19047621e-02, 0., 0., 0., 1.19047621e-02,
          0., 0., 0. ]
      - [ 1.18043851e-02, 8.43170285e-03, 2.19224282e-02, 1.01180440e-02,
          8.43170285e-03, 3.37268133e-03, 1.01180440e-02, 2.86677908e-02,
          1.68634066e-03, 1.68634057e-02, 1.01180440e-02, 5.05902199e-03,
          3.37268133e-03, 5.05902199e-03, 8.43170285e-03, 8.43170285e-03,
          8.43170285e-03, 1.68634057e-02, 1.18043851e-02, 1.01180440e-02,
          1.68634066e-03, 5.05902199e-03, 8.43170285e-03, 8.43170285e-03,
          1.34907253e-02, 3.37268133e-03, 3.37268133e-03, 1.18043851e-02,
          6.74536265e-03, 1.34907253e-02, 3.37268133e-03, 1.34907253e-02,
          1.85497478e-02, 1.01180440e-02, 1.34907253e-02, 0.,
          1.51770655e-02, 2.02360880e-02, 1.18043851e-02, 5.05902199e-03,
          1.68634066e-03, 1.68634066e-03, 8.43170285e-03, 1.68634057e-02,
          0., 5.05902199e-03, 1.68634057e-02, 1.18043851e-02,
          5.05902199e-03, 5.05902199e-03, 3.37268133e-03, 2.02360880e-02,
          5.05902199e-03, 1.68634066e-03, 1.51770655e-02, 8.43170285e-03,
          0., 1.34907253e-02, 3.03541310e-02, 3.37268133e-03,
          2.52951104e-02, 1.01180440e-02, 2.69814506e-02, 5.05902199e-03,
          0., 1.85497478e-02, 3.37268133e-03, 6.74536265e-03,
          5.05902199e-03, 5.05902199e-03, 3.37268133e-03, 2.36087702e-02,
          5.05902199e-03, 5.05902199e-03, 1.51770655e-02, 0.,
          6.74536265e-03, 0., 3.37268133e-03, 1.34907253e-02,
          5.05902199e-03, 8.43170285e-03, 2.36087702e-02, 8.43170285e-03,
          1.51770655e-02, 1.68634057e-02, 1.34907253e-02, 2.19224282e-02,
          1.18043851e-02, 1.01180440e-02, 1.34907253e-02, 1.68634057e-02,
          1.01180440e-02, 1.01180440e-02, 1.85497478e-02, 1.68634057e-02,
          1.68634066e-03, 1.01180440e-02, 1.01180440e-02, 5.05902199e-03 ]
      - [ 1.07526882e-02, 7.16845877e-03, 1.79211460e-02, 3.58422939e-03,
          0., 0., 1.25448033e-01, 6.45161271e-02, 3.58422939e-03,
          3.58422939e-03, 7.16845877e-03, 1.07526882e-02, 7.16845877e-03,
          3.58422939e-03, 7.16845877e-03, 1.43369175e-02, 0.,
          1.43369175e-02, 1.43369175e-02, 1.43369175e-02, 1.07526882e-02,
          0., 1.43369175e-02, 7.16845877e-03, 7.16845877e-03, 0.,
          2.50896066e-02, 0., 3.58422939e-03, 3.58422939e-03,
          3.58422939e-03, 3.58422939e-03, 3.58422939e-03, 0.,
          1.43369175e-02, 1.07526882e-02, 0., 0., 0., 1.07526882e-02, 0.,
          7.16845877e-03, 3.58422939e-03, 3.58422939e-03, 3.58422939e-03,
          1.07526882e-02, 3.58422939e-03, 0., 1.43369175e-02,
          1.07526882e-02, 3.58422939e-03, 1.79211460e-02, 2.15053763e-02,
          0., 3.58422939e-03, 7.16845877e-03, 3.58422939e-03,
          7.16845877e-03, 1.79211460e-02, 1.43369175e-02, 3.58422939e-03,
          7.16845877e-03, 7.16845877e-03, 7.16845877e-03, 0.,
          3.58422939e-03, 0., 7.16845877e-03, 0., 0., 1.07526882e-02,
          3.58422939e-03, 3.58422939e-03, 1.43369175e-02, 3.58422939e-03,
          3.58422939e-03, 0., 3.58422939e-03, 3.58422939e-03,
          7.16845877e-03, 3.58422939e-03, 0., 2.15053763e-02,
          3.58422939e-03, 6.81003556e-02, 4.65949811e-02, 3.58422939e-03,
          2.50896066e-02, 1.07526882e-02, 0., 1.07526882e-02,
          2.15053763e-02, 2.50896066e-02, 0., 1.07526882e-02,
          1.07526882e-02, 7.16845877e-03, 7.16845877e-03, 2.86738351e-02,
          3.58422939e-03 ]
      - [ 1.50375944e-02, 7.51879718e-03, 7.51879718e-03, 1.50375944e-02,
          1.50375944e-02, 0., 0., 4.51127812e-02, 7.51879718e-03,
          1.50375944e-02, 7.51879718e-03, 0., 7.51879718e-03, 0., 0.,
          7.51879718e-03, 7.51879718e-03, 7.51879718e-03, 1.50375944e-02,
          1.50375944e-02, 0., 0., 1.50375944e-02, 3.00751887e-02,
          7.51879718e-03, 7.51879718e-03, 7.51879718e-03, 7.51879718e-03,
          1.50375944e-02, 3.00751887e-02, 7.51879718e-03, 7.51879718e-03,
          7.51879718e-03, 0., 0., 0., 7.51879718e-03, 7.51879718e-03,
          7.51879718e-03, 0., 7.51879718e-03, 0., 1.50375944e-02,
          1.50375944e-02, 2.25563906e-02, 2.25563906e-02, 7.51879718e-03,
          0., 0., 1.50375944e-02, 1.50375944e-02, 0., 1.50375944e-02, 0.,
          0., 7.51879718e-03, 1.50375944e-02, 1.50375944e-02,
          1.50375944e-02, 2.25563906e-02, 1.50375944e-02, 1.50375944e-02,
          1.50375944e-02, 7.51879718e-03, 0., 0., 0., 3.00751887e-02,
          7.51879718e-03, 1.50375944e-02, 7.51879718e-03, 7.51879718e-03,
          7.51879718e-03, 0., 7.51879718e-03, 0., 0., 0., 0.,
          2.25563906e-02, 7.51879718e-03, 0., 0., 3.00751887e-02,
          1.50375944e-02, 0., 0., 1.50375944e-02, 7.51879718e-03,
          1.50375944e-02, 1.50375944e-02, 4.51127812e-02, 7.51879718e-03,
          3.00751887e-02, 7.51879718e-03, 7.51879718e-03, 5.26315793e-02,
          1.50375944e-02, 0., 0. ]
      - [ 5.12820520e-02, 0., 0., 0., 2.56410260e-02, 3.84615399e-02, 0.,
          7.69230798e-02, 1.28205130e-02, 0., 6.41025649e-03,
          1.92307699e-02, 1.28205130e-02, 6.41025649e-03, 6.41025649e-03,
          0., 0., 0., 0., 1.92307699e-02, 6.41025677e-02, 0.,
          6.41025649e-03, 6.41025649e-03, 6.41025649e-03, 0.,
          6.41025649e-03, 0., 0., 0., 1.28205130e-02, 6.41025649e-03, 0.,
          0., 1.28205130e-02, 6.41025677e-02, 0., 6.41025649e-03,
          1.28205130e-02, 0., 0., 0., 3.84615399e-02, 0., 0.,
          1.28205130e-02, 2.56410260e-02, 0., 6.41025649e-03,
          3.84615399e-02, 1.28205130e-02, 1.28205130e-02, 1.92307699e-02,
          0., 1.28205130e-02, 0., 1.28205130e-02, 0., 6.41025649e-03,
          2.56410260e-02, 0., 1.28205130e-02, 1.28205130e-02, 0., 0., 0.,
          1.92307699e-02, 0., 0., 6.41025649e-03, 0., 0., 0., 0.,
          1.28205130e-02, 0., 1.92307699e-02, 1.92307699e-02,
          6.41025649e-03, 0., 6.41025649e-03, 6.41025649e-03,
          6.41025649e-03, 1.28205130e-02, 8.97435918e-02, 1.28205130e-02,
          0., 1.28205130e-02, 6.41025649e-03, 6.41025649e-03, 0.,
          1.28205130e-02, 0., 0., 0., 0., 1.28205130e-02, 0., 0., 0. ]
      - [ 1.25448033e-02, 8.96057300e-03, 2.86738351e-02, 5.37634408e-03,
          1.97132621e-02, 7.16845877e-03, 0., 0., 0., 1.79211460e-02,
          1.61290318e-02, 1.07526882e-02, 5.37634408e-03, 4.12186384e-02,
          3.58422939e-03, 3.58422939e-03, 1.79211460e-02, 5.37634408e-03,
          2.68817209e-02, 7.16845877e-03, 3.58422939e-03, 3.58422939e-03,
          1.79211469e-03, 0., 0., 0., 1.07526882e-02, 5.37634408e-03,
          7.16845877e-03, 1.97132621e-02, 5.37634408e-03, 1.79211469e-03,
          3.94265242e-02, 0., 7.16845877e-03, 2.32974906e-02,
          1.07526882e-02, 5.19713275e-02, 2.32974906e-02, 2.50896066e-02,
          0., 0., 1.97132621e-02, 1.25448033e-02, 1.79211469e-03,
          5.37634408e-03, 1.43369175e-02, 8.96057300e-03, 8.96057300e-03,
          5.37634408e-03, 1.07526882e-02, 8.96057300e-03, 5.37634408e-03,
          1.07526882e-02, 3.58422939e-03, 8.96057300e-03, 1.79211469e-03,
          5.37634408e-03, 2.86738351e-02, 3.58422939e-03, 1.79211460e-02,
          7.16845877e-03, 8.96057300e-03, 8.96057300e-03, 5.37634408e-03,
          3.58422939e-03, 0., 5.37634408e-03, 7.16845877e-03,
          7.16845877e-03, 3.58422939e-03, 5.37634408e-03, 0., 0.,
          1.79211469e-03, 0., 0., 0., 0., 2.32974906e-02, 3.58422939e-03,
          1.43369175e-02, 5.37634408e-03, 1.79211469e-03, 1.61290318e-02,
          0., 1.79211469e-03, 1.07526882e-02, 1.07526882e-02,
          1.79211460e-02, 8.96057300e-03, 8.96057300e-03, 1.25448033e-02,
          2.86738351e-02, 1.79211460e-02, 3.22580636e-02, 1.43369175e-02,
          8.96057300e-03, 3.04659493e-02, 5.37634408e-03 ]
      - [ 2.46913582e-02, 0., 0., 0., 1.23456791e-02, 2.46913582e-02, 0.,
          1.23456791e-01, 0., 0., 0., 1.23456791e-02, 4.93827164e-02, 0.,
          0., 0., 0., 2.46913582e-02, 0., 3.70370373e-02, 3.70370373e-02,
          1.23456791e-02, 0., 1.23456791e-02, 0., 0., 0., 1.23456791e-02,
          0., 1.23456791e-02, 4.93827164e-02, 0., 1.23456791e-02, 0., 0.,
          0., 0., 0., 0., 0., 0., 0., 0., 0., 1.23456791e-02,
          3.70370373e-02, 1.23456791e-02, 0., 0., 6.17283955e-02, 0., 0.,
          0., 0., 0., 0., 1.23456791e-02, 0., 0., 1.23456791e-02, 0., 0.,
          0., 2.46913582e-02, 0., 1.23456791e-02, 0., 2.46913582e-02, 0.,
          4.93827164e-02, 1.23456791e-02, 1.23456791e-02, 0., 0., 0., 0.,
          0., 0., 1.23456791e-02, 0., 0., 2.46913582e-02, 0.,
          2.46913582e-02, 4.93827164e-02, 0., 0., 0., 0., 0., 0.,
          1.23456791e-02, 4.93827164e-02, 2.46913582e-02, 6.17283955e-02,
          0., 0., 0., 0., 0. ]
      - [ 1.99203193e-02, 1.59362555e-02, 7.96812773e-03, 3.98406386e-03,
          1.59362555e-02, 3.98406386e-03, 0., 4.38247025e-02,
          1.19521916e-02, 0., 1.19521916e-02, 7.96812773e-03,
          1.59362555e-02, 0., 0., 3.18725109e-02, 3.98406386e-03,
          2.39043832e-02, 3.98406386e-03, 2.39043832e-02, 0., 0.,
          1.19521916e-02, 0., 1.59362555e-02, 0., 0., 1.99203193e-02,
          1.99203193e-02, 1.59362555e-02, 1.99203193e-02, 3.98406386e-03,
          3.98406386e-03, 7.96812773e-03, 7.96812773e-03, 0.,
          7.96812773e-03, 1.19521916e-02, 7.96812773e-03, 1.59362555e-02,
          7.96812773e-03, 0., 1.19521916e-02, 3.18725109e-02,
          1.19521916e-02, 0., 1.19521916e-02, 1.19521916e-02, 0., 0.,
          7.96812773e-03, 3.98406386e-03, 7.96812773e-03, 7.96812773e-03,
          7.96812773e-03, 1.59362555e-02, 0., 1.59362555e-02,
          7.96812773e-03, 3.98406386e-03, 1.99203193e-02, 2.39043832e-02,
          3.98406386e-03, 1.19521916e-02, 7.96812773e-03, 7.96812773e-03,
          7.96812773e-03, 2.39043832e-02, 7.96812773e-03, 3.98406386e-03,
          1.19521916e-02, 7.96812773e-03, 0., 3.98406386e-03,
          1.19521916e-02, 0., 1.59362555e-02, 1.19521916e-02,
          3.98406386e-03, 1.59362555e-02, 0., 7.96812773e-03,
          3.98406386e-03, 2.39043832e-02, 3.98406386e-02, 0.,
          7.96812773e-03, 1.19521916e-02, 3.98406386e-03, 1.19521916e-02,
          0., 1.19521916e-02, 3.18725109e-02, 0., 7.96812773e-03,
          7.96812773e-03, 7.96812773e-03, 7.96812773e-03, 2.39043832e-02,
          0. ]
      - [ 3.79746854e-02, 0., 0., 1.26582282e-02, 0., 8.86075944e-02, 0.,
          6.32911408e-03, 0., 0., 6.32911408e-03, 2.53164563e-02,
          4.43037972e-02, 6.32911408e-03, 6.32911408e-03, 6.32911408e-03,
          0., 0., 6.32911408e-03, 1.26582282e-02, 2.53164563e-02, 0.,
          1.26582282e-02, 1.89873427e-02, 6.32911408e-03, 0.,
          6.32911408e-03, 1.26582282e-02, 0., 6.32911408e-03,
          6.32911408e-03, 0., 6.32911408e-03, 0., 0., 2.53164563e-02,
          6.32911408e-03, 6.32911408e-03, 6.32911408e-03, 6.32911408e-03,
          0., 0., 6.32911408e-03, 0., 0., 0., 3.16455700e-02,
          3.16455700e-02, 1.26582282e-02, 1.26582282e-02, 1.26582282e-02,
          0., 3.16455700e-02, 4.43037972e-02, 0., 6.32911408e-03,
          1.26582282e-02, 0., 6.32911408e-03, 3.16455700e-02, 0.,
          4.43037972e-02, 6.32911408e-03, 1.26582282e-02, 6.32911408e-03,
          0., 6.32911408e-03, 6.32911408e-03, 6.32911408e-03,
          1.26582282e-02, 1.89873427e-02, 0., 0., 0., 0., 0.,
          1.26582282e-02, 0., 1.89873427e-02, 0., 6.32911408e-03,
          1.26582282e-02, 0., 0., 1.26582282e-02, 0., 0., 6.32911408e-03,
          0., 3.16455700e-02, 3.16455700e-02, 0., 6.32911408e-03,
          6.32911408e-03, 0., 6.32911408e-03, 6.96202517e-02, 0., 0.,
          6.32911408e-03 ]
      - [ 0., 3.74531839e-03, 3.74531839e-03, 3.74531839e-03,
          3.74531839e-03, 3.74531839e-03, 1.12359552e-02, 1.49812736e-02,
          0., 0., 7.49063678e-03, 7.49063678e-03, 1.12359552e-02,
          3.74531839e-03, 0., 0., 1.49812736e-02, 1.12359552e-02,
          1.87265910e-02, 3.74531839e-03, 4.11985032e-02, 0.,
          7.49063678e-03, 7.49063678e-03, 0., 7.49063678e-03,
          1.49812736e-02, 1.12359552e-02, 1.49812736e-02, 0., 0., 0.,
          1.49812736e-02, 3.74531839e-03, 1.12359552e-02, 2.99625471e-02,
          7.49063678e-03, 0., 1.87265910e-02, 1.49812736e-02,
          1.12359552e-02, 3.74531839e-03, 1.12359552e-02, 7.49063678e-03,
          2.62172297e-02, 0., 2.62172297e-02, 3.74531839e-03,
          1.12359552e-02, 2.24719103e-02, 2.62172297e-02, 1.12359552e-02,
          1.12359552e-02, 7.49063678e-03, 1.12359552e-02, 0.,
          7.49063678e-03, 2.24719103e-02, 1.12359552e-02, 3.74531839e-03,
          1.49812736e-02, 7.49063678e-03, 2.62172297e-02, 3.74531820e-02,
          3.74531839e-03, 3.74531839e-03, 3.74531839e-03, 0.,
          7.49063678e-03, 3.74531820e-02, 1.12359552e-02, 3.37078646e-02,
          7.49063678e-03, 1.12359552e-02, 0., 3.74531839e-03,
          3.74531839e-03, 0., 3.74531839e-03, 3.74531839e-03, 0.,
          1.12359552e-02, 1.49812736e-02, 7.49063678e-03, 3.74531820e-02,
          1.49812736e-02, 3.74531839e-03, 3.74531839e-03, 3.74531839e-03,
          1.87265910e-02, 3.74531839e-03, 7.49063678e-03, 7.49063678e-03,
          3.74531839e-03, 3.74531839e-03, 1.12359552e-02, 2.62172297e-02,
          7.49063678e-03, 1.12359552e-02, 1.49812736e-02 ]
      - [ 9.34579410e-03, 4.67289705e-03, 9.34579410e-03, 4.67289705e-03,
          1.86915882e-02, 9.34579410e-03, 0., 2.33644843e-02, 0.,
          9.34579410e-03, 1.40186911e-02, 0., 1.86915882e-02,
          1.40186911e-02, 9.34579410e-03, 4.67289705e-03, 1.40186911e-02,
          4.67289705e-03, 4.67289705e-03, 9.34579410e-03, 1.40186911e-02,
          0., 1.40186911e-02, 2.33644843e-02, 9.34579410e-03, 0., 0.,
          4.67289705e-03, 9.34579410e-03, 4.67289705e-03, 0., 0.,
          2.80373823e-02, 4.67289705e-03, 9.34579410e-03, 3.27102803e-02,
          9.34579410e-03, 3.73831764e-02, 4.67289705e-03, 3.73831764e-02,
          0., 0., 2.33644843e-02, 4.67289705e-03, 0., 0., 0.,
          9.34579410e-03, 4.67289705e-03, 4.67289705e-03, 0.,
          9.34579410e-03, 1.86915882e-02, 0., 9.34579410e-03,
          4.67289705e-03, 9.34579410e-03, 4.67289705e-03, 1.40186911e-02,
          9.34579410e-03, 1.86915882e-02, 0., 4.67289705e-03, 0., 0.,
          2.80373823e-02, 9.34579410e-03, 0., 9.34579410e-03, 0., 0.,
          1.40186911e-02, 0., 4.67289705e-03, 9.34579410e-03,
          1.40186911e-02, 4.67289705e-03, 0., 9.34579410e-03,
          1.40186911e-02, 1.40186911e-02, 9.34579410e-03, 9.34579410e-03,
          0., 2.33644843e-02, 9.34579410e-03, 4.67289705e-03, 0.,
          1.40186911e-02, 1.86915882e-02, 0., 4.67289705e-03,
          9.34579410e-03, 4.20560725e-02, 9.34579410e-03, 3.73831764e-02,
          9.34579410e-03, 3.27102803e-02, 5.14018685e-02, 9.34579410e-03 ]
      - [ 1.38248848e-02, 0., 4.60829493e-03, 0., 4.14746553e-02,
          1.84331797e-02, 0., 2.76497696e-02, 0., 4.60829493e-03,
          4.60829493e-03, 4.60829493e-03, 2.30414756e-02, 9.21658985e-03,
          9.21658985e-03, 4.60829493e-03, 4.60829493e-03, 4.60829493e-03,
          4.60829493e-03, 4.60829493e-03, 3.22580636e-02, 0.,
          9.21658985e-03, 1.38248848e-02, 9.21658985e-03, 0.,
          4.60829493e-03, 4.60829493e-03, 0., 2.30414756e-02, 0.,
          9.21658985e-03, 4.60829493e-03, 0., 0., 1.84331797e-02,
          9.21658985e-03, 1.38248848e-02, 2.76497696e-02, 1.84331797e-02,
          0., 9.21658985e-03, 2.30414756e-02, 4.60829493e-03,
          4.60829493e-03, 9.21658985e-03, 3.68663594e-02, 9.21658985e-03,
          0., 1.38248848e-02, 1.38248848e-02, 9.21658985e-03,
          1.84331797e-02, 1.84331797e-02, 4.60829493e-03, 0.,
          9.21658985e-03, 9.21658985e-03, 0., 0., 9.21658985e-03,
          4.60829493e-03, 9.21658985e-03, 3.22580636e-02, 9.21658985e-03,
          1.38248848e-02, 1.84331797e-02, 4.60829493e-03, 0.,
          4.60829493e-03, 1.84331797e-02, 0., 0., 2.76497696e-02,
          4.60829493e-03, 1.38248848e-02, 1.38248848e-02, 0.,
          1.38248848e-02, 4.60829493e-03, 9.21658985e-03, 4.60829493e-03,
          1.84331797e-02, 0., 5.06912433e-02, 4.60829493e-03,
          9.21658985e-03, 0., 4.60829493e-03, 2.30414756e-02,
          4.60829493e-03, 2.76497696e-02, 9.21658985e-03, 1.84331797e-02,
          4.60829493e-03, 4.60829493e-03, 1.84331797e-02, 4.60829493e-03,
          0., 4.60829493e-03 ]
      - [ 8.52272753e-03, 9.94318165e-03, 3.55113633e-02, 7.10227294e-03,
          1.98863633e-02, 0., 0., 7.10227294e-03, 2.84090918e-03,
          1.56250000e-02, 1.13636367e-02, 4.26136376e-03, 7.10227294e-03,
          8.52272753e-03, 9.94318165e-03, 5.68181835e-03, 1.56250000e-02,
          2.13068184e-02, 1.42045459e-02, 2.13068184e-02, 2.84090918e-03,
          4.26136376e-03, 8.52272753e-03, 0., 1.42045459e-03,
          1.42045459e-03, 1.42045459e-02, 1.13636367e-02, 9.94318165e-03,
          7.10227294e-03, 8.52272753e-03, 0., 4.68750000e-02,
          2.84090918e-03, 1.27840918e-02, 1.42045459e-03, 8.52272753e-03,
          2.55681835e-02, 9.94318165e-03, 3.40909101e-02, 0., 0.,
          1.98863633e-02, 4.26136376e-03, 2.84090918e-03, 4.26136376e-03,
          2.84090918e-03, 9.94318165e-03, 7.10227294e-03, 1.56250000e-02,
          0., 1.13636367e-02, 1.42045459e-03, 1.13636367e-02,
          1.42045459e-03, 1.13636367e-02, 4.26136376e-03, 7.10227294e-03,
          2.41477285e-02, 0., 5.11363670e-02, 5.68181835e-03,
          9.94318165e-03, 2.27272734e-02, 4.26136376e-03, 9.94318165e-03,
          2.84090918e-03, 8.52272753e-03, 4.26136376e-03, 1.42045459e-03,
          8.52272753e-03, 1.70454551e-02, 0., 0., 1.42045459e-03,
          1.42045459e-03, 1.42045459e-02, 2.84090918e-03, 1.42045459e-03,
          1.70454551e-02, 0., 1.13636367e-02, 8.52272753e-03,
          7.10227294e-03, 0., 1.27840918e-02, 0., 9.94318165e-03,
          8.52272753e-03, 1.13636367e-02, 1.13636367e-02, 2.13068184e-02,
          7.10227294e-03, 2.13068184e-02, 1.56250000e-02, 3.55113633e-02,
          1.42045459e-03, 7.10227294e-03, 4.11931835e-02, 7.10227294e-03 ]
      - [ 8.24175868e-03, 5.49450563e-03, 2.74725282e-03, 1.09890113e-02,
          5.49450563e-03, 3.84615399e-02, 2.74725282e-03, 3.84615399e-02,
          2.74725282e-03, 5.49450563e-03, 0., 2.47252751e-02,
          4.67032976e-02, 2.74725282e-03, 1.92307699e-02, 0.,
          5.49450563e-03, 8.24175868e-03, 1.64835174e-02, 2.47252751e-02,
          5.49450563e-03, 0., 1.64835174e-02, 1.92307699e-02,
          5.49450563e-03, 8.24175868e-03, 2.74725277e-02, 2.74725282e-03,
          5.49450563e-03, 1.09890113e-02, 0., 2.74725282e-03,
          1.37362638e-02, 0., 1.64835174e-02, 3.29670347e-02,
          5.49450563e-03, 8.24175868e-03, 5.49450563e-03, 2.74725282e-03,
          2.74725282e-03, 2.74725282e-03, 5.49450563e-03, 5.49450563e-03,
          1.09890113e-02, 5.49450563e-03, 1.92307699e-02, 2.74725282e-03,
          1.92307699e-02, 4.39560451e-02, 5.49450563e-03, 2.74725282e-03,
          1.64835174e-02, 8.24175868e-03, 5.49450563e-03, 5.49450563e-03,
          8.24175868e-03, 8.24175868e-03, 8.24175868e-03, 5.49450563e-03,
          5.49450563e-03, 8.24175868e-03, 5.49450563e-03, 1.64835174e-02,
          0., 2.74725282e-03, 8.24175868e-03, 2.74725282e-03, 0., 0.,
          4.67032976e-02, 1.37362638e-02, 0., 5.49450563e-03,
          5.49450563e-03, 0., 5.49450563e-03, 0., 8.24175868e-03,
          5.49450563e-03, 8.24175868e-03, 1.09890113e-02, 5.49450563e-03,
          2.74725282e-03, 4.39560451e-02, 3.02197803e-02, 5.49450563e-03,
          0., 5.49450563e-03, 1.37362638e-02, 5.49450563e-03,
          5.49450563e-03, 1.64835174e-02, 1.09890113e-02, 2.74725282e-03,
          5.49450563e-03, 0., 1.37362638e-02, 0., 2.19780225e-02 ]
      - [ 1.73160173e-02, 0., 0., 4.32900432e-03, 8.65800865e-03,
          6.92640692e-02, 8.65800865e-03, 6.49350658e-02, 0., 0., 0.,
          3.46320346e-02, 4.32900414e-02, 0., 4.32900432e-03,
          4.32900432e-03, 4.32900432e-03, 0., 0., 1.29870130e-02,
          8.65800865e-03, 4.32900432e-03, 0., 4.32900432e-03,
          4.32900432e-03, 0., 4.32900432e-03, 8.65800865e-03,
          1.29870130e-02, 4.32900432e-03, 1.73160173e-02, 0.,
          1.73160173e-02, 0., 0., 1.73160173e-02, 4.32900432e-03,
          4.32900432e-03, 4.32900432e-03, 0., 4.32900432e-03, 0.,
          8.65800865e-03, 0., 4.32900432e-03, 8.65800865e-03,
          2.16450207e-02, 1.73160173e-02, 2.16450207e-02, 5.62770553e-02,
          8.65800865e-03, 8.65800865e-03, 2.16450207e-02, 2.59740259e-02,
          0., 4.32900432e-03, 4.32900432e-03, 0., 0., 4.32900432e-03,
          4.32900432e-03, 1.29870130e-02, 0., 2.59740259e-02, 0.,
          4.32900432e-03, 1.29870130e-02, 8.65800865e-03, 4.32900432e-03,
          1.29870130e-02, 4.32900432e-03, 0., 8.65800865e-03,
          1.29870130e-02, 0., 4.32900432e-03, 0., 0., 8.65800865e-03, 0.,
          1.29870130e-02, 4.32900432e-03, 4.32900432e-03, 0.,
          1.03896104e-01, 4.32900432e-03, 0., 0., 8.65800865e-03,
          1.73160173e-02, 0., 2.59740259e-02, 2.16450207e-02,
          1.73160173e-02, 0., 4.32900432e-03, 8.65800865e-03, 0.,
          8.65800865e-03, 1.73160173e-02 ]
      - [ 3.32225906e-03, 1.99335553e-02, 6.64451811e-03, 3.32225906e-03,
          1.32890362e-02, 0., 3.98671106e-02, 1.32890362e-02, 0., 0.,
          1.32890362e-02, 6.64451811e-03, 3.32225906e-03, 0.,
          6.64451811e-03, 3.32225906e-03, 1.32890362e-02, 9.96677764e-03,
          1.32890362e-02, 0., 9.96677764e-03, 0., 1.32890362e-02,
          6.64451811e-03, 2.32558139e-02, 3.32225906e-03, 3.32225906e-03,
          6.64451811e-03, 6.64451811e-03, 1.66112948e-02, 1.32890362e-02,
          0., 0., 3.32225906e-03, 1.99335553e-02, 0., 0., 0.,
          3.32225906e-03, 1.32890362e-02, 0., 1.66112948e-02,
          6.64451811e-03, 6.64451811e-03, 2.32558139e-02, 6.64451811e-03,
          1.32890362e-02, 0., 6.64451811e-03, 0., 9.96677764e-03,
          1.32890362e-02, 0., 0., 2.99003311e-02, 6.64451811e-03, 0.,
          9.96677764e-03, 1.99335553e-02, 0., 9.96677764e-03,
          9.96677764e-03, 1.99335553e-02, 3.32225906e-03, 0.,
          1.32890362e-02, 6.64451811e-03, 6.64451811e-03, 9.96677764e-03,
          3.32225906e-03, 9.96677764e-03, 5.64784035e-02, 0.,
          4.65116277e-02, 9.96677764e-03, 6.64451811e-03, 9.96677764e-03,
          1.32890362e-02, 3.32225906e-03, 1.32890362e-02, 3.32225906e-03,
          3.32225906e-03, 3.65448482e-02, 1.66112948e-02, 1.32890362e-02,
          3.65448482e-02, 1.32890362e-02, 6.64451811e-03, 1.66112948e-02,
          3.32225906e-03, 3.32225906e-03, 2.65780725e-02, 1.66112948e-02,
          6.64451811e-03, 6.64451811e-03, 0., 0., 1.99335553e-02,
          2.65780725e-02, 9.96677764e-03 ]
      - [ 1.04166670e-02, 1.04166670e-02, 0., 6.94444450e-03,
          1.73611119e-02, 3.47222225e-03, 3.47222225e-03, 1.38888890e-02,
          3.47222225e-03, 1.04166670e-02, 6.94444450e-03, 0.,
          6.94444450e-03, 2.43055560e-02, 2.77777780e-02, 1.04166670e-02,
          6.94444450e-03, 6.94444450e-03, 3.47222225e-03, 1.73611119e-02,
          1.73611119e-02, 6.94444450e-03, 1.04166670e-02, 6.94444450e-03,
          0., 0., 6.94444450e-03, 6.94444450e-03, 6.94444450e-03,
          6.94444450e-03, 1.04166670e-02, 3.47222225e-03, 1.73611119e-02,
          0., 6.94444450e-03, 1.04166670e-02, 1.38888890e-02,
          2.43055560e-02, 1.04166670e-02, 6.94444450e-03, 0., 0.,
          3.47222225e-03, 1.04166670e-02, 3.47222225e-03, 1.38888890e-02,
          2.08333340e-02, 3.47222225e-03, 1.04166670e-02, 6.94444450e-03,
          1.73611119e-02, 2.08333340e-02, 0., 0., 1.04166670e-02,
          2.43055560e-02, 0., 1.04166670e-02, 1.38888890e-02,
          3.47222225e-03, 1.04166670e-02, 1.04166670e-02, 6.94444450e-03,
          1.73611119e-02, 1.04166670e-02, 1.38888890e-02, 0.,
          6.94444450e-03, 6.94444450e-03, 1.38888890e-02, 6.94444450e-03,
          6.94444450e-03, 0., 3.47222225e-03, 3.47222225e-03,
          3.47222225e-03, 1.38888890e-02, 0., 3.47222225e-03,
          1.04166670e-02, 6.94444450e-03, 1.38888890e-02, 2.08333340e-02,
          1.04166670e-02, 1.73611119e-02, 6.94444450e-03, 1.04166670e-02,
          0., 1.04166670e-02, 3.47222239e-02, 1.04166670e-02,
          2.08333340e-02, 5.20833321e-02, 1.04166670e-02, 2.43055560e-02,
          1.04166670e-02, 6.94444450e-03, 3.47222225e-03, 3.12500000e-02,
          1.04166670e-02 ]
      - [ 1.23456791e-02, 7.40740774e-03, 4.93827183e-03, 1.48148155e-02,
          1.97530873e-02, 0., 0., 2.96296310e-02, 0., 7.40740774e-03,
          7.40740774e-03, 4.93827183e-03, 1.97530873e-02, 2.46913591e-03,
          7.40740774e-03, 4.93827183e-03, 2.46913591e-03, 1.23456791e-02,
          7.40740774e-03, 1.23456791e-02, 1.23456791e-02, 0.,
          1.23456791e-02, 1.23456791e-02, 0., 0., 7.40740774e-03,
          1.48148155e-02, 1.72839519e-02, 7.40740774e-03, 4.93827183e-03,
          4.93827183e-03, 1.23456791e-02, 4.93827183e-03, 2.46913582e-02,
          1.23456791e-02, 2.46913591e-03, 2.46913591e-03, 4.93827183e-03,
          2.46913591e-03, 2.46913591e-03, 0., 2.46913582e-02,
          4.93827183e-03, 1.48148155e-02, 1.72839519e-02, 9.87654366e-03,
          7.40740774e-03, 1.72839519e-02, 1.48148155e-02, 2.46913591e-03,
          7.40740774e-03, 3.70370373e-02, 9.87654366e-03, 4.93827183e-03,
          7.40740774e-03, 2.71604955e-02, 9.87654366e-03, 7.40740774e-03,
          2.96296310e-02, 9.87654366e-03, 1.97530873e-02, 1.97530873e-02,
          2.46913582e-02, 9.87654366e-03, 1.48148155e-02, 9.87654366e-03,
          7.40740774e-03, 4.93827183e-03, 2.46913591e-03, 1.97530873e-02,
          4.93827183e-03, 0., 0., 7.40740774e-03, 7.40740774e-03,
          7.40740774e-03, 0., 1.72839519e-02, 1.23456791e-02,
          1.23456791e-02, 9.87654366e-03, 2.46913582e-02, 7.40740774e-03,
          7.40740774e-03, 7.40740774e-03, 0., 4.93827183e-03,
          4.93827183e-03, 1.72839519e-02, 4.93827183e-03, 1.48148155e-02,
          2.46913591e-03, 2.46913591e-03, 1.48148155e-02, 2.46913591e-03,
          1.48148155e-02, 1.97530873e-02, 1.23456791e-02, 1.97530873e-02 ]
      - [ 2.53807101e-02, 5.07614203e-03, 0., 1.01522841e-02,
          5.07614203e-03, 1.01522841e-02, 0., 2.03045681e-02, 0., 0., 0.,
          1.52284261e-02, 3.55329961e-02, 0., 5.07614203e-03,
          2.03045681e-02, 5.07614203e-03, 5.07614203e-03, 1.01522841e-02,
          1.52284261e-02, 4.56852764e-02, 0., 1.01522841e-02,
          5.07614203e-03, 1.01522841e-02, 5.07614203e-03, 1.52284261e-02,
          5.07614203e-03, 1.01522841e-02, 5.07614203e-03, 3.04568522e-02,
          1.01522841e-02, 0., 1.01522841e-02, 2.03045681e-02,
          4.06091362e-02, 0., 2.03045681e-02, 0., 5.07614203e-03,
          5.07614203e-03, 0., 5.07614203e-03, 5.07614203e-03,
          5.07614203e-03, 5.07614203e-03, 1.52284261e-02, 1.01522841e-02,
          5.07614203e-03, 5.07614203e-02, 0., 1.52284261e-02,
          2.03045681e-02, 1.01522841e-02, 0., 5.07614203e-03,
          2.03045681e-02, 0., 2.03045681e-02, 0., 1.01522841e-02, 0., 0.,
          1.52284261e-02, 5.07614203e-03, 0., 0., 1.01522841e-02, 0.,
          1.52284261e-02, 5.07614203e-03, 1.01522841e-02, 0., 0., 0., 0.,
          5.07614203e-03, 5.07614203e-03, 0., 1.52284261e-02,
          2.53807101e-02, 1.01522841e-02, 0., 5.07614203e-03,
          8.12182724e-02, 1.52284261e-02, 5.07614203e-03, 5.07614203e-03,
          0., 2.03045681e-02, 1.01522841e-02, 5.07614203e-03,
          2.03045681e-02, 5.07614203e-03, 2.03045681e-02, 5.07614203e-03,
          1.01522841e-02, 2.03045681e-02, 0., 5.07614203e-03 ]
      - [ 6.53594779e-03, 0., 0., 1.30718956e-02, 1.30718956e-02,
          8.49673226e-02, 0., 6.53594779e-03, 0., 0., 0., 4.57516350e-02,
          5.88235296e-02, 0., 1.30718956e-02, 1.30718956e-02, 0., 0., 0.,
          3.26797403e-02, 2.61437912e-02, 0., 6.53594779e-03, 0.,
          1.30718956e-02, 6.53594779e-03, 6.53594779e-03, 0., 0., 0., 0.,
          6.53594779e-03, 6.53594779e-03, 0., 1.96078438e-02,
          1.11111112e-01, 0., 1.30718956e-02, 1.30718956e-02, 0.,
          6.53594779e-03, 0., 1.30718956e-02, 6.53594779e-03, 0.,
          1.30718956e-02, 1.96078438e-02, 0., 1.96078438e-02,
          5.22875823e-02, 1.30718956e-02, 6.53594779e-03, 1.30718956e-02,
          3.26797403e-02, 0., 0., 1.30718956e-02, 6.53594779e-03, 0.,
          6.53594779e-03, 0., 1.96078438e-02, 1.30718956e-02,
          6.53594779e-03, 6.53594779e-03, 0., 0., 0., 0., 6.53594779e-03,
          1.30718956e-02, 0., 0., 1.30718956e-02, 1.96078438e-02, 0., 0.,
          0., 0., 0., 1.96078438e-02, 1.30718956e-02, 0., 0.,
          2.61437912e-02, 6.53594779e-03, 6.53594779e-03, 0.,
          6.53594779e-03, 2.61437912e-02, 1.96078438e-02, 6.53594779e-03,
          1.30718956e-02, 0., 6.53594779e-03, 0., 6.53594779e-03, 0., 0.,
          6.53594779e-03 ]
      - [ 9.37500037e-03, 3.12500005e-03, 9.37500037e-03, 1.25000002e-02,
          9.37500037e-03, 6.25000009e-03, 0., 5.00000007e-02,
          3.12500005e-03, 0., 1.25000002e-02, 1.25000002e-02,
          2.50000004e-02, 6.25000009e-03, 0., 0., 6.25000009e-03,
          3.12500005e-03, 6.25000009e-03, 0., 3.12500005e-03,
          3.12500005e-03, 1.25000002e-02, 1.87500007e-02, 3.12500005e-03,
          1.56250000e-02, 3.12500005e-03, 6.25000009e-03, 1.56250000e-02,
          3.12500005e-03, 9.37500037e-03, 2.50000004e-02, 0.,
          4.68750000e-02, 6.25000009e-03, 3.12500005e-03, 3.12500005e-03,
          2.18749996e-02, 1.56250000e-02, 0., 1.56250000e-02,
          1.25000002e-02, 2.50000004e-02, 6.25000009e-03, 9.37500037e-03,
          1.25000002e-02, 3.12500005e-03, 1.25000002e-02, 3.12500005e-03,
          9.37500037e-03, 9.37500037e-03, 3.12500005e-03, 2.18749996e-02,
          1.87500007e-02, 1.87500007e-02, 3.12500005e-03, 6.25000009e-03,
          9.37500037e-03, 9.37500037e-03, 2.50000004e-02, 3.12500005e-03,
          1.25000002e-02, 0., 4.68750000e-02, 0., 3.12500005e-03,
          3.12500005e-03, 3.12500005e-03, 3.12500005e-03, 3.12500005e-03,
          1.87500007e-02, 0., 6.25000009e-03, 3.12500005e-03,
          6.25000009e-03, 3.12500005e-03, 1.25000002e-02, 1.87500007e-02,
          3.12500005e-03, 1.25000002e-02, 3.12500005e-03, 1.56250000e-02,
          9.37500037e-03, 0., 1.87500007e-02, 3.12500005e-03,
          2.81250011e-02, 9.37500037e-03, 1.25000002e-02, 2.50000004e-02,
          9.37500037e-03, 1.25000002e-02, 3.12500005e-03, 9.37500037e-03,
          6.25000009e-03, 0., 2.18749996e-02, 6.25000009e-03,
          3.12500005e-03, 1.56250000e-02 ]
      - [ 7.93650839e-03, 1.58730168e-02, 1.58730168e-02, 7.93650839e-03,
          0., 0., 7.93650839e-03, 2.14285731e-01, 0., 0., 7.93650839e-03,
          7.93650839e-03, 2.38095261e-02, 0., 0., 1.58730168e-02, 0., 0.,
          0., 0., 0., 0., 7.93650839e-03, 0., 0., 0., 0., 7.93650839e-03,
          7.93650839e-03, 1.58730168e-02, 7.93650839e-03, 7.93650839e-03,
          7.93650839e-03, 0., 1.58730168e-02, 0., 7.93650839e-03, 0., 0.,
          7.93650839e-03, 0., 0., 0., 0., 0., 0., 0., 0., 0., 0., 0.,
          1.58730168e-02, 7.93650839e-03, 0., 7.93650839e-03, 0., 0.,
          7.93650839e-03, 0., 2.38095261e-02, 3.96825410e-02,
          3.96825410e-02, 0., 0., 0., 2.38095261e-02, 0., 0.,
          7.93650839e-03, 7.93650839e-03, 0., 0., 0., 0., 0., 0.,
          7.93650839e-03, 1.58730168e-02, 0., 0., 0., 0., 7.93650839e-03,
          7.93650839e-03, 2.06349224e-01, 7.93650839e-03, 3.17460336e-02,
          7.93650839e-03, 3.17460336e-02, 0., 0., 0., 0., 7.93650839e-03,
          2.38095261e-02, 7.93650839e-03, 0., 1.58730168e-02,
          7.93650839e-03, 7.93650839e-03 ]
      - [ 1.42857144e-02, 0., 7.14285718e-03, 7.14285718e-03, 0.,
          2.14285720e-02, 0., 1.50000006e-01, 7.14285718e-03, 0., 0.,
          7.14285718e-03, 1.42857144e-02, 7.14285718e-03, 7.14285718e-03,
          0., 7.14285718e-03, 0., 0., 1.42857144e-02, 4.28571440e-02, 0.,
          7.14285718e-03, 7.14285718e-03, 0., 0., 7.14285718e-03,
          7.14285718e-03, 1.42857144e-02, 0., 0., 7.14285718e-03, 0.,
          7.14285718e-03, 0., 4.28571440e-02, 0., 1.42857144e-02,
          7.14285718e-03, 0., 0., 0., 7.14285718e-03, 0., 1.42857144e-02,
          7.14285718e-03, 7.14285718e-03, 2.85714287e-02, 2.85714287e-02,
          7.14285718e-03, 7.14285718e-03, 7.14285718e-03, 1.42857144e-02,
          3.57142873e-02, 0., 7.14285718e-03, 0., 0., 7.14285718e-03,
          7.14285718e-03, 7.14285718e-03, 2.14285720e-02, 0.,
          5.00000007e-02, 0., 2.14285720e-02, 1.42857144e-02,
          7.14285718e-03, 0., 1.42857144e-02, 1.42857144e-02,
          7.14285718e-03, 7.14285718e-03, 0., 0., 0., 7.14285718e-03, 0.,
          2.14285720e-02, 1.42857144e-02, 0., 1.42857144e-02, 0., 0.,
          5.00000007e-02, 0., 0., 0., 0., 2.14285720e-02, 0., 0.,
          7.14285718e-03, 1.42857144e-02, 7.14285718e-03, 2.14285720e-02,
          4.28571440e-02, 0., 0., 0. ]
      - [ 1.45985400e-02, 1.45985400e-02, 1.45985400e-02, 7.29927002e-03,
          7.29927002e-03, 1.09489048e-02, 6.56934306e-02, 2.55474448e-02,
          0., 3.64963501e-03, 3.64963501e-03, 1.45985400e-02,
          3.64963501e-03, 1.45985400e-02, 1.45985400e-02, 0.,
          3.64963501e-03, 1.09489048e-02, 1.09489048e-02, 1.45985400e-02,
          1.45985400e-02, 0., 1.45985400e-02, 1.82481743e-02,
          1.09489048e-02, 3.64963501e-03, 7.29927002e-03, 0.,
          3.64963501e-03, 1.09489048e-02, 7.29927002e-03, 3.64963501e-03,
          1.09489048e-02, 1.09489048e-02, 7.29927002e-03, 1.09489048e-02,
          3.64963501e-03, 7.29927002e-03, 7.29927002e-03, 0., 0.,
          7.29927002e-03, 1.45985400e-02, 0., 1.09489048e-02,
          1.09489048e-02, 1.09489048e-02, 2.55474448e-02, 1.09489048e-02,
          7.29927002e-03, 1.09489048e-02, 3.64963501e-03, 0.,
          1.09489048e-02, 7.29927002e-03, 1.45985400e-02, 7.29927002e-03,
          1.09489048e-02, 3.64963501e-03, 3.64963501e-03, 7.29927002e-03,
          1.82481743e-02, 1.45985400e-02, 1.82481743e-02, 7.29927002e-03,
          7.29927002e-03, 1.09489048e-02, 0., 0., 1.82481743e-02,
          7.29927002e-03, 3.64963501e-03, 0., 7.29927002e-03,
          1.45985400e-02, 7.29927002e-03, 0., 3.64963501e-03,
          1.09489048e-02, 7.29927002e-03, 0., 1.09489048e-02,
          1.09489048e-02, 7.29927002e-03, 3.64963487e-02, 6.20437935e-02,
          7.29927002e-03, 1.09489048e-02, 3.64963501e-03, 1.09489048e-02,
          1.82481743e-02, 3.64963501e-03, 1.82481743e-02, 2.18978096e-02,
          7.29927002e-03, 3.64963501e-03, 7.29927002e-03, 3.64963501e-03,
          3.64963501e-03, 7.29927002e-03 ]
      - [ 1.47058833e-02, 9.80392192e-03, 0., 1.47058833e-02,
          4.90196096e-03, 2.94117667e-02, 4.90196096e-03, 1.96078438e-02,
          0., 4.90196096e-03, 4.90196096e-03, 1.96078438e-02,
          3.92156877e-02, 0., 4.90196096e-03, 4.90196096e-03, 0.,
          9.80392192e-03, 1.47058833e-02, 9.80392192e-03, 1.47058833e-02,
          0., 1.47058833e-02, 9.80392192e-03, 1.96078438e-02,
          4.90196096e-03, 4.90196096e-03, 4.90196096e-03, 4.90196096e-03,
          9.80392192e-03, 0., 4.90196096e-03, 4.90196096e-03, 0.,
          9.80392192e-03, 2.45098043e-02, 0., 0., 0., 9.80392192e-03, 0.,
          4.90196096e-03, 0., 9.80392192e-03, 4.90196096e-03,
          9.80392192e-03, 3.43137272e-02, 4.90196096e-03, 4.90196096e-03,
          0., 5.39215691e-02, 9.80392192e-03, 0., 4.90196096e-03,
          9.80392192e-03, 1.47058833e-02, 9.80392192e-03, 4.90196096e-03,
          4.90196096e-03, 9.80392192e-03, 9.80392192e-03, 2.94117667e-02,
          4.90196096e-03, 9.80392192e-03, 0., 0., 9.80392192e-03,
          4.90196096e-03, 0., 2.45098043e-02, 4.90196096e-03,
          2.45098043e-02, 4.90196096e-03, 2.94117667e-02, 1.47058833e-02,
          4.90196096e-03, 2.45098043e-02, 1.47058833e-02, 4.90196096e-03,
          4.90196096e-03, 4.90196096e-03, 4.90196096e-03, 1.47058833e-02,
          4.90196096e-03, 1.96078438e-02, 4.90196096e-03, 2.94117667e-02,
          4.90196096e-03, 4.90196096e-03, 3.92156877e-02, 1.47058833e-02,
          9.80392192e-03, 9.80392192e-03, 9.80392192e-03, 0.,
          4.90196096e-03, 4.90196096e-03, 9.80392192e-03, 1.96078438e-02,
          9.80392192e-03 ]
      - [ 1.53061226e-02, 2.04081628e-02, 5.10204071e-03, 5.10204071e-03,
          1.53061226e-02, 0., 5.10204071e-03, 2.04081628e-02, 0.,
          5.10204071e-03, 1.53061226e-02, 0., 1.02040814e-02, 0., 0.,
          1.02040814e-02, 0., 2.55102031e-02, 2.04081628e-02,
          1.53061226e-02, 1.53061226e-02, 1.53061226e-02, 0., 0.,
          5.10204071e-03, 0., 1.53061226e-02, 1.02040814e-02, 0.,
          5.10204062e-02, 5.10204071e-03, 1.02040814e-02, 1.02040814e-02,
          1.02040814e-02, 2.04081628e-02, 0., 3.06122452e-02,
          5.10204071e-03, 0., 1.02040814e-02, 0., 5.10204071e-03,
          1.02040814e-02, 3.57142836e-02, 2.04081628e-02, 5.10204071e-03,
          0., 0., 5.10204071e-03, 0., 5.10204071e-03, 5.10204071e-03,
          5.10204071e-03, 5.10204071e-03, 1.02040814e-02, 0., 0.,
