%YAML:1.0
---
opencv_ml_svm:
   format: 3
   svmType: C_SVC
   kernel:
      type: LINEAR
   C: 3.1250000000000000e+02
   term_criteria: { iterations:100 }
   var_count: 100
   class_count: 2
   class_labels: !!opencv-matrix
      rows: 2
      cols: 1
      dt: i
      data: [ 0, 1 ]
   sv_total: 1
   support_vectors:
      - [ -2.63400602e+00, -1.28887110e+01, -4.44737816e+00,
          7.88990259e+00, 8.31702995e+00, 1.47844708e+00,
          -4.82143211e+00, 2.33994102e+00, 7.81039953e+00,
          9.71088123e+00, -4.84318972e+00, 1.47858882e+00,
          -4.75809669e+00, 5.20229769e+00, -1.00294991e+01,
          -1.05815959e+00, 1.31564989e+01, 3.85398006e+00,
          1.04569397e+01, -8.38099003e+00, 6.00051260e+00,
          2.61978269e+00, -1.13766603e+01, -5.23876238e+00,
          2.43593097e+00, 1.69881392e+00, 5.64410114e+00,
          -1.17044439e+01, -7.78798485e+00, 4.83536530e+00,
          -1.74199009e+01, 7.45453596e+00, 9.14845657e+00,
          -3.34632620e-02, 2.47567344e+00, -1.16598213e+00,
          -9.29506111e+00, 3.46171331e+00, -9.90683460e+00,
          -8.37705040e+00, 3.10776353e-01, 4.01005173e+00,
          4.19089890e+00, 1.23663912e+01, 7.73361063e+00,
          -1.40940294e+01, 2.50175977e+00, 1.05121794e+01,
          1.93936914e-01, 6.53028202e+00, 4.27660376e-01,
          -1.29811268e+01, 7.01587677e+00, 2.05226827e+00,
          -7.43988371e+00, 1.59829652e+00, -1.15872183e+01,
          3.96585727e+00, 1.32276595e+00, -2.95203924e-01,
          -5.74523628e-01, 6.28065348e-01, 6.80777878e-02,
          1.24768229e+01, -7.07085276e+00, -6.10518456e+00,
          -3.75026107e+00, -1.70863018e+01, 6.45970440e+00,
          7.49643993e+00, -9.68627548e+00, 4.21547604e+00,
          -4.00367928e+00, -1.11230364e+01, -2.04554844e+00,
          -9.66775417e-01, 1.49150878e-01, 6.84241867e+00,
          -4.63503647e+00, -1.41001713e+00, -8.85755730e+00,
          -8.78999329e+00, 8.74153423e+00, -7.75680828e+00,
          8.37172222e+00, -1.32196798e+01, 6.71579933e+00,
          3.20085764e+00, -9.38362980e+00, 5.15788436e-01,
          1.64649811e+01, 9.19749928e+00, 1.42116051e+01, 6.57234001e+00,
          1.12426805e+01, 5.48076820e+00, 2.78562617e+00,
          -1.36400843e+01, 6.66453028e+00, -8.03402424e+00 ]
   uncompressed_sv_total: 77
   uncompressed_support_vectors:
      - [ 2.61096610e-03, 2.61096610e-03, 1.04438644e-02, 5.22193220e-03,
          2.61096610e-03, 0., 3.91644910e-02, 2.34986953e-02,
          2.34986953e-02, 1.30548310e-02, 1.30548310e-02, 5.22193220e-03,
          7.83289783e-03, 7.83289783e-03, 0., 1.56657957e-02,
          7.83289783e-03, 5.22193220e-03, 7.83289783e-03, 2.61096610e-03,
          1.04438644e-02, 5.22193220e-03, 0., 0., 1.56657957e-02,
          2.08877288e-02, 0., 7.83289783e-03, 5.22193220e-03,
          1.04438644e-02, 5.22193220e-03, 5.22193220e-03, 3.39425579e-02,
          5.22193220e-03, 5.22193220e-03, 7.83289783e-03, 5.22193220e-03,
          1.56657957e-02, 1.04438644e-02, 2.61096610e-03, 1.82767622e-02,
          2.61096610e-03, 0., 1.04438644e-02, 7.83289783e-03, 0.,
          7.83289783e-03, 2.61096610e-03, 7.83289783e-03, 0.,
          1.30548310e-02, 0., 5.22193220e-03, 7.83289783e-03,
          1.82767622e-02, 7.83289783e-03, 5.22193220e-03, 5.22193220e-03,
          5.22193220e-03, 0., 1.56657957e-02, 1.04438644e-02,
          1.30548310e-02, 7.83289783e-03, 2.61096610e-03, 2.61096610e-03,
          2.61096610e-03, 5.22193220e-03, 2.61096610e-03, 2.08877288e-02,
          0., 7.83289783e-03, 2.08877288e-02, 2.34986953e-02,
          7.83289783e-03, 1.04438644e-02, 7.83289783e-03, 0.,
          2.61096610e-03, 7.83289783e-03, 1.30548310e-02, 0.,
          5.22193220e-03, 2.61096610e-03, 9.13838148e-02, 6.78851157e-02,
          1.30548310e-02, 1.04438644e-02, 2.61096610e-03, 5.22193220e-03,
          5.22193220e-03, 1.30548310e-02, 0., 4.17754576e-02,
          2.61096610e-03, 1.56657957e-02, 1.04438644e-02, 0.,
          3.39425579e-02, 0. ]
      - [ 1.07816709e-02, 0., 2.69541773e-03, 5.39083546e-03, 0.,
          1.34770889e-02, 7.27762803e-02, 8.08625296e-03, 0.,
          4.85175177e-02, 0., 8.08625296e-03, 1.34770889e-02,
          8.08625296e-02, 5.39083546e-03, 2.69541773e-03, 4.04312648e-02,
          1.07816709e-02, 0., 1.07816709e-02, 0., 0., 1.61725059e-02,
          8.08625296e-03, 2.15633418e-02, 0., 8.08625296e-03,
          1.34770889e-02, 8.08625296e-03, 1.34770889e-02, 5.39083546e-03,
          5.39083546e-03, 5.39083546e-03, 5.39083546e-03, 8.08625296e-03,
          1.61725059e-02, 1.61725059e-02, 8.08625296e-03, 1.07816709e-02,
          2.96495948e-02, 0., 1.07816709e-02, 2.69541773e-03,
          2.15633418e-02, 2.69541773e-03, 0., 0., 2.69541773e-03,
          1.61725059e-02, 5.39083546e-03, 4.85175177e-02, 0.,
          5.39083546e-03, 8.08625296e-03, 2.69541778e-02, 1.34770889e-02,
          8.08625296e-03, 2.69541773e-03, 5.39083546e-03, 1.34770889e-02,
          2.69541773e-03, 8.08625296e-03, 0., 5.39083546e-03,
          2.69541773e-03, 8.08625296e-03, 2.69541773e-03, 8.08625296e-03,
          8.08625296e-03, 5.39083546e-03, 2.69541773e-03, 0.,
          2.69541773e-03, 2.15633418e-02, 1.88679248e-02, 2.69541773e-03,
          1.07816709e-02, 1.07816709e-02, 2.69541773e-03, 5.39083546e-03,
          0., 5.39083546e-03, 2.69541773e-03, 2.69541773e-03,
          1.88679248e-02, 2.42587589e-02, 5.39083546e-03, 2.69541773e-03,
          2.69541773e-03, 5.39083546e-03, 8.08625296e-03, 2.69541773e-03,
          0., 4.31266837e-02, 5.39083546e-03, 0., 0., 2.69541773e-03,
          2.69541773e-03, 8.08625296e-03 ]
      - [ 0., 0., 7.76699046e-03, 1.94174761e-03, 3.88349523e-03, 0.,
          4.27184477e-02, 3.88349523e-03, 3.30097079e-02, 9.70873795e-03,
          1.35922330e-02, 3.88349523e-03, 3.88349523e-03, 1.35922330e-02,
          5.82524296e-03, 1.94174761e-03, 5.82524296e-03, 1.94174761e-03,
          1.16504859e-02, 1.55339809e-02, 3.88349523e-03, 5.82524296e-03,
          0., 1.94174761e-03, 3.10679618e-02, 1.94174761e-03,
          5.82524296e-03, 1.94174761e-03, 1.94174761e-03, 5.82524296e-03,
          3.88349523e-03, 6.21359237e-02, 3.88349523e-03, 6.60194159e-02,
          9.70873795e-03, 3.88349523e-03, 1.94174761e-03, 0.,
          7.76699046e-03, 1.94174761e-03, 1.55339809e-02, 4.46601957e-02,
          9.70873795e-03, 1.16504859e-02, 5.82524296e-03, 7.76699046e-03,
          3.88349523e-03, 0., 1.94174761e-03, 0., 3.88349523e-03,
          2.33009718e-02, 1.94174761e-03, 0., 2.33009718e-02,
          3.88349523e-03, 0., 1.16504859e-02, 9.70873795e-03, 0.,
          5.82524296e-03, 7.76699046e-03, 0., 1.94174761e-03,
          1.94174761e-03, 3.88349523e-03, 3.88349523e-03, 3.88349523e-03,
          0., 1.35922330e-02, 1.94174761e-03, 0., 2.13592239e-02,
          1.55339809e-02, 1.35922330e-02, 1.16504859e-02, 0.,
          1.61165059e-01, 5.82524296e-03, 5.82524296e-03, 3.88349523e-03,
          5.82524296e-03, 7.76699046e-03, 0., 5.82524296e-03,
          3.10679618e-02, 9.70873795e-03, 2.13592239e-02, 1.74757279e-02,
          1.94174761e-03, 3.88349523e-03, 1.94174761e-03, 1.94174761e-03,
          5.82524296e-03, 1.94174761e-03, 3.88349523e-03, 0.,
          3.88349523e-03, 5.82524296e-03, 5.82524296e-03 ]
      - [ 6.51890459e-03, 1.30378092e-02, 1.04302475e-02, 3.91134294e-03,
          1.04302475e-02, 1.43415900e-02, 3.65058668e-02, 1.69491526e-02,
          1.69491526e-02, 7.82268587e-03, 7.82268587e-03, 7.82268587e-03,
          1.30378094e-03, 0., 1.30378094e-03, 7.82268587e-03,
          5.21512376e-03, 5.21512376e-03, 1.30378092e-02, 3.91134294e-03,
          9.12646670e-03, 5.21512376e-03, 9.12646670e-03, 2.60756188e-03,
          1.69491526e-02, 1.56453717e-02, 9.12646670e-03, 6.51890459e-03,
          7.82268587e-03, 1.17340283e-02, 2.60756188e-03, 6.51890459e-03,
          1.30378092e-02, 9.12646670e-03, 5.21512376e-03, 5.21512376e-03,
          9.12646670e-03, 1.04302475e-02, 7.82268587e-03, 1.17340283e-02,
          2.21642759e-02, 3.25945243e-02, 9.12646670e-03, 1.95567142e-02,
          1.69491526e-02, 6.51890459e-03, 9.12646670e-03, 2.60756188e-03,
          2.60756188e-03, 5.21512376e-03, 1.95567142e-02, 1.82529334e-02,
          6.51890459e-03, 1.17340283e-02, 2.47718375e-02, 5.21512376e-03,
          3.91134294e-03, 1.17340283e-02, 9.12646670e-03, 5.21512376e-03,
          1.43415900e-02, 3.91134294e-03, 1.30378092e-02, 3.91134294e-03,
          2.60756188e-03, 1.56453717e-02, 0., 5.21512376e-03,
          1.17340283e-02, 6.51890459e-03, 5.21512376e-03, 1.30378092e-02,
          1.69491526e-02, 2.60756183e-02, 9.12646670e-03, 9.12646670e-03,
          1.17340283e-02, 3.78096476e-02, 0., 6.51890459e-03,
          7.82268587e-03, 0., 1.17340283e-02, 7.82268587e-03,
          1.17340283e-02, 2.99869608e-02, 1.43415900e-02, 1.82529334e-02,
          1.30378092e-02, 1.43415900e-02, 1.30378092e-02, 6.51890459e-03,
          9.12646670e-03, 0., 5.21512376e-03, 3.91134294e-03,
          1.30378094e-03, 3.91134294e-03, 0., 7.82268587e-03 ]
      - [ 6.64451811e-03, 1.32890362e-02, 3.32225906e-03, 2.65780725e-02,
          3.32225906e-03, 6.64451811e-03, 6.64451811e-03, 2.32558139e-02,
          1.32890362e-02, 9.96677764e-03, 3.32225906e-03, 3.32225906e-03,
          0., 1.66112948e-02, 0., 1.99335553e-02, 1.99335553e-02,
          1.32890362e-02, 3.32225906e-03, 6.64451811e-03, 3.32225906e-03,
          2.99003311e-02, 6.64451811e-03, 3.32225906e-03, 6.64451811e-03,
          3.32225906e-03, 6.64451811e-03, 3.32225906e-03, 9.96677764e-03,
          1.32890362e-02, 6.64451811e-03, 0., 1.66112948e-02, 0.,
          1.66112948e-02, 0., 1.99335553e-02, 0., 6.64451811e-03,
          1.32890362e-02, 3.32225906e-03, 2.65780725e-02, 3.32225906e-03,
          9.96677764e-03, 3.32225906e-03, 3.32225906e-03, 2.32558139e-02,
          0., 0., 0., 1.66112948e-02, 2.32558139e-02, 0., 0.,
          3.32225906e-03, 3.32225906e-03, 0., 9.96677764e-03,
          4.98338863e-02, 0., 6.64451811e-03, 6.64451811e-03,
          1.99335553e-02, 0., 1.66112948e-02, 9.96677764e-03,
          9.96677764e-03, 9.96677764e-03, 6.64451811e-03, 6.64451811e-03,
          6.64451811e-03, 6.64451811e-03, 2.32558139e-02, 6.64451811e-03,
          0., 9.96677764e-03, 3.32225906e-03, 3.32225906e-03,
          9.96677764e-03, 1.32890362e-02, 6.64451811e-03, 9.96677764e-03,
          9.96677764e-03, 2.99003311e-02, 3.98671106e-02, 9.96677764e-03,
          1.32890362e-02, 6.64451811e-03, 1.99335553e-02, 9.96677764e-03,
          3.32225906e-03, 1.66112948e-02, 6.64451811e-03, 9.96677764e-03,
          1.66112948e-02, 1.32890362e-02, 2.32558139e-02, 1.66112948e-02,
          1.66112948e-02, 0. ]
      - [ 1.44927539e-02, 6.21118024e-03, 2.07039341e-02, 2.07039341e-03,
          8.28157365e-03, 0., 3.51966880e-02, 2.69151144e-02,
          2.48447210e-02, 2.69151144e-02, 4.14078683e-03, 0.,
          4.14078683e-03, 1.86335407e-02, 6.21118024e-03, 2.07039341e-03,
          6.21118024e-03, 2.07039341e-02, 1.24223605e-02, 2.07039341e-03,
          4.14078683e-03, 2.07039341e-03, 2.07039341e-03, 0.,
          2.27743275e-02, 0., 4.14078683e-03, 6.21118024e-03,
          6.21118024e-03, 2.07039341e-03, 8.28157365e-03, 2.07039341e-03,
          6.21118024e-03, 2.07039341e-03, 1.03519671e-02, 2.07039341e-03,
          6.21118024e-03, 1.03519671e-02, 1.03519671e-02, 2.48447210e-02,
          0., 2.69151144e-02, 1.44927539e-02, 4.14078683e-03,
          6.21118024e-03, 1.03519671e-02, 6.21118024e-03, 8.28157365e-03,
          4.14078683e-03, 4.14078683e-03, 1.24223605e-02, 6.21118024e-03,
          0., 0., 2.69151144e-02, 4.14078683e-03, 4.14078683e-03,
          1.03519671e-02, 1.65631473e-02, 6.21118024e-03, 4.34782617e-02,
          4.14078683e-03, 4.14078683e-03, 0., 4.14078683e-03,
          8.28157365e-03, 0., 6.21118024e-03, 2.07039341e-03,
          4.14078683e-03, 2.07039341e-03, 1.44927539e-02, 1.44927539e-02,
          1.03519671e-02, 2.69151144e-02, 1.24223605e-02, 6.21118024e-03,
          4.14078683e-02, 0., 6.21118024e-03, 2.07039341e-03,
          4.14078683e-03, 1.86335407e-02, 1.44927539e-02, 1.03519671e-02,
          3.93374749e-02, 6.21118024e-03, 8.28157365e-03, 1.24223605e-02,
          4.14078683e-03, 6.21118024e-03, 1.03519671e-02, 8.28157365e-03,
          2.27743275e-02, 4.14078683e-03, 2.69151144e-02, 0.,
          1.24223605e-02, 2.48447210e-02, 6.21118024e-03 ]
      - [ 6.80272095e-03, 6.80272095e-03, 6.80272095e-03, 6.80272095e-03,
          0., 0., 3.40136066e-02, 6.80272095e-03, 0., 1.36054419e-02,
          6.80272095e-03, 0., 0., 6.80272095e-03, 0., 0., 6.80272095e-03,
          6.80272095e-03, 2.72108838e-02, 0., 6.80272095e-03, 0.,
          6.80272095e-03, 6.80272095e-03, 0., 6.80272095e-03,
          6.80272095e-03, 0., 0., 1.36054419e-02, 1.36054419e-02, 0.,
          2.04081628e-02, 6.80272095e-03, 3.40136066e-02, 0., 0.,
          6.80272095e-03, 2.04081628e-02, 2.72108838e-02, 0., 0.,
          6.80272095e-03, 6.80272095e-03, 0., 0., 0., 0., 0., 0.,
          6.80272095e-03, 1.36054419e-02, 0., 0., 6.80272095e-03,
          6.80272095e-03, 6.80272095e-03, 2.04081628e-02, 4.08163257e-02,
          0., 1.36054419e-02, 0., 3.40136066e-02, 0., 6.80272095e-03,
          6.80272095e-03, 0., 6.80272095e-03, 1.36054419e-02, 0.,
          1.36054419e-02, 5.44217676e-02, 0., 2.72108838e-02, 0., 0.,
          2.72108838e-02, 0., 0., 6.80272095e-03, 0., 0., 5.44217676e-02,
          1.36054419e-02, 6.80272095e-03, 6.12244904e-02, 5.44217676e-02,
          1.36054419e-02, 6.80272095e-03, 0., 6.80272095e-03,
          2.72108838e-02, 1.36054419e-02, 0., 6.80272095e-03,
          2.04081628e-02, 0., 1.36054419e-02, 4.08163257e-02,
          2.04081628e-02 ]
      - [ 1.24481339e-02, 4.14937781e-03, 0., 2.07468886e-02,
          8.29875562e-03, 2.48962678e-02, 0., 2.90456451e-02,
          8.29875562e-03, 0., 1.24481339e-02, 3.31950225e-02,
          1.24481339e-02, 8.29875562e-03, 4.14937781e-03, 4.14937781e-03,
          1.24481339e-02, 0., 0., 8.29875562e-03, 4.14937781e-03,
          1.24481339e-02, 4.14937781e-03, 4.14937781e-03, 4.14937781e-03,
          0., 0., 8.29875562e-03, 8.29875562e-03, 1.24481339e-02, 0.,
          2.90456451e-02, 4.14937781e-03, 2.48962678e-02, 0.,
          2.07468886e-02, 4.14937781e-03, 1.24481339e-02, 1.24481339e-02,
          4.14937781e-03, 0., 0., 4.14937781e-03, 4.14937781e-03,
          8.29875562e-03, 0., 4.97925356e-02, 2.90456451e-02,
          1.24481339e-02, 2.90456451e-02, 4.14937781e-03, 0.,
          2.07468886e-02, 3.31950225e-02, 4.14937781e-03, 8.29875562e-03,
          4.14937781e-03, 1.24481339e-02, 4.14937781e-03, 8.29875562e-03,
          0., 0., 0., 1.24481339e-02, 1.65975112e-02, 0., 2.48962678e-02,
          0., 0., 0., 4.56431545e-02, 0., 8.29875562e-03, 4.14937781e-03,
          0., 8.29875562e-03, 1.24481339e-02, 8.29875562e-03,
          2.48962678e-02, 0., 2.90456451e-02, 4.56431545e-02, 0., 0.,
          2.07468886e-02, 0., 0., 4.14937781e-03, 0., 2.90456451e-02, 0.,
          8.29875562e-03, 8.29875562e-03, 0., 8.29875562e-03, 0.,
          5.39419129e-02, 0., 0., 1.65975112e-02 ]
      - [ 2.97397766e-02, 1.11524165e-02, 1.11524165e-02, 1.11524165e-02,
          2.60223038e-02, 1.11524165e-02, 2.23048329e-02, 2.60223038e-02,
          3.71747208e-03, 7.43494416e-03, 0., 0., 7.43494416e-03,
          1.85873602e-02, 3.71747208e-03, 1.48698883e-02, 3.71747208e-03,
          7.43494416e-03, 7.43494416e-03, 2.97397766e-02, 7.43494416e-03,
          0., 2.60223038e-02, 2.23048329e-02, 7.43494416e-03, 0.,
          7.43494416e-03, 7.43494416e-03, 2.60223038e-02, 3.71747208e-03,
          3.71747208e-03, 3.71747208e-03, 1.11524165e-02, 7.43494416e-03,
          2.23048329e-02, 1.48698883e-02, 7.43494416e-03, 1.48698883e-02,
          3.71747208e-03, 7.43494416e-03, 0., 0., 1.11524165e-02,
          1.48698883e-02, 0., 7.43494416e-03, 3.71747208e-03,
          2.23048329e-02, 7.43494416e-03, 1.11524165e-02, 1.85873602e-02,
          7.43494416e-03, 1.48698883e-02, 1.85873602e-02, 0.,
          1.11524165e-02, 3.71747208e-03, 0., 3.71747208e-03,
          3.71747208e-03, 1.48698883e-02, 2.23048329e-02, 1.48698883e-02,
          1.85873602e-02, 2.23048329e-02, 7.43494416e-03, 1.11524165e-02,
          0., 7.43494416e-03, 7.43494416e-03, 7.43494416e-03,
          1.11524165e-02, 0., 2.23048329e-02, 7.43494416e-03, 0., 0., 0.,
          1.11524165e-02, 2.23048329e-02, 3.71747208e-03, 0., 0.,
          7.43494416e-03, 1.11524165e-02, 1.11524165e-02, 7.43494416e-03,
          3.71747208e-03, 1.85873602e-02, 7.43494416e-03, 1.48698883e-02,
          1.11524165e-02, 7.43494416e-03, 1.48698883e-02, 7.43494416e-03,
          1.48698883e-02, 7.43494416e-03, 1.48698883e-02, 7.43494416e-03,
          3.71747208e-03 ]
      - [ 3.19148935e-02, 0., 2.12765951e-02, 2.12765951e-02,
          1.06382975e-02, 0., 5.31914877e-03, 3.19148935e-02, 0., 0., 0.,
          1.59574468e-02, 1.06382975e-02, 0., 2.65957434e-02, 0.,
          1.06382975e-02, 5.31914877e-03, 5.31914877e-03, 1.59574468e-02,
          5.31914877e-03, 0., 2.65957434e-02, 2.12765951e-02, 0., 0.,
          2.12765951e-02, 0., 5.31914877e-03, 1.06382975e-02,
          5.31914877e-03, 1.06382975e-02, 5.31914877e-03, 1.59574468e-02,
          5.31914877e-03, 5.31914877e-03, 2.12765951e-02, 2.65957434e-02,
          5.31914877e-03, 0., 0., 0., 2.12765951e-02, 0., 4.25531901e-02,
          0., 1.06382975e-02, 2.12765951e-02, 2.12765951e-02,
          1.59574468e-02, 2.12765951e-02, 1.06382975e-02, 2.12765951e-02,
          0., 0., 2.12765951e-02, 1.59574468e-02, 5.31914877e-03,
          1.06382975e-02, 2.12765951e-02, 5.31914877e-03, 2.65957434e-02,
          0., 5.31914877e-03, 0., 5.31914877e-03, 0., 1.06382975e-02,
          5.31914877e-03, 1.06382975e-02, 1.59574468e-02, 1.06382975e-02,
          0., 1.59574468e-02, 5.31914877e-03, 5.31914877e-03,
          1.06382975e-02, 2.12765951e-02, 1.59574468e-02, 1.59574468e-02,
          0., 0., 1.06382975e-02, 0., 2.12765951e-02, 1.59574468e-02,
          5.31914877e-03, 0., 5.31914877e-03, 0., 0., 2.65957434e-02,
          2.12765951e-02, 0., 1.06382975e-02, 0., 5.31914877e-03, 0., 0.,
          2.65957434e-02 ]
      - [ 2.50000022e-02, 8.33333377e-03, 0., 8.33333377e-03,
          8.33333377e-03, 0., 0., 1.25000000e-01, 0., 0., 0.,
          8.33333377e-03, 2.50000022e-02, 0., 8.33333377e-03, 0., 0., 0.,
          2.50000022e-02, 1.66666675e-02, 2.50000022e-02, 0.,
          2.50000022e-02, 2.50000022e-02, 0., 0., 8.33333377e-03, 0.,
          3.33333351e-02, 8.33333377e-03, 0., 0., 0., 0., 0., 0., 0., 0.,
          0., 0., 0., 0., 1.66666675e-02, 0., 1.66666675e-02, 0., 0.,
          8.33333377e-03, 8.33333377e-03, 8.33333377e-03, 0.,
          1.66666675e-02, 8.33333377e-03, 2.50000022e-02, 0., 0., 0., 0.,
          8.33333377e-03, 0., 0., 1.66666675e-02, 2.50000022e-02, 0.,
          8.33333377e-03, 0., 8.33333377e-03, 0., 8.33333377e-03,
          1.66666675e-02, 4.16666679e-02, 1.66666675e-02, 0., 0., 0., 0.,
          8.33333377e-03, 0., 8.33333377e-03, 0., 8.33333377e-03,
          2.50000022e-02, 1.66666675e-02, 8.33333377e-03, 9.16666687e-02,
          3.33333351e-02, 0., 0., 1.66666675e-02, 0., 0., 1.66666675e-02,
          5.83333373e-02, 3.33333351e-02, 0., 0., 0., 1.66666675e-02, 0.,
          1.66666675e-02 ]
      - [ 7.63358781e-03, 1.52671756e-02, 7.63358781e-03, 2.29007639e-02,
          7.63358781e-03, 0., 0., 1.06870227e-01, 2.29007639e-02, 0., 0.,
          0., 1.52671756e-02, 0., 7.63358781e-03, 1.52671756e-02,
          7.63358781e-03, 0., 1.52671756e-02, 2.29007639e-02,
          6.87022880e-02, 0., 1.52671756e-02, 2.29007639e-02,
          1.52671756e-02, 0., 1.52671756e-02, 7.63358781e-03,
          7.63358781e-03, 7.63358781e-03, 7.63358781e-03, 7.63358781e-03,
          2.29007639e-02, 0., 0., 7.63358781e-03, 2.29007639e-02,
          7.63358781e-03, 0., 7.63358781e-03, 0., 0., 7.63358781e-03, 0.,
          0., 7.63358781e-03, 7.63358781e-03, 7.63358781e-03,
          7.63358781e-03, 0., 1.52671756e-02, 0., 1.52671756e-02, 0., 0.,
          2.29007639e-02, 2.29007639e-02, 0., 0., 1.52671756e-02, 0., 0.,
          0., 2.29007639e-02, 0., 1.52671756e-02, 7.63358781e-03,
          2.29007639e-02, 0., 1.52671756e-02, 0., 0., 0., 0.,
          7.63358781e-03, 0., 1.52671756e-02, 0., 7.63358781e-03,
          6.10687025e-02, 1.52671756e-02, 0., 0., 1.52671756e-02,
          3.81679386e-02, 0., 0., 0., 0., 1.52671756e-02, 7.63358781e-03,
          7.63358781e-03, 2.29007639e-02, 0., 7.63358781e-03,
          1.52671756e-02, 7.63358781e-03, 1.52671756e-02, 0.,
          7.63358781e-03 ]
      - [ 1.60714295e-02, 7.14285718e-03, 1.78571430e-03, 7.14285718e-03,
          7.14285718e-03, 1.25000002e-02, 2.50000004e-02, 1.42857144e-02,
          8.92857183e-03, 5.35714300e-03, 7.14285718e-03, 8.92857183e-03,
          1.96428578e-02, 1.78571430e-03, 1.60714295e-02, 1.25000002e-02,
          1.78571430e-03, 5.35714300e-03, 2.32142862e-02, 1.96428578e-02,
          7.14285718e-03, 0., 5.35714300e-03, 1.25000002e-02,
          1.07142860e-02, 1.78571430e-03, 1.60714295e-02, 1.07142860e-02,
          1.25000002e-02, 7.14285718e-03, 5.35714300e-03, 5.35714300e-03,
          1.25000002e-02, 0., 1.25000002e-02, 2.67857146e-02,
          7.14285718e-03, 5.35714300e-03, 5.35714300e-03, 7.14285718e-03,
          0., 3.57142859e-03, 1.25000002e-02, 0., 1.07142860e-02,
          7.14285718e-03, 1.78571430e-03, 1.25000002e-02, 1.78571437e-02,
          1.42857144e-02, 1.60714295e-02, 1.25000002e-02, 8.92857183e-03,
          1.07142860e-02, 2.14285720e-02, 1.78571430e-03, 8.92857183e-03,
          8.92857183e-03, 1.60714295e-02, 8.92857183e-03, 1.60714295e-02,
          5.35714300e-03, 1.42857144e-02, 1.60714295e-02, 3.57142859e-03,
          7.14285718e-03, 1.78571430e-03, 7.14285718e-03, 1.78571430e-03,
          1.96428578e-02, 1.42857144e-02, 1.25000002e-02, 1.60714295e-02,
          1.25000002e-02, 2.14285720e-02, 0., 7.14285718e-03, 0., 0.,
          7.14285718e-03, 5.35714300e-03, 7.14285718e-03, 8.92857183e-03,
          7.14285718e-03, 2.50000004e-02, 4.28571440e-02, 5.35714300e-03,
          1.25000002e-02, 7.14285718e-03, 8.92857183e-03, 7.14285718e-03,
          1.78571437e-02, 1.42857144e-02, 0., 1.07142860e-02,
          3.57142859e-03, 3.57142859e-03, 1.60714295e-02, 1.07142860e-02,
          1.42857144e-02 ]
      - [ 2.46913591e-03, 4.93827183e-03, 7.40740774e-03, 2.46913591e-03,
          2.46913591e-03, 2.46913582e-02, 6.41975328e-02, 4.93827183e-03,
          2.46913591e-03, 1.23456791e-02, 4.93827183e-03, 1.23456791e-02,
          7.40740774e-03, 0., 2.46913591e-03, 1.48148155e-02,
          9.87654366e-03, 1.48148155e-02, 1.72839519e-02, 7.40740774e-03,
          1.48148155e-02, 0., 9.87654366e-03, 7.40740774e-03,
          1.23456791e-02, 0., 7.40740774e-03, 7.40740774e-03,
          2.46913591e-03, 7.40740774e-03, 4.93827183e-03, 9.87654366e-03,
          2.46913591e-03, 9.87654366e-03, 2.71604955e-02, 2.22222228e-02,
          1.23456791e-02, 7.40740774e-03, 4.93827183e-03, 1.48148155e-02,
          4.93827183e-03, 1.72839519e-02, 9.87654366e-03, 7.40740774e-03,
          4.93827183e-03, 7.40740774e-03, 4.93827183e-03, 9.87654366e-03,
          4.93827183e-03, 2.46913591e-03, 7.40740774e-03, 1.97530873e-02,
          2.46913591e-03, 1.23456791e-02, 1.72839519e-02, 2.46913582e-02,
          2.46913591e-03, 1.23456791e-02, 1.23456791e-02, 9.87654366e-03,
          9.87654366e-03, 7.40740774e-03, 2.22222228e-02, 2.46913591e-03,
          4.93827183e-03, 7.40740774e-03, 7.40740774e-03, 7.40740774e-03,
          1.72839519e-02, 4.93827183e-03, 4.93827183e-03, 9.87654366e-03,
          0., 2.96296310e-02, 2.46913591e-03, 1.48148155e-02,
          4.93827183e-03, 2.46913591e-03, 2.46913591e-03, 9.87654366e-03,
          2.71604955e-02, 1.48148155e-02, 1.48148155e-02, 4.93827183e-03,
          2.46913591e-03, 2.96296310e-02, 4.93827183e-03, 1.97530873e-02,
          1.48148155e-02, 1.48148155e-02, 1.72839519e-02, 1.72839519e-02,
          9.87654366e-03, 4.93827183e-03, 7.40740774e-03, 4.93827183e-03,
          0., 4.93827183e-03, 7.40740774e-03, 4.93827183e-03 ]
      - [ 2.41935477e-02, 1.61290318e-02, 0., 3.22580636e-02,
          8.06451589e-03, 0., 0., 2.41935477e-02, 1.61290318e-02, 0., 0.,
          0., 2.41935477e-02, 0., 3.22580636e-02, 1.61290318e-02,
          3.22580636e-02, 0., 0., 1.61290318e-02, 3.22580636e-02, 0.,
          2.41935477e-02, 0., 8.06451589e-03, 1.61290318e-02,
          8.06451589e-03, 3.22580636e-02, 8.06451589e-03, 8.06451589e-03,
          1.61290318e-02, 0., 1.61290318e-02, 8.06451589e-03,
          8.06451589e-03, 2.41935477e-02, 0., 8.06451589e-03, 0., 0.,
          8.06451589e-03, 0., 1.61290318e-02, 8.06451589e-03,
          8.06451589e-03, 2.41935477e-02, 0., 0., 0., 4.03225794e-02, 0.,
          0., 1.61290318e-02, 0., 8.06451589e-03, 2.41935477e-02,
          4.03225794e-02, 0., 0., 1.61290318e-02, 0., 0., 0.,
          1.61290318e-02, 0., 8.06451589e-03, 8.06451589e-03,
          8.06451589e-03, 8.06451589e-03, 0., 8.06451589e-03,
          8.06451589e-03, 0., 0., 0., 0., 1.61290318e-02, 0., 0.,
          1.61290318e-02, 0., 3.22580636e-02, 0., 1.61290318e-02,
          8.87096748e-02, 0., 0., 8.06451589e-03, 0., 0., 8.06451589e-03,
          8.06451589e-03, 0., 8.06451589e-03, 1.61290318e-02, 0., 0.,
          8.06451589e-03, 3.22580636e-02, 8.06451589e-03 ]
      - [ 1.19047621e-02, 0., 0., 0., 0., 3.57142873e-02, 0.,
          9.52380970e-02, 0., 0., 0., 0., 2.38095243e-02, 0.,
          4.76190485e-02, 0., 0., 0., 0., 7.14285746e-02, 2.38095243e-02,
          0., 2.38095243e-02, 3.57142873e-02, 0., 0., 0., 0.,
          1.19047621e-02, 1.19047621e-02, 1.19047621e-02, 0., 0., 0., 0.,
          2.38095243e-02, 0., 1.19047621e-02, 0., 0., 0., 0., 0.,
          3.57142873e-02, 0., 1.19047621e-02, 3.57142873e-02, 0.,
          1.19047621e-02, 1.19047621e-02, 0., 0., 3.57142873e-02,
          1.19047621e-02, 0., 0., 2.38095243e-02, 0., 0., 4.76190485e-02,
          2.38095243e-02, 4.76190485e-02, 0., 0., 0., 0., 1.19047621e-02,
          2.38095243e-02, 0., 2.38095243e-02, 1.19047621e-02, 0., 0., 0.,
          0., 0., 1.19047621e-02, 0., 1.19047621e-02, 1.19047621e-02, 0.,
          0., 0., 0., 7.14285746e-02, 0., 0., 0., 0., 1.19047621e-02,
          4.76190485e-02, 0., 1.19047621e-02, 0., 0., 0., 1.19047621e-02,
          0., 0., 0. ]
      - [ 1.07526882e-02, 7.16845877e-03, 1.79211460e-02, 3.58422939e-03,
          0., 0., 1.25448033e-01, 6.45161271e-02, 3.58422939e-03,
          3.58422939e-03, 7.16845877e-03, 1.07526882e-02, 7.16845877e-03,
          3.58422939e-03, 7.16845877e-03, 1.43369175e-02, 0.,
          1.43369175e-02, 1.43369175e-02, 1.43369175e-02, 1.07526882e-02,
          0., 1.43369175e-02, 7.16845877e-03, 7.16845877e-03, 0.,
          2.50896066e-02, 0., 3.58422939e-03, 3.58422939e-03,
          3.58422939e-03, 3.58422939e-03, 3.58422939e-03, 0.,
          1.43369175e-02, 1.07526882e-02, 0., 0., 0., 1.07526882e-02, 0.,
          7.16845877e-03, 3.58422939e-03, 3.58422939e-03, 3.58422939e-03,
          1.07526882e-02, 3.58422939e-03, 0., 1.43369175e-02,
          1.07526882e-02, 3.58422939e-03, 1.79211460e-02, 2.15053763e-02,
          0., 3.58422939e-03, 7.16845877e-03, 3.58422939e-03,
          7.16845877e-03, 1.79211460e-02, 1.43369175e-02, 3.58422939e-03,
          7.16845877e-03, 7.16845877e-03, 7.16845877e-03, 0.,
          3.58422939e-03, 0., 7.16845877e-03, 0., 0., 1.07526882e-02,
          3.58422939e-03, 3.58422939e-03, 1.43369175e-02, 3.58422939e-03,
          3.58422939e-03, 0., 3.58422939e-03, 3.58422939e-03,
          7.16845877e-03, 3.58422939e-03, 0., 2.15053763e-02,
          3.58422939e-03, 6.81003556e-02, 4.65949811e-02, 3.58422939e-03,
          2.50896066e-02, 1.07526882e-02, 0., 1.07526882e-02,
          2.15053763e-02, 2.50896066e-02, 0., 1.07526882e-02,
          1.07526882e-02, 7.16845877e-03, 7.16845877e-03, 2.86738351e-02,
          3.58422939e-03 ]
      - [ 1.50375944e-02, 7.51879718e-03, 7.51879718e-03, 1.50375944e-02,
          1.50375944e-02, 0., 0., 4.51127812e-02, 7.51879718e-03,
          1.50375944e-02, 7.51879718e-03, 0., 7.51879718e-03, 0., 0.,
          7.51879718e-03, 7.51879718e-03, 7.51879718e-03, 1.50375944e-02,
          1.50375944e-02, 0., 0., 1.50375944e-02, 3.00751887e-02,
          7.51879718e-03, 7.51879718e-03, 7.51879718e-03, 7.51879718e-03,
          1.50375944e-02, 3.00751887e-02, 7.51879718e-03, 7.51879718e-03,
          7.51879718e-03, 0., 0., 0., 7.51879718e-03, 7.51879718e-03,
          7.51879718e-03, 0., 7.51879718e-03, 0., 1.50375944e-02,
          1.50375944e-02, 2.25563906e-02, 2.25563906e-02, 7.51879718e-03,
          0., 0., 1.50375944e-02, 1.50375944e-02, 0., 1.50375944e-02, 0.,
          0., 7.51879718e-03, 1.50375944e-02, 1.50375944e-02,
          1.50375944e-02, 2.25563906e-02, 1.50375944e-02, 1.50375944e-02,
          1.50375944e-02, 7.51879718e-03, 0., 0., 0., 3.00751887e-02,
          7.51879718e-03, 1.50375944e-02, 7.51879718e-03, 7.51879718e-03,
          7.51879718e-03, 0., 7.51879718e-03, 0., 0., 0., 0.,
          2.25563906e-02, 7.51879718e-03, 0., 0., 3.00751887e-02,
          1.50375944e-02, 0., 0., 1.50375944e-02, 7.51879718e-03,
          1.50375944e-02, 1.50375944e-02, 4.51127812e-02, 7.51879718e-03,
          3.00751887e-02, 7.51879718e-03, 7.51879718e-03, 5.26315793e-02,
          1.50375944e-02, 0., 0. ]
      - [ 2.46913582e-02, 0., 0., 0., 1.23456791e-02, 2.46913582e-02, 0.,
          1.23456791e-01, 0., 0., 0., 1.23456791e-02, 4.93827164e-02, 0.,
          0., 0., 0., 2.46913582e-02, 0., 3.70370373e-02, 3.70370373e-02,
          1.23456791e-02, 0., 1.23456791e-02, 0., 0., 0., 1.23456791e-02,
          0., 1.23456791e-02, 4.93827164e-02, 0., 1.23456791e-02, 0., 0.,
          0., 0., 0., 0., 0., 0., 0., 0., 0., 1.23456791e-02,
          3.70370373e-02, 1.23456791e-02, 0., 0., 6.17283955e-02, 0., 0.,
          0., 0., 0., 0., 1.23456791e-02, 0., 0., 1.23456791e-02, 0., 0.,
          0., 2.46913582e-02, 0., 1.23456791e-02, 0., 2.46913582e-02, 0.,
          4.93827164e-02, 1.23456791e-02, 1.23456791e-02, 0., 0., 0., 0.,
          0., 0., 1.23456791e-02, 0., 0., 2.46913582e-02, 0.,
          2.46913582e-02, 4.93827164e-02, 0., 0., 0., 0., 0., 0.,
          1.23456791e-02, 4.93827164e-02, 2.46913582e-02, 6.17283955e-02,
          0., 0., 0., 0., 0. ]
      - [ 1.99203193e-02, 1.59362555e-02, 7.96812773e-03, 3.98406386e-03,
          1.59362555e-02, 3.98406386e-03, 0., 4.38247025e-02,
          1.19521916e-02, 0., 1.19521916e-02, 7.96812773e-03,
          1.59362555e-02, 0., 0., 3.18725109e-02, 3.98406386e-03,
          2.39043832e-02, 3.98406386e-03, 2.39043832e-02, 0., 0.,
          1.19521916e-02, 0., 1.59362555e-02, 0., 0., 1.99203193e-02,
          1.99203193e-02, 1.59362555e-02, 1.99203193e-02, 3.98406386e-03,
          3.98406386e-03, 7.96812773e-03, 7.96812773e-03, 0.,
          7.96812773e-03, 1.19521916e-02, 7.96812773e-03, 1.59362555e-02,
          7.96812773e-03, 0., 1.19521916e-02, 3.18725109e-02,
          1.19521916e-02, 0., 1.19521916e-02, 1.19521916e-02, 0., 0.,
          7.96812773e-03, 3.98406386e-03, 7.96812773e-03, 7.96812773e-03,
          7.96812773e-03, 1.59362555e-02, 0., 1.59362555e-02,
          7.96812773e-03, 3.98406386e-03, 1.99203193e-02, 2.39043832e-02,
          3.98406386e-03, 1.19521916e-02, 7.96812773e-03, 7.96812773e-03,
          7.96812773e-03, 2.39043832e-02, 7.96812773e-03, 3.98406386e-03,
          1.19521916e-02, 7.96812773e-03, 0., 3.98406386e-03,
          1.19521916e-02, 0., 1.59362555e-02, 1.19521916e-02,
          3.98406386e-03, 1.59362555e-02, 0., 7.96812773e-03,
          3.98406386e-03, 2.39043832e-02, 3.98406386e-02, 0.,
          7.96812773e-03, 1.19521916e-02, 3.98406386e-03, 1.19521916e-02,
          0., 1.19521916e-02, 3.18725109e-02, 0., 7.96812773e-03,
          7.96812773e-03, 7.96812773e-03, 7.96812773e-03, 2.39043832e-02,
          0. ]
      - [ 3.32225906e-03, 1.99335553e-02, 6.64451811e-03, 3.32225906e-03,
          1.32890362e-02, 0., 3.98671106e-02, 1.32890362e-02, 0., 0.,
          1.32890362e-02, 6.64451811e-03, 3.32225906e-03, 0.,
          6.64451811e-03, 3.32225906e-03, 1.32890362e-02, 9.96677764e-03,
          1.32890362e-02, 0., 9.96677764e-03, 0., 1.32890362e-02,
          6.64451811e-03, 2.32558139e-02, 3.32225906e-03, 3.32225906e-03,
          6.64451811e-03, 6.64451811e-03, 1.66112948e-02, 1.32890362e-02,
          0., 0., 3.32225906e-03, 1.99335553e-02, 0., 0., 0.,
          3.32225906e-03, 1.32890362e-02, 0., 1.66112948e-02,
          6.64451811e-03, 6.64451811e-03, 2.32558139e-02, 6.64451811e-03,
          1.32890362e-02, 0., 6.64451811e-03, 0., 9.96677764e-03,
          1.32890362e-02, 0., 0., 2.99003311e-02, 6.64451811e-03, 0.,
          9.96677764e-03, 1.99335553e-02, 0., 9.96677764e-03,
          9.96677764e-03, 1.99335553e-02, 3.32225906e-03, 0.,
          1.32890362e-02, 6.64451811e-03, 6.64451811e-03, 9.96677764e-03,
          3.32225906e-03, 9.96677764e-03, 5.64784035e-02, 0.,
          4.65116277e-02, 9.96677764e-03, 6.64451811e-03, 9.96677764e-03,
          1.32890362e-02, 3.32225906e-03, 1.32890362e-02, 3.32225906e-03,
          3.32225906e-03, 3.65448482e-02, 1.66112948e-02, 1.32890362e-02,
          3.65448482e-02, 1.32890362e-02, 6.64451811e-03, 1.66112948e-02,
          3.32225906e-03, 3.32225906e-03, 2.65780725e-02, 1.66112948e-02,
          6.64451811e-03, 6.64451811e-03, 0., 0., 1.99335553e-02,
          2.65780725e-02, 9.96677764e-03 ]
      - [ 1.04166670e-02, 1.04166670e-02, 0., 6.94444450e-03,
          1.73611119e-02, 3.47222225e-03, 3.47222225e-03, 1.38888890e-02,
          3.47222225e-03, 1.04166670e-02, 6.94444450e-03, 0.,
          6.94444450e-03, 2.43055560e-02, 2.77777780e-02, 1.04166670e-02,
          6.94444450e-03, 6.94444450e-03, 3.47222225e-03, 1.73611119e-02,
          1.73611119e-02, 6.94444450e-03, 1.04166670e-02, 6.94444450e-03,
          0., 0., 6.94444450e-03, 6.94444450e-03, 6.94444450e-03,
          6.94444450e-03, 1.04166670e-02, 3.47222225e-03, 1.73611119e-02,
          0., 6.94444450e-03, 1.04166670e-02, 1.38888890e-02,
          2.43055560e-02, 1.04166670e-02, 6.94444450e-03, 0., 0.,
          3.47222225e-03, 1.04166670e-02, 3.47222225e-03, 1.38888890e-02,
          2.08333340e-02, 3.47222225e-03, 1.04166670e-02, 6.94444450e-03,
          1.73611119e-02, 2.08333340e-02, 0., 0., 1.04166670e-02,
          2.43055560e-02, 0., 1.04166670e-02, 1.38888890e-02,
          3.47222225e-03, 1.04166670e-02, 1.04166670e-02, 6.94444450e-03,
          1.73611119e-02, 1.04166670e-02, 1.38888890e-02, 0.,
          6.94444450e-03, 6.94444450e-03, 1.38888890e-02, 6.94444450e-03,
          6.94444450e-03, 0., 3.47222225e-03, 3.47222225e-03,
          3.47222225e-03, 1.38888890e-02, 0., 3.47222225e-03,
          1.04166670e-02, 6.94444450e-03, 1.38888890e-02, 2.08333340e-02,
          1.04166670e-02, 1.73611119e-02, 6.94444450e-03, 1.04166670e-02,
          0., 1.04166670e-02, 3.47222239e-02, 1.04166670e-02,
          2.08333340e-02, 5.20833321e-02, 1.04166670e-02, 2.43055560e-02,
          1.04166670e-02, 6.94444450e-03, 3.47222225e-03, 3.12500000e-02,
          1.04166670e-02 ]
      - [ 1.45985400e-02, 1.45985400e-02, 1.45985400e-02, 7.29927002e-03,
          7.29927002e-03, 1.09489048e-02, 6.56934306e-02, 2.55474448e-02,
          0., 3.64963501e-03, 3.64963501e-03, 1.45985400e-02,
          3.64963501e-03, 1.45985400e-02, 1.45985400e-02, 0.,
          3.64963501e-03, 1.09489048e-02, 1.09489048e-02, 1.45985400e-02,
          1.45985400e-02, 0., 1.45985400e-02, 1.82481743e-02,
          1.09489048e-02, 3.64963501e-03, 7.29927002e-03, 0.,
          3.64963501e-03, 1.09489048e-02, 7.29927002e-03, 3.64963501e-03,
          1.09489048e-02, 1.09489048e-02, 7.29927002e-03, 1.09489048e-02,
          3.64963501e-03, 7.29927002e-03, 7.29927002e-03, 0., 0.,
          7.29927002e-03, 1.45985400e-02, 0., 1.09489048e-02,
          1.09489048e-02, 1.09489048e-02, 2.55474448e-02, 1.09489048e-02,
          7.29927002e-03, 1.09489048e-02, 3.64963501e-03, 0.,
          1.09489048e-02, 7.29927002e-03, 1.45985400e-02, 7.29927002e-03,
          1.09489048e-02, 3.64963501e-03, 3.64963501e-03, 7.29927002e-03,
          1.82481743e-02, 1.45985400e-02, 1.82481743e-02, 7.29927002e-03,
          7.29927002e-03, 1.09489048e-02, 0., 0., 1.82481743e-02,
          7.29927002e-03, 3.64963501e-03, 0., 7.29927002e-03,
          1.45985400e-02, 7.29927002e-03, 0., 3.64963501e-03,
          1.09489048e-02, 7.29927002e-03, 0., 1.09489048e-02,
          1.09489048e-02, 7.29927002e-03, 3.64963487e-02, 6.20437935e-02,
          7.29927002e-03, 1.09489048e-02, 3.64963501e-03, 1.09489048e-02,
          1.82481743e-02, 3.64963501e-03, 1.82481743e-02, 2.18978096e-02,
          7.29927002e-03, 3.64963501e-03, 7.29927002e-03, 3.64963501e-03,
          3.64963501e-03, 7.29927002e-03 ]
      - [ 1.06761567e-02, 1.06761567e-02, 2.13523135e-02, 1.06761567e-02,
          1.77935939e-02, 1.06761567e-02, 1.06761567e-02, 3.20284702e-02,
          3.55871883e-03, 7.11743766e-03, 1.77935939e-02, 1.42348753e-02,
          1.77935939e-02, 7.11743766e-03, 7.11743766e-03, 3.55871883e-03,
          0., 1.42348753e-02, 1.77935939e-02, 2.13523135e-02,
          1.42348753e-02, 0., 7.11743766e-03, 7.11743766e-03,
          1.06761567e-02, 0., 0., 2.13523135e-02, 2.13523135e-02,
          1.42348753e-02, 7.11743766e-03, 3.55871883e-03, 1.06761567e-02,
          3.55871883e-03, 3.91459055e-02, 2.13523135e-02, 1.06761567e-02,
          3.55871883e-03, 3.55871883e-03, 7.11743766e-03, 0., 0.,
          1.42348753e-02, 1.42348753e-02, 0., 1.42348753e-02,
          1.06761567e-02, 7.11743766e-03, 3.55871883e-03, 1.06761567e-02,
          1.42348753e-02, 1.06761567e-02, 3.55871883e-03, 1.06761567e-02,
          7.11743766e-03, 3.55871883e-03, 7.11743766e-03, 3.55871883e-03,
          1.77935939e-02, 7.11743766e-03, 7.11743766e-03, 0.,
          1.42348753e-02, 1.06761567e-02, 0., 1.06761567e-02, 0.,
          1.42348753e-02, 3.55871883e-03, 1.06761567e-02, 1.06761567e-02,
          7.11743766e-03, 0., 1.06761567e-02, 7.11743766e-03, 0.,
          7.11743766e-03, 0., 3.55871883e-03, 1.42348753e-02,
          7.11743766e-03, 0., 7.11743766e-03, 0., 2.49110311e-02,
          7.11743766e-03, 0., 2.49110311e-02, 2.13523135e-02,
          1.42348753e-02, 1.06761567e-02, 2.84697507e-02, 2.13523135e-02,
          3.55871883e-03, 1.42348753e-02, 2.13523135e-02, 7.11743766e-03,
          1.77935939e-02, 3.55871883e-03, 1.06761567e-02 ]
      - [ 1.11524165e-02, 4.08921912e-02, 3.71747208e-03, 3.71747208e-03,
          1.11524165e-02, 0., 1.11524165e-02, 2.60223038e-02,
          3.71747208e-03, 1.48698883e-02, 7.43494416e-03, 0.,
          3.71747208e-03, 0., 3.71747208e-03, 1.48698883e-02,
          1.48698883e-02, 7.43494416e-03, 1.11524165e-02, 1.11524165e-02,
          1.11524165e-02, 0., 0., 3.71747208e-03, 3.71747208e-03, 0.,
          3.71747208e-03, 1.85873602e-02, 3.71747208e-03, 3.71747208e-03,
          1.85873602e-02, 0., 1.48698883e-02, 0., 1.85873602e-02,
          7.43494416e-03, 1.85873602e-02, 3.71747208e-03, 7.43494416e-03,
          1.11524165e-02, 0., 0., 7.43494416e-03, 3.71747208e-03,
          1.85873602e-02, 3.71747208e-03, 7.43494416e-03, 7.43494416e-03,
          3.71747208e-03, 3.71747208e-03, 1.11524165e-02, 4.46096659e-02,
          0., 7.43494416e-03, 7.43494416e-03, 3.71747208e-03,
          7.43494416e-03, 1.11524165e-02, 2.60223038e-02, 3.71747208e-03,
          1.48698883e-02, 1.11524165e-02, 1.11524165e-02, 3.71747208e-03,
          0., 2.60223038e-02, 0., 1.11524165e-02, 0., 1.85873602e-02,
          7.43494416e-03, 3.34572494e-02, 0., 3.71747208e-03,
          7.43494416e-03, 3.71747208e-03, 1.48698883e-02, 1.11524165e-02,
          0., 1.85873602e-02, 1.48698883e-02, 7.43494416e-03,
          2.97397766e-02, 2.23048329e-02, 0., 3.71747203e-02,
          1.48698883e-02, 7.43494416e-03, 2.23048329e-02, 3.71747208e-03,
          1.11524165e-02, 3.71747208e-03, 1.11524165e-02, 7.43494416e-03,
          2.23048329e-02, 1.48698883e-02, 0., 7.43494416e-03,
          3.34572494e-02, 3.71747208e-03 ]
      - [ 6.21118024e-03, 6.21118024e-03, 1.86335407e-02, 1.24223605e-02,
          6.21118024e-03, 0., 5.59006222e-02, 1.24223605e-02,
          6.21118024e-03, 1.24223605e-02, 0., 0., 1.24223605e-02, 0., 0.,
          0., 1.24223605e-02, 1.86335407e-02, 2.48447210e-02, 0., 0., 0.,
          6.21118024e-03, 6.21118024e-03, 6.21118024e-03, 0., 0.,
          1.86335407e-02, 0., 6.21118024e-03, 1.86335407e-02, 0.,
          6.21118024e-03, 0., 3.72670814e-02, 0., 1.24223605e-02,
          1.24223605e-02, 2.48447210e-02, 0., 0., 0., 1.24223605e-02,
          1.24223605e-02, 4.96894419e-02, 6.21118024e-03, 0., 0.,
          1.24223605e-02, 1.86335407e-02, 6.21118024e-03, 1.86335407e-02,
          6.21118024e-03, 0., 3.72670814e-02, 1.24223605e-02,
          6.21118024e-03, 2.48447210e-02, 2.48447210e-02, 6.21118024e-03,
          1.24223605e-02, 1.86335407e-02, 1.86335407e-02, 0., 0.,
          1.24223605e-02, 0., 1.86335407e-02, 6.21118024e-03, 0.,
          6.21118024e-03, 2.48447210e-02, 0., 0., 2.48447210e-02, 0.,
          6.21118024e-03, 1.86335407e-02, 0., 6.21118024e-03, 0.,
          1.24223605e-02, 0., 2.48447210e-02, 6.21118024e-03,
          6.83229864e-02, 6.21118024e-03, 6.21118024e-03, 3.10559012e-02,
          6.21118024e-03, 0., 3.10559012e-02, 6.21118024e-03, 0., 0., 0.,
          6.21118024e-03, 0., 6.21118024e-03, 0. ]
      - [ 1.84049085e-02, 9.20245424e-03, 1.53374225e-02, 9.20245424e-03,
          6.13496918e-03, 9.20245424e-03, 5.52147217e-02, 5.21472394e-02,
          3.06748459e-03, 0., 0., 3.06748459e-03, 0., 0., 9.20245424e-03,
          6.13496918e-03, 3.06748459e-03, 3.06748459e-03, 2.76073609e-02,
          1.53374225e-02, 3.06748459e-03, 0., 6.13496918e-03,
          3.06748459e-03, 6.13496918e-03, 3.06748459e-03, 6.13496918e-03,
          1.22699384e-02, 3.06748459e-03, 0., 1.53374225e-02,
          3.06748459e-03, 3.06748459e-03, 3.06748459e-03, 2.14723926e-02,
          6.13496918e-03, 6.13496918e-03, 9.20245424e-03, 3.06748459e-03,
          0., 3.06748459e-03, 9.20245424e-03, 6.13496918e-03,
          3.06748459e-03, 2.14723926e-02, 3.06748459e-03, 3.06748459e-03,
          6.13496918e-03, 3.06748459e-03, 1.84049085e-02, 1.53374225e-02,
          1.84049085e-02, 3.06748459e-03, 0., 1.84049085e-02,
          3.06748459e-03, 3.06748459e-03, 1.53374225e-02, 1.53374225e-02,
          3.06748459e-03, 1.22699384e-02, 1.22699384e-02, 9.20245424e-03,
          6.13496918e-03, 3.06748459e-03, 6.13496918e-03, 0.,
          9.20245424e-03, 9.20245424e-03, 2.45398767e-02, 3.06748459e-03,
          1.53374225e-02, 3.06748459e-03, 3.06748459e-03, 1.53374225e-02,
          0., 1.22699384e-02, 6.13496918e-03, 0., 9.20245424e-03, 0.,
          6.13496918e-03, 1.84049085e-02, 3.37423310e-02, 3.06748450e-02,
          7.97545984e-02, 3.06748450e-02, 1.53374225e-02, 2.14723926e-02,
          9.20245424e-03, 0., 1.22699384e-02, 2.14723926e-02, 0.,
          3.06748459e-03, 1.22699384e-02, 0., 6.13496918e-03,
          9.20245424e-03, 0. ]
      - [ 6.66666683e-03, 1.16666667e-02, 1.33333337e-02, 1.66666671e-03,
          1.66666671e-03, 1.66666675e-02, 1.16666667e-02, 3.50000001e-02,
          1.66666671e-03, 4.99999989e-03, 6.66666683e-03, 1.66666675e-02,
          1.16666667e-02, 0., 3.33333341e-03, 1.50000006e-02,
          4.99999989e-03, 2.16666665e-02, 8.33333377e-03, 1.66666675e-02,
          9.99999978e-03, 0., 8.33333377e-03, 8.33333377e-03,
          1.83333345e-02, 1.66666671e-03, 1.66666671e-03, 1.66666671e-03,
          9.99999978e-03, 2.33333334e-02, 9.99999978e-03, 8.33333377e-03,
          6.66666683e-03, 4.99999989e-03, 1.50000006e-02, 3.83333340e-02,
          1.50000006e-02, 3.33333341e-03, 4.99999989e-03, 4.99999989e-03,
          4.99999989e-03, 6.66666683e-03, 6.66666683e-03, 9.99999978e-03,
          8.33333377e-03, 1.66666671e-03, 1.50000006e-02, 3.33333341e-03,
          6.66666683e-03, 9.99999978e-03, 1.16666667e-02, 4.99999989e-03,
          8.33333377e-03, 1.66666675e-02, 1.16666667e-02, 1.66666675e-02,
          4.99999989e-03, 4.99999989e-03, 3.00000012e-02, 9.99999978e-03,
          8.33333377e-03, 6.66666683e-03, 2.33333334e-02, 4.99999989e-03,
          1.33333337e-02, 6.66666683e-03, 3.33333341e-03, 1.50000006e-02,
          9.99999978e-03, 1.33333337e-02, 0., 1.16666667e-02,
          1.66666671e-03, 1.50000006e-02, 9.99999978e-03, 1.99999996e-02,
          8.33333377e-03, 8.33333377e-03, 8.33333377e-03, 9.99999978e-03,
          4.99999989e-03, 4.99999989e-03, 9.99999978e-03, 8.33333377e-03,
          3.33333351e-02, 8.33333377e-03, 1.16666667e-02, 6.66666683e-03,
          6.66666683e-03, 1.50000006e-02, 3.00000012e-02, 6.66666683e-03,
          6.66666683e-03, 3.33333341e-03, 9.99999978e-03, 6.66666683e-03,
          3.33333341e-03, 9.99999978e-03, 6.66666683e-03, 9.99999978e-03 ]
      - [ 0., 1.42857153e-02, 2.85714306e-02, 4.76190494e-03, 0., 0.,
          3.80952395e-02, 0., 4.76190494e-03, 0., 1.42857153e-02, 0.,
          4.76190494e-03, 4.76190494e-03, 0., 1.42857153e-02,
          4.76190494e-03, 2.38095243e-02, 9.52380989e-03, 4.76190494e-03,
          0., 0., 4.76190494e-03, 4.76190494e-03, 2.38095243e-02, 0.,
          1.90476198e-02, 0., 0., 1.42857153e-02, 4.76190494e-03,
          4.76190494e-03, 1.42857153e-02, 0., 9.52380989e-03, 0.,
          1.90476198e-02, 4.76190494e-03, 0., 7.14285746e-02, 0.,
          1.90476198e-02, 4.76190494e-03, 3.33333351e-02, 0., 0.,
          4.76190494e-03, 0., 0., 0., 0., 5.23809530e-02, 0.,
          4.76190494e-03, 3.33333351e-02, 9.52380989e-03, 0., 0.,
          9.52380989e-03, 4.76190494e-03, 1.42857153e-02, 0.,
          1.42857153e-02, 0., 0., 2.85714306e-02, 0., 0., 4.76190494e-03,
          0., 1.42857153e-02, 1.42857153e-02, 2.38095243e-02,
          1.90476198e-02, 0., 0., 0., 9.52380989e-03, 0., 1.90476198e-02,
          9.52380989e-03, 4.76190494e-03, 3.33333351e-02, 4.76190494e-03,
          4.76190494e-03, 4.28571440e-02, 9.52380989e-03, 1.90476198e-02,
          4.76190485e-02, 0., 0., 4.76190494e-03, 0., 0., 3.33333351e-02,
          1.90476198e-02, 0., 1.90476198e-02, 3.80952395e-02,
          4.76190494e-03 ]
      - [ 9.85221658e-03, 1.47783253e-02, 9.85221658e-03, 9.85221658e-03,
          7.38916267e-03, 4.92610829e-03, 7.38916267e-03, 4.67980281e-02,
          7.38916267e-03, 4.92610829e-03, 2.46305414e-03, 2.46305414e-03,
          7.38916267e-03, 2.46305414e-03, 1.97044332e-02, 1.23152705e-02,
          2.46305414e-03, 1.47783253e-02, 9.85221658e-03, 1.97044332e-02,
          7.38916267e-03, 0., 9.85221658e-03, 7.38916267e-03,
          2.46305410e-02, 0., 7.38916267e-03, 1.23152705e-02,
          1.23152705e-02, 1.47783253e-02, 7.38916267e-03, 4.92610829e-03,
          9.85221658e-03, 4.92610829e-03, 1.47783253e-02, 0.,
          9.85221658e-03, 2.46305414e-03, 1.47783253e-02, 1.23152705e-02,
          0., 9.85221658e-03, 4.92610829e-03, 9.85221658e-03,
          1.23152705e-02, 1.23152705e-02, 2.46305414e-03, 7.38916267e-03,
          9.85221658e-03, 2.21674871e-02, 1.47783253e-02, 1.47783253e-02,
          7.38916267e-03, 9.85221658e-03, 1.72413792e-02, 7.38916267e-03,
          1.72413792e-02, 9.85221658e-03, 1.97044332e-02, 1.97044332e-02,
          9.85221658e-03, 2.21674871e-02, 9.85221658e-03, 7.38916267e-03,
          9.85221658e-03, 2.46305414e-03, 9.85221658e-03, 9.85221658e-03,
          7.38916267e-03, 9.85221658e-03, 7.38916267e-03, 1.72413792e-02,
          4.92610829e-03, 9.85221658e-03, 9.85221658e-03, 2.46305414e-03,
          1.72413792e-02, 0., 4.92610829e-03, 1.97044332e-02,
          4.92610829e-03, 4.92610829e-03, 1.47783253e-02, 1.47783253e-02,
          1.72413792e-02, 1.97044332e-02, 4.92610829e-03, 4.92610829e-03,
          7.38916267e-03, 7.38916267e-03, 4.92610829e-03, 4.92610829e-03,
          1.72413792e-02, 2.46305414e-03, 4.92610829e-03, 7.38916267e-03,
          9.85221658e-03, 9.85221658e-03, 4.92610829e-03, 1.72413792e-02 ]
      - [ 1.65289268e-02, 8.26446339e-03, 5.50964195e-03, 0.,
          1.10192839e-02, 0., 4.68319580e-02, 2.20385678e-02,
          2.75482098e-03, 1.37741044e-02, 2.20385678e-02, 2.75482098e-03,
          2.75482098e-03, 4.40771356e-02, 5.50964195e-03, 2.75482098e-03,
          2.75482098e-03, 1.37741044e-02, 2.20385678e-02, 2.75482098e-03,
          0., 1.10192839e-02, 8.26446339e-03, 2.75482098e-03,
          2.75482098e-03, 0., 1.10192839e-02, 8.26446339e-03,
          1.10192839e-02, 5.50964195e-03, 1.10192839e-02, 2.75482098e-03,
          8.26446339e-03, 2.75482098e-03, 1.92837473e-02, 8.26446339e-03,
          8.26446339e-03, 1.37741044e-02, 1.92837473e-02, 5.50964195e-03,
          0., 2.75482098e-03, 2.75482098e-03, 8.26446339e-03,
          1.10192839e-02, 5.50964195e-03, 1.10192839e-02, 2.75482098e-03,
          0., 1.10192839e-02, 2.75482098e-03, 2.47933883e-02,
          2.75482098e-03, 5.50964195e-03, 2.75482098e-03, 5.50964195e-03,
          2.75482098e-03, 2.47933883e-02, 2.20385678e-02, 2.75482098e-03,
          0., 1.10192839e-02, 1.10192839e-02, 1.65289268e-02,
          2.75482098e-03, 1.10192839e-02, 0., 5.50964195e-03,
          8.26446339e-03, 5.50964195e-03, 5.50964195e-03, 1.65289268e-02,
          0., 2.20385678e-02, 5.50964195e-03, 5.50964195e-03,
          8.26446339e-03, 0., 0., 8.26446339e-03, 8.26446339e-03,
          1.37741044e-02, 3.03030312e-02, 2.75482098e-03, 2.75482098e-03,
          4.95867766e-02, 2.20385678e-02, 8.26446339e-03, 1.37741044e-02,
          1.92837473e-02, 1.10192839e-02, 2.75482098e-03, 2.20385678e-02,
          2.20385678e-02, 1.10192839e-02, 1.10192839e-02, 1.65289268e-02,
          2.75482098e-03, 1.92837473e-02, 8.26446339e-03 ]
      - [ 1.92307699e-02, 7.69230770e-03, 0., 7.69230770e-03,
          1.15384618e-02, 8.46153870e-02, 3.84615385e-03, 4.23076935e-02,
          0., 0., 3.84615385e-03, 2.69230772e-02, 1.92307699e-02, 0.,
          1.92307699e-02, 3.84615385e-03, 3.84615385e-03, 0., 0.,
          1.53846154e-02, 1.92307699e-02, 0., 2.69230772e-02,
          1.92307699e-02, 1.15384618e-02, 3.84615385e-03, 0.,
          7.69230770e-03, 3.84615385e-03, 3.84615385e-03, 1.92307699e-02,
          3.84615385e-03, 3.84615385e-03, 0., 3.84615385e-03,
          5.38461544e-02, 0., 1.15384618e-02, 1.15384618e-02, 0.,
          7.69230770e-03, 1.92307699e-02, 3.84615385e-03, 3.84615385e-03,
          1.15384618e-02, 0., 0., 3.84615385e-03, 1.92307699e-02,
          7.69230770e-03, 1.15384618e-02, 0., 2.30769236e-02,
          2.30769236e-02, 2.69230772e-02, 3.84615385e-03, 4.23076935e-02,
          0., 3.84615385e-03, 3.07692308e-02, 3.84615385e-03,
          3.84615385e-03, 0., 3.84615385e-03, 0., 3.84615385e-03,
          2.30769236e-02, 2.30769236e-02, 3.84615385e-03, 1.92307699e-02,
          1.53846154e-02, 0., 1.15384618e-02, 1.15384618e-02,
          3.84615385e-03, 0., 0., 3.84615385e-03, 7.69230770e-03,
          3.84615385e-03, 1.92307699e-02, 1.15384618e-02, 0.,
          7.69230770e-03, 3.46153863e-02, 1.15384618e-02, 7.69230770e-03,
          0., 0., 3.84615385e-03, 1.15384618e-02, 1.15384618e-02,
          3.84615385e-03, 0., 0., 3.84615385e-03, 1.15384618e-02, 0., 0.,
          3.84615385e-03 ]
      - [ 3.44827585e-02, 1.93965510e-02, 2.15517241e-03, 4.31034481e-03,
          8.62068962e-03, 4.31034481e-03, 1.29310340e-02, 2.80172415e-02,
          1.07758623e-02, 6.46551698e-03, 0., 2.15517241e-03,
          3.44827585e-02, 0., 1.50862066e-02, 1.29310340e-02,
          2.15517241e-03, 2.15517241e-03, 4.31034481e-03, 2.37068962e-02,
          4.31034481e-03, 0., 1.29310340e-02, 6.46551698e-03,
          4.31034481e-03, 2.15517241e-03, 4.31034481e-03, 1.29310340e-02,
          1.07758623e-02, 1.50862066e-02, 2.37068962e-02, 4.31034481e-03,
          2.15517241e-03, 2.15517241e-03, 8.62068962e-03, 1.07758623e-02,
          6.46551698e-03, 1.07758623e-02, 0., 2.15517241e-03, 0.,
          4.31034481e-03, 2.15517241e-03, 1.29310340e-02, 2.37068962e-02,
          2.15517245e-02, 0., 1.50862066e-02, 1.50862066e-02,
          1.50862066e-02, 1.50862066e-02, 1.93965510e-02, 2.80172415e-02,
          4.31034481e-03, 1.93965510e-02, 2.80172415e-02, 1.29310340e-02,
          6.46551698e-03, 4.31034481e-03, 1.29310340e-02, 2.15517245e-02,
          1.07758623e-02, 4.31034481e-03, 8.62068962e-03, 8.62068962e-03,
          1.07758623e-02, 0., 1.72413792e-02, 8.62068962e-03,
          8.62068962e-03, 8.62068962e-03, 8.62068962e-03, 8.62068962e-03,
          8.62068962e-03, 2.15517241e-03, 0., 1.72413792e-02,
          2.15517241e-03, 0., 8.62068962e-03, 4.31034481e-03,
          1.07758623e-02, 6.46551698e-03, 1.07758623e-02, 1.93965510e-02,
          1.29310340e-02, 1.07758623e-02, 1.07758623e-02, 2.15517245e-02,
          2.15517241e-03, 1.50862066e-02, 2.15517245e-02, 1.72413792e-02,
          4.31034481e-03, 1.29310340e-02, 0., 2.15517241e-03,
          8.62068962e-03, 6.46551698e-03, 4.31034481e-03 ]
      - [ 1.88679248e-02, 1.88679248e-02, 3.77358496e-03, 1.13207549e-02,
          3.77358496e-03, 3.77358496e-02, 1.50943398e-02, 4.15094346e-02,
          3.77358496e-03, 3.77358496e-03, 3.77358496e-03, 0.,
          2.64150947e-02, 0., 1.13207549e-02, 3.77358496e-03, 0.,
          3.77358496e-03, 1.13207549e-02, 1.88679248e-02, 3.77358496e-03,
          0., 1.13207549e-02, 1.13207549e-02, 3.77358496e-03,
          3.77358496e-03, 7.54716992e-03, 0., 1.13207549e-02,
          1.13207549e-02, 1.50943398e-02, 0., 3.77358496e-03, 0.,
          7.54716992e-03, 1.50943398e-02, 7.54716992e-03, 3.77358496e-03,
          0., 3.77358496e-03, 3.77358496e-03, 0., 1.13207549e-02,
          1.50943398e-02, 1.50943398e-02, 1.50943398e-02, 7.54716992e-03,
          7.54716992e-03, 1.13207549e-02, 3.77358496e-03, 0.,
          1.50943398e-02, 3.77358496e-03, 1.13207549e-02, 1.50943398e-02,
          3.77358496e-03, 1.88679248e-02, 3.39622647e-02, 3.77358496e-03,
          1.50943398e-02, 2.26415098e-02, 3.39622647e-02, 0.,
          1.50943398e-02, 3.77358496e-03, 0., 3.77358496e-03,
          1.88679248e-02, 3.77358496e-03, 0., 3.77358496e-03,
          2.26415098e-02, 3.77358496e-03, 7.54716992e-03, 3.77358496e-03,
          0., 1.50943398e-02, 3.77358496e-03, 7.54716992e-03,
          7.54716992e-03, 7.54716992e-03, 3.77358496e-03, 1.88679248e-02,
          7.54716992e-03, 4.90566045e-02, 3.77358496e-02, 3.77358496e-03,
          3.77358496e-03, 3.77358496e-03, 1.13207549e-02, 7.54716992e-03,
          1.88679248e-02, 1.88679248e-02, 0., 7.54716992e-03,
          7.54716992e-03, 3.77358496e-03, 3.01886797e-02, 0.,
          1.13207549e-02 ]
      - [ 9.70873795e-03, 9.70873795e-03, 0., 4.85436898e-03,
          4.85436898e-03, 1.94174759e-02, 9.70873795e-03, 4.36893217e-02,
          9.70873795e-03, 4.85436898e-03, 0., 0., 4.85436898e-03, 0.,
          3.88349518e-02, 4.85436898e-03, 0., 9.70873795e-03,
          1.45631069e-02, 4.36893217e-02, 4.85436898e-03, 0.,
          3.39805819e-02, 3.39805819e-02, 4.85436898e-03, 0.,
          2.42718458e-02, 0., 1.94174759e-02, 4.85436898e-03,
          1.45631069e-02, 4.85436898e-03, 0., 0., 9.70873795e-03,
          9.70873795e-03, 1.45631069e-02, 4.85436898e-03, 0., 0., 0., 0.,
          1.45631069e-02, 4.85436898e-03, 3.39805819e-02, 1.94174759e-02,
          0., 0., 1.45631069e-02, 9.70873795e-03, 4.85436898e-03, 0.,
          1.45631069e-02, 9.70873795e-03, 4.85436898e-03, 9.70873795e-03,
          4.85436916e-02, 4.85436898e-03, 9.70873795e-03, 3.39805819e-02,
          1.45631069e-02, 1.45631069e-02, 1.45631069e-02, 0., 0.,
          4.85436898e-03, 2.42718458e-02, 4.85436898e-03, 4.85436898e-03,
          4.85436898e-03, 4.85436898e-03, 9.70873795e-03, 4.85436898e-03,
          0., 0., 9.70873795e-03, 4.85436898e-03, 0., 1.94174759e-02,
          4.85436898e-03, 9.70873795e-03, 0., 0., 3.39805819e-02,
          3.39805819e-02, 9.70873795e-03, 1.45631069e-02, 0.,
          9.70873795e-03, 1.45631069e-02, 4.85436898e-03, 4.85436898e-03,
          3.39805819e-02, 0., 4.85436898e-03, 0., 0., 1.45631069e-02,
          9.70873795e-03, 0. ]
      - [ 2.14285720e-02, 0., 1.07142860e-02, 7.14285718e-03,
          3.57142859e-03, 1.42857144e-02, 7.14285718e-03, 2.85714287e-02,
          3.57142859e-03, 7.14285718e-03, 1.07142860e-02, 3.57142859e-03,
          7.14285718e-03, 0., 3.57142859e-03, 1.78571437e-02,
          7.14285718e-03, 1.42857144e-02, 3.57142859e-03, 3.57142859e-03,
          3.57142859e-03, 1.07142860e-02, 7.14285718e-03, 7.14285718e-03,
          1.07142860e-02, 1.42857144e-02, 1.07142860e-02, 3.57142859e-03,
          1.07142860e-02, 1.07142860e-02, 4.28571440e-02, 3.57142873e-02,
          0., 5.00000007e-02, 1.78571437e-02, 2.14285720e-02,
          7.14285718e-03, 0., 1.07142860e-02, 0., 1.78571437e-02,
          1.07142860e-02, 0., 0., 0., 3.57142859e-03, 7.14285718e-03,
          7.14285718e-03, 7.14285718e-03, 1.07142860e-02, 2.14285720e-02,
          7.14285718e-03, 7.14285718e-03, 0., 7.14285718e-03,
          7.14285718e-03, 1.42857144e-02, 0., 3.57142859e-03,
          2.50000004e-02, 3.57142859e-03, 3.57142859e-03, 3.57142859e-03,
          0., 0., 1.42857144e-02, 2.50000004e-02, 2.50000004e-02,
          3.57142859e-03, 3.57142859e-03, 1.42857144e-02, 0.,
          7.14285718e-03, 1.78571437e-02, 0., 3.57142859e-03,
          3.57142859e-03, 1.42857144e-02, 2.14285720e-02, 1.07142860e-02,
          3.57142859e-03, 1.07142860e-02, 0., 7.14285718e-03,
          1.42857144e-02, 1.78571437e-02, 0., 5.71428575e-02,
          3.57142859e-03, 7.14285718e-03, 3.57142859e-03, 3.57142859e-03,
          3.57142859e-03, 1.42857144e-02, 7.14285718e-03, 0.,
          2.85714287e-02, 2.14285720e-02, 1.07142860e-02, 3.57142859e-03 ]
      - [ 5.98802418e-03, 5.98802418e-03, 1.19760484e-02, 5.98802418e-03,
          1.19760484e-02, 0., 7.78443143e-02, 7.18562901e-02, 0., 0., 0.,
          0., 0., 0., 0., 5.98802418e-03, 0., 1.19760484e-02,
          1.79640725e-02, 1.19760484e-02, 0., 0., 0., 0., 0., 0.,
          5.98802418e-03, 0., 5.98802418e-03, 5.98802418e-03,
          1.19760484e-02, 5.98802418e-03, 1.19760484e-02, 0.,
          5.98802418e-03, 0., 2.39520967e-02, 5.98802418e-03, 0.,
          2.99401209e-02, 0., 0., 1.19760484e-02, 5.98802418e-03,
          1.19760484e-02, 0., 1.79640725e-02, 0., 0., 5.98802418e-03,
          1.19760484e-02, 1.79640725e-02, 5.98802418e-03, 0., 0.,
          1.79640725e-02, 5.98802418e-03, 2.39520967e-02, 1.19760484e-02,
          0., 1.19760484e-02, 5.98802418e-03, 5.98802418e-03,
          5.98802418e-03, 0., 1.79640725e-02, 0., 0., 0., 5.38922176e-02,
          1.19760484e-02, 1.19760484e-02, 0., 1.19760484e-02,
          5.98802418e-03, 0., 0., 0., 0., 3.59281451e-02, 5.98802418e-03,
          0., 0., 5.98802418e-03, 1.25748515e-01, 4.19161692e-02, 0., 0.,
          2.39520967e-02, 5.98802418e-03, 0., 2.39520967e-02,
          5.98802418e-03, 0., 1.19760484e-02, 1.79640725e-02, 0.,
          1.79640725e-02, 2.39520967e-02, 5.98802418e-03 ]
      - [ 4.46428591e-03, 0., 4.46428591e-03, 8.92857183e-03,
          8.92857183e-03, 0., 3.57142873e-02, 1.78571437e-02, 0.,
          4.46428591e-03, 2.23214291e-02, 8.92857183e-03, 4.46428591e-03,
          4.46428591e-03, 8.92857183e-03, 0., 4.46428591e-03, 0.,
          8.92857183e-03, 4.46428591e-03, 0., 4.46428591e-03,
          1.33928582e-02, 1.33928582e-02, 2.23214291e-02, 0.,
          3.57142873e-02, 4.46428591e-03, 8.92857183e-03, 8.92857183e-03,
          1.33928582e-02, 2.23214291e-02, 2.23214291e-02, 1.33928582e-02,
          4.46428591e-03, 4.46428591e-03, 4.46428591e-03, 8.92857183e-03,
          4.46428591e-03, 3.57142873e-02, 4.46428591e-03, 1.33928582e-02,
          8.92857183e-03, 4.46428591e-03, 8.92857183e-03, 8.92857183e-03,
          2.23214291e-02, 0., 4.46428591e-03, 2.23214291e-02,
          1.78571437e-02, 1.78571437e-02, 0., 1.33928582e-02,
          3.57142873e-02, 4.46428591e-03, 8.92857183e-03, 1.78571437e-02,
          4.46428591e-03, 8.92857183e-03, 3.57142873e-02, 8.92857183e-03,
          1.33928582e-02, 0., 0., 2.23214291e-02, 4.46428591e-03,
          4.46428591e-03, 8.92857183e-03, 0., 4.46428591e-03,
          1.33928582e-02, 0., 1.78571437e-02, 4.46428591e-03,
          4.46428591e-03, 4.46428591e-03, 0., 8.92857183e-03, 0.,
          4.46428591e-03, 1.33928582e-02, 8.92857183e-03, 1.33928582e-02,
          1.33928582e-02, 1.78571437e-02, 8.92857183e-03, 1.33928582e-02,
          1.33928582e-02, 0., 8.92857183e-03, 0., 0., 0., 8.92857183e-03,
          2.23214291e-02, 0., 1.78571437e-02, 4.01785746e-02,
          1.33928582e-02 ]
      - [ 0., 2.61437912e-02, 0., 1.30718956e-02, 1.30718956e-02,
          1.30718956e-02, 6.53594779e-03, 5.88235296e-02, 0., 0., 0.,
          1.96078438e-02, 2.61437912e-02, 0., 6.53594779e-03,
          1.30718956e-02, 0., 0., 0., 6.53594779e-03, 6.53594779e-03, 0.,
          6.53594779e-03, 0., 0., 1.30718956e-02, 0., 6.53594779e-03,
          1.96078438e-02, 1.30718956e-02, 6.53594779e-03, 6.53594779e-03,
          6.53594779e-03, 1.96078438e-02, 1.96078438e-02, 6.53594779e-03,
          0., 6.53594779e-03, 0., 1.30718956e-02, 1.30718956e-02,
          1.30718956e-02, 0., 6.53594779e-03, 0., 6.53594779e-03,
          1.96078438e-02, 1.30718956e-02, 0., 0., 3.26797403e-02,
          1.96078438e-02, 0., 0., 1.30718956e-02, 6.53594779e-03,
          1.96078438e-02, 0., 6.53594779e-03, 6.53594779e-03,
          3.92156877e-02, 1.30718956e-02, 1.96078438e-02, 6.53594779e-03,
          0., 1.96078438e-02, 0., 0., 0., 0., 1.96078438e-02,
          1.96078438e-02, 0., 4.57516350e-02, 6.53594779e-03, 0.,
          6.53594779e-03, 0., 6.53594779e-03, 6.53594779e-03, 0.,
          1.30718956e-02, 1.30718956e-02, 6.53594779e-03, 2.61437912e-02,
          6.53594779e-03, 6.53594779e-03, 0., 6.53594779e-03,
          1.30718956e-02, 6.53594779e-03, 0., 6.53594779e-03,
          1.30718956e-02, 1.30718956e-02, 0., 5.22875823e-02,
          2.61437912e-02, 3.92156877e-02, 1.30718956e-02 ]
      - [ 1.00334445e-02, 1.33779263e-02, 0., 0., 1.00334445e-02, 0.,
          1.00334445e-02, 3.01003344e-02, 1.33779263e-02, 6.68896316e-03,
          6.68896316e-03, 1.33779263e-02, 1.67224072e-02, 0.,
          3.34448158e-03, 2.00668890e-02, 3.34448158e-03, 0.,
          3.34448158e-03, 3.01003344e-02, 1.00334445e-02, 0.,
          1.67224072e-02, 2.34113708e-02, 6.68896316e-03, 0.,
          3.34448158e-03, 6.68896316e-03, 3.34448158e-03, 6.68896316e-03,
          3.67892981e-02, 3.34448158e-03, 0., 1.00334445e-02,
          2.00668890e-02, 2.34113708e-02, 1.00334445e-02, 0., 0., 0., 0.,
          0., 0., 1.33779263e-02, 3.34448158e-03, 1.33779263e-02,
          3.34448158e-03, 1.00334445e-02, 2.34113708e-02, 0.,
          1.00334445e-02, 6.68896316e-03, 1.67224072e-02, 6.68896316e-03,
          6.68896316e-03, 0., 2.00668890e-02, 3.34448158e-03,
          3.34448158e-03, 2.67558526e-02, 1.33779263e-02, 3.34448158e-03,
          6.68896316e-03, 1.00334445e-02, 1.67224072e-02, 6.68896316e-03,
          1.33779263e-02, 2.00668890e-02, 0., 6.68896316e-03,
          6.68896316e-03, 1.00334445e-02, 1.33779263e-02, 3.34448158e-03,
          6.68896316e-03, 6.68896316e-03, 3.34448158e-03, 2.00668890e-02,
          6.68896316e-03, 3.34448158e-03, 1.00334445e-02, 3.34448158e-03,
          6.68896316e-03, 3.01003344e-02, 6.68896288e-02, 4.01337780e-02,
          0., 1.00334445e-02, 1.00334445e-02, 3.34448158e-03,
          1.67224072e-02, 1.00334445e-02, 5.35117052e-02, 0., 0.,
          3.34448158e-03, 6.68896316e-03, 3.34448158e-03, 3.34448158e-03,
          6.68896316e-03 ]
      - [ 1.81818176e-02, 0., 6.06060587e-03, 0., 0., 4.24242392e-02,
          8.48484784e-02, 2.42424235e-02, 0., 0., 0., 1.81818176e-02,
          1.21212117e-02, 0., 0., 0., 0., 6.06060587e-03, 1.21212117e-02,
          1.81818176e-02, 3.63636352e-02, 0., 3.63636352e-02,
          3.03030293e-02, 6.06060587e-03, 0., 6.06060587e-03,
          1.81818176e-02, 6.06060587e-03, 6.06060587e-03, 6.06060587e-03,
          6.06060587e-03, 0., 1.21212117e-02, 6.06060587e-03,
          8.48484784e-02, 6.06060587e-03, 0., 0., 0., 0., 0.,
          6.06060587e-03, 0., 6.06060587e-03, 3.03030293e-02,
          1.81818176e-02, 0., 1.81818176e-02, 1.21212117e-02, 0., 0.,
          3.63636352e-02, 1.81818176e-02, 0., 0., 2.42424235e-02, 0., 0.,
          3.03030293e-02, 0., 6.06060587e-03, 6.06060587e-03, 0., 0., 0.,
          4.24242392e-02, 6.06060587e-03, 6.06060587e-03, 6.06060587e-03,
          1.81818176e-02, 0., 1.81818176e-02, 6.06060587e-03, 0., 0., 0.,
          0., 4.24242392e-02, 0., 1.21212117e-02, 1.21212117e-02,
          6.06060587e-03, 0., 1.81818176e-02, 0., 6.06060587e-03, 0., 0.,
          0., 1.21212117e-02, 1.21212117e-02, 0., 0., 0., 0.,
          5.45454547e-02, 0., 0., 0. ]
      - [ 2.99401209e-02, 5.98802418e-03, 1.19760484e-02, 5.98802418e-03,
          1.19760484e-02, 1.19760484e-02, 0., 5.98802418e-02, 0., 0., 0.,
          2.99401209e-02, 3.59281451e-02, 0., 1.19760484e-02,
          5.98802418e-03, 0., 5.98802418e-03, 5.98802418e-03, 0.,
          2.39520967e-02, 0., 2.39520967e-02, 3.59281451e-02,
          1.19760484e-02, 1.79640725e-02, 0., 0., 1.79640725e-02, 0.,
          1.19760484e-02, 1.19760484e-02, 0., 5.98802418e-03,
          1.19760484e-02, 1.19760484e-02, 1.19760484e-02, 1.19760484e-02,
          2.99401209e-02, 0., 5.98802418e-03, 0., 1.79640725e-02,
          1.19760484e-02, 0., 5.98802418e-03, 1.19760484e-02,
          5.98802418e-03, 5.98802418e-03, 4.79041934e-02, 1.79640725e-02,
          5.98802418e-03, 1.19760484e-02, 1.19760484e-02, 0.,
          5.98802418e-03, 5.98802418e-03, 5.98802418e-03, 5.98802418e-03,
          1.79640725e-02, 5.98802418e-03, 5.98802418e-03, 5.98802418e-03,
          1.19760484e-02, 1.19760484e-02, 0., 1.19760484e-02,
          1.79640725e-02, 0., 1.19760484e-02, 1.19760484e-02,
          5.98802418e-03, 0., 1.19760484e-02, 5.98802418e-03, 0., 0., 0.,
          0., 1.79640725e-02, 1.79640725e-02, 5.98802418e-03, 0.,
          2.39520967e-02, 7.18562901e-02, 5.98802418e-03, 5.98802418e-03,
          0., 1.19760484e-02, 0., 5.98802418e-03, 5.98802418e-03,
          5.98802418e-03, 0., 0., 0., 0., 1.19760484e-02, 0.,
          1.19760484e-02 ]
      - [ 7.25952815e-03, 5.44464588e-03, 1.27041740e-02, 1.63339376e-02,
          9.07441042e-03, 5.44464588e-03, 5.80762252e-02, 3.26678753e-02,
          5.44464588e-03, 7.25952815e-03, 1.81488204e-03, 0.,
          1.08892918e-02, 5.44464588e-03, 1.27041740e-02, 3.62976408e-03,
          1.81488208e-02, 7.25952815e-03, 9.07441042e-03, 5.44464588e-03,
          5.44464588e-03, 5.44464588e-03, 1.81488204e-03, 7.25952815e-03,
          1.99637022e-02, 0., 5.44464588e-03, 1.27041740e-02,
          1.45190563e-02, 1.08892918e-02, 5.44464588e-03, 0.,
          1.27041740e-02, 7.25952815e-03, 1.27041740e-02, 1.63339376e-02,
          9.07441042e-03, 2.54083481e-02, 1.63339376e-02, 1.45190563e-02,
          1.81488204e-03, 0., 1.08892918e-02, 3.62976408e-03,
          3.62976408e-03, 1.81488204e-03, 9.07441042e-03, 9.07441042e-03,
          5.44464588e-03, 1.08892918e-02, 1.63339376e-02, 9.07441042e-03,
          7.25952815e-03, 1.81488208e-02, 2.72232313e-02, 7.25952815e-03,
          3.62976408e-03, 9.07441042e-03, 3.62976408e-03, 7.25952815e-03,
          1.63339376e-02, 1.81488208e-02, 1.08892918e-02, 9.07441042e-03,
          5.44464588e-03, 7.25952815e-03, 7.25952815e-03, 5.44464588e-03,
          3.62976408e-03, 3.08529940e-02, 1.08892918e-02, 5.44464588e-03,
          1.81488204e-03, 1.63339376e-02, 3.62976408e-03, 3.62976408e-03,
          1.81488204e-03, 7.25952815e-03, 3.62976408e-03, 7.25952815e-03,
          1.81488204e-03, 1.08892918e-02, 7.25952815e-03, 5.44464588e-03,
          1.81488208e-02, 3.44827585e-02, 7.25952815e-03, 7.25952815e-03,
          1.81488204e-03, 1.99637022e-02, 3.62976408e-03, 1.81488208e-02,
          3.62976408e-03, 2.35934667e-02, 1.63339376e-02, 1.27041740e-02,
          3.62976408e-03, 1.81488204e-03, 1.63339376e-02, 7.25952815e-03 ]
      - [ 1.59362555e-02, 3.98406386e-03, 2.39043832e-02, 0.,
          7.96812773e-03, 1.99203193e-02, 3.98406386e-03, 5.17928302e-02,
          7.96812773e-03, 3.98406386e-03, 1.19521916e-02, 7.96812773e-03,
          1.19521916e-02, 1.59362555e-02, 4.78087664e-02, 0.,
          7.96812773e-03, 3.98406386e-03, 1.59362555e-02, 5.57768941e-02,
          3.98406386e-03, 7.96812773e-03, 1.19521916e-02, 2.39043832e-02,
          3.98406386e-03, 0., 0., 3.98406386e-03, 7.96812773e-03, 0.,
          1.19521916e-02, 0., 1.59362555e-02, 0., 3.98406386e-03,
          3.98406386e-03, 0., 3.98406386e-03, 3.98406386e-03, 0.,
          3.98406386e-03, 3.98406386e-03, 7.96812773e-03, 0.,
          1.59362555e-02, 3.18725109e-02, 7.96812773e-03, 3.98406386e-03,
          7.96812773e-03, 0., 1.99203193e-02, 7.96812773e-03,
          3.98406386e-03, 1.59362555e-02, 1.59362555e-02, 7.96812773e-03,
          2.39043832e-02, 3.98406386e-03, 0., 1.99203193e-02,
          3.98406386e-03, 1.99203193e-02, 1.19521916e-02, 3.98406386e-03,
          3.98406386e-03, 7.96812773e-03, 1.19521916e-02, 2.39043832e-02,
          0., 0., 3.98406386e-03, 0., 3.98406386e-03, 2.39043832e-02,
          3.98406386e-03, 0., 1.19521916e-02, 3.98406386e-03,
          7.96812773e-03, 1.59362555e-02, 0., 3.98406386e-03,
          7.96812773e-03, 1.19521916e-02, 1.59362555e-02, 0.,
          3.98406386e-03, 7.96812773e-03, 3.98406386e-03, 1.19521916e-02,
          0., 3.98406386e-03, 1.99203193e-02, 2.78884470e-02,
          1.19521916e-02, 7.96812773e-03, 7.96812773e-03, 7.96812773e-03,
          4.78087664e-02, 3.98406386e-03 ]
      - [ 1.56250000e-02, 2.34375000e-02, 0., 0., 7.81250000e-03, 0., 0.,
          2.34375000e-02, 0., 0., 0., 2.34375000e-02, 2.34375000e-02, 0.,
          0., 6.25000000e-02, 0., 0., 0., 0., 0., 0., 2.34375000e-02,
          3.12500000e-02, 7.81250000e-03, 0., 7.81250000e-03,
          3.12500000e-02, 0., 7.81250000e-03, 0., 0., 1.56250000e-02, 0.,
          2.34375000e-02, 2.34375000e-02, 0., 7.81250000e-03, 0.,
          2.34375000e-02, 0., 0., 0., 0., 0., 0., 0., 0., 3.12500000e-02,
          7.81250000e-03, 0., 7.81250000e-03, 7.81250000e-02,
          2.34375000e-02, 7.81250000e-03, 2.34375000e-02, 7.81250000e-03,
          7.81250000e-03, 0., 1.56250000e-02, 0., 4.68750000e-02, 0.,
          7.81250000e-03, 1.56250000e-02, 0., 7.81250000e-03,
          1.56250000e-02, 7.81250000e-03, 7.81250000e-03, 3.12500000e-02,
          0., 0., 0., 0., 0., 7.81250000e-03, 1.56250000e-02,
          7.81250000e-03, 7.81250000e-03, 0., 7.81250000e-03, 0.,
          3.90625000e-02, 7.03125000e-02, 3.12500000e-02, 7.81250000e-03,
          0., 1.56250000e-02, 0., 0., 7.81250000e-03, 7.81250000e-03, 0.,
          0., 0., 0., 3.12500000e-02, 0., 7.81250000e-03 ]
      - [ 3.24324332e-02, 1.62162166e-02, 1.08108111e-02, 5.40540554e-03,
          5.40540554e-03, 2.70270277e-03, 1.89189203e-02, 1.02702707e-01,
          5.40540554e-03, 8.10810830e-03, 1.08108111e-02, 5.40540554e-03,
          2.43243240e-02, 2.43243240e-02, 5.40540554e-03, 2.43243240e-02,
          5.40540554e-03, 2.70270277e-03, 2.70270277e-03, 1.89189203e-02,
          1.62162166e-02, 5.40540554e-03, 1.62162166e-02, 1.62162166e-02,
          8.10810830e-03, 0., 2.70270277e-03, 1.08108111e-02,
          5.40540554e-03, 8.10810830e-03, 1.35135138e-02, 0.,
          5.40540554e-03, 0., 2.70270277e-03, 1.08108111e-02,
          8.10810830e-03, 8.10810830e-03, 0., 8.10810830e-03, 0., 0.,
          2.70270277e-03, 1.89189203e-02, 8.10810830e-03, 1.08108111e-02,
          0., 0., 1.62162166e-02, 5.40540554e-03, 0., 2.70270277e-03,
          1.08108111e-02, 8.10810830e-03, 5.40540554e-03, 8.10810830e-03,
          2.16216221e-02, 5.40540554e-03, 1.08108111e-02, 2.43243240e-02,
          2.70270277e-03, 0., 5.40540554e-03, 0., 8.10810830e-03, 0., 0.,
          1.62162166e-02, 2.70270277e-03, 1.89189203e-02, 5.40540554e-03,
          8.10810830e-03, 8.10810830e-03, 0., 2.70270277e-03,
          5.40540554e-03, 0., 0., 0., 5.40540554e-03, 2.70270277e-03,
          8.10810830e-03, 0., 1.35135138e-02, 1.10810816e-01,
          2.43243240e-02, 2.70270277e-03, 0., 2.70270277e-03,
          2.70270277e-03, 1.62162166e-02, 1.08108111e-02, 1.62162166e-02,
          1.08108111e-02, 2.70270277e-03, 2.70270277e-03, 1.62162166e-02,
          1.08108111e-02, 1.35135138e-02, 5.40540554e-03 ]
      - [ 4.76190448e-02, 6.80272095e-03, 6.80272095e-03, 6.80272095e-03,
          0., 0., 0., 8.84353742e-02, 0., 0., 0., 0., 2.04081628e-02, 0.,
          4.08163257e-02, 0., 6.80272095e-03, 0., 6.80272095e-03,
          4.08163257e-02, 6.80272095e-03, 0., 2.04081628e-02,
          2.72108838e-02, 6.80272095e-03, 6.80272095e-03, 0., 0.,
          1.36054419e-02, 0., 6.80272095e-03, 6.80272095e-03, 0.,
          6.80272095e-03, 0., 2.72108838e-02, 0., 6.80272095e-03, 0., 0.,
          6.80272095e-03, 0., 6.80272095e-03, 0., 0., 4.08163257e-02, 0.,
          0., 2.04081628e-02, 6.80272095e-03, 1.36054419e-02,
          2.04081628e-02, 3.40136066e-02, 6.80272095e-03, 0.,
          6.80272095e-03, 3.40136066e-02, 0., 1.36054419e-02,
          3.40136066e-02, 6.80272095e-03, 4.08163257e-02, 6.80272095e-03,
          0., 6.80272095e-03, 0., 2.04081628e-02, 1.36054419e-02, 0.,
          6.80272095e-03, 0., 0., 0., 6.80272095e-03, 0., 0., 0., 0.,
          1.36054419e-02, 0., 0., 0., 6.80272095e-03, 0., 7.48299286e-02,
          6.80272095e-03, 0., 0., 4.08163257e-02, 0., 0., 3.40136066e-02,
          1.36054419e-02, 0., 0., 1.36054419e-02, 1.36054419e-02, 0.,
          2.04081628e-02, 0. ]
      - [ 1.06100794e-02, 1.06100794e-02, 1.06100794e-02, 2.65251985e-03,
          7.95755908e-03, 0., 7.95755908e-03, 4.24403176e-02, 0.,
          2.65251985e-03, 5.30503970e-03, 1.06100794e-02, 5.30503970e-03,
          0., 5.30503970e-03, 1.32625997e-02, 5.30503970e-03,
          1.32625997e-02, 1.32625997e-02, 1.85676385e-02, 1.06100794e-02,
          0., 7.95755908e-03, 1.06100794e-02, 1.06100794e-02, 0.,
          1.85676385e-02, 1.59151182e-02, 0., 1.32625997e-02,
          1.06100794e-02, 0., 2.65251985e-03, 7.95755908e-03,
          1.85676385e-02, 5.30503970e-03, 1.32625997e-02, 1.06100794e-02,
          2.12201588e-02, 7.95755908e-03, 0., 7.95755908e-03,
          1.85676385e-02, 2.65251985e-03, 1.06100794e-02, 1.85676385e-02,
          2.65251985e-03, 1.06100794e-02, 1.32625997e-02, 7.95755908e-03,
          2.38726791e-02, 1.06100794e-02, 0., 1.32625997e-02,
          2.65251994e-02, 7.95755908e-03, 1.32625997e-02, 1.85676385e-02,
          5.30503970e-03, 1.06100794e-02, 2.65251985e-03, 1.06100794e-02,
          7.95755908e-03, 1.32625997e-02, 1.32625997e-02, 1.32625997e-02,
          0., 5.30503970e-03, 7.95755908e-03, 1.59151182e-02,
          5.30503970e-03, 1.32625997e-02, 5.30503970e-03, 1.32625997e-02,
          1.32625997e-02, 0., 1.85676385e-02, 0., 2.65251985e-03,
          5.30503970e-03, 2.65251985e-03, 7.95755908e-03, 1.85676385e-02,
          2.65251985e-03, 2.12201588e-02, 5.30503988e-02, 1.06100794e-02,
          5.30503970e-03, 7.95755908e-03, 1.32625997e-02, 2.65251994e-02,
          1.06100794e-02, 1.59151182e-02, 2.65251985e-03, 1.06100794e-02,
          2.65251985e-03, 0., 2.12201588e-02, 2.65251985e-03,
          2.65251985e-03 ]
      - [ 1.30505711e-02, 9.78792831e-03, 4.89396416e-03, 2.28384994e-02,
          9.78792831e-03, 4.89396416e-03, 1.79445352e-02, 2.61011422e-02,
          9.78792831e-03, 6.52528554e-03, 1.63132139e-03, 4.89396416e-03,
          1.95758566e-02, 4.89396416e-03, 1.63132139e-02, 2.44698208e-02,
          1.14192497e-02, 1.30505711e-02, 6.52528554e-03, 3.58890705e-02,
          0., 1.63132139e-03, 1.30505711e-02, 6.52528554e-03,
          6.52528554e-03, 0., 6.52528554e-03, 1.14192497e-02,
          1.46818925e-02, 1.30505711e-02, 8.15660693e-03, 6.52528554e-03,
          4.89396416e-03, 4.89396416e-03, 1.79445352e-02, 8.15660693e-03,
          1.30505711e-02, 1.46818925e-02, 1.46818925e-02, 4.89396416e-03,
          3.26264277e-03, 4.89396416e-03, 4.89396416e-03, 9.78792831e-03,
          2.28384994e-02, 1.63132139e-02, 4.89396416e-03, 8.15660693e-03,
          1.14192497e-02, 1.63132139e-02, 3.26264277e-03, 9.78792831e-03,
          1.14192497e-02, 0., 1.46818925e-02, 9.78792831e-03,
          1.14192497e-02, 1.14192497e-02, 8.15660693e-03, 9.78792831e-03,
          1.95758566e-02, 9.78792831e-03, 1.63132139e-02, 8.15660693e-03,
          1.46818925e-02, 8.15660693e-03, 6.52528554e-03, 1.30505711e-02,
          1.63132139e-03, 4.89396416e-03, 3.26264277e-03, 9.78792831e-03,
          3.26264277e-03, 9.78792831e-03, 3.26264277e-03, 1.63132139e-03,
          1.14192497e-02, 0., 1.63132139e-03, 1.30505711e-02,
          8.15660693e-03, 1.63132139e-02, 1.14192497e-02, 9.78792831e-03,
          1.79445352e-02, 1.79445352e-02, 6.52528554e-03, 1.63132139e-03,
          1.30505711e-02, 3.26264277e-03, 1.63132139e-03, 1.30505711e-02,
          1.63132139e-02, 1.30505711e-02, 9.78792831e-03, 1.14192497e-02,
          1.14192497e-02, 1.30505711e-02, 6.52528554e-03, 9.78792831e-03 ]
      - [ 6.82593836e-03, 6.82593836e-03, 3.41296918e-03, 6.82593836e-03,
          6.82593836e-03, 0., 2.04778146e-02, 4.77815680e-02,
          1.02389073e-02, 0., 2.04778146e-02, 3.41296918e-03,
          6.82593836e-03, 6.82593836e-03, 1.02389073e-02, 1.70648452e-02,
          0., 6.82593836e-03, 6.82593836e-03, 1.36518767e-02,
          1.02389073e-02, 0., 1.70648452e-02, 1.02389073e-02,
          2.38907840e-02, 3.41296918e-03, 0., 1.36518767e-02,
          6.82593836e-03, 6.82593836e-03, 1.02389073e-02, 3.41296918e-03,
          6.82593836e-03, 6.82593836e-03, 6.82593836e-03, 3.41296918e-03,
          6.82593836e-03, 6.82593836e-03, 0., 6.82593836e-03,
          3.41296918e-03, 3.07167228e-02, 1.36518767e-02, 3.41296918e-03,
          6.82593836e-03, 0., 1.36518767e-02, 3.41296918e-03,
          2.38907840e-02, 6.82593836e-03, 2.38907840e-02, 6.82593836e-03,
          1.70648452e-02, 3.41296918e-03, 1.70648452e-02, 6.82593836e-03,
          3.41296904e-02, 6.82593836e-03, 1.36518767e-02, 2.38907840e-02,
          3.41296918e-03, 3.41296918e-03, 3.41296918e-03, 3.41296918e-03,
          3.41296918e-03, 1.02389073e-02, 6.82593836e-03, 2.04778146e-02,
          3.41296918e-03, 0., 6.82593836e-03, 1.36518767e-02,
          6.82593836e-03, 2.73037534e-02, 1.70648452e-02, 6.82593836e-03,
          1.70648452e-02, 3.75426598e-02, 1.02389073e-02, 1.02389073e-02,
          6.82593836e-03, 1.02389073e-02, 1.70648452e-02, 1.02389073e-02,
          1.70648452e-02, 2.04778146e-02, 3.41296918e-03, 3.07167228e-02,
          3.41296918e-03, 3.41296918e-03, 3.41296918e-03, 1.70648452e-02,
          0., 6.82593836e-03, 3.41296918e-03, 1.02389073e-02,
          6.82593836e-03, 0., 3.41296918e-03, 3.41296918e-03 ]
      - [ 1.29870130e-02, 3.24675324e-03, 9.74025950e-03, 6.49350649e-03,
          6.49350649e-03, 2.92207785e-02, 3.57142873e-02, 2.59740259e-02,
          3.24675324e-03, 0., 6.49350649e-03, 1.29870130e-02,
          1.29870130e-02, 0., 1.29870130e-02, 3.24675324e-03,
          6.49350649e-03, 0., 1.29870130e-02, 1.62337665e-02,
          2.27272734e-02, 0., 1.62337665e-02, 6.49350649e-03,
          6.49350649e-03, 0., 9.74025950e-03, 9.74025950e-03,
          6.49350649e-03, 9.74025950e-03, 1.62337665e-02, 6.49350649e-03,
          6.49350649e-03, 1.29870130e-02, 6.49350649e-03, 4.54545468e-02,
          0., 9.74025950e-03, 2.27272734e-02, 0., 3.24675324e-03,
          3.24675324e-03, 6.49350649e-03, 6.49350649e-03, 6.49350649e-03,
          3.24675324e-03, 1.62337665e-02, 3.24675324e-03, 6.49350649e-03,
          9.74025950e-03, 1.94805190e-02, 6.49350649e-03, 0.,
          3.24675324e-03, 9.74025950e-03, 3.24675324e-03, 9.74025950e-03,
          1.94805190e-02, 1.29870130e-02, 6.49350649e-03, 3.24675324e-03,
          9.74025950e-03, 9.74025950e-03, 9.74025950e-03, 3.24675324e-03,
          0., 1.29870130e-02, 3.24675324e-03, 3.24675324e-03,
          1.29870130e-02, 1.94805190e-02, 1.29870130e-02, 9.74025950e-03,
          2.27272734e-02, 1.29870130e-02, 3.24675324e-03, 9.74025950e-03,
          6.49350649e-03, 1.94805190e-02, 1.62337665e-02, 9.74025950e-03,
          6.49350649e-03, 6.49350649e-03, 1.62337665e-02, 1.62337665e-02,
          1.94805190e-02, 0., 1.94805190e-02, 9.74025950e-03,
          2.59740259e-02, 1.29870130e-02, 1.94805190e-02, 1.62337665e-02,
          6.49350649e-03, 3.24675324e-03, 3.24675324e-03, 9.74025950e-03,
          6.49350649e-03, 0., 3.24675324e-03 ]
      - [ 2.58899685e-02, 1.61812305e-02, 0., 1.29449842e-02,
          6.47249212e-03, 3.55987065e-02, 1.29449842e-02, 1.00323625e-01,
          0., 0., 0., 6.47249212e-03, 9.70873795e-03, 0., 1.61812305e-02,
          2.58899685e-02, 6.47249212e-03, 9.70873795e-03, 0.,
          1.29449842e-02, 6.47249212e-03, 0., 6.47249212e-03,
          1.61812305e-02, 3.23624606e-03, 0., 9.70873795e-03,
          9.70873795e-03, 9.70873795e-03, 3.23624606e-03, 9.70873795e-03,
          9.70873795e-03, 0., 0., 6.47249212e-03, 1.29449842e-02, 0.,
          6.47249212e-03, 3.23624606e-03, 1.29449842e-02, 0., 0.,
          3.23624606e-03, 9.70873795e-03, 1.61812305e-02, 6.47249212e-03,
          1.29449842e-02, 3.23624606e-03, 1.61812305e-02, 3.23624606e-03,
          9.70873795e-03, 1.29449842e-02, 1.61812305e-02, 0.,
          9.70873795e-03, 1.61812305e-02, 4.20711972e-02, 6.47249212e-03,
          1.29449842e-02, 3.23624611e-02, 0., 3.23624606e-03,
          1.61812305e-02, 6.47249212e-03, 6.47249212e-03, 9.70873795e-03,
          0., 2.58899685e-02, 6.47249212e-03, 0., 3.23624606e-03,
          1.61812305e-02, 3.23624606e-03, 3.23624606e-03, 3.23624606e-03,
          0., 6.47249212e-03, 0., 6.47249212e-03, 1.61812305e-02,
          1.29449842e-02, 3.23624606e-03, 9.70873795e-03, 1.29449842e-02,
          8.09061527e-02, 1.61812305e-02, 0., 3.23624606e-03, 0.,
          1.29449842e-02, 6.47249212e-03, 3.23624606e-03, 3.23624606e-03,
          0., 1.61812305e-02, 6.47249212e-03, 9.70873795e-03,
          1.61812305e-02, 0., 0. ]
      - [ 0., 6.02409616e-03, 9.03614424e-03, 0., 3.01204808e-03,
          1.50602404e-02, 5.12048155e-02, 4.81927693e-02, 3.01204808e-03,
          0., 9.03614424e-03, 3.01204808e-02, 1.80722885e-02, 0.,
          3.01204808e-03, 1.20481923e-02, 0., 0., 3.01204808e-03,
          1.80722885e-02, 6.02409616e-03, 0., 1.80722885e-02,
          9.03614424e-03, 3.31325307e-02, 3.01204808e-03, 9.03614424e-03,
          6.02409616e-03, 1.20481923e-02, 3.01204808e-03, 1.20481923e-02,
          0., 0., 0., 1.80722885e-02, 6.02409616e-02, 6.02409616e-03,
          3.01204808e-03, 0., 0., 0., 9.03614424e-03, 6.02409616e-03, 0.,
          0., 6.02409616e-03, 0., 3.01204808e-03, 9.03614424e-03,
          6.02409616e-03, 3.31325307e-02, 3.01204808e-03, 1.50602404e-02,
          3.01204808e-03, 3.61445770e-02, 3.01204808e-03, 1.50602404e-02,
          0., 6.02409616e-03, 2.40963846e-02, 6.02409616e-03, 0.,
          9.03614424e-03, 9.03614424e-03, 1.50602404e-02, 0.,
          6.02409616e-03, 9.03614424e-03, 9.03614424e-03, 1.20481923e-02,
          0., 0., 0., 3.91566232e-02, 9.03614424e-03, 9.03614424e-03,
          6.02409616e-03, 2.40963846e-02, 3.01204808e-03, 6.02409616e-03,
          9.03614424e-03, 1.20481923e-02, 9.03614424e-03, 1.20481923e-02,
          6.92771077e-02, 2.40963846e-02, 9.03614424e-03, 3.01204808e-03,
          6.02409616e-03, 6.02409616e-03, 6.02409616e-03, 3.01204808e-03,
          6.02409616e-03, 0., 0., 0., 2.40963846e-02, 1.80722885e-02, 0.,
          6.02409616e-03 ]
      - [ 1.29032256e-02, 1.61290318e-02, 1.29032256e-02, 6.45161280e-03,
          3.22580640e-03, 3.22580640e-03, 1.61290318e-02, 3.87096778e-02,
          9.67741944e-03, 3.22580640e-03, 3.22580640e-03, 0.,
          3.22580636e-02, 0., 6.45161280e-03, 2.90322583e-02, 0., 0.,
          3.22580640e-03, 2.58064512e-02, 1.93548389e-02, 0.,
          3.22580640e-03, 9.67741944e-03, 1.29032256e-02, 0., 0., 0.,
          6.45161280e-03, 0., 1.29032256e-02, 0., 9.67741944e-03, 0.,
          1.61290318e-02, 2.90322583e-02, 1.29032256e-02, 0.,
          6.45161280e-03, 1.61290318e-02, 0., 3.22580640e-03, 0., 0.,
          1.29032256e-02, 1.61290318e-02, 3.22580640e-03, 0.,
          1.93548389e-02, 0., 0., 9.67741944e-03, 2.25806441e-02,
          6.45161280e-03, 9.67741944e-03, 9.67741944e-03, 1.29032256e-02,
          0., 1.29032256e-02, 1.29032256e-02, 2.90322583e-02,
          1.29032256e-02, 0., 3.22580640e-03, 6.45161280e-03,
          3.22580640e-03, 6.45161280e-03, 2.90322583e-02, 0.,
          2.58064512e-02, 3.22580640e-03, 3.22580640e-03, 3.22580640e-03,
          6.45161280e-03, 0., 3.22580640e-03, 3.22580640e-03, 0.,
          3.22580640e-03, 6.45161280e-03, 1.29032256e-02, 0.,
          3.22580640e-03, 1.93548389e-02, 1.22580640e-01, 4.19354849e-02,
          1.61290318e-02, 9.67741944e-03, 1.29032256e-02, 3.22580640e-03,
          6.45161280e-03, 9.67741944e-03, 1.29032256e-02, 6.45161280e-03,
          6.45161280e-03, 0., 6.45161280e-03, 2.25806441e-02,
          6.45161280e-03, 3.22580640e-03 ]
      - [ 1.74418613e-02, 1.16279069e-02, 1.16279069e-02, 5.81395347e-03,
          8.72093067e-03, 5.81395347e-03, 2.61627901e-02, 7.55813941e-02,
          0., 0., 0., 2.90697673e-03, 1.16279069e-02, 0., 1.45348832e-02,
          8.72093067e-03, 2.90697673e-03, 5.81395347e-03, 5.81395347e-03,
          2.90697664e-02, 8.72093067e-03, 0., 8.72093067e-03,
          2.90697673e-03, 2.03488376e-02, 0., 8.72093067e-03,
          2.03488376e-02, 5.81395347e-03, 0., 1.16279069e-02,
          5.81395347e-03, 5.81395347e-03, 2.90697673e-03, 1.45348832e-02,
          2.90697673e-03, 2.90697673e-03, 2.90697673e-03, 8.72093067e-03,
          8.72093067e-03, 5.81395347e-03, 0., 1.74418613e-02, 0.,
          4.36046496e-02, 5.81395347e-03, 8.72093067e-03, 2.90697673e-03,
          5.81395347e-03, 8.72093067e-03, 8.72093067e-03, 5.81395347e-03,
          2.90697673e-03, 5.81395347e-03, 1.45348832e-02, 0.,
          2.90697673e-03, 2.90697673e-03, 1.45348832e-02, 3.19767445e-02,
          5.81395347e-03, 2.32558139e-02, 2.90697673e-03, 2.90697673e-03,
          1.16279069e-02, 5.81395347e-03, 1.16279069e-02, 1.74418613e-02,
          0., 2.32558139e-02, 2.90697673e-03, 2.03488376e-02,
          2.90697673e-03, 1.74418613e-02, 1.45348832e-02, 0.,
          8.72093067e-03, 1.45348832e-02, 2.90697673e-03, 2.90697673e-03,
          8.72093067e-03, 5.81395347e-03, 8.72093067e-03, 2.61627901e-02,
          4.94186059e-02, 2.90697664e-02, 1.16279069e-02, 0.,
          5.81395347e-03, 1.45348832e-02, 8.72093067e-03, 2.03488376e-02,
          2.03488376e-02, 2.90697673e-03, 0., 0., 0., 5.81395347e-03, 0.,
          1.45348832e-02 ]
      - [ 2.12765951e-02, 3.19148935e-02, 0., 0., 0., 0., 2.12765951e-02,
          1.27659574e-01, 2.12765951e-02, 5.31914877e-03, 0., 0.,
          3.19148935e-02, 0., 2.65957434e-02, 1.59574468e-02,
          5.31914877e-03, 0., 1.06382975e-02, 1.06382975e-02,
          1.59574468e-02, 0., 5.31914877e-03, 0., 1.06382975e-02,
          5.31914877e-03, 5.31914877e-03, 0., 5.31914877e-03,
          5.31914877e-03, 1.59574468e-02, 0., 0., 1.06382975e-02, 0., 0.,
          0., 0., 5.31914877e-03, 0., 0., 0., 5.31914877e-03, 0.,
          1.59574468e-02, 1.59574468e-02, 0., 1.06382975e-02,
          5.31914877e-03, 0., 0., 1.06382975e-02, 1.06382975e-02,
          5.31914877e-03, 5.31914877e-03, 5.31914877e-03, 4.25531901e-02,
          5.31914877e-03, 5.31914877e-03, 5.85106350e-02, 1.06382975e-02,
          2.12765951e-02, 0., 5.31914877e-03, 5.31914877e-03, 0.,
          1.06382975e-02, 0., 0., 5.31914877e-03, 0., 1.06382975e-02,
          2.12765951e-02, 1.59574468e-02, 5.31914877e-03, 0., 0., 0.,
          1.06382975e-02, 1.06382975e-02, 1.06382975e-02, 5.31914877e-03,
          1.06382975e-02, 2.12765951e-02, 8.51063803e-02, 4.78723384e-02,
          5.31914877e-03, 5.31914877e-03, 1.06382975e-02, 0., 0., 0.,
          1.06382975e-02, 0., 1.06382975e-02, 0., 0., 1.06382975e-02,
          5.31914877e-03, 1.06382975e-02 ]
      - [ 1.35135138e-02, 1.35135138e-02, 0., 9.00900923e-03,
          9.00900923e-03, 9.00900923e-03, 7.20720738e-02, 3.60360369e-02,
          9.00900923e-03, 4.50450461e-03, 0., 9.00900923e-03,
          2.70270277e-02, 0., 4.50450461e-03, 1.35135138e-02, 0.,
          4.50450461e-03, 1.80180185e-02, 1.35135138e-02, 1.80180185e-02,
          0., 4.50450461e-03, 9.00900923e-03, 4.50450461e-03, 0.,
          9.00900923e-03, 1.80180185e-02, 0., 2.25225240e-02,
          9.00900923e-03, 4.50450461e-03, 4.50450461e-03, 4.50450461e-03,
          1.35135138e-02, 2.70270277e-02, 4.50450461e-03, 4.50450461e-03,
          4.50450461e-03, 1.35135138e-02, 4.50450461e-03, 0.,
          1.35135138e-02, 0., 9.00900923e-03, 4.50450461e-03,
          9.00900923e-03, 4.50450461e-03, 0., 4.50450461e-03,
          1.35135138e-02, 1.35135138e-02, 4.50450461e-03, 4.50450461e-03,
          0., 4.50450461e-03, 0., 2.70270277e-02, 9.00900923e-03, 0.,
          1.35135138e-02, 2.25225240e-02, 2.25225240e-02, 9.00900923e-03,
          9.00900923e-03, 9.00900923e-03, 9.00900923e-03, 1.35135138e-02,
          0., 9.00900923e-03, 1.80180185e-02, 1.80180185e-02,
          4.50450461e-03, 2.25225240e-02, 1.80180185e-02, 0.,
          4.50450461e-03, 1.80180185e-02, 4.50450461e-03, 0.,
          9.00900923e-03, 4.50450461e-03, 0., 4.50450461e-03,
          5.40540554e-02, 3.60360369e-02, 1.35135138e-02, 0.,
          1.35135138e-02, 9.00900923e-03, 4.50450461e-03, 1.80180185e-02,
          4.50450461e-03, 4.50450461e-03, 0., 9.00900923e-03, 0.,
          4.50450461e-03, 4.50450461e-03, 1.35135138e-02 ]
      - [ 9.43396240e-03, 0., 0., 4.71698120e-03, 0., 1.88679248e-02, 0.,
          0., 4.71698120e-03, 4.71698120e-03, 4.71698120e-03,
          2.83018872e-02, 4.71698120e-03, 0., 4.71698120e-03,
          4.71698120e-03, 9.43396240e-03, 4.71698120e-03, 0.,
          4.71698120e-03, 1.88679248e-02, 0., 2.35849060e-02,
          3.77358496e-02, 4.71698120e-03, 4.71698120e-03, 0.,
          2.35849060e-02, 1.41509436e-02, 9.43396240e-03, 4.71698120e-03,
          0., 4.71698120e-03, 4.71698120e-03, 9.43396240e-03,
          9.43396240e-03, 2.35849060e-02, 9.43396240e-03, 4.71698120e-03,
          1.41509436e-02, 0., 0., 1.41509436e-02, 1.41509436e-02,
          3.30188684e-02, 2.83018872e-02, 2.35849060e-02, 9.43396240e-03,
          0., 9.43396240e-03, 9.43396240e-03, 9.43396240e-03,
          9.43396240e-03, 0., 4.71698120e-03, 1.41509436e-02,
          1.41509436e-02, 0., 1.41509436e-02, 9.43396240e-03,
          1.41509436e-02, 1.88679248e-02, 9.43396240e-03, 1.41509436e-02,
          1.88679248e-02, 0., 1.88679248e-02, 4.71698120e-03, 0.,
          3.77358496e-02, 2.35849060e-02, 4.71698120e-03, 0.,
          4.71698120e-03, 0., 4.71698120e-03, 1.88679248e-02,
          4.71698120e-03, 1.88679248e-02, 1.41509436e-02, 1.88679248e-02,
          9.43396240e-03, 9.43396240e-03, 1.41509436e-02, 2.35849060e-02,
          3.77358496e-02, 1.41509436e-02, 0., 4.71698120e-03,
          1.41509436e-02, 0., 9.43396240e-03, 4.71698120e-03,
          9.43396240e-03, 9.43396240e-03, 0., 9.43396240e-03, 0.,
          9.43396240e-03, 2.35849060e-02 ]
      - [ 5.43478271e-03, 1.08695654e-02, 0., 0., 1.08695654e-02,
          1.03260875e-01, 2.17391308e-02, 8.69565234e-02, 0., 0., 0.,
          1.63043477e-02, 5.43478271e-03, 0., 5.43478271e-03,
          1.08695654e-02, 0., 5.43478271e-03, 5.43478271e-03,
          1.63043477e-02, 2.17391308e-02, 0., 5.43478280e-02,
          3.26086953e-02, 0., 0., 5.43478271e-03, 1.08695654e-02, 0.,
          1.08695654e-02, 5.43478271e-03, 5.43478271e-03, 5.43478271e-03,
          1.08695654e-02, 0., 2.17391308e-02, 0., 0., 5.43478271e-03,
          5.43478271e-03, 0., 0., 5.43478271e-03, 0., 2.17391308e-02, 0.,
          1.63043477e-02, 2.17391308e-02, 1.08695654e-02, 1.08695654e-02,
          1.63043477e-02, 0., 0., 0., 1.08695654e-02, 5.43478271e-03, 0.,
          0., 5.43478271e-03, 3.26086953e-02, 5.43478271e-03,
          5.43478271e-03, 0., 2.17391308e-02, 1.63043477e-02,
          5.43478271e-03, 2.17391308e-02, 1.08695654e-02, 0.,
          1.63043477e-02, 1.08695654e-02, 0., 0., 0., 0., 1.63043477e-02,
          5.43478271e-03, 1.63043477e-02, 1.08695654e-02, 1.08695654e-02,
          5.43478271e-03, 1.08695654e-02, 0., 5.43478271e-03,
          3.26086953e-02, 5.43478271e-03, 1.63043477e-02, 0., 0.,
          1.63043477e-02, 5.43478271e-03, 1.63043477e-02, 2.17391308e-02,
          0., 0., 5.43478271e-03, 1.63043477e-02, 5.43478271e-03, 0.,
          5.43478271e-03 ]
      - [ 1.98511165e-02, 7.44416844e-03, 4.96277912e-03, 1.98511165e-02,
          0., 0., 1.48883369e-02, 7.69230798e-02, 0., 1.24069480e-02,
          4.96277912e-03, 4.96277912e-03, 2.23325063e-02, 0.,
          1.24069480e-02, 2.48138956e-03, 7.44416844e-03, 7.44416844e-03,
          1.73697267e-02, 2.72952858e-02, 9.92555823e-03, 0.,
          2.23325063e-02, 4.96277912e-03, 1.98511165e-02, 4.96277912e-03,
          1.98511165e-02, 7.44416844e-03, 2.72952858e-02, 2.48138956e-03,
          1.24069480e-02, 0., 7.44416844e-03, 4.96277912e-03,
          7.44416844e-03, 0., 7.44416844e-03, 4.96277912e-03,
          1.48883369e-02, 2.48138956e-03, 2.48138956e-03, 2.48138956e-03,
          0., 0., 2.97766738e-02, 7.44416844e-03, 0., 4.96277912e-03,
          9.92555823e-03, 1.24069480e-02, 4.96277912e-03, 1.24069480e-02,
          7.44416844e-03, 4.96277912e-03, 2.23325063e-02, 1.73697267e-02,
          7.44416844e-03, 2.48138956e-03, 9.92555823e-03, 9.92555823e-03,
          2.48138956e-03, 1.73697267e-02, 4.96277912e-03, 2.48138956e-03,
          4.96277912e-03, 7.44416844e-03, 0., 1.73697267e-02,
          2.48138956e-03, 2.23325063e-02, 4.96277912e-03, 1.73697267e-02,
          0., 9.92555823e-03, 1.24069480e-02, 4.96277912e-03,
          1.24069480e-02, 2.48138956e-03, 0., 1.73697267e-02, 0.,
          2.48138956e-03, 7.44416844e-03, 2.48138956e-03, 5.70719615e-02,
          1.48883369e-02, 2.48138956e-03, 0., 1.24069480e-02, 0.,
          4.96277912e-03, 1.98511165e-02, 2.97766738e-02, 7.44416844e-03,
          2.48138956e-03, 4.96277912e-03, 0., 4.46650125e-02,
          4.96277912e-03, 4.96277912e-03 ]
      - [ 1.57068074e-02, 5.23560215e-03, 0., 0., 5.23560215e-03,
          6.28272295e-02, 5.23560215e-03, 4.71204184e-02, 0.,
          2.09424086e-02, 5.23560215e-03, 5.23560215e-03, 5.23560215e-03,
          5.23560215e-03, 0., 0., 1.57068074e-02, 0., 5.23560215e-03,
          3.14136147e-02, 5.23560215e-03, 2.09424086e-02, 5.23560215e-03,
          0., 5.23560215e-03, 0., 0., 0., 1.04712043e-02, 1.04712043e-02,
          5.23560215e-03, 3.14136147e-02, 1.57068074e-02, 2.61780098e-02,
          5.23560215e-03, 4.18848172e-02, 1.04712043e-02, 0.,
          5.23560215e-03, 2.09424086e-02, 0., 5.23560215e-03,
          1.04712043e-02, 1.57068074e-02, 0., 5.23560215e-03, 0.,
          1.04712043e-02, 5.23560215e-03, 5.23560215e-03, 0.,
          5.23560215e-03, 5.23560215e-03, 2.09424086e-02, 0., 0., 0.,
          5.23560215e-03, 5.23560215e-03, 0., 5.23560215e-03,
          2.61780098e-02, 5.23560215e-03, 0., 5.23560215e-03,
          1.57068074e-02, 7.85340294e-02, 0., 5.23560215e-03,
          2.61780098e-02, 1.04712043e-02, 0., 0., 1.04712043e-02,
          5.23560215e-03, 5.23560215e-03, 5.23560215e-03, 0.,
          7.32984319e-02, 1.04712043e-02, 0., 0., 5.23560215e-03, 0.,
          2.09424086e-02, 3.14136147e-02, 0., 5.23560215e-03,
          1.04712043e-02, 0., 1.57068074e-02, 0., 1.04712043e-02,
          5.23560215e-03, 0., 2.09424086e-02, 1.04712043e-02,
          5.23560215e-03, 1.04712043e-02, 5.23560215e-03 ]
      - [ 9.86842066e-03, 1.97368413e-02, 0., 3.28947371e-03,
          1.31578948e-02, 9.86842066e-03, 0., 1.31578948e-02,
          3.28947371e-03, 0., 6.57894742e-03, 1.31578948e-02,
          6.57894742e-03, 0., 2.63157897e-02, 2.96052638e-02,
          6.57894742e-03, 1.31578948e-02, 3.28947371e-03, 6.57894742e-03,
          2.30263155e-02, 0., 6.57894742e-03, 6.57894742e-03,
          6.57894742e-03, 3.28947371e-03, 2.63157897e-02, 1.97368413e-02,
          3.28947371e-03, 3.28947371e-03, 6.57894742e-03, 3.28947371e-03,
          2.63157897e-02, 6.57894742e-03, 0., 1.97368413e-02,
          6.57894742e-03, 9.86842066e-03, 9.86842066e-03, 0., 0., 0.,
          2.96052638e-02, 6.57894742e-03, 3.28947371e-03, 1.64473690e-02,
          3.28947380e-02, 9.86842066e-03, 9.86842066e-03, 2.63157897e-02,
          2.30263155e-02, 0., 1.64473690e-02, 2.63157897e-02,
          1.64473690e-02, 2.30263155e-02, 9.86842066e-03, 1.97368413e-02,
          6.57894742e-03, 6.57894742e-03, 0., 9.86842066e-03, 0.,
          1.64473690e-02, 3.28947371e-03, 3.28947371e-03, 9.86842066e-03,
          2.96052638e-02, 3.28947371e-03, 0., 2.63157897e-02, 0.,
          3.28947371e-03, 1.64473690e-02, 3.28947371e-03, 0.,
          6.57894742e-03, 6.57894742e-03, 1.64473690e-02, 9.86842066e-03,
          9.86842066e-03, 3.28947371e-03, 6.57894742e-03, 6.57894742e-03,
          2.63157897e-02, 9.86842066e-03, 3.28947371e-03, 6.57894742e-03,
          0., 1.31578948e-02, 2.63157897e-02, 6.57894742e-03,
          1.31578948e-02, 3.28947371e-03, 6.57894742e-03, 6.57894742e-03,
          1.64473690e-02, 6.57894742e-03, 3.28947371e-03, 6.57894742e-03 ]
      - [ 1.05900150e-02, 1.51285925e-03, 1.05900150e-02, 1.21028740e-02,
          9.07715596e-03, 6.35400862e-02, 1.05900150e-02, 3.02571850e-03,
          3.02571850e-03, 3.02571850e-03, 1.51285925e-03, 9.07715596e-03,
          9.07715596e-03, 1.51285925e-03, 7.56429601e-03, 6.05143700e-03,
          3.02571850e-03, 7.56429601e-03, 6.05143700e-03, 9.07715596e-03,
          4.53857798e-03, 0., 7.56429601e-03, 6.05143700e-03,
          4.99243550e-02, 3.02571850e-03, 6.05143700e-03, 1.36157330e-02,
          7.56429601e-03, 9.07715596e-03, 3.02571850e-03, 3.02571850e-03,
          6.05143700e-03, 3.02571850e-03, 6.05143700e-03, 4.99243550e-02,
          7.56429601e-03, 1.05900150e-02, 1.21028740e-02, 3.02571850e-03,
          0., 1.51285925e-03, 1.36157330e-02, 9.07715596e-03,
          1.36157330e-02, 3.02571850e-03, 1.36157330e-02, 1.51285920e-02,
          3.02571850e-03, 6.05143700e-03, 6.80786669e-02, 1.51285925e-03,
          3.02571850e-03, 1.21028740e-02, 4.84114960e-02, 1.36157330e-02,
          4.53857798e-03, 7.56429601e-03, 4.53857798e-03, 3.02571850e-03,
          1.05900150e-02, 4.53857798e-03, 7.56429601e-03, 1.51285920e-02,
          6.05143700e-03, 4.53857798e-03, 1.51285925e-03, 1.36157330e-02,
          3.02571850e-03, 1.66414510e-02, 9.07715596e-03, 7.56429601e-03,
          1.51285925e-03, 3.17700431e-02, 7.56429601e-03, 4.53857798e-03,
          1.66414510e-02, 3.02571850e-03, 3.02571850e-03, 1.21028740e-02,
          4.53857798e-03, 4.53857798e-03, 3.02571850e-03, 4.53857798e-03,
          4.53857798e-03, 1.81543119e-02, 1.66414510e-02, 3.02571850e-03,
          3.02571850e-03, 1.66414510e-02, 1.21028740e-02, 1.51285920e-02,
          1.36157330e-02, 4.53857798e-03, 6.05143700e-03, 1.21028740e-02,
          7.56429601e-03, 1.21028740e-02, 7.56429601e-03, 6.05143700e-03 ]
      - [ 3.28947380e-02, 0., 0., 6.57894742e-03, 0., 6.57894742e-03,
          8.55263174e-02, 7.89473653e-02, 0., 6.57894742e-03, 0.,
          6.57894742e-03, 1.97368413e-02, 0., 6.57894742e-03,
          1.31578948e-02, 0., 0., 6.57894742e-03, 7.23684207e-02,
          1.97368413e-02, 0., 0., 0., 1.97368413e-02, 0., 0., 0., 0., 0.,
          0., 1.31578948e-02, 0., 3.28947380e-02, 0., 1.31578948e-02, 0.,
          0., 0., 0., 0., 1.31578948e-02, 0., 6.57894742e-03,
